241 400
M009_ON -0.634070 0.277437 -0.793342 0.508650 -0.591793 0.423989 -0.733408 -0.112405 -0.812489 0.542308 -0.226767 -0.748325 0.725183 0.009647 -0.760945 0.371422 -1.256006 -0.125870 -0.275731 0.196510 -1.793758 0.335488 -0.753708 -0.729800 0.715074 -0.483024 -0.919557 -0.108400 -0.414885 0.001104 -0.494095 -0.434839 0.496241 0.266327 0.330713 -0.459192 0.201232 0.959552 -0.222638 -0.796257 1.256480 0.105870 -0.722827 0.847968 0.179791 -0.362854 0.810810 -0.801780 0.092812 0.192606 -0.178334 -0.177182 1.181816 0.470663 0.158750 -0.420503 0.545658 -0.231322 -0.616507 0.030092 -0.682030 -0.453475 0.353056 0.537965 -0.210456 -0.620742 0.170982 0.011887 -0.191622 0.721301 0.021733 0.275407 0.113922 0.097985 -0.217551 -0.407557 0.753824 0.174027 0.406338 -0.140624 0.145723 -0.327246 0.970680 0.475690 0.236100 -0.152044 0.074166 0.176812 -0.241101 0.530604 0.495330 -0.117861 0.121849 0.021049 -1.578811 0.329470 -0.112058 0.356473 0.001356 -0.594485 -0.182215 -0.832877 -0.069311 -0.959241 0.036607 -0.453114 0.251050 0.749004 -0.356106 -0.171170 0.319123 -0.181118 0.077433 0.167249 0.670613 0.573373 0.012106 -0.348364 1.029063 -0.104211 0.259252 0.338185 -0.224771 0.229478 -0.776289 0.265712 1.153607 -0.009652 -0.436698 -0.001160 0.156296 -0.369077 -0.669590 0.342687 0.306110 0.069983 -0.108421 -0.170287 -0.062844 0.172504 0.387645 0.183231 -0.023413 -0.240350 0.398588 0.225796 0.074341 -0.270047 -1.144401 0.058636 -0.272122 0.486585 -1.250830 -0.098475 0.212527 -0.710621 -1.321178 -0.141529 -0.418310 0.526611 0.841286 -1.158746 -0.681903 0.020118 -0.751011 0.595879 1.024267 -0.407846 1.087088 -0.714471 -0.349813 0.448610 0.721620 0.427223 0.439984 -0.093640 -0.128239 0.273353 -0.507617 0.185897 -0.874239 0.010990 0.565321 -1.221556 -1.341371 0.554361 0.036931 0.575157 0.354739 -0.487553 0.344276 0.298150 -1.106804 -0.751861 -0.281778 -0.012249 -0.884311 0.537538 -0.138294 -1.064300 -0.121422 0.921315 0.620343 -0.927608 0.317912 0.354095 0.545836 0.619218 0.856410 0.082943 0.223345 -1.010333 -1.341652 -0.341563 -0.067491 -0.807281 -0.571252 0.114339 -0.521788 1.161936 -0.256216 -0.009493 -0.132770 -0.218333 0.595095 0.323367 -0.503796 -0.024988 0.481784 0.454312 -0.011242 0.131743 0.468266 0.710120 0.314887 -0.210940 -0.174584 -0.142079 -0.210771 1.577568 0.238884 -0.261066 -1.215749 -0.466943 -0.624571 0.268051 -0.036356 0.184159 -0.069901 0.109089 -0.418563 0.818518 -0.269699 -0.177990 -0.201873 0.133817 -0.038116 0.680747 -0.257478 -0.418241 0.132373 0.134233 0.472053 -0.159014 0.114471 0.337456 -0.806628 0.066799 0.166883 0.629333 -0.006342 0.341262 -0.167921 -0.229226 -0.006299 -0.498175 0.134976 1.081248 -0.219711 -0.627043 0.501956 0.419980 -0.560885 -0.145083 -0.425480 -0.028885 0.127398 -0.242790 -0.072193 0.679509 0.552618 -0.906739 0.110544 -0.077097 -0.847786 0.289350 -0.334162 0.306656 0.075297 -0.675683 0.405549 0.597446 -1.387531 -0.632099 -0.750859 0.475498 0.280461 0.350361 -0.909686 0.388614 0.200278 0.191779 0.270604 -0.624381 0.432053 0.494625 -0.663719 -0.349047 0.983498 0.801722 -0.410866 0.383326 0.452609 -0.225882 0.208938 -0.567496 0.462427 0.291433 0.358579 -0.819493 0.136575 -0.236850 0.973458 -0.960762 0.326999 0.158335 -0.298809 -0.953859 -0.958389 0.055849 -0.125749 -0.641624 -0.171118 0.814542 1.361465 -0.209793 0.049612 -0.674196 -0.293556 0.346000 -0.693257 -1.045133 -0.089015 -0.664226 -0.918117 0.489068 -0.201137 -0.534923 -0.136758 0.291020 -1.441472 0.401598 0.302036 0.859422 -1.120849 -0.657277 0.641528 0.066815 0.264819 0.416351 -0.626698 0.447250 0.204888 0.402229 -0.858240 -0.374009 1.080307 0.651209 0.109401 -0.200300 0.689772 0.820019 1.012076 -0.059638 0.073654 0.463430 0.267338 0.126545 -0.260482 -0.549679 1.024250 0.449479 0.724085 -0.244028 -0.197904 -1.504789 0.452425 0.591444 0.643305 -0.551017
M009_OFF -1.244371 0.144165 -0.539720 0.170216 -0.804250 0.810895 -0.941409 -0.142267 -0.739405 0.302294 -0.055739 -1.019189 0.798284 0.095371 -0.594513 0.134513 -0.769136 -0.210642 -0.391194 0.346257 -1.889008 0.302340 -0.807845 -0.895224 0.225105 -1.022305 -0.776662 -0.298741 0.194960 -0.071954 -0.592016 -0.705732 0.269212 0.198424 0.745152 0.050632 -0.170383 0.736004 -0.362591 -0.912098 0.849709 -0.041851 -0.728056 0.847835 -0.165568 -0.321177 0.544332 -0.231641 -0.001505 0.105495 -0.262593 -0.267068 1.124227 0.144055 0.133943 -0.237609 0.436818 -0.102804 -0.490382 0.426197 -0.477674 -0.115860 0.361890 0.404602 -0.253013 -0.413226 0.037041 -0.259130 0.132597 0.318566 -0.202428 0.359170 0.279631 -0.020479 -0.209403 -0.506361 1.053831 -0.115843 0.253836 -0.274290 0.630843 -0.198885 1.347873 0.638153 0.311046 -0.281233 0.337781 0.566529 -0.013963 1.054771 0.648076 0.287671 0.321926 0.110331 -1.456918 0.470199 -0.193540 0.353178 0.174456 -0.754434 -0.338150 -0.916783 -0.299313 -0.780365 0.264056 -0.391029 -0.223786 0.786759 -0.276224 0.064059 0.488013 -0.450872 0.042696 0.496323 0.880202 0.602568 0.176973 -0.314113 0.606696 -0.349792 0.486194 0.181873 0.026770 0.329614 -0.249309 0.649248 1.374054 0.388685 -0.460945 0.163948 0.323718 0.125383 -0.227536 0.226153 0.404200 -0.230754 0.361129 -0.374819 0.031980 0.034345 0.371205 0.058187 -0.321397 -0.110471 0.089111 0.319981 -0.192934 -0.195728 -1.132920 -0.282841 -0.629198 0.696455 -1.424897 -0.517218 0.160880 -0.275167 -1.485759 -0.271506 -0.321779 0.226334 0.874944 -1.010206 -0.651145 0.433588 -0.714688 0.464506 0.389792 -0.464151 0.987028 -0.802920 0.083127 0.359257 0.761145 0.451955 0.395539 0.314976 -0.026472 -0.011341 -0.215083 -0.204019 -0.871015 0.000612 0.609143 -1.040953 -1.228920 0.847154 0.115252 0.376936 0.429356 -0.303786 -0.075846 0.166072 -1.180805 -1.004173 -0.232380 -0.385479 -0.958728 0.593341 -0.205714 -0.805558 -0.614668 1.341773 0.783692 -1.420427 0.367441 0.496221 0.630910 0.541410 0.903861 -0.001732 0.321553 -0.409385 -1.219321 -0.476010 -0.008962 -0.954011 -0.777879 0.198220 -0.490021 1.354653 -0.320969 -0.029177 -0.422920 -0.520055 0.373323 0.172527 -0.090496 -0.247441 0.041308 0.392485 0.059881 -0.053445 0.286416 0.727295 0.461917 -0.191660 -0.196697 -0.316495 0.068735 1.299342 0.014988 0.085570 -1.149466 -0.703450 -0.615413 0.440515 -0.136684 -0.362292 -0.188713 0.548152 -0.573501 0.947077 -0.698658 -0.368434 -0.320450 -0.080024 -0.417906 0.283408 -0.130227 -0.584999 -0.010339 0.078982 0.516442 -0.217075 -0.282080 0.385275 -0.560160 0.064113 0.058330 0.594928 0.151183 -0.004214 -0.006971 -0.134957 0.385091 -0.359640 0.048037 0.991714 -0.273376 -0.739186 0.763487 0.444351 -0.294718 -0.202260 -0.151981 -0.041165 0.054295 -0.382425 -0.139493 0.646433 0.319661 -0.520880 0.492851 0.302492 -0.873317 0.299635 -0.241169 0.467131 0.382668 -0.801435 -0.031157 0.194128 -1.147975 -0.232801 -0.908416 0.420503 0.386395 0.237805 -0.522549 0.612019 0.189232 0.321000 0.312525 -0.583997 0.121152 0.237252 -0.371966 -0.218867 0.518991 0.477399 0.037126 0.319784 0.188761 -0.116334 -0.013621 -0.318983 0.465356 0.180465 0.402165 -0.532000 -0.158608 -0.805520 0.398077 -0.652381 0.091398 -0.142865 -0.378186 -0.825302 -0.786851 -0.101417 -0.108390 -1.022368 0.125617 1.039847 1.165917 -0.197985 0.158597 -0.498570 0.357604 0.084782 -0.552311 -0.638543 0.120683 -0.519250 -0.927857 0.167636 -0.157808 -0.496847 -0.333472 0.562553 -1.493049 0.071542 0.156203 0.566042 -0.693098 -0.673860 0.449876 0.104656 0.072562 0.315088 -0.591911 0.353117 0.302148 0.048373 -1.059367 -0.127230 1.067259 0.371231 0.123582 -0.467259 0.830153 0.018026 0.746064 0.297495 0.093437 0.493611 0.530040 0.131695 -0.411055 -0.076587 1.085867 0.457601 1.158283 -0.558185 -0.273010 -1.540140 0.589567 0.494505 0.540950 -0.422821
M020_OFF -0.000748 -1.341186 -0.314823 -0.457533 0.160312 0.340658 0.743845 1.529240 -1.127570 0.124836 0.562575 -0.070974 0.492947 0.248104 0.114130 0.844476 0.346970 -0.068924 0.359816 0.282530 -0.152636 0.284063 -0.086665 -0.225902 -0.635436 0.354365 -0.676136 -0.364641 -0.130942 -0.433909 0.508709 -0.114847 0.189202 0.022807 1.554527 -0.235269 -1.057701 0.133827 -0.293263 -0.363908 -0.064538 -0.914641 0.340064 0.217835 -0.106910 -0.063861 0.115957 0.880895 -0.126628 -0.106052 -0.347890 0.343548 -0.150639 0.344073 0.149005 -0.587155 -0.173430 -0.304739 0.016297 -0.103978 -0.324589 -0.583570 -0.113676 -0.540740 -0.017480 -0.872160 0.135422 0.777834 -0.171386 0.940625 0.409520 0.496417 -1.152497 0.860508 -0.078867 0.444067 0.003342 -0.345026 -0.007932 0.159766 -0.425039 -0.476539 0.182485 1.023284 0.403620 0.788468 0.083195 0.221474 0.091417 0.340227 0.144576 -0.294807 -0.162835 -0.391521 -0.913432 0.038430 0.025305 0.244380 0.362190 0.011431 0.276999 0.383992 0.567739 -0.474746 -0.315690 -0.053805 0.046100 0.131776 -0.146840 0.321763 0.212016 0.287201 0.127544 0.435584 0.101520 0.279027 0.316793 -1.177197 -0.360059 0.327980 -0.312840 0.151956 -0.350171 -0.705179 0.654217 0.370315 0.360474 -0.657720 -0.718895 0.339626 -0.048459 -0.060624 0.642095 0.289893 -0.401366 0.477007 -0.276303 0.181576 0.612923 -0.113850 0.275411 0.257801 -0.419463 -0.502851 -0.107915 0.227895 0.175976 0.207111 0.005694 -0.146640 -1.244951 1.021107 0.257178 -0.369789 0.227044 -0.478463 -0.601049 -0.139426 0.422609 -0.010094 -0.531524 -0.391474 -0.120058 0.590804 0.539663 0.065502 0.118288 -0.577236 0.223535 -0.084094 -0.801106 0.181999 -0.604472 0.608648 -0.621496 -0.581774 -0.335806 -0.056491 0.873313 -0.537846 -0.265815 0.465068 0.384418 -0.053810 0.558214 0.302383 0.491889 0.254479 0.536856 0.003187 0.178244 0.030330 -0.022288 -0.103733 -0.354712 0.052238 -0.294175 0.504181 0.176493 -0.116444 0.441210 0.792609 0.280828 -0.245714 -0.131101 0.283750 0.347019 -0.242871 0.532309 -0.181044 -0.018571 -0.124758 -0.290183 0.163434 -0.084129 -0.797670 0.119123 0.086966 0.016269 0.621346 0.145098 0.673512 0.473122 -0.293319 0.445736 0.504226 -0.626695 0.408795 0.215914 1.187627 -0.122264 -0.390680 0.246325 0.308374 -0.578890 0.102369 -0.286544 0.910155 -0.035752 -0.182061 -0.562618 -0.539862 -0.003619 -0.651753 -0.208583 -0.367684 0.643693 -0.614368 -0.437768 0.064724 0.446555 0.111616 -0.602369 -0.347530 1.127605 0.186717 0.318252 0.219902 -0.064638 0.271308 -0.274973 -0.109838 -1.102459 0.728735 -0.528580 0.439709 -0.156099 0.439096 0.769550 -0.057512 0.107475 -0.331925 0.425211 0.396510 -0.217449 0.037521 0.257025 -0.929247 -0.947461 0.007620 -0.037823 0.026728 -0.138016 0.373466 0.550622 0.250368 -0.022475 0.761128 -0.251516 0.474820 -0.545946 -0.135380 -0.337447 -0.112396 -0.227594 -0.154606 -0.027693 -0.166201 -0.370524 0.723836 -0.416312 0.866290 -0.133524 0.022843 1.316775 -0.646063 0.760061 -0.185261 -0.065322 -0.253154 -0.052814 0.258232 0.062584 0.392272 0.335544 -0.663528 0.467201 -0.567125 0.006643 -0.438912 0.490789 0.565751 0.296191 -0.604672 -0.225145 0.629820 -0.082552 0.596945 -0.142899 -0.378410 0.388594 -0.488470 0.581469 -0.013907 -0.216643 0.390795 -0.008663 -0.305778 -0.393794 -0.023515 0.192957 0.340324 -0.317335 0.515735 -0.202188 0.329687 0.074472 0.179724 -0.192836 0.101356 -0.173395 -0.099553 0.032486 0.025208 0.006639 -0.666128 -0.295838 0.040676 -0.263995 0.593344 -0.139230 0.452367 -0.247866 -0.071750 0.225272 0.252793 1.173604 0.462059 -0.245501 -0.010882 0.574159 -0.852102 0.067299 0.238122 0.105089 -0.233336 -0.267090 0.109887 -0.000226 -0.260917 -0.773107 0.224274 -0.011053 -0.476656 -0.676439 -0.422439 -0.255014 -0.801325 -0.386825 0.169998 -0.900177 -0.784519 -0.257868 0.658158 0.649088 -0.116843 -0.763003 0.357668 -0.199696 -0.068989
M020_ON -0.296387 -1.030136 0.614395 -1.005450 0.760646 -0.312565 0.765197 1.401715 -0.549116 -0.247662 0.356030 0.370099 -0.110123 -0.502811 0.642696 0.848505 0.276799 -0.654079 0.394760 0.082068 -0.105265 0.480544 0.103541 -0.497280 -0.554815 -0.541952 -0.398369 -0.182880 -0.530794 0.317041 0.100254 -0.446730 -0.047282 -0.048310 0.626132 -0.096206 -0.301356 -0.418762 -0.065094 -0.179273 -0.376723 -0.537629 0.421926 -0.167387 -0.188412 -0.410391 -0.276265 0.489622 -0.368870 -0.658326 -0.647292 -0.220145 -0.528689 -0.282937 0.059394 -0.405905 -0.498003 -0.675933 -0.685527 0.028423 -0.477744 -0.086779 -0.498574 0.250257 -0.620242 -0.749104 0.073672 0.406965 -0.070894 0.067513 0.565098 0.216526 -0.936149 0.962528 -0.678869 0.134853 0.241803 0.226748 -0.360246 -0.165582 -0.235676 -0.264573 0.362814 0.630774 0.708690 0.242349 0.059252 0.013115 -0.122065 0.354686 -0.258349 -0.800344 -0.110603 -0.371457 -0.284586 -0.023569 -0.130006 0.488844 0.044799 -0.428654 0.102628 -0.127842 0.245196 -0.333357 -0.616394 -0.070228 -0.099444 0.111937 -0.350361 0.745451 -0.212725 0.614276 0.018067 0.041207 0.643494 0.625068 -0.019290 -1.209625 -0.323358 0.030577 0.165483 0.106342 -0.154417 -0.465911 0.810629 0.182990 0.559336 -0.506413 -0.701751 0.468229 0.391369 -0.154464 0.062814 0.210679 -0.271735 0.643472 0.049768 0.345586 0.069064 -0.285116 0.081553 0.349174 -0.718186 -0.486025 -0.039151 0.637915 0.194986 -0.386409 -0.127900 -0.233758 -0.983176 0.964009 0.289641 0.029512 -0.109913 -0.036410 -0.512801 -0.276932 0.211606 0.192489 -0.227813 0.099432 -0.093371 0.258315 0.401210 0.609237 -0.019376 -0.430047 0.120104 -0.070500 -0.736587 0.086272 -0.784413 0.181468 -0.650676 -0.300909 -0.217544 -0.184949 0.840240 -0.500642 0.342939 0.424547 0.373009 -0.331990 0.934696 0.047091 0.309476 0.582719 0.778413 -0.064627 0.330055 -0.191866 0.557896 -0.788001 -0.361986 0.021736 -0.307506 0.160452 0.066588 0.013516 0.423211 0.410670 0.431659 -0.243742 -0.112529 0.259042 -0.333071 -0.157260 0.110583 -0.499584 -0.441615 0.496600 -0.348928 0.330912 0.134324 -0.630902 0.029420 -0.235223 -0.396775 0.187589 -0.246759 0.350872 0.606827 -0.374102 0.713785 0.158628 0.094066 0.783060 0.584719 0.381150 -0.506239 -0.384181 0.070491 0.018949 -0.340718 -0.051892 0.023885 0.634451 0.034349 0.188564 -0.013692 -0.531536 -0.346419 -0.132470 -0.081450 0.150238 0.657034 -0.389100 -0.640278 0.015323 -0.286999 0.502065 -0.807722 -0.063309 0.818813 0.105403 0.072068 0.345680 -0.442812 0.354256 -0.211738 -0.191943 -0.330432 0.116391 -0.897318 0.912428 -0.135436 0.087282 0.485635 0.088846 -0.412076 -0.353781 0.582344 -0.110282 0.223108 0.309435 0.539602 -0.202967 -0.640806 -0.114553 0.299528 0.163189 -0.283338 0.226560 0.188193 0.374168 0.385539 0.470502 -0.522480 0.485590 -0.027501 -0.067702 -0.546013 -0.553726 0.034744 -0.462345 -0.078690 -0.194173 0.071162 0.658391 -0.065393 0.256290 -0.855219 0.257986 0.507620 -0.752859 0.836090 -0.521894 -0.116183 -0.095197 0.176659 0.416966 -0.035657 0.473955 0.308347 -0.161802 0.014456 -0.286940 -0.012344 -0.088463 0.137909 0.705782 0.572573 -1.250495 -0.801188 1.070573 -0.158680 0.520524 -0.020350 -0.230782 0.346488 -0.484760 0.168755 0.362515 -0.963101 0.337872 -0.233465 -0.877263 -0.798212 -0.307139 0.415480 0.623692 -0.415888 -0.152601 -0.812353 0.109397 -0.010995 0.055172 0.421330 -0.894860 0.413904 0.190417 0.715213 -0.632193 -0.645416 -0.717447 -0.334399 0.009947 -0.146918 0.544401 0.100932 0.054187 0.041730 -0.634107 0.551257 0.201280 0.797796 0.160259 -0.586603 -0.330908 1.067730 -0.744667 -0.066165 0.339859 0.215058 0.240666 0.012236 0.159563 -0.414634 -0.042062 -0.386081 0.308411 0.420773 -0.482256 0.261735 -0.787272 -0.676554 -0.427813 -0.360054 -0.457414 -0.461282 -0.856454 0.230910 0.870678 0.443894 -0.349357 -0.206727 0.137777 0.656789 -1.137605
M019_OFF 0.503555 0.148615 -0.270119 1.174755 -0.444527 0.348641 -0.297725 -1.582885 0.256777 0.838179 0.076204 -0.808456 -0.822699 -0.467250 0.167960 0.397437 1.176435 -0.831203 -0.358724 -0.119923 0.174571 -0.099385 0.482232 -0.117242 -0.789726 1.100073 -0.085362 -0.022309 0.355286 -0.273311 0.765441 0.230151 -0.373332 0.165800 -0.456405 0.577973 0.643496 -1.105902 0.203643 -0.317750 -0.265720 -0.332497 -0.211776 -0.342757 0.078666 -0.241615 -0.115047 0.119993 0.971590 -0.794220 0.720705 -0.304586 0.255764 -0.490452 -0.274746 0.749539 0.345560 0.478537 0.093779 0.490708 0.289591 0.657033 0.695682 0.362486 0.374508 0.295416 0.380041 -0.089729 0.726726 -0.501248 -0.982237 -0.750132 -0.391058 -0.098468 0.780810 -0.368410 0.008885 0.449197 -0.418536 -0.407119 -0.335473 0.154848 -0.369737 -1.071238 0.401079 0.226246 0.214436 -1.352317 0.520935 -0.805027 -0.517309 -0.434766 -0.846239 0.009491 0.685723 -0.225868 0.173824 -0.264019 0.256986 0.058710 -0.063134 0.123260 -0.195005 0.765892 0.014385 0.647127 -0.282347 -0.281984 -0.455884 -0.396780 -0.145850 0.328192 -0.179907 0.024089 -0.965518 -0.299979 -0.106251 -0.049095 -0.610400 -0.288436 -0.260410 -0.299084 -0.070181 0.400316 0.637656 0.479925 -0.894301 -0.145621 -0.287404 0.410112 -0.292508 -0.072362 0.034968 0.486043 -0.602476 -0.219816 0.092428 -0.798880 0.727518 -0.113166 0.366317 0.690871 -0.871405 -0.947597 -0.009338 -0.235438 -0.062367 -0.662239 -0.098298 -0.441186 -0.677629 -0.020397 0.878615 -0.055889 -1.609856 -0.439343 0.582523 0.309341 0.154791 -0.287339 -0.201106 0.304167 0.350680 1.055059 0.308150 0.372286 0.063100 -0.243421 -0.706871 0.259271 -0.082781 0.002700 -0.303489 -0.544225 -0.437304 -0.746564 0.056355 0.109035 0.540411 0.439784 0.179008 0.865806 -0.243471 0.501675 0.519720 -0.172626 0.670755 0.258053 -0.109088 -0.026336 0.067868 -0.344902 0.259524 0.095479 0.155729 0.339908 0.552750 -0.435884 1.041886 0.023463 0.230442 -0.659492 0.091890 0.454371 0.361280 -0.629104 0.058646 -0.106904 0.400472 0.099951 -0.708662 -0.031762 1.092654 -0.925381 -0.188464 0.974212 0.141702 0.215078 1.587250 0.070705 1.145053 0.598698 -0.140782 -0.578019 -0.517981 -0.058344 -0.092435 0.397232 -0.578752 0.221088 0.275098 0.480776 -0.120494 -0.775339 -0.672626 -0.233631 -0.069280 -0.066507 -0.040320 -1.102434 -0.357982 0.669278 0.913725 0.366862 -0.450595 -0.572884 0.065249 0.168668 0.528892 -0.188463 0.003234 0.280042 0.398749 0.229102 0.192027 -0.327707 -0.020880 -0.439651 0.228208 0.202023 0.003259 0.003286 -0.877697 0.750217 -0.284476 0.551746 0.149903 0.537411 0.047924 -0.045683 0.116021 0.348886 0.830795 0.089129 0.044188 -0.446393 -0.056745 -0.255993 0.221733 0.197134 -0.105694 0.069092 -0.039457 -0.134165 -0.120212 -0.249625 -0.108280 0.301815 -0.119951 -0.027129 0.256592 0.315186 0.105298 0.047295 0.353782 -0.434456 -0.311102 0.050838 -0.400604 1.124029 -0.228549 -0.406077 0.052458 0.328172 0.031451 -0.036671 -0.501879 -0.056201 0.302409 -0.028361 -0.009886 0.194004 0.675446 0.356786 0.162821 -0.472514 0.590914 0.087578 -0.088769 -0.697887 -0.063622 -0.092560 -1.075730 0.583162 0.331010 -0.111019 -0.583397 0.448869 -0.004587 0.560348 0.115671 -0.428069 -0.001190 0.501658 0.215115 -0.035313 0.720497 0.043364 -0.530686 0.176351 -0.580740 -0.349703 -0.107293 -0.046053 0.350556 0.063707 0.037087 0.643632 -0.667673 0.781041 -0.219311 0.055453 -0.316033 0.290275 0.525940 0.133420 0.508797 0.681146 -0.275477 -0.676687 -0.490298 -0.382415 0.925510 -0.380415 0.253265 -0.363026 -0.304532 0.536764 -0.999821 0.240083 0.405694 -0.003624 0.239852 0.035475 -0.785503 0.009079 0.134260 -0.095587 0.490025 -0.213249 0.395367 -0.357255 0.040224 -0.623279 -0.185982 -0.306505 0.154941 -0.012367 -0.216784 0.149762 0.164695 0.655522 0.020819 0.011452 0.092627 0.075248 0.505853 -0.601818 1.081871 1.236682
M019_ON 0.510330 0.993460 -0.072007 0.728847 -0.787970 0.017972 -0.445338 -1.319602 1.200317 1.005379 0.259549 -0.586175 -1.498515 -0.386051 0.126374 0.089493 0.720303 0.214739 0.081492 -0.363008 0.644386 0.259156 0.428907 0.291548 -0.453095 0.670705 0.043766 0.043341 -0.140180 -0.412905 0.905758 0.220166 -0.905678 0.175115 -0.343329 0.665455 0.726959 -0.724031 0.208056 -0.339583 -0.785478 0.029303 -0.552317 -0.834254 -0.287476 0.021756 -0.767810 -0.247092 1.219816 -0.592326 0.137806 -0.141751 -0.176062 -0.478880 -0.237931 1.040697 0.016635 0.210157 0.089303 0.238078 0.245874 0.798286 0.570635 0.471334 0.250099 -0.101310 0.178489 -0.099415 0.910850 -0.357822 -0.751099 -0.962226 -0.421502 -0.236558 0.526928 -0.412891 0.084960 0.355405 -0.290423 -0.274766 0.056635 0.410371 0.110858 -0.867212 0.073382 0.348103 0.313446 -1.309578 0.239764 -0.442218 0.107127 -0.381696 -0.933096 -0.376557 0.681656 -0.104462 -0.202410 -0.622328 0.535589 0.269625 0.151125 -0.442085 -0.061819 0.769664 -0.158901 0.324321 -0.222834 -0.400066 -0.897409 -0.416427 0.216073 0.126541 0.315878 0.205038 -0.365256 -0.345458 0.486164 0.434728 -0.414451 -0.027040 -0.517306 -0.847247 -0.142641 0.441955 0.292150 0.467594 -0.597650 -0.113140 -0.166942 0.078217 -0.396873 -0.020831 -0.326102 0.187035 -0.540790 -0.378293 0.106831 -0.619026 0.674231 0.054547 0.215669 0.199558 -0.081457 -0.366126 -0.192631 -0.139419 -0.193984 -0.522656 0.277305 -0.228439 -0.841150 -0.436396 0.543966 0.350024 -1.391950 -0.566940 0.529738 -0.139413 -0.438624 -0.063932 0.260393 0.043223 -0.008656 0.691039 -0.180491 1.171896 0.013991 0.050653 -0.119662 0.365222 0.847006 0.191678 0.396773 -0.496064 -0.195201 -0.185929 0.324958 -0.007914 0.628702 0.469324 0.370293 0.687018 0.055871 0.451343 0.585341 -0.160662 0.801058 0.310093 -0.048301 -0.314682 -0.091388 -0.011192 0.573493 -0.056082 0.069250 -0.085938 0.597707 -0.322571 0.800548 0.262097 -0.173840 -0.676556 -0.000132 0.554400 0.257860 -0.427420 -0.114396 0.100057 0.139040 0.111285 -0.583685 -0.358239 0.569152 -0.633493 0.184534 1.064396 0.150115 0.178485 1.261846 -0.236558 0.914187 -0.022892 0.141612 -0.638643 -0.191917 0.042167 -0.350827 0.457390 -0.475896 0.003960 0.683797 0.422195 -0.126022 -0.712368 -0.474122 -0.106497 0.137924 0.579076 -0.219671 -1.049805 -0.681642 0.543784 1.032101 0.206488 -0.636810 -0.435316 0.105888 0.466488 0.494962 -0.265320 0.358006 0.103818 0.589562 0.123394 0.322586 -0.113243 -0.086952 -0.145870 -0.058086 0.208137 -0.003477 0.076165 -0.956536 0.824090 0.052188 0.838001 0.170760 0.358927 0.048306 0.104122 0.433355 0.792790 0.799742 0.060031 -0.408044 -0.407628 0.089610 -0.285517 0.229463 0.211483 -0.394213 -0.241221 0.190147 0.127288 -0.211907 -0.424012 -0.008247 0.344604 -0.079055 -0.087480 -0.052165 0.084762 0.391823 -0.261510 0.290788 -0.402344 -0.068975 0.128695 -0.128364 0.960870 -0.214930 -0.408548 -0.383519 0.453426 -0.048139 0.034110 -0.812730 -0.125754 0.562996 -0.424409 -0.511190 0.220129 0.751491 0.233251 0.364467 -1.005628 0.699909 0.141992 -0.203678 -1.217159 -0.034970 0.385710 -0.684102 0.388416 0.498357 -0.335831 -0.578698 0.894601 0.514154 0.298013 0.118920 -0.289579 -0.106927 0.085619 0.296330 0.075486 0.415289 0.161217 -0.458319 0.185563 -0.168715 -0.538577 -0.273635 -0.182827 0.436838 0.364977 0.125254 0.779078 -0.885423 0.460261 0.253084 0.319450 0.048083 0.244634 0.229929 0.467786 0.222789 0.412779 0.082995 -0.413564 -0.104445 -0.541079 0.079037 -0.236109 -0.034435 -0.446237 -0.226120 0.699468 -0.839457 -0.421640 0.938151 0.050823 -0.189423 0.061002 -0.836505 -0.065189 0.082123 -0.332478 0.111626 -0.226372 0.368968 -0.585559 -0.241679 -0.728612 -0.115010 -0.155090 -0.510363 0.057189 0.192303 0.225212 -0.121210 0.791665 -0.260433 -0.060560 -0.240422 0.016357 0.110400 -0.296260 0.660936 0.768208
M015_OFF 0.524820 0.858758 -0.417457 1.571216 -0.650002 0.311251 -0.945702 -1.690600 1.321303 1.264001 -0.099615 -0.763706 -1.152281 -0.553738 -0.230480 0.734289 1.369666 -0.550958 -0.222190 -0.577369 0.467715 -0.152947 0.415436 0.003132 -0.677061 0.702065 0.154791 0.321513 0.188515 -0.168090 0.880272 0.288687 -0.304508 0.168929 -0.230651 0.633392 0.497152 -0.601541 0.169966 -0.047378 -0.508186 0.113817 -0.468978 -0.764420 -0.016442 -0.141263 -0.574663 -0.510615 1.272519 -0.875648 0.711255 0.001834 0.377116 -0.524652 -0.562820 1.104532 0.189230 0.133462 0.182192 0.101347 0.347048 1.218076 0.874596 -0.080581 0.248927 -0.050403 0.452604 -0.041906 0.653909 -0.067595 -1.114979 -0.726052 -0.320636 -0.426256 0.836707 0.081815 -0.392132 0.116354 -0.611389 -0.427453 0.279236 0.278705 -0.272684 -0.903214 -0.064925 0.536156 0.017776 -1.421265 0.196282 -0.438874 -0.171028 -0.333075 -0.708780 -0.449046 0.425125 -0.010628 0.209668 -0.495222 0.111663 0.182429 -0.144294 0.127504 -0.275609 0.585660 0.237883 0.229916 -0.414194 -0.418405 -0.834214 -0.941986 0.004276 -0.375696 -0.202341 0.168167 -1.008949 -0.234704 0.059316 0.576879 -0.538459 -0.219969 -0.019330 -0.526956 0.103729 0.640211 0.098225 0.452905 -0.615432 0.211681 0.220764 0.190041 -0.500600 0.026105 -0.409849 0.450937 -0.905121 -0.336580 -0.110508 -0.941609 0.329409 0.058280 -0.105892 0.593634 -0.509981 -0.409658 0.272307 -0.077698 -0.136464 -0.484709 0.182771 0.035659 -0.494325 -0.504618 0.443129 0.521169 -1.534446 -0.249910 0.912839 0.229648 0.062174 -0.181957 0.204685 -0.043432 -0.089506 0.831878 -0.044363 1.045099 0.121544 0.206214 -0.171052 -0.024398 0.726860 0.335532 0.363040 -0.765377 -0.244501 -0.000389 0.495971 -0.083163 0.188889 0.775189 0.452877 0.938879 -0.023934 0.689096 0.356570 -0.465169 0.862097 0.240994 -0.070084 -0.659474 -0.204698 -0.391565 0.103757 -0.042057 -0.025580 0.050698 0.844459 -0.681583 1.186403 0.227484 -0.323198 -0.802528 -0.147993 0.330386 0.469864 -0.684094 -0.060303 0.038565 -0.097586 0.178550 -0.662188 -0.096603 0.521422 -0.988547 0.406267 1.134912 0.164047 0.536279 1.566581 -0.162683 1.155256 -0.162760 -0.185516 -0.534690 -0.563345 -0.310152 0.206561 0.215069 -1.177013 0.259169 0.505776 0.201630 -0.570681 -1.272060 -0.848073 -0.211784 -0.180459 -0.184249 -0.176192 -0.830603 -0.533052 1.000421 1.072039 0.391869 -0.698683 -0.609971 -0.095124 0.280316 0.777444 -0.254726 -0.059469 0.213185 0.804841 0.150849 -0.219670 0.381831 -0.417688 -0.209015 0.445795 0.382136 -0.447579 -0.070532 -1.010606 0.449116 -0.062976 0.452664 -0.254213 0.149515 -0.378460 -0.084282 0.657201 0.486668 0.703186 0.137524 0.109633 -0.463923 -0.027345 -0.150016 0.055038 -0.113601 -0.129570 -0.305767 0.066377 -0.056786 -0.351232 -0.251583 0.215857 0.057384 -0.086425 0.141310 0.142488 0.594450 0.463658 -0.482672 0.522698 -0.377151 -0.037614 0.362320 -0.256576 0.811939 -0.544320 -0.303398 -0.262133 0.832044 -0.183176 0.132728 -0.434579 -0.366486 0.843173 -0.101254 -0.503776 0.214342 0.547225 0.294884 -0.016200 -0.618503 0.520341 0.121654 -0.393280 -1.167280 0.226974 0.348051 -0.816411 0.739589 -0.117629 -0.002091 -0.660221 0.351735 0.877190 0.532160 0.189042 -0.242241 0.263199 0.637444 0.358135 0.220905 0.709416 -0.261762 -0.591579 0.152562 -0.453389 -0.094783 -0.102776 -0.099848 0.297903 0.248759 0.316130 0.826663 -0.865675 0.589599 0.082394 0.077421 -0.365154 0.221616 0.395422 0.495387 0.587254 0.280844 -0.199004 -0.685152 -0.271810 -0.673075 0.720104 -0.428210 0.143777 -0.704624 -0.569124 0.573151 -0.851129 0.079148 0.885339 0.105996 -0.143210 -0.011351 -0.883179 -0.375087 0.456151 -0.018307 0.391122 0.058149 0.422387 -0.439311 -0.265371 -0.952656 -0.197888 0.114578 -0.219471 0.128432 0.213579 0.415560 0.276364 1.186326 -0.348377 0.044556 -0.426138 0.207928 0.430303 -0.670250 0.683462 0.568318
M015_ON 0.470377 0.855282 -0.196560 1.202961 -1.044633 -0.223140 -0.547334 -2.059116 0.893490 0.823145 -0.020326 -0.545297 -1.181980 -0.636587 0.589403 0.017231 0.793303 -0.051414 -0.010733 -0.499851 0.499639 0.093557 0.563118 0.181218 -0.259908 0.949532 -0.342051 -0.185814 0.398135 -0.654685 0.967640 0.270368 -0.751085 -0.206729 -0.593092 0.576420 0.953251 -1.349610 0.188751 -0.119370 -0.058741 0.099348 -0.839940 -0.332522 0.027994 -0.013064 -0.136330 0.180567 1.237008 -0.619221 0.216798 -0.332471 0.304931 -0.543471 -0.020239 1.081670 0.243048 0.734719 -0.011287 0.701452 0.720622 0.764940 0.594700 0.788782 0.535486 0.538820 0.629249 -0.354251 1.082707 -0.581976 -0.766758 -1.027387 -0.378880 -0.153148 1.111212 -0.607322 0.299192 0.590645 -0.573480 -0.343812 -0.155468 0.277692 -0.119997 -1.358784 0.225574 0.087350 0.717109 -1.692697 0.339231 -0.957937 -0.376948 0.011819 -1.030968 0.086523 0.976567 -0.419983 -0.017133 -0.614786 0.377638 -0.301433 -0.152587 -0.477273 -0.236532 0.932256 -0.018927 0.608431 -0.498589 -0.150965 -0.695431 -0.064438 0.029913 0.333029 0.190934 0.296389 -0.638000 -0.680602 0.116871 0.519065 -0.661430 -0.259802 -0.595875 -0.659179 -0.059890 0.764835 0.634066 0.118739 -1.297062 -0.127756 -0.093525 0.221386 -0.328870 0.066506 -0.026641 -0.110370 -0.348412 -0.421475 0.080009 -0.956881 0.642862 -0.222687 0.170374 0.370547 -0.793796 -0.696421 -0.190638 -0.036376 -0.336799 -0.064270 -0.056488 -0.169358 -0.090950 -0.251338 0.682524 0.440079 -1.486636 -0.456558 0.749132 0.167149 -0.054991 -0.175004 0.270249 0.436700 0.133657 0.476512 0.016036 0.689088 -0.353236 0.087338 -0.060807 0.669687 0.691279 -0.511426 0.153371 -0.469842 -0.255635 -0.710308 -0.240401 0.375477 0.412857 1.012109 0.207719 0.199450 -0.403646 0.451603 0.217177 -0.072339 0.710242 0.150181 -0.130553 0.158525 0.071921 -0.263758 0.598520 0.515232 0.201579 -0.092216 0.705503 -0.438347 1.114660 0.131630 0.266533 -0.594711 0.191765 0.410779 0.063328 -0.573074 -0.048592 -0.009852 -0.010779 0.291989 -0.294825 -0.158922 0.836222 -0.793674 -0.055338 1.146575 0.023547 -0.061662 1.429637 0.191032 0.883244 0.251435 0.024642 -0.696027 -0.243521 -0.055398 -0.059100 0.579169 -0.324486 0.208160 0.516331 0.603059 -0.410712 -0.927764 -0.376624 -0.006133 0.222833 -0.233885 -0.383706 -1.038303 -0.491100 0.807532 0.871777 -0.086002 -0.474827 -0.291506 0.111752 0.451749 0.943016 -0.205083 0.310116 0.053085 0.617087 0.439557 0.500307 -0.589825 0.019792 -0.204303 -0.167004 -0.072667 0.267937 -0.012908 -0.718764 0.951151 0.098680 0.767854 0.170724 0.308050 0.283115 0.280326 0.332936 0.648847 0.470106 0.676732 0.211334 -0.482309 -0.011827 0.189287 0.054666 0.347569 -0.028756 0.017925 -0.017721 0.036889 -0.417436 -0.316127 -0.120345 0.435987 -0.368375 -0.270458 0.172403 -0.000919 0.138650 0.050906 0.245185 -0.548901 -0.284175 0.115094 -0.340128 1.155660 0.035456 -0.860531 -0.002793 0.183269 -0.625007 -0.258839 -0.518758 -0.264413 -0.058325 -0.000663 -0.208704 0.514500 1.220124 0.357555 0.278470 -0.705755 0.697922 0.046241 -0.024619 -0.945033 -0.293612 0.133771 -0.986019 0.654113 0.750441 -0.369248 -0.518192 0.841651 0.134905 -0.091612 0.346787 -0.256142 0.105875 -0.315863 0.570428 0.087160 0.878343 0.262609 -0.631158 -0.077595 -0.516316 -0.585074 -0.312519 -0.105786 0.833050 -0.360718 0.240662 0.184282 -0.030889 0.156422 -0.130960 -0.071475 0.027439 -0.007255 0.623281 0.696225 0.696900 0.469102 -0.185884 -0.724529 -0.518248 -0.465342 0.253564 -0.230860 0.287315 -0.619956 -0.470155 0.408976 -1.127094 -0.088361 0.864687 -0.084656 0.119277 -0.039547 -0.296817 -0.279355 -0.135690 -0.391039 0.466240 0.095736 0.170639 -0.061799 0.066182 -0.645106 -0.584015 -0.860390 -0.449424 0.254429 -0.197291 -0.103461 -0.103235 0.367675 -0.145244 0.088321 0.389381 0.123217 0.299928 -0.658174 1.154387 1.023345
M007_OFF -0.403661 -0.483125 0.528417 0.176079 0.411725 -0.422250 0.341320 0.525155 0.026052 -0.758887 0.150650 0.909134 -0.134415 0.055424 -0.238180 -0.593473 -0.753005 0.478666 0.677188 -0.913297 0.801892 -0.387764 0.314318 0.695469 0.232268 -0.781690 0.213016 -0.240843 0.703875 0.363485 -0.148778 -0.315231 -0.139061 -0.445551 -0.022949 -0.506963 -0.741672 0.147650 -0.081733 0.586636 -0.348464 0.476150 0.965838 -0.069281 -0.137054 0.636650 -0.187108 0.065056 -0.526655 0.129661 -0.447987 -0.281737 0.082104 -0.328605 0.545686 -0.359334 -0.608205 -0.518673 0.543053 -0.522974 0.948050 -0.181098 -0.845385 -0.665859 0.152678 0.188827 -0.198634 0.524760 -0.095649 0.038791 1.014035 0.616093 0.227859 0.810607 0.057036 0.369585 0.293320 -0.675453 -0.365868 0.334428 -0.350027 -0.068076 -0.533786 0.568643 -0.006975 -0.029010 0.160203 0.779716 -0.130609 0.091632 -0.111696 0.087356 0.596646 0.292378 0.279102 -0.275634 0.609249 -0.277228 -0.060957 0.016546 -0.264483 0.826738 -0.847426 0.073699 0.219494 -0.355812 0.400543 -0.036637 0.339137 -0.376256 0.648377 -0.993624 -0.952175 -0.371110 0.934559 0.010392 0.041417 -0.021993 0.539882 0.056952 -0.319224 0.606624 -0.179505 -0.943606 0.361807 0.391004 -0.286619 0.383641 -0.080389 -0.695875 0.560000 0.288350 0.026839 0.229054 0.731877 0.396160 0.060490 0.359268 -0.938540 0.617829 -0.562279 -0.198672 0.149370 0.315418 0.485976 0.085266 0.088484 1.236723 0.736192 0.873531 1.108563 -0.204311 0.373479 0.224799 0.613362 0.102201 0.673719 0.765626 0.432300 -0.252009 -0.134449 0.299503 -0.181746 -0.783669 0.049199 -1.137887 -0.610040 0.023698 -0.263765 0.403409 -0.172719 -0.328199 0.683950 0.129685 0.721004 0.501492 -0.425540 0.303998 -0.123013 -0.607186 0.583224 -0.637622 0.227616 0.236953 0.107430 -0.497774 -1.100713 -0.594410 0.090965 0.635260 -0.218323 -0.058799 0.002010 1.447141 0.563137 0.103790 0.567145 -0.216488 -0.134470 0.773355 0.606625 0.055351 -1.118016 0.237755 -1.038983 -0.147235 0.411541 -0.144342 -0.693830 0.073660 0.576526 0.391873 0.066774 0.431308 -0.534520 0.204205 0.411385 -0.078713 -0.522881 -0.355636 -0.480530 -0.047841 0.039304 1.102904 -0.811259 -0.476115 0.624701 -0.610484 -0.005771 0.062157 -0.806622 -0.031358 -0.346548 0.033506 0.511519 0.419746 -0.277929 -0.486498 -0.216142 0.152108 0.756014 -0.554936 0.124744 0.435043 1.256520 0.151486 -0.453035 -0.044235 0.309510 0.072727 0.199107 -1.217245 -0.462610 -0.141927 0.377046 0.130895 0.499272 -0.113684 0.104157 0.016530 0.292841 -0.408218 0.004363 -0.356029 0.360890 -1.212823 0.481487 -1.049429 -0.186237 0.091448 -0.230295 -0.969468 -0.499555 0.428607 -0.223351 0.716210 -0.263049 -0.243525 0.094348 0.670772 -0.682708 -0.078099 0.487065 0.639632 0.544715 -0.153647 -0.335440 -0.174208 0.350241 -0.685304 -0.251206 -0.124419 -0.508701 0.272703 0.529460 0.377438 0.522223 -1.061675 -0.449341 0.343113 0.107988 -0.328306 0.984549 -0.555627 0.636711 -0.626184 0.601506 -0.100806 -0.063220 -0.062762 0.228825 -0.655741 -0.212621 -0.168807 -0.351981 0.346592 0.397825 0.208804 -0.197237 -0.023977 0.182629 -0.321253 0.038896 0.595297 -0.525809 -0.210225 0.239017 -0.905539 -0.196566 0.106463 0.441946 1.158409 -0.476167 0.262719 -0.164254 0.375111 -0.191857 1.082023 1.357484 -0.140490 0.366503 0.860463 0.478949 -0.691286 -0.609030 0.029602 -0.254767 0.018363 -0.069216 -0.085064 -0.023401 0.403484 0.266481 0.588615 0.349945 -0.626978 -0.026644 -0.548656 0.296598 -0.277557 0.639310 -0.046265 -0.392386 -0.613329 0.794059 0.947796 -0.349601 -0.217996 0.840847 -0.143524 0.272712 -0.228405 0.079132 -0.383302 1.342796 -0.216702 -0.736566 -0.301165 -0.043114 0.852964 -0.970556 0.624368 -0.536781 0.163236 0.546749 -0.122029 0.545262 -0.571323 0.129615 0.779861 -0.487563 -1.303828 -0.672905 0.447966 0.438551 0.561899 -0.274945 0.379208 -2.711791 -0.038499
M007_ON -0.037468 0.110398 0.426773 -0.414342 0.309013 -0.307585 1.230694 0.564836 -0.189261 -1.008459 -0.484254 0.467044 0.417250 0.274687 -0.622229 -0.883578 0.028628 -0.010568 0.800995 -0.911520 1.479329 -0.749523 0.208404 0.949140 0.065982 -0.811331 0.179548 -0.168248 0.154827 0.448695 0.348762 -0.376852 0.064994 -0.300737 0.216620 -0.225113 -0.882848 0.215715 0.207279 0.445802 -1.078359 0.529150 0.608862 -0.358892 0.179565 0.430938 -0.885153 -0.099339 -0.918367 0.071030 -0.250420 0.137774 -0.730031 0.090049 0.168207 -0.646552 -0.623454 -0.643565 0.199628 -0.480089 1.067088 -0.495810 -0.854651 -0.367603 -0.350953 0.097803 0.167089 0.567798 -0.383584 -0.198330 0.422934 0.847030 0.159439 0.564854 -0.204708 0.144963 0.088454 -0.566038 -0.745256 0.501008 0.139969 0.401615 -0.558141 0.014582 -0.682140 0.368424 0.032706 0.869362 -0.461334 -0.360487 -0.094046 0.112976 0.673358 -0.258872 0.177290 -0.854115 0.528476 0.060751 -0.274547 -0.196602 -0.391370 0.488582 -0.465301 -0.031570 -0.344766 -0.104056 0.473032 -0.056660 0.710343 0.003016 0.408522 -0.617980 -0.303710 -1.223978 0.969872 -0.210933 -0.377938 0.064475 0.319433 -0.104066 0.073192 0.233672 -0.161917 -0.386357 -0.088981 -0.189021 -0.457185 0.296360 0.103506 -0.368614 -0.119080 0.077206 0.015670 0.253331 0.856813 0.277984 0.089391 0.431536 -0.932869 -0.051846 -0.218413 -0.145982 0.821411 -0.043762 0.181892 0.612874 0.152975 0.867154 0.705497 0.367834 0.515507 0.003371 0.480808 0.013499 1.018242 0.844833 0.351281 0.654956 0.462528 -0.060613 -0.713965 0.469238 0.203869 -0.825632 -0.198354 -0.718623 -0.213072 0.487531 -0.257191 0.585730 -0.077966 -0.044562 0.542333 -0.118448 0.666993 0.729040 -0.073855 0.140327 -0.271305 0.015384 -0.063586 -1.078634 -0.194793 -0.154921 0.313268 -0.709979 -0.602971 -0.480483 0.021568 0.402981 -0.545922 0.532274 0.111427 0.984537 0.241404 -0.373409 1.015595 -0.142062 -0.474556 0.215423 0.733624 -0.677254 -0.640699 -0.204800 -0.576807 0.239989 0.374791 -0.699289 -0.317779 0.477584 0.904429 0.312603 0.215303 1.101411 0.145735 0.215053 0.093467 0.091836 -0.126065 -0.525384 -0.315763 0.189896 -0.094783 0.971558 -0.263956 -0.119061 0.553643 -0.067406 -0.226801 -0.068674 -0.622588 -0.011199 -0.374845 0.073471 0.784373 0.513738 0.065899 -0.567224 0.252391 0.487742 0.549736 -0.198407 0.166571 0.326112 1.318341 0.067104 -0.187599 0.144738 0.450681 -0.115411 0.299211 -0.695522 -0.085639 -0.406255 -0.152675 0.573534 0.794921 -0.032976 0.183659 0.033207 -0.157136 0.089344 0.322568 -1.169608 0.480180 -0.793633 0.071464 -0.842602 -0.334804 -0.317654 0.073268 -0.921959 -0.798125 0.177271 0.351051 0.525275 0.176164 -0.079652 0.278468 0.682746 0.143384 0.491594 0.586041 1.075108 0.208758 0.246403 -0.476107 -0.398906 0.293359 -0.243171 -0.177609 0.678976 -0.171611 0.295960 0.412400 0.064193 0.391581 -0.609617 0.022654 -0.199197 -0.059184 -0.096132 0.737405 -0.193899 0.606867 -0.176523 0.109129 -0.119173 0.138984 0.183218 0.308307 0.089731 -0.489695 0.211182 0.090338 0.099635 -0.331930 0.171146 -0.185872 0.690798 0.010061 -0.230995 0.216023 -0.300992 -0.126967 0.324231 0.140564 -1.129743 0.045506 0.448755 0.305543 1.074242 -0.580631 0.248772 0.143502 0.466954 -0.439614 0.703381 1.364688 -0.098912 0.261319 0.578291 -0.545459 -0.735563 -0.786193 0.005159 -0.066323 -0.329938 -0.182547 -0.449532 0.060360 0.109602 -0.053831 0.290409 -0.071551 -0.556747 -0.915727 0.111260 0.167020 0.289032 0.976656 -0.358857 -0.481398 -0.525307 0.432280 0.570912 -0.359306 -0.518765 0.411012 0.069724 0.034192 -0.168897 -0.334021 -0.444999 1.078342 -0.002882 -0.518679 -0.301415 -0.461839 0.458975 -0.604123 0.313490 -0.837811 0.340564 0.001545 -0.691577 0.340062 -0.345137 0.371085 0.538209 -0.558126 -1.541419 -0.712310 0.793368 0.451134 0.861825 0.116258 -0.487704 -0.300768 -1.812870
M014_ON 0.622794 -1.321059 -0.054042 -0.696108 1.028446 -0.398464 0.933875 -0.482553 0.135318 -0.341184 0.264990 1.362066 -0.985209 -0.090731 0.180946 -0.100762 0.537036 0.215385 1.210068 -0.221580 -0.390868 0.374520 -0.153196 0.326476 -0.774378 0.840406 0.327912 0.025863 -0.960736 -0.010313 0.004859 -0.198149 -0.083009 -0.323246 0.142077 0.582405 0.565984 -0.318152 0.222211 -0.023001 -0.919450 0.115221 0.346127 -0.132245 -0.522549 -0.615574 0.183349 -0.199847 0.429236 -0.362797 0.183172 0.998471 -0.034084 0.184501 -0.374634 0.420837 -0.379055 0.259413 -0.344192 0.938209 -0.501460 -0.501159 -0.243389 0.654866 -0.273794 -0.727295 -0.688254 0.616037 0.014038 0.945676 -0.343734 -0.045201 -1.956147 -0.295850 -0.020608 -0.313473 -1.422843 0.602914 0.082175 0.743324 0.277787 0.773125 0.002573 0.718274 0.309484 1.183941 -0.867499 -0.278142 0.074418 -0.196055 -0.593732 -0.472391 -0.525670 -0.723715 0.695056 0.216859 -0.225527 -0.526674 0.248507 -0.328334 -0.570397 -0.057322 0.841670 -0.003184 -0.150210 0.169895 -0.368416 -0.259411 0.132966 0.585574 0.389531 1.220146 0.463980 1.078975 -0.708458 0.438382 0.077417 -0.134472 -1.122205 -0.615839 0.103793 0.335557 -0.358755 -0.625939 0.809506 -0.372147 -0.184584 0.998162 0.395141 0.121568 -0.299340 -0.478780 -0.087915 0.195603 0.200864 -0.384886 0.224989 0.514716 0.237812 0.381303 0.055306 -0.356913 -0.181221 -0.114000 -0.145624 -0.144024 0.435646 -1.427462 -1.004764 -0.581321 -0.479444 1.280728 0.149050 -0.179410 -0.019036 -0.304389 -0.428672 0.674105 0.134541 -0.027861 -0.242729 -0.573878 0.061844 1.521404 0.485156 0.612920 0.349324 0.273358 -0.471616 -0.002587 -0.643422 0.371995 -0.209846 -0.024738 -0.304218 0.064744 0.725069 -0.292928 0.915954 -0.001424 0.602678 0.491385 0.337534 -0.492390 0.561126 0.348251 0.158999 0.279627 0.073063 -0.014228 0.072625 0.190596 0.614073 -0.971870 -0.480109 -0.141015 0.020060 -0.535818 0.386493 -0.531179 0.248165 0.057151 0.222619 0.486148 0.912846 0.141817 0.225652 0.041070 0.014635 0.286051 -0.318186 0.261537 0.782130 -0.106181 -0.180691 0.047655 0.501558 -0.481612 -0.075342 0.201991 0.109117 0.605819 1.453223 -0.121726 -0.655363 0.020527 -0.487260 0.484040 0.012100 1.007604 0.512020 -0.210649 0.958613 0.775680 -0.595048 -0.296203 0.034300 1.203325 -0.589843 -0.945361 -1.334139 -0.902507 -0.104939 -1.110596 -1.294028 -1.067771 0.219443 -0.814340 -1.305305 0.453249 -0.343475 0.018616 -1.341195 -0.004767 0.577794 -0.507475 0.073610 -0.765294 -0.277589 0.230788 0.388775 0.404594 -0.949823 1.404669 -1.103820 1.033190 0.557931 0.749563 0.132670 -0.298486 -0.584196 0.294349 1.274769 -0.026279 -0.175429 -0.008047 1.204887 -0.807066 -0.033478 0.042236 -0.268581 0.459439 -0.582536 -0.310115 1.070665 0.793467 0.261284 0.388855 0.217614 0.799529 -0.400986 -0.069595 0.413045 -0.260171 0.054491 0.022217 -0.069533 1.115534 -0.563066 -0.091407 -0.551240 0.097693 -0.221070 0.976434 0.287791 0.262293 -0.015004 -0.079093 0.106763 -0.588394 -0.846410 0.277087 -1.084996 0.590428 1.017129 -0.752592 -0.064007 -0.216779 -0.737462 -0.675708 -0.059388 0.252480 -0.113542 -0.749678 0.453609 1.549325 -0.288463 0.993176 -0.766350 0.895944 -0.969677 -1.351344 -0.192974 0.286552 -0.694227 -0.723067 -0.504894 0.595725 -0.041999 -0.211220 0.879396 0.594466 -0.575124 0.889875 -1.163325 0.266988 0.226146 0.187139 0.220355 0.026664 0.061615 -0.086880 -0.153868 -0.430777 0.317533 -0.753956 0.996682 -0.279282 0.549681 -0.002229 0.488003 0.176320 0.185523 0.127000 0.141647 0.475449 0.403980 0.899462 -0.698248 0.746859 -0.827012 -1.455322 0.173843 0.256593 -0.141909 0.626882 -0.432615 0.720744 0.385946 -1.028946 0.241727 -0.264265 0.234309 -0.503941 -0.741160 -0.815179 -0.701879 -0.838955 -0.733718 -0.161659 -1.494372 0.782462 -0.781796 -0.006405 -0.122215 -0.149238 -0.778559 0.695798 0.368527 -0.131682
M014_OFF -0.362607 -0.764447 0.703812 -1.007761 1.172438 -0.838459 0.849998 1.241664 0.860939 0.165868 0.408689 0.801557 -0.746030 -0.012671 0.892628 -0.130810 0.864834 -0.204105 0.871317 -0.001185 -0.641750 -0.047406 -0.048322 -0.699554 -0.559924 0.198368 0.445664 0.269834 -0.184811 -0.107233 -0.514314 0.240284 -0.156343 -0.033949 -0.029975 0.176315 0.196238 0.298239 0.042133 -0.081972 -1.071051 -0.185515 0.196303 -0.396048 -0.456074 -0.257813 -0.046739 0.045501 0.562898 0.217879 0.139740 0.365414 0.524546 0.270597 0.422041 0.550921 0.145059 -0.168383 0.007844 0.641390 0.264154 -0.643497 0.044619 0.794258 -0.775362 -0.041172 -0.019202 0.536143 -0.406227 0.655346 -0.669031 -0.003885 -0.565809 0.031017 0.535958 -0.450826 -1.139175 0.142008 0.137937 0.194579 -0.081705 0.861988 0.070740 0.196229 0.024398 -0.125816 -0.207890 -0.263837 -0.075263 -0.511366 -0.794216 -1.342239 -0.477062 -0.000200 -0.076049 -0.078725 -0.857730 0.239521 0.256524 -0.282257 -0.395361 -0.391509 0.757587 0.476138 -0.397349 -0.300856 -0.061292 -0.228860 0.355601 0.827559 -0.015895 1.171289 -0.009848 0.692463 -0.708048 0.748829 0.085954 0.100046 -0.911534 -0.345389 0.147998 0.593062 -0.270020 -0.450392 0.757944 -0.193867 0.657139 0.414076 -0.374125 -0.115626 0.026155 -0.292431 0.035323 0.359355 -1.142189 -0.515047 0.300793 0.132137 0.327944 -0.296066 0.200900 0.602625 -0.353559 -0.064394 -0.565834 -0.277596 0.220821 -1.032529 -0.346739 -0.639528 -0.625828 1.073496 0.045061 0.037639 -0.672881 -0.219110 0.109654 0.904122 0.236409 0.370275 -0.533476 -0.645899 0.066060 0.858412 0.494315 0.308689 0.468806 -0.363615 -0.859474 0.365180 -0.984315 0.156916 -0.832290 0.351514 -0.677936 -0.259578 0.428560 -0.441035 1.950339 -0.807143 0.685121 0.290857 0.442582 -0.500721 1.145112 1.002057 0.823096 0.881140 -0.262731 0.482841 0.612938 0.129015 0.803816 -0.292419 0.377212 0.333467 0.233246 -0.291184 0.351580 -0.984820 0.896682 -0.321931 0.448508 0.468564 0.184777 0.092386 -0.344177 0.074712 0.206915 0.404921 -0.827721 -0.273635 0.779085 0.007515 -0.009873 0.634665 0.484263 -0.159625 -0.220785 0.352279 1.009609 0.489557 1.339261 -0.113439 -0.328729 0.287165 -0.552395 0.948867 0.260136 0.880408 0.313745 0.330535 0.682164 0.140489 0.090177 0.520280 -0.182454 0.873894 0.179892 -1.465690 -1.028778 -1.110993 0.020715 -0.329889 -0.850679 -0.887402 0.441392 -0.134197 -1.142670 -0.217774 0.059736 0.255950 -1.296631 -0.085957 0.069347 -0.381964 0.430966 -0.409200 0.049070 0.683824 -0.498225 -0.084912 -0.918925 1.004719 -0.819864 0.888958 0.813034 0.821977 -0.128407 0.152101 -0.415963 -0.635408 1.111629 -0.170970 -0.214642 -0.162520 1.368542 -0.524138 0.698035 0.606259 -0.432419 0.349760 -0.179635 -0.432985 0.649160 1.049575 0.307627 0.531131 0.152625 0.606808 0.249944 -0.075499 0.187198 -0.117133 0.122857 0.082130 -0.534943 1.024921 0.153072 0.476068 -0.371123 0.177749 -0.524905 0.779478 0.606229 0.624837 -0.543680 0.535340 0.113927 -0.950031 0.293942 -0.409514 -1.178418 0.806293 0.990249 -0.400445 0.415432 -0.296317 -0.334091 -0.294084 0.099666 0.350724 0.288968 -0.405328 0.574447 1.690978 0.094173 1.039371 -1.176237 0.686218 -0.692772 -1.432895 -0.090529 -0.187108 -0.861114 -0.818415 0.226583 0.101171 0.188533 -0.189741 1.067014 0.616186 -0.956741 0.611378 -1.014595 0.326912 -0.363707 0.008833 0.000806 0.278453 0.368204 0.162188 0.179997 0.677712 -0.393749 -0.781614 0.618804 -0.596028 0.854948 0.185845 0.431220 0.116290 0.406431 0.316437 -0.105438 0.394489 0.896708 1.182465 -0.623371 0.522158 -0.904716 -1.050696 0.181506 0.281618 -0.037798 0.433577 -0.360899 0.559206 -0.330210 -0.835757 -0.296479 -0.471715 -0.233047 -0.499092 0.007888 -0.927101 -0.515505 -0.521130 -0.771472 -0.104179 -0.665477 0.631875 -0.457805 0.824972 0.111656 -0.123895 -0.276156 0.345163 0.959458 1.087980
M013_ON -0.658863 -0.432828 -0.064355 -0.758064 -0.279332 -0.571234 0.166494 1.181387 -1.244917 0.518364 0.701441 -0.510922 0.992535 -0.069215 0.210861 0.706067 -0.033742 -0.525916 0.268325 0.040557 -1.290834 0.631534 -0.086268 -1.093229 -0.273853 -0.333536 -0.767885 -0.398924 -0.835942 0.318092 -0.010245 -0.536149 0.223477 0.476256 1.010669 -0.419321 -0.344150 0.533109 -0.651378 -0.649584 0.232798 -0.511247 -0.416688 0.040507 0.256125 0.018714 0.082692 0.507442 -0.380387 0.576230 -0.338703 0.170383 0.435383 0.473821 0.645215 -0.070760 0.057405 -0.027830 -0.326469 -0.155296 -0.894145 -1.121584 0.411656 -0.096393 -0.486570 -0.812381 0.525140 0.501929 -0.818755 1.070028 -0.300546 1.044959 -0.740599 0.733143 -0.139943 -0.299073 0.552636 -0.173759 -0.252028 0.068652 0.542504 -0.733346 1.074002 1.248083 0.279390 -0.236276 0.706513 0.099748 -0.428026 0.598311 0.582290 -0.580882 -0.107513 -0.111189 -1.450196 0.061438 -0.444299 0.823408 0.336191 -1.087524 0.377390 -0.191931 0.858437 -0.593911 0.064188 0.202190 -0.730620 0.566549 0.128628 1.327525 0.205543 0.507324 0.210258 0.648304 0.509761 0.252383 0.742449 -1.139573 0.111334 0.052613 -0.388890 -0.462743 -0.405528 -0.418922 0.389205 -0.071498 0.552281 -1.073877 -0.207031 0.932785 -0.297321 -0.297397 0.297278 0.286819 0.027963 0.590452 -0.216656 -0.310573 0.411794 -0.304428 0.494541 0.223474 -0.635091 -0.840617 0.038748 0.410403 0.452126 -0.618696 -0.200895 -0.192266 -1.244665 1.197134 0.386046 -0.317341 -0.053290 -0.348270 -1.408489 -0.527166 0.317807 0.229528 0.079252 -0.131514 -0.026690 0.290951 0.209152 0.784153 0.032374 -0.374638 0.642561 -0.551655 -0.573596 0.212453 -0.688295 0.661602 -0.545039 -0.199390 -0.564262 -0.113225 0.095492 0.065087 -0.341947 -0.183730 0.390936 -0.247286 0.033738 0.307384 0.796408 0.369439 0.396812 -0.020835 0.007682 0.561558 0.210735 -1.018206 -0.199692 -0.424129 -0.981134 0.301259 0.410105 -0.165168 0.075693 0.909372 1.059473 -0.460572 0.665835 0.185578 0.301672 -0.337705 1.052187 -0.726661 0.006967 0.173707 -0.953988 -0.073703 0.218175 -0.127169 -0.597869 -0.091118 -0.428454 0.921038 -0.029862 0.194709 0.028946 -0.700214 0.618200 0.112218 -0.548083 0.653342 -0.207169 0.997914 -0.603457 -0.391096 0.374492 0.465113 -0.542950 -0.507597 0.074713 1.006227 0.088001 0.847688 -0.398775 -0.114874 -0.718393 -0.587401 -0.870390 0.179585 0.741672 -0.503058 -0.057802 0.138737 -0.009370 0.718789 -0.634930 -0.130303 0.288321 -0.344332 0.019924 0.843835 -0.259044 0.500861 0.358029 -0.654596 -0.358958 0.270703 -0.627032 0.605037 -0.248638 0.160985 0.765273 0.192193 -0.470362 0.333136 0.307311 -0.107733 -0.002974 0.409832 0.798740 0.491469 -0.717673 -0.303535 -0.252075 0.385049 -0.797577 0.437499 0.231713 0.401490 0.620018 0.661375 -0.829347 1.008715 0.299945 -0.794453 -0.156798 -0.435348 -0.790359 0.140400 -0.386054 0.106013 0.239902 0.341916 -0.076982 0.245393 -1.246716 0.285882 0.293175 0.322676 0.386411 -0.085547 -0.722759 0.082845 0.206584 0.455421 0.540862 0.021084 0.611566 -0.164855 -0.577744 -0.309428 0.378322 0.032851 0.290519 0.442633 0.198305 -1.208486 -0.331815 0.584804 -0.023128 0.810264 0.082169 -0.416090 0.701634 -0.430917 1.077375 -0.164809 -0.089584 -0.064365 -0.094204 -0.895235 -0.998261 0.581119 -0.240928 -0.205976 -0.306869 -0.003860 0.402705 0.163692 0.007836 0.441159 -0.644140 0.504040 -0.461046 -0.917319 -0.346709 -0.684654 -0.006919 0.069148 -0.224963 0.409436 -0.300948 0.945808 -0.842596 -0.142839 0.091558 -0.261588 -0.279481 -0.777748 1.954036 0.535024 -0.615501 -0.099784 1.061181 -0.486472 0.060828 0.158155 -0.646978 0.046345 0.100880 0.062451 -0.409258 -0.616229 -0.408012 0.166461 0.448804 -0.591093 -0.363239 -0.682688 -0.508065 -0.584130 -0.149592 -0.415282 -0.173043 -0.489601 0.347157 1.002111 0.717691 -0.231973 -0.703961 0.056639 -0.053169 -0.183040
M013_OFF -0.236926 -1.224360 0.232289 -0.645883 0.600262 0.267752 0.589872 1.158076 -1.452135 -0.222393 0.400638 -0.160589 1.072178 0.136662 0.385586 1.168755 -0.367349 -0.112334 -0.263493 0.452847 -1.352879 0.340757 0.201935 -0.298807 -0.294302 0.089078 -1.219340 -0.217734 -0.047213 0.108793 0.544243 -0.810847 0.154374 0.259728 0.672976 -0.489571 -0.421602 0.231199 -0.343925 -0.902780 0.533117 -0.849681 0.185128 0.082550 -0.115674 -0.086424 0.000359 0.487648 -0.369226 0.015834 -0.107698 0.067315 -0.650620 -0.028032 -0.050767 -0.469376 -0.421037 -0.123176 -0.257901 0.216783 -1.224530 -0.849592 -0.130547 -0.046882 -0.615414 -0.554236 -0.318083 0.269931 -0.164544 0.193608 -0.013866 0.261415 -0.768901 0.792406 -0.067302 0.099264 0.145628 0.540578 -0.284239 -0.298369 -0.464168 -0.672965 0.794345 0.830105 0.576792 0.933812 0.120188 0.060507 0.220346 0.945888 0.194689 -0.655708 -0.169452 -0.656043 -1.579148 0.020489 0.066200 0.502771 0.260002 -0.702209 0.195901 -0.108967 0.700301 -0.819474 -0.478697 0.710298 0.222907 0.733048 -0.312837 0.230841 0.143535 0.333490 -0.238275 0.327629 0.986908 1.003323 0.453975 -0.874161 0.460419 -0.393977 0.227099 0.155302 -0.385599 0.258055 0.807643 0.632462 1.556204 -0.216568 -0.474414 0.653583 0.027134 -0.434269 -0.099237 0.149282 -0.118287 0.197343 -0.041670 0.045547 0.821296 0.133264 0.333978 0.312891 -0.575252 -0.819773 0.026048 -0.043373 0.181593 -0.487124 -0.693182 -0.240668 -1.101734 0.754456 -0.162335 -0.445725 -0.593817 -0.589008 -0.967092 -0.393551 0.051344 0.268182 0.804309 -0.348604 -0.192088 0.768540 0.456938 0.662563 0.451241 -0.467985 -0.089732 -0.419746 -0.748001 0.009381 -0.412265 0.116492 -0.583535 0.205312 -0.594507 -0.396944 0.951657 -0.212093 -0.526467 0.597857 0.390638 -0.538503 0.328237 0.586202 0.503161 0.895514 1.069901 0.040288 -0.016216 -0.322533 0.097922 -0.983493 -0.527230 -0.300031 -0.873614 0.751042 0.218601 -0.212023 0.003696 0.770332 0.773301 -0.827508 0.403114 0.235057 -0.204042 -0.036805 0.816130 -0.698467 -0.293079 0.452911 -0.489927 0.109480 0.447774 -0.567590 -0.482352 -0.192494 -0.313744 1.424132 0.070174 0.047112 0.538795 -0.802272 0.284835 0.403993 0.273905 0.088322 0.060524 1.103999 -0.456261 0.064467 0.575442 0.222051 -0.599269 -0.392635 0.067484 0.847362 0.194602 0.201154 -0.262830 -0.672166 -0.263497 -0.625024 -0.626426 0.490487 0.700554 -0.112643 -0.272566 -0.112600 -0.039655 0.665297 -0.370530 0.411702 1.070226 0.181418 -0.156611 0.644608 -0.308540 0.236098 -0.188321 -0.473732 -0.521020 0.336300 -0.591793 0.295444 -0.909616 0.599119 0.547317 0.680334 -0.273680 0.072911 0.675501 -0.322900 0.396803 0.444694 0.507565 0.017602 -0.901203 -0.033931 0.168269 0.231425 -0.552325 -0.273879 -0.064603 0.191414 0.425680 0.337143 -0.449007 1.090682 0.613549 -0.466607 -0.221261 0.296750 -0.411049 -0.357408 -0.313866 0.039756 0.475260 0.307788 -0.494401 0.750879 -1.194224 0.181655 0.099489 0.076773 0.952274 0.140373 -0.061665 -0.185556 0.485310 0.304807 0.211872 0.595216 0.210032 0.256231 0.145388 0.065287 -0.204898 0.355854 -0.313372 0.310873 0.205457 -1.078866 -0.297242 0.468367 0.070569 0.916216 0.024834 0.055696 0.702329 -0.887562 0.758140 -0.564494 -0.327658 0.493197 -0.101436 -0.783964 -1.501726 -0.262597 0.102166 0.342078 -0.617422 0.430193 0.296477 -0.183141 0.267075 0.083410 0.194809 -0.742337 0.564210 -0.242227 0.222278 -0.695712 0.126157 -0.121181 -0.216043 0.054927 -0.348399 0.395326 -0.421616 0.548165 -0.216487 0.042929 -0.001457 -0.412962 0.119105 0.176292 -0.021833 0.011386 -0.086862 0.004776 0.331302 0.489465 0.263688 0.252562 0.391486 0.278019 0.769812 -0.215846 -0.028791 0.269871 0.889848 -0.172412 -0.776855 -0.030976 -0.583028 0.317804 0.642524 -1.185127 0.356255 -0.009106 0.353681 0.248796 -0.224646 -1.270534 -0.526867 0.620479 0.459340 0.360875
M018_ON -0.252669 -0.738561 -0.141235 0.084241 -0.017294 0.308128 0.184388 0.171124 -0.046125 0.278128 0.572315 -0.533770 0.010383 -0.158784 -0.235305 0.440475 1.122658 -0.145434 0.736053 0.104412 0.091799 0.171167 0.413068 -0.378745 -0.868061 0.372583 0.394555 -0.532736 -0.069185 -0.358574 0.183977 0.229898 -0.030829 -0.080008 0.283758 1.032226 0.303665 -0.860402 0.193574 -0.534317 -1.002302 -0.185114 0.179979 -0.379471 -0.458028 -0.124527 -0.853011 0.767314 0.807598 -0.326069 -0.419993 0.546207 -0.437132 -0.159458 -0.569153 0.180739 -0.769181 -0.530282 -0.252859 0.390454 0.269392 -0.189902 0.289005 0.100937 -0.131614 -0.231245 -0.291515 0.670213 0.707491 0.146575 -0.796765 -0.543530 -1.400766 0.167033 0.010490 -0.447274 -0.200633 0.290504 -0.565118 -0.150514 -0.327397 -0.044155 0.044900 -0.354103 0.439069 0.344044 -0.405711 -0.751013 -0.068126 -0.526347 -0.225810 -0.841880 -0.481681 -0.528601 0.858830 0.289396 0.254777 -0.419678 0.122054 0.773587 0.035075 -0.426104 0.449291 0.892227 -0.877750 0.415407 -0.138133 -0.492557 -0.706863 -0.165412 -0.364485 1.314277 0.716218 -0.193581 -0.812445 -0.452197 -0.035314 -0.602172 -0.969345 0.059844 -0.219516 -0.709173 -0.199978 -0.115320 0.977052 0.113651 -0.708806 -0.231077 -1.009121 -0.027478 -0.039743 0.075481 0.292278 0.440532 -0.559873 -0.196662 -0.015685 -0.156643 1.143298 -0.187046 0.616647 0.204028 -0.260829 -0.471847 -0.413918 -0.003044 0.118360 -0.931016 -0.083795 -0.838894 -1.812221 0.519301 0.607376 -0.138923 -0.963694 -1.230486 -0.138340 0.018862 -0.065751 -0.125314 -0.870957 0.022234 0.534075 1.619606 0.314639 0.353338 0.107977 -0.367196 -0.275375 0.580516 0.107542 0.377154 -0.394230 -0.622275 -0.444770 -0.358759 0.949109 0.188017 0.925833 -0.528635 0.527099 1.035950 0.123166 -0.200414 1.237045 -0.123498 0.662893 0.408928 0.016012 -0.012529 -0.233273 0.641616 0.761346 -0.529191 0.534888 0.123155 0.248179 -0.699081 0.919084 -0.134493 -0.009536 -1.040714 0.042131 0.757111 0.579837 -0.565077 -0.537567 0.093896 0.625458 0.138175 -0.873241 0.338494 0.861156 -0.726959 0.086879 0.843309 0.325799 0.108253 0.978178 -0.540635 0.793599 0.248566 0.589729 -0.523457 0.075137 0.280088 -0.966147 1.021662 0.582120 0.167832 0.625027 0.339003 0.369978 0.115527 -0.570071 0.206770 0.716565 0.692250 0.482774 -1.204885 -1.104998 0.072303 1.116807 0.099364 -0.825827 -0.557888 0.181226 -0.361409 -0.057331 0.326929 -0.024772 0.329026 -0.137891 -0.854088 -0.273366 -0.244496 -0.228057 -0.285464 0.016540 0.393679 -0.132791 0.420380 -0.997156 1.347166 -0.297999 0.478418 0.525607 0.874490 0.251758 -0.132545 -0.139296 0.402829 1.118828 0.056801 -0.487293 -0.404853 0.732180 -1.216082 0.505205 -0.132424 -0.016123 0.223486 -0.207413 -0.008215 0.270671 0.112560 -0.203031 0.591797 0.302661 0.024163 -0.405871 0.847239 0.345736 -0.198405 0.247550 -0.396374 -0.540036 -0.238625 -0.686180 0.847683 -0.011349 -0.103517 0.278864 0.791499 0.835018 -0.287150 -0.762567 0.403404 0.351629 -0.422166 -0.427304 0.358696 0.518775 0.565620 0.166980 -0.800758 0.346511 -0.024080 -0.322597 -0.915776 0.432563 0.287949 -0.390289 -0.012201 0.675116 0.697610 -0.388677 1.435576 -0.238792 0.558193 -0.384014 -0.485739 -0.518876 0.431456 -0.241991 -0.370560 0.211216 -0.150087 -0.805535 -0.040777 0.152590 -0.224535 -0.665394 0.009792 0.117482 0.479551 -0.053969 0.733604 -0.884099 0.532417 0.278118 0.234972 0.300084 0.343500 0.266248 -0.136507 -0.187414 0.366444 -0.034628 -0.390657 0.116421 0.178488 0.622595 0.014852 0.220461 -0.048361 -0.156939 0.558049 -0.546937 0.400339 0.351660 -0.377965 -0.187929 -0.141156 -0.703919 0.216932 -0.059983 -0.066845 -0.110757 -0.839406 0.957996 -0.618273 -0.155180 -1.002106 -0.006677 -0.645856 -0.326748 -0.220123 -0.569697 0.525700 -0.274024 0.102590 0.086085 -0.133165 0.041386 0.083691 0.018328 -0.363819 1.053692 1.024999
M018_OFF 0.973663 0.339768 -0.098284 0.100974 -0.177138 -0.446071 0.076047 -1.361458 0.782663 0.786598 0.144392 0.240487 -1.689163 -0.320814 0.381382 0.081474 0.584493 -0.063424 -0.418091 0.036196 0.144643 0.399436 -0.112178 0.470418 -0.763160 0.747073 -0.163619 -0.034772 -0.389607 -0.277577 0.789452 -0.038149 -0.603476 0.806581 -0.639478 0.241635 0.461540 -0.567895 0.402860 0.438834 -0.467115 -0.749369 0.603726 -0.745847 -0.584880 -0.701681 0.180043 -0.106786 0.756299 -0.995194 0.420825 -0.065826 -0.954530 -0.336839 0.060033 0.334689 0.375530 0.726557 0.357377 0.299860 -0.204954 0.939343 0.451830 0.920412 -0.079749 -0.165718 -0.115813 0.328196 1.147227 0.122174 -0.657027 -1.139561 -0.797827 0.484781 0.370812 -0.222842 0.208139 0.107387 -0.055170 0.213965 -0.330670 0.685852 -0.092726 -0.010320 0.642769 0.979955 0.110442 -1.283835 0.840924 -0.804804 -0.281874 -0.071513 -0.608326 -0.676713 0.780431 -0.042742 -0.068379 -0.142492 0.481243 0.433087 -0.236588 0.057731 -0.076090 0.695206 -0.129153 0.161297 -0.017924 -0.629564 -0.598188 0.158636 0.375075 0.352483 0.208229 0.591808 -0.287807 0.332367 -0.223591 -0.561056 -0.122814 0.265649 -0.983521 -0.262065 0.099577 -0.130357 1.169808 0.297240 -0.038414 -0.152247 -0.369418 0.200606 -0.220608 -0.051643 0.108183 0.203893 -0.926791 -0.274078 0.401981 -0.215760 0.385043 0.012691 0.383427 -0.227274 -0.320434 -0.729077 -0.348519 -0.149707 -0.101987 -1.204267 0.009620 -0.743503 -1.070373 0.283533 0.876117 -0.020006 -0.674303 -0.580289 0.091812 0.159072 -0.775338 -0.181413 0.037578 -0.249651 0.409686 0.994178 0.346131 0.557656 0.525449 -0.979350 -0.819662 0.306129 -0.616956 0.281530 -0.731079 0.052850 -0.360584 -0.841366 0.097525 -0.185793 0.812568 -0.673583 0.612844 0.892121 -0.391272 0.538326 0.962607 0.396143 0.909414 0.559289 0.030757 -0.146941 0.174947 0.060185 0.751326 -0.131575 -0.038550 0.090128 0.266903 0.099830 0.215485 -0.193349 -0.013497 0.305563 -0.231864 0.300702 0.342558 -0.357610 0.377186 -0.222754 0.248595 -0.014000 -0.615835 -0.458612 0.415234 -0.400378 -0.161241 0.420929 0.339608 0.068771 0.562236 0.120842 1.088233 0.836471 0.524003 -0.594317 -0.480331 0.223496 -0.381827 0.503498 -0.212654 0.426217 0.445199 -0.330228 0.057045 -0.356357 -0.811363 -0.484978 -0.128761 0.973336 -0.722038 -1.789662 -0.544425 -0.105644 0.817173 -0.123432 -0.511653 -0.910410 0.605150 -0.098663 -0.520563 0.297641 0.113228 -0.027621 -0.330265 0.437228 0.789474 -0.538221 0.014094 -0.458746 0.113905 0.411900 -0.142059 0.020038 -1.063153 1.008656 -0.873088 0.784486 0.736152 0.738894 0.239496 -0.333601 0.127841 0.624311 1.006410 0.055507 -0.352283 -0.106484 -0.042507 -0.900628 -0.275263 0.453722 -0.362134 0.078777 -0.432939 -0.363200 0.706004 -0.047782 -0.311035 0.460538 -0.255271 -0.070131 -0.009005 -0.085651 0.202557 -0.652568 -0.089354 -0.155836 -0.055787 -0.015986 -0.324637 0.950606 -1.054198 0.505852 -0.153658 0.179155 0.753424 -0.419526 -0.301806 -0.224142 0.218454 -0.347384 -0.688210 0.317344 -0.172087 0.266629 0.300055 -0.929325 0.744835 -0.559706 -0.187301 -0.963917 0.249854 0.326564 -0.069461 -0.585455 0.116205 0.359587 -0.298205 0.970031 -0.193712 0.583226 -0.059045 -0.804395 -0.553299 0.762351 -0.453851 -0.078204 0.136850 0.247896 -0.347891 0.111648 0.279287 -0.112232 -0.246202 0.654887 -0.547933 0.216438 -0.284376 0.118103 -0.198837 0.130960 0.341012 0.589083 -0.194644 0.117450 0.027826 -0.437368 0.333106 0.432068 -0.116275 0.416153 -0.082422 -0.500670 0.283172 -0.324962 0.233100 0.217590 0.730030 0.857019 -0.942646 -0.695878 0.821426 -0.410951 -0.005340 0.466119 -0.888106 0.039310 -0.127136 -0.347145 -0.334081 -0.127924 -0.479523 -0.646734 0.244830 -0.573685 0.132791 0.052355 -0.152002 -0.636365 -0.210549 0.075950 -0.470110 0.648559 -0.225669 0.271446 -0.003032 0.011697 -0.273847 -0.624785 0.677981 0.499669
M024_OFF 0.384630 0.167201 0.114709 -0.213719 -0.055628 -1.024449 -1.043006 -0.167742 -0.782587 0.071359 0.747653 0.011341 0.600160 -0.050358 -1.129749 1.084719 -0.351917 -0.322143 -0.507055 0.016062 -1.194499 -0.679534 0.327209 -0.120884 0.247276 0.280367 -0.385708 -0.032694 0.513473 0.229395 -0.781862 -0.215126 0.105688 0.590247 -0.496275 0.031249 0.398892 -0.295842 -0.034927 -0.877155 0.773477 1.263409 -0.091524 0.130572 0.959515 -1.012048 0.274163 0.116185 0.071872 0.721580 -0.210456 0.274010 0.947745 -1.003713 0.797262 0.456049 -0.063174 -0.474765 0.013240 -0.720943 0.069030 0.030079 0.218262 0.242573 -0.106300 -0.713140 0.336634 -0.723316 0.576654 0.605192 -0.096222 0.253422 0.285254 0.048823 0.553932 0.171258 -0.822009 -0.504226 0.176289 0.409720 0.119235 -0.059414 -0.142168 -0.257924 -0.166310 0.085721 0.240238 0.069410 0.311731 -0.031372 -0.432301 0.647946 -0.526029 0.406808 1.019945 -0.429660 0.412673 -0.350633 0.344412 -0.408048 -0.557497 -0.502236 -0.071955 0.485587 0.042897 -0.263572 -0.054487 0.207594 -0.341850 0.256081 0.266422 0.013119 0.627961 0.144160 -0.317197 0.191034 0.305419 0.823564 0.063754 0.187461 -0.794053 -0.812496 -0.380707 -0.138743 0.422090 -0.661834 -0.259176 0.591406 -0.008471 0.146564 -0.988489 -0.140006 -1.062376 0.535396 0.201105 -0.220225 0.816085 -0.108144 -0.493888 0.615316 -0.046993 0.161089 -0.074503 0.269272 -0.561265 0.314704 -0.108525 -0.116789 -0.034709 0.729787 -0.585910 -0.065046 0.135983 1.017888 -0.046851 -0.202162 -0.640466 0.359947 -0.436875 -0.710696 0.235786 -0.081788 0.372759 0.145454 -0.319424 0.096495 0.373782 -0.058171 -0.003632 0.165265 -0.092283 -0.815142 -1.040706 -0.005272 -0.775109 -0.276982 -0.407232 0.272170 0.085656 0.300490 -0.436137 -0.345054 -0.038826 -0.002463 -0.418087 0.538904 0.404908 -0.169672 0.521959 -0.093948 -0.771113 0.904945 -0.539735 -0.870981 -0.201874 -0.138897 -0.208467 -0.575947 0.046448 0.325914 0.596675 0.041399 -0.287181 -0.448186 0.291381 0.280157 0.085227 0.289053 -0.743483 0.227546 -0.112796 -0.206801 0.506126 0.035252 0.246386 0.538713 -0.308428 -0.110240 0.714329 -0.156207 0.721579 -0.081294 0.664709 0.809487 -0.351014 0.608326 1.204026 -0.199125 -0.658644 0.333318 0.262441 -0.568981 0.185972 -0.238012 -0.173658 -0.425653 -0.054995 -0.124545 0.159662 -0.147376 0.499929 -0.991218 -0.270791 -0.119739 0.232128 0.085956 -0.300250 0.760776 0.107726 -0.039153 -0.582432 -0.591301 0.499146 0.633776 0.404830 0.201406 -1.147990 -1.543851 -0.336429 -0.852302 0.771911 -0.222467 1.003668 0.755161 0.319378 0.282021 0.203673 -0.731169 -0.442438 0.824731 -0.073683 -0.946647 -0.439938 0.208294 0.224017 0.600536 0.718665 0.300185 0.837965 0.452973 0.375424 -0.137770 -0.102515 -0.053006 0.381465 0.126556 0.707000 -0.494073 0.041136 -0.133220 0.301786 -0.336569 0.812283 0.263418 -0.294366 0.149439 -0.666605 0.570366 0.833899 -0.449403 -0.213914 -0.059404 -0.659520 0.043444 -0.522139 1.432183 -0.281894 0.409310 0.091014 -0.484290 -0.099105 0.128624 0.297270 -0.539819 -0.180268 0.339376 0.247238 0.254397 -0.505780 0.182660 0.148666 -0.664210 -0.171735 0.480900 0.370299 0.359996 -0.482630 -0.675090 0.521844 0.580094 -0.799205 0.750547 0.706955 -0.104798 0.192714 -1.097031 0.332722 0.161761 -0.109938 0.570433 -0.516035 -1.320488 0.147478 -0.101527 0.022938 0.335110 0.391235 -1.103727 -0.132604 0.034156 -0.165182 0.060975 -0.156527 0.196743 -0.472384 0.479812 0.854354 -0.189407 0.748676 -0.609329 -0.922109 0.194313 -0.204320 1.046145 -0.316260 -1.255265 -0.123903 0.086874 -0.149534 -0.574328 -0.764475 0.460156 -0.534292 0.124363 -0.793775 -0.643896 1.180508 0.158355 0.213230 0.551113 -0.199334 0.678561 -0.252612 0.017151 -1.239047 0.256372 0.386702 -0.031192 -0.682197 -0.426945 0.484292 -0.047030 0.517975 -0.129298 0.557439 0.161004 0.574994 -0.315787 0.604064 -1.003433
M024_ON 0.685779 -0.083351 -0.214525 -0.380437 -0.379613 -0.597983 -0.222546 0.249761 -0.428807 0.083248 0.399394 0.007120 0.153869 -0.245595 -0.424887 0.475915 0.349469 0.270908 0.206789 0.048528 -0.331567 -0.411121 0.746995 -0.851100 -0.017307 0.285601 -0.010356 -0.191750 0.548624 0.131478 -0.701382 0.130610 0.112104 0.161753 -1.027023 0.793345 0.917006 -0.683604 0.638873 -0.853848 0.261518 1.327912 -0.065971 -0.093977 -0.928222 -1.385596 0.419310 -0.022055 0.494588 0.756848 -0.344729 0.728423 -0.314302 -0.763425 0.343493 0.152790 -0.456163 -0.103507 0.356698 -0.094205 0.117407 -0.253780 -0.365988 -0.232819 -0.009089 -1.114120 0.310206 -0.397951 0.439620 0.997668 -0.311701 0.447738 -0.512675 0.202670 0.617382 0.893444 -0.855217 0.284356 0.026976 -0.060498 0.562647 0.045529 0.302603 -0.226471 -0.390836 0.182513 -0.412125 -0.167902 -0.306220 0.069173 -0.634825 0.800994 -0.032804 0.085910 0.721761 -0.417254 0.652777 -0.318214 -0.524243 -0.306607 -0.843039 -0.531906 -0.161539 0.179008 0.221403 -0.466972 -0.170061 0.525281 -0.724182 0.209691 -0.168586 0.133328 0.476579 -0.061113 -0.136640 0.328709 -0.227471 1.074075 0.283099 0.035054 -0.060893 -0.349999 -0.029581 0.278235 0.012446 -0.795184 0.258658 0.691320 -0.247940 0.041554 -1.110870 -0.044811 -0.409387 0.939745 -0.314780 -0.306865 1.332534 -0.675063 -0.121517 0.156968 0.705046 0.432488 -0.000280 0.145150 -0.524951 0.504348 -0.245056 -0.259350 -0.379797 1.352608 -0.692415 0.091819 -0.409515 1.054239 0.363391 -0.455961 -0.618096 0.627208 -0.572145 -1.254765 0.024282 -0.357254 0.553852 0.083559 -0.097793 0.098863 0.843601 -0.314043 0.058540 -0.115608 0.153668 -0.506711 -0.179141 0.067214 -0.101209 -0.035032 -0.073141 0.206460 0.000253 0.174447 -0.618924 -0.638857 -0.228750 -0.507370 -0.344388 0.298269 0.079999 0.019762 0.749006 -0.064439 -0.865005 0.858088 -0.607302 -0.662346 -0.610892 -0.367359 -0.090410 -0.051996 -0.130270 -0.052880 0.069030 0.091857 0.395123 -0.125703 0.350284 -0.600925 -0.162023 0.454641 -0.562024 0.305370 -0.291989 -0.076613 0.189102 0.203033 0.328855 0.403610 -0.212037 -0.241599 0.242045 -0.218361 0.175829 0.015249 0.301013 0.616744 0.022297 -0.134221 1.166402 -0.320754 -0.453042 0.219071 0.794761 -0.699937 0.301055 0.009914 0.038647 0.340082 0.082274 -0.552109 -0.128524 0.236207 0.315154 -0.713043 -0.242293 -0.246906 0.235902 0.591855 0.054937 0.693090 0.325686 0.227400 -0.598410 -0.422109 1.040442 0.667672 0.141145 0.271243 -0.698272 -1.288059 -0.535678 -0.683141 0.341496 -0.269388 1.075473 0.383905 0.176232 0.672221 -0.031536 -0.411724 0.008371 0.636825 0.705395 -0.991662 -0.528795 0.680530 0.051862 -0.015403 0.698952 0.673919 1.150960 0.201972 0.337030 0.024928 -0.105962 -0.801079 -0.066727 -0.123389 0.581234 -0.896450 -0.358731 -0.374358 0.268252 0.025055 0.480943 0.465131 -0.220252 0.030601 -0.682862 0.116109 1.135737 -0.650265 -0.488445 0.007280 0.044509 -0.042214 -0.783253 0.953577 0.459982 0.487846 -0.066543 -0.097435 -0.414281 -0.195712 0.236584 -0.478559 0.041618 0.367374 0.495293 0.579594 0.078188 -0.266163 0.312972 -0.794208 -0.230035 0.871554 0.009449 0.067755 -0.263867 -0.565425 0.297035 0.534798 -1.133281 0.877762 0.577561 -0.310987 0.344445 -0.860595 0.574085 0.213144 -0.223205 0.387960 -0.602294 -0.908750 0.172764 -0.082973 -0.178960 0.056319 0.520471 -0.739160 0.101551 0.174492 -0.202657 -0.003826 -0.711177 0.229362 -0.286455 0.102816 0.511248 -0.191439 0.198316 -0.250414 -1.257671 -0.044494 -0.124861 0.759422 -0.093593 -1.199981 -0.707981 0.029243 -0.123237 -0.053741 -0.150382 0.489632 -0.486885 0.206813 -0.808419 -0.500315 1.472263 0.108244 -0.169442 0.610796 0.175765 -0.009132 -0.597964 0.309958 -0.937679 0.029617 0.355561 0.091343 -1.345554 -0.398141 0.158173 -0.253371 0.304630 -0.147288 0.457410 0.255667 0.619607 -0.011025 -0.546113 0.642027
M017_OFF -0.285375 0.247451 -0.086173 -0.370230 -0.700826 0.005976 -0.378492 -0.762623 -0.120386 0.828601 0.637862 -0.418431 -0.475550 0.011714 -0.069570 -0.368159 0.462602 0.260129 -0.397417 0.678412 0.409376 0.180213 0.296508 0.930617 -1.059910 -0.497706 0.286038 -0.319686 0.049102 -0.165182 0.689397 0.185331 -0.148272 -0.356080 -1.064249 1.089411 1.050856 -0.525104 0.574344 0.194348 -0.616796 -0.251740 0.140285 -0.755280 -1.095130 -0.107946 -0.388722 0.452442 1.244016 -0.757770 0.115478 -0.505541 -0.322692 -0.385689 -0.190676 0.637728 0.029411 0.291960 -0.056465 -0.176636 -0.002972 0.500494 1.007574 0.952799 0.129294 0.246107 -0.958998 0.831455 1.059364 -0.431143 -0.997004 -1.571749 -0.151153 -0.123152 0.104377 -0.705175 0.425316 -0.121282 -0.522137 -0.501284 -0.245684 0.231206 0.146677 -0.885942 0.515925 -0.317473 0.352634 -0.890656 0.303040 -0.787425 -0.214605 -0.116413 -0.727953 -0.534922 1.338336 0.232735 0.749663 -0.273526 0.415151 0.667752 -0.406990 0.721297 0.123598 1.158199 -0.375522 0.278432 0.361820 -0.626986 -0.856742 -0.559404 0.108540 0.796699 0.332128 -0.019449 -0.222145 -0.888795 -0.439905 -0.621980 0.738098 -0.081670 -0.578956 -0.732267 -0.169856 -0.223284 0.781126 0.477037 -0.572788 -0.287529 -0.695105 -0.607638 -0.488904 0.389156 0.131168 0.692585 -0.847353 -0.710231 0.261973 -0.494478 0.894360 0.549186 0.723216 -0.086341 -0.064301 -0.694989 -0.700684 -0.483792 0.329601 -1.504291 -0.054979 -0.600620 -1.233509 0.257820 1.168038 -0.034867 -0.298997 -1.312010 -0.724658 -0.379096 -1.204403 -0.184959 -0.341227 0.084895 0.783049 1.818115 0.455193 -0.237022 0.038452 -0.870954 -0.527026 0.211343 0.234671 0.721131 -0.430067 -0.817310 0.140211 -0.266914 0.685668 0.365794 0.944996 -0.531462 0.458344 1.281972 -0.160073 0.460262 1.047158 0.149858 0.375398 0.357486 -0.243439 0.043684 -0.606877 1.059933 1.131768 -0.696740 0.560973 0.384430 -0.115933 -0.609408 0.329402 0.212047 -0.508793 -0.828244 0.169439 0.462322 0.790412 -0.662572 -0.513967 0.219187 1.034444 -0.171810 -0.602255 -0.323722 0.127494 -0.459606 -0.131099 1.135460 -0.057440 0.047861 0.975202 -0.490897 0.716066 0.408070 -0.040989 -0.704796 -0.106939 0.166941 -0.688557 -0.007244 0.090342 -0.252726 1.237961 0.089233 0.587722 0.545670 -0.463343 -0.714786 0.345259 0.704266 0.106791 -1.226676 -0.533699 -0.129331 1.454552 -0.074540 -0.359720 -0.599796 -0.376967 -0.089729 0.046020 0.790823 -0.065281 0.263502 0.302540 0.518311 0.318078 -0.521154 -0.433456 -0.752952 0.461289 0.449518 0.010745 0.293526 -0.287778 1.111092 -0.230789 0.065436 0.737000 0.489580 0.306813 0.236320 -0.159235 0.869584 0.350366 0.080061 -0.893542 0.189580 -0.058271 -0.791955 0.729396 0.106187 -1.237324 -0.202893 -0.483806 -0.607426 0.748984 -0.802965 -0.213726 0.522302 0.742667 -0.399824 -0.247004 0.325720 0.304769 -0.072678 -0.082962 0.139935 -0.787544 -0.651321 -0.539687 0.785325 -0.012636 0.421956 -0.015510 0.622126 0.569667 -0.270543 -0.820097 0.445774 0.095722 -0.677859 -0.499029 -0.471761 0.324290 0.395998 -0.667369 -0.379116 0.217830 0.304564 -0.621072 -0.573971 0.235412 -0.410077 0.105412 -0.260923 0.032957 -0.607720 -0.187310 1.083282 -0.485316 0.558710 -0.123168 -0.216115 -0.725226 0.970385 -0.075319 -0.438002 -0.519803 -0.147453 -0.852139 -0.390189 0.121925 -0.692559 -0.047329 0.168604 -0.059162 0.911225 -0.417599 0.572962 -0.843404 0.356139 0.391597 0.122272 -0.361961 0.594585 0.443829 0.210692 0.067282 0.290519 0.625064 0.068553 0.075020 0.112094 0.027970 0.076392 0.140370 -0.115587 -0.079883 0.836317 0.341144 -0.116124 0.366934 0.314594 -0.168698 -0.222041 -0.747055 0.442077 0.202497 -0.509786 -0.585477 -0.427570 0.483562 -1.032173 -0.372214 -0.778005 0.306739 0.355539 0.116194 -0.373592 0.214336 0.651815 -0.086121 0.483909 0.595414 -0.808987 -0.217050 -0.052681 0.058414 -0.866297 0.511566 1.991269
M017_ON 0.861530 0.146153 0.493480 -0.391128 -0.098862 0.044077 0.709712 -1.349543 0.747186 0.095937 0.648315 -0.385334 -1.818430 -0.307768 0.199861 0.029604 0.272320 0.333941 -0.393214 0.244709 -0.683773 0.504294 0.529296 0.103413 -0.794873 0.856590 0.961109 -0.560560 -0.364947 0.173355 0.193100 -0.507499 -0.089921 0.744288 -1.051354 -0.052927 1.282634 -0.458266 0.531613 -0.242316 -0.716139 -0.700081 1.180812 -0.576911 -0.593460 -0.978627 -0.455556 -0.289968 0.873062 -0.724861 0.069845 -0.193636 -0.984787 -0.239847 -0.119766 0.252164 0.404696 0.084757 0.382839 0.113490 -0.540310 0.018162 0.767703 0.544186 -0.161417 0.520753 -0.288393 -0.258381 0.553130 0.098922 -1.532966 -1.350964 -0.034286 0.173138 -0.074733 -0.936638 0.610903 0.345407 -0.473253 0.212621 -0.486417 -0.002579 0.278435 -0.963723 0.635331 0.171711 -0.060190 -0.788466 0.936802 -1.331814 0.341826 -0.268471 -0.318487 -1.211875 1.429677 0.226517 0.098385 0.028862 -0.072491 0.615203 0.199621 -0.553760 0.101476 1.278361 -0.248553 0.612655 -0.895774 -0.316818 -0.317555 0.237163 -0.552734 0.621337 0.629576 -0.305333 -0.124437 -0.127863 -0.156950 -0.351991 0.178670 0.800069 -1.301969 -0.168374 0.056329 0.469716 1.249084 0.593138 -0.238758 -0.014564 -1.387473 0.735521 0.073625 -0.151073 0.823175 -0.008602 -0.643570 -0.198771 -0.003442 -0.205419 0.145795 -0.034125 0.542804 -0.803505 -0.329593 -0.670443 -0.526834 -0.080031 -0.311113 -1.125251 0.712317 -0.737609 -1.615978 -0.353910 1.157992 -0.503975 -0.692986 -0.398264 -0.396704 0.266426 -0.644916 0.298237 -0.406172 -0.755402 0.322076 1.023733 0.306462 0.417512 0.281646 -1.086917 -0.871342 -0.265113 0.070398 0.580221 -0.801083 -0.758066 -0.604714 -0.675524 0.870798 -0.102946 -0.709386 -0.236168 0.199815 0.865366 -0.435272 0.777890 0.208387 -0.394225 1.233769 0.025668 -0.405441 0.283254 -0.015571 0.435950 0.474617 -0.908860 0.579004 -0.045032 0.072002 -0.165892 -0.009140 -0.315366 -0.044357 -0.902681 -0.910585 0.512229 0.283250 -0.623740 0.058028 -0.831415 0.289594 0.824520 -0.963855 0.249565 0.648815 -0.968198 0.327254 1.298298 0.225607 0.472401 1.138309 -0.498611 0.873329 0.458131 0.350624 -0.632702 -0.454064 0.333970 -0.642059 0.663013 -0.090481 -0.768000 0.295518 0.317435 0.428136 0.292183 -0.820839 -0.805754 0.453019 0.554891 -0.669334 -1.078690 -0.421226 0.235156 0.527626 0.831581 -0.483971 -0.617156 0.421756 -0.258327 -0.024686 0.498661 -0.125198 0.179639 0.806822 -0.422911 -0.042994 -1.078737 -0.015697 0.268325 0.122562 0.317580 0.123303 0.210586 -0.358084 0.753082 -0.144882 0.192759 1.266088 1.176369 -0.457086 -0.370299 -0.127804 0.789900 1.089248 -0.258798 -0.663563 0.407405 -0.303756 -1.393228 0.578694 0.474037 -0.483766 -0.111671 -0.833195 -0.471206 0.052269 -0.192288 -0.838588 -0.234780 0.505256 -0.590845 0.581508 0.072991 0.710986 -0.317350 -0.393752 0.058188 -0.145423 -0.373194 -0.231074 0.913619 -0.407315 0.989151 0.244917 -0.013188 1.095427 -0.177148 -0.598264 0.568685 0.285390 -0.227804 -0.278711 0.123161 -0.055698 0.314718 -0.127994 -0.341735 -0.016588 -0.061534 -0.100574 -0.618098 0.373344 0.301998 -0.619557 -0.168578 0.286370 -0.346129 -0.251782 0.799802 -0.222007 0.785900 -0.725235 -0.002394 -1.305266 0.922361 -0.050881 -0.436969 0.122003 0.260316 -0.593558 0.584702 0.303882 -0.741867 -0.238112 -0.461311 0.092441 0.625432 -0.064442 -0.223118 -1.167381 0.691304 0.244631 0.183140 0.006912 0.211630 -0.008923 -0.416985 -0.314278 1.136721 -0.586491 0.064037 0.131980 0.359617 0.913845 0.194173 0.411862 -0.298872 0.697213 -0.464422 -0.620786 -0.863074 0.313234 0.198254 -0.416793 0.294104 -1.327991 0.036271 0.534762 -0.249118 0.089519 -0.093544 0.200198 -0.711044 0.482182 -0.146812 -0.208622 -0.364591 0.050365 -0.165293 -0.681594 -0.033144 0.433549 0.350101 0.188659 -0.263899 0.027884 -0.258415 -0.103429 -0.574786 0.971228 0.954414
M010_OFF 0.341200 -0.646636 0.369589 -0.697410 -0.149163 0.124530 0.759037 0.140373 -1.034913 -0.050792 0.128244 -0.391091 0.158673 -0.547094 -0.031433 0.048133 -1.414584 -0.535739 -0.330377 1.758482 0.112215 0.556706 -0.632977 0.005365 -0.062790 -0.472288 0.367366 0.118601 -0.117895 -0.486494 0.252509 0.636428 -0.034147 -0.226405 0.773297 0.161479 -0.174013 0.222882 -0.184957 -0.643496 0.585760 0.007624 -0.692565 0.217957 -0.160692 -0.164315 1.018307 0.170292 1.420568 -0.071059 -0.237732 -0.292569 0.616343 0.173604 0.371949 0.146536 0.270714 -0.385233 -0.909068 -0.167247 -1.071249 -0.398622 0.357891 0.117338 0.038429 -0.980142 0.279517 -0.271492 -0.772618 0.491134 0.325525 0.310534 0.151220 -0.826401 -0.913556 0.580059 0.076479 -0.724514 0.182951 -0.522448 -0.406715 -1.062146 0.079778 0.733596 0.763740 -0.437377 -0.141487 0.491770 -0.535578 0.612628 -0.566322 -0.258111 -0.113095 0.261791 -0.318504 0.639278 -0.756926 0.226287 -0.512436 -0.463278 0.166398 -0.250127 0.174672 -0.660469 0.199351 0.116879 -0.528543 0.275546 0.524762 0.276434 -0.589290 -0.085687 -0.257794 1.413251 0.550244 -0.337394 0.691783 0.051946 0.506777 0.196007 -0.452166 0.249929 -0.732383 -0.278385 0.617079 -0.205407 1.009127 0.098547 -0.547233 0.262527 -0.039076 -0.080401 -0.511933 0.416690 0.058787 0.522054 -0.675917 -0.789029 -0.217650 0.587614 -0.119516 0.365968 -0.705239 0.065250 0.379128 -0.308679 0.051029 0.047523 -0.610540 0.473625 0.654438 0.445723 -0.129836 0.105257 0.659456 0.127987 -1.026312 -0.159641 0.020039 0.701828 0.185602 -0.304599 -0.609670 0.622728 0.336149 0.124523 0.006990 -0.378484 0.921277 -0.545586 0.492694 0.413542 -0.738044 0.622771 -1.061335 -1.073995 -0.244292 -0.202876 0.349722 1.150601 -0.193393 0.715357 0.599436 0.024217 -0.009315 -0.016883 -0.111141 0.229987 0.216826 -0.386844 0.682559 0.105870 -0.113617 -0.798181 0.103662 0.446566 -1.149685 -0.211587 0.558611 -0.142140 0.144017 -0.309549 0.209563 -0.174209 -0.375898 0.659440 -0.639980 0.287246 -0.391776 -0.051130 -0.824473 0.218487 -0.865411 0.143767 -0.316348 -0.139727 -0.758938 -0.348068 -0.392337 0.124143 0.039102 -0.469057 -1.108858 -0.007680 0.179113 -0.778849 0.649504 -0.229145 -0.201211 0.294246 -0.336076 -0.556139 0.759548 0.968561 -0.023161 -0.595712 0.125345 -0.520054 -0.502125 1.065897 -0.320730 -0.186177 -0.719410 -0.571145 -0.502912 0.448453 0.056587 -0.631203 -0.596054 0.770057 -0.452802 0.646755 -0.142465 -0.019338 0.073834 -0.346385 -0.157514 0.999432 -0.279847 0.348968 0.397828 0.318412 0.454460 0.253866 0.163402 -0.233263 -0.130658 -0.529918 -0.154878 0.812577 -0.677569 -0.742841 -0.741331 -0.119265 -0.030914 -0.241671 -0.020964 -0.051858 0.058678 -0.470912 -0.360613 -0.200486 -0.790294 -0.049380 -0.662340 0.232170 0.837394 0.364792 0.340804 -0.493262 0.379754 -0.883584 -0.031743 0.004838 0.581499 0.269957 0.287829 0.134965 -0.070061 -0.066148 0.675063 0.212830 -1.138256 -0.538514 -0.546797 -0.661138 0.851622 -0.828768 -0.430504 -0.040648 0.171896 -0.431647 0.171710 0.750603 -0.248932 0.007474 -0.368095 0.195731 0.908100 -0.195565 -0.040348 0.608524 -0.102501 0.081638 0.300071 -0.581156 0.352329 0.304809 0.378094 -1.094913 -0.036635 0.898352 0.261807 0.194487 0.195794 -0.171699 -0.049702 -0.540924 -0.627633 -0.421699 0.191591 0.541526 -0.062300 -0.120571 -0.199264 -0.156807 0.605745 -0.321260 0.544789 -1.127876 0.302962 -1.217008 0.912977 -0.116818 -0.762101 0.357481 0.116190 -0.548130 0.211420 0.179535 0.132278 0.743793 -0.188870 0.133713 0.290418 -0.294180 0.810900 -0.241081 -0.724276 0.274251 1.005827 -0.587862 -0.104846 -0.038876 -0.149146 -0.504176 1.160330 1.384103 0.507751 -0.396506 -0.546653 -0.142667 -0.114712 0.907357 -0.079868 0.774877 -0.578171 0.403948 -0.324859 -0.283973 0.135289 0.596742 -0.095659 -0.057038 -0.254293 -0.838836 -0.011852 0.458107 1.317823 -0.882116
M010_ON -0.402431 0.342086 0.101619 -0.877698 -0.972177 0.091300 0.805682 0.569010 -0.681520 -0.500901 -0.276987 -0.458006 1.166085 -0.348723 0.562969 0.581272 -0.495135 -0.352211 0.406105 0.743966 -0.065703 0.666705 -0.118583 -0.237101 0.122157 -0.410178 0.252801 0.526159 0.363376 -0.144172 -0.097777 -0.377655 0.026734 -0.318199 0.657636 -0.145569 -0.360440 0.503443 -0.169298 -0.735811 0.380186 -0.313262 -0.964634 -0.359964 -0.073594 -0.567094 0.532481 0.125078 0.961168 0.315979 -0.328713 0.272477 0.269033 0.269884 0.078763 0.305363 0.943586 0.015079 -0.136133 0.596039 -1.328465 -0.753780 0.603763 -0.491824 -0.393698 -1.032284 0.604752 -0.111853 -0.586840 0.734178 0.114991 0.328083 0.047920 -0.870190 -0.781905 0.145877 -0.089233 -0.439257 -0.292620 -0.416305 -0.496127 -0.828768 0.335732 0.062267 -0.240829 0.331228 0.251796 0.733338 -0.362352 0.879711 0.003990 0.014035 -0.655381 -0.752529 -0.745130 0.665992 -0.709046 0.277347 -0.322153 -0.790033 0.007954 0.181827 0.441227 -0.306426 0.243327 0.245638 -0.313965 0.617040 0.620373 0.663983 -0.772042 -0.214036 0.040960 1.268403 0.470302 -1.149175 0.557670 0.560340 0.401602 0.298554 -0.037570 0.304440 -0.784292 0.219155 0.154253 0.015318 0.969799 -0.041385 -0.152527 -0.042410 -0.441918 -0.039818 0.254969 -0.543766 -0.775931 0.346752 -0.989517 -0.807816 0.018146 0.317186 -0.065329 -0.061594 -0.166694 -0.515926 -0.010094 0.137678 -0.410165 0.473042 -0.373036 0.421861 -0.016492 0.964154 0.057996 0.034808 0.828784 0.781627 -1.448996 -0.504694 -0.024792 0.481756 -0.196275 -0.185053 -0.574433 0.482973 0.719896 0.463592 -0.046299 0.381119 1.209735 -0.855320 0.662764 0.783860 -0.146011 0.559687 -0.774419 -0.289548 -0.104613 -0.672228 0.897046 0.710938 -0.943322 0.485517 -0.033347 0.012594 -0.419834 0.225863 0.712306 0.101840 0.455586 -0.478597 0.029136 -0.447252 -0.104145 -0.707776 -0.360852 0.091368 -0.735255 0.398091 -0.262896 -0.734975 0.406450 -0.282376 0.297601 -0.895306 -0.306025 0.953819 -0.414396 0.053333 -0.189593 -0.022312 0.195744 -0.247904 -1.331303 -0.250505 0.175047 -0.564632 -0.551517 0.650719 0.951552 0.491523 0.743374 0.791153 -1.095649 -0.022916 0.672981 -0.745031 0.322458 0.481330 -0.622284 0.012713 0.405728 0.027677 0.122325 0.903237 0.069687 -0.223535 -0.128641 -0.368769 -0.615955 0.630982 -0.295930 -0.040667 -0.905715 -0.242183 0.073949 0.043613 0.134641 -0.007065 -0.287125 0.790339 0.285222 0.430972 0.339579 0.196407 0.396417 -0.394266 -0.411858 0.065339 0.166550 -0.083544 -0.411530 0.607544 -0.276629 -0.114353 0.493874 -0.119586 -0.218319 -0.026730 -0.641890 0.089505 -0.352179 -0.709292 -0.291133 0.120145 0.139192 -0.283667 0.124898 0.324639 0.293835 0.147581 -0.358235 -0.372571 -0.460450 -0.028711 -0.425108 0.237477 0.759288 0.029715 0.564479 -0.224511 0.688536 -0.495703 0.560390 0.066662 0.234501 0.556836 -0.243922 0.441058 -0.062783 -0.114612 0.495575 0.776352 -0.720534 -0.244970 -0.709403 -0.022997 0.399709 -0.376480 -0.488447 -0.255213 -0.235920 -0.212830 0.308436 1.198486 -0.533542 -0.038142 -0.598709 0.405709 0.017213 -0.147474 0.166943 0.585230 0.026424 -0.379446 1.050961 -0.976254 0.389973 -0.364201 -0.162012 -0.215483 0.049774 0.231960 0.114035 -0.491487 0.510878 0.864882 -0.274778 -0.417396 -0.315066 -0.930834 0.817602 -0.624133 -0.449774 0.274123 0.277762 -0.460146 0.216634 -0.768351 0.879950 -1.389242 0.500086 -1.114189 0.146915 -0.467871 -0.444144 0.252251 -0.669939 -0.498088 0.199798 0.407095 -0.173113 0.802831 0.125558 0.602170 0.125603 0.205516 0.549169 0.146649 -0.385973 -0.521948 0.153747 -0.096891 -0.584660 -0.735586 0.224111 -0.426007 1.215143 0.908484 0.386712 -0.333306 -0.872117 -0.281056 0.033342 1.275020 -0.440109 0.458853 -0.308316 0.666941 0.041804 -0.286259 -0.034210 0.717265 -0.289944 -0.196059 -0.115408 -0.648283 -0.526746 0.304797 0.777522 -0.289444
M021_OFF 0.308113 -1.302870 -0.357029 -0.376918 0.862622 -0.035991 -0.047481 0.357329 0.875156 -0.439899 -0.274973 0.872306 -0.741771 -0.072141 0.304677 0.263811 0.447545 0.774157 0.158709 0.107647 -0.120387 0.131642 -0.469025 -0.264080 -0.626996 0.767927 -0.333009 -0.191446 0.408220 0.514309 0.231662 0.154611 0.260333 -0.397381 0.926362 -0.382924 -0.802998 -0.804473 -0.536068 0.762331 0.247606 -0.398993 1.344028 -0.254114 -0.337323 -0.615752 -0.205920 1.040752 0.149559 -0.387987 -0.752209 0.261791 -0.502377 -0.690515 -0.230109 0.083873 -0.534471 0.429419 -0.014569 -0.355451 -0.481893 0.253773 -0.314402 -0.141939 0.149628 0.178096 0.197647 -0.193828 0.299774 -0.519688 0.433378 0.059799 -0.948470 0.328033 -0.635295 0.616245 -0.436500 0.276218 0.371111 0.851270 0.250738 -0.274708 -0.060942 -0.038346 0.838570 0.194312 0.060395 -0.558461 0.042398 0.104178 -0.298187 -0.142101 -0.313923 -0.312526 0.594018 -0.232997 -0.201082 -0.533381 0.305403 0.929016 0.007044 0.841345 0.581695 0.203069 0.124554 -0.050952 0.305421 -0.515067 -0.130867 0.113137 -0.560479 0.676223 1.412687 -0.442721 -1.432084 0.440191 -0.808349 -0.867790 -0.576488 0.543091 -0.023772 -0.294287 -0.655379 -0.866991 1.388151 -0.759172 -0.208470 -0.639396 -0.438115 -0.310070 0.221366 0.049079 0.224408 -0.311724 -0.452606 1.222994 -0.983678 0.788946 1.243953 -1.029546 -0.147409 -0.181070 -0.391090 -0.480335 -0.645236 0.599296 -0.295037 0.287024 0.474947 -0.347332 -0.697058 0.747465 0.501798 0.038032 0.425500 -0.065408 0.645860 -1.009642 0.185524 -0.990110 -0.862584 -0.232554 0.741031 1.409315 0.857136 0.339768 -0.260902 -0.415602 -0.701870 1.180003 -0.157101 -0.576075 -0.546913 0.144430 -0.666507 -0.561187 0.083441 -0.405664 1.395309 -1.175329 0.384956 1.347359 0.526998 -0.425664 1.360196 0.434533 0.198401 0.678133 0.984964 -0.018321 -0.350812 -0.313477 0.677565 -0.001701 -0.067097 0.161770 0.044326 0.121420 -0.603754 -0.242991 -0.436349 0.764452 -0.364163 0.643751 -0.283899 0.557378 -0.504705 0.151454 -0.880026 -0.337407 -0.818314 0.837795 0.759290 -0.093022 -0.522641 -0.851213 0.266581 -0.800867 -0.138090 -0.443981 -0.312997 0.171610 0.514837 -0.375721 0.813297 0.181027 0.139130 0.911065 0.750575 -0.192607 -0.102391 -0.865319 -0.253301 -0.190750 -0.387911 0.209349 0.359955 0.340630 0.439734 -1.086544 -0.452215 0.534229 0.243313 0.347937 -0.834173 -0.636769 0.383735 -0.106066 0.175837 0.562007 -0.105037 0.166881 -0.654769 -1.358586 -0.487903 0.416275 -0.518406 -0.867631 0.151557 0.173382 -0.101206 -0.065201 -0.215013 0.775956 -1.025943 -0.282376 0.213437 0.126790 0.072415 -0.568727 0.045927 -0.623419 0.285726 -0.338687 -0.482715 -0.204204 0.481018 -0.951687 -1.000765 0.234742 0.306414 -0.174943 0.136419 -0.153859 0.391475 1.057695 0.266949 0.491392 -0.594073 0.650546 -0.884998 0.661603 -0.179588 -0.545205 0.544695 -0.171862 0.152549 -0.181692 -0.278991 0.377129 -0.993806 0.268962 0.680760 0.468125 0.437326 -0.781746 -0.184922 -0.512859 0.271065 -0.854407 -0.255939 0.320104 -0.247311 -0.023300 -0.013952 -1.041007 0.314855 -0.697070 -0.550843 -0.430281 0.682842 0.392642 0.599881 0.490398 -1.214331 1.142300 -0.049672 -0.272245 0.026733 -0.840139 -0.626046 0.253923 -0.458072 0.523661 -0.780086 -0.248205 -0.438643 -0.735203 -0.612212 0.213934 -0.373241 0.638073 -0.304298 0.132300 -1.032794 0.120862 0.603668 0.463322 0.732690 -0.018381 -0.099832 0.728065 0.460437 -0.687989 -0.058992 -1.109963 0.231186 0.522149 -0.602206 0.780410 -0.301160 0.484829 -0.079774 -1.322817 0.527696 0.461246 0.242815 0.055651 -0.847121 -0.889634 1.371733 -1.254248 -0.598746 0.565943 -0.408227 -0.229889 -0.204812 0.266623 -0.808100 0.159656 -0.955254 0.986761 -0.482719 -0.518600 -0.329404 -1.147326 0.447395 -1.019685 -0.411537 1.314278 -0.140040 -0.600773 -0.218874 0.474381 0.981964 0.200004 -0.257174 -0.352473 -0.514701 -0.065888
M021_ON 1.151755 -0.762025 0.506573 -0.596261 0.235045 0.311571 0.901516 1.072921 -0.543416 0.097970 0.263143 0.535398 -0.583450 -0.326469 0.906248 0.975336 1.351078 -0.767102 0.535479 0.295557 1.347534 0.242756 0.384885 0.128622 -0.276583 0.893999 0.118162 0.336645 -0.911930 -0.887323 -0.156658 0.935040 -0.374945 0.957914 0.465432 1.011096 -0.121018 -0.870772 0.707634 0.092883 -0.869382 -0.622556 0.127571 -0.155849 -0.586755 -0.480277 0.408157 0.162215 -0.107312 -0.702191 0.251837 -0.066547 -1.302391 -0.186626 -0.100565 -0.971810 0.161480 -0.311932 0.046470 0.932489 0.385947 0.838930 -0.529995 -0.616201 0.052470 -1.009274 -0.170770 0.478576 0.364577 0.100544 0.326096 -0.614570 -0.967276 1.090528 -0.211888 0.349305 0.745895 0.005555 0.028063 -0.455645 -0.788440 0.393837 -0.813954 0.890538 -0.104627 0.946213 -0.140167 -0.306046 0.264833 0.113888 0.036313 0.129875 0.171487 -0.568537 0.239275 0.025406 0.270272 0.348624 -0.079111 0.771922 0.463536 0.058528 0.155882 0.290155 -0.995740 0.019264 0.148394 -0.063572 -1.052044 0.114374 0.426198 0.829456 -0.137161 0.294623 0.351039 0.300315 0.105837 -1.029883 -1.131964 0.882314 -0.357450 -0.749122 0.326738 -0.058462 0.121321 -0.073261 -0.174470 -0.624171 -0.711970 0.334904 0.105508 0.147539 0.376522 0.048471 -0.541188 -0.377391 0.269350 0.219880 -0.798942 -0.004262 0.162179 0.265158 -0.125199 0.550888 -0.093090 0.191299 -0.251743 0.042002 -0.186353 -0.284080 -1.058614 0.063756 0.111151 0.372124 0.113190 -0.287239 -0.305788 -0.082166 0.324045 0.142417 -0.635385 1.058399 0.118753 -0.569769 0.039368 -0.193626 0.337074 -0.336808 0.311206 0.114272 -0.818269 0.245817 -1.245143 0.294798 -0.830866 -0.664691 0.236438 0.118755 0.251770 -0.856255 0.064278 -0.257185 -0.659358 0.442933 0.803187 -0.112703 0.324440 -0.170876 0.657348 -0.060933 0.011732 -0.005250 -0.291023 -0.235627 -0.230233 0.313145 0.346497 0.125037 0.645531 0.503793 0.530976 0.020396 0.233482 0.282329 -0.255972 -0.323024 0.309118 0.088336 0.260619 -0.516569 -0.105885 -0.311127 0.147792 0.513727 0.724007 -1.088737 0.909953 0.413871 0.090876 -0.302509 0.453918 0.331262 0.866947 -0.156441 0.562208 0.726679 -0.328559 0.236011 0.258240 0.615470 -0.098093 -0.451316 -0.105785 -0.375033 -0.760049 0.341518 -0.175390 0.875585 -0.139248 -0.417154 0.186948 -1.143159 0.702558 -0.224965 0.988200 -0.323368 0.505560 -0.693368 -1.221592 -0.490841 0.083093 -0.057500 -0.109267 0.644926 1.776834 0.569088 0.147580 -0.493804 -1.171968 -0.043124 -0.460454 -0.411930 -1.249604 0.533168 -0.293020 1.409056 0.126959 0.089723 1.236481 -0.330336 0.476015 -0.141289 0.737918 1.014207 0.167354 -0.530187 -0.129677 -1.034868 -0.691353 -0.322277 0.529884 -0.551985 0.227479 0.798150 0.679482 0.101770 0.017520 0.683805 0.015886 -0.235913 -1.124685 0.229717 -0.867201 -0.930402 -0.154049 -0.276246 0.294847 -0.954439 -0.445760 0.791099 0.491050 0.335050 0.055312 -0.057811 1.925230 -0.725722 0.772705 0.282680 0.616846 0.207520 -0.481170 0.681915 0.104764 0.375749 0.037009 -0.808079 0.936764 -0.894522 -0.071714 -0.910607 0.352054 0.073280 0.469391 -1.171684 0.731288 1.392967 -0.954925 1.471237 0.032015 0.771972 -0.163377 -0.953325 0.008031 -0.288135 -0.236012 0.068405 0.585418 -0.280470 0.250525 0.144186 0.293520 0.662510 0.432665 0.090104 -1.176939 0.107533 -0.489334 0.336187 -0.737958 0.286353 0.561645 0.158828 0.102308 0.975766 -0.507131 -0.778832 -0.346126 -0.622372 0.153808 -0.088853 0.733734 -0.181825 0.270190 0.427230 0.580140 0.546677 0.099696 0.279496 -0.392121 0.899632 -0.167393 -0.493642 0.186031 0.136397 0.334118 -0.110902 -0.171588 -0.082477 -0.143054 -0.516186 0.268121 -1.009269 -0.338282 -0.473708 -0.095278 -0.102147 -0.547443 -0.179680 -0.983801 -0.670231 -1.634092 -1.543148 0.431861 0.279319 -0.220701 1.206968 -0.214770 0.059103 1.458785 -1.171645
M003_OFF -0.817990 -0.146084 -0.233148 1.074399 -0.182455 0.402595 0.511724 0.053865 -0.032233 -0.130733 -0.348060 -0.192310 0.026871 0.776509 -1.466189 -1.032107 -0.992101 0.247951 1.000021 -0.805842 1.304422 -0.408424 -0.273624 1.356568 -0.117318 -0.396177 1.096441 0.004757 1.130683 0.166956 0.260331 -0.402378 -0.148834 -0.252654 -0.154823 0.086210 -1.109516 -0.195906 0.445006 0.267016 -0.268123 0.828320 0.309225 0.469758 0.417529 0.683590 -0.145424 -0.485270 -0.506766 0.625573 -0.682303 -0.739745 0.120614 -0.367880 0.086416 0.142041 -0.669625 -0.302521 0.270206 -0.555818 1.176077 -0.275513 -1.087701 -0.360038 0.709670 0.685575 0.446886 -0.416586 -0.176716 -1.001654 -0.044740 0.728042 0.862228 0.528278 0.086108 0.078971 -0.100509 -0.445413 -0.338440 0.436699 0.131601 -0.012550 -0.670593 -0.498713 0.014445 -1.049979 0.036808 0.360937 -0.927290 -0.191305 0.723551 0.183203 0.098247 0.481350 0.467347 0.400854 -0.034081 -0.049274 0.104463 0.511345 -0.082383 0.474028 -0.462820 0.519949 0.287600 0.065817 0.337977 -0.265400 0.848252 -0.520621 0.371120 -1.172953 -1.096353 -0.711740 1.194636 -0.284386 -0.231546 0.482541 0.932455 0.567365 -0.041586 0.646108 -0.394320 -0.983540 -0.412694 0.576245 -0.311187 0.437204 -0.309903 -0.554094 -0.415164 0.526871 -0.657930 0.105750 1.944335 0.511142 0.136818 0.363740 -1.261363 -0.057317 -0.284191 0.119136 0.709850 -0.370230 0.308959 -0.515648 -0.012744 0.714915 0.117952 0.644953 1.031381 -0.661981 0.475571 -0.420497 1.135137 0.739223 0.829562 0.377039 0.459314 -0.204264 -0.323024 -0.180310 -0.390032 -0.814217 -0.701313 -1.183367 0.060729 -0.215738 -0.453545 0.245020 0.938363 -0.131251 1.120331 0.040446 1.005885 1.227786 -0.014876 0.178356 0.462143 -0.661670 -0.045788 -1.236251 -0.166448 0.091798 -0.371161 -0.650905 -0.992531 -0.726412 0.101123 1.309712 -0.115239 -0.161244 -1.035116 1.340789 0.417828 0.014426 0.821600 -0.682871 0.102548 -0.062450 -0.089933 -0.873295 -0.663824 0.023421 -1.026927 0.196182 0.829178 -0.533630 0.708169 0.646010 0.238483 0.320733 0.269657 0.421084 -0.018035 -0.383747 -0.151183 0.074010 -0.083110 0.360290 -0.570966 0.161171 -0.203422 0.937760 -0.363829 -0.832938 0.575036 -0.842587 -0.532830 0.211354 -0.344013 -0.088504 -0.334499 0.228589 0.227658 0.598498 0.217704 -0.533750 -0.471936 -0.034268 0.999008 0.282878 0.512148 0.762680 1.203661 -0.195320 -0.191742 0.332476 0.998594 -0.138675 0.488137 -0.926893 0.044886 0.013264 -0.702454 -0.290141 0.696622 0.112106 0.230353 0.481661 0.339768 0.129706 0.286907 -0.540163 0.223467 -1.079141 -0.490154 -0.623442 0.075660 -0.822485 -0.234999 -0.166637 -0.835680 0.483946 -0.167158 0.092372 -1.194110 -0.482166 0.696808 0.370606 -0.367769 -0.124362 0.314688 0.420926 0.528751 -0.365120 -0.088452 -0.790084 -0.149453 0.344376 0.428816 0.288991 -0.667861 0.757158 0.559547 0.432228 0.347769 -1.136761 -0.625245 -0.378723 -0.045900 -0.001772 0.968770 -0.245449 -0.029295 -0.241262 0.121846 -0.120390 -0.263532 -0.354420 0.547269 -0.019638 -0.169195 -0.181926 -0.409055 0.003354 0.320949 -0.066729 0.105751 0.009437 -0.603049 -1.104674 0.505662 0.199243 -0.033323 -0.203935 0.590579 -0.525960 -0.277088 0.436063 0.390672 1.104156 -0.950921 -0.369506 -0.353373 0.849090 -0.487520 0.503860 1.262297 0.131132 -0.633547 0.015015 -0.153428 -1.268030 -0.213600 -0.531254 -0.224911 -0.201175 -0.326404 -0.492750 0.379675 0.020862 -0.191506 0.462482 0.827112 -0.278057 -0.606926 -0.086979 -0.728680 -0.167384 0.207593 0.390875 -0.549685 -0.467084 0.009831 1.085998 -0.905121 -0.709056 0.517224 0.295870 -0.501027 0.079370 0.197260 0.269970 1.061939 0.101049 0.255557 0.047279 0.226785 0.602625 -0.436484 0.657127 -0.475321 -0.137603 0.185412 0.140681 0.992820 0.306876 0.507775 -0.293905 0.315054 -0.361645 -0.425890 0.266408 -0.012478 0.428018 -0.522080 0.498120 -1.012838 -1.174708
M003_ON -0.801178 0.318723 0.201030 0.191589 0.335534 -0.355774 -0.263350 -0.088717 0.107807 -1.413864 0.076308 0.618097 -0.084175 -0.214512 -0.552358 -0.041310 -0.992322 0.038504 0.103255 -1.016641 0.796764 -0.815383 0.279832 0.193819 0.121803 -0.873689 0.582065 -0.026043 0.844955 0.227796 -0.826493 -0.505718 -0.516601 -0.620051 -1.125022 -0.044928 -0.670148 0.308834 0.451422 0.541097 -0.119969 0.786399 0.061812 -0.133069 0.469089 0.418487 -0.086044 -0.827656 -0.199777 0.476926 -0.137969 -0.447395 0.584451 -0.289913 0.576539 0.344648 -0.451157 -0.414555 0.211401 -0.391715 1.196017 0.244566 -0.723952 -0.367408 0.209144 0.452639 -0.122380 -0.018932 0.566382 -0.399927 0.266188 0.891234 1.078923 -0.248504 -0.236274 -0.316553 0.006589 -0.457613 -0.639401 -0.092983 0.640379 0.260326 -0.926655 0.078044 -0.715770 -0.425577 0.004717 1.107544 -0.933787 0.110823 0.175047 -0.305188 0.416832 0.519343 0.046288 -0.649952 0.410952 -0.334487 -0.313593 -0.141038 -0.336832 0.169953 -0.673369 0.013985 0.295428 0.213353 0.192444 -0.549878 0.175087 -0.774251 0.468631 -0.716263 -0.856650 -0.649884 0.696843 0.004174 -0.898118 0.337178 0.607305 0.033514 -0.117488 0.939190 -0.462860 -1.001023 -1.091599 0.821897 0.322896 0.398989 0.540737 -1.123288 -0.011206 0.400926 -0.425710 -0.059763 1.079695 0.445977 -0.335134 0.728023 -1.034611 0.674802 -0.355170 -0.411802 0.376192 -0.197834 1.163638 -0.025242 -0.260466 0.413085 0.607087 0.855210 0.968459 -0.030217 -0.100338 -0.125425 0.699942 0.252427 0.308259 0.633944 -0.063308 0.002619 -0.015244 0.678733 -0.562901 -1.156651 0.063254 -1.011499 -0.549692 -0.272859 0.373443 -0.004955 0.663300 0.194371 0.711763 -0.197936 0.537320 0.999579 -0.244637 0.623962 -0.172360 -0.719751 -0.993289 -1.352198 0.086494 0.273503 -0.412353 -0.885208 -1.677170 -1.191505 -0.018075 0.443405 -0.351494 0.414846 -0.608175 1.040474 0.797978 0.723162 1.332982 -0.401131 -0.113217 0.143293 0.277782 -0.470502 -0.315534 -0.350535 -0.222767 -0.082852 0.090675 0.191423 0.157962 0.562659 -0.308557 0.612061 0.260199 0.571913 -0.207201 -0.528384 -0.041210 -0.186472 0.558741 0.265595 -0.497984 -0.256278 0.111715 0.840477 -0.122541 -0.999311 0.603412 -1.094894 -0.726007 -0.702817 -0.886110 0.596918 -0.564818 0.871155 0.796770 0.664524 0.748847 -0.283624 -0.347347 -0.166265 0.706126 0.578789 0.568750 0.325732 1.148595 0.802998 0.090756 -0.241319 0.653012 -0.268476 -0.565368 -1.464620 -0.233317 -0.352579 -0.610136 0.204541 0.932158 0.145742 0.209446 -0.514814 -0.220036 0.026100 -0.242638 -0.545063 0.184543 -1.093004 -0.399837 -0.831176 -0.681541 -0.349928 -0.168846 -0.440591 -0.919464 -0.215388 -0.011389 0.089683 -0.597708 -0.464959 0.440813 0.097611 0.077255 0.213095 0.354306 0.596181 0.229536 -0.287985 -0.318892 -0.496114 0.650220 -0.407872 0.115493 -0.231024 -0.668944 0.561600 0.276198 -0.159424 0.646724 -0.598551 -0.131651 0.037057 0.567771 0.202051 1.181217 -0.336508 0.514514 -0.548606 -0.071195 -0.352910 -0.168152 0.177404 0.488096 0.104477 -0.139864 -0.022784 -0.361943 0.183161 0.246364 0.302486 -0.202209 0.820336 0.420161 -0.206314 0.232749 0.230035 0.010205 -0.247109 -0.240236 -1.428292 -0.058739 0.523618 0.296136 1.016790 -1.258944 -0.049649 -0.083451 0.042405 -0.055541 1.075709 0.766306 -0.537402 0.249656 0.962564 0.393175 -0.782672 -0.542437 -0.349523 -0.263999 -0.437913 -0.290337 0.430297 0.449351 -0.223514 -0.232160 0.545615 0.229874 -0.652306 -0.730284 -0.052011 -0.044928 0.007286 0.574721 -0.188417 -0.571014 -0.620723 0.574940 0.996899 -0.355029 -0.963690 0.691401 0.318835 0.241651 -0.108259 -0.295944 -0.215487 1.481953 -0.427400 -0.089878 -0.567304 -0.282493 0.338094 0.478687 0.528564 0.287060 0.277349 0.473784 -0.095988 0.880451 0.349840 0.452112 0.234620 -0.577765 -0.675177 -1.022780 0.592048 -0.619318 0.046980 0.372736 -0.267015 -1.457596 -0.317227
