241 400
M009_ON 1.517311 -0.152266 -1.355607 0.469793 -1.099188 -0.765282 -1.019852 -1.605019 -0.742573 -0.578119 -0.651176 0.122336 -0.186179 -0.420611 -0.373511 1.388318 -0.889211 -1.725637 0.175383 -0.009135 -0.035175 0.137211 -0.462772 -0.064248 -0.156957 -0.379958 -0.616718 1.074160 0.155155 -0.704099 0.168983 -0.599486 -0.173790 -2.037422 1.432346 -0.005498 0.049807 -1.284568 -0.368026 -0.672221 0.463940 -0.270299 0.478247 0.905649 -0.009683 0.801908 -0.049172 -1.099763 0.436447 -0.611025 0.293964 0.027136 2.025881 -0.340287 -0.003302 0.489873 0.592042 -0.910078 -1.338183 0.402882 1.455858 -0.037391 0.378692 0.083046 -0.599258 -1.249038 -0.717688 1.289869 0.544836 1.340058 0.775298 0.960810 -2.741202 0.114199 -1.222126 -0.779390 -0.013627 0.197380 -0.002301 1.367320 0.080954 0.321728 -0.694806 0.734991 -0.459893 0.158287 -0.591189 0.054911 -0.775274 1.159919 -0.084401 -0.160495 -0.595951 -0.541100 -0.031463 0.540429 -1.407352 -1.421524 0.720002 -0.567554 -0.080719 0.229684 0.249519 -0.289203 -0.528180 -0.127399 0.285257 0.808944 0.156099 0.592013 0.785195 -0.250585 0.406845 0.643273 0.980467 1.065252 -0.946964 -0.440197 -0.245588 -0.442861 0.772709 0.369951 -1.266926 -0.940725 0.429254 0.388871 1.438674 0.776100 -0.343426 0.077404 -0.202329 0.001610 -0.391555 -0.935469 1.224333 -0.329732 -0.960132 0.696528 -0.827509 -0.372467 -0.484838 0.009710 0.137068 0.935204 -1.266085 1.100469 -0.270541 0.466047 -0.262749 -0.789513 0.580799 0.137618 -1.386294 -0.341363 1.036990 0.307067 -1.286077 -0.412359 0.785944 -0.151416 -1.638510 -0.815760 -0.241955 1.182658 -0.042504 0.004486 -0.427009 0.577223 1.154022 0.412591 -0.088930 0.174567 0.704137 -0.820340 0.150603 0.554062 0.697385 -0.852570 1.584484 -0.664472 0.746519 1.088268 0.798710 -0.510954 0.467060 0.984572 -0.395356 1.075200 0.571590 0.059563 -0.603095 -0.477451 -0.458473 0.306799 -0.600806 -0.127784 0.246634 -0.230328 -1.509597 -1.955525 0.786527 -0.220541 0.112360 -0.019785 -0.607620 1.956318 1.112440 0.434151 0.162131 0.782349 1.782180 0.946914 -1.071941 -1.359206 -0.293285 -0.368173 0.758964 1.338176 0.363075 0.259434 -0.001836 -0.141041 0.031356 0.443465 0.823870 -0.393977 -1.640866 -0.348727 0.393700 0.552251 0.391004 -0.294811 1.048488 1.075216 -0.151250 -0.458112 -0.627450 -0.592019 -0.463192 0.301393 0.570620 -0.125391 -1.479410 -0.000712 -0.067323 -0.457819 -0.681401 0.111709 -1.069016 0.020358 -1.263362 -0.110670 -1.197381 -0.908826 -1.139817 -0.380998 0.137627 -0.727844 -0.479161 -0.725725 -0.019904 0.641696 -0.444034 0.589046 0.346587 0.091456 -0.306085 -0.012583 -0.992776 -0.154900 -1.287994 -0.409223 0.258547 -0.462451 -0.247859 -0.482948 0.030386 0.765403 1.007540 -0.070301 0.503347 0.155617 1.021740 0.018406 -0.062494 0.815449 0.445027 -0.077605 0.379989 0.718740 -0.600394 -1.123896 0.446291 0.839206 -0.385573 0.774960 -0.226450 1.282014 -0.923742 -0.683092 0.510828 0.030541 -0.998939 1.354644 -0.029688 0.887978 -1.198163 -0.239340 0.187224 -0.042867 -0.400673 0.837406 0.910280 -1.568985 0.199136 -0.612057 -1.030989 -1.609674 0.504011 0.289540 0.033808 1.328807 -0.043102 0.521115 1.240939 0.068964 -0.931089 0.332471 1.784712 -1.445859 -1.923926 0.775903 0.140467 -0.521272 -0.376710 -0.872872 -0.135139 -0.788965 0.784918 0.075566 -0.403575 -0.865850 0.039416 0.916833 0.513153 -0.328097 0.322091 -1.433721 0.733951 0.943707 -1.008353 -0.712859 -0.058692 0.247261 -1.592757 0.556018 -0.276965 -0.469468 -0.035721 0.794057 -0.879389 0.616452 -0.318653 1.442844 -0.547897 0.140072 -0.254781 -0.242643 -0.076408 0.257341 -1.544647 -0.333446 -0.601176 -0.021521 0.059434 -0.828869 0.609859 1.423955 -0.771337 -0.169642 0.214401 1.203483 -0.011765 -0.533614 -1.428635 0.070866 1.726366 0.892605 0.095013 -1.042056 1.591811 -1.089102 0.989798 -0.508019 -0.613774 0.061429 1.764980 -1.512564 1.977485 -0.407234
M009_OFF 1.340570 0.231889 -1.879007 0.816011 -1.482379 -1.129422 -1.278671 -1.674571 -0.026123 0.241183 -1.426843 -0.146051 -0.481464 -0.699662 -0.172390 1.651192 -0.579649 -0.841474 0.820279 -0.651779 0.338225 -0.065658 -0.264736 -0.320810 -0.082029 -0.904221 0.204602 1.514328 0.026833 -0.812451 -0.007562 -0.468269 0.556585 -0.835168 1.101955 0.781054 0.157120 -0.757824 0.022755 -0.765651 -0.159866 0.394728 -0.264052 0.046578 0.314598 0.581106 -0.273572 -1.278915 0.542431 0.000041 -0.047037 -0.424759 2.154327 -0.382248 -0.154819 0.877276 0.413434 -0.547241 -0.627223 1.405718 1.950656 0.215635 0.855113 0.206465 -0.518039 -1.114345 0.307169 1.167833 0.955474 1.167585 1.266953 1.178204 -2.077271 0.233516 -0.941284 -0.848748 0.563607 -0.270454 0.324572 0.933647 0.298325 -0.171989 -0.443626 0.272834 -0.121045 -0.029973 -0.769009 -0.067630 -0.631309 0.723960 0.371147 -0.285047 -0.470068 -0.152403 -0.139205 0.283686 -1.442719 -1.831710 1.105514 0.115163 0.195172 -0.206436 -0.426813 0.127344 0.017535 -0.693776 -0.169591 0.272324 0.057061 0.291296 1.022523 -0.798644 0.423602 1.105761 0.744189 0.658381 -0.398259 -0.590209 -0.481456 -0.390391 1.002515 0.386325 -0.348471 -1.111795 0.132434 1.207448 1.255765 0.300640 -0.552229 -0.117963 0.285976 0.057181 -0.146031 -0.669530 0.887815 -0.088385 -1.117568 0.926209 -0.022328 -0.749068 -0.186748 0.169515 0.570126 0.653371 -0.314251 1.123465 -0.553917 0.398379 -0.250066 -0.536007 0.369025 0.594873 -1.708775 0.022455 0.852910 -0.367751 -0.756412 0.139790 0.919077 -0.545345 -0.466344 -0.373432 0.050914 0.436385 -0.747979 0.014109 -0.292317 -0.279105 1.727593 0.880199 0.489615 0.706950 1.543120 -0.573110 0.845624 -0.010878 0.010692 -0.638448 0.693393 -0.840325 0.718110 0.952110 0.526664 -0.902020 0.562769 0.603033 -0.772200 1.109034 0.587410 -0.760552 -0.930645 0.472666 -0.697738 0.645680 -0.278102 0.308260 0.752098 -0.766555 -1.506659 -1.044943 0.715301 -0.293758 -0.381781 0.059448 -0.242255 1.523495 0.666994 0.933782 -0.050444 1.230235 1.633875 0.539602 -1.016574 -1.154404 -0.277722 -0.233021 0.013152 1.490480 0.590039 -0.189151 -0.644580 -0.008336 -0.425951 -0.258650 0.795286 0.079551 -1.507184 -0.358433 0.618393 0.550113 0.325685 -0.412056 0.276727 0.677060 -0.469786 -0.361031 -0.817564 -0.531000 -0.970256 0.805637 0.421477 0.231979 -1.155397 -0.263717 0.281184 0.475658 -0.770903 0.212087 -0.722166 0.495642 -0.816265 0.102256 -0.648388 -0.881113 -0.713769 0.088632 0.910339 -0.093985 -1.438300 -1.003617 -0.500185 0.626511 -0.330468 0.596203 0.348094 0.226899 -0.139983 -0.936734 0.240733 -0.173990 -0.596102 0.222016 0.302553 0.208217 -0.441916 -0.210399 0.319934 1.215454 0.654036 -0.712145 -0.226969 -0.005599 0.384964 1.050191 0.261412 1.068366 0.776943 0.298426 0.213591 0.873068 -1.186914 -1.321120 0.087366 0.347066 -0.837732 0.889458 0.327841 1.046268 -0.600894 -0.353489 0.462724 -0.103578 -0.737560 0.469853 0.347953 0.773223 -1.252658 0.034338 0.208472 0.141605 -0.553819 0.769131 0.790422 -1.059387 0.513397 -1.032496 -0.817400 -1.124201 0.287721 -0.248421 -0.101689 1.220148 0.325598 0.329773 1.353804 -0.955229 -0.811860 0.354692 1.759287 -1.345466 -1.586460 0.740451 -0.072171 -1.646537 0.328433 -0.592480 -0.125300 -0.903710 0.599351 0.715471 0.258707 -1.208660 -0.145669 0.347439 0.345873 -0.232114 -0.198429 -1.281705 0.474864 1.186971 -1.096603 -0.850720 0.558459 0.015683 -1.597691 0.877600 -0.602583 -0.479218 0.015930 1.283278 -1.508680 0.374686 -0.427293 1.484079 -1.053938 -0.405474 0.202716 -0.402741 -0.317739 0.457796 -0.849027 0.587139 -1.200107 0.415030 -0.293748 -0.858177 1.704558 0.795094 -1.408772 -0.390181 0.231905 0.942223 0.099623 -0.676328 -1.940117 -0.122692 0.918094 -0.010104 0.112974 -0.808824 1.544629 -1.449192 1.550724 -0.495617 0.720730 -0.154661 1.352222 -1.837016 0.645042 -0.776800
M020_OFF -0.328756 -0.785832 0.096758 -0.807001 0.157946 -0.053353 0.941972 0.652449 0.247952 0.490821 -0.857331 -0.557535 -0.689591 -0.611114 0.670500 0.195535 0.621420 -1.106075 -0.732589 1.271809 1.838098 0.629460 0.922313 -0.336028 -0.793914 -0.532759 0.132100 0.068088 -0.298378 -0.657539 1.879116 0.480483 0.149085 -0.300029 0.534442 0.789291 0.135962 -0.659989 0.670520 -0.268260 -0.031135 -1.880717 -0.679527 0.614403 0.168673 -0.460063 0.009720 0.426985 -0.341716 -0.566644 -0.522757 0.591690 -0.917286 0.843109 -0.287151 -0.745176 -0.302007 0.321920 0.152217 0.141615 -0.110672 -0.070413 -0.456091 -0.334930 -0.423330 -0.746670 0.557348 2.174029 -0.232753 0.424607 0.550994 0.221255 -1.559632 1.047504 -0.123023 -0.008337 -0.458461 0.375844 -0.462953 1.016926 -0.188712 -0.234948 -0.178020 0.628617 0.557630 1.070546 0.161451 -0.427135 0.247795 -0.372266 -1.211735 -0.262902 -0.140246 -0.363331 -1.280004 -0.167645 -1.096044 -0.376018 0.342076 -0.861713 0.339305 -0.100629 -0.641433 -0.507825 0.381411 -0.898807 -0.466823 -0.833305 -0.234861 0.674306 -0.212254 -0.075193 -0.427156 0.479179 0.171932 -0.464964 0.335160 -0.454438 -0.603525 -0.352136 0.250644 0.268895 0.705093 -0.436334 -1.127130 0.678065 -1.106284 -1.844614 -0.182743 -0.116155 0.598375 -0.687000 0.828802 -0.000216 -0.738817 0.491777 -0.143198 0.187335 -0.269620 -0.513202 -0.475440 0.538385 0.018660 -0.032273 -0.446970 -0.261083 0.211569 0.674337 1.185153 0.050132 0.102910 -0.034371 0.119671 -0.158243 -0.112480 0.386072 0.418585 -0.277794 -0.224895 0.673567 -0.558044 0.081849 0.243452 -0.426164 -0.086612 0.558031 -0.614551 0.338324 -0.565714 0.440626 -0.818823 -0.222985 -0.133031 -0.078231 -0.233281 -0.474152 -0.960881 -0.153179 -0.040030 -0.007044 0.809411 0.749135 -0.180516 0.560563 0.480739 0.053617 0.675308 0.351501 -1.171808 -0.706184 0.974066 -0.650741 1.126448 0.672385 0.010478 -0.052187 -0.229856 1.094973 0.028990 -0.344056 0.609192 0.377772 0.075811 0.235352 -0.445034 0.427191 0.054322 -0.429320 -0.437026 0.452471 0.789827 0.065716 -0.190702 -0.699119 0.631925 0.307904 0.201492 0.517611 -0.340206 -0.585132 -0.687051 -0.252042 -0.674119 -0.990099 0.195601 0.361440 -1.020201 0.921406 0.803684 -0.779275 0.372433 -0.073659 0.562146 -0.645013 -0.250461 -0.254586 -1.162319 0.282477 0.689933 0.792619 -0.137041 0.503603 0.472947 -0.182658 -0.138168 -0.087749 0.351995 -0.444918 -0.290768 -0.479040 0.451271 1.291057 -0.456614 -0.259338 -0.166003 -0.062204 0.490721 0.173999 0.278998 0.644977 -0.640181 0.521812 -0.638503 0.126124 -0.045236 0.674042 0.090278 0.750037 0.507778 0.190232 -0.453365 0.338065 0.541119 0.138745 -0.397668 -0.115525 0.489067 0.687030 -0.374872 -0.305331 0.461642 -0.058473 0.200086 0.336175 -0.023178 -0.169986 -0.671605 0.305790 -0.735861 -0.506072 -0.493567 0.240523 -0.141497 -0.391820 -0.173148 -0.499765 -0.042622 -0.002151 -0.129209 0.472396 -0.466397 -0.104345 -0.003440 -0.447726 0.317163 0.363796 0.803071 -0.156151 -0.399838 -0.102074 -0.297590 0.380425 -0.654016 0.527814 -0.294750 0.151844 0.198404 -0.087547 0.657289 0.401196 0.146747 0.507012 0.293954 -0.365313 -0.032079 0.632541 0.123313 -0.156154 -0.142186 0.103407 0.761190 0.178486 1.242189 0.783302 -0.682465 0.192322 0.474612 -0.519950 0.074467 -0.223865 -0.225511 -0.286656 -0.171205 0.543926 0.267245 -0.184904 -1.345293 -0.418879 0.249647 -0.385734 -0.252495 0.596951 0.011616 -0.751714 -0.330504 0.141816 -0.293586 -0.283644 -0.770284 -0.417578 -0.325382 -0.548607 0.143596 -0.074305 0.606326 0.438095 0.493346 0.452630 -0.315248 0.334291 0.934632 -0.830906 0.381035 -0.662255 -0.213064 -0.043858 -1.543805 -0.554115 -0.372595 0.045033 -0.020393 0.794095 0.165329 -1.099391 0.008752 0.007777 -0.800651 0.050932 0.266829 -0.241659 -0.345980 -0.371323 0.536692 0.336443 0.104614 0.270832 -0.288060 -0.639884 -0.576761 0.178198
M020_ON 1.158361 -0.392843 -0.269961 0.780755 -0.558523 0.471030 0.481726 -0.557152 0.361688 0.700912 -0.556405 -0.310199 -0.101779 0.343212 0.906419 0.494009 1.489707 -0.424868 -0.043308 0.035661 1.552908 0.087314 0.039464 -0.093262 -0.038012 -0.455890 0.294387 0.908399 0.019173 0.029324 0.180534 0.288364 0.286930 -1.005528 0.228616 0.793747 0.664883 -1.281398 0.402676 -0.204505 0.036418 -0.674399 -0.859932 0.758206 0.052654 0.363131 -0.218253 0.796291 -0.052287 -1.005489 -0.371142 0.250289 -0.492210 0.363809 -0.565392 0.148907 0.302461 0.288879 -0.385748 0.172775 -0.194247 0.684104 0.152580 0.459575 -0.437826 0.319434 -0.443325 0.890134 -0.274063 -0.314710 -0.080317 -0.642921 -1.076695 0.085218 -0.125160 0.566894 -0.527961 -0.393581 0.053294 -0.481858 -0.904107 0.075244 -0.595171 -0.502217 0.516192 0.140234 -0.220934 -0.481926 0.459626 -0.821652 -1.069207 -0.271954 -0.423856 0.476268 -0.107347 0.311618 0.260873 0.032852 -0.648487 0.220046 0.344786 0.521614 0.175043 -0.239666 -0.042030 -0.054350 0.810211 -0.353582 -0.752088 -0.729315 -1.188119 0.395148 0.511754 -0.959768 -1.180173 -1.146625 -0.159289 -1.281735 -0.696538 0.346367 -0.067304 -0.266051 1.503916 -0.188530 0.094387 -0.712318 -1.257805 -1.376188 -0.642163 -0.082533 0.879430 -0.483943 1.455855 -0.100281 -0.963667 0.753506 -0.261494 -0.123632 0.335606 -0.675086 -0.462120 0.183081 -0.609806 0.223990 0.148196 -0.087535 0.287056 0.469102 0.518643 -0.315278 0.081865 0.885257 0.096360 0.575972 -0.099679 -0.694768 1.148459 -0.272047 0.632727 0.022856 -0.746060 0.095457 0.001932 -0.599949 0.040406 0.525739 -0.758585 0.635855 0.456752 0.469925 -0.409771 0.210013 -0.372572 0.072780 -0.178927 -0.448543 -0.337604 0.470506 -0.284732 -0.197667 0.938464 0.489249 -0.343031 0.084066 0.109671 0.044987 0.967392 0.537467 -0.488804 -0.714463 0.187272 -0.272193 0.904058 0.638836 0.515191 -0.388609 -0.376851 0.617026 -0.051331 -0.216714 0.175555 0.315429 -0.377399 -0.049195 0.166984 -0.340162 0.469309 0.097328 -0.288837 0.092379 0.782560 0.239594 -0.994182 -1.793093 0.873867 0.836901 0.643713 0.316346 0.031730 -0.546893 -0.331645 -0.146197 -0.019188 -0.792905 1.053864 0.464972 -0.773655 1.089193 0.642855 -0.288729 0.665433 -0.160019 -0.184631 -0.690299 -0.245467 -0.592214 0.264721 0.377288 0.058827 0.223171 -0.534485 0.348690 0.598874 0.041245 -0.551623 -0.549844 0.186316 -0.086091 0.114789 -0.283733 0.463158 0.852583 0.145246 -0.553656 -0.319183 -0.401730 -0.234060 0.567940 0.249661 1.026369 -1.426610 0.158393 -0.651752 0.219300 -0.654524 0.142762 0.549938 0.425589 0.034967 -0.309471 -0.299002 0.801289 1.155524 0.289575 0.027387 0.104198 0.235114 0.160827 -0.126762 -0.261483 0.532400 0.356245 -0.241065 0.311399 0.122393 -0.198770 -0.427163 0.121060 -0.341547 -0.183299 -0.441290 0.626375 0.155885 -0.578012 -0.101748 -0.085866 -0.623030 0.314694 -0.535777 -0.560744 -0.088174 -0.208553 0.109734 0.527589 0.318250 -0.089263 -0.268633 -0.323939 -0.477901 -0.432097 -0.165888 0.287404 -0.135874 0.591899 -0.410275 0.113729 -0.019251 -0.652970 -0.605096 0.362617 0.308067 -0.280928 0.800507 -0.037897 -0.065745 0.110470 0.893283 0.091813 -0.277642 -0.170309 0.298999 -0.442070 0.575166 -0.250083 0.053340 0.176379 0.246564 -1.169348 -0.660919 -0.490834 0.106917 -1.019015 -0.768312 -0.001797 1.069539 -0.051918 -0.306899 -0.343331 0.935987 -0.327152 -0.716962 -0.436864 0.309428 -0.574769 0.338843 0.752651 -0.350116 0.147656 -0.794366 0.149711 -0.324548 0.304030 -0.220334 -0.040867 -0.400349 0.508869 0.102140 -0.378154 0.262190 -0.055773 0.148541 -0.243507 0.014299 -0.809373 0.049225 -0.077721 -1.082380 -0.439858 -0.608009 0.132759 0.145948 1.152607 0.300716 -1.360659 -0.510668 -0.378049 -0.749902 0.556050 0.141254 0.045836 -0.002031 0.099496 0.584928 0.525849 0.006552 0.206266 -0.818383 -0.251911 -0.187318 -0.333955
M019_OFF 1.281232 0.364949 0.298072 0.022159 0.050964 0.079294 0.126936 1.397904 -0.936407 -0.120820 1.173412 0.034163 0.096437 0.412524 -0.408413 0.577565 1.033914 -0.863216 0.088863 -0.155285 -0.756878 -0.048665 -0.437416 -0.537163 -0.604374 1.047663 -0.976473 0.056515 -0.216689 -0.427698 0.076066 -1.337358 -1.846928 -0.263748 -0.179153 -1.324951 -0.536795 0.824929 -0.344354 0.062516 -0.304914 1.388219 -0.120333 -0.752967 -0.287565 0.580514 0.039956 -0.751277 0.926503 -0.375769 -0.438234 -0.525247 0.152850 -1.304234 1.210689 1.032578 0.533985 -0.651046 -0.173488 -0.360434 -0.039359 1.247741 0.352989 1.072467 0.426993 -0.830421 0.271661 -1.961009 1.424846 -0.458363 -0.135443 -1.372265 0.124912 0.165781 0.018072 -0.401682 0.810823 0.149783 0.340321 -0.218550 0.069370 0.564977 -0.083806 -0.242971 0.377613 0.750334 0.330862 -0.698587 1.212020 0.307511 0.316743 0.980238 0.226065 0.138585 1.149585 -0.228016 0.216113 0.659785 0.669578 0.454428 0.434281 -0.146090 0.014286 -0.119234 -0.244107 0.389602 0.890438 0.566496 0.181928 -0.328579 0.356622 -0.121138 0.079711 -0.709513 0.122678 0.305809 0.784376 0.676058 0.781392 0.142344 -0.162281 -0.581372 -0.172766 0.599747 0.171915 0.446902 0.008076 0.124380 0.210067 -0.870271 0.355846 -0.117019 -0.586583 0.301675 0.743138 0.619368 1.080759 -0.467979 1.157581 -0.462009 1.037669 0.596600 0.626953 -1.060912 0.994830 -0.258160 0.276176 -0.283071 0.452829 -0.211450 -1.341849 0.354231 -0.012936 -0.747618 -1.675581 0.195097 0.655841 0.131866 0.085727 -1.143409 -0.116722 -0.007773 -0.794220 -0.712714 -0.474975 1.642905 -0.189774 0.653303 -0.197540 -0.882537 0.611459 -0.537594 -0.165654 0.098685 -0.230502 -0.449181 -0.324989 -0.001996 -0.130236 0.246919 -0.085740 -0.137573 0.254490 0.401075 0.119660 0.080798 -0.932784 -0.398276 -0.167407 -0.546071 0.136671 -0.344551 -0.352659 0.080949 -1.175065 0.475636 0.254220 0.120154 -0.012404 0.596482 -0.159720 -0.033523 0.477333 0.067186 -0.715056 0.598748 -0.247885 -0.354444 -0.134916 -0.194095 -0.088359 -0.408062 1.009224 0.835267 -0.753926 -0.769769 0.129961 -0.134835 0.229982 0.526488 -0.030684 0.812900 -0.302810 0.200850 -0.392176 0.052156 1.117570 -0.100953 0.115948 -0.803710 0.143216 0.095625 -0.803695 -0.726498 -0.143983 0.468787 -0.660970 0.377688 0.040288 -0.356308 0.718529 0.349496 -0.357274 -0.242857 0.658909 0.327853 0.619093 -0.134306 0.599633 -0.638474 0.593273 -0.594917 1.008372 0.889517 1.002826 0.116289 0.447311 0.015435 1.055712 -0.002020 -0.037668 0.332888 0.976355 -1.261150 0.476350 0.826018 -0.081690 1.035093 -0.761619 -0.561951 0.800267 -0.336156 0.502744 -0.760211 0.250765 -0.405295 -0.712804 -0.786215 0.179202 0.434692 -0.058132 -0.164832 0.819211 -0.229081 -0.358737 -1.069295 -0.505682 -0.383490 -0.036910 -0.541951 0.381943 -0.294205 -0.000270 0.453997 0.486581 -0.464456 0.375115 0.859927 -0.106283 0.534243 -0.695987 0.243940 -0.101690 -0.344803 -0.513102 -0.716352 -0.283265 -0.643639 0.806600 0.983590 -0.125497 0.098531 0.476476 -0.398892 -0.098879 -0.561253 0.957517 0.107880 0.256234 -0.309407 0.025534 -0.022378 -1.021092 -0.136216 -0.349795 -1.159125 -0.664015 -0.772527 0.410724 -0.397256 1.695865 0.468500 0.287291 1.193748 -0.484418 0.705531 0.049856 1.165356 0.631425 0.354008 -0.135245 -0.155063 1.055678 -0.854240 -0.271484 1.004157 0.441336 0.848908 -0.245596 0.950313 -0.076650 0.603053 0.237503 1.018604 -0.398568 -0.028826 -0.033040 0.830270 0.013095 0.544719 -0.059614 -1.204323 0.662348 -0.697149 0.352421 -0.490933 0.911111 0.473943 -0.902816 -2.333487 1.613770 0.083114 -0.204423 1.121455 -0.701262 0.058491 -0.523178 -0.321014 0.368237 1.024335 -0.477467 -1.014700 -0.246537 1.018915 1.171564 0.009639 0.597056 -0.825723 -0.591718 0.925528 -1.097791 0.329436 -1.309702 -0.040113 0.758739 0.789124 -0.119649 0.770686 -1.253907 0.355636
M019_ON 1.749909 0.110301 -0.674648 0.758718 -0.016057 0.556048 -0.315756 0.457086 -1.025478 0.021726 0.934095 0.175225 -0.502703 0.320477 0.081565 0.433612 0.986306 -0.700937 0.715791 -0.665543 -1.326975 0.059808 -1.224243 -0.261291 -0.968425 0.694061 -1.995396 0.710110 0.118058 -0.548178 -0.468629 -1.054790 -1.113673 0.106165 0.520017 -0.425803 -1.525333 0.866907 -0.656678 0.213373 0.080936 0.928383 -0.195815 -0.175752 0.484693 0.304609 0.295350 -0.799391 1.186417 -0.238812 -0.118082 0.089783 -0.418602 -0.944858 1.304719 1.050163 -0.145134 -1.110881 0.005668 -0.627526 -0.023606 0.812349 -0.362708 -0.202863 0.346735 -0.155845 0.092211 -1.510918 1.293338 -0.768682 -0.000810 -1.383910 -0.007739 -0.009031 0.309495 -0.121425 0.263357 0.755573 -0.030204 -0.849274 0.320868 0.005564 0.279511 -0.610549 0.005240 -0.282732 0.023057 -0.217315 0.810044 1.137758 0.211743 0.744654 0.530403 0.088353 0.041508 0.239581 0.269644 0.783847 -0.149550 -0.024616 -0.631312 0.075568 0.477722 -0.277856 0.135619 0.914833 1.182343 0.731338 -0.136809 -0.754904 -0.185429 -0.016179 -0.229560 -1.507671 0.525059 0.306206 0.038758 0.085284 1.194089 -0.309043 -0.201024 -0.381694 0.189280 0.601953 0.053002 0.082558 0.128271 0.069966 0.206017 0.045728 -0.320629 -0.300200 -0.713219 0.273988 0.353833 -0.599887 0.386972 -0.243545 0.705819 0.207424 0.034544 -0.080149 0.890696 -0.462209 0.726558 -0.881608 0.149272 -0.203282 0.532454 0.193700 -0.921030 -0.263069 1.159010 -0.951178 -1.308444 0.113187 1.167973 -0.113255 -1.234979 -0.770657 0.429516 0.119901 -0.910452 0.851911 -0.309959 0.968233 0.457211 -0.275969 -0.677060 -0.582989 0.334883 -0.088379 0.536497 0.555049 0.365841 -0.140610 0.554380 -0.037758 -0.514257 -0.162104 0.113482 0.361690 -0.144927 -0.267030 -0.226705 -0.516070 -1.321988 0.221006 -0.153708 -1.225843 0.174380 -0.517142 0.548540 0.166436 -0.802564 0.054810 0.050137 0.479496 0.726323 0.699413 0.119424 -0.409278 0.218572 -0.585958 -0.611138 -0.141156 -0.549848 -0.627653 -0.246660 -0.182938 -0.274404 -0.527700 0.375848 1.442855 -0.584056 -0.612371 0.453651 -0.737555 0.410354 0.393303 -0.552426 0.603713 -0.480328 0.575109 -0.705837 -0.237593 0.842582 -0.236029 -0.135722 -0.909445 0.744153 0.240466 -0.229759 -0.375773 -0.073959 0.550908 -0.420975 -0.722880 -0.391694 -0.672410 0.256045 0.249037 0.433967 0.123217 0.419954 -0.228874 1.115463 -0.665409 0.604119 -0.413985 0.400175 -0.291314 1.020639 1.267095 1.157679 -0.238381 0.502165 0.577586 -0.311611 0.186826 -0.552983 0.828182 0.003721 -0.953397 -0.183571 1.140876 -0.814860 0.416764 -0.106476 -0.238804 0.873447 0.160392 0.809707 0.119195 0.001584 -0.290072 -0.943142 -0.958591 -0.238252 -0.266020 -0.415054 -0.021882 0.581452 -1.302082 -0.361136 -1.639678 -0.467223 0.140804 -0.719694 -0.650317 0.279933 -0.165568 -0.606884 0.755449 -0.090349 -1.199564 0.555454 1.023695 0.643199 0.529900 -0.153560 -0.394603 0.272236 -0.270638 -0.230445 -1.846716 -0.252571 -1.401050 0.738633 1.332763 0.200419 -0.661654 0.993398 -0.543043 0.678913 -0.150003 1.148428 -0.494976 0.428560 -0.241352 -0.142037 -0.170081 -0.562006 0.049486 -0.534333 -0.869498 -0.425024 -0.137812 -0.066258 0.118894 1.003474 -1.090622 -0.270924 1.499468 -0.657484 1.278016 0.217259 0.945901 0.333540 0.168823 0.638495 -0.319773 0.650064 -0.387289 -0.130996 0.806047 -0.046846 1.223985 0.406714 0.532640 0.493662 -0.029064 -0.543376 0.224088 -0.167788 -0.011013 0.344861 0.463242 0.026146 1.062696 0.041162 -0.805081 1.124938 -0.503003 -0.009335 -0.319099 0.315407 0.394740 -0.472182 -1.538434 0.758293 0.875910 0.503630 0.638402 -0.421994 0.419046 -0.818865 -0.434844 0.159223 0.753525 -0.136884 -1.086038 0.184403 0.642675 1.075038 -0.196968 0.255423 0.285044 -0.542692 0.005095 -0.491632 1.330908 -1.328294 0.364544 0.204830 0.227178 -0.532260 0.544585 -1.447794 0.662448
M015_OFF 0.565656 -0.328884 -0.558560 0.438912 0.193210 0.534886 0.111020 1.824300 -1.187919 -0.366678 0.909617 0.299065 0.462007 0.358778 -0.870515 0.882970 0.102323 -0.843130 0.933272 -0.899097 -1.020972 -0.438322 -1.011043 -0.308182 -0.060562 0.230647 -0.984184 -0.137331 0.305386 -0.515885 -0.549167 -0.820868 -1.347100 -0.108619 0.468556 -0.786525 -1.577546 0.860836 -0.714611 0.016640 -0.074627 2.146437 0.082593 -0.826374 -0.165032 1.291489 -0.087628 -1.377684 1.263797 -0.174497 0.254171 -0.404702 0.920699 -1.003116 1.630495 1.230082 0.454969 -0.997110 -0.002483 -0.692349 0.679491 0.822460 0.133654 0.597916 0.912168 -0.661853 0.091947 -1.575106 1.123409 -0.879505 -0.313225 -1.154548 0.297721 0.046329 0.608441 -0.431336 0.915511 0.220872 0.004825 -0.690706 0.226596 0.417141 -0.031504 -0.533610 -0.147395 -0.233269 0.743695 -0.445716 0.580435 1.034737 0.582574 0.868402 0.023814 0.390855 0.448364 -0.304112 0.382053 0.535119 -0.030035 0.030203 -0.355783 0.068625 0.310235 0.446924 0.262619 0.319006 0.714760 0.656252 -0.182492 -0.773642 -0.123885 0.001252 -0.032059 -1.191927 0.211935 0.068482 0.732234 0.216197 1.233775 0.142445 -0.786930 -0.642552 -0.312982 0.396438 0.279873 0.029484 -0.314795 0.511993 0.165333 -0.517279 -0.161270 0.329675 -0.836076 0.652980 0.578127 0.101298 0.815421 -0.912965 0.642111 -0.185428 -0.002815 0.449985 0.896589 -0.642381 0.986857 -0.461721 0.325848 -0.012882 0.343644 0.405825 -0.803086 0.200663 0.261381 -0.554342 -1.105383 -0.386539 1.117325 -0.315106 -0.330167 -1.204374 0.052071 -0.044081 -0.799440 0.149307 -0.690189 0.458905 0.237669 0.502738 -0.191206 -0.391945 0.618322 -0.498366 0.188214 0.744288 -0.113695 -0.478590 0.045803 -0.069198 0.136316 -0.070319 0.080907 0.095943 0.285035 0.133285 -0.342011 -0.208987 -1.022759 0.074984 0.007158 -0.774399 0.605368 -0.739012 -0.250891 0.375956 -1.215981 0.492587 -0.000258 0.986263 0.229835 0.715179 0.123485 0.278381 0.625848 -0.851045 -1.009017 0.289005 -0.077866 -0.067093 -0.099784 -0.577401 0.204945 -0.800257 0.106559 1.399242 -0.517759 -1.252536 0.353358 -0.010665 0.411454 0.800604 -0.301748 0.503072 0.019934 1.300281 -0.167397 0.133595 1.286925 -0.123336 -0.097692 -0.378767 0.344617 0.361074 -0.353753 -0.757908 -0.510059 0.746318 -0.494129 -0.533639 -0.165285 -0.648490 0.821099 -0.108101 -0.054330 0.366212 1.278412 0.058051 0.766385 0.010263 0.468691 -1.223986 0.326363 -0.651239 0.834688 1.023491 0.656565 0.206086 0.090973 -0.030187 0.429308 -0.380308 -0.348637 0.281207 0.735307 -0.957682 0.657936 0.933489 -0.621106 0.526030 -0.685212 -0.374173 0.833098 -0.362987 0.335146 -0.294564 0.698999 -0.384865 -1.254665 -0.459035 -0.224190 0.028321 0.206805 -0.243489 1.088044 -0.557466 -0.768826 -1.361012 -0.091655 0.080439 -0.223550 -0.848475 0.611951 -0.655214 -0.184069 1.046533 0.420644 -0.848098 0.551405 0.857491 0.045401 0.179368 0.186619 -0.347706 -0.092561 -0.739236 -0.521132 -1.246848 -0.073219 -1.304677 1.068853 1.297325 0.223327 -0.439212 0.839952 -0.689105 0.222770 0.050910 1.025376 -0.144496 0.738714 0.023331 0.012277 0.339961 -0.897402 -0.147671 -0.486867 -1.167881 0.087803 -1.448170 0.325561 -0.613084 1.749080 0.381351 0.532409 1.298199 -0.629644 1.315523 0.258076 1.777291 1.035985 -0.078696 0.334991 -0.329919 0.899298 -0.484195 -0.093041 0.755074 0.199066 0.739204 0.402330 -0.028283 0.286371 0.401698 0.069702 1.007713 -0.684040 -0.021010 0.189774 0.130184 0.326783 0.563807 0.039378 -1.203053 0.720973 -0.521950 0.137288 0.102381 0.230793 1.194743 -0.633358 -2.098475 1.178612 0.662621 0.197772 0.707372 -1.021802 -0.042144 -0.814905 -0.041360 0.570917 0.665169 -0.382912 -1.304286 0.065961 1.391480 1.595472 0.447829 0.570727 -0.261437 -0.591425 0.854346 -0.879641 1.798208 -2.261603 0.477688 -0.302614 0.887240 -0.244046 0.966849 -1.633831 0.689952
M015_ON 1.870356 0.800589 -0.018186 0.740710 -0.739345 -0.122452 -0.984178 1.112266 -1.029528 -0.150242 1.097850 0.238937 0.048806 0.026186 0.473338 0.656032 1.532369 -1.449626 -0.323138 -0.823715 -1.375728 -0.263906 -1.317558 -0.521556 -0.802134 1.363664 -2.130910 1.025785 -0.309032 -0.508744 -0.428395 -1.111121 -1.121073 -0.078420 -0.059604 -1.289106 -0.577873 1.020520 -1.192811 0.745845 -0.010472 1.768790 -0.510092 -0.539264 0.351565 0.198491 0.669732 -0.500010 0.866572 -0.293516 -0.229517 -0.093793 -0.139627 -1.193848 0.932468 0.852172 -0.089466 -0.882188 -0.262826 -0.347318 0.055308 1.462532 -0.084195 -0.135758 0.396033 -0.173469 0.233876 -1.785511 1.506025 -0.115125 0.490055 -0.832065 0.312463 -0.129823 0.164424 0.109501 0.280876 0.327146 -0.003803 -0.174425 0.215709 0.029114 0.425744 0.129546 0.265313 0.289325 -0.373720 0.209782 0.873823 0.618715 0.171731 0.968337 0.797398 -0.080874 0.339559 0.219423 0.360468 1.019929 -0.208983 0.501543 -0.186094 -0.420119 0.064583 -1.023886 -0.283348 0.640855 1.001171 0.851824 0.256653 -0.539325 -0.379457 -0.531443 -0.206399 -0.920039 0.000023 0.601035 -0.048372 0.356836 0.623496 -0.354245 -0.246002 -0.237379 0.455318 0.964153 0.216029 -0.092108 0.148357 0.065401 0.496989 -0.145582 0.167101 -0.345053 -0.866818 0.337339 0.969720 -0.177741 0.974680 -0.279750 0.568146 0.004198 0.932087 0.196087 0.476373 -0.441292 0.644058 0.002804 0.029257 0.339677 -0.087780 -0.392102 -0.520584 -0.546169 0.771506 -0.528315 -1.712362 0.727695 0.804209 0.404038 -0.326551 -0.569914 0.447401 0.324318 -1.164089 -0.681943 -0.042661 1.428414 0.113006 0.186269 -0.081908 -0.849879 0.590619 -0.314516 0.308515 0.096578 -0.155099 -0.067550 0.357002 0.288740 -0.865554 0.333992 0.067901 -0.145577 -0.101147 0.627613 -0.011459 -0.458407 -1.190209 -0.455751 -0.240164 -0.860298 -0.117839 -0.569129 0.068934 0.015256 -1.211174 -0.156310 0.618698 -0.294052 0.174008 0.691358 -0.044171 0.039753 0.559708 -0.086020 -0.719723 0.428812 -0.522064 -0.488386 -0.153591 -0.187206 -0.737960 -0.421662 0.623131 1.345791 -1.066475 -0.706349 0.176035 -0.692905 0.096225 0.842617 0.100339 0.616268 -0.316406 -0.069228 -0.794935 -0.155584 1.024915 -0.386185 0.015568 -0.850472 0.158103 0.013225 -1.090803 -0.623515 0.246969 0.697521 -0.682541 -1.125169 -0.333676 -0.435013 0.494846 0.804051 -0.482886 -0.014405 0.336943 0.223227 1.003196 -0.000532 1.185920 -0.175778 0.225420 -1.111715 1.540700 1.411883 1.066371 -0.285087 1.180018 0.719177 0.577091 0.280465 0.093078 1.083611 1.049168 -1.639864 0.583855 0.511695 -0.862771 0.495264 -0.560587 -0.282948 1.205703 -0.635380 0.251842 0.006178 0.263163 -0.760917 -1.037071 -0.707032 0.010344 0.546682 -0.107921 0.095353 0.510823 -0.756757 -0.748559 -0.799067 -0.666020 -0.582747 -0.349948 -0.589587 0.181833 -0.509705 0.110193 0.323492 0.062725 -1.190804 0.851953 0.727378 0.805645 0.937180 0.076740 0.060557 0.366030 -0.339764 -0.184222 -1.560346 -0.082648 -1.192800 0.347857 1.249829 0.198482 -0.610015 0.985954 -0.557334 1.005927 -0.603280 0.868807 -0.194124 0.662885 -0.390699 -0.382206 0.167351 -1.104985 0.863419 -0.419209 -1.029654 -0.986656 -0.046012 0.407458 -0.953138 0.621572 -0.631465 -0.531457 1.102774 0.064230 0.802303 -0.045339 1.040510 0.656341 0.408857 0.513097 0.361990 0.800575 -0.512073 -0.210522 0.735190 0.544504 1.020105 -0.003240 1.057115 0.066019 -0.188082 -0.230524 0.888717 0.067265 -0.404724 0.472397 0.634623 0.202876 0.718576 0.210228 -1.213428 1.672446 -0.669465 0.190604 -0.729446 -0.090860 0.404546 -0.814686 -1.463041 1.270119 0.263355 -0.106993 0.649998 -0.262517 0.054573 -0.358588 -0.425999 0.250725 0.675451 -0.568193 -0.806002 -0.542095 0.772790 1.841037 -0.137893 -0.056826 -0.102315 -0.719158 0.857213 -0.553961 0.460836 -1.094501 -0.026095 0.203519 0.305714 -0.021100 0.121061 -1.383356 0.589474
M007_OFF -1.302234 0.220313 1.859529 -0.905108 1.649518 0.536706 1.543123 0.709420 0.828369 -0.383101 0.023922 0.321550 0.161824 0.543293 0.470934 -1.532475 0.338074 1.187304 -0.106074 -0.037467 0.603104 -0.266023 0.979622 0.784175 -0.070268 -0.261851 1.101258 -0.563829 -0.287322 1.083755 0.362908 0.727646 0.230496 0.473106 -0.587394 0.766348 0.882532 -1.062833 1.068036 0.014669 -1.079392 -1.080872 0.117077 0.305290 -0.912022 -0.241145 -0.316646 1.468420 -1.221271 -0.287981 0.097910 -0.145603 -1.257832 0.777794 -0.751358 -1.519494 -0.654044 0.611680 0.491503 0.033896 -0.501312 -0.364663 0.006130 -0.668858 -0.646830 0.841988 -0.206095 1.070787 -1.741851 0.098982 -0.546996 0.109566 1.815505 0.331954 0.999556 0.109127 1.545832 0.196820 -0.893989 -0.193878 0.016754 -0.290064 1.653701 0.433322 -0.267244 0.275464 1.384696 0.269856 0.096976 -0.778353 0.751326 -0.314901 0.656210 -0.522372 -0.613908 -0.310665 0.696974 0.130900 -0.251199 -0.196597 -0.505656 0.075578 -0.140325 0.774923 0.600388 -0.047365 -0.851583 0.443249 -0.808659 0.130547 0.521590 -0.049111 -0.486438 0.373907 0.810439 -0.409549 -0.135294 0.314872 0.307769 0.042025 -0.591515 0.484962 -0.961543 1.112953 0.632317 -0.594965 0.090370 0.416096 -0.353623 0.218782 0.532816 0.569829 -0.184020 0.082639 -0.004185 -0.027473 0.126428 -1.147660 -1.149972 0.973787 -0.081269 -0.199379 -0.681739 0.259845 0.333391 0.100075 -0.192182 0.050258 -0.741224 0.448389 1.076197 -0.270774 0.222780 0.292651 1.004618 -0.554058 -0.866376 0.853460 -0.568681 1.393478 0.499652 -0.014033 -0.278814 -1.074273 0.547906 -1.297812 -0.010953 -0.439249 0.550469 -0.622863 0.523137 0.395892 0.310727 0.419594 0.201016 0.681471 0.096611 0.733105 -1.168162 0.538471 -0.837704 -0.994298 -0.265592 0.084600 -0.865536 -1.103678 0.675542 -0.588175 0.294275 0.805589 0.123369 0.198672 -0.664162 -0.429598 1.827690 -0.330384 -0.020694 -0.612832 1.284981 0.374831 -0.775291 -0.135741 -0.505760 0.447071 0.741918 -1.318704 -0.160301 0.068777 -0.037641 -0.061841 -1.392040 -0.342665 -0.053696 -0.223715 0.513452 1.261749 -0.680535 -1.189407 -0.503361 -0.437497 0.295945 -0.963643 0.183729 -0.536098 -1.255724 -0.544418 0.177323 -0.458273 -0.349056 0.808058 -1.172675 0.473086 -0.345933 0.683797 1.087575 0.395458 0.247323 -0.659066 0.119387 0.492481 -0.384770 -0.063114 0.347046 0.186519 -0.140582 0.455592 -1.003332 -0.049807 0.148315 0.703340 -0.035468 0.189877 -0.248525 -0.440523 0.330142 0.423296 -0.627935 0.134629 0.477099 -0.128628 1.435399 -0.857748 0.649578 0.360096 -0.182521 -1.373686 0.146794 -0.616801 0.100753 -0.587865 -0.220513 -0.286968 -0.781993 0.365941 -0.146927 -0.331772 0.085831 0.467402 0.021650 1.034820 -0.562059 0.165878 -1.146209 0.388718 -0.362037 1.262777 -0.551370 -0.594043 0.339741 -0.278056 0.605690 0.583894 0.827699 -1.147341 0.376832 0.533393 -0.042761 -2.644920 -0.460941 0.070082 0.090719 0.368016 0.877238 -0.916533 0.116228 0.880221 2.170219 1.426371 -1.031789 -0.655622 -0.338133 -0.046506 -0.881795 0.891163 -0.301931 0.660911 -0.092849 1.271169 -0.184818 0.217727 0.348518 0.216889 0.226724 0.162899 0.118607 0.728766 0.857002 0.414466 -1.197891 1.315452 -0.131065 -0.114007 -0.424493 -1.038701 0.791363 -0.483968 -0.344436 -0.336575 -0.642448 -0.695751 0.253344 0.972283 -0.704859 0.438804 -0.106258 -0.752260 0.265587 -0.463232 -0.589944 -1.340911 0.546887 -0.398983 -0.243652 -0.425668 0.832179 -1.059919 0.292178 -0.926287 0.014159 -1.423307 0.844416 0.314663 0.596016 -0.437621 1.266135 0.321236 -0.954221 0.046369 0.393875 2.014216 -0.535192 0.001412 0.229088 -0.897246 0.432199 0.204860 0.365003 0.383852 0.338825 -0.487099 0.502586 0.053816 0.127048 0.174861 1.260310 -0.510947 -1.008164 0.317514 -0.270850 1.250267 -0.101150 0.339030 0.207433 -0.479569 -1.415012 -0.703578 -0.241830 0.436481 -0.172052 0.288768
M007_ON -1.927859 -0.474591 0.834987 -1.276233 0.985177 0.681186 1.340505 0.457090 0.357206 -0.589005 -0.111308 0.198130 0.056974 0.445766 -0.489603 -1.565249 -1.257956 1.734684 -0.387146 0.185006 0.124982 -0.560939 0.309345 1.358541 0.760846 0.127763 0.798781 -0.454693 -0.009961 1.540615 0.098636 0.628039 0.704564 1.265821 -1.516030 0.576092 0.862027 0.133602 -0.045143 0.169275 0.336208 -0.769990 -0.436947 0.460335 -0.459172 -1.262804 0.164632 0.280878 -0.596615 -0.203059 0.814821 -0.877334 -0.140382 0.818075 -0.542896 -1.066663 0.404497 0.892171 -0.219582 -0.690219 -1.609120 -0.362275 -0.173797 -0.245086 -0.056032 1.616480 -0.243850 -0.158550 -0.438273 -0.762427 -0.528407 -0.095902 2.086573 -0.427149 1.588100 0.034439 0.490388 0.000337 -1.328915 -0.620193 -0.125332 -0.270697 0.189004 -1.069548 0.194407 -0.085154 0.805045 0.363321 -0.010449 -1.525790 0.271698 0.311531 0.323244 -0.319310 -0.923776 -0.270720 0.474644 0.106597 -1.048174 -0.576100 -0.117387 -0.327834 -0.321137 0.283155 0.798968 0.453366 0.000259 -0.013070 -0.378853 -0.894071 -0.567521 -0.980289 -0.627238 -0.516346 0.307090 -0.621690 -0.560672 -0.442310 0.774846 -0.294818 -0.342469 0.660808 0.004367 0.901189 -0.675193 0.316038 0.314513 -0.189473 0.192842 -0.095183 0.268521 -0.463045 -0.198092 0.611873 0.048326 0.752058 -0.069532 -1.070725 -0.719384 0.949728 0.241704 0.379552 -0.089801 0.358036 0.517256 -0.387421 -0.001287 0.136930 -0.826828 0.668544 0.993550 -0.117897 0.386447 0.364952 0.619609 -0.314651 -0.089870 0.143415 -0.281080 1.429514 0.704290 -0.127037 0.165502 -0.913279 0.018970 -1.265983 0.725492 0.078317 0.057312 -0.426112 -0.418714 0.434572 -0.424103 0.709342 -0.010664 0.189161 -0.008286 0.417831 -0.798460 0.725982 -1.128968 -0.440242 -0.399004 -0.191679 -0.324186 -0.689461 1.195760 -0.836705 0.490242 0.942150 0.744269 0.146178 -0.450363 -0.482825 0.892723 -0.563655 -0.373883 0.891219 0.691946 0.254183 -0.618380 0.452197 -0.468552 -1.301341 0.054215 -0.316925 -0.151653 -0.363095 0.302898 -0.440549 -0.535911 0.315850 -0.731234 0.007167 1.403186 -0.185198 -0.910658 -0.219077 -0.819262 0.609111 0.285975 -0.727556 0.881589 -0.987144 -0.963054 0.338821 0.328683 -0.253873 -0.615358 0.388615 -0.894378 0.135814 0.891983 0.670438 0.376336 -0.053857 0.835701 -0.365634 0.400010 0.859171 -1.032901 -0.292103 0.714108 0.113000 -0.375517 0.615468 -0.602665 0.062414 0.192373 0.365538 -0.022227 0.387976 -0.004012 -0.952772 -0.561155 0.125147 -1.087151 -0.084966 -0.130883 -0.062836 1.553292 -0.571622 -0.056568 0.966524 0.214998 -1.490829 0.347841 -0.873024 0.521839 0.356784 0.137213 0.071168 -1.394422 0.130460 0.130407 -0.076067 0.151194 -0.026721 -0.809596 0.753343 0.779010 0.223682 -0.715761 1.252815 -0.265139 0.758993 -0.371427 -0.572332 0.080715 0.538731 0.962159 1.099084 0.985821 -0.932178 0.014764 0.248976 -0.124025 -1.486926 0.613377 -0.901174 0.243730 0.032157 0.236149 -0.475245 -0.068001 1.575871 1.172035 1.528950 -0.582327 -0.794869 0.171903 -0.108686 -0.807840 0.368230 0.102255 0.080094 -0.899124 1.082997 -0.033265 0.538539 -0.463896 -0.124020 0.582315 -0.326073 0.787668 0.918224 1.022328 1.032505 -1.062281 1.725530 -0.546646 -1.074899 -1.108390 -1.089913 0.878362 -0.927049 -0.512969 0.004812 -0.649627 0.135341 -0.057989 1.266103 -0.634083 0.339985 0.681246 -0.091913 0.068598 0.568697 -1.351126 -0.557203 -0.230529 0.089835 -0.093239 -0.096458 0.606287 -0.705567 -0.477987 -0.586249 -0.358413 -0.519946 0.843834 0.520067 0.037186 -0.330702 0.277073 0.771556 -0.707623 -0.207708 0.838564 1.723808 -1.282898 0.034780 0.434156 -1.268699 -0.021522 0.169251 0.877324 -0.137847 0.372392 -1.091276 0.915345 -0.022318 0.281563 0.223173 0.579863 -1.018241 -0.558645 0.876919 0.534903 0.735085 0.343060 1.352099 0.274854 0.980053 -2.240800 -1.135885 -0.363216 0.731330 -0.707007 0.057853
M014_ON 0.339293 -0.052742 1.179865 -1.138932 0.219685 -0.611272 1.365126 -0.202346 -0.067543 -1.786241 0.701706 1.182818 0.615786 0.192082 0.393787 0.158704 1.372847 -0.355718 -0.176669 -0.520533 -0.242270 -0.293018 0.271365 -0.901812 -0.107699 0.125824 -1.466256 -1.291191 -0.059148 -0.540432 0.664015 -0.407200 0.075683 1.001316 0.443807 0.108596 0.306262 0.433057 0.267540 -0.345178 0.431511 -0.740842 -0.338017 0.640937 0.662195 -0.291910 0.027948 0.027134 0.464319 -0.734025 -0.229598 1.711523 -1.097348 0.004835 0.428921 -0.367827 -0.123060 -0.121548 1.132263 0.739667 0.182147 0.297900 -0.516912 0.528429 -0.046569 -0.506316 0.028222 -0.134204 0.179715 -0.729198 -0.275237 -1.075069 -0.625956 -0.204635 -0.133588 -0.726010 -0.297701 0.569595 1.191482 -0.110293 0.102963 0.810413 -1.116088 -0.349859 -0.024985 1.183232 -0.296450 -0.583025 0.323676 -0.076280 -0.334806 0.465427 -0.031893 0.113928 0.916266 -0.746654 0.544073 0.043770 0.599234 -0.641299 0.097860 0.451141 0.449546 -0.118829 0.680464 -0.623835 0.082346 -0.573691 -0.293528 0.480124 1.010853 1.980913 2.156995 -0.178222 -0.657455 -1.063488 0.683783 -0.124275 -1.347462 -0.231416 0.067049 -0.961857 -0.209131 -0.822659 0.487181 0.387867 -0.686535 -0.308634 0.636476 -0.559312 0.465720 -0.376849 0.897509 0.826605 0.211154 0.435958 0.802296 1.082420 0.956027 -1.425881 -0.338553 -0.395611 -0.008485 -0.706667 0.391381 0.072017 0.204765 -0.460204 0.875640 -1.077173 -1.250957 1.009697 -0.923154 -0.278152 -0.764712 0.962314 0.889258 0.055874 0.449474 -0.739749 -0.074285 -0.220364 0.723818 0.052303 0.657686 0.788458 -0.773452 -0.927631 -0.928229 -0.309551 -0.673348 -0.610206 0.029002 0.307359 -0.243865 -0.049774 -0.713386 1.249758 -0.543216 -0.063499 0.129737 -0.706165 -0.271115 0.980173 0.156256 -0.080325 -0.357086 -0.805162 -1.135223 -1.452745 0.488591 -0.084369 2.139413 -0.514692 -0.585228 0.407623 0.522324 -0.117174 0.403668 1.051471 0.115101 0.752642 0.971019 0.366584 1.100712 -1.384630 -0.813788 -0.054282 0.237408 0.130085 0.403234 0.760351 0.615159 -0.354343 0.485923 0.653752 0.153908 -0.142073 -1.141463 0.539367 -0.782185 -0.559510 -0.051292 -0.155969 1.191454 -0.115043 -0.711761 1.012323 -0.280126 -0.488547 0.591366 0.314233 -0.081525 0.141519 -0.366361 0.149809 -0.319541 2.142453 0.429979 -0.289348 -1.026106 0.147521 -0.015442 -0.883468 -0.951161 -0.550833 2.278815 -1.441271 0.192491 -0.495225 1.003768 0.789788 -0.410984 -0.302297 0.533685 0.464853 0.752029 0.939058 0.564038 1.333231 -1.821551 -0.480136 -0.638698 -0.248545 -1.243321 0.073928 0.148138 2.020475 -0.280295 -0.139149 -0.839329 0.066408 1.855560 0.285741 0.449075 1.238494 1.984616 -0.393594 -0.460794 -1.133432 -0.027455 0.584526 -0.833134 -1.126102 1.424346 0.253548 -0.454230 0.235262 -0.920632 0.409290 -0.184707 0.274238 -0.592213 -0.262943 -0.574880 -1.129917 0.100088 1.215481 0.038490 -0.230843 -1.709760 0.309673 -0.058315 0.759916 0.006484 -0.229787 -0.499210 -0.033488 0.803624 0.343404 -0.011149 0.395270 -0.651301 -0.082466 0.590604 0.479097 0.165879 -1.020537 -0.821391 0.334570 -0.214449 -0.676431 0.943234 -0.971777 -0.660235 1.170611 0.150375 -0.201940 0.915338 -0.065744 0.292967 -0.817608 1.204679 0.265698 -0.842943 -0.025082 0.204911 -0.058533 -0.235647 0.340981 -0.470489 -0.439596 -0.204206 -0.410178 0.011673 -0.368378 -0.667977 -0.587651 0.419190 1.368890 -0.494563 0.319041 -1.246307 -0.506722 0.437740 -0.199318 0.462715 -0.151378 -0.389797 0.319520 -1.037941 0.023021 1.023651 0.410494 0.325550 -0.763290 2.328559 0.505232 -0.817939 0.168972 0.446295 -0.407323 0.587065 1.464899 -0.959070 0.278950 -0.765802 -0.111547 0.320480 -1.708899 1.051037 -0.794361 1.175922 -1.178360 -1.494588 -0.888893 0.177929 -0.002137 -0.008268 -0.285699 -1.997290 0.413971 -1.052686 0.298340 -0.789111 -0.144612 -1.770766 0.890204 -0.895629 0.661624
M014_OFF -0.540691 -0.299782 0.691497 -1.688403 0.500090 -1.457485 0.531461 1.102059 0.164422 -0.365696 1.426891 0.226370 0.350411 0.388004 0.287340 0.087116 -0.012639 0.181372 0.498809 -0.038902 -0.787220 -0.768727 0.141313 -0.335945 -0.410137 -0.708181 -1.031873 -1.358180 0.981159 -0.597556 0.724449 -0.378966 -0.219374 -1.020556 -0.455257 -0.581154 0.831864 -0.101595 0.376792 -0.088401 0.517122 -0.433187 -0.081934 1.550949 0.234526 -0.061575 0.770015 0.328856 0.320098 -0.513329 -0.805379 0.452211 -1.044088 -0.522915 0.821116 0.387848 0.027271 -1.006076 -0.375212 -0.834935 0.288174 0.084760 -0.529477 0.968231 -0.198487 -0.210747 -0.580452 -0.714003 0.871124 -0.387881 0.317941 -0.919199 -1.053310 1.012132 0.553870 -0.456719 -0.727215 1.104761 0.478800 0.607158 0.009752 0.568442 -0.641161 0.320655 0.456666 0.764727 -0.114233 -0.833436 0.167708 0.033174 -1.075454 -0.174503 -0.080614 0.485028 0.935324 -0.012047 0.823324 0.380066 0.512490 -0.008596 -0.806131 -0.341514 0.394238 -0.718340 -0.360796 -0.705262 1.049992 -0.394295 0.039891 -0.100465 0.034287 1.284157 0.726699 -0.823091 -0.833439 -0.342003 0.012205 -0.433100 -0.635074 0.095096 -0.032587 -0.439640 0.146574 -1.055392 0.642728 0.612359 0.584818 0.889522 -0.366679 0.107068 0.447327 -0.163227 0.346140 0.575804 -0.387219 -0.541139 1.554638 1.069434 0.868582 -0.760289 0.076976 0.331403 -0.515049 0.475021 -0.100797 -1.175904 0.048011 -0.148745 0.838024 -0.627995 -0.314608 0.426040 -0.503912 0.568261 -1.249553 -0.005940 1.240514 0.781600 -0.124772 -0.812692 -0.311039 -0.380577 0.071490 -1.349993 0.229551 1.272516 -0.217994 -0.536803 -1.605337 0.000337 -1.833631 -1.112131 -0.767327 0.749861 -1.193613 -1.828012 -0.969822 1.531471 -0.873239 -0.338585 0.705762 -0.388699 -0.018835 1.363646 0.263982 0.003170 -1.074908 -0.641317 -2.376753 -1.246133 0.985342 0.759263 2.131998 -0.472861 -0.360115 0.892519 -0.556615 0.420565 0.409982 1.194309 0.913519 -0.035605 0.451426 1.144684 0.248242 -1.314544 -0.727508 0.060308 0.323949 0.048256 -0.153905 -0.216111 0.866094 -0.373754 -0.215751 0.967596 0.460374 -0.462613 -0.150134 -0.521037 -0.579055 0.630782 0.307537 -0.362712 1.420656 1.198914 -0.854921 2.245680 1.150548 -0.655866 0.707836 0.046297 0.015635 -0.608663 -1.503821 0.791229 -0.447484 2.124925 0.803265 -0.896795 -0.967783 -1.130945 0.635141 -0.048577 -0.103377 -1.022483 1.539383 -0.669234 -0.314436 -1.033703 0.949252 0.969948 -0.699069 -0.319155 1.010137 0.717694 -0.156455 0.606075 0.359110 0.730795 -1.004631 -0.659843 -0.623644 0.793785 -1.737395 0.681384 1.185990 1.299076 0.752456 -0.045630 -0.425746 0.595534 1.356798 -0.110435 0.041839 1.382986 2.010187 -1.102001 -0.992638 -0.963375 -0.114276 0.546425 -0.759130 -0.240816 1.170700 0.349033 -0.310047 1.040944 -1.119080 0.501155 -0.400955 0.348995 -1.376631 -0.549555 -0.857024 -1.330196 -0.494418 0.833494 0.437418 -0.136788 -1.398811 -0.068199 -0.113516 0.013969 1.006262 -0.197303 -0.014904 -0.049263 0.409611 -0.546824 0.187401 -0.106951 0.340667 -0.350183 0.410408 0.145420 -0.086388 -0.258457 -0.716069 0.014215 0.465200 -0.097809 0.650035 -0.022482 -0.554449 1.299559 -0.394073 0.350151 0.144646 0.483887 0.076417 0.074707 1.320532 -0.135974 -0.810338 0.322907 0.455577 -0.442495 -0.748066 0.471281 -0.456886 0.122905 -0.168624 -0.260041 0.180420 -0.004251 -1.216653 -0.459905 -0.129612 1.483902 -0.276834 0.288528 -0.814477 -0.737314 0.296833 0.256720 0.685571 -0.258732 -0.104744 -0.065902 -0.247166 0.562257 0.948165 0.663835 0.035616 -0.998697 1.352372 0.580647 -0.215699 0.629978 0.373302 0.280723 1.375662 1.073800 -0.372103 0.532539 -0.521638 0.370023 0.455854 -0.610468 0.458967 -0.094496 1.121548 -1.062105 -1.056024 0.405041 -0.414660 0.189641 -0.369095 -1.327326 -0.453175 -0.442817 -0.629911 0.169516 -0.797010 -0.192313 -1.802326 0.155902 -1.577206 1.899815
M013_ON 1.399805 -0.472995 -1.129230 1.370604 -0.674943 0.121983 -0.310213 -1.048960 -0.091315 0.834111 -1.460663 -0.917769 -0.177560 -0.229801 -0.099520 1.548242 0.781602 -1.333382 -0.008990 1.421534 2.135097 0.858933 0.761936 -1.075079 -0.972710 -1.466248 0.737781 1.255734 0.053663 -0.689634 1.084362 0.238802 0.404543 -0.823405 1.130548 0.698249 -0.356477 0.290104 -0.066376 0.125689 -0.379039 -0.088908 -1.041160 -0.285363 0.488439 0.804575 0.372850 -0.377138 0.192883 0.067546 -0.035785 0.125681 -0.285534 -0.265187 0.115303 1.660845 0.207119 0.276589 -0.358281 1.447865 0.211209 -0.453491 0.402731 -0.184655 -1.316047 -0.330374 -0.201594 1.686593 -0.031912 0.652655 -0.544567 0.673144 -2.719655 0.950759 -0.268365 -0.570224 -0.500734 0.194380 -0.401543 0.376399 0.405488 0.477870 -0.539968 1.128449 0.149307 0.760056 -0.692252 -0.771066 -0.325056 0.227967 -1.317262 -0.662978 -0.270038 0.128583 -1.115139 -0.013416 -1.557239 -0.584639 0.783692 -0.832509 0.340210 -0.701527 -0.050009 -0.115955 0.129348 -0.381286 -0.086004 -0.157707 0.281083 0.700639 0.255652 -0.641073 0.065719 0.403245 0.070748 0.222736 0.311810 0.087569 -1.237364 -0.775803 0.946601 -0.759266 0.470894 -0.911301 -0.598672 -0.032162 -0.213660 -1.124135 -0.059208 0.759054 0.392190 -0.341262 0.189563 -0.353212 -0.236192 -0.369291 -0.134583 0.186918 -0.229373 -0.641111 -0.570074 0.662485 -0.430149 0.578582 -0.855752 0.010744 0.175128 0.250308 1.152921 -0.493411 0.021794 -0.267034 -0.359404 0.021462 -0.815327 0.462396 0.274288 0.043339 -0.063162 -0.310535 -1.002118 -0.367217 -0.317191 -0.368992 -0.452887 1.540717 -0.910168 0.670428 -0.041165 0.030422 -0.957556 -0.512435 0.534114 -0.071117 0.359190 0.916442 -0.746944 0.147281 0.168282 -0.291363 1.550591 0.469420 0.621149 -0.217460 -0.149726 1.012474 0.327471 1.010348 -0.919273 -0.642132 0.072498 -0.583372 0.534139 1.013823 0.522787 -0.403935 -0.207361 0.558990 -0.956796 -1.604325 0.874226 0.016927 -0.137809 -0.242410 -0.736685 1.626357 0.813186 -0.401985 -0.037921 0.495520 1.033180 0.840309 -1.240764 -2.378533 0.990429 0.414626 0.453195 0.484496 -0.183385 0.039118 -0.427300 -0.402603 -0.701933 -1.180969 0.680058 0.044348 -1.095183 0.312816 0.369828 -0.792555 0.375287 -0.137935 0.509146 -0.448452 -0.657559 -0.733021 -0.431016 0.911333 0.949381 0.993418 -0.058550 0.503196 -0.093324 -0.333196 -1.439574 0.394877 0.262701 -0.629258 0.263393 -0.908535 0.069200 1.294191 -0.127549 -0.097089 -0.838730 -0.260582 -0.156528 0.439564 0.241508 1.061428 -0.927444 0.659802 0.040639 -0.168197 -0.917761 0.515804 -0.366705 0.522988 -0.146684 0.201493 -0.665320 0.769450 1.019571 -0.881443 0.063490 0.224780 0.662894 0.813446 0.469782 -0.875177 0.500171 0.210544 0.866378 -0.239262 -0.014025 -0.515800 -0.052191 -0.452405 -0.750848 0.475516 -0.003919 0.171642 -0.039019 -0.160686 -0.125985 -0.384056 -0.732326 1.422363 0.066179 -0.800068 0.018495 -0.262174 -0.648657 0.966513 -1.045203 0.663730 -0.339785 -0.904623 -0.692607 -0.064309 0.027090 0.328174 0.744591 -0.539535 -0.015741 0.254814 -0.093074 -0.116070 0.368550 1.485693 0.172152 0.123066 0.129131 0.386792 0.224238 -0.770900 0.039438 -0.289376 0.234648 -0.689794 0.535999 0.293706 1.355967 -0.387250 0.235966 -0.316471 0.573206 -1.392348 -0.083698 -0.059186 -0.237069 -0.851858 -0.072680 0.694216 1.187623 -0.076116 -1.017792 -0.498296 1.246481 -0.189183 -0.171340 -0.348222 0.060043 -0.804436 -0.228520 1.765146 -0.590640 -0.113823 -1.084511 -0.006555 -0.951529 -0.102457 -0.304249 0.800254 -0.936128 -0.527557 0.090401 -0.368532 -0.078300 -0.277726 -0.032377 0.538529 0.220734 -1.047135 0.428669 0.287166 -1.001747 -0.371337 -0.727855 0.379022 0.082901 1.564628 0.620738 -1.475714 -0.805460 0.476774 -0.713836 1.363416 1.022426 -0.788220 0.883567 -0.325565 1.134290 0.771498 0.620994 -0.057714 -0.077574 -1.587955 0.028583 -0.124625
M013_OFF 1.899647 0.069565 -0.443338 0.317900 -0.770135 -0.194782 0.435193 -0.517817 0.167130 0.525703 -1.203013 0.456116 -0.574697 -0.493704 0.643004 1.301481 0.978629 -1.230426 0.491360 -0.185813 1.564953 0.933985 -0.254664 -0.250679 -0.344562 -0.204879 0.537773 1.897390 -0.454573 -0.293263 0.225399 -0.610746 -0.099118 -1.369379 0.673719 0.027222 0.278511 -0.612875 0.217010 0.695426 0.506927 -0.148514 -0.407832 -0.110871 0.896048 1.090545 -1.271299 -0.273390 -0.210604 -0.696470 -0.638550 0.150250 1.013735 -0.159701 -0.684095 0.471490 0.282078 -0.338440 -0.554059 0.829719 0.300107 0.175724 0.569201 1.349452 -0.997750 -0.342624 0.009415 1.364298 0.442975 1.218296 0.469007 -0.039218 -2.213974 1.114310 -0.705233 -0.451846 -0.469573 0.585569 -0.635062 1.037700 -0.079139 -0.361701 0.493541 0.243289 0.131558 0.793438 0.536784 -0.290274 0.567713 0.108464 -0.987272 -0.208576 -0.153408 -0.127466 -1.344475 0.770957 -0.889944 -1.005007 0.020576 -0.604638 0.377567 0.180503 -0.236247 -0.759055 0.263569 -0.837055 -0.214117 -0.538756 0.403088 0.596615 -1.565367 -0.306730 -0.458348 0.586986 -0.087203 -0.796775 0.434346 -0.567492 -0.788003 0.085578 0.135235 0.560885 0.766156 -0.933745 -0.985283 0.143063 -1.017282 -1.983849 -0.865679 0.681682 0.041202 -0.398802 1.612085 -0.340637 -0.827527 0.846646 -0.671347 -0.102542 0.043335 -0.339586 -0.145832 0.482193 -0.100720 0.785498 -0.624858 0.154136 0.240483 0.494562 0.802202 -0.215972 0.102563 0.360170 -0.219285 0.106954 0.398170 -0.028466 -0.642095 -0.360195 -0.082319 0.689979 -1.581039 -0.657761 -0.044835 0.640038 -0.060437 0.532706 -0.421458 0.882918 0.825678 0.074063 -0.318260 0.641034 0.049921 0.166099 0.060523 -0.202020 -0.597453 -0.248175 0.299106 0.537967 0.668761 0.959725 0.197471 -0.273882 -0.035213 -0.282355 0.827642 0.801680 -0.386281 -1.396487 0.158307 -0.036982 0.416115 0.235506 -0.870765 -0.171083 -1.065912 0.811444 -0.315502 -0.722773 0.301201 0.099123 0.110611 0.807855 0.174862 0.489652 -0.126235 0.125007 -0.133888 0.747445 1.765524 0.523297 -1.331476 -2.057401 0.152710 0.996937 0.184789 1.391397 0.619106 0.089489 -0.305715 0.590438 -1.167875 -0.106107 1.438367 0.664221 -0.925747 0.957794 1.393541 -0.925377 0.807092 0.065896 1.199673 -0.463085 0.031265 -0.747808 -0.377936 0.166707 -0.156381 0.865219 0.184421 0.288414 -1.106715 -0.655198 -0.461762 0.104576 -0.082002 0.398808 -0.316733 -0.221330 -0.210565 0.443565 -0.103732 -0.390655 -0.806053 -0.769374 0.127949 0.186676 0.071220 0.033120 -1.242544 1.154989 0.191322 0.059240 0.687844 0.516610 -0.276823 0.197861 -0.035846 0.358943 -0.953173 0.349948 1.079644 -0.350839 -0.041640 0.492565 0.386769 0.908159 0.433904 -0.147335 0.108616 0.545579 -0.105089 0.141593 0.026190 0.088895 0.528927 0.510977 -0.417814 -0.345522 -0.230441 -1.072284 0.876533 0.437426 -0.955865 -0.011144 -0.738809 1.442836 -0.149740 -0.174161 0.045306 -0.192919 -1.303105 1.267576 1.063414 1.174778 -1.091280 -0.184938 -0.441951 -0.360571 0.158903 0.242974 0.256849 0.203600 0.281329 0.155959 -0.380690 -1.076950 -0.260763 0.530295 0.463216 0.632713 0.506490 -0.249409 -0.138309 0.166580 -0.019104 -1.090113 0.660701 -0.907647 -0.299473 0.261287 0.852408 0.504681 -0.457057 -0.311077 0.806311 -1.536116 -0.432471 -0.370413 0.136042 -1.423595 -0.823445 -0.490581 0.960184 0.440540 -0.192419 -1.022136 0.940552 -0.908248 -1.087086 -0.352711 0.366709 -1.501812 -0.303178 0.895941 -0.446490 0.092799 0.460811 0.155477 -0.915575 0.284367 -0.440382 0.226655 -0.225964 0.706410 1.251445 -0.342118 -0.400645 -0.030105 0.715342 -0.881093 -0.194767 -0.338746 -0.068185 -0.720652 -0.788336 0.309147 -0.910442 0.731171 0.037938 1.730045 -0.495240 -1.409489 -1.502470 -0.860618 -0.391493 -0.465060 0.089521 -0.447530 -0.029615 -0.594675 0.582327 0.093347 0.135162 -0.301545 -0.633584 -0.203986 0.192627 0.372987
M018_ON 1.505740 0.026295 0.472745 -0.949140 1.426642 0.739715 1.433742 -0.959019 0.997262 -0.224881 0.923069 0.936399 -1.571636 0.409009 0.564061 -0.147762 0.693036 0.249063 1.388140 -0.958463 -1.194482 -0.003675 -0.195131 0.065948 -1.240544 0.674843 -0.966126 0.441750 0.693587 -0.109216 1.505423 -0.891392 -1.990634 -0.185418 -0.571051 0.146025 0.746060 -0.169539 0.079432 -0.658301 -0.760865 0.060748 0.131804 0.000004 -1.112680 0.351136 -0.034208 -0.346918 1.513825 -0.884420 -0.215697 -0.201219 -0.664879 -1.134998 0.967081 1.099944 0.576341 -0.464355 -0.165457 0.329843 -0.291398 0.949931 0.026733 0.719928 0.018409 -0.900632 -0.009226 -0.650398 0.632670 -0.474939 0.180959 -1.794315 -0.843165 0.093899 0.140899 -0.261561 -0.196454 0.817020 -0.065922 0.237338 -0.121160 0.194007 -0.167646 -0.451428 0.341263 0.635373 0.016354 -0.644294 1.129777 0.110256 0.076377 0.735975 -0.002785 -0.912562 0.407530 0.051627 -0.356450 0.545191 0.981412 0.447508 0.358217 0.050517 0.080462 0.030391 -0.129700 0.045318 0.846916 -0.786612 0.238195 -0.415329 0.021347 0.425658 0.502515 -0.633951 -0.441542 -0.856035 0.462770 0.371835 0.040879 0.321284 -0.073575 -0.771787 -0.040879 -0.000544 -0.109014 0.734011 -1.016673 -0.359449 0.253820 -1.543058 0.503679 -0.483839 -0.470130 0.060907 -0.289319 0.130362 1.233442 0.088391 1.216103 -0.399750 0.021401 -0.216713 0.656916 -0.958201 0.082930 -0.529667 0.274920 -0.867824 0.607148 -0.378285 -1.036387 0.235270 0.600484 -0.496777 -1.114665 -0.629712 0.656865 0.158514 -1.301973 -0.515912 0.616873 -0.244980 -0.358345 1.182426 -0.269105 1.451637 -0.264542 -0.230227 -1.550723 0.135567 -0.112769 -0.710516 0.083224 -0.179387 0.219163 -1.147561 0.452480 0.432579 -0.133067 0.269230 0.331915 0.584462 0.184402 0.055890 0.397200 0.337411 -0.650660 -0.281920 -1.293842 -0.339635 0.420212 0.190767 1.061137 -0.171385 -0.685113 0.126681 0.446415 0.284344 0.573826 0.737883 -0.247771 -0.443143 0.221289 -0.205775 -0.363553 -0.586721 -0.085995 -0.696218 0.131182 -0.035087 0.251475 -0.167604 0.858804 0.864084 -0.222662 0.131068 0.751702 -0.392214 0.104664 -1.049894 -0.669037 0.251416 0.003595 -0.273764 0.690336 0.564900 -0.238554 1.210489 0.862425 -1.429005 1.207677 0.156815 -0.614990 -0.875626 -0.864333 0.676866 -0.341099 1.339605 0.395345 -0.072509 0.035720 0.512235 0.723953 0.275402 -0.071183 -1.156148 0.547436 -0.745834 0.415715 -0.459247 0.934797 0.458933 0.820450 -0.080030 0.570044 0.396479 -0.004717 -0.007558 0.323429 0.308953 -0.600461 0.438424 -0.010940 -0.463942 -0.760082 1.779808 0.290487 1.093884 0.413376 -0.272784 1.089720 0.651374 0.802327 -0.304320 0.155966 0.160703 -0.281351 -0.904997 -0.441500 -0.790037 -0.352955 -0.545341 0.875785 -0.909323 0.037219 -1.380621 -0.826088 -0.029834 -0.699061 -1.222456 -0.513041 0.368847 -0.772297 0.403473 0.159594 -1.276509 0.127996 0.417880 0.203532 0.297928 -1.057437 -0.317653 -0.247287 -0.480528 -0.641584 -1.471981 -0.310137 -1.298413 1.142518 0.495244 -0.230163 -0.299590 0.882377 -0.287789 -0.496941 0.234455 0.793374 -0.149377 0.092346 -0.174751 -0.061463 -0.506293 0.148789 -0.778801 -1.128756 -0.140515 -0.189326 -0.668880 0.158256 0.304776 1.489433 0.262472 0.343537 1.249698 -0.761190 0.945320 0.288666 0.468729 -0.062622 0.004501 -0.124408 -0.298165 0.449651 -0.559852 0.364915 0.984151 -0.407929 0.467864 -0.169071 0.850907 -0.227184 0.677154 -0.201988 0.549749 0.273882 0.096074 -0.056451 0.545404 -0.541068 0.441362 -0.096633 -0.916331 1.471696 -0.196488 0.303169 -0.500827 0.359144 0.254891 -0.737420 -1.609868 1.953842 0.013482 0.476000 1.217404 -0.339419 0.626833 -0.414193 -0.406686 0.304993 0.967414 0.247630 -1.197937 0.016506 -0.201234 0.893949 -0.364539 -0.271927 -0.414846 -0.400431 0.355440 -1.356231 0.515351 -1.109735 0.152992 0.446551 0.579769 -1.349081 0.383824 -0.727977 0.793732
M018_OFF 1.571012 -0.253626 -0.282633 0.367390 0.124297 -0.738681 -0.470575 1.409697 -1.937362 0.346581 0.394104 0.075516 0.220288 0.462729 -0.447988 0.998647 1.414868 -1.874389 -1.058853 1.758942 0.282062 0.481483 -0.659778 -0.549227 -0.553345 1.339748 -1.132689 -0.089655 -0.445973 -1.496085 0.321338 0.057930 -0.989988 0.163030 0.295562 -0.643226 -1.380216 0.637598 0.036793 0.533965 1.146461 -0.385143 -0.543251 0.475605 0.922371 -0.410447 1.002740 -0.495532 0.234017 -0.422485 -0.946971 0.201691 -0.868538 -0.554078 0.523177 -0.071026 -0.018586 -0.336050 0.001027 -0.363196 -0.764553 1.300677 -0.331407 0.943010 0.130013 0.023327 0.147336 -1.567391 1.759382 -1.157152 -0.520221 -2.288945 0.094175 0.336402 0.012249 -0.479413 0.381925 0.488115 1.087088 -0.968628 -0.049106 0.517576 -0.503645 -0.796893 0.515514 0.016974 0.062608 -1.470227 1.067698 0.110478 -0.147075 0.706684 -0.043961 1.015901 0.983207 -0.169246 0.056720 0.646069 0.382362 0.034703 0.387778 0.255731 0.276409 0.335086 0.191649 0.243128 0.929575 0.095646 -0.325719 -0.462586 0.086095 0.523616 0.409855 -0.916507 -0.425330 0.094742 0.448228 -0.002794 0.937081 0.135189 0.370800 -0.467849 0.441401 0.711299 -0.250292 -0.317397 0.138629 -0.692233 -0.200515 -0.663102 0.533234 -0.543068 -0.303249 -0.068406 0.039398 -0.091644 -0.264793 0.107828 1.026700 0.027225 0.158169 -0.143389 0.594404 -0.762708 1.043509 -1.133809 -0.018562 -0.313895 0.784771 0.029291 -1.434792 1.136498 0.258602 -0.763019 -1.130690 -0.286475 1.188580 0.027162 -0.607717 -0.758671 0.299441 0.049326 0.032427 0.599295 -0.331984 1.003977 0.074219 -0.338434 -0.213491 -0.571767 0.120314 -0.060145 0.204104 0.371611 0.223103 -0.250350 -0.561987 -0.261489 -0.792413 -0.621915 0.139330 0.074729 -0.570084 -0.488089 -0.512619 -0.046024 -0.280283 0.410678 -0.238597 -1.542346 0.186956 -0.012898 0.799469 -0.153950 0.031014 0.713295 -0.259396 0.421644 0.748833 0.327273 -0.143549 -0.333208 -0.138084 0.349397 0.205302 -0.504403 -0.637676 0.162132 -0.747980 0.021117 -0.244123 -1.031550 1.321688 -0.195094 -0.180357 0.014163 0.587268 -0.850724 -0.341129 -0.249046 -0.404246 0.561594 -0.473734 -0.295885 -0.242338 0.417454 -0.162801 1.174551 0.483179 -1.201892 0.942148 0.633390 -0.621298 -0.468827 0.291401 0.165332 -0.358236 0.675911 0.545685 -0.741450 -0.008884 0.101874 0.484433 -0.135936 -0.486870 -1.039547 1.234488 -0.828593 0.612116 -0.131895 0.704481 0.926162 0.038082 0.502705 0.708040 -0.268408 -0.059877 0.321415 0.943027 0.617976 -1.118284 0.072708 -0.781347 -0.551495 -0.652305 0.878456 0.582497 1.730716 -0.419940 -0.382295 0.544387 1.093799 2.420916 -0.278607 -0.432574 -0.176438 0.161659 -1.050834 -0.575294 -0.360543 -0.285533 0.307182 -0.156706 -0.718336 1.067127 -0.922288 -1.093334 0.777260 -0.278275 -0.832521 -0.186207 0.389983 -1.014524 -0.283311 -0.609139 0.053532 0.523492 0.684458 -0.212238 0.543275 -1.619962 -0.125789 0.388555 -0.412877 0.458167 -0.959635 -0.412605 0.297438 0.046681 0.865987 -0.218242 0.341133 -0.298663 0.010357 -0.373932 -0.303333 0.990137 -0.642447 0.028285 -0.650349 0.279417 -0.067395 -0.729512 -0.265975 -0.524997 -0.167287 -0.392691 0.789123 -0.186060 0.774355 0.941102 -0.796685 0.239164 1.893649 -1.342623 0.339987 0.392762 0.388938 -0.344204 0.411428 0.297448 -0.461855 0.879771 -0.369904 -0.323158 0.600668 -0.186318 1.321484 -0.096557 0.935288 0.103282 0.183950 -0.028841 -0.445947 -0.346998 -0.268225 0.255626 0.448285 -0.340763 1.009177 -0.277120 -0.689361 1.008532 -1.143610 0.429491 -0.180095 1.744204 0.564678 -0.448101 -1.335219 0.720271 -0.541358 0.721263 1.144399 -1.074405 0.277441 -1.462618 -0.547633 -0.395609 0.277655 0.325742 -0.402699 0.298941 -0.095974 -0.172694 -0.081263 0.657765 -1.114505 -0.748197 0.207702 -0.617542 -0.212279 -0.058527 -0.573687 1.344403 0.281462 -0.448856 0.647201 -0.341934 -0.049251
M024_OFF 1.538884 1.123943 0.271518 0.680970 -0.731408 -1.763595 -0.165357 -0.159048 -0.481605 0.509375 0.699116 0.497282 0.127197 -0.010800 -0.767819 0.552973 -0.319021 -0.664433 -0.782346 0.174323 0.813736 -1.252541 -0.588732 0.993435 -0.134238 0.789282 0.080466 0.759654 0.867034 0.383202 -1.115365 -0.257121 -0.278398 -0.373778 -0.601119 0.128694 -0.022177 -0.223946 0.112360 0.792970 1.158041 1.182487 -0.547619 0.253151 1.428972 -0.025378 0.224192 -0.227498 0.218475 0.903468 -0.743358 -0.244055 1.066934 -1.068718 0.667281 0.552718 -0.433451 -0.885619 0.349630 -0.519739 0.077455 -0.014247 -0.876380 -0.425410 0.760517 -0.039544 1.115100 -0.957147 0.043452 0.114799 0.429121 -0.401295 1.128724 0.164611 1.209762 -0.020345 -0.945218 -0.801538 0.227622 0.718454 0.439437 -0.188484 -0.558927 0.026333 -0.887553 -0.408548 0.868779 0.763637 -0.677913 0.437421 0.080737 0.018209 0.063264 0.433475 0.277266 0.091942 0.449376 0.155807 0.311669 0.446451 -0.986724 -0.436261 0.351059 -0.252559 -0.136158 -0.717133 -1.463260 -0.989289 0.546592 1.012700 -0.417988 0.675632 0.557140 0.784521 -0.408879 0.888456 0.323725 1.210601 -1.060918 0.087154 -1.180833 0.317114 0.124897 -0.914263 0.218447 -0.861765 -0.390946 -0.653831 0.072056 0.145606 -1.026935 0.566748 -0.939670 1.973941 1.216933 -0.548284 0.995948 0.280758 -0.839214 -0.069530 -0.222956 -0.016500 0.197872 0.941481 -0.046291 0.761493 -0.454844 -0.213063 0.214299 0.638315 0.134802 -0.484090 -0.576232 0.520217 1.046029 -0.363703 -0.176870 0.870342 -0.683667 -0.180731 0.163544 0.331618 0.730286 0.316350 -0.422617 -0.139036 0.078695 -0.285418 -1.303273 1.527355 0.339343 -0.088262 1.323148 0.062650 0.398504 1.440710 -0.465095 -0.651251 1.063085 -0.411257 0.242208 -0.468511 -0.265367 -0.414423 0.575912 -0.478605 0.016659 0.180849 1.091024 -0.404414 -0.785655 1.058771 -0.924173 -0.080279 0.580198 -0.684830 1.177036 -0.705846 -0.567384 -0.411545 0.206806 0.279495 -1.079518 -0.051023 0.003776 -0.402773 -0.113628 0.057436 -0.751935 0.223472 0.160092 0.270572 0.842552 0.465322 0.501620 -0.182522 0.296865 -0.604409 -0.242371 -0.460056 0.818437 -1.025874 0.931759 0.541148 0.025619 0.186137 0.485242 0.233438 -0.698956 -0.224777 -0.067027 -0.691032 0.653138 -0.025197 0.474894 0.174702 0.548982 -0.325950 1.027284 -0.561848 0.630160 -1.317089 -0.115513 0.687959 -0.260228 -0.853853 0.714981 0.173699 0.774533 0.084589 -0.917467 -0.046473 0.323964 -0.764515 -0.515196 1.287140 -0.651662 -1.925776 -0.536823 -0.718470 0.628712 -0.560329 1.012890 0.979565 -0.237000 0.196562 -0.686010 -0.203270 0.265927 0.286436 -0.587442 -1.135953 -0.530947 0.155741 -0.110892 0.324406 -0.375052 -1.591402 -0.298011 0.427227 0.327906 -0.747707 -0.374163 -0.260954 0.485216 -0.348235 0.633255 -0.710204 -0.380053 0.523959 -0.287255 -0.369917 -0.304709 -0.068209 -0.015472 -1.615177 0.361249 1.273944 -0.023030 -0.312731 1.192538 0.000899 -0.343223 -0.169425 -0.260417 -0.474052 -0.256615 -0.959677 0.462463 -0.220400 -0.223331 -0.717532 1.025514 -1.195939 0.909809 0.316199 -0.676717 -0.718148 0.259088 -0.128930 -0.445031 0.113598 0.322051 0.535965 0.194994 0.061182 -0.659409 -0.358713 -0.111377 -1.004586 -0.803182 -0.028938 -0.780486 0.686610 -0.546374 0.335238 -0.748145 1.043107 1.242693 0.823424 -0.258366 0.543673 0.065215 -0.046085 -0.559024 -0.001780 -0.402467 -0.813366 0.482022 0.318347 -0.049210 0.553525 -0.018247 -0.100436 -0.137790 0.090241 -0.223420 0.562634 0.178878 -0.573329 -0.384723 0.373262 -0.035006 0.376380 -0.312503 0.593826 1.093804 0.368946 0.695932 0.139467 -0.333684 1.120598 -0.572061 0.366211 -0.026350 0.028690 0.762204 0.212196 -0.167476 -0.520358 -0.997010 0.452496 0.897548 -0.473101 -0.823745 0.635122 0.312952 0.235498 0.312171 0.598293 0.158922 -0.437500 -0.213761 1.273214 1.703529 -0.885037 0.913495 0.158172 1.489501 -0.898186
M024_ON 1.154369 0.576715 -0.546909 1.066641 -0.251705 -0.479666 -0.196394 -0.485156 -0.287699 0.992566 1.233583 0.480269 -1.456691 -0.042584 -1.210903 -0.023265 0.502697 0.432047 1.348727 0.190217 0.510186 -0.224086 -1.074655 0.056811 -1.144466 0.566717 -0.178689 0.411259 0.548224 -0.297668 -0.226836 0.055610 -0.688200 0.251413 -0.201410 0.110422 -0.960459 -0.080963 -0.033550 0.215547 0.224350 1.101528 -0.269144 -0.419024 1.135504 -0.627670 -0.419339 0.346328 0.423676 0.548752 -0.836698 0.745010 -0.383843 -1.059845 0.285813 0.266398 -0.617892 -0.804520 0.480076 -0.671330 -0.915710 0.556157 -1.176687 -0.775575 1.377745 -0.528581 0.833322 -0.532678 0.451004 -0.125590 -0.379994 -0.139292 0.366621 -0.288701 0.469903 0.133961 -1.898592 -0.678051 0.791028 0.385744 -0.285456 -0.004731 -0.863202 -0.424181 -0.027670 -0.544993 0.138068 0.715144 -0.430696 0.413077 -0.671268 -0.668129 -0.412566 1.116196 1.128560 0.725603 -0.339357 -0.245138 0.767525 1.361810 -0.689802 -0.700142 -0.027210 0.722471 -0.202281 -0.642744 -0.865328 -1.071145 0.892816 0.393689 -0.936319 0.520626 0.226533 0.831182 -1.179289 0.509621 0.145084 1.279827 -1.174721 0.314532 -0.784582 -0.266079 -0.110985 -0.880287 0.059739 -0.671936 0.180697 0.162109 0.042697 0.868704 -1.597976 0.722177 -0.540263 1.639519 0.449842 -1.276108 0.633244 0.084355 -0.768832 -0.066689 0.056455 0.059484 -0.353170 0.717009 0.342607 -0.377407 -0.663574 -0.549231 0.293643 0.219955 0.154593 -0.890175 -0.461650 0.236826 0.348204 -0.361241 -0.875555 0.860099 -0.763519 -0.448639 -0.386009 0.020317 0.725709 0.572641 -0.552141 0.582469 0.557498 0.086704 -1.943505 1.531537 0.634589 -0.046641 1.118788 0.664469 0.146685 0.936885 -1.008549 -0.851383 0.979580 -0.348283 0.237071 -0.322675 -0.108610 -0.345816 0.130042 0.206751 0.059412 0.375734 0.613608 -1.309377 -1.517385 1.074909 -1.132219 -0.221691 0.194410 -0.543439 0.924711 -0.243170 -1.339426 -1.241136 0.087676 0.437196 -0.464074 -0.090406 -0.004325 -0.132323 -0.655185 0.137656 -0.533742 0.216815 -0.523920 0.160220 0.488036 0.223038 -0.311763 -0.830183 -0.485821 -0.310977 0.142428 0.097616 0.161567 -0.887420 -0.229400 0.889006 0.004963 -0.199576 0.749628 -0.578467 -1.189130 -0.173303 0.117056 -0.997198 0.892948 0.525615 0.023867 -0.082579 0.251273 -0.606897 0.377523 -0.863062 0.678150 -0.806661 -0.258665 -0.130574 -0.172673 0.285967 0.753226 0.475310 0.539771 -0.054251 -1.089375 -0.187913 0.782430 0.213292 -0.422719 0.637869 -0.148961 -2.287612 -0.679992 -0.566882 -0.117668 0.262532 1.581076 0.565853 0.597416 0.111189 -0.117476 -0.840428 0.147449 0.966082 -0.218327 -1.750747 -0.576192 0.164617 -0.451800 -1.025558 -0.309224 -0.816166 0.525316 -0.191495 0.619914 -0.318418 -0.479019 -0.324966 0.303029 0.036807 1.299957 -1.136723 -0.492984 0.776546 -0.197902 0.232615 0.030311 -0.203611 0.042763 -0.315635 -0.382839 0.558519 0.750120 -1.347595 0.373208 -0.456240 0.062373 0.371218 -0.964597 1.099953 -0.590092 -0.012002 0.380345 -0.597041 -0.137044 0.029534 1.043356 -0.786835 -0.137548 0.329061 -0.213095 -0.544294 -0.170409 -0.506566 0.445108 -1.088019 0.836185 0.680016 1.309191 1.045869 -0.997585 -0.339208 -0.414965 -0.018411 -1.543660 0.522243 -0.917141 0.027804 0.274258 -0.211333 0.166891 0.783215 0.690869 1.168760 -0.395144 0.151064 0.191122 0.139352 -1.175616 -0.296956 -0.577337 -0.555950 0.352447 0.133876 0.662283 0.502868 0.033652 -0.218194 0.008374 -0.332872 0.600435 0.491060 0.543414 -0.560386 -0.915802 0.513338 -0.534121 0.276196 -0.351307 -0.009928 0.467165 0.384023 -0.334391 0.306546 0.831240 -0.461896 -0.115988 0.498675 -0.477884 -0.262546 0.200777 -0.099722 0.239874 -0.313042 -0.643934 -1.007758 0.265874 0.069938 -0.638842 1.458276 0.043986 0.482049 -0.856395 -0.122959 -0.198741 0.266247 -0.424119 -0.633136 1.003103 -0.009077 0.653375 0.028638 1.194465 0.064227
M017_OFF 1.258119 -0.750359 -0.435648 -0.093128 0.260419 1.158734 -0.179638 0.645717 -0.575235 1.238202 1.115214 0.287161 -0.748114 0.979297 -0.447329 -0.157914 0.426730 0.120801 -0.331648 1.018423 0.016816 0.388323 -0.004814 0.827518 -1.697061 0.716681 -0.849098 -0.316659 -0.602736 -1.053259 1.049665 0.341330 -1.798988 0.066296 0.192094 -0.304575 -1.220028 1.005882 0.668750 1.627920 -0.066294 0.249447 0.178032 -1.096119 -0.879025 0.327598 1.075573 -0.921055 1.255106 -0.886431 -0.867876 -1.291703 -0.938064 -1.109594 0.813145 1.321748 0.746699 -0.314355 -0.270898 0.164937 -0.350637 0.847616 0.524216 1.875385 0.483790 -0.381856 0.368684 -1.500624 1.328705 -1.576926 0.284875 -2.630998 0.270695 0.033898 -0.073100 -0.576323 -0.291410 0.267834 0.473075 -0.593331 0.433061 -0.308959 -0.380273 -1.133259 0.037191 -0.854792 0.454925 -0.927078 1.493309 0.125452 0.345694 1.158104 0.410101 -0.430650 0.163301 0.237181 -0.906975 0.868706 1.470778 0.104607 0.320067 0.964645 0.784393 0.836654 0.187549 0.584209 0.813109 -0.095899 0.368753 0.182466 0.664926 -0.037822 0.061334 -0.259814 0.678218 -0.117439 0.582302 0.739950 1.347540 0.234614 0.429009 -0.896868 -0.059634 0.690425 -0.736392 -0.017622 0.064730 -1.277823 0.657878 -1.152985 -0.069450 0.043108 -1.101031 -0.429777 0.194508 0.246437 1.051656 0.317925 1.242732 -0.218019 0.575858 0.281539 0.796887 -1.133698 0.426964 -0.849036 0.209264 -1.417575 0.551163 -0.466550 -1.699645 0.667294 0.663185 -0.642538 -0.661547 0.340872 0.221646 0.049526 -1.484936 -1.031554 -0.090758 0.165452 -0.525656 0.859886 -0.091863 1.476688 0.098126 0.227125 -0.799637 -1.204227 -0.283142 -0.273347 -0.352839 -0.098563 0.100083 -0.891299 0.357882 0.073673 0.102814 -0.277519 -0.054633 0.337718 -0.239199 -0.373093 0.190695 0.018731 -0.857044 -0.062026 -0.648005 -0.217582 0.253864 0.745938 0.743617 -0.666773 -0.507565 0.481220 0.011056 -0.424369 1.014986 0.849036 -0.430264 -1.376053 -0.195953 0.042348 0.494375 -1.136090 -0.238390 -0.451453 0.041855 -0.546389 -0.169459 -0.815443 1.339090 1.277597 -0.442728 -0.042871 0.142489 -1.451140 -0.445657 -1.561610 -0.656169 0.511920 -0.129966 -0.286457 0.549834 0.619157 0.376583 0.016726 0.409089 -1.377062 1.147538 -0.236806 -0.432138 0.345541 -0.505060 -0.065596 0.789126 0.677237 0.675076 -0.020195 0.637228 0.299180 0.355199 0.274715 -0.699871 -0.689088 0.276597 -0.857835 1.263752 1.406880 -0.870330 0.678541 0.339543 -0.405854 -1.586805 0.450663 -0.247111 -0.298390 0.187714 0.201479 -0.053757 0.454988 0.323071 -0.800900 -1.196386 1.397160 -0.410491 0.735766 -0.355705 -0.342707 0.993704 1.087227 1.050784 -0.308026 -0.420937 0.217073 -0.393282 -1.128141 0.657400 -0.403665 -1.551794 -0.339434 1.083597 -1.273434 0.973972 -1.785102 -0.809685 0.126497 -0.042847 -0.979586 -0.327418 -0.563790 -0.834785 0.776716 -0.640986 -0.715637 0.087745 0.953935 0.148604 0.241197 -0.448076 0.700568 -0.624564 -0.027858 0.453486 -1.683866 -0.345550 -0.392442 0.402448 0.530567 -0.024640 -0.434419 0.621999 -0.280864 0.228757 -0.289529 1.213170 -0.339596 -0.420593 0.295369 -0.145532 -1.392089 0.020232 -1.017486 -0.520529 -1.086797 -0.796333 -0.015965 -0.526088 1.175165 1.640013 -1.051325 0.381777 1.494513 -0.208380 0.579165 -0.156267 0.034060 -0.176736 0.289760 0.425405 -0.858367 0.940742 -0.270107 -0.612284 1.744399 0.151739 1.855020 -1.326133 2.417617 -0.224838 0.445772 -0.413306 1.570424 -0.159904 -0.248180 0.011645 0.536706 1.120139 1.077643 0.034170 -1.182941 2.129750 -0.021521 -0.030157 -0.695325 0.899796 0.513473 -0.795119 -1.678894 -0.087987 0.671948 0.269093 1.094235 -1.003007 0.758411 0.199767 -0.234068 -0.786492 0.764441 0.783943 -1.266647 -0.666724 0.263391 -0.031168 -0.317612 -0.136969 0.086147 -0.437982 -0.448381 -1.016383 0.126311 -0.130656 -0.839693 0.950209 0.244748 -0.562478 -0.254553 0.176663 -0.238326
M017_ON 1.009848 1.835661 0.329168 -0.064013 1.305713 -1.052999 -0.734879 0.489282 -1.444049 0.770963 1.121936 0.043031 -0.757930 0.552266 -0.965277 0.165411 -0.174977 -0.162471 -0.445119 1.190781 -1.010580 1.151302 -0.592639 -0.631593 -1.189162 1.450859 0.182177 -0.088202 0.573731 -0.789580 1.255413 -0.581154 -0.828899 -0.000058 -0.525957 -1.435655 -0.352573 0.588145 0.131110 0.304799 0.842778 0.420409 0.092975 0.472628 0.964764 -0.180210 0.587131 -1.102405 0.829785 0.161415 -0.593662 -0.368547 -0.194334 -0.884351 1.326294 1.085929 0.858758 -0.016025 0.293073 0.631951 -0.485847 -0.198516 0.171158 0.816194 0.419345 -0.123968 0.665462 -1.842611 0.439028 -0.655976 -1.051506 -2.601977 -0.487375 0.197109 0.049996 -1.305143 -0.077138 0.487693 0.269519 -0.411121 -0.529238 0.281906 -0.699832 -0.969323 0.414698 0.484430 0.213282 -1.324532 1.322496 0.000481 0.844766 0.916326 -0.387064 -0.491876 2.024327 0.488303 -0.560519 -0.013073 1.353021 0.780191 0.478985 0.175732 -0.475786 1.616409 0.576459 0.811094 0.783465 -0.052059 0.446371 0.158543 0.775127 -0.186914 0.219480 -0.474632 0.259835 -0.172141 0.200874 0.874323 0.958412 0.577193 -0.012916 -0.433426 -0.871844 0.245942 0.396026 0.368111 -0.491882 0.583429 -0.701753 -0.756191 0.230957 -0.302180 -0.606531 -0.362016 -0.112026 0.075421 -0.192636 -0.165957 1.068745 0.533762 -0.232514 -1.611709 0.477588 -1.380624 0.681852 -1.133957 0.302857 -1.665847 0.593495 0.098039 -1.199878 0.698907 1.516388 -1.938073 -0.111849 -1.404659 0.014733 0.992875 -1.304402 -0.804031 -0.000143 -0.788333 -0.454363 1.772194 0.248618 1.602380 0.068405 -0.613392 -2.021893 -0.048216 -0.466867 0.108484 0.276145 0.323157 0.858748 -0.811180 0.515616 -0.460579 -0.042790 -0.378522 0.107702 0.666312 -0.025869 -1.023584 -0.073482 0.575180 -0.493433 0.425131 -0.350069 0.134212 0.497751 -0.384253 0.337392 -0.062587 -0.532070 0.469545 0.099480 0.938424 0.164925 0.356780 -0.518612 -0.439467 -0.305894 -0.381168 0.120759 -1.502329 0.700177 -0.797022 0.254726 -0.260003 0.332103 -0.314230 0.848134 0.056678 -0.493687 -0.161956 1.013883 -0.210065 0.071611 -1.921135 -0.212232 0.763936 -0.008975 0.277034 -0.364626 -0.277188 -1.153188 1.074668 0.349343 -0.263334 0.836866 0.192573 -0.836309 0.423687 -0.101902 0.431668 -0.439527 1.446194 -0.868585 -0.834816 0.314322 0.156920 -0.317755 0.314616 0.042069 -0.353346 0.319550 -0.430175 -0.194036 -0.100106 1.403838 -0.390143 1.027031 0.468190 1.493020 -0.616898 -0.110205 0.345904 0.511603 0.605526 -0.772122 0.803635 0.367700 -0.889720 -0.404147 1.196251 1.309922 1.455542 -0.398611 -1.190284 0.522726 0.687148 1.455859 -0.684453 -0.175576 -0.290682 -0.939167 -1.832042 0.120776 -0.720295 -0.473138 -0.430053 0.690956 -1.119622 0.268341 -1.227348 -0.555243 0.025492 -0.060319 -1.107037 0.487673 0.584195 -0.978215 0.218589 -0.090134 -0.044507 0.215635 0.224904 -0.650036 -0.241409 -0.906025 -0.383291 0.355769 0.113796 -0.347198 -1.094122 -0.705300 -0.304982 0.973984 0.686493 -0.291458 0.433830 0.874139 -0.414600 -0.462684 0.403096 0.489960 -0.350610 0.287896 0.060485 0.319394 -0.197950 -0.894712 -0.208693 -0.492982 -1.269101 -0.203084 -0.428602 -1.312885 0.773597 0.841460 0.779532 -0.179172 1.702065 -0.525683 -0.067494 1.036077 0.806551 -0.073754 0.215389 0.219650 -0.843018 0.625228 -0.899777 -0.159271 0.787753 0.708902 0.298591 0.291445 0.102457 -0.127473 0.021715 0.108624 0.344527 0.456682 0.163312 -0.871416 1.246054 -0.881576 0.471670 -0.510176 -0.283743 0.853808 0.040650 0.825434 -0.401825 0.447198 -0.484628 -1.173330 -2.211114 1.445000 -0.097669 -0.140216 0.853924 -0.884301 0.614603 -0.230601 -0.248414 0.019441 1.223856 -0.135738 -0.760676 0.153063 1.150442 1.854908 -0.299558 0.851756 -0.902063 -1.399101 1.153485 -0.733749 1.126433 -0.888210 -0.763088 0.232931 0.596089 -0.089563 0.809277 0.898831 0.407188
M010_OFF -0.641625 -1.636202 -0.946711 0.549827 -2.722351 -0.051296 0.189849 -1.615140 0.360576 0.302534 -0.700148 -1.701837 1.514171 -0.848587 0.252336 -0.344246 0.159379 -0.492528 -0.609275 1.530443 1.418836 0.249924 0.154092 -0.265046 0.658936 -0.704654 0.967182 -0.915136 -0.328880 0.208765 -1.507600 0.793084 1.243849 0.072798 1.082337 0.537270 -0.555197 0.555833 -0.408889 0.358569 0.084352 0.424812 0.076503 -0.314187 0.306479 -0.824874 0.187373 0.712159 0.260548 -0.336731 -0.744467 0.825845 -0.798589 0.545879 -0.706224 -0.259410 0.026239 -0.096688 -0.345341 -0.245437 0.253359 -1.309598 0.333456 0.588332 -0.120967 -0.855379 0.526172 0.543767 0.092063 0.255226 0.317669 0.541690 -0.668651 0.022731 -0.927012 1.243816 -0.868295 -0.622738 -0.444539 0.606147 0.154064 -0.024858 -0.924869 0.718438 1.031145 0.583654 -0.565026 0.019594 -1.018550 -0.867725 -1.748462 -0.210892 -0.195358 -0.646994 0.294659 -0.467790 -0.225865 -1.153927 0.073026 0.015181 -0.823309 -0.169617 -0.269878 0.071454 -0.328640 -0.323728 -0.339499 0.195339 0.840015 1.365703 0.774697 0.306276 0.582499 0.894623 1.009931 -0.081849 -0.289645 -0.528723 -0.783886 -0.443004 -0.335204 -0.202880 -0.505904 -1.044787 0.902377 0.367349 -0.702959 0.770160 -0.702344 0.276351 -0.445092 -0.191306 0.748411 -0.441642 0.793956 -0.632782 -0.398595 0.597893 -0.033006 -0.713317 0.616650 0.502299 -0.583759 0.797867 -1.279053 0.723175 0.137616 0.480241 0.793084 -0.258563 0.280712 -0.250592 0.190940 0.152964 0.604808 0.730586 -0.197275 0.038764 0.344281 -0.157919 -1.057707 -0.116481 0.474678 0.763087 0.621045 -0.508649 -0.262729 -0.866413 0.769144 0.791098 -0.567508 0.426006 -1.133131 -0.934649 -0.928925 -1.612919 0.038439 -0.456038 0.156734 0.271308 0.844493 0.876207 -0.325993 0.341178 0.760610 -0.167889 -0.552862 0.237381 -0.774238 -0.194053 -0.142591 1.374885 0.965912 0.397676 0.629011 0.565271 -0.322239 -0.103954 -0.581895 -0.168053 0.893966 -1.016024 -0.567284 0.573551 -0.907646 0.926328 0.200332 -0.219140 -1.048181 0.861836 0.577956 0.453345 -0.359116 -0.421957 -0.281463 0.474408 0.216035 0.504432 0.100353 -2.284052 -0.344442 0.404662 -0.521885 0.126266 1.307903 -0.421710 -0.736588 0.124162 0.051570 -0.509833 0.834272 -0.599211 0.519073 -0.163158 0.234554 -0.641418 -0.436207 -0.568414 -0.754541 -0.512869 0.002702 0.258339 -0.867249 -0.060964 0.071508 -0.043818 0.165340 0.602698 0.375864 0.063463 -0.113598 0.235764 0.100839 -0.477605 -0.669739 -0.438900 1.114647 0.184911 -0.242238 0.225197 -0.373355 0.968335 -0.584543 0.751976 0.492242 0.091282 1.069916 -0.200921 -0.601947 0.332925 -0.727638 -0.281690 -0.247102 0.303564 -0.438106 -0.103011 -0.241401 0.209243 0.927923 0.084287 0.240448 -0.133102 0.024367 0.488641 -0.343554 -0.155652 0.104115 -0.229383 0.529555 -0.544258 -0.066988 0.384904 0.593819 0.157119 0.839170 -0.328120 -0.068117 2.131571 -0.108307 0.066901 -0.126596 -0.395227 -0.193434 1.030776 -0.507398 -0.061137 -0.625398 -0.568652 0.181473 0.171954 0.025141 -0.119226 -0.218576 1.029843 0.181006 -0.924994 -0.767394 0.184439 0.115402 -0.202331 -0.050226 -0.436711 -0.383219 0.449037 2.106001 -1.523553 -0.124869 -0.056767 -0.223657 -1.407944 0.009940 0.851683 0.666728 0.208206 0.514893 -0.137915 -0.086067 -0.098987 0.135147 0.260259 0.192999 -1.106475 -0.879697 -0.201090 0.595598 0.265989 -0.185914 -0.401921 0.905414 0.762584 -0.611857 -0.794044 0.983099 -0.057239 -0.581829 1.774425 -0.453172 0.773339 0.360931 0.033639 -0.850891 0.373022 -0.821572 1.331705 -0.117979 -0.377935 0.468605 0.119179 -0.203036 0.049898 -0.098681 0.814507 -0.997294 -1.444651 -0.029634 -0.104291 -0.070275 0.130126 -0.213451 -0.473081 -0.892201 0.258697 -0.005760 0.454486 -0.310743 -0.290652 -0.295340 0.509964 -0.114714 -0.382684 0.914928 1.295446 0.072139 0.585810 -0.956754 0.186500 0.716566 -1.485655 1.155412 0.215282
M010_ON -0.409209 0.756480 -0.686420 0.341106 -2.029408 -0.200870 0.317108 -1.462718 0.684530 -1.154544 -1.313021 -0.505193 0.894980 -0.121515 0.411785 -0.334787 -0.857504 0.354361 0.135597 0.630710 0.918978 0.187592 0.767036 -0.703755 0.531841 -1.887738 0.988451 -0.151476 0.542279 -0.105669 0.711738 0.846277 0.901288 0.402420 0.514828 0.147827 0.114059 1.430500 -0.371312 1.433510 1.104107 0.477146 -1.165827 -0.551368 -0.366459 -0.813945 0.640758 -0.034897 1.070964 0.188853 -0.358441 1.111236 -0.429593 0.499923 0.413627 0.127195 0.876853 1.021388 0.681198 0.751409 0.323588 -0.972356 0.190302 0.067884 -0.749277 -0.002349 0.983929 0.565547 -0.523358 -0.038566 -0.714997 0.799727 -0.578903 -0.093803 -0.735163 0.621536 -0.806511 0.206214 -0.462072 -0.193560 1.060602 0.070190 -0.199582 0.015996 0.032694 0.262000 0.004067 0.260375 -0.991508 -0.229974 -1.443696 0.359129 -0.051800 -0.860403 -0.257455 -0.857207 -0.998658 -1.315242 -0.289716 -0.930061 -0.279127 0.119689 -0.674959 -0.114352 0.019252 -0.404941 -0.678765 0.087316 0.446199 0.941297 -0.237376 -0.247479 -0.048017 0.511133 1.370561 -0.376800 -0.485243 -0.415059 -0.908394 -0.741975 0.586745 0.011432 0.160906 -1.180211 0.059924 0.737791 0.322856 0.404769 -0.280765 0.012148 -0.530369 0.139068 1.209239 0.143570 -0.469054 0.757777 0.374184 0.442917 -0.045674 -1.557968 0.662774 -0.198165 -0.589086 0.713762 -2.280254 1.919797 -0.339067 0.657149 0.008041 -0.906270 0.365684 -0.101108 0.333022 0.936401 0.438978 1.856964 -0.469939 -0.970089 0.293249 -0.982017 -1.425098 -0.915146 0.183636 0.576029 0.343488 1.106622 0.140649 0.504905 0.427168 0.515061 -1.139120 0.492968 0.423800 0.323831 0.408292 -0.993256 -0.103421 -0.005669 0.891777 0.100468 0.175031 0.252541 0.226520 -0.784510 0.423714 0.510968 -0.418627 0.702908 0.128567 -0.341284 -0.315570 0.362987 1.308744 0.496699 0.167529 -0.042565 -0.064496 0.924890 -1.091509 -1.248587 0.748889 -0.374633 -0.676555 0.184568 -0.259188 0.880467 1.198948 -0.110956 -0.681134 0.077362 1.114801 -0.561427 -0.465281 -0.823890 -0.514968 0.347580 -0.168595 -0.372425 0.131684 -1.618651 -0.046652 0.448893 -1.212905 0.701400 1.985706 -0.665023 -0.667017 0.829697 -0.089363 -0.581639 0.516120 -0.034961 0.966656 0.307960 0.737241 -0.388899 0.206595 -0.670503 -0.308841 0.418173 0.249475 0.501905 -1.371708 0.320590 0.328963 -0.185719 0.001580 0.409877 0.221802 0.375374 -0.577624 0.580098 -0.545393 -0.466221 -0.881525 -0.514169 0.151348 -0.707870 -1.226400 -0.147132 -0.842574 0.270983 -0.463439 0.224364 0.510638 0.778485 0.358380 -0.875316 -0.499955 0.487015 -0.012248 -1.404076 -0.171414 0.890938 -0.053755 -0.100280 0.128892 0.960360 0.324717 -0.140314 0.302622 -0.387031 0.564192 0.399135 -0.096880 -0.324173 0.776142 1.223878 -0.332806 -0.916143 -1.223541 0.229620 -0.055178 0.753746 -0.066610 0.326441 -0.297241 0.749250 -0.016164 0.531502 -0.112963 -0.838764 -0.468749 0.787370 -0.067965 0.050075 -1.071844 -0.004348 0.086859 -0.058047 0.457592 -0.128265 -0.564923 0.507508 0.868379 -0.356048 0.141414 -0.735102 0.184025 -0.622245 0.313046 -0.171381 -0.074489 0.036299 0.518826 -0.558737 0.172498 -0.201581 0.082249 -0.720446 -0.979909 -0.518688 0.233148 0.813896 -0.047149 0.169150 0.328893 0.126746 0.498216 -0.025916 0.708655 -1.556826 -0.568244 -0.568403 -0.126694 -0.037993 -0.021494 0.014723 0.608339 0.166958 -0.766298 0.651453 0.071606 0.306750 -0.637140 0.125381 0.344059 0.039245 0.952858 0.755338 -0.074908 -0.060906 -0.508244 0.044630 0.298916 1.341146 1.002826 0.651839 -0.708372 -0.286986 -0.588631 -1.167568 0.341189 -1.114377 0.178725 0.134537 -1.131807 -0.017331 -0.604722 -0.339161 -0.076076 -1.356726 -0.547633 0.417479 -0.026385 0.040252 0.448877 -0.199692 -0.080118 -0.626609 0.128177 0.748894 0.497900 -0.316628 -1.531221 0.074755 0.634251 -0.388272 1.117532 0.357376
M021_OFF 0.356129 -0.931887 0.571206 0.078428 0.491776 0.802945 0.418703 0.847951 0.247634 0.854538 0.061063 -0.638190 -0.002657 0.849113 0.885753 -0.671123 1.585377 0.716874 -0.711715 0.108350 -0.122546 0.102320 -0.365340 -0.141239 -0.971202 0.664991 -0.543914 0.117274 -0.367957 0.668144 -0.011097 -0.654616 -0.116924 -0.802258 0.026839 0.109394 0.830371 -0.786704 0.111478 -0.421528 0.112006 -1.107489 0.103644 0.121411 -0.676954 0.007116 -0.157461 0.806343 0.187901 -0.438002 -0.973331 0.245200 -1.269381 0.711233 -0.443375 -0.738025 -0.717963 1.595154 0.547739 -0.336478 -0.876355 0.397836 -0.307507 1.210775 0.512193 0.825516 0.092623 0.448580 -0.351825 -1.464414 -0.230672 -0.844506 0.757353 0.103208 -0.908821 0.877979 0.167290 -0.544138 1.231306 -0.001825 -0.533169 0.456048 0.037266 -0.069795 0.864654 -0.480593 0.018247 -0.491866 0.462811 -0.561220 -0.789791 -0.041685 -0.349836 0.381725 0.477371 -0.858312 0.415015 0.039761 -0.399089 -0.028059 0.088190 1.059988 -0.240694 0.385523 0.569374 -0.114555 0.150831 0.120422 -0.753042 0.401090 1.213775 1.484404 0.677229 0.271815 -0.899480 -0.243970 0.685527 -0.959677 -0.117143 0.869445 -1.197200 -0.944255 1.744222 -0.491123 0.524373 -1.089407 -2.390769 -1.337570 -0.779438 -0.160201 0.492235 -0.474389 1.058051 -0.367431 -1.288516 0.714513 -0.569416 0.862345 0.660126 0.100528 -0.503034 -1.173894 -0.443263 -0.807321 -0.180596 -0.081797 0.461827 0.561296 0.068211 0.366773 -0.179347 0.024414 1.206630 0.116154 0.489502 -0.572572 1.567941 -1.083164 0.130665 -0.079037 0.335292 0.826019 0.457314 -0.766769 0.775908 1.121870 -0.436476 -0.258972 -1.079640 1.387824 0.085578 -0.198287 -1.022030 -0.183312 -0.686663 -0.672569 -0.685936 -0.114003 -0.076584 -0.633268 0.085152 0.603363 -0.450328 -0.048715 0.721921 0.569480 0.505408 0.041951 0.021702 -0.308513 -0.075524 -0.680025 -0.137923 1.485098 0.754003 -0.851266 0.055961 0.399491 0.440687 0.010089 -0.930761 1.409762 -0.916177 0.646876 0.593978 -0.218147 0.779016 -0.025634 -1.214693 -0.097097 -0.398381 -0.028542 0.914410 -0.225437 0.184022 0.008462 0.524698 -1.128342 -0.773652 -0.330378 -0.544455 -0.704499 0.260479 -1.386523 1.048745 0.988288 1.198221 1.007471 0.851873 -0.869710 0.047607 -1.015365 -1.019256 -1.901608 0.239591 -0.541534 -0.157630 0.531779 0.449788 0.147338 0.089912 0.338810 1.094513 -0.219332 -0.670009 -0.746226 0.166321 0.119707 0.502871 -0.085451 1.329939 1.052966 0.262173 -0.223018 0.968716 0.494109 0.060867 0.337392 -0.279306 1.199416 -1.637848 -0.662177 0.294233 -0.610422 -0.713335 0.648931 -0.294342 1.086209 0.965025 0.189201 1.147798 0.341831 -0.060394 0.833990 -0.001442 -0.358065 -0.625846 -0.763529 -2.014442 -0.378359 0.600549 -1.123885 -0.773425 -0.224337 -0.454753 -1.183501 -0.962588 0.100778 -0.616723 -0.402584 -1.217387 1.633618 -1.067887 -1.159588 -0.089926 -0.081329 0.279293 -0.224675 -0.640157 -0.394110 -0.260040 0.342968 0.367465 -0.467921 -1.090497 -1.510130 1.088319 -0.824016 0.472052 0.255400 -0.347088 0.567900 0.318668 -0.340493 -1.775404 -0.150622 -0.073647 -0.268867 0.294088 -0.373051 -0.051591 -0.888096 1.175464 -0.133680 -1.461031 1.677837 -0.040404 0.239152 -0.174369 -0.447325 0.862881 0.894585 0.307401 0.116455 -0.882383 0.046793 -0.944504 -0.301768 -0.602472 0.324544 -1.307445 1.172131 0.933237 0.313297 -0.541683 -0.252618 -0.801212 0.482277 -0.143196 0.547960 -0.220122 -0.228600 -0.266597 -0.036023 0.671505 -1.089871 0.807219 -0.522365 -1.475117 -0.373813 0.123781 -0.166377 -0.014163 -0.349744 1.201614 -0.041559 -1.698048 -0.107254 0.191832 0.805036 1.492664 -1.858550 0.650806 0.188076 0.006324 -0.084695 -1.398491 -0.024285 1.594930 0.183846 0.490368 -0.118399 0.212294 -0.396411 -0.302658 -0.804093 -0.825683 0.304229 -0.402632 0.728063 -1.677573 -1.386227 0.834958 -0.237720 2.199975 1.025608 -0.985234 1.913959 -2.042208 0.205715
M021_ON 0.548661 -0.036428 0.140563 -0.656394 -0.379781 -0.634087 -0.085098 0.437468 0.699425 0.838348 0.051806 -0.268546 -0.760480 -0.799125 0.789867 0.571241 0.061853 -1.169237 -1.062272 0.871957 0.680332 -0.044375 0.705885 -0.211394 1.088141 1.105542 -0.229492 -0.402420 0.280864 -0.948398 0.770666 1.860519 0.007928 0.588395 -0.927506 0.522971 0.432550 -1.075639 0.683762 -0.857085 0.552824 -0.722094 -0.654223 1.066490 0.761963 -1.387737 0.622858 0.542181 -0.411363 0.096551 0.520242 0.742577 -0.453193 0.543300 -0.073090 -1.171674 0.270795 -0.770696 -0.118149 -0.914099 -0.043672 0.985084 -0.967392 -1.680475 0.496424 -1.012881 0.406073 0.219277 -0.417279 0.632552 0.596126 0.024957 -0.374324 -0.242716 0.834777 0.622431 -1.081517 0.083602 0.331415 -0.169410 -0.483652 -0.738930 -0.698770 -0.516879 -0.554417 0.001308 0.138261 -0.447709 0.070151 0.094186 -0.304362 0.311182 0.000837 0.163259 -1.214949 -0.072464 0.625320 1.300311 -0.537476 0.270975 0.634333 -0.201706 0.802492 -0.872678 -0.701697 -0.106879 0.661781 -0.755738 -0.919857 -0.959731 -1.909136 0.681510 0.232160 -1.226600 -1.203508 -0.305442 -0.367044 0.473053 -0.105476 0.292526 0.886180 0.085699 -0.267459 1.333991 -0.832362 -0.358889 -0.338755 -1.077762 1.035033 -2.153265 0.303207 -0.906557 0.102431 0.499261 -0.272043 0.352368 0.169574 -0.366936 -0.053172 -0.767249 -0.836467 1.176332 0.230725 -0.616833 1.496264 -0.996148 0.387232 -0.069392 1.547629 0.709191 -0.649536 0.974093 -0.370074 0.212324 -0.659322 -0.830704 0.490402 0.680995 0.698632 0.172047 0.371639 0.912843 0.541193 0.800069 -0.542684 -0.278436 -0.883980 0.499950 -0.678580 1.035097 0.413967 -0.995097 -0.850161 -0.987410 -0.122205 0.161254 -0.267757 -0.547509 0.063201 0.078372 0.605684 0.181162 -1.200880 0.645197 0.367027 -0.427351 1.252030 0.208358 -0.379880 -0.282866 0.202445 0.125692 0.687308 -0.096735 0.105341 0.105054 0.487803 -0.295430 0.316082 0.205408 0.562075 -0.320863 0.620272 -0.032562 -0.556599 -0.912579 -1.013458 -0.116842 -0.739368 0.037655 0.035823 0.085114 0.312053 0.338687 1.771439 0.344646 0.579642 0.656660 0.453546 -1.107697 -0.085210 -0.775886 0.411984 0.295334 -0.019359 -0.176306 -0.029048 0.531141 -0.193510 -0.174760 0.596952 -0.110546 -0.207284 -0.949846 -1.094963 0.411948 -0.359296 0.391252 0.445693 0.231172 -0.288830 0.227642 2.146344 0.411072 0.845593 -0.971709 0.615433 -0.573429 -0.149802 -0.753356 0.180696 0.474270 0.609342 0.460066 -0.005033 0.600762 -0.256971 -0.385836 0.855127 0.313624 -0.186234 -0.170886 -1.926062 0.342591 -0.086947 0.780461 0.970693 0.186509 0.644476 0.276154 0.069788 0.322024 0.678785 0.804758 -0.313681 0.222833 1.010234 0.251964 0.144275 -0.462296 0.184840 -0.031517 0.311189 0.427316 0.878377 0.460923 -0.028956 0.918054 -0.466589 -1.525119 -0.546330 -0.122578 -0.629883 -0.292819 0.687457 -0.246336 0.423405 -2.044957 1.156383 0.937731 -0.697179 -0.664798 1.108914 -0.805144 1.647743 -0.022076 1.252102 0.271958 -0.642919 -0.670960 -0.481060 0.015480 -2.015976 2.397729 -1.134907 0.887752 1.492225 0.062145 -0.830727 -1.103909 0.370909 -0.275691 -0.040289 -0.903581 -0.800067 1.484604 0.055834 -0.020126 -0.440918 0.895898 0.942454 -0.826028 1.187901 1.167282 -0.716581 1.604929 1.359274 -0.114783 0.085632 -0.515021 0.714862 -0.629576 -0.510336 -0.340256 0.070239 0.107629 -0.591169 0.482668 0.149071 -0.641928 0.773248 1.352955 1.084124 -0.222039 -0.119034 0.536300 0.088776 0.899025 -0.073007 -0.729977 0.455516 -0.604512 -0.167772 -1.234659 -0.169281 0.329656 1.028515 0.045811 0.418890 -1.052397 0.631056 -0.172075 0.063453 0.131592 -0.113893 0.030707 -1.879022 -1.787547 -0.787611 -0.009566 -0.482449 -0.041456 -0.620049 -1.181009 0.945554 0.448713 -0.676526 -1.480918 -0.634589 -0.548758 -0.888710 0.313913 -1.162267 0.708817 -0.563046 1.776085 -1.043104 -0.664180 0.165872 0.042354
M003_OFF -1.972548 -0.518102 1.107111 -1.597285 1.141233 0.167041 0.986620 0.850194 -0.670364 -0.889950 -0.617783 0.840024 -0.200971 0.836674 -0.329948 -1.014694 -1.660669 1.258137 0.812387 -0.242722 -0.530989 -0.302625 0.504617 0.770004 -0.390128 0.307155 1.746234 -0.108391 -0.113509 0.731210 -0.090929 0.380545 0.776308 1.619396 -0.593257 0.485615 -0.053960 -0.136648 0.564115 0.324122 -0.349950 0.300862 -0.136667 0.373841 0.073180 -1.355239 0.811642 -0.046470 -1.007106 0.758366 -0.201220 -1.135249 -0.090713 -0.201514 0.556077 -0.007329 -0.347567 1.130131 -0.646320 -0.176122 -0.455441 -0.744531 -0.137244 -0.600529 0.272040 0.548879 0.108900 -0.633482 -0.533042 -0.556045 -0.934091 0.989442 1.117363 0.065948 0.811812 0.591713 0.182132 -0.277520 -1.257415 -0.142721 -0.105485 -0.420164 0.586924 -0.334891 0.705089 -0.085000 0.817491 -0.055296 -0.979439 -0.497454 0.317439 0.024809 -0.028153 -0.169690 -0.018197 0.195740 0.552237 0.336771 -0.444923 0.174589 0.517778 -0.114429 0.069103 0.562933 0.119280 0.613188 -1.785913 0.272427 -0.165554 0.045105 -0.573065 -0.459337 -1.219958 0.204067 1.224000 -0.282307 0.118818 0.081053 1.677105 0.147653 -0.062635 0.629034 -0.228116 0.293373 0.217124 0.685890 0.776542 0.784123 -0.664240 0.174433 -0.143701 0.682077 -0.115906 0.003280 0.568590 0.644428 0.664089 -0.805278 -1.173128 0.268706 0.673870 0.919469 -0.895390 -0.520322 0.560927 -0.517371 0.113071 -0.440822 -0.882337 0.202134 0.570564 0.304867 1.239641 -0.082649 0.583755 0.952722 0.283319 -0.312785 0.840851 -0.350205 -0.835844 -0.316858 -0.329577 -0.859212 -0.000351 -1.770186 0.868253 -0.846612 0.889018 -1.495956 0.466375 0.978326 -0.617603 1.524876 0.570482 -0.445773 0.444886 0.656583 0.048411 0.060495 -0.678561 -0.846120 -0.058967 0.301253 -0.480612 -1.445037 0.350934 -0.833565 0.173842 0.883792 0.886209 -0.256686 -1.990703 -0.436292 0.488304 0.591272 0.016440 -0.519723 1.038109 0.511607 -0.741632 -0.447160 -0.300182 -0.042464 -0.170668 -0.478939 0.768102 -0.274753 1.367369 0.019295 -1.234720 0.134860 -0.474621 -0.774599 0.547015 -0.063820 -1.658252 -0.374472 0.414623 1.968594 0.251666 0.700352 0.323644 0.102028 -1.074348 -0.692489 0.294088 -1.307060 -1.273653 1.734025 -0.852999 -0.371513 0.006937 1.618917 -0.277268 0.156302 0.244403 -0.700932 -0.838918 -0.293980 -0.101801 0.294533 0.476353 0.192201 1.064373 0.640052 -1.107977 0.656534 -0.104135 0.555308 -0.516310 -0.575693 -0.465936 0.772366 -0.628639 -0.457202 0.120003 0.046543 0.103276 0.701816 1.703128 -0.215244 0.077074 0.151499 -0.143175 -1.221929 0.055833 -0.580396 -0.315133 -0.525778 -0.014963 -0.407686 -1.247510 0.959952 -0.163896 -0.605103 -0.848718 0.057525 0.488702 1.211753 0.025345 -0.202847 -0.552087 0.682252 0.291492 0.314546 -0.069060 -0.644948 0.127414 0.848795 1.055686 0.628215 0.956838 -0.098434 0.269148 0.828262 -0.700846 -1.945895 -0.991229 -0.002111 -0.262272 1.180326 0.035369 -0.478441 0.035851 0.696521 1.828222 1.456482 -0.744936 -1.364926 0.086767 0.247189 0.553294 -0.141324 0.398118 -0.820600 0.397816 0.600011 -0.172479 -0.568804 -0.331842 -0.807380 0.039890 -0.761646 0.975862 0.727683 0.311252 1.457591 -0.979584 1.733352 -0.385774 -0.952985 -1.548204 -1.355498 0.554268 -1.373769 -0.736716 -0.316494 -0.622959 -0.153472 -0.541876 0.547078 -0.528693 -0.485247 -0.709724 -0.654208 0.915974 0.107117 -1.466514 -1.104520 0.850188 -0.357025 0.172435 0.518863 0.825375 -0.963145 -0.379466 -0.681436 -0.388614 -1.086196 -0.121910 0.756673 -0.837142 0.108372 0.370382 0.374128 -0.896580 -0.306153 -0.796277 1.232509 -1.068470 0.112624 0.048665 -0.767420 -0.439421 0.251264 1.747006 0.534692 0.508398 -0.183896 0.432772 -0.338500 0.223944 0.215609 1.035353 -1.045662 -0.105443 0.371120 0.136827 -0.533095 0.297677 0.938949 -0.176385 0.729032 -1.629588 -0.525000 -0.107024 0.876831 -1.011470 -0.017642
M003_ON -2.047815 0.234267 0.568160 -0.593731 1.207799 0.176079 0.498842 0.166130 0.150496 -0.416222 0.217601 0.264008 -0.464991 0.205407 -1.115601 -0.742921 -2.180629 2.131915 0.269007 0.084513 -0.199473 0.211858 0.479035 0.440310 0.635747 -0.974051 0.004234 -1.068819 0.115417 1.144819 0.264599 -0.258771 1.101237 0.508125 -0.917394 -0.085573 0.967456 -0.353244 0.348813 -0.120374 -0.284721 -0.280522 0.864577 -0.465805 -0.266764 -0.756528 -0.379818 0.783540 -0.532067 -0.023253 -0.134115 -0.010879 -0.633059 0.309788 -0.288413 -0.035739 -1.099823 0.171383 0.456813 -0.010388 0.307331 -0.663533 0.842380 -0.397484 -0.380886 1.340024 -0.696332 0.206856 0.212412 0.558448 -0.370051 0.686767 0.912985 0.117590 0.852557 -0.641882 0.895254 -0.079428 -1.786203 -0.122569 0.349675 -0.400905 0.784785 0.387929 -0.320910 0.408940 1.114820 0.485234 -1.114097 -0.586024 0.598325 -0.257642 0.273898 -0.703016 -1.026576 -0.218728 1.370184 -0.281400 -1.309968 -0.586524 -1.145889 0.112379 -0.719371 0.168760 0.085887 0.945036 0.504539 0.742425 -0.657579 -1.043002 0.041500 -1.643848 -0.760107 -0.819251 1.346674 0.550045 -2.059294 -0.660273 1.481155 -0.162842 -0.215051 0.763335 -1.618750 0.006336 0.116424 0.701162 2.001443 0.987756 -0.589629 -0.374786 -0.279897 0.757232 -0.797977 0.209269 0.272677 1.109032 -1.020810 -0.863092 -1.065925 0.892825 -0.122877 -0.574944 -1.260442 0.019959 0.516668 0.458434 -0.679764 0.041345 -0.718693 0.675013 0.761345 -0.059187 0.235787 0.040377 1.320317 -0.354801 -2.077853 0.861784 -0.396878 1.195884 -0.070916 -0.887202 -1.022269 -0.404949 0.440492 -0.306813 0.148219 -0.196889 0.840304 -0.963308 -0.244958 0.544814 0.440442 0.043961 0.155607 2.032331 0.049992 0.746254 0.245283 0.024833 -1.502224 -1.090565 0.396721 -0.255013 -0.334178 -0.251917 0.290050 -0.185304 1.680519 1.511575 -0.642694 0.724954 -0.415731 -1.099728 0.382747 -0.452539 -0.097000 0.358127 -0.281941 -0.161759 -0.223369 0.220612 0.203579 -0.578614 -0.276301 -0.878193 -0.815320 0.228673 -0.060534 -0.207194 -1.686492 -0.444866 -0.763357 0.497166 0.086411 -0.941715 -0.904996 -0.759221 -0.545332 0.096773 0.436904 0.561650 0.673400 -0.108956 -0.093749 -0.117787 0.116650 0.002527 -0.270140 0.777322 -0.700517 0.818455 -0.362812 0.970773 0.381140 0.257527 1.116112 0.122199 0.379408 -0.666171 -0.487551 0.468914 -0.087306 0.505894 0.245367 0.286797 0.105318 0.486161 0.534143 0.512503 0.141612 -0.689126 0.001118 -0.421722 -0.229936 0.267455 0.184398 0.667605 0.682832 0.293315 0.418462 -0.074795 -0.289658 0.194585 0.419532 -1.738168 0.234776 0.205117 -0.600796 0.020093 0.066999 -1.267218 -1.214426 0.442970 -0.267632 0.012493 -0.789497 -1.032266 -0.416866 0.829912 0.391520 -0.083895 -1.065138 0.317714 -0.226191 0.792607 -0.558340 0.135098 0.791255 0.215596 0.402171 0.785947 0.921616 -0.574950 0.042280 -0.189193 -0.566816 -0.963530 -0.430325 -0.022077 -0.032684 1.697654 0.501410 0.077982 0.696141 -0.355080 1.173751 0.764655 -0.473764 -0.803050 0.510263 0.076009 -0.942755 1.125626 0.012333 0.296630 -0.106244 0.549570 -0.269884 0.156218 0.380314 -0.221595 0.807425 -0.615167 1.015431 0.766975 0.678299 0.443614 -1.023234 0.883530 0.218965 -0.351231 -0.621470 -0.961194 1.000959 -0.010742 -0.662624 -0.267808 -0.977304 -0.686622 0.397023 0.834699 -0.935983 0.615866 -0.053256 -0.565452 0.233649 -0.154922 -0.825895 -0.484081 0.649506 -0.321406 -0.259520 0.348073 0.792533 -1.596097 -0.837288 -0.631698 0.262858 -0.456890 0.539862 0.805802 -0.317392 0.256622 0.934067 0.501599 -0.712010 -0.774720 0.176407 1.137567 -0.852488 -0.234624 -0.368314 -1.175035 0.536656 -0.281482 1.271694 0.536697 0.005747 -0.725499 0.624495 -0.379368 0.286684 0.680863 0.465317 -1.387219 -0.364089 0.295615 0.400720 0.743673 -0.341602 0.291777 -0.484252 1.192668 -0.805010 -1.171023 -0.424711 0.235088 -0.167319 -1.184866
