241 200
M009_ON -0.011048 -0.301880 -0.280122 0.187935 0.359502 1.425211 -0.340552 0.919626 -0.440181 0.719706 0.728324 0.057179 -0.194628 0.812120 -0.826748 0.107992 -0.181810 1.543587 -1.011301 -0.666850 0.085219 -0.143540 -0.560461 -0.166139 -0.753270 -0.127249 -0.995170 -0.303913 0.609258 -0.056141 -0.106121 -0.003725 -0.422847 -0.457512 1.234627 -0.038770 -0.763210 -0.855614 -0.301044 -0.080820 0.768339 -0.050443 -0.145787 1.258816 -0.046669 0.564095 0.153178 0.082801 -0.047303 -0.534574 -0.474100 -0.315772 0.531910 -0.242498 -0.210695 -0.275011 0.364969 -0.512889 -1.311464 0.102040 -0.413327 -0.209995 -0.566841 0.188478 -0.347447 -1.590660 -0.078867 -0.064004 0.795161 0.352850 1.009258 0.329259 -1.231863 0.345591 0.032363 -0.339816 1.150927 -0.198800 0.315492 -0.025068 1.959765 -0.291982 0.199101 0.172896 0.272167 -0.807745 -0.068539 0.879137 -1.253733 0.738546 2.025495 0.213719 0.165441 -1.091316 -1.544620 -0.114592 -1.346752 -0.683684 1.403524 -0.104537 0.623734 -0.844183 0.313190 -1.150431 -0.038305 0.285647 -0.044280 0.340782 0.822145 -0.249061 1.494488 -0.949684 0.418096 1.283201 1.552425 1.103684 0.067180 0.038317 0.235081 -0.581451 1.225715 0.842961 -0.468259 -0.805565 -0.340515 1.291049 2.622020 -0.794845 0.800105 -0.327703 -0.154332 0.154649 -1.070386 -0.603028 1.760913 0.040210 1.612728 0.315233 -0.201469 0.119302 -0.078182 0.347277 -1.272561 1.077607 -0.007440 1.599883 -0.381054 -0.017381 -1.014395 -1.054033 0.488809 0.149029 -2.982180 -0.052838 -0.704060 -0.334396 -1.321539 0.794220 -0.608787 -0.903291 0.143135 -0.586868 -0.803144 -0.302300 -0.591017 0.685097 -1.014826 -0.691902 1.791130 -0.330550 1.096302 -0.074707 0.827062 0.544857 0.345964 0.070675 -0.738160 0.435096 -0.167687 0.808718 -0.885916 0.254619 1.037354 -0.826565 -0.157906 -0.117605 -0.225896 -0.205142 -0.152735 -1.090434 0.076116 1.059455 -1.650682 -0.245372 -0.182276 -0.436893 -0.571162 0.281140 -1.214678 -1.366183
M009_OFF -1.353560 -0.265640 -1.145717 0.358775 -0.328039 0.855905 -0.879409 0.604888 -0.529058 0.439416 0.389285 -0.381906 0.302780 0.207571 -0.629066 0.345936 -1.302933 1.366246 -0.978988 -0.607908 -0.983908 -0.161325 -0.859200 -0.425413 -0.213282 -0.274955 -0.705272 -0.191330 0.391280 0.369949 -0.621122 -0.271820 -0.126708 0.149012 1.214215 -0.341433 -1.130595 -0.608096 -0.324659 -0.562714 0.854382 -0.122688 0.002365 1.951708 0.132482 0.233815 0.392085 -0.257678 -0.006806 -0.405738 -0.703394 -0.764868 0.837080 -0.090073 -0.032618 -0.694281 0.232886 -0.224586 -1.303286 0.377401 -0.331035 -0.000671 -0.586535 0.320103 -0.121966 -1.543174 0.228478 -0.197837 0.495410 0.623209 1.353055 0.843770 -1.238036 0.771430 -0.146760 -0.133771 1.676213 0.216013 0.624665 0.211162 1.358161 -0.259543 0.334876 0.205725 1.011559 0.032981 -0.096594 0.311150 -0.535846 0.159966 2.066862 -0.019856 0.289559 -1.267846 -1.290036 -0.061031 -1.592329 -0.578627 1.346546 0.004352 0.767178 -0.763689 0.358626 -1.426601 0.107905 0.388582 0.414793 0.265769 0.711043 -0.219959 1.201687 -0.809878 0.483283 0.846850 1.278554 0.924621 -0.031393 -0.327781 0.283800 -0.462415 0.952795 1.133658 -0.127659 -0.374827 0.010012 1.191178 1.933097 -1.066367 0.713898 0.129187 0.613874 0.035654 -1.148268 -0.512617 2.007616 0.069536 1.124036 0.044775 0.010229 -0.322723 0.284418 0.013141 -0.732364 0.588710 0.346255 1.821352 -0.752776 -0.368634 -1.093661 -1.010520 0.518259 0.429088 -2.631190 -0.407002 -0.051836 -0.611706 -0.937895 0.807307 -1.410348 -0.161359 0.795277 -0.549499 -0.676919 -0.668598 -0.593870 0.579186 -0.648240 -1.567846 2.269042 -0.588851 1.515030 0.770217 1.526518 0.837734 0.266602 -0.228035 -1.207674 0.633556 -0.979830 1.480776 -0.873252 -0.134517 0.975881 -0.862685 -0.589599 -0.087646 -0.379392 -0.057247 -0.044591 -1.699504 0.258087 0.795960 -1.278970 -1.176402 -0.540391 0.416150 -0.275778 0.380155 -1.323187 -1.230786
M020_OFF -0.193304 -0.929610 0.469215 -0.730060 -0.814043 0.913789 0.467871 1.270629 0.685044 -0.174374 1.377642 0.414005 0.036531 -0.077802 1.123796 -0.406487 1.062957 0.526227 -1.350640 0.842877 0.755768 0.758202 0.109128 0.369051 -0.435857 0.562315 0.003534 -0.162941 0.043125 0.442654 -0.136239 0.729682 0.122730 0.349927 1.573502 0.815843 -0.860442 0.088421 -0.159651 0.758530 -0.842538 -1.281159 0.895182 -1.289837 -1.082744 -0.198526 0.138753 0.766078 0.478429 -1.243451 -0.484970 0.191637 -1.427359 1.042450 -0.840716 -1.881258 -0.418855 -0.317516 -0.292286 -0.374147 -1.575301 0.067667 -0.045890 0.199575 -0.155639 -0.784825 -0.014692 1.075201 0.278323 -0.107685 0.766458 -0.938108 -1.042938 0.513002 -0.558768 -0.075479 0.337968 0.245203 0.038764 -0.189512 0.351519 0.115674 0.525091 0.212671 0.321420 0.363084 0.015029 -0.256728 -0.118440 -0.165073 -0.038955 -0.389259 -0.678379 -0.258180 -0.703927 -0.945753 0.161013 0.487856 0.707845 0.009729 -0.378815 0.821049 0.709646 -0.298641 -0.500007 0.349162 0.205034 0.042735 -0.156595 0.134723 0.213044 1.011823 0.761645 -0.697149 0.182535 0.101796 -0.474186 -1.907553 0.050062 -0.270648 0.660156 -0.270380 -0.317602 -0.738131 0.999758 0.596823 0.027723 -1.864184 -0.427370 -0.460305 -0.062243 -0.570796 0.581080 0.868960 -0.485375 1.201702 -0.379434 0.456428 1.291675 -0.448945 -0.063658 0.167928 -0.044175 -0.447319 -0.549210 0.915286 0.276110 -0.153082 0.131276 -0.219950 -0.448672 0.530366 0.926559 -0.363628 0.078657 -0.170364 -0.564784 -0.048804 -0.041785 -0.508854 -0.969699 -0.761939 -0.807795 0.643263 0.480085 1.283200 -0.095344 -0.297981 0.585391 -0.111724 -0.045482 -0.232480 -0.804228 0.357675 -0.806591 -0.039491 -0.361913 0.301454 0.905111 0.361108 -0.123328 0.328426 0.134022 0.195502 0.825195 -0.679330 0.211560 0.008715 0.328164 -0.207752 0.417507 -0.754536 0.107878 -0.635533 -0.726054 -0.073379 -0.652861 0.690012 0.131323 -0.541047
M020_ON -0.113360 -1.112503 0.707811 -0.983336 -0.127585 0.416337 1.299993 1.413160 0.066775 0.537582 1.593573 -0.109925 -0.172854 -0.063054 0.463162 -0.327455 1.059301 0.478219 -0.771296 0.129171 0.899219 0.462397 -0.681002 0.079778 -0.810499 0.244480 0.397331 -0.718557 -0.158783 0.557599 -0.157342 0.173574 0.489433 0.787304 0.791459 0.074498 0.123179 -0.583088 -0.584842 0.884241 0.304887 -0.348733 0.422120 -0.727691 -0.344327 -0.495080 0.000832 0.750237 0.089120 -0.654916 -0.479853 0.358569 -1.003583 0.538488 -0.777481 -1.810246 -0.421131 -0.270984 -0.233008 -0.465787 -0.638897 -0.583746 -0.021406 1.274807 -0.315229 -0.897506 -0.178167 0.939924 -0.357230 0.448701 0.503918 -0.818703 -1.551433 0.787229 -1.153502 0.952659 0.964480 0.564282 0.172690 0.036562 0.226377 -0.929830 0.948707 0.904510 0.709058 0.915933 -0.153226 0.237422 0.164773 -0.458244 -0.579244 -0.282687 -0.066760 -1.264053 0.468101 -0.358274 -0.114355 -0.388353 0.091504 0.194768 -0.113835 0.451015 0.920477 -0.712587 -0.601811 -0.039982 -0.137245 0.314931 -0.537702 0.548128 -0.431334 1.570296 0.446204 -0.323567 0.844643 0.532658 -0.133915 -1.298168 -0.838752 0.301054 0.247399 0.602686 -0.260776 -0.438409 1.684204 0.068659 0.030413 -1.315808 -0.614502 0.350413 0.579624 -0.410782 1.329395 0.057622 -0.460356 0.858161 0.022605 0.142100 0.614541 -0.156007 0.088458 0.083418 -0.668957 -0.323372 -0.112832 1.285746 0.719367 0.023315 -0.005622 -0.119134 -1.253758 0.376042 0.244884 -0.163639 0.496736 -0.870200 -0.647726 -0.226586 -0.120069 0.067662 -0.535945 -0.527966 -0.263492 0.268823 1.474356 0.967353 0.051356 -0.675841 0.182796 -0.195597 -0.616626 0.098672 -0.462057 0.200722 -1.217069 -0.660002 -0.106879 0.745662 0.637123 -0.314344 -0.041357 0.883232 0.579360 -0.032996 1.454414 0.215971 0.139817 -0.065222 1.047638 -0.263201 0.107279 -0.169077 1.168546 -0.489371 -0.260632 -0.574012 -0.977885 1.909887 -0.513280 -0.031521
M019_OFF -0.133365 -0.296610 -0.024774 -1.426166 0.514454 -0.495401 -0.180707 0.418405 0.748986 -0.676523 -0.592074 0.030582 0.136586 -1.176346 0.530844 0.072150 0.281862 -0.436598 0.932062 1.312042 -1.246077 0.627587 1.017099 0.155815 0.111507 0.998176 -0.914001 -0.247872 -0.035684 -0.395087 0.172971 -0.441228 0.128219 -0.290186 -1.362763 0.621466 0.891229 -0.580604 0.040583 -0.086113 0.707834 0.326616 0.709748 -0.574545 -0.309881 0.460254 -0.601808 0.350086 1.248568 0.004973 0.242923 0.444821 0.151190 -0.837368 -0.122960 0.572734 0.196900 0.343007 0.266769 -0.195118 0.257317 0.302045 0.801770 0.186214 -0.742738 0.114883 -0.409771 0.052568 2.280621 -0.841316 -1.489070 -0.693023 -0.895740 -0.265784 0.583888 -0.283651 -0.133978 0.064245 -0.398528 -0.950353 -0.443214 0.735833 0.858838 -0.956939 0.322921 -0.034884 -0.312128 -1.270659 0.365770 -0.229497 -1.130014 -0.353374 -1.099933 1.371731 1.042405 0.314378 -0.128687 0.013253 -0.198442 0.652571 0.170682 -0.272391 -0.091602 0.281493 -0.658460 1.040249 -0.631480 -0.307101 -0.400333 0.051148 -1.378549 -0.356798 -1.318599 -0.259584 -1.071648 -0.647096 -0.492682 0.457819 -0.292807 -0.419141 -0.408746 -0.046359 0.897341 1.010325 -0.220741 0.502920 -0.481364 0.205574 -0.355528 -0.809524 -0.702805 -0.862930 -0.555255 -1.011389 0.041020 -1.355711 0.999936 0.448649 0.776767 0.500683 0.194946 -0.241704 -0.127125 -0.262347 -1.058440 -0.331073 -0.652436 -0.643241 -1.193802 -0.125354 -0.302259 0.608190 1.950388 0.164329 -1.656461 0.437050 1.537643 0.235268 -0.792640 -1.105041 0.604254 0.836267 0.475007 2.044065 0.223522 -0.325146 0.686783 -0.925433 -0.455742 0.329865 -0.283249 0.400429 1.202919 -0.999906 0.516203 -0.873194 0.312591 -0.447238 0.640225 -0.761510 -0.111994 0.158552 -1.078020 0.130930 -0.063274 0.150125 -0.308037 0.726354 -0.228780 -0.117503 -0.900957 0.676575 0.691305 0.966142 0.756348 -0.367452 0.581292 0.705450 0.218481 0.907127
M019_ON -0.066767 -0.782056 0.095134 -1.164178 1.273664 -0.480509 0.287040 0.345488 1.452867 -0.191914 -0.799995 0.791904 -0.178045 -0.464304 1.186320 -0.182847 1.314583 -0.059377 1.367713 -0.491938 -1.906954 -0.230226 0.546839 -0.511535 0.704469 0.732569 -0.787690 -0.211782 -0.185304 -0.007025 0.338354 0.342777 0.274262 0.126638 -1.212113 0.619820 1.252602 -0.113000 0.382717 -0.853401 0.821017 -0.049092 0.771612 0.068535 -0.632316 0.136558 -0.952280 -0.177401 1.444129 0.148638 0.046310 0.792768 -0.290648 -0.591410 -0.327167 0.683594 0.433105 0.453296 0.060495 -0.215779 0.129825 0.375043 0.202446 0.308105 -0.271273 0.177151 -0.252586 -0.090556 1.440663 -0.266473 -1.212037 -0.883850 0.007174 -0.679313 0.165081 0.000193 -0.075677 -0.032897 0.114437 -0.721694 -0.546805 0.526241 0.800251 -1.095967 -0.110711 -0.080169 -0.273784 -0.841439 -0.000243 -0.518157 -1.187664 -1.261649 -0.692238 1.356691 0.454125 0.292604 -0.587080 0.331387 -0.488473 0.842629 0.485949 -0.388049 -0.295211 0.453952 -0.996478 0.745378 -0.640707 -0.734479 -0.334503 -0.876591 -0.953686 -0.504969 -1.169506 0.211220 -0.547729 -0.061301 -0.176486 0.090838 -0.377918 -0.162163 -0.574849 -0.150700 1.368697 0.490513 -0.561414 0.469611 -0.703131 0.452597 -0.898940 -1.170695 -0.356336 -0.578271 -0.840404 -1.380434 -0.781946 -1.034918 0.779764 0.483956 0.282699 0.487645 -0.655221 -0.520463 -0.539317 0.112547 -0.882915 -0.217129 -0.447394 -0.383085 -0.473128 -0.085781 -0.811278 0.594865 1.507010 0.617956 -1.425850 -0.482586 1.831498 0.129390 -0.878554 -0.741107 1.210855 -0.070138 0.960719 1.000705 0.071579 0.280655 0.997588 -0.785718 -1.048539 -0.373484 -0.339695 0.288660 0.892189 -0.622302 -0.043638 -0.566487 0.633950 -0.454632 1.159328 -0.481052 0.164700 0.227535 0.222624 -0.306001 0.184787 0.424430 0.669883 0.971440 0.267178 0.746333 -0.659986 0.972006 0.853021 0.402610 0.343332 -1.133720 0.662757 0.233783 0.802792 1.037878
M015_OFF 0.334427 -1.083080 -0.088940 -0.621428 1.039398 -0.525700 -0.083050 0.106786 1.377188 -0.392360 -0.626049 0.361060 0.157537 -0.635284 0.920092 1.121991 0.486261 -0.935912 1.171996 0.144142 -1.908540 -0.228432 0.927242 -0.319649 0.266467 0.645257 -0.797080 -0.005613 0.263417 -0.374876 0.744998 0.348148 0.382309 -0.111607 -1.120874 0.966959 0.818289 -0.983406 0.047785 -0.897278 1.152036 0.419705 0.651833 0.084709 -0.566966 0.425301 -0.310102 -0.025989 1.355553 0.283933 0.207866 0.723445 0.517466 -0.666009 0.082114 0.699885 0.051215 0.105317 0.216869 -0.253054 0.945389 0.979859 0.283027 -0.213348 -0.385231 0.396790 0.250974 0.308453 2.258373 -0.524500 -1.436908 -0.584771 -0.396149 0.116686 0.769607 0.070589 -0.267076 -0.272811 0.154137 -1.185407 -0.287347 0.625356 0.634023 -1.023065 0.148333 0.043060 -0.134644 -1.363421 -0.431078 -0.318466 -1.478381 -0.911666 -0.662961 1.616882 0.451775 -0.125667 -0.290051 0.055032 -0.332426 0.597781 0.370921 -0.306305 -0.138209 0.279397 -0.576510 0.603709 -0.912304 -0.406963 -0.607121 -0.732851 -1.173561 -0.742747 -1.926437 0.275983 -1.055170 -0.235183 -0.062526 0.241400 -0.631612 -0.549521 -0.173311 0.124742 1.323409 0.992171 -0.432501 0.096224 -0.863803 0.652386 -0.550661 -0.662611 -0.376698 -0.968220 -1.108758 -1.454079 -0.647510 -1.446236 0.638760 0.494720 -0.129569 0.752211 -0.743347 -0.028041 -0.808496 -0.054758 -0.898352 -0.167546 -0.525217 0.160462 -0.552866 0.406948 0.098042 0.440149 2.070442 0.936989 -1.294311 0.145278 2.453789 0.464783 -1.025687 -1.045755 0.977693 0.219801 0.387758 1.368791 0.223721 0.143205 0.705645 -1.004454 -0.616320 -0.341001 0.151812 0.561084 1.283249 -0.605252 0.245039 -0.243291 0.376673 -0.391089 0.284841 -0.769099 -0.170441 -0.326783 -0.706975 -0.192291 -0.702553 -0.200812 0.267198 0.990028 0.323384 -0.140519 -0.897291 0.478548 0.456953 1.216162 1.234304 -0.770472 0.823440 0.578930 1.094713 0.695596
M015_ON 0.200983 -0.445654 0.370177 -1.885283 0.896230 -0.654293 -0.143981 0.395003 0.749016 -0.761608 -0.589629 0.361783 0.264221 -0.968377 0.700794 -0.000010 0.428786 -0.013583 1.348299 0.019056 -1.772550 -0.220212 0.893082 -0.059111 0.622803 0.496560 -1.468744 -0.520169 -0.288869 -0.431919 0.335233 -0.393700 -0.231848 -0.311661 -1.954631 0.293540 1.662109 -0.515611 0.165337 -0.167164 1.125186 0.526248 0.627226 -0.418923 -0.758393 0.404074 -0.680211 -0.152468 1.358776 0.327987 0.554072 0.094073 0.114393 -1.327750 0.366279 0.761526 0.600139 0.244211 0.165129 -0.074372 0.782757 0.227313 0.469413 0.688756 -0.613899 0.348104 -0.686475 0.239513 2.132720 -1.012080 -1.246866 -1.037541 0.089816 -0.481662 0.607256 -0.337921 -0.009449 -0.007865 0.122903 -1.305966 -0.585757 0.707291 0.543949 -1.104343 -0.391692 -0.608517 -0.449345 -1.092511 -0.044654 -0.663415 -1.438695 -0.485324 -0.850241 1.632943 1.159529 -0.010471 -0.312539 0.234744 -0.814085 1.098740 0.858834 -1.000529 -0.251457 0.076515 -1.689831 0.618168 -0.690609 -0.666967 -0.446411 -0.448476 -1.808756 -0.526517 -1.292436 0.028264 -1.032832 -0.271601 -0.376798 0.867964 -0.368197 -0.178724 -0.374781 -0.373671 1.412403 0.793499 -1.051853 0.233453 -0.089509 0.096435 -0.288587 -1.236347 -0.615128 -0.401535 -0.617698 -1.506115 -0.505051 -1.234242 1.129362 0.730472 0.430544 0.259580 -0.337476 -0.223540 -0.297408 0.592943 -1.071369 -0.474483 -0.594914 -0.035643 -0.514853 -0.385067 -0.619461 0.182576 1.090322 0.460150 -1.412507 0.657695 1.529161 0.133461 -0.362003 -1.070828 0.754490 0.797725 0.360609 0.543717 -0.191644 -0.171151 0.562497 -0.104030 -0.221767 0.219399 -0.137212 -0.167216 0.765066 -0.768173 0.176686 -0.847376 0.149331 -0.279769 0.991836 -0.285554 0.485835 -0.073165 -0.579298 0.501838 0.250521 0.550141 0.146011 0.880257 -0.226646 0.090675 -0.794066 0.822287 1.023492 0.705733 -0.197993 -0.755366 0.699250 -0.087273 0.103851 1.284093
M007_OFF 0.763743 0.964169 0.213657 1.979118 -1.322829 -0.691690 0.619632 -0.411418 -0.702258 -0.129143 -0.157199 0.194675 -1.094922 -0.123986 -0.490088 -0.339879 -0.675182 -1.068986 0.180373 -0.166554 2.310754 0.628940 0.429035 -0.059916 -0.423702 -1.216576 1.351411 0.468181 0.011173 -0.321757 0.520199 -0.475787 -0.145777 -0.179271 -0.036365 -0.385307 0.110892 1.076855 0.357213 0.304607 -2.574507 0.225337 -0.446595 -0.907969 0.270702 -0.531974 0.319204 -0.483012 -0.404943 -0.340586 -0.271119 -0.417818 -0.010185 0.086753 0.479340 -0.246240 -0.898472 -1.161475 0.957042 0.223012 1.069753 0.650462 -0.558654 -1.033335 1.234732 0.619245 0.529996 -0.111472 -1.244395 0.323592 0.487357 0.036943 1.206392 0.254686 -0.512988 -0.253624 0.038229 0.119065 0.057312 0.508075 -0.527498 -0.616231 -1.111175 0.350426 -0.080465 -0.276582 0.169850 0.017801 0.398971 0.038385 -0.387557 0.450204 0.654040 0.881510 1.077270 -0.417220 1.588558 0.389994 -0.748349 -0.066461 -0.499954 1.051430 -1.224924 1.069058 0.165471 -1.312422 0.065447 -0.066720 -0.700204 -0.278907 0.498367 0.546031 0.137030 -0.950056 -0.244400 -0.124735 -0.260373 0.056213 0.699305 0.367247 -0.682252 0.149156 -0.608075 -0.492428 0.344243 -0.878418 -0.511397 0.671789 -1.344852 -0.439924 0.996632 0.468562 0.980660 1.665650 -0.259759 1.002393 -1.630942 -0.092863 -0.571964 -0.118770 0.240082 0.257945 0.760482 -0.815009 2.025743 -0.412224 0.472845 1.154985 1.821172 0.994580 -0.654982 0.378963 0.631685 -0.243280 0.156417 0.139429 -0.280203 0.690795 1.821040 0.422237 -1.438281 -0.012307 -0.452289 -1.050632 -0.123016 0.109561 -0.487331 0.890260 -0.189082 0.045776 -0.269046 -0.340802 0.268433 -0.177890 0.457937 1.306972 -0.468752 -0.017955 -0.246725 -1.469826 1.037349 -0.680712 0.050360 0.307566 0.052306 -0.305378 -0.675598 -0.296118 0.757612 0.919466 0.025080 -1.072494 0.355504 0.066379 1.305217 0.237257 0.952583 -0.639009 0.678612 -0.374164
M007_ON 0.566860 0.709877 0.591048 1.129820 -0.323804 -0.335819 1.121004 -0.050985 -0.510863 -0.580528 -0.852723 0.902127 -0.274305 -0.033779 -0.316210 -0.160437 -0.690918 -1.003845 0.631437 -1.024161 1.587433 0.171760 0.040949 0.636478 0.402014 -0.704523 0.804977 0.188539 -0.315781 0.448964 0.028170 -0.527045 0.583210 0.223410 0.456796 -0.687613 0.365081 0.550477 0.301898 0.560454 -1.479782 0.730479 0.317339 -0.505838 0.897834 -0.859396 -0.183221 -0.944101 -1.335393 -0.356898 -0.042262 -0.256165 -0.527051 -0.391215 0.502531 -0.543534 -0.792202 -0.597712 0.497950 -0.104652 1.266422 0.317185 -0.719087 -0.610913 0.897453 0.928016 0.057818 -0.092287 -0.999659 -1.128573 0.377084 0.256882 1.254570 0.854977 -0.608584 -0.167668 -0.118456 -0.194920 -0.488357 0.872751 -0.788404 -0.491155 -1.069915 0.025003 -0.147230 -0.306705 0.230785 0.662169 -0.220910 -0.197116 0.073989 0.393440 1.486648 0.235445 0.580906 -0.891572 1.590306 -0.272595 -0.925620 -1.054658 -0.514972 1.291782 -0.670399 1.460992 -0.106635 -0.872666 0.177635 0.400724 -0.183906 0.071746 0.578154 0.183639 -0.123063 -1.349309 0.932075 -0.354808 0.292030 0.079053 0.057355 0.220082 -0.258808 -0.479310 -0.285497 0.129601 0.262768 -0.862539 -0.939607 0.938780 -0.831936 0.158585 0.711646 -0.133000 0.361764 2.050515 0.583850 1.242064 -1.045519 -0.207044 -1.418147 -0.921172 0.103323 0.539606 0.944877 -0.340470 1.315901 0.001931 0.172254 1.198951 1.425991 0.906691 -0.340562 -0.412334 0.217709 -0.439730 1.439662 0.506467 -0.467866 -0.032896 2.096883 0.817358 -1.857573 0.397857 0.121270 -1.129940 -0.805226 -0.897213 0.198950 1.353270 -0.696109 0.489869 -0.787805 0.174238 -0.742551 0.387773 0.033987 1.183435 0.386825 0.385674 -0.480338 -0.235371 1.131516 -0.660402 0.164157 0.713292 0.045962 -0.910486 -0.186266 -0.924645 0.189722 0.481946 -0.222471 -1.325045 0.416250 -0.156509 0.154758 0.118751 0.703496 0.068425 0.938274 0.846470
M014_ON -1.000292 -2.491587 -0.051481 -1.427097 0.865362 -0.692863 -0.515323 -0.510675 1.101138 -0.176144 1.823815 1.451044 -0.054916 -0.151719 0.589744 -0.678161 0.761264 1.421070 1.231367 0.903235 0.031165 -0.141575 -0.258038 0.144517 -0.177804 1.701219 -0.088144 -0.413785 -0.502993 0.575333 -0.060578 0.075931 -0.054341 0.799879 0.762100 -0.013585 0.348233 0.880630 0.085763 0.980028 0.528268 0.027215 0.196693 -1.613156 -0.820402 -1.053762 1.011827 0.374404 1.111940 0.421003 -0.238484 1.341490 -0.310096 0.406862 0.964042 -0.058684 0.500808 1.817949 -0.526579 -0.873120 -2.132475 -1.284377 0.703427 0.558710 -0.034913 0.400775 -0.973605 0.260847 -0.028639 -0.206228 -0.634298 0.082224 -1.149345 -0.074530 -0.987779 -0.302107 -0.952107 0.989401 0.284795 1.344927 1.737934 0.796532 0.531698 1.322464 -0.428879 0.916254 0.546331 0.175390 -0.574678 0.544461 -0.853230 -0.154346 -0.679927 -0.274232 0.951049 -0.435677 0.064284 0.122580 0.571116 -1.013924 -1.130371 1.179109 1.223398 -0.606940 0.019977 0.623390 0.506894 -0.079348 0.310013 0.927559 1.412181 1.917379 1.120507 0.097720 -0.623773 0.487843 -0.027756 -1.398924 -0.615510 -0.362090 -0.080246 -1.557196 0.135701 -0.605907 1.541130 -0.542497 -0.525124 1.103652 0.781353 -0.412202 -0.610091 -0.404941 -0.032813 0.597472 -0.653377 -0.248621 0.178369 0.663612 2.443982 0.010912 0.201684 -1.103548 0.070377 -0.794358 -0.566050 -0.295276 0.536067 -0.339607 -1.138156 -0.103846 -0.061427 1.087227 1.271711 -0.212234 -0.166440 -1.079509 0.393138 0.026710 -0.343226 -0.906157 -0.435634 -0.463333 0.348200 1.761557 1.332222 0.794434 0.261060 -0.362383 -1.031491 0.913478 -0.492980 0.006504 0.175847 0.247191 -0.169396 -0.679543 0.032990 0.215608 1.821336 0.123749 0.256115 0.579695 0.366092 -0.521370 1.007989 1.214448 0.226152 0.164183 -0.422660 -0.938454 -0.766891 0.728011 1.067984 -0.421028 -0.994956 -0.599152 0.233897 0.794589 0.126775 0.914274
M014_OFF 0.726172 -2.645588 0.150429 -2.202758 0.500541 -1.104482 0.649562 -0.441318 0.067236 -0.094368 1.267970 0.919310 -0.151143 -0.101130 0.895708 -1.156896 0.012451 0.777895 1.439911 0.828562 -0.766702 -0.254005 -0.094628 -0.117145 -0.162355 1.266567 0.805284 -0.474399 -0.642969 0.374866 -0.361324 0.609140 0.873549 1.444279 0.291014 0.516508 0.545521 0.783322 -0.151066 -0.210835 -0.659040 0.512903 0.798075 -1.218809 -1.529135 -0.356341 0.430222 -0.150283 0.965679 0.096063 0.019571 0.941416 -1.210620 0.804985 0.248136 -0.495204 0.288932 0.926584 -0.090311 0.210141 -2.221308 -1.856477 -0.165295 1.063921 -0.922704 0.240585 -0.646610 1.044208 -1.279891 0.098983 -1.440047 0.461442 -1.668980 0.540462 -0.878567 -1.147784 -0.819579 1.367764 0.363871 0.880538 0.877402 1.442933 0.967101 0.662987 -0.065481 1.213771 -0.183686 -0.935380 0.247301 -0.025222 -0.777116 -0.867704 -0.500115 -1.356338 1.182282 -0.710648 -0.269723 -0.191981 0.601383 -0.515929 -0.462983 -0.165713 1.571784 -0.909617 -0.162893 0.373624 0.559599 0.717626 0.549775 0.968169 0.617244 1.957917 1.044756 0.546689 -0.544938 0.472771 0.130117 -0.716695 0.096294 -0.099862 -0.199532 -0.546008 -1.185885 -1.179782 0.781318 -0.546685 -0.191189 0.735386 -0.742605 0.176219 -0.500667 -0.971369 0.456557 -0.450358 0.115473 -0.847654 0.185482 1.332501 1.100142 0.250709 0.246626 -0.950441 -0.066532 -0.354366 -0.856974 -0.838825 0.972574 -1.024668 -1.079639 0.202001 0.362782 0.563833 1.337084 -0.343892 0.383752 -0.303867 -0.457732 0.493319 -0.037942 0.106911 -0.169119 -1.194735 -0.107913 1.058475 1.942876 0.938154 0.676628 -1.216820 -0.493978 0.795718 -0.464822 -0.043398 -0.360726 -0.576637 0.196794 -0.963381 -0.005186 -0.464936 1.211169 -0.271361 0.115211 0.144627 0.193836 -1.305096 0.907786 1.003707 -0.533122 0.195991 -0.239656 -0.033016 -0.254013 1.164926 0.977444 -0.579215 -0.615551 -0.074429 -0.473624 -0.146301 0.655069 0.274921
M013_ON -0.550462 -0.869419 0.436492 -1.449652 0.463149 1.195709 0.643324 1.460440 0.082583 0.896151 2.360181 -0.146498 0.713307 0.288764 0.308057 -0.385250 -0.331335 1.064045 -1.909127 0.312119 -0.577993 0.384877 -0.767861 -0.029279 -0.256606 -0.094737 -1.001884 -1.359564 0.253524 0.169719 0.768401 0.898963 -0.085210 0.358887 1.094548 -0.219866 -0.531090 -0.673888 -0.503165 0.425701 1.151256 -0.454904 -0.028406 0.407049 0.576798 0.617654 0.081675 0.506790 -0.173316 -0.245276 0.248301 0.236815 0.455420 0.824766 -0.559031 -1.317548 0.007285 -1.172027 -1.464791 -0.262718 -0.785284 -1.038698 0.708195 0.833825 -1.233841 -1.159608 -0.053778 0.658692 -0.243382 0.963974 -0.161333 0.004267 -1.097813 0.150936 -0.284778 -0.011996 0.885533 -0.119122 -0.590156 -0.439997 0.945333 -1.364774 1.074749 0.483675 0.748375 -0.058068 0.073746 0.119185 -0.853630 -0.244148 0.233643 -0.663477 -0.577775 -0.690327 -1.365494 -0.364237 -0.616861 0.695302 0.975934 -0.602618 0.382031 0.173970 1.731983 -0.775520 -0.561731 0.861096 -0.242482 0.200608 0.065859 0.271727 -0.374677 0.734135 0.165029 0.098531 1.147143 0.081954 -0.226910 -0.731569 -0.348015 -0.641202 0.969890 0.671998 -0.681645 -0.532897 0.553994 0.745156 1.422474 -2.044939 0.068515 0.549945 -0.199828 -0.971134 0.034286 0.422690 -0.155860 0.840509 0.539199 -0.062876 1.459943 -0.361676 0.581433 0.574505 -1.514939 -1.277546 -0.879890 1.382103 0.554283 -0.452369 -0.178063 -0.488510 -1.133325 0.350089 -0.075932 -0.028174 -0.795669 -0.057306 -1.103933 0.104201 -0.135492 -0.180203 -0.005016 -0.995095 -1.054303 0.391621 0.614691 1.671507 -0.254668 -1.572957 1.585448 -1.293211 -0.151763 -0.158447 -0.327998 0.033867 -1.032329 0.668448 -0.298052 0.842736 0.487714 0.967560 -0.199959 0.393599 0.781898 -0.113531 1.284114 -0.097335 0.287374 0.356821 0.718369 -0.280557 -0.402813 -0.251119 0.450485 -2.388275 -0.772584 -0.046608 -1.510883 1.100521 -0.138442 -0.246038
M013_OFF -0.844168 -0.616626 0.163585 -0.607213 -0.165145 0.683037 0.205878 1.322466 0.371358 0.080183 1.201598 -0.091345 0.301790 0.025476 0.789994 0.097892 0.820529 0.690259 -0.748417 0.124191 -0.191790 0.919967 -0.417835 0.463500 -0.450580 0.323223 -0.219268 -0.160109 0.011758 0.621207 -0.281607 0.082506 -0.289571 0.095802 0.860145 0.601067 -0.518255 -0.313523 -0.357568 0.616765 0.618259 -0.638117 0.268704 -0.110096 -1.010825 0.111764 0.173145 1.337014 0.174933 -0.009387 -1.052085 -0.357995 -0.434255 0.893016 -0.409223 -1.661308 -0.125364 0.215115 -0.616764 -0.391376 -1.945495 -0.347405 -0.175769 1.068412 -0.310647 -0.431844 -0.516886 0.714378 0.526419 -0.069514 0.573580 -1.557822 -0.936663 1.238383 -0.610471 -0.131461 0.997062 0.715807 -0.119120 -0.216642 0.605714 -0.421546 2.195035 0.486759 0.040725 0.125306 0.766693 0.411850 -0.079706 0.349640 0.906254 -0.123352 -0.225858 -0.828150 -0.874993 -0.043381 -0.878809 -0.585379 1.312132 -0.382572 -0.091929 -0.192318 0.977207 -0.879981 0.010590 0.461029 -0.437624 0.467652 -0.161004 0.522094 0.036904 -0.130872 -0.045581 0.102062 1.798621 0.704790 0.068718 -0.845902 0.381487 0.293126 0.190180 0.664789 -0.592716 -0.052726 1.120730 1.346066 1.332336 -1.695256 -0.019284 0.624619 -0.486086 -0.144829 0.590872 -0.247821 0.070271 1.366215 0.580595 -0.147126 0.834110 -0.290929 0.879572 0.309627 -0.805460 -0.241803 -0.593251 1.487140 -0.026468 -0.885087 -0.937546 -1.663791 0.086527 0.263028 -0.396954 0.341336 0.071081 0.379173 -1.199382 -0.682741 -1.048899 0.260213 0.423740 -1.514373 -1.325538 -0.853892 1.565614 2.062112 -0.032877 -0.469967 0.979157 -1.228209 0.591829 0.430665 0.560763 0.806586 -1.386588 0.084853 -1.228018 0.939303 0.754275 0.894644 -1.603234 -0.087588 0.513056 0.612617 -0.190180 0.064496 0.121590 -0.145330 1.018882 -0.090283 0.434701 -0.336456 0.983983 -1.248989 -1.120309 -0.666058 -1.563576 1.933592 -0.214895 0.004709
M018_ON 0.114572 -0.940561 0.190023 -1.598763 0.147571 -0.023635 0.402851 0.213536 1.043260 -0.171036 -0.781846 -0.114264 0.233551 -0.670376 0.761061 -0.148347 1.705789 0.179595 0.958184 0.686034 0.037343 0.023534 0.671121 0.190987 0.646968 1.245780 -0.114606 -1.247664 -0.192198 0.008864 -0.621762 1.156947 0.753726 0.726392 -1.483761 1.033124 1.454648 -0.704003 -0.068756 0.072094 0.731303 0.177951 0.177233 -0.562230 -0.216594 -0.130989 -1.405571 0.100650 1.394026 -0.739661 -0.301232 1.166269 -1.089444 -0.044423 -0.696118 -0.077207 0.315093 0.962620 -0.179281 -0.173659 -1.027732 0.085050 0.303322 1.106269 -0.874091 -0.353875 -0.784163 0.762733 1.579159 -0.152109 -1.890708 -0.625060 -1.422626 -0.022316 0.061567 -0.175931 -0.179965 0.329294 -1.053889 0.468905 0.091522 0.687427 0.552464 -0.797841 0.514799 0.771413 0.082899 -1.258413 0.068347 -0.321259 -0.650646 -0.960743 -1.030856 -1.487522 0.250403 0.330985 0.155007 -1.099504 0.081610 0.498119 -0.555803 -0.121174 0.490833 0.775641 -0.769770 1.025081 0.021445 -0.586619 -0.748801 -0.357336 -0.506957 1.027167 0.433873 -0.499426 -0.582569 -0.709790 -0.181897 -0.512005 -0.085586 0.068289 -0.047407 -1.446380 -0.669825 0.447157 0.676834 0.334732 -0.926971 0.217623 -0.525807 -0.802686 0.097139 -0.999722 0.093487 -0.973870 -0.162178 -0.954483 0.119929 0.363755 0.861248 0.581978 -0.192570 -0.790243 0.066000 -0.705522 -0.605633 -0.475789 0.125074 -1.018898 -0.792942 -0.575224 -0.895743 0.445775 1.649410 -0.408497 -1.349756 -1.466488 0.416832 -0.158180 -0.684454 -0.337377 0.186097 -0.473637 0.133044 1.559924 0.551915 0.979859 1.168897 -0.568225 -0.160171 0.909945 -0.292147 0.295330 -0.397877 -0.820819 -0.390723 -1.112042 1.541220 0.269283 1.018120 -0.871401 -0.098698 0.605824 -0.115260 -0.090050 0.692876 0.305633 0.475853 0.694816 -0.345733 0.624407 -1.298749 1.189943 1.187752 -0.196410 -0.279146 -0.672859 -0.202551 0.041315 1.163278 0.108320
M018_OFF -0.411312 -0.948846 -0.148482 -1.483178 0.369233 -0.873246 -0.396907 0.161547 0.938446 0.441961 0.503015 1.003385 -0.703097 -0.823400 0.785077 -0.681451 1.112427 0.479271 0.254517 0.839256 -1.555118 0.399936 0.097769 0.233376 -0.040652 0.756036 -0.258133 -0.558984 -0.629084 0.239603 0.488905 -0.044820 0.674485 0.601131 -0.688757 1.055475 0.502468 0.470502 0.130686 0.623416 0.118999 -0.526912 1.234134 -0.826942 -1.465683 -0.569110 0.040882 0.333332 1.022570 -0.512774 0.377487 1.220341 -0.349656 0.257319 -0.821896 -0.594066 0.165912 0.967069 0.614431 0.177184 -0.595925 -0.029954 1.054458 0.361688 -0.297476 0.130900 -0.728948 0.574768 0.982543 0.078829 -0.837518 -1.496750 -0.972554 -0.209419 0.643328 -0.631809 0.473510 0.540346 0.108057 -0.342199 -0.095980 0.979202 1.327099 0.416619 0.141015 0.689539 -0.792162 -0.676443 1.129403 -0.978792 -1.141582 -0.020673 -0.719086 0.941696 0.872985 0.145416 -0.350331 0.383411 0.092842 0.555559 -0.454304 0.177383 -0.081799 0.432266 -0.168847 0.415701 -0.270939 -0.620402 -0.993164 0.035283 0.098802 0.944426 -0.009905 0.194074 -0.042144 0.273151 -0.975185 -1.635912 -0.685972 -0.550066 -0.501130 -0.055800 1.116549 -0.028237 1.011546 0.428719 -0.915416 -0.245316 -0.625388 -0.427172 -0.803817 -0.415439 -0.071228 0.013789 -0.560637 -0.895624 0.332782 0.452120 0.718885 0.220399 0.194143 -0.848911 -0.063938 0.081457 -1.482942 -0.270136 -0.194729 -1.470842 -1.264371 -0.242444 -1.369158 1.213467 1.913131 -0.243299 -0.472848 -0.885881 0.595203 0.127921 -0.548531 -0.344700 1.315284 -0.197677 1.189885 2.415591 0.571858 -0.683963 0.618456 -1.678967 -1.141427 -0.004669 -1.503152 0.447200 0.774870 -0.732966 0.564931 -0.008833 0.767816 -0.865027 1.029607 -0.602787 0.487984 1.161770 -0.611777 -0.882566 1.073430 0.207308 0.678857 0.816116 1.160793 -0.142170 -0.198253 0.731357 0.431166 -0.001991 -0.080820 -1.156319 0.479391 0.486053 -0.581795 0.008099
M024_OFF 1.159120 1.343211 -0.502752 -1.036979 0.199343 -0.837214 -1.063323 -1.679193 -0.010868 0.991999 0.447827 0.536285 -0.238321 -0.193310 -0.315878 0.316900 -0.081373 0.589625 0.130569 0.358615 -0.870851 -1.294941 0.180736 -0.747816 -0.412538 0.170416 0.260675 0.693500 0.479603 0.936784 -0.009443 1.514406 0.476808 1.279336 -0.463886 0.279791 0.394618 -0.930461 -0.267836 -1.231676 0.243832 1.456702 -0.250645 -0.311010 0.092361 -0.942832 -0.379250 -0.321925 0.896393 0.409835 -0.388201 0.766650 -0.321313 -1.602803 0.531924 0.492498 0.003376 -0.520437 0.660942 -0.418237 -0.277768 0.668986 0.566030 -1.281567 0.137806 -1.180320 1.075534 -1.171394 -0.174485 0.817805 -0.599556 0.616202 -0.010148 -0.909889 0.419680 0.584423 -1.557431 -0.495106 0.205465 0.499458 0.606204 -0.413546 0.207547 -1.143065 -0.315186 0.063332 0.503226 -0.004748 0.084288 0.155703 0.129071 1.091684 -0.192925 -0.583235 1.433972 -0.231113 0.427996 -0.149914 0.343192 0.176591 0.421701 -0.045952 0.003812 0.226474 0.158971 0.403732 -0.340726 0.156541 -0.221955 -0.029474 -0.312246 -0.353327 0.855964 -0.570103 -0.597166 0.455848 -0.194032 1.340172 1.026567 0.135162 -0.524090 -0.520407 -0.860583 0.838458 -0.440783 -0.447870 0.668907 0.311837 0.710026 -0.009605 -1.408967 -0.350441 -1.743602 0.702939 0.408474 -0.306688 1.594350 -0.375866 -0.602617 -0.257506 0.138915 0.472899 -0.832523 0.247875 -0.611526 0.613689 -0.805565 -0.601917 0.440562 1.306074 -0.056411 -0.857880 -0.528492 0.807859 0.404357 1.215238 -1.098025 0.284318 -1.013172 -0.585745 0.072409 -0.694555 0.016809 -0.307560 -0.245989 1.439859 -0.079794 -0.379127 -0.896596 -0.780395 1.263891 0.060415 1.593807 -0.136620 0.460350 0.651727 -1.031515 -0.577242 0.287226 0.981255 -1.444991 0.028145 0.604387 0.062265 0.050539 0.337856 0.239564 -1.131146 0.688484 -0.689315 -1.497668 0.728558 -1.446632 -1.935579 -0.549072 -0.535879 0.638836 0.212394 -1.714456 0.967330
M024_ON 0.856159 1.688262 -0.231630 -0.472139 0.084623 0.165514 -0.452100 -0.328699 -0.242741 0.418458 0.076912 0.585448 -0.341429 0.707854 0.281058 -0.225659 -0.017386 1.172291 0.648351 -0.672543 -0.724500 -1.203358 -0.246354 -1.350579 -0.245887 -0.288390 0.304850 -0.085559 0.523230 0.690479 -0.158729 1.071601 1.081477 1.835932 -0.252353 0.405247 0.282785 0.134742 -0.071530 -0.379688 0.116846 1.327377 -1.055861 -0.282630 -0.035691 -0.993701 -0.156314 0.118799 0.496540 0.626447 -0.609727 0.551835 -1.128520 -1.054248 0.678037 0.425729 -0.185793 -0.052060 0.163429 0.069106 -0.312148 1.081686 -0.126908 -1.304630 0.644854 -0.527987 0.863846 -1.179677 0.223359 1.176957 -0.627779 0.961835 -0.154511 -0.431082 0.698588 0.255009 -1.029454 -0.283630 0.367313 0.478738 0.638447 -0.777009 -0.025409 -1.046328 -0.087871 0.198985 -0.148897 -0.262536 -0.852713 0.990949 -0.043878 1.100857 0.228417 -0.124415 0.728240 0.243274 0.752764 -0.144686 -0.244400 0.499031 0.257738 -0.017737 -0.391302 0.360290 0.118955 -0.236888 -0.400182 0.516418 -0.662262 -0.301159 -0.439779 0.120279 0.719668 0.372429 -0.801118 -0.350257 -0.433011 1.765610 1.234685 -0.066663 0.022311 -1.196163 -0.262868 0.909405 -0.552954 -1.279939 1.002861 0.608373 0.114068 0.576220 -1.699483 0.340145 -0.982486 0.304503 -0.185720 -1.591662 1.562882 -0.375220 -0.283858 -0.392342 0.203851 -0.095184 -0.959288 0.495591 -0.166443 0.005899 -0.648180 -0.445135 -0.038962 0.511473 -0.242284 -1.095351 -0.272004 0.177514 0.022111 1.624700 -0.842303 0.566767 -0.500554 -1.430389 -0.321898 -0.078251 -0.041802 -0.914374 0.625519 1.018185 0.255931 -1.005370 -0.422700 -0.878410 1.574254 0.433657 1.340262 0.299694 0.211037 0.741588 -0.751988 -0.489953 -0.498409 0.446597 -1.283224 -0.447578 -0.136798 0.509370 -0.331331 -0.283095 0.329565 -0.723422 0.037597 -1.120523 -1.299135 1.022906 -0.466753 -2.378152 -0.556687 -0.342072 0.691507 1.110445 -1.579096 0.516272
M017_OFF -0.866381 -0.602731 -0.766029 -1.644899 -0.746456 -0.487366 -0.060484 -0.194695 -0.798889 -0.051713 -1.365366 0.524702 0.069106 -0.677063 0.261537 -0.684396 1.062188 0.496729 0.531748 1.000080 -0.239804 0.260397 0.520114 0.988990 0.693214 -0.803163 -0.578849 -0.541243 -0.518707 -0.124883 -0.377182 0.521502 1.263371 -0.797313 -1.358342 1.639916 1.240984 -0.151137 1.016061 -0.402282 0.067029 0.038604 0.016698 0.732126 -0.450807 -0.113540 -1.104313 1.052505 1.194372 -0.968808 -0.270276 1.088565 0.123925 -0.297802 -1.035177 0.326058 0.015279 0.871704 0.125195 -0.276974 -0.486191 0.127173 0.743904 -0.176810 -0.647191 -0.218525 -1.444816 0.371565 1.435584 0.016923 -1.041236 -1.362724 -0.825474 -0.946600 0.867846 -0.688225 -0.115284 -0.219269 -0.720932 -0.453455 -0.271743 -0.144795 0.729117 -1.350182 0.477005 0.244915 -0.269243 -1.014942 0.811186 -1.041443 -1.028507 0.032208 -0.557429 0.013215 0.137184 1.357184 -0.006407 -0.594059 -0.059500 0.513485 -0.901225 1.133180 -0.287424 1.183145 -0.452431 1.012855 0.851867 -0.821687 -1.458793 -0.802384 0.228168 0.244867 0.510703 -0.233765 0.475642 -0.709542 -1.037065 -0.375516 0.803763 -0.676370 -0.532022 -1.429343 0.092371 -0.027441 0.301492 0.216601 -1.277023 0.510866 -0.538572 -1.589603 -0.900137 -0.043181 -0.390047 -0.288628 -0.333406 -1.349554 0.482202 0.168771 0.085504 0.952768 -0.044722 -1.054130 0.264111 0.359478 -1.074331 -0.533571 0.044701 -2.553448 -1.380674 -0.449453 -0.834446 0.762849 1.958837 0.108150 -0.009299 -1.452953 0.033269 -0.544303 -1.358775 -0.584033 1.348583 0.530424 1.614192 2.307198 0.144403 -0.826909 0.915468 -0.868522 -0.132789 -0.036763 -0.658195 1.316545 1.021154 -1.625624 1.008296 -0.189245 1.868548 -0.162390 1.079123 -0.112880 0.001165 1.102401 0.125035 -0.165880 0.427302 0.317440 -0.316804 0.808864 0.759275 0.869119 -1.767644 2.495845 1.440688 -0.150097 -0.120755 -0.453585 -0.110333 -1.030729 0.102243 0.379976
M017_ON -0.118837 -0.194905 0.352664 -0.725653 0.398809 -0.386019 0.283238 -0.521024 0.889578 0.252681 -0.706341 0.290451 -1.576235 -0.607604 0.206190 -0.276716 0.725155 0.990561 0.445854 0.942885 -0.930832 0.411877 0.450088 -0.008913 0.596149 1.610768 0.358865 -0.382170 -0.181516 0.146891 0.594839 0.440072 0.737006 -0.135751 -1.796914 0.609033 1.316364 -0.057622 -0.089066 0.488662 0.249463 -0.399638 0.440814 -0.733654 0.120975 -0.542241 -1.466493 -0.530345 1.419096 -0.922459 -0.088008 0.839140 -0.057896 -0.651748 -1.386942 0.770421 0.322465 0.965246 0.567633 1.423512 -0.340851 -0.232059 1.128955 0.244950 -0.284951 0.288721 -0.166569 0.127650 0.839174 0.334526 -1.891000 -1.046019 -0.538036 -1.344306 0.312195 -1.548643 0.227488 0.677029 -1.059415 0.076932 -0.139499 0.242866 0.861814 -0.977555 -0.159823 0.528388 -0.329521 -0.376051 0.579951 -0.730375 0.241064 -0.309351 -0.838638 -0.747442 0.924100 1.350463 -0.384692 -0.048099 -0.256225 0.459884 -0.331359 -0.524121 0.098595 1.461173 0.581223 1.730151 -1.059163 -0.762993 -0.691479 -0.301585 -1.243684 -0.134930 0.625548 0.098419 0.347223 -0.013688 -1.121092 0.164353 -0.437531 -0.066341 -0.380176 -0.279616 -0.176744 0.767697 0.934325 1.089960 -0.664943 0.924680 -0.896559 -0.333034 -0.464080 -0.431473 0.030619 -0.567365 -0.294530 -0.948464 -0.600292 -0.174365 0.232960 0.699682 -0.092139 -1.940765 -0.297007 -0.174142 -0.748976 -0.552949 -0.949162 -1.806740 -1.381415 -1.380490 -1.081273 0.998480 2.095093 -0.837916 -1.405071 -1.141515 0.367357 0.997886 -0.629640 0.061341 1.421880 -0.483287 1.560592 2.786487 0.800104 -0.676899 0.802701 -1.418684 -1.110177 -0.153509 -1.489332 1.316922 1.058615 -1.611246 0.466461 -0.829734 2.060923 -0.629533 0.076133 -0.231759 0.252488 1.073775 -0.575097 -0.440968 -0.039988 0.417106 0.966753 0.941817 0.030957 0.177354 -0.143842 -0.083402 0.119935 -0.328416 -0.988370 0.000213 0.728938 -0.054534 0.114153 0.035943
M010_OFF -0.154610 -0.568666 0.179720 -0.185386 -0.747236 0.994220 1.321133 0.458095 -0.823357 0.073106 1.011730 -1.031201 0.872688 1.252502 0.003472 -0.438175 0.336722 0.267485 -0.756862 0.409571 0.062125 -0.971693 -1.232826 0.445089 -1.183109 -0.354410 0.545679 1.272044 1.216231 0.559099 0.132002 0.514606 -0.142084 -0.993170 1.002870 0.693267 -0.023844 -0.063041 -1.020029 -0.303401 -0.695601 1.571877 -1.526855 -0.417538 -1.235408 -0.150449 0.668430 1.024221 1.100057 0.026896 -0.283917 -0.916528 1.305507 -0.685393 0.229498 0.307610 0.218018 -0.238270 -1.243827 0.495220 -0.567309 -0.336826 1.271203 0.190143 -1.042786 -0.387556 1.230296 0.563264 -0.409232 0.505802 0.463184 -0.482692 0.488330 -1.289323 0.669247 1.038054 0.189077 -1.211738 -0.445870 -0.685468 0.721323 -1.140271 0.886839 0.084773 0.284373 -0.427875 0.696790 1.283266 -1.210335 -0.686475 0.031241 0.148945 -0.204359 -0.741089 -0.852254 0.277149 -1.228483 -1.355278 0.367166 -0.090713 -0.481194 -0.289486 -0.294327 -0.735859 0.235333 -0.155810 -0.008244 0.626240 1.892355 0.303239 -1.197520 -1.529378 0.078485 1.343689 0.334792 -0.110171 -1.060605 0.180069 -0.120215 -0.897885 0.569503 0.743591 -1.078090 -0.136099 0.491644 0.028206 0.704288 -0.615129 0.027361 -0.046323 -0.244731 -0.369128 0.297638 -0.032250 -0.983656 0.046963 0.037797 -0.399953 0.640061 -0.333546 1.354198 0.563527 -1.040568 1.292769 -0.903410 1.795952 -0.259563 0.655420 -0.465069 -0.637102 1.492769 -0.406493 -0.257471 0.260163 0.692319 -0.345617 -0.365933 0.522104 -0.303435 0.061752 0.323630 -0.637328 -0.846258 0.550937 1.734737 -0.878185 0.586728 -1.154054 1.625763 0.087194 0.605272 -0.005857 -0.298423 0.815657 -1.276448 -1.148847 -0.209744 -0.114438 -0.128864 1.685526 0.055965 0.352244 0.453082 -0.319697 0.309268 -0.166619 0.620371 0.010643 -0.131835 -0.039387 0.962425 0.466142 -0.192551 -0.769790 0.249700 0.579786 -1.174523 0.530822 -0.956055 -0.469169
M010_ON -0.360561 0.316085 -0.761778 -1.098758 -0.367358 1.046899 1.815929 -0.802931 0.180288 -0.003155 0.163887 -0.178266 0.189896 1.031558 1.172891 -0.811078 -0.743377 0.837274 -0.514542 0.348731 0.630213 0.166000 -0.932327 0.068749 0.266718 -1.394429 0.314898 0.243199 0.973379 0.357078 0.843798 0.812246 0.389966 -1.292897 0.877863 -0.183098 0.538172 0.104275 -1.108901 0.077386 0.173379 0.430661 -1.001827 0.237729 -1.235577 -0.455469 0.849465 0.418944 0.771258 -0.315500 -0.766876 -0.183192 0.219475 -0.130824 0.428275 -0.249988 1.076156 0.652325 -0.272674 0.872219 -1.111760 -0.159695 0.905933 0.428908 -1.072762 -0.661447 1.239886 0.150664 -0.024328 0.491614 1.180759 -0.232905 -0.047861 -0.636930 -0.135575 -0.010365 0.572157 -0.512582 -0.344434 -0.191854 0.592222 -0.153991 1.178308 0.269092 0.162319 -0.051944 1.189848 0.731590 -0.978017 0.022570 0.609614 0.632008 -0.203884 -1.365218 -0.306179 0.290415 -1.147045 -0.893430 0.083926 -0.525004 -0.322339 0.217609 -0.535886 -1.005551 -0.053777 0.129387 0.223928 1.019609 1.359946 0.476276 -1.123149 -1.882981 -0.072464 0.483165 0.701425 -0.475244 -0.700075 0.191481 -0.022915 -0.886791 1.513542 1.223375 -0.191823 0.041710 -0.331285 0.470675 1.081925 -0.944381 1.298496 -1.372062 0.112301 -0.549378 -0.176390 -1.012769 -1.071310 1.121517 -0.043955 -0.789992 -0.324228 -1.368954 0.487002 -0.189387 -0.690308 0.085390 -0.204868 1.741525 -0.421626 0.776651 -0.060667 0.155630 1.255243 1.069320 0.230155 -0.146412 1.036555 1.141677 -0.024078 -0.427467 -0.264585 -0.294212 -0.127861 -0.630657 -0.465920 0.355827 0.716840 0.194773 -0.074882 0.224934 1.911497 -0.715420 0.460375 0.626685 -0.515178 1.813757 -0.180944 -1.289581 0.539262 0.194162 0.120817 1.226382 -0.358437 -0.627753 0.395832 -0.813809 -0.687391 -0.365539 0.179116 -1.286186 -0.412496 -0.398127 0.915952 -0.449317 0.393329 -1.041553 0.491662 -0.172130 -1.425773 0.260129 -0.037552 -1.061559
M021_OFF 0.621446 -0.174951 0.379831 -0.169779 -0.200054 0.882835 0.328265 0.615792 1.002906 0.202788 0.332065 -0.812279 -0.140221 0.409899 0.149686 -0.291133 1.050025 1.324143 -1.553990 1.047946 0.425299 0.295168 1.034184 -0.467009 -1.410282 0.650744 0.900505 -1.083976 1.247977 0.638066 -0.279410 0.024979 1.463044 -0.013216 0.905774 -0.299634 0.160235 -0.495769 -0.361795 0.715142 0.272033 -0.885663 1.572928 -0.802542 -1.318715 -0.560432 0.218587 1.591737 0.527424 -0.050418 -1.244004 0.397124 -1.463889 0.080697 -0.407217 -0.450214 -0.623960 0.806385 1.089047 -0.980126 -1.051045 -0.230949 -0.088269 0.490325 0.037226 -0.210910 -0.143216 -0.431103 0.151207 0.685946 0.100901 -0.360929 -1.159409 0.422898 -0.106730 1.380591 0.010810 -0.437847 0.923968 0.572434 -1.032979 -0.143260 -0.284748 -0.263545 0.745953 0.754913 -0.617916 -1.254373 1.293290 -0.921128 -0.665280 -0.163836 -0.938027 -0.515029 0.844866 -0.297500 0.498683 -0.465537 -0.074637 1.306037 -0.491392 1.048460 0.411345 0.212262 -0.015640 0.432975 -0.014181 0.069643 -0.669592 0.238049 -0.121815 1.517716 1.111942 -1.171301 -1.582264 0.005605 -0.469286 -0.732179 0.114686 1.453872 -1.082894 -0.870397 -0.299453 -0.255236 2.022229 -0.985004 -0.685791 -1.513779 -1.383285 -0.053110 0.460888 0.067762 1.022788 -0.618494 -0.530117 0.589175 -1.001308 -0.168956 1.570188 -0.127064 -0.801467 -0.380826 0.064061 -0.496812 -0.692000 -0.125338 0.103321 0.340106 1.027644 0.968961 -1.608567 0.418968 1.206028 -0.544196 0.603172 -1.598028 0.312613 -0.629357 -0.220871 -0.915836 -1.360879 -0.411251 0.500294 1.115149 0.352971 0.322756 -0.158496 -0.224937 -1.751567 1.567162 -0.397859 -1.295254 -1.254825 -0.308491 -0.498091 -1.045083 -0.096823 0.180208 1.179538 -1.174997 0.001555 1.393995 -0.051008 -0.091565 1.512529 0.730555 0.935756 1.291185 0.351433 1.323107 0.016386 0.085443 0.749949 1.225226 0.205548 -0.692723 -1.013865 1.158425 -0.900373 -0.324596
M021_ON -0.005324 -1.165077 0.327226 -1.571972 -1.008918 -0.659444 0.539619 1.046484 0.462642 -0.034842 0.652172 0.326282 -0.318991 -1.356298 1.864059 0.147486 2.062740 -1.306230 0.420691 0.709862 0.274006 0.060398 -0.166479 -0.164179 1.527060 1.814813 0.405359 0.819152 -1.590526 -0.080901 -1.763302 1.673660 -0.394052 2.380390 -0.220987 1.357201 -0.528627 0.452827 -0.349070 0.620332 -0.655816 -0.769231 -0.367182 -1.579596 0.083083 -0.398235 -0.334869 -0.420587 0.320472 -0.747846 0.687333 0.751026 -2.434348 0.823494 -1.206424 -1.636914 0.003859 -0.082860 0.329874 0.543817 0.226284 0.592874 0.217350 0.133308 0.010024 -1.093639 0.001436 1.077076 -0.545217 0.104265 0.669755 -0.750583 -1.158793 0.104209 -0.249524 0.821867 0.241275 1.197475 -0.255486 -0.764537 -0.245627 0.716326 0.289920 1.247818 -0.010105 1.384432 -0.218889 0.143710 0.138006 0.652791 -1.017784 0.171775 -0.385836 -0.722700 -0.181685 -0.289714 0.841132 1.349115 -1.289031 0.824557 -0.064458 -0.066035 0.352108 -0.406775 -1.655541 0.081680 0.606071 0.183898 -1.487692 -0.317080 -0.974769 2.382757 0.287468 -1.249354 -0.295118 0.416044 -0.381336 -2.321444 -0.805389 -0.102688 1.257598 -0.249977 0.231914 0.711498 0.297088 -0.673793 -1.030626 -0.648486 0.456873 -0.531790 -0.199608 -0.257750 0.715655 0.725034 -1.290987 -0.175723 -0.434230 0.973350 -0.181490 -0.031061 -0.304611 -0.255383 1.198621 0.427039 -0.462887 0.215538 0.406139 -0.288991 -0.379936 1.062978 -1.315284 0.094834 1.081595 0.333926 0.325655 -0.163594 0.159100 -0.900334 0.135622 0.318770 0.343694 0.825107 0.394793 0.952075 0.614216 0.471899 0.726919 0.179545 0.153495 0.145762 -0.582882 0.066153 -1.959744 -0.139366 -1.683696 -0.591536 0.747858 -0.992275 0.122178 -0.848526 -0.095319 0.109587 -1.186796 -0.436036 1.410424 -0.745336 0.182387 -0.578262 1.189251 -0.765446 0.022728 -0.061234 -0.396981 -0.607936 -0.664253 0.292270 0.712645 0.346075 -0.605300 -1.280999
M003_OFF 0.013932 -0.247430 0.323500 1.512974 -1.076469 -0.533472 1.042784 0.141295 -1.399813 0.052964 -0.805399 0.515245 -2.025381 1.139443 -1.028727 0.226211 -0.124570 -0.747026 1.283636 -0.718434 2.107103 0.390631 -0.204591 0.953708 -0.202652 -0.238773 1.022148 0.556252 0.162349 -0.002060 0.348548 -0.908952 -0.447541 -0.151109 -0.010988 -0.852987 0.030780 -0.299385 0.855124 0.269503 -1.008693 0.593402 0.053801 0.828246 0.354419 -0.928408 0.715001 -0.782682 -1.070958 0.238370 -0.400217 -1.719462 0.506563 -0.893845 1.196011 0.712582 -0.359165 -0.088130 -0.107092 -0.050218 1.320341 0.482672 -0.597097 -0.707593 1.381478 0.246670 0.940053 -0.503770 -1.040754 -1.481658 -0.003264 0.869312 0.977000 1.553129 0.228660 0.043690 -0.263107 -0.206523 -0.626313 0.872134 -0.037722 -0.276125 -0.739810 0.558594 0.120100 -1.231422 0.819753 0.228681 -0.567943 0.181647 1.045656 0.701084 0.627320 0.838374 0.689141 0.884560 0.717647 1.070982 -0.868368 0.092866 -0.575399 0.818253 -1.010671 1.450611 0.577981 -0.957247 -0.217103 -0.663082 -0.068472 -0.019853 -0.310524 -0.599386 -1.259334 -1.303752 0.639012 0.133933 -0.395135 -0.176449 0.869624 1.543220 -0.121909 0.145124 0.030496 -0.994253 -0.919008 0.018102 -0.556876 0.754856 -0.745722 -0.439032 -0.199586 0.596377 -0.302759 1.383837 0.722324 1.558951 -0.725130 -0.053814 -2.094030 -0.327891 -0.023964 0.388277 0.624254 -0.820561 1.226709 -1.386208 -0.046413 0.878761 0.185094 1.491051 -0.055258 0.007798 0.919484 -0.530979 1.101202 1.100383 -0.029209 -0.095527 2.014985 0.396434 -1.115161 -0.053601 -0.236098 -1.106174 -1.376170 -1.419131 1.104403 0.318924 -0.322857 -0.123969 -0.190364 -0.603200 -0.445675 0.851483 0.797884 0.936323 1.006793 0.129482 0.136380 -1.725005 0.815160 -1.293251 -0.255125 0.546318 -0.415719 -1.009432 0.079815 -1.239375 0.242740 1.752083 0.575819 -1.100531 -0.795301 -0.246488 0.390547 0.396466 1.121869 -1.057500 1.391818 0.252344
M003_ON -0.373394 -0.268289 0.365196 1.338044 0.111461 -0.252264 0.746045 -0.889803 -1.125228 -0.996401 -0.013241 0.984132 -1.245798 -0.320582 -1.399311 0.618579 -1.459778 -0.783068 0.762290 -0.395795 2.312760 0.387633 0.708046 -0.546961 -0.500967 -0.789844 0.128326 -0.130645 -0.641538 -0.202558 0.447945 -1.677499 -0.848077 -0.736661 -0.657558 -0.827507 -0.179457 -0.072542 0.207513 0.200366 -1.493528 0.632005 -0.458977 -0.534164 1.387943 -0.605353 -0.184306 0.038901 -0.979204 0.321343 -1.444309 -0.772405 0.052072 -0.777820 0.810216 0.840113 -1.570532 -0.998631 -0.234474 -0.928797 1.501945 0.633986 -0.458155 -0.950947 1.039269 0.697764 0.599842 -0.425729 -0.317195 -0.094134 0.598941 1.563823 1.061577 0.745805 -0.444572 -0.580370 -0.760170 -0.651193 -0.905887 0.402028 -0.124572 -0.587252 -0.962071 0.986813 0.102563 -0.304068 0.881867 0.766345 -1.195413 -0.113202 0.431598 -0.328142 0.652392 0.810538 0.889546 0.263078 1.542579 -0.117703 -1.497629 -0.573196 -0.693681 0.328701 -1.328682 1.102961 0.216138 -0.427781 0.116973 0.063415 -0.062371 -0.088175 0.286320 0.079304 -0.593537 -0.725306 0.872087 -0.545852 -0.794929 0.596589 0.348903 0.100919 -0.705443 0.293183 -0.733525 -1.247320 -1.301640 -0.899522 -0.782173 0.520135 -0.288556 -0.070243 -0.039460 1.477731 -0.105616 1.069767 0.698999 0.758796 -1.221116 0.212080 -1.805706 -0.197411 -0.049249 -0.355438 -0.463013 -0.111810 1.702291 -0.085841 -0.398242 0.892033 1.542022 1.350215 0.045857 -0.230995 0.626856 -0.009385 0.644620 0.080928 -0.466939 -0.439005 0.858992 0.859664 -1.217165 1.381003 0.165813 -1.559392 0.019192 -1.777181 -0.262538 0.611558 0.242162 0.363446 -0.123270 0.350980 -0.866496 -0.400388 0.036914 1.022753 -0.748060 0.625720 0.438865 -1.431581 0.325247 -1.531466 -0.012991 0.133336 0.198574 -1.400615 -1.354781 -1.006724 0.249161 0.777319 0.264035 -0.285687 -0.220791 0.872493 1.023374 1.431927 1.542232 -1.115192 -0.211367 -0.040337
M005_OFF 1.422843 0.693016 0.295623 1.589571 -0.748403 0.295090 1.056629 0.094887 -1.229258 0.840524 -0.113569 -0.096030 -0.232852 -0.896736 -1.064817 -0.110175 0.026481 -1.222820 -0.687670 0.422881 1.624498 1.141485 0.864115 0.184716 -0.133680 -0.064985 1.482084 1.137221 -1.213745 0.104333 -0.132594 -0.403126 -0.069603 -0.939835 0.389918 0.055009 -0.448176 1.083144 0.456444 -0.353383 -2.636104 0.624063 0.693098 -1.047886 0.564553 -0.892711 -0.575988 -0.600480 -1.378103 -0.793888 -0.036483 -0.247510 -0.554033 -0.739830 -0.562716 0.103384 -1.410112 -0.202722 1.198801 0.579131 -0.025447 0.310407 -1.511889 -0.039153 1.022840 1.057042 -0.661140 0.012939 -0.676045 -1.100112 0.563267 -0.141537 0.784790 0.320749 -0.103528 -0.341072 -0.223321 -0.041693 -0.109663 0.604878 -0.750030 1.132956 -1.429810 0.068791 -0.102387 -0.585375 -0.769543 0.099387 -0.142816 -0.878905 -0.862877 0.290036 0.706751 0.226722 0.255275 -0.882817 1.739576 -0.581952 -0.484060 -0.967408 0.379461 0.450655 -0.979877 0.404264 -0.506733 -1.198839 -0.242184 0.373282 -0.439579 -0.286053 0.041021 -0.731376 0.356416 -1.087403 -0.367307 0.063805 0.010114 0.398889 -0.259246 -0.155263 -0.183119 -0.446855 0.046608 0.338526 0.373018 -0.371078 -0.987672 0.235169 -0.818703 0.414147 1.335579 -0.477310 1.406744 2.253827 -0.523504 0.272154 -1.057256 -0.344033 -1.324408 0.089038 -0.007183 1.496623 -0.044461 0.348479 2.070259 -0.433151 0.779317 -0.179814 2.097032 1.289546 -0.413692 -0.249354 0.484459 -0.942457 1.344619 0.445940 0.386197 0.410342 1.397155 1.205306 -2.043890 0.552802 0.599132 -0.444483 -1.072355 -0.242139 -1.097793 2.283029 -0.762092 0.204210 0.174684 0.902966 -1.038644 0.054244 0.290974 1.335439 -0.442909 -0.059973 -0.673670 0.995738 2.174224 0.263327 -0.164388 1.448556 -0.262102 -0.044950 0.941892 -0.116688 -0.394584 -0.130603 0.152322 -1.551624 0.224633 -0.272543 -0.207518 0.498767 -0.576673 0.206419 -0.298768 -0.160774
M005_ON 2.171429 1.407177 0.140791 1.264210 -0.478128 -0.996553 0.960066 -0.345558 -0.206223 -0.676712 -1.541290 0.367414 0.408418 -0.112149 -0.351542 -0.258469 0.374469 -2.015803 0.484708 -0.272950 2.248240 0.282714 -0.536873 0.935312 -0.034930 -0.966433 0.842990 0.814469 0.305778 -0.758012 0.769259 -0.569060 0.530339 0.359727 1.341733 -0.218914 0.006772 1.070693 0.382216 0.785797 -1.530668 0.110158 -0.674838 -0.916367 0.867221 0.496428 0.494193 -0.393513 -0.780520 -0.087246 0.268213 0.697403 -0.360057 0.763169 0.137239 -1.172535 -1.015578 -1.759557 0.712839 0.124286 0.859402 -0.213517 -0.273232 -1.397105 0.528158 0.265484 0.879605 -1.096337 -1.247527 0.979922 -0.002410 -0.692764 1.242295 0.031324 -1.058424 0.859424 -0.472503 0.239639 -0.363903 0.768585 -1.186017 -2.071855 -1.065116 0.045086 0.169761 0.534673 0.183372 0.801929 2.154059 0.872103 -0.302584 0.819703 1.677213 0.942926 0.670216 -0.344343 0.800707 0.437039 -0.578977 0.297273 0.438253 1.453352 -0.524525 0.598860 0.505944 -1.064539 0.607417 -0.217152 0.388677 -0.640189 0.052665 0.357265 -0.004566 -1.175264 -0.083152 -0.512314 0.784879 -0.115621 0.713516 0.026066 -0.699283 0.191630 -0.032831 -0.301537 -0.262131 -0.594707 -0.793687 0.496334 -1.112920 0.234990 0.510062 0.007439 0.862732 1.470579 -0.632414 1.807804 -1.778852 -0.433706 0.324156 -1.210155 1.030365 -0.008021 1.916737 -1.306683 0.737441 0.150493 0.495827 2.148684 1.239761 -1.069032 -1.083655 0.850620 -0.352065 0.800781 -0.492237 0.577502 -0.168251 -0.143017 2.240695 0.005499 -1.012917 0.436050 0.427008 -1.070320 -0.578053 -0.084859 -0.195224 1.547124 -0.184324 0.472360 -0.458895 -0.481920 0.529531 0.071216 0.337813 0.726702 -0.090990 0.083479 -1.113973 -0.680885 1.112535 -0.191464 0.114402 -0.390850 -0.002273 -1.323914 -0.897214 -0.153560 0.476964 -0.398341 -0.042600 -1.338542 0.987648 0.702636 0.317521 0.015400 0.743564 -0.268237 1.334100 0.851016
M008_OFF 0.446646 -0.017454 0.359049 1.537460 -2.240717 -0.442913 1.400066 0.362853 -1.085889 0.964872 0.648138 -0.118131 -0.402487 -0.181585 0.435052 -0.677343 1.669699 -2.305423 0.495354 0.138328 2.138597 0.271341 0.945245 0.451860 -1.369050 0.250826 1.387760 0.846949 -0.921610 0.345915 0.480865 -0.600441 0.712949 1.393807 0.701035 0.334982 -0.211778 0.164248 -0.862826 0.128669 -1.649459 -0.603706 1.271577 -1.402331 0.571239 -0.388297 -0.699667 0.622235 -1.299645 -0.964326 -1.215025 -0.157720 -1.949876 -0.551563 -1.106423 -1.845481 -2.315098 -0.752305 0.099729 -0.750085 -0.784806 0.122352 -0.590882 -0.142331 0.849753 -0.507415 -0.212987 0.966344 -0.083301 0.480694 2.806405 0.135147 -1.444015 1.367196 -1.079024 0.698302 -0.209291 1.226624 -0.060356 0.846965 -1.572049 -1.874803 0.186040 0.401451 1.233428 0.323696 -0.830552 0.478159 0.852412 -0.235430 -0.829302 -0.400375 0.914192 -0.104375 0.799305 0.119750 0.602848 0.037265 -0.722538 -0.275336 0.402750 1.537697 0.309542 -0.264221 -0.567225 -0.987426 0.479349 0.580901 0.486788 -0.112953 -1.354309 1.396594 -0.625915 -0.566593 -0.071273 -1.291088 0.917472 -1.430601 -0.110032 -0.685019 1.179729 -0.051395 0.274739 -0.188339 1.293036 -0.027844 -2.016880 -0.996865 -0.622447 0.135565 1.722989 -0.565640 0.733172 0.952473 -0.242238 1.283608 -0.751199 0.702674 0.050728 -0.581336 0.595623 1.153774 0.343015 -0.615349 0.971403 -0.278694 0.459488 0.711107 1.160529 1.374256 -0.561400 0.418273 1.613869 -0.638680 -0.090619 -0.302936 0.097224 -0.321574 1.483658 -0.187202 -1.349950 0.325646 0.615266 0.837366 0.440520 -0.492998 0.273403 1.496077 -1.947608 0.304152 -1.314936 -0.088864 -0.243043 0.234736 0.263004 0.030381 0.436616 0.040890 -0.130311 -0.656286 1.864162 1.607572 0.651972 -0.364283 1.669698 -1.104440 -0.524105 -0.768829 0.606277 -0.096472 0.544867 -1.033840 0.975090 -0.237471 -1.235027 0.496983 -0.323288 1.461426 -1.723469 -0.576763
M008_ON 0.790671 -1.475318 0.546679 -0.441886 -0.136786 2.118470 1.477152 1.743618 0.473079 -0.059041 0.742332 -0.140194 -0.193062 0.550520 -0.715993 -0.188868 1.906261 0.507459 -1.069355 0.723628 2.646444 0.945794 -0.050555 0.542754 -0.107373 0.763174 0.987900 -0.071320 -0.436464 -0.092377 -0.298065 -0.102324 0.849856 -0.170152 1.794537 0.199084 -1.307706 1.227543 0.872176 0.440580 -1.926755 -0.470777 -0.184206 -1.231535 0.152720 -1.053466 -0.442209 0.868746 -0.396123 -1.500868 -0.514707 0.881854 -0.966744 1.571746 -1.680469 -1.493231 -0.594093 -0.795779 1.201278 -0.564492 0.482972 0.279823 -0.234003 -0.374469 -0.008164 0.820459 0.148864 -0.138678 -0.334898 0.134566 -0.074981 -0.900848 0.427548 0.397895 -0.840847 1.069375 -0.851419 -0.955080 0.594426 0.416998 -0.012279 1.362789 -0.237511 -0.065939 0.227392 1.884485 -0.425541 0.380642 1.052167 -1.358284 -0.259583 1.533787 -0.735188 -1.007353 1.055226 -0.468512 1.655859 -0.228142 -0.455494 0.686794 -0.145455 0.201274 -0.957606 0.566114 -0.679007 -1.384144 0.471326 -0.103268 -1.378673 -0.308304 0.933756 -0.097663 2.013440 -2.148213 0.371191 0.372171 -1.085947 -1.242982 -0.292585 0.616877 -0.448835 0.267264 0.522478 -0.528126 -0.538759 0.029228 -1.476751 -0.550099 -1.536452 -0.700896 0.068973 -0.634602 2.189703 1.099912 -1.294656 1.079425 -0.948258 0.857188 0.569921 -0.346449 0.017308 -0.161950 0.833187 -0.686370 0.164773 0.816456 1.021780 1.106679 1.908296 0.491168 -2.699867 1.054247 0.361895 -0.808262 1.420164 -0.534594 0.798686 0.327977 1.070749 0.993442 -1.817817 -0.816270 -0.417323 -0.414998 0.089693 -0.201235 -0.700292 0.221904 1.293390 0.327416 0.208886 0.342012 -1.102639 -0.990247 -0.553553 -0.095541 -0.533383 -0.076142 0.915068 -0.766238 0.626787 0.524085 -1.008709 0.433987 0.329016 0.018874 1.449386 -0.402057 0.068055 -0.228319 0.898700 -1.754898 0.003780 0.534551 0.302738 -0.077694 0.807101 0.275365 1.251403 1.134551
M022_OFF 1.123958 -0.313350 1.079581 -0.668427 -2.438396 -0.400784 -1.098196 0.240021 0.735964 0.105463 1.134897 -1.121972 0.564394 -1.791154 1.576881 0.951446 1.132033 -0.594172 -1.262033 -0.353383 0.548193 0.652908 -0.160742 -0.563125 0.984127 0.673801 1.613451 -0.576284 -0.365269 0.028807 -1.187091 1.451899 0.602967 2.328761 -0.298357 1.138177 -0.203173 0.384081 -0.600366 1.005598 0.959559 -0.929776 0.147269 -1.506726 -0.511882 -0.561342 -0.346006 0.790739 0.999898 0.480760 -0.365044 0.236990 -0.928172 1.324901 -0.343880 -1.609147 0.560392 -0.033266 1.467333 -0.334355 -0.437814 0.575117 -0.302628 0.443861 0.602780 -0.599943 1.932269 -0.265964 0.299629 0.976461 0.691221 0.213009 -0.262515 1.311167 -0.108838 0.438225 0.191608 -1.266791 -0.233340 -0.695575 0.201772 0.187959 -0.550223 1.272333 0.569548 0.350924 -0.548922 -0.188910 -0.239030 0.382308 -0.226578 0.471190 0.318903 -0.556925 0.991185 0.261290 1.647646 0.641202 -0.662441 1.623930 0.558894 -0.843595 -0.031532 -0.704754 -0.728925 -0.363203 -0.203637 0.292992 -1.457473 -0.093013 -0.484063 0.665031 0.390323 -0.527575 -0.569516 1.134646 -0.078561 -1.238799 -0.721904 0.806363 0.134463 -1.749331 -0.711240 0.386480 1.782555 -0.755254 -1.469369 -1.548437 0.254010 -0.072776 0.175796 0.818968 1.060215 0.778933 -0.608279 -0.509818 -0.166527 -1.123493 -0.040638 0.151665 -0.851194 -0.308800 0.412684 1.274105 -0.305184 0.212512 0.194962 -0.146180 -0.163219 1.064009 -1.253706 -0.324352 1.261789 0.054671 0.796233 0.234314 -0.149383 -1.151503 0.759417 -0.307698 -0.092018 0.110766 0.358874 1.814967 0.456111 0.982687 -0.026797 0.176623 0.085062 1.441244 0.444653 -0.021054 -1.485681 0.158749 -0.740204 -1.331035 0.387775 -0.745642 1.600459 -1.169189 0.213770 1.082633 -0.907282 0.369909 2.064202 0.967740 0.734542 0.120922 1.252852 0.028632 -0.108955 0.013223 -0.375817 1.316856 -0.828942 0.251052 0.404904 0.916382 -0.991317 0.562442
M022_ON -0.054074 -0.086070 -0.730206 -0.668587 0.701686 0.400306 0.358258 0.792586 1.147466 -0.406848 -0.552202 0.575847 -0.445292 0.989003 1.192109 -0.029869 1.147884 0.499825 -0.190757 1.751047 -0.404696 -0.789593 0.541461 -1.161354 -0.206291 1.092567 -0.261683 0.789129 0.123639 0.921780 -0.941018 1.074653 1.500412 1.594099 0.637066 -0.295424 -0.391042 -0.719425 -1.083012 0.806525 -0.360485 -1.196159 0.553198 -0.751547 -0.143927 -0.382385 0.534140 0.745047 0.243789 -0.675903 -0.349868 0.666106 -2.860195 -0.664438 -1.026246 0.215302 -1.361100 0.626057 0.980856 -0.134550 0.363094 0.112597 0.635423 -0.853338 -0.469200 -0.361077 -1.066301 -0.045689 -0.290738 -0.055239 0.393669 -0.294804 -1.422307 -0.722519 0.198511 2.567121 -0.568695 1.642391 1.546097 0.311218 -0.931527 -0.443711 0.587662 -0.639527 0.582965 1.630840 0.006028 -1.599669 0.919508 -0.691301 -0.512566 0.071677 -1.714372 -1.220549 -0.425287 -0.164986 -0.419300 0.246402 -1.107377 0.676152 -0.561651 0.658499 0.654317 0.707804 -0.354838 0.389017 0.208664 0.543931 -0.572485 0.907892 -0.705693 2.437394 1.716625 -1.514389 -1.413042 -0.569749 -0.367113 -1.301966 0.369531 0.505093 -0.290476 -0.027652 0.243740 0.160813 0.111624 -1.464053 0.546661 -0.970026 -0.298590 -0.012276 0.368673 -0.687336 0.165223 -1.271215 -0.444914 1.142903 -0.900188 1.357514 0.856451 -1.151196 -0.942783 0.678874 0.203603 -0.312626 -0.884103 0.473202 -0.221189 0.534773 1.633684 1.212366 -1.004226 -0.133388 -0.888904 -0.330015 0.235285 -0.971842 0.169648 -0.914490 -0.480023 -0.715007 -0.767462 0.136830 0.300611 -0.285144 -0.405492 -0.492728 0.157486 0.534460 -1.073789 0.469300 -0.422287 -1.902925 -1.398226 -0.150030 -0.698271 -0.138757 -0.319004 -0.697045 0.118916 -0.894242 -0.417273 0.450061 -0.124354 -0.819991 0.595347 -0.420516 1.480974 0.772019 0.625971 1.392548 0.603505 -0.517516 0.125867 -0.430072 1.110022 -0.786963 -0.866056 0.055737 -0.934799 -1.008703
M012_OFF 0.019190 -0.703159 -0.105375 -1.669829 0.790754 1.721771 1.147014 0.312627 0.642498 -0.277358 1.596973 -0.069424 0.023855 -0.557566 0.918867 -1.254488 0.534105 0.183308 -1.164531 1.398250 -0.192494 0.938207 -0.299884 -0.893157 -0.785754 -1.216019 -0.258885 -1.158310 -0.118128 0.449607 -0.238631 1.607366 -0.391000 -1.056979 0.963859 1.213617 0.532261 -0.868272 -0.488291 1.544414 0.038016 0.368043 -0.867443 -0.457587 -1.296115 0.784591 0.339972 1.352426 1.212000 -0.039343 -0.420523 -0.658051 0.200479 0.374673 0.518185 -0.293186 -0.228896 -0.399075 -0.500158 0.233768 -0.658404 0.086401 1.178261 0.053443 -1.574183 0.020116 0.698047 0.987708 -1.011992 0.864872 0.380539 -1.450721 -0.710970 0.160335 -0.519187 0.455396 1.097294 -0.738474 -0.243393 -0.497851 0.801971 -0.921462 2.262457 1.593502 0.834108 -0.536602 0.691323 0.864256 0.253455 0.085723 -0.284150 0.040807 0.278696 -0.145502 -0.248113 0.537064 -1.183364 -0.101289 -0.242544 -0.595079 -0.378485 0.006692 0.097908 -0.523738 1.146281 -0.012883 -0.863304 0.071676 0.500517 0.945392 -1.584039 -0.177419 0.007466 0.509401 1.018000 -0.981283 -0.566352 -0.530675 -0.927324 -0.643716 0.364652 0.088044 -0.890077 -0.366484 0.380590 -0.058468 0.275177 -2.031127 -0.124181 0.761226 -0.418703 -0.402117 0.420611 0.605311 -1.890382 1.296068 -0.224546 -0.782100 -0.408886 -1.021118 0.155947 -0.328501 -0.729169 0.730245 -0.836396 1.326301 0.555009 -0.662245 0.659663 -0.930746 0.452992 0.062222 1.350658 -0.041363 0.581430 0.950687 -0.234805 -0.713671 -0.693381 0.615147 -0.864249 -1.099617 -1.377378 -0.602333 1.244176 1.234684 -0.601599 -0.443905 0.733267 -1.127379 0.639779 0.125583 -0.301878 0.995818 -1.412603 0.210433 0.971705 1.421521 0.103937 1.050881 0.614381 0.062946 1.424690 0.674059 1.031280 -0.690361 -0.248065 -0.000103 -0.111079 0.715109 0.945689 -0.921047 1.046554 -1.838054 0.054691 -0.135451 -2.283007 0.251163 0.087141 0.140071
M012_ON -0.838034 0.038975 1.253001 -1.415814 -0.339478 0.157375 2.119430 0.331842 0.034277 0.163886 0.664706 -0.244363 0.946355 1.549055 1.151167 -0.795126 0.550425 0.421455 -1.870027 0.950796 0.413090 0.534506 -1.078193 0.498973 -0.519187 -0.785170 1.021358 1.387137 1.123192 1.039789 0.824493 0.606759 0.518236 -0.476651 0.078599 1.088694 -0.063094 -0.027328 -0.171697 0.602942 0.417610 0.547241 -0.067445 -1.995998 -1.349025 -0.221210 -0.275912 0.766334 0.485829 0.784728 0.593379 -0.154226 0.478701 0.475279 -0.935931 -1.246859 0.294870 0.492157 -1.363012 -0.025246 -1.399909 -0.732453 1.029402 0.364007 -0.564889 -0.832782 0.997093 1.024780 0.057679 0.893115 -0.983703 -0.735657 -0.089511 -1.001890 -1.126441 0.377273 0.932793 -0.562136 -0.587127 -1.538112 0.528349 -1.264683 1.137983 -0.311075 -0.562655 -0.214995 0.786827 0.646986 -0.653280 -1.300488 -0.443634 -0.652928 0.145642 -0.013936 -0.203537 -0.001793 -0.362773 -0.330314 0.834670 -0.048773 -1.177307 0.656931 1.852744 -0.585288 -0.423508 1.798939 0.573110 0.295498 0.958215 0.420798 -1.161688 0.042145 -0.587386 0.419229 0.741057 0.270449 -1.268098 -0.383841 -0.282730 -0.419874 0.572244 0.669533 0.021093 -0.375525 0.152206 -0.488292 0.462007 -2.206069 0.333538 0.354833 -1.353731 -0.408644 0.372074 -1.007030 -1.012633 1.319864 -1.062072 -0.625390 0.867404 -0.601537 1.167855 1.162873 -1.177601 -1.062062 -0.808387 0.597002 0.754698 0.119991 -0.257077 -1.313718 0.650084 -0.040520 0.778586 0.304128 0.129019 -0.698245 -1.200198 -0.552652 -0.379231 0.161699 -0.924682 0.295187 0.024998 -0.571150 1.445059 0.026559 0.194903 -1.118655 0.687701 -1.524212 0.681954 0.562007 -1.593234 1.178407 -2.276979 0.392817 -0.517564 1.121274 0.330635 1.283611 -0.991655 -0.911664 0.660599 0.539383 -0.413237 -0.208851 0.493059 -1.085965 0.596979 -0.457602 -0.264505 -1.429858 0.224043 -0.636176 -0.227882 -0.068749 -2.193153 1.554585 0.618642 -0.538533
M016_OFF -0.102001 -0.552323 0.475751 -1.176646 0.433839 0.810155 0.354725 -0.015765 0.512049 -1.082226 -0.012818 -0.263057 -0.074976 -0.597548 1.158504 -0.348526 0.262997 -0.458548 -0.235455 0.653721 -1.737994 0.033034 1.144373 -1.088965 1.072226 1.356235 0.523897 0.904737 1.254269 0.415087 -0.718273 -0.298090 -0.559695 -0.010996 -0.578266 0.153147 0.252788 0.514187 0.350795 -1.646455 -0.327913 -0.369137 0.823559 -0.485549 0.058259 1.559191 -0.632736 0.288369 1.508671 0.871101 0.257544 -0.183887 -0.781697 -0.531406 0.340249 1.177528 0.659734 0.240430 0.504060 0.141899 0.402396 -0.381811 0.194699 -0.134584 -0.749511 0.067051 -1.337544 -1.289146 0.476191 -0.710662 -0.714932 -0.653168 0.073195 -0.712772 -0.256508 -0.779090 0.345594 -0.031192 0.074755 -1.872206 -0.738424 0.829733 0.485246 -0.848394 0.079723 0.229188 -0.480868 -0.109545 0.761491 0.547645 0.051200 -0.883498 -0.273444 0.283950 0.816097 0.605514 0.029058 0.874262 -0.648488 0.262729 0.108949 0.015724 -1.186181 0.715830 -0.632271 1.357637 -0.105591 0.321037 0.801917 -1.063089 -0.107151 -0.750549 -1.211567 -0.321729 1.019761 -1.181602 0.896381 0.847793 0.667213 -0.011365 -0.618639 -0.087752 1.095844 0.254490 -0.036548 1.200879 -0.280083 0.926105 -0.491141 -0.395690 -1.085445 -0.105917 -0.428966 -0.320121 -1.244221 -1.915250 1.745726 -0.159550 0.617527 1.261262 -0.738372 -1.315256 -0.103358 0.183967 -1.398203 0.435061 -0.691106 -0.332607 -0.426310 -0.045827 -1.133169 -0.313470 1.276553 0.577216 -2.721830 0.040651 1.152588 -0.719831 -1.695345 -0.925907 1.444869 0.760880 1.025077 3.106716 -0.007620 0.011526 0.325800 -0.989859 -0.890865 0.072544 0.076439 0.690477 -0.177739 -1.242448 0.511332 -1.472901 1.174395 -0.060140 1.166330 -0.089597 -0.589112 1.608497 0.167061 -0.409044 0.376553 0.887343 -0.242969 0.482493 0.239745 0.049742 -0.506893 0.527060 0.854688 0.321548 2.101047 0.859510 0.360286 0.754376 0.541585 0.492508
M016_ON -0.347704 -0.249584 -0.126959 -1.069903 0.361225 -0.752220 -0.791311 -0.409803 0.487757 0.081489 -1.295094 -0.593369 -1.289453 -0.455647 1.487736 -1.055865 -0.839390 1.449819 0.668858 -0.542615 -2.040802 0.643432 0.305086 0.106114 -0.027150 -0.093134 -0.850114 0.736951 -0.223423 0.647417 -0.869188 0.076577 0.126760 -1.300488 -1.366943 0.639376 0.986539 0.002752 0.263040 -0.826959 0.370066 0.204981 -1.249961 0.582220 1.188081 0.278912 -1.666398 -0.265711 1.468222 -0.370085 0.267923 0.212055 -0.131471 0.550647 -0.639212 1.771574 0.732734 1.186622 -0.340224 -0.076422 0.284621 -0.675018 0.151382 -0.056355 -0.352501 0.093390 0.301616 -1.306035 1.410063 -1.483892 -0.625757 -0.441786 -0.788387 -0.504070 0.399720 -0.433830 0.969359 -0.272893 -0.936815 -1.526798 -0.067726 -0.275562 0.669558 -1.195229 1.032798 0.396873 -0.483669 -0.443837 -0.518160 0.428886 -0.861551 -1.127590 -1.582200 0.396242 0.226195 0.024644 0.057091 0.452012 -0.657892 0.273331 0.121476 0.884928 0.187846 1.223410 0.389727 2.095577 -0.107667 0.464355 -0.847808 0.275232 0.316944 0.255698 -0.988957 0.030680 -0.013130 -0.239719 0.689854 0.118857 -0.071815 -0.812739 -0.750738 0.384407 0.646850 0.138413 -1.153182 -0.022076 -0.404406 1.418055 -0.883905 -0.990509 -0.144865 -0.494165 0.872286 -0.798894 -0.382254 -0.052376 1.251860 -0.157912 0.748430 0.843777 0.004160 0.088341 0.276145 0.649571 -0.467456 0.245165 -0.092347 -0.876745 -1.071834 0.454632 -0.718584 0.852958 1.706118 -0.185168 -1.316607 0.198666 1.904962 -0.928105 -0.154091 -1.553465 0.889877 1.010729 1.010851 1.419548 0.699092 0.439226 0.630102 0.157459 -0.296037 -0.776383 -0.398762 1.132435 0.341954 -1.009006 -0.770485 -1.383237 -0.316468 -2.876418 1.143470 0.098032 -0.907686 0.857304 0.334916 -0.676531 0.542007 0.034963 0.231101 0.600683 0.528732 0.647830 -0.235247 0.212418 -0.329455 1.277711 0.866421 -0.590491 -0.171809 1.526062 0.751682 1.588552
M006_OFF 1.323199 -0.695134 0.596298 -0.067598 -0.816983 -0.516153 2.925924 3.046788 -1.810747 -0.919352 0.073165 0.183748 -0.319964 -1.041162 -0.689837 0.757133 0.469232 -0.554918 -0.428446 1.076506 3.511450 0.266880 -0.141293 0.210896 0.175976 0.066789 1.126812 -0.266711 1.195629 -0.569726 -0.423248 -0.150335 -0.425696 0.052537 0.793598 0.571767 -1.102006 -0.214856 1.476718 0.192842 -2.716449 -0.851004 0.213323 -1.271455 1.039742 -1.342449 0.493161 0.387698 0.071216 -2.261789 -0.713736 1.239295 -1.905736 0.501853 -0.700244 -1.965186 -1.717667 -0.332363 2.473305 0.119944 0.896594 -0.427070 -0.819845 -0.060216 1.134922 -1.065619 0.645646 -0.394807 0.189746 -0.156024 0.751821 -0.604628 -0.561067 0.160326 -0.606064 0.841502 -0.658521 0.767867 -0.145534 1.134162 -0.428012 -0.754635 -1.714699 0.544939 0.236626 1.463913 -1.074058 -0.393009 1.019670 -0.737650 -1.800043 0.995792 0.308379 0.376224 0.827487 -1.068132 -0.179814 -0.350241 -0.252335 0.801440 -1.322150 1.404128 -0.981998 1.335164 0.145884 -1.075770 -0.499192 -1.266002 -0.444757 0.840110 -0.368875 1.596684 1.280288 -1.745575 0.312783 0.126979 0.893896 -0.258788 -1.380945 0.325330 -0.011417 -0.050192 -0.140074 -1.518263 1.271154 0.424450 -1.694427 -0.485594 -0.953932 0.818443 0.624386 -0.160889 2.480625 2.405986 -1.499506 1.435458 -0.652599 -0.410952 -1.326941 -0.400053 -0.295845 0.964450 0.989252 -0.419851 0.925412 1.146580 0.102959 0.862702 1.575125 1.172223 -0.217433 -1.149843 0.338511 -0.255755 0.533973 1.002948 0.823592 -0.190769 0.563298 -0.474574 -0.510327 0.662946 0.395654 -0.198147 0.096793 -0.015360 0.654878 0.799959 -0.680643 0.642908 -1.967219 -0.958184 -0.908794 0.803424 -0.221341 -0.528952 -0.323965 0.016854 0.867811 0.363135 0.571692 -0.063749 -0.675959 0.884218 0.477353 -0.740625 -0.857103 -0.451726 1.155131 -0.122163 1.530621 -2.316607 0.207904 1.284079 -1.764497 0.536797 -0.277845 0.868534 -0.165564 -0.803910
M006_ON 0.541160 1.051874 1.050881 1.537748 -1.599355 0.214848 0.648285 -0.602832 0.752783 0.262370 -0.273191 0.826709 -1.567728 0.381081 0.577578 -0.481324 1.397271 -1.316677 -0.314941 -1.448487 1.731386 1.096961 0.447760 0.909892 -1.403515 0.413869 0.802136 0.753374 -1.969276 0.891141 0.323279 -1.219865 0.573289 0.206397 1.484660 -1.304481 -0.542412 1.065009 -0.659660 0.131098 -2.019674 0.165665 1.319705 -1.400033 -0.821382 -1.139338 -0.486934 -0.026681 -1.995750 -0.830679 0.335916 -0.643761 -1.693175 0.796473 -0.904840 -1.000591 -0.679818 -1.074884 -0.769960 -0.689317 -0.718692 1.037089 -0.558456 -0.396261 0.275870 0.282872 0.658958 1.146818 -1.348067 -0.310672 1.193488 -0.511639 0.604082 1.423443 -0.716643 1.018151 -0.570375 -0.920708 0.544068 0.424596 -1.582975 -0.205859 0.222920 0.438002 0.319156 1.245744 -0.389826 0.598052 0.234716 -0.652987 -0.288048 -1.513659 0.715760 -0.798017 -0.607540 -1.025375 2.929689 0.928979 -0.805717 0.611959 0.315561 1.338900 0.005441 -1.614022 -1.232714 -0.586864 1.462564 0.297249 0.022537 -1.362543 -1.276987 0.351342 -0.279388 -1.842676 -0.356026 -0.493609 -1.176233 -1.314062 1.205774 0.277658 -0.125278 0.645916 -0.505392 0.517106 0.657670 -0.759261 -1.227864 -0.588644 -1.066024 -0.940556 0.905496 -0.101922 1.258802 1.324631 -0.255974 1.287727 -1.612378 0.342832 1.082431 -0.363129 0.599493 0.172297 0.853281 -0.801041 1.098534 -0.099649 1.349076 -0.127603 2.344895 0.002574 -2.264597 1.565688 1.612602 -1.229128 1.413165 -1.198222 -1.137562 0.528040 1.286396 0.603662 -3.152985 -0.429251 -0.326322 0.091027 -0.712943 0.600191 0.163537 2.617946 -0.927227 0.176770 0.168347 0.846843 -1.066659 -0.368041 -0.202922 -0.077101 -0.065475 -0.688786 -0.348268 -0.283684 1.750864 1.398069 0.411222 1.040447 1.759476 -1.642554 0.718220 0.201615 -0.970763 -0.118442 0.426140 -0.860103 1.450544 -0.000349 0.418341 0.456847 1.112343 0.622615 0.250268 0.656036
M026_OFF 0.087681 0.721216 -0.171007 0.061454 -0.663902 -0.606239 -0.623268 0.021955 -0.559850 0.325573 0.390630 -1.070081 1.162273 0.678310 -0.170122 1.117747 -0.402662 -0.294375 -0.134628 -0.834318 -0.654936 -0.378473 0.209963 -1.266381 -0.569183 -0.829774 0.382251 -0.560250 0.494056 -0.002961 -0.087058 -0.282926 -0.601622 0.164633 -0.556599 -0.687560 -0.938776 0.235517 -0.637452 -0.500806 0.533064 -0.142994 -0.154551 -0.187034 -0.917389 0.310481 0.255073 -0.203778 0.546081 1.119705 0.163125 -0.353040 -0.120303 0.584727 0.166965 1.281190 -0.482220 0.397967 1.856815 -0.106393 1.045642 -0.744721 0.299669 -0.742084 0.490298 0.158181 1.184883 0.932799 -0.004315 0.651751 0.888972 0.411466 0.102825 0.123376 1.167193 0.570983 -1.498696 -1.365908 0.891096 -0.334677 -0.054150 -0.278765 -0.113413 0.013131 -0.974805 -0.793553 -0.606206 -0.354969 -0.216965 -0.240706 0.301645 0.807699 -0.166559 -0.783789 -0.426928 0.332886 -0.250863 0.463553 -0.475196 -0.049856 0.053500 -1.142194 -0.247941 -0.189877 0.642370 -0.032200 0.678704 0.356256 0.000528 0.853321 -0.081718 -1.023931 -0.122588 0.792709 -0.397062 0.603149 0.170622 1.515242 0.760569 0.780122 -0.585665 0.065565 -0.251230 0.439251 0.505147 -0.387287 0.334309 0.079267 1.108670 -0.381380 -1.374101 1.072592 -1.982602 -0.547006 0.029420 -0.171470 0.833792 -0.882351 -0.655181 -0.072905 0.352268 -0.489822 0.315403 -0.328592 0.110350 -0.825102 0.305683 -0.888927 -0.218129 0.334456 1.150147 0.222127 0.003894 0.366601 0.267897 0.006401 0.124028 1.552704 -0.144136 -0.364249 0.631720 -0.696384 -0.577439 0.024328 -0.476303 0.235794 -0.376685 1.102366 -0.295934 0.172975 0.452171 -0.612059 1.036249 0.149783 0.784787 0.545809 -0.149457 -0.134798 0.590535 0.145398 0.250046 -0.704370 0.162038 -0.068018 -0.651330 0.535494 -0.189767 0.055203 -0.813505 1.042109 0.778422 0.249937 -0.491514 0.249505 -0.724884 0.585338 -0.383633 -0.673495 0.126206 0.137593
M026_ON -1.556274 1.044124 -0.643553 -0.176367 1.057874 0.088508 -0.018272 0.720243 -0.117750 0.389826 0.275835 -0.286984 0.586963 0.156818 0.391220 1.131494 -0.504477 -0.046207 1.563962 -1.252439 -0.807850 -0.676968 -0.417283 -0.956958 0.524139 -0.189279 -0.219921 -0.529927 0.188167 -0.006072 0.189120 0.375080 -0.329375 -0.097210 -0.312608 -0.625101 -0.430432 0.035144 -0.935237 -0.994416 0.344234 0.458914 -0.528527 0.285809 0.866198 0.060743 -0.169364 0.447146 -0.353958 0.776702 0.520074 0.723484 0.928859 0.105723 -0.027154 1.748532 0.025593 -0.099222 0.872148 0.205420 2.160332 -0.202135 1.597430 -1.127669 1.121616 0.876237 0.211858 0.041491 -0.588414 0.989895 0.611002 1.095314 0.161179 -1.109165 0.410876 -0.147296 -1.553974 -0.463918 0.514768 0.219636 -0.811516 -0.912659 0.585086 -0.026583 -1.235142 -0.579142 0.221069 0.831657 -0.854329 0.437416 0.858023 -0.001440 -0.813576 -0.037433 -0.866223 1.184545 0.230791 0.094282 -0.653374 -0.148401 -0.891070 -0.402044 -0.269530 0.077525 0.039225 0.822881 0.593721 1.004508 -0.037496 0.510516 -0.352589 -0.337393 0.121034 0.194266 -0.408523 0.424718 -0.524843 0.643991 -0.384305 -0.016723 -0.053884 0.099269 -0.823258 1.318424 0.376231 -0.652753 0.344179 0.973456 1.436109 -0.174064 -1.563753 0.489509 -1.362902 -0.466587 0.489083 -0.172266 0.271250 -0.200741 -0.014591 -0.288648 -0.279194 -0.530442 -0.287664 -0.623456 0.283107 -0.104734 -0.100466 -0.989222 -0.196887 0.725751 1.225631 -0.871369 -0.836816 -0.034001 0.573888 -0.543182 -0.821607 0.282528 0.203354 -0.005384 0.735825 0.659427 -0.358276 0.009214 -0.128574 -0.484704 -0.048349 0.933130 -0.507636 0.167715 -0.370201 -0.248632 0.230343 -0.124526 -0.303985 0.385876 -0.000477 -0.664276 0.468417 0.729082 -0.551104 -1.066384 -0.171630 0.650735 -1.376944 0.193351 0.307238 -0.789161 -0.447672 0.559321 0.263830 0.320704 0.103979 -0.454946 0.107117 -0.143180 0.506691 -0.267031 -0.421846 0.372270
M004_OFF 1.979242 1.575039 -0.353836 2.732852 1.248359 -0.042876 1.542294 0.739617 -0.328426 0.093677 -1.725662 0.263692 2.099613 -0.542135 -1.300961 0.229734 -0.880297 -1.872387 0.878666 0.003556 0.199159 0.055705 0.555731 1.035444 -0.890617 -0.530729 1.076140 1.002545 -0.558123 -1.485316 0.794187 -0.965975 0.465432 -0.189735 1.929030 0.473079 0.116630 1.533112 0.746015 -0.362892 -1.952116 -0.411125 -0.281934 0.280569 0.833330 1.516533 0.366641 -0.579350 -0.645712 0.323561 -0.855559 0.289292 -1.062818 -0.330937 -0.523304 -0.376923 -0.859641 -1.248562 1.747863 0.540996 0.713378 -0.472419 -0.501642 -1.191521 1.086633 0.888570 0.077578 -0.691338 -1.147792 0.779356 -0.193877 -0.918809 0.888542 -0.682303 -0.276642 -0.341825 -0.440557 -0.539560 -0.427573 1.237859 -1.705599 -0.335026 -2.063735 -0.459995 -0.984021 -0.544128 -0.654129 -0.227387 0.745052 0.355591 0.801961 0.918443 1.942248 1.081994 1.558082 0.296178 0.967070 -0.365458 -0.265719 -0.074099 1.659123 1.287091 -1.182615 0.630752 -0.919034 -1.158841 -0.368611 0.459419 1.637878 -0.991600 0.765761 -1.592458 0.246449 -0.806996 -1.231692 0.024942 0.029235 0.085187 0.623209 -0.533644 0.044646 -0.691095 0.227226 0.853965 -0.632676 -0.649213 -0.576254 0.809559 -1.141605 0.037807 1.013359 0.373584 0.625142 2.430715 0.560101 1.159746 -1.209363 -0.488519 -0.792523 -1.176285 0.694346 1.622560 2.128051 0.585511 2.167219 -0.148809 0.207113 0.852485 1.480302 -0.956230 -0.863183 0.176467 -0.251784 -0.939420 0.604879 1.294208 0.548857 -0.342646 2.721630 0.884753 -2.858910 0.152792 1.695798 -0.852251 -0.359470 0.030843 -0.504966 2.373696 -1.200875 -0.333579 0.244286 0.413573 -0.384971 0.236947 -0.099173 0.525248 -1.007955 -1.214430 -1.447927 1.141666 1.551786 0.248726 -0.436261 0.628129 0.067800 -0.995141 -0.196217 0.145112 -0.876212 -1.252728 0.281777 -0.462598 -0.135976 0.396853 -1.068869 0.036057 0.381311 -0.155848 -0.265479 0.189461
M004_ON 2.623288 1.591473 -0.883469 0.964209 -0.667718 -1.307067 -0.401313 -0.598960 -2.148570 1.138111 -0.892187 -0.254716 -0.714300 -0.029426 -0.742954 0.692839 0.014731 -2.485125 -0.076390 -0.259460 1.558926 0.758829 -1.231972 -1.215777 1.234466 -1.131354 1.139796 1.611455 0.551634 -0.316718 0.011104 0.007373 0.044044 -1.042168 0.532642 -0.371344 -1.388985 0.909675 0.122450 -0.359262 -2.080899 1.404521 -0.184108 -0.723143 1.491796 -0.709239 -0.505225 -1.036065 -1.852199 -0.652779 1.287212 0.774499 0.619557 -0.566504 0.382654 0.691243 -1.696487 -0.418418 0.365803 0.791920 0.825458 0.953679 -1.987514 -0.717988 0.477847 0.785438 -0.487778 -1.293720 -0.487326 0.246103 0.215603 0.798013 1.149872 -0.364382 -0.646652 0.812994 -1.548212 0.515949 0.308404 0.922019 -0.656144 0.706850 -2.334688 0.092036 0.954955 -0.170267 -0.933792 0.892303 0.814800 0.073783 -1.960996 0.423737 0.607157 -0.031621 -0.387093 -0.902558 0.822113 -0.573809 -0.198121 -0.463125 0.642552 -0.137212 -0.656553 -0.117309 0.175122 -1.200069 0.768996 -0.638126 -1.068563 -0.396083 -0.339988 -0.125646 0.262798 -0.634106 -0.160199 0.412269 0.732672 1.430584 -0.559998 0.428601 -0.724497 0.278233 0.401105 -0.765822 -0.035693 0.223569 0.224964 1.362922 -0.752849 0.895370 1.020536 -0.508125 1.444140 1.138171 -1.867178 -0.026902 -1.179706 -0.183469 -0.372398 -1.416574 1.207298 0.792700 -0.231946 -1.350601 1.452896 -1.071862 1.085895 0.718811 2.511133 -0.205439 -0.740239 0.671640 -1.048541 0.422589 -0.832176 0.128134 1.025705 0.203305 1.909987 0.178528 -1.008426 1.078191 0.326936 -1.281888 -2.118620 0.022439 -1.992465 1.744652 -0.017119 1.185591 0.309450 1.003310 -0.256564 0.166128 0.996729 1.300798 0.292582 0.737018 -0.819653 -0.235737 2.923222 0.035907 0.559680 0.781783 -0.729374 0.505881 0.314692 0.177834 -0.531898 -0.711586 -0.541315 -2.268941 1.178012 -0.086898 0.592227 1.246303 -0.302652 -0.493463 0.559439 -0.030710
M027_OFF -1.729980 0.512406 -0.623554 0.023882 -0.239677 0.105790 0.199182 0.854805 0.290551 0.788970 0.003519 -1.753051 1.169028 -1.518556 0.243596 -0.151740 -0.285731 -0.391690 -0.517382 -0.361482 0.043128 -0.194153 0.042053 -1.030081 1.079039 0.379351 0.760094 -1.508948 0.426863 -0.062136 -0.064164 0.808380 0.085293 0.771040 -0.920669 -0.895464 0.459993 1.336243 -0.587624 -0.444074 0.739904 0.226245 -0.039500 0.989131 0.371859 -0.582456 -0.207564 0.692007 -0.424066 0.254204 0.435056 0.506800 0.323482 1.110642 -0.752588 0.504544 1.316820 -0.395036 1.475962 -0.167063 1.084764 -0.547052 1.274063 -0.303117 0.567904 0.985794 0.872949 -1.463414 -0.234928 0.803837 1.113291 0.260170 0.257325 -0.064851 1.150454 -1.098027 0.058020 -0.764114 -0.871044 0.576622 -0.926169 -1.329960 -0.643690 -0.059066 -0.609674 -0.706362 0.520744 0.882416 0.520431 0.339546 1.058774 0.034084 -0.150305 -0.046392 -1.213100 1.403040 -0.201293 0.813117 0.017785 0.218740 -0.419089 -0.356754 -1.235609 0.006260 0.322100 0.486956 0.891403 0.676485 1.149695 0.481211 -0.328242 -0.965834 -0.376494 0.064680 -0.193978 -0.324569 -0.255769 1.036986 -0.238032 0.489433 -1.041042 0.330129 -1.754372 0.797501 0.262687 -0.297895 0.190507 -0.276853 0.816489 -0.001184 -1.100676 1.464258 -1.056667 -0.832059 0.549517 -0.656567 0.112145 -0.527687 -0.605590 0.269117 -0.162356 -0.673738 0.099108 -0.492755 0.776020 0.024336 -0.049026 -0.682376 0.460297 1.263241 0.346981 -0.803871 -0.342099 0.083182 -0.477221 -0.116539 -0.958747 0.297386 -0.145837 1.357885 1.088381 1.307292 0.179162 -0.135753 0.030670 0.124095 -1.140196 0.239818 -0.662594 0.539754 -0.212652 -0.354027 0.127129 -0.775031 -0.476757 0.676112 -0.734691 -0.920967 0.389730 0.633961 0.121688 -0.503693 -0.150313 0.933235 0.198313 -0.534539 0.103282 -0.749734 -1.239705 0.368923 0.677310 1.142514 1.272533 0.308486 0.649373 0.021335 0.488041 -1.076370 -0.685375 0.063084
M027_ON 0.357780 1.218851 0.408409 0.353408 -0.114152 -0.823183 0.221296 0.308071 -0.651743 -0.922704 -0.566274 -0.218279 0.276795 0.646116 0.351255 0.842749 -0.186044 -0.773024 -0.562995 -0.727212 -0.599578 0.455677 0.571207 -0.603143 -0.036931 -0.521621 -0.314899 -0.253733 -0.348412 -0.234151 -0.802010 -1.068456 -0.423795 -0.506250 0.266628 -0.602665 -0.481560 0.012432 -0.948243 -0.432514 -0.489179 -0.421238 0.083186 -1.078037 0.179768 1.433209 -0.275773 -0.620363 1.237487 0.741985 0.668831 -0.022845 -0.179082 0.551783 0.338087 1.732068 -0.725758 0.553420 0.888448 0.099609 1.979530 -1.061610 0.659075 0.144319 0.687761 -0.502642 -0.295930 1.206304 -0.334214 0.593849 -0.206954 -0.297518 0.396921 -0.132326 -0.049010 0.913915 -0.466840 -0.099026 1.331707 -0.626495 -0.236430 -0.643745 0.562135 -0.364732 -0.640614 -0.926074 -1.006996 -0.510439 -0.174311 -0.519003 0.260111 0.955796 -0.009050 -0.574242 -0.011352 -0.262185 0.044582 0.105232 -1.552093 -1.532919 -0.999680 -0.363127 0.360373 0.702967 0.661476 0.017684 -0.209461 0.649507 -0.823179 1.103645 0.633766 0.507232 0.087249 1.016504 0.167302 0.496551 0.602127 1.375283 1.158260 0.300414 -0.638589 0.231984 0.440582 1.096045 -0.111717 -1.261639 0.426321 0.664862 0.463239 -0.448141 -1.065765 -0.386697 -1.370202 0.226189 -0.253738 0.062884 0.508000 -1.229290 -0.646985 0.620525 -0.433459 -0.148773 0.565054 -0.298260 -0.144622 -0.547122 0.107502 -0.108066 -0.921009 0.737014 0.443038 -0.031602 -1.141308 0.996074 -0.500490 -0.456336 -1.174236 0.565193 -0.316989 0.143227 0.120705 -0.526399 -0.407145 0.177317 -0.858513 -0.395086 0.602120 0.438237 0.236274 -0.511168 0.212894 -0.586648 -0.289683 0.128049 -0.320467 0.295301 0.876806 0.159669 -0.760985 0.688927 -0.430764 -0.185083 0.065104 0.184907 -1.569865 0.066421 0.621186 0.235779 -0.415062 0.502993 0.761770 -0.432920 -0.805323 -0.203248 -0.164452 -0.208998 -0.518358 -0.572190 1.003457 -0.753989
M023_OFF -0.365437 0.704967 -0.164070 -0.222403 -1.198865 -1.068866 -1.822940 -0.093335 0.765500 0.486026 0.330506 0.336421 -0.387987 0.587289 0.881783 0.808295 -0.560827 0.218288 -0.014031 1.424915 -0.632999 -0.657876 0.593310 -1.150370 1.281386 0.413337 1.890699 1.702956 0.885367 0.989995 -1.597512 2.068965 2.027396 3.339879 -0.047392 0.680419 -0.115224 0.785833 -0.211492 1.542335 0.173662 0.641638 -0.621195 -0.818261 -0.597216 -1.228383 0.716074 0.789815 0.192831 -0.272978 -0.141755 0.778056 -2.914169 -0.228962 -0.564751 -0.323518 0.431727 -0.054562 0.705279 -0.176018 0.452820 0.657953 0.639485 -0.659741 -1.587981 -1.233959 -0.634856 -1.307213 0.383968 0.012040 0.207153 -1.247250 -1.181334 -0.048612 1.655505 0.975424 -1.113400 0.048174 0.209487 -0.792845 -0.095281 -0.161402 -1.023236 -0.496188 -0.808369 1.681974 -0.261926 -0.285298 -0.141831 1.029884 -0.932639 1.250551 -1.039632 -1.268569 0.621928 0.547833 0.837762 0.690469 -0.375922 1.097555 -0.298997 0.175776 -0.454896 0.350006 -1.215530 0.232019 -0.207543 -0.246669 -0.352264 1.043520 -1.816470 0.810650 0.479809 -1.938073 -0.048464 -0.296692 -0.514033 0.393697 0.465472 0.949828 0.139730 -0.573591 -0.447419 0.464112 0.590524 -2.527745 2.115925 0.889157 -0.707063 0.305588 -0.281714 1.101939 0.134717 -1.403941 -1.042032 -0.988933 1.144519 1.319307 -0.667564 0.126195 -0.584858 0.386168 0.246305 2.475539 -1.791720 0.751442 -0.506248 1.037042 1.490766 1.271552 -0.295249 -0.298725 0.667554 1.252787 0.130471 -0.106432 -0.112318 0.194480 -1.041725 -1.083949 -1.594375 -0.150160 0.133692 0.012332 0.050686 0.412019 -0.646755 0.125513 -0.544946 -0.752866 -0.232812 -0.975770 -0.155056 0.749428 -0.280090 0.445635 -0.394139 -1.104438 -0.655875 -0.266244 -0.224534 -0.802580 -0.283620 -0.161257 0.487758 -0.663014 0.549014 0.471298 0.080910 -0.316765 -0.188850 0.691492 0.276157 -2.240894 0.105566 -0.662018 -1.185665 0.521364 -1.495772 -0.740201
M023_ON 2.774695 0.721818 0.008891 -1.360863 -0.076434 0.625669 0.504505 -2.003227 0.635599 0.196274 -0.329458 -0.357303 -0.004878 -1.166791 0.876852 -0.365935 1.886330 0.668075 -1.235331 0.110275 0.395661 -1.055644 -0.184124 -1.005647 0.061474 1.380509 -0.356320 -0.305841 -0.076673 -0.157628 -0.300219 1.899715 0.576515 1.063554 -0.170835 0.161936 0.700366 -1.086708 -1.159668 -0.364233 1.283738 0.482926 -0.177990 -1.172996 -0.422612 -0.055245 0.259562 0.029075 1.331795 0.744437 -0.347685 0.053278 -0.683549 -0.877763 0.878139 0.837173 0.060939 0.433113 0.972229 -0.138879 -1.010403 0.556706 0.425933 -0.784409 1.516782 -0.163203 1.922585 -1.349924 -1.894869 1.140221 -1.032778 1.658625 0.877271 -0.855590 0.089440 1.951403 -0.272151 -0.148043 0.345906 -0.185923 0.383175 -0.372476 1.179114 -0.526281 0.664646 -0.412412 0.892692 -1.127118 0.065393 -0.377176 0.194404 0.186907 0.309504 0.271534 0.140727 -0.770686 1.041448 0.129619 -1.480500 0.561214 0.415584 -0.545742 0.422133 -0.793663 0.684416 0.117986 -0.636226 1.369257 -0.830158 -1.103297 -0.595242 0.647791 1.693535 0.253259 -2.339282 0.394453 -0.452559 -0.893540 1.436721 -0.123103 -0.800670 -1.373761 -0.231990 0.892770 -0.454518 -0.792147 -1.740217 -1.874851 1.070318 0.105029 -0.953126 -0.545408 0.249393 1.450702 -0.659857 0.061481 -0.976445 -1.923465 0.517709 -0.725419 -1.617110 -0.460050 -1.133326 -0.132082 0.071662 0.062463 -0.295072 -0.750079 -0.065513 2.488768 -0.878276 -1.154038 -1.232412 0.369484 1.533736 0.386524 -0.975320 -1.983691 -0.023004 -0.407666 1.038299 -0.114207 0.433162 0.035067 -0.257417 0.959561 0.794419 -0.143837 0.028172 1.065385 1.792452 -0.951946 -1.644155 -0.548976 -0.928327 -1.228289 -1.022212 -0.467570 0.427460 0.394143 -1.479187 1.053209 -0.810130 -0.310671 0.525205 0.458313 1.553582 -0.052222 1.653406 0.167953 -1.347032 1.107503 -1.526542 0.624334 -0.366713 0.284465 1.091513 1.090993 -2.429012 0.216658
M001_OFF 1.005228 1.969589 -0.038447 0.659923 -0.890059 -0.565087 1.304663 -0.402381 -0.349271 -1.349818 -0.519128 0.222912 -0.401782 0.239015 -0.726556 0.225707 0.645641 0.957163 -0.053388 -1.091487 1.023576 0.132263 0.855529 0.292011 0.707266 -1.530011 0.786243 0.581946 0.916954 -0.093455 1.745421 0.659538 0.389808 -1.314635 0.975715 0.223629 0.669126 0.920708 -0.149896 0.390600 -2.496751 1.252203 -0.006820 -0.114308 0.134979 0.177370 -1.030140 0.102899 -0.124911 0.668832 0.928044 -0.457292 1.405172 -0.760138 0.855034 0.176407 -0.867702 -1.382499 0.391781 0.095172 -0.127595 0.126858 -0.966965 -0.515228 0.731354 1.440769 0.388052 -0.375547 -0.253004 0.066600 1.108745 -0.148233 0.577164 0.012662 1.536223 -0.353551 -0.424599 0.310004 -0.404692 -0.527678 -1.313408 -0.251261 -0.909950 -0.633097 0.771584 0.611713 -1.148036 1.184524 0.971143 -0.610056 0.398425 -0.249747 0.941231 2.244633 0.477562 -1.465325 0.594356 -0.759692 -0.778839 -1.083543 0.174196 0.513592 -0.173428 1.553531 2.073350 -0.859016 0.468411 -0.021522 -0.225921 -1.156704 -0.161554 0.173697 0.519046 -1.093349 -1.513672 -0.971028 1.381283 1.662205 -1.267000 -0.035237 0.178023 -0.183598 -1.019874 1.425138 0.392151 -1.269635 -0.937325 0.843702 0.237739 0.222332 0.146865 -1.038749 -0.790913 2.740182 0.472663 0.928960 -1.348193 -0.775124 1.042916 0.042093 0.192687 -0.561136 2.001423 1.245713 0.454590 -0.318070 -0.608883 1.216332 0.051357 0.775194 -0.758765 -0.213880 -0.161675 0.582321 -0.624283 0.556971 0.015142 0.679174 1.592475 0.222736 0.090347 -1.232769 -0.058936 -0.271934 -0.728985 -0.546966 0.381185 1.451175 0.050092 0.141961 -0.359627 -0.481510 0.565346 1.170387 -0.310112 1.145151 0.442032 0.468743 -1.703894 0.787667 0.523979 -1.064651 1.225839 0.172735 -0.570991 -0.149027 -0.127407 -0.727603 0.761938 -0.291582 0.684493 -1.651044 0.541123 0.240329 0.406297 -0.106822 0.868319 -0.883572 -1.046380 -0.530407
M001_ON 0.668961 0.547262 1.348207 0.869533 -0.696084 0.384507 1.129147 -1.069624 -0.510136 -0.321815 -0.773237 -0.178841 0.686457 -0.454815 0.237273 -1.324387 -1.344621 -1.225319 -0.458555 -0.061257 1.449486 -0.322881 0.345895 0.810606 0.022090 -0.647565 -0.239448 0.814280 -0.842658 0.059850 -0.831615 -0.531437 -0.609853 0.718413 -0.854383 -0.496974 -0.182221 0.827180 0.598105 -1.462839 -0.080681 0.179868 -1.298253 -0.277698 0.004724 -0.920580 1.053808 -1.003126 -0.520093 -0.357508 0.485701 -0.514658 -0.843361 -0.269682 0.465734 0.446642 0.546880 -0.535229 1.056544 1.620338 0.923427 -0.221940 -0.361505 -1.447091 0.263407 0.394362 0.604594 -0.298026 -0.133087 -1.078230 0.891497 -0.071253 1.508662 0.609808 -1.359048 -0.224726 1.359543 -0.580268 0.629056 0.974804 -0.814908 -1.013924 -1.782082 0.065627 -0.870920 0.507174 0.507127 0.575532 -0.119242 0.661658 -0.842884 1.723890 0.490138 -1.099736 0.560650 -0.202421 0.576974 0.103713 0.068054 0.259046 0.170130 0.048017 -1.084273 0.025972 -1.147272 -0.970659 -0.107320 0.446942 0.664017 0.417951 0.621798 -1.487301 1.277039 0.341001 0.417877 -0.804443 0.249163 0.179352 1.295447 -0.260201 -1.575940 -1.287871 0.073928 0.020155 -0.220169 -0.759214 -0.292767 -0.264824 -0.731242 -0.307924 1.294382 -1.005213 0.511120 0.452619 -0.638563 -0.063319 -0.050035 -0.270343 -1.646271 0.869342 0.444989 0.956124 0.593279 -1.268830 1.820988 0.809413 0.615299 1.475488 2.278646 0.379166 0.452550 0.428241 -0.469925 0.048856 1.563783 0.007578 -0.256270 0.776385 -0.073330 -0.013984 -0.525062 1.863592 0.027140 -0.954823 -0.743159 -0.076438 -0.566685 1.675990 -0.672117 0.703248 -0.120812 -0.091250 1.564700 0.136578 0.970928 0.594768 -0.915941 -0.273080 -0.702075 -0.512790 0.638216 0.199946 -0.936543 0.313323 -0.967896 0.121181 0.039415 0.436215 -0.398378 0.568675 -0.344549 0.256120 0.499481 -0.508214 1.142491 0.083281 -0.254947 0.302685 0.905515 1.198780
M002_OFF -0.288011 1.750786 0.608112 1.037710 1.039450 -0.196372 0.504710 -1.275147 -1.620203 0.057722 -1.146811 1.259335 -0.274521 -0.266114 -0.659979 0.677770 -1.996210 -0.183703 1.015205 -1.133101 0.282088 0.387358 1.953515 1.229001 -1.189289 -0.673375 0.188595 0.188000 -0.510283 -1.181172 1.040364 -0.193070 -1.787549 0.031748 0.307012 1.145862 -0.746713 -0.908005 0.640118 -0.150379 -0.536832 0.844167 -1.088935 0.298305 -0.347738 0.353438 0.814462 0.484991 -1.517934 0.638690 0.484759 -0.854458 0.161739 -1.987432 1.068677 1.994931 -0.336063 0.715073 -0.279422 1.700608 -0.613683 0.672567 0.128220 -1.387279 0.638986 0.661449 -0.054499 -1.435866 0.356333 0.001787 -0.395739 1.494686 1.079088 0.870837 0.129274 -0.770999 -0.018135 0.200888 -1.451122 -0.046829 -0.991441 -1.060515 -0.681735 0.967833 -0.710838 0.315654 -0.198089 1.632788 -0.972791 0.042336 -0.497098 0.733701 -0.503187 0.661525 1.164360 -1.263157 0.929847 -1.015942 -1.771835 -0.086109 2.512155 0.060750 -0.160543 -0.509924 0.057722 1.128373 -0.996173 0.030378 -0.652371 -0.806245 -1.546494 -1.180306 0.955765 0.246146 -0.600302 -0.755951 -0.470020 -0.768709 1.026943 1.222241 -2.142800 -1.633835 -1.792167 -0.784139 -1.756411 0.221320 -0.167299 -0.423229 -0.792790 0.512873 -0.414606 -0.400594 0.272490 0.543768 -0.805709 1.619881 -0.474117 -0.427121 -0.827752 0.633642 1.200355 -0.651568 -0.886137 -0.220163 -0.024116 -0.137701 -0.728977 0.489301 0.392042 1.227378 0.284913 0.881604 0.696141 1.604503 1.540179 -0.166939 -0.965407 -1.909272 1.548319 -0.080901 0.647518 1.844644 -0.257819 -0.657204 -1.185282 -2.207544 0.093016 0.644670 0.365091 0.889168 -0.207927 -0.713064 0.030701 2.561929 1.469755 -1.092449 -0.732215 -0.430078 -0.480291 1.035526 -1.226035 -0.577216 0.279433 -0.517507 -0.771561 -2.137186 0.136198 -1.561356 0.521959 0.389354 1.166061 -0.215484 -1.172501 -0.810599 0.795319 0.211345 0.340564 -0.986392 1.076081 0.554890
M002_ON 1.601883 -0.840689 1.004844 0.467280 -1.019778 -0.428071 0.188599 -1.286106 -1.117077 -0.579667 0.151096 -0.389052 -0.363377 1.065639 -0.926495 1.224119 1.446276 -0.505575 -0.555705 0.093199 2.460431 -0.702907 -1.466377 -0.294944 0.063792 0.061379 0.300976 2.714362 0.322657 1.278315 -0.145119 -1.163701 0.869498 -0.391561 -0.847231 -1.564952 0.806535 0.689636 -0.283284 -0.285992 0.989622 0.693484 -1.390846 0.838406 1.502115 -0.731584 1.064997 -0.855172 -0.194230 0.890639 -0.978089 -1.556454 -0.062128 -0.149478 0.241322 1.530501 -0.853371 -1.967512 -0.375400 -0.358932 0.737308 -1.154148 -1.626248 0.234612 0.635977 0.053841 0.496078 -0.817110 -0.367492 -2.332999 0.595136 -0.521595 -0.632820 0.624424 1.598326 0.712335 -1.756396 -0.184481 -0.804011 -0.703960 0.085434 0.729136 -1.795165 -0.662467 1.196931 -0.175612 0.973740 -0.459006 -0.394671 0.720653 1.900310 -0.578293 -0.326867 -0.089951 -0.149208 2.618323 0.150125 1.290056 1.048502 -0.037373 -1.156827 -0.966156 -1.127511 1.681033 0.706928 -1.990212 0.403861 -0.187699 1.541321 0.238051 0.437660 -1.036896 -0.856668 -1.747157 -0.415965 0.056961 0.325252 0.868341 -0.161162 0.062480 0.045285 0.827702 1.179794 -0.955178 -1.451870 -1.236143 -0.159429 0.303437 0.704947 0.478894 -0.011874 1.374626 -1.844548 1.762258 1.358823 -0.952358 0.062257 -0.132194 -0.482191 0.102435 -1.027040 0.105930 0.760490 0.961347 1.443109 -0.349440 -0.167660 0.547600 -0.606079 0.186681 -0.369456 -0.081517 -0.558482 -0.121525 -0.029133 0.991685 1.159465 1.588808 -1.060429 0.658929 0.157069 0.208031 1.891183 -1.059383 -0.440086 -0.975997 0.452160 0.896726 0.583765 -0.280545 0.216394 0.380864 0.055961 -1.277940 -0.951969 1.348210 -0.827329 0.446745 -0.485176 -1.721292 1.375562 -1.854914 -1.128798 -0.870229 -0.748751 0.440371 0.699513 1.030492 -0.214669 0.652386 0.045805 1.220025 0.962077 0.034039 0.608899 1.176100 1.055482 -0.508654 -1.820378 0.424273
M030_OFF 0.872324 0.304138 -1.304685 -0.240529 -0.783879 -1.509093 0.069129 -1.226285 1.792119 0.468104 0.898748 -0.744444 -1.176632 0.090877 1.121796 -0.751442 -0.363913 1.345307 -0.157415 0.914381 -0.947248 -0.757930 -1.053661 -0.034822 1.531662 -0.356603 -0.445252 0.850812 0.182207 -1.006345 -0.556064 1.143203 -0.749133 1.198279 -0.558597 0.368083 -1.695342 -0.390332 0.459263 -0.568751 0.425624 -1.461434 0.863929 0.778950 -1.248032 1.119882 0.692977 0.832943 1.491292 1.724863 0.195771 -0.830158 -1.344003 -0.297960 1.472265 2.398414 1.223333 0.538524 1.228040 -0.656040 0.142130 -1.220491 -0.051432 -0.472617 -0.354250 1.679394 0.220363 0.297510 0.403634 -0.523304 0.369622 0.932805 -0.348976 0.816635 0.643071 0.394017 0.917267 -0.048108 1.085463 0.893269 0.231371 0.745145 -0.690883 1.483037 -0.086620 0.972885 0.096844 -1.064994 -0.299061 0.208668 -0.073624 0.191397 0.657620 0.123162 0.169802 1.593104 -1.786811 0.051642 -0.004845 0.847112 -0.924035 -0.898443 0.935625 -0.136879 1.066412 0.257051 -0.132511 -0.118540 1.316008 0.842470 0.550244 -0.265239 0.464174 1.439112 0.175466 -0.521319 -0.088319 -0.922970 0.879611 0.380602 -1.141571 0.172659 0.614864 -0.350662 0.500364 -0.553289 0.900673 -0.596882 1.243425 0.233542 -0.977940 -2.445111 0.799096 0.519685 0.135156 0.560608 0.114881 0.468110 -1.028673 0.699335 0.103994 1.573262 0.346584 0.533925 0.992787 -1.774318 0.825885 -0.519196 1.729905 1.058523 -0.200104 0.047811 0.334861 -0.345805 -0.181998 0.094634 0.710314 -1.352705 -0.181726 -0.728454 -1.199836 -0.799078 -0.573447 -0.607749 0.270982 0.654680 0.560060 -0.146617 -0.887081 -0.560732 0.286043 -0.132358 -0.204361 1.068708 0.258056 0.879468 0.030270 -0.982943 0.307986 -2.663319 0.883901 1.189110 -1.327904 1.117543 0.987672 0.060677 -0.734160 0.926167 -0.038564 0.088003 -0.079329 0.120849 -0.405487 0.908105 0.560250 0.477174 -1.108373 -0.236552 -2.239256 -1.003709
M030_ON -0.439478 -0.111766 -0.359744 0.306295 0.969563 0.753916 0.084313 1.004760 0.183018 -1.922581 -1.258342 0.588458 0.804334 -0.014800 -0.117877 0.300459 0.212346 -1.052914 0.392498 0.189644 -0.429545 0.752318 2.407847 -0.678894 -1.671116 1.093488 1.277422 -0.445044 -0.755202 0.054651 -0.787967 -0.637925 -0.200885 0.352620 -0.385400 0.529512 1.450092 2.054739 1.012426 -0.310412 -1.055810 0.580373 -1.245196 0.079824 2.101775 -1.176746 0.530176 -1.229069 -0.280021 1.983985 0.320640 0.527255 1.919880 -0.319945 1.178965 0.257851 0.475100 0.967043 0.062729 1.146996 -1.238975 0.393029 0.187179 -1.014014 -0.322953 -1.330643 0.739876 -1.166275 0.656197 1.711760 -0.764082 -0.504339 0.327062 -0.084630 0.338774 0.011814 0.407761 -0.000543 -0.041581 -0.602410 1.357358 0.244255 1.287228 0.915356 0.085548 0.126330 -0.852813 0.556178 1.174058 0.219346 1.014326 -0.215502 0.834777 0.343944 -0.295236 -0.783076 -0.223607 -0.596754 0.177062 0.639611 1.809714 0.694604 1.269824 0.134949 0.184773 -0.208890 0.623475 0.051066 -0.568090 -0.970328 -0.079072 0.272574 -0.068979 0.696082 -1.885143 -0.132599 1.891439 2.113775 -1.362933 -0.347323 0.160364 -0.821435 -1.698602 0.137109 -1.223997 -0.880499 -0.855583 -1.156197 0.479102 0.006769 0.812004 1.942467 -1.780132 -1.594035 0.103912 -1.586313 0.033813 -1.397861 0.430726 0.182920 1.211573 0.947903 1.921775 1.199090 -0.505426 -0.919337 -1.470135 0.133064 -0.006806 0.446084 -0.595496 -0.803324 -1.237066 -0.975700 -0.305807 1.137255 -0.042536 0.003916 -0.853123 0.563376 0.773250 0.590761 -0.327998 0.273660 -0.200255 -1.493543 0.758829 0.255115 0.320835 -0.414455 1.213289 -1.368971 -0.777952 1.308224 -0.384055 -0.613639 0.225195 -1.317952 0.583429 1.170952 -0.853505 0.109161 1.105809 -1.272043 0.371912 0.542613 0.083052 -1.641103 0.760512 0.297065 1.243027 -1.363122 -1.579391 0.241976 0.330602 -0.217363 0.880248 -0.998030 2.928758 -1.331846
