117 400
M009_ON 0.186925 0.013883 0.507561 -0.123821 0.265926 0.072178 0.416790 1.153542 -0.525778 0.463699 0.779506 -0.251225 -0.101054 0.582817 -0.248106 0.280047 0.697569 0.029849 -0.381556 -0.573210 -0.767146 -0.604092 -0.996612 0.641593 -0.353152 -0.673140 0.187050 0.230728 -0.510354 0.551666 0.269876 0.005595 -0.771308 -0.794316 -1.140570 0.696041 -0.351490 -0.237633 -0.036055 0.010570 0.044900 0.127766 0.441565 -0.035309 -0.863520 -0.249742 0.006396 0.275043 -0.242537 -1.330525 0.848186 -1.080582 -0.030774 -0.331365 -1.125356 -0.489246 0.174396 -0.305456 -0.515117 -0.076700 -0.681635 0.733923 0.211453 0.885659 -0.965857 -0.567123 -0.270084 0.096249 0.640056 -0.189565 0.540813 -0.047330 0.420220 0.248836 -0.162241 -0.123289 0.606309 0.361192 -0.535602 0.362321 -0.023776 0.133803 -0.650203 0.597000 0.381373 -0.031168 -0.327546 0.081106 -0.394542 0.418765 0.058629 0.655049 -0.239526 -0.502954 -0.228538 -0.472492 0.467016 0.540308 -0.264344 -0.230603 -0.189314 -0.583792 0.086245 -0.608478 -0.054525 -0.645514 0.217550 -0.068850 0.395119 0.091589 -0.575283 -0.891109 0.636591 0.500165 0.075262 0.745898 -1.167053 -0.624378 1.097290 -0.175121 0.530470 0.005578 -0.880786 -0.543496 0.099393 0.606773 0.198683 -0.393524 -0.110174 -0.174604 0.659509 -0.126729 0.530702 0.718562 -0.566801 0.975120 0.579669 0.588686 0.250754 0.202790 1.288613 0.264579 -0.285288 -0.372369 -0.787958 0.345506 0.462261 0.005055 0.362330 -0.099818 -0.300606 -0.452706 0.160020 0.184435 0.097287 0.222040 -0.618958 -0.007717 0.157239 0.059140 -0.951427 -0.414462 -0.676136 -0.322084 0.471785 0.116269 0.756005 -0.649648 0.487326 -1.499414 -0.142898 0.501149 0.033730 0.073334 -0.080792 -0.092218 0.827473 0.481250 -1.368544 1.108417 -1.045703 0.502242 0.045620 0.711612 -0.208796 0.323327 0.172234 -0.719763 -0.428080 -0.789422 1.006327 -0.130210 -0.121101 -1.530175 -0.972423 0.453505 -0.569014 -0.272311 -0.585559 -0.011061 -1.057202 0.006823 0.506048 -0.258711 -0.961353 0.043279 -0.517707 0.364933 0.027515 -0.124609 0.470426 0.324215 -1.423054 0.676273 0.197374 -1.658831 -0.362282 1.126655 -0.609943 -1.099130 -0.829195 1.157706 -0.084874 0.498102 1.396878 0.391933 -0.822525 -0.098433 -0.247333 -0.748149 1.280179 0.111196 -0.046823 -0.409522 -0.734257 0.409856 -1.035490 0.121094 -0.380730 0.558019 -0.303856 0.960360 -0.937724 0.501413 0.016752 0.603394 -0.839360 1.267522 -0.203999 0.450694 0.181813 0.254193 -0.241143 -0.528763 0.524974 0.385035 -0.520418 0.095943 -0.386731 -0.792986 0.202748 0.147271 -0.384198 0.195928 -0.544935 0.241712 0.075843 0.766918 -0.082597 -0.033099 -0.068719 -0.066896 -0.144752 0.653097 -0.963281 -0.333370 -0.497359 0.548072 0.437771 0.152361 0.075374 0.081169 -0.191018 -0.628064 -0.461985 -0.299291 -0.734599 -0.337390 0.159965 -0.724732 -0.112632 -0.621238 0.916372 -0.137659 -1.136620 -0.967019 0.242527 -0.309164 0.320263 -0.037773 -0.025602 -0.040626 -0.596706 0.436707 0.157100 0.622363 -0.580706 0.522009 -0.076747 -0.405924 -0.437793 -0.598939 0.617211 -1.279555 0.222861 -0.105309 -0.534256 -0.345286 0.231504 -0.043442 0.614151 -0.224220 0.694990 -1.367492 -0.012200 -0.898044 -0.040999 -0.728960 -0.384838 -0.576591 0.391359 -0.792001 0.253235 -0.049253 -1.183747 0.686584 -0.110986 0.213343 -0.784917 -0.601805 0.350413 -0.082286 0.253821 0.176080 -0.350215 0.782311 0.360569 -0.088776 -0.110918 -0.728854 -0.735161 1.017152 -0.012642 -0.175215 -0.740524 -0.119981 -1.158090 0.012189 -0.977602 0.154500 -1.212509 0.925815 -0.660646 0.481347 0.955095 -0.167199 0.854837 -0.193263 1.001655 -0.638435 -0.917598 0.319240 -0.015890 -0.497333 -0.685324 0.755292 0.406886 -0.175292 -0.334813 -0.354664 0.171747 -0.911197 -0.581065 -1.569557 1.016267 -0.392952 0.409492 -1.151747 -1.100621 0.106356 1.107522 0.164350 0.180593 1.015232 -0.359460 -0.773807 -0.822371 -0.161188 0.285778 -0.181036
M009_OFF -0.326900 -0.039307 0.557263 -0.310334 0.044709 0.143145 0.285709 1.172834 -0.896373 0.107819 1.027224 -0.030480 0.110574 0.481477 -0.058325 0.592720 0.655026 -0.079021 -0.553426 -0.628027 -0.298491 -0.422993 -0.678716 0.504744 -0.396194 -0.676120 -0.022775 0.490766 0.081215 0.505552 0.436065 0.384873 -0.777759 -0.455923 -0.883807 0.224373 -0.020586 -0.549717 -0.339111 -0.296762 0.767218 0.446528 -0.176236 -0.034176 -0.402288 -0.317158 0.358893 0.285942 -0.222956 -0.888773 0.538005 -1.069317 0.284737 -0.515936 -0.668405 -0.357556 0.753352 0.054861 -0.329636 0.434666 -0.305092 0.620215 0.383132 1.175390 -0.655412 -0.468304 -0.367699 0.114664 1.108594 0.257825 0.180367 -0.392009 -0.001987 0.207600 -0.154696 -0.261135 0.821205 0.570399 -0.365912 0.366784 -0.275949 -0.068035 -0.847199 0.421793 0.146721 0.110170 -0.135882 -0.089582 -0.005970 0.327914 0.241599 0.531255 -0.373927 -0.230724 0.299377 -0.347511 0.360817 -0.010046 -0.261083 -0.358351 -0.126874 -0.481654 -0.219055 -0.345303 0.179121 -0.859885 -0.050356 -0.367037 -0.150764 0.606071 -0.429077 -0.784208 0.460175 0.673968 0.066891 0.238657 -0.840100 -0.386511 0.665899 0.235606 0.376135 -0.126909 -0.635963 -0.575697 0.259646 0.289959 0.322182 -0.466027 -0.233015 0.224514 0.668122 0.396561 0.432825 0.614691 -0.723938 0.530472 0.555944 0.693120 0.154946 0.362019 0.890055 0.188262 -0.223041 -0.274772 -0.544098 0.030065 0.348164 -0.092366 0.351356 0.130267 -0.200247 -0.358464 0.524962 0.214521 0.825477 0.225253 -0.739923 -0.348672 -0.474062 0.283748 -0.640459 0.082202 -0.362992 -0.200113 0.812493 -0.246620 0.580395 -1.225947 0.381494 -1.484029 0.170523 0.476996 -0.387186 0.345132 -0.357125 -0.614065 0.350186 0.279531 -0.956615 1.064342 -0.519135 0.548237 -0.294154 0.618421 -0.224364 0.105662 0.017268 -0.941756 -0.353588 -0.613132 1.067344 -0.152411 -0.220441 -1.041233 -0.838806 -0.151713 -0.496360 -0.647054 -0.148552 -0.075762 -0.957698 0.342943 0.270036 -0.486727 -0.541613 -0.310873 -0.186876 0.686747 0.555327 -0.430803 0.235347 0.602810 -1.707675 0.799176 0.471198 -1.447120 -0.761613 1.214656 -0.683076 -1.077523 -0.833704 0.947494 0.061089 0.458245 1.455544 0.427157 -0.756570 0.236690 -0.082045 -0.033417 0.853220 -0.190376 -0.217692 -0.266855 -1.084886 0.035012 -0.675348 0.074317 -0.697248 0.699527 -0.761900 0.200481 -1.067220 0.444097 0.230853 1.160812 -0.554461 0.710602 -0.709646 0.893136 0.103757 0.223681 -0.391773 -0.248063 0.448764 0.161551 -0.570542 0.031830 -0.613244 -1.069510 -0.370302 0.027026 -0.078732 -0.035158 -1.009844 0.811473 -0.241876 0.612700 0.160380 -0.108745 0.038270 0.738084 0.042665 0.956139 -0.579636 -0.365043 -0.259002 0.189942 0.575688 -0.530379 -0.469956 0.729384 -0.316210 -0.199328 -0.464085 0.201720 -0.012637 -0.005111 0.370982 0.001228 -0.671726 -0.138276 0.708591 -0.384989 -1.149772 -0.961187 0.147144 -0.588797 -0.223722 -0.007676 0.406990 0.434443 -0.734012 0.561680 0.338817 0.232699 -0.841668 0.515832 0.263267 -0.243077 -0.237362 -0.378481 0.455233 -1.153212 0.713348 -0.281661 -0.504373 -0.816697 0.039040 0.047663 0.525264 -0.162186 1.046474 -0.996179 0.120248 -0.944428 0.030146 -0.421022 -0.336304 -0.794690 -0.140338 -0.830231 0.168653 0.041369 -0.954055 0.725962 -0.689127 0.016410 -0.691974 -0.644265 0.520323 0.030126 0.530553 0.692076 -0.158969 0.760608 -0.174121 -0.254523 -0.275876 -0.596402 -0.763976 1.189869 0.271251 -0.361288 -1.057250 -0.169813 -1.567867 0.010890 -0.855602 0.536307 -1.106012 0.467970 -1.042607 0.677543 1.160300 -0.051643 0.870898 -0.643761 1.048984 -0.341438 -0.651980 0.616713 -0.089550 -0.485794 -0.753991 0.238184 0.881960 0.034046 -0.795108 -0.173962 -0.183974 -0.277209 -0.217353 -1.833244 0.705131 -0.055865 0.075183 -1.334114 -0.992795 0.039997 0.879775 0.338640 0.246203 0.796727 0.082574 -1.104235 -0.704650 -0.034072 0.771172 -0.039193
M020_OFF 0.447402 -0.141300 0.521263 -0.191598 -1.017414 -0.480611 -0.230843 -0.004821 0.088724 0.472077 0.275536 0.348173 -0.123848 -0.027399 0.244291 0.378788 0.554394 -0.578136 -0.848782 0.167350 0.337755 0.321922 0.251694 0.151105 -0.311495 0.077141 0.558797 0.279777 -0.308978 0.166851 -0.237696 0.357751 0.582427 -0.101478 0.106115 0.300910 -0.392466 0.025944 -0.187908 0.027021 0.421569 -0.194613 0.004901 0.287386 0.400047 -0.706141 0.563635 0.466994 -0.039068 -0.011249 -0.233419 0.021020 -0.238949 -0.149270 -0.328656 0.125092 -0.261565 -0.398213 -0.220728 -0.634157 -0.582511 -0.119093 -0.711592 0.052458 -0.230515 0.147795 0.028453 0.005852 -0.096154 -0.746808 0.317868 -0.096063 0.170958 0.199750 0.079660 0.510900 -0.554650 -0.128751 -0.404361 -0.327434 0.419620 -0.181542 -0.149307 -0.075513 1.152322 -0.315398 -0.424235 -0.155556 -0.714440 -0.374944 -0.242086 -0.183171 -0.316729 -0.137543 -0.064510 -0.161542 0.273908 0.216852 -0.640879 -0.257519 0.125740 0.240431 1.024750 -0.255356 0.175099 -0.300995 -0.225782 0.278330 0.098419 0.198785 -0.918156 0.315496 0.402483 0.390083 0.110165 0.036218 -0.531640 -0.422942 0.049468 0.084288 -0.425288 0.432128 -0.368646 -0.746175 0.402259 -0.348686 -0.569775 -0.661164 0.281036 -0.389865 -0.148491 -0.329793 0.210493 -0.228699 -0.566226 0.492201 0.014841 0.221139 0.017769 -0.168503 -0.438257 0.053409 -0.317691 0.285545 -0.579365 0.089105 -0.316562 0.065226 0.341086 1.165203 -0.399553 0.365113 0.215337 -0.531109 0.610405 0.589387 -0.163470 -0.260385 0.488362 0.185197 -0.194702 -0.452398 -0.018285 -0.096900 -0.012415 -0.755534 0.195654 -0.055349 0.873615 -0.770547 0.062116 -0.036063 -1.010309 0.155786 -0.707630 0.050754 -0.097858 -0.271301 0.235066 0.516586 0.161437 -0.158699 -0.444417 0.478780 -0.015540 -0.702846 0.380693 -0.791823 0.372238 0.363009 0.893130 -0.048631 0.750307 -0.727525 -0.132267 0.170568 0.005482 0.037856 0.104778 -0.134303 0.043752 -0.240896 -0.475958 -0.447646 -0.963314 0.796646 -0.506641 -0.426987 -0.583915 0.655850 -0.914798 0.391714 -0.818897 0.395626 0.643079 -0.621702 -0.179019 0.130939 -0.281108 -0.217905 -0.623589 0.466510 0.516736 0.266457 0.036230 0.227487 -0.103702 0.236378 0.241875 -0.276208 0.333250 0.138488 0.176590 -0.099592 -0.038168 0.079536 -0.405346 -0.552822 -0.037372 0.198193 -0.134329 0.248784 -0.099124 -0.507692 -0.166880 -0.607490 0.206119 -0.311215 -0.018915 0.373998 0.522525 0.326680 -0.361432 0.125622 -0.108787 -0.134254 -0.260195 -0.127113 0.579754 0.165041 0.075851 0.416861 -0.419779 -0.108186 0.553934 0.007053 0.238888 0.075697 -0.089591 0.218036 0.104870 -0.115816 -0.440797 0.660165 0.411264 0.817839 -0.139445 -0.682032 -0.465687 -0.333017 0.452785 -0.159850 -0.103649 0.572798 -0.150413 -0.304889 -0.545784 -0.250147 -0.215080 -0.820733 -0.479900 1.753816 -0.643263 -0.722937 0.269381 0.166660 0.240927 -0.487610 -0.024405 -0.014647 -0.829036 0.172105 0.518184 -0.729153 0.107054 -0.675595 0.596847 -0.979713 -0.400011 0.043901 0.325497 -0.375580 -0.594703 0.803362 -0.536592 0.017938 -0.230148 0.657578 0.716349 -0.546825 -0.063891 0.663594 -0.296061 -0.003471 -0.129862 0.710383 -0.053165 -0.053934 0.039730 0.045066 0.320717 0.457611 -0.084218 0.171901 0.023961 0.028788 -0.210786 0.469018 0.485262 -0.826626 0.557135 -0.005024 0.027153 0.267126 -0.425055 0.113013 -0.344202 0.093766 0.131594 -1.560746 -0.134147 -0.030657 0.376950 -0.562142 0.302749 -0.510671 0.055558 -0.109228 0.306595 -0.290162 0.342480 0.106746 0.074387 0.043386 0.649381 0.480645 0.327382 -0.394221 -0.217504 -0.352326 0.657586 -1.106334 0.304497 -0.229425 0.457157 0.280070 -0.474070 0.031112 0.491524 0.019660 -0.274551 -0.558440 -0.135379 0.068870 -0.139812 0.500403 -0.903092 -0.403807 -0.398473 -0.192102 -0.589200 0.370381 -0.309532 0.045395 0.436093 -0.279278 0.102280 0.052632 0.445819 -0.244224
M020_ON 0.266835 -0.160781 0.550544 0.339284 -0.122218 -0.552273 0.280127 -0.866741 -0.166358 0.312377 0.021155 0.205071 -0.392470 0.215568 0.299018 -0.033384 0.688443 -0.803479 -0.450197 0.475106 1.298760 -0.521688 -0.119497 0.551715 -0.950991 0.002682 1.187648 0.266243 0.091909 0.222457 0.160633 0.642014 0.820047 -0.331911 -0.697489 0.540917 0.484859 -0.078180 -0.117661 0.570420 0.491003 -0.214867 -0.698635 0.111543 0.258478 -0.413071 0.666980 0.220509 -0.003635 -0.381693 0.186468 -0.283194 -0.323458 0.211286 -0.366192 -0.343895 0.443268 -0.255475 -0.670058 -0.713642 -0.246252 -0.676703 -0.254643 0.452550 0.047328 -0.248156 0.096731 -0.011290 -0.532503 -0.911429 0.313153 -0.489509 0.078711 -0.394224 -0.337937 0.488317 -0.885456 0.143121 -0.626815 -0.188164 0.005097 -0.606337 -0.395759 -0.176030 0.853461 -0.259009 0.246904 -0.477774 -0.310786 -0.233336 -0.120995 -0.108154 -0.446722 -0.520443 -0.047481 0.063869 0.581265 0.561582 -0.110876 0.457809 -0.466158 0.490662 0.964667 -0.192316 -0.109662 -0.106795 0.208789 0.205685 -0.130250 -0.128701 -1.085271 1.114462 0.580555 0.062789 -0.474179 0.163731 -0.827766 -0.840208 -0.279139 0.104762 -0.196504 0.409452 -0.116381 -1.150884 0.210839 -0.770958 -1.309779 -0.808250 0.076385 -0.810696 0.400958 0.141909 0.299999 -0.567949 -0.699771 0.276928 0.036366 0.457129 0.041981 -0.238403 -0.430505 -0.200903 -0.409217 0.063065 -0.470716 0.555546 0.136069 -0.121082 -0.365512 0.106319 0.031446 0.312221 -0.027778 0.802054 0.826819 -0.223991 0.055456 0.004610 -0.094147 0.345465 0.026366 0.385243 0.365508 -0.412526 0.876197 -1.063458 0.475059 -0.162456 0.062254 -0.294321 0.226115 -0.452051 -0.622221 -0.166238 -0.628183 -0.337254 -0.214103 -0.416612 0.283771 0.807169 0.016310 -0.262680 -0.723664 0.465569 0.320398 -0.664498 0.592017 -0.493031 -0.002854 -0.039711 0.931479 0.327216 0.859076 -0.183217 0.182215 -0.023534 0.427041 -0.050635 -0.017259 -0.375001 -0.002982 -0.201112 -0.618107 -0.258640 -0.265173 -0.000290 -0.897488 0.031815 -0.602638 0.213498 -0.295053 0.112489 -0.806947 0.386254 0.408245 -0.377484 -0.524137 -0.306247 -0.317092 -0.508686 -0.769650 0.116415 -0.145982 0.183641 0.650850 0.156706 -0.047928 -0.188619 0.149592 -0.306662 0.319885 -0.183601 0.591984 0.388056 -0.489863 -0.131298 0.011657 -0.096111 -0.143370 -0.067685 0.213519 0.146576 0.187003 -0.284246 -0.075353 0.054780 0.328838 -0.405680 0.441558 0.707800 0.182143 0.256671 0.619823 -0.212360 0.554043 -0.080277 0.225947 -0.326160 -0.557276 -0.041869 -0.132160 0.370380 -0.205108 0.682282 0.342514 -0.087104 -0.190702 0.125716 0.452919 0.291558 -0.161557 -0.259201 -0.964888 1.099186 -0.396199 0.253573 -0.226291 -0.877351 -0.260160 -0.112689 0.050260 -0.176328 -0.093541 0.556332 0.251093 -0.066392 -0.331983 -0.183205 0.072884 -0.575143 -0.833160 0.448585 -0.572971 0.511352 0.183205 0.104199 0.105094 -0.313677 0.518438 0.196580 -0.031267 0.079328 0.652459 -0.388813 0.067236 0.113821 0.534172 -0.259105 -0.248404 -0.338647 0.091089 -0.255025 0.131861 0.437029 -0.762927 -0.087452 -0.660962 0.556346 0.801286 -0.530262 -0.266550 -0.212595 0.080051 0.573843 0.318730 -0.069237 0.396661 0.368771 0.065004 0.617278 0.090368 0.223575 -0.487932 0.050067 -0.063572 0.158536 -0.567511 0.078352 0.347762 -0.623077 0.539062 -0.384201 -0.760709 0.496752 0.087267 -0.325436 -0.455672 -0.549612 -0.224764 -1.115620 -0.169227 -0.318500 -0.170764 -0.519794 0.645379 -0.847151 0.016824 -0.297633 -0.283394 -0.387195 0.406384 0.624963 -0.137797 0.786663 0.732258 0.112187 -0.345364 -0.295300 -0.067130 0.163660 0.251031 -0.800804 0.122142 0.089804 0.796784 0.284631 0.246899 0.250064 0.473082 -0.442337 0.277406 -0.621362 -0.562880 -0.314138 -0.153946 -0.132084 -0.998973 0.865848 -0.378516 -0.445762 -0.272495 0.354825 -0.103677 0.107555 -0.225813 -0.081330 -0.473206 -0.119342 0.133351 0.127583
M019_OFF 0.233091 -0.074911 0.123858 -0.208354 0.394763 0.092425 -0.045457 -0.997222 1.060463 -0.583427 -0.237724 0.042676 -0.742117 0.048594 0.604761 -0.059393 -0.156180 0.541400 0.996884 -0.160634 -0.378773 0.015945 0.347421 -0.443547 0.355336 1.152759 0.543607 0.079302 0.398583 0.021181 0.474147 0.510324 -0.295416 0.021248 -0.385744 0.488933 0.559191 -0.295012 0.543445 -0.291778 -0.457377 -0.173799 -0.431531 0.513734 -0.159838 0.756662 -0.018340 0.133540 0.639989 -0.203515 0.058829 0.504089 0.104576 0.615113 0.643225 0.421848 -0.000921 0.640065 0.294050 0.519204 0.497734 0.003150 0.387999 -0.270507 0.494852 -0.420395 -0.354002 0.836400 0.628018 0.404042 -0.628468 0.275730 -1.090607 -0.146983 0.454508 -0.942077 0.019204 -0.473670 0.214114 -0.398590 -0.088088 0.590530 0.329606 -0.619612 -0.088748 0.343420 0.377207 -0.880745 0.472327 -0.081588 0.358422 -0.548104 -0.603307 0.163700 -0.252164 0.374911 -0.497259 -0.278219 0.825745 -0.164472 -0.216816 0.020780 0.081480 0.705293 0.092690 0.857920 -0.201275 -0.024584 -0.290197 -0.061898 0.240641 0.135503 -0.534276 0.405598 -0.159535 -0.498684 0.561884 0.018740 -0.043724 0.263791 0.202648 -0.068171 0.417701 0.654514 0.175398 0.261098 0.343590 0.076920 -0.039308 -0.641931 -0.739535 -0.302206 -0.137476 -0.064707 -0.166168 -0.372749 0.066926 -0.229602 0.447724 0.142440 -0.342970 0.377038 0.178279 -0.612351 0.718269 -0.802861 0.000126 0.053471 -0.975284 -0.281843 0.528502 0.944396 0.651955 -0.384027 -1.431909 -0.664217 0.502169 0.212949 0.171966 -0.402727 0.093943 -0.346411 -0.488965 1.152617 0.010801 0.557220 -0.114897 -0.063134 0.133160 -0.005099 -0.009684 0.184227 0.623713 0.599880 0.048636 0.171496 -0.156623 -0.389823 1.001191 -0.324338 -0.024780 -0.167877 -0.179422 -0.576148 0.377959 0.204818 0.306874 0.848219 0.170392 -0.332213 -0.323525 -0.462067 -0.357863 0.349756 0.453005 0.492994 0.359800 0.194856 0.383911 -0.770226 0.769028 -0.369089 0.000787 -0.197568 0.822336 0.115779 0.358163 0.066749 0.588182 0.037268 -0.289887 -1.345676 0.569749 -1.042728 -0.654809 0.569455 0.228559 -0.097147 1.072104 0.789142 0.178940 -0.058811 0.066140 -0.789997 0.005327 0.564773 -0.712737 0.083580 -0.486916 -0.148528 0.740158 0.650002 -0.440424 0.282141 0.138596 0.231170 -0.079000 0.162565 -0.005438 -0.481861 -0.119907 0.670158 0.369596 0.169373 -0.822147 -0.793983 -0.039404 -0.010100 0.650849 -0.148068 0.015485 0.912231 0.275979 0.048228 -0.496023 -0.463978 -0.019394 -0.037392 -0.020238 0.812415 -0.166908 0.485551 -0.621270 0.208682 0.172045 0.073511 -0.245809 0.763373 -0.277013 -0.318732 0.493564 0.792894 0.961283 0.277124 0.112207 -0.749259 0.161315 -0.239885 0.037384 -0.102566 -0.670198 -0.460960 0.436303 -0.503043 0.349832 -0.919192 -0.458444 0.554369 -0.132001 0.624786 0.257203 0.697219 -0.406778 -0.218297 0.122140 -0.031399 -1.023354 0.444491 -1.334000 -0.129785 -0.026840 0.257890 -0.591571 0.361706 -0.768637 -0.686293 -0.428659 -0.371465 -0.352325 0.152170 -0.368652 -0.064203 0.238124 0.361117 0.242639 0.039266 0.711209 -0.356260 0.008717 -0.052267 0.443604 0.426140 -0.249303 0.225515 -0.333499 -0.143438 0.389421 0.114864 -0.317004 1.030936 0.497574 -0.329275 0.677688 1.055285 0.158296 -0.586866 0.890401 0.437129 -0.774719 -0.125761 0.198009 -0.516478 -0.057786 -0.037608 0.043993 -0.175087 0.696038 0.597211 -0.389756 0.139826 -0.155489 -0.805936 0.044718 0.097534 0.251757 0.530041 0.168672 -0.140341 -0.372791 0.068411 -0.137989 -0.009082 0.593541 -0.462526 0.181740 0.187824 -0.183369 -0.051546 -0.770144 -0.392359 0.123258 -1.205409 0.075308 -0.364375 -0.456842 -0.406496 -0.029575 -0.023918 -0.857741 0.475096 -0.014813 1.036961 -0.643593 -0.945827 0.007314 -1.317203 0.563395 -0.761035 -0.296038 0.790904 0.141496 0.620055 -0.620676 0.227622 0.519465 0.787153 -0.196703 0.123910 -0.393597 -0.055600
M019_ON 0.039969 -0.301085 -0.358725 -0.071127 0.894644 -0.125993 -0.056338 0.152666 0.665414 -0.213270 -0.414501 0.454762 -0.457695 0.232839 0.481536 0.174425 0.108765 0.192410 0.570504 -0.690285 -0.482037 -0.128939 -0.008026 -0.897710 0.428467 0.213828 0.041341 0.265962 0.514359 0.337071 0.150200 0.179706 0.603819 0.438793 0.515857 0.670658 0.324738 -0.272776 -0.220566 0.035846 -0.085719 -0.316301 -0.545425 -0.196437 -0.136101 0.258585 -0.398104 -0.805715 0.815505 -0.202797 -0.077490 0.564703 0.020901 1.066839 0.598810 0.543009 0.600727 0.286912 -0.000608 0.402909 0.145410 -0.039571 0.345011 -0.168175 0.495770 -0.446153 -0.324428 0.623375 0.303346 0.091080 -0.867432 -0.267264 -0.539583 -0.426922 0.110982 -0.902088 0.322511 -0.425393 0.209896 -0.701273 0.209595 0.589428 0.533366 -0.785805 -0.168127 0.577337 0.575383 -0.800850 0.356148 0.019121 0.413265 -1.045923 -0.318502 0.010497 -0.445469 0.733670 -0.306996 0.114185 0.872938 -0.064582 -0.287412 -0.274432 0.113498 0.590806 -0.116586 0.959454 -0.237112 -0.392620 -0.189063 -0.157052 0.250240 -0.155738 -0.382703 0.462744 -0.018735 0.084249 0.725529 0.145027 -0.187894 -0.165181 0.051790 0.246824 1.084394 0.378650 0.079552 0.260062 0.486437 -0.326857 -0.099072 -0.319490 -0.312873 0.201856 0.043992 0.059557 -0.347843 -0.394367 -0.139632 -0.591600 0.842723 0.173877 -0.543364 0.416941 0.568124 -0.586953 0.746799 -0.654821 0.169706 -0.389255 -1.037470 -0.660619 0.228173 0.803324 0.104967 -0.875784 -1.441061 -0.800284 0.342671 0.079627 -0.266461 -0.131838 0.053085 -0.331660 0.218732 0.734658 -0.029987 0.320010 -0.011613 -0.410220 -0.100118 -0.162286 -0.151175 0.497364 0.210012 0.722246 0.031062 -0.270987 0.175947 -0.211734 1.108768 -0.313500 0.047105 -0.336506 0.194930 -0.872093 0.315810 0.190916 0.621159 0.674627 -0.120036 0.010542 0.025661 -0.268592 0.207094 0.709042 0.632771 0.114370 0.713312 0.372454 0.432103 -0.745878 0.473688 0.407323 -0.351152 -0.610638 0.582339 -0.202732 0.160301 0.335036 0.652733 0.118585 -0.322228 -1.402753 0.541638 -1.005098 -0.772254 0.556855 0.169556 0.134292 0.878005 0.907339 0.664439 0.131496 -0.067857 -0.885159 0.408352 0.492266 -0.476868 -0.034304 -0.376874 -0.314816 0.513700 1.080796 -0.525465 -0.164938 0.744327 -0.046875 0.111265 0.596859 0.418476 -0.814487 0.000967 0.628260 0.433402 -0.256493 -0.822252 -0.853890 0.001011 -0.195799 0.758069 -0.073483 0.263459 0.655023 0.002611 0.040415 -0.709730 -0.435074 0.046189 0.222041 0.066431 1.084327 -0.374931 0.503157 -0.588983 -0.125693 0.457570 -0.117491 -0.658980 0.074339 -0.541689 0.318354 0.097607 0.305121 0.900208 -0.214424 -0.123406 -0.727726 0.106166 -0.505310 0.304811 -0.140401 -0.313951 0.030380 0.596256 0.096123 -0.095151 -0.872615 -0.538247 -0.249217 -0.335168 0.814228 0.635965 0.155001 -0.072490 -0.327160 0.023787 0.418255 -1.322951 0.304069 -0.726746 -0.230929 -0.201601 0.255095 -0.851846 0.643632 -1.389253 -0.415813 -0.811766 -0.449023 -0.450492 0.050310 -0.317021 0.256901 0.247359 0.396498 0.103976 0.155334 0.834369 -0.524760 -0.218296 -0.189474 0.013068 0.637662 0.089852 0.031367 -0.207859 -0.090761 0.483635 0.285402 -0.238315 1.174013 0.642156 -0.438610 -0.009599 0.631667 0.369381 -0.159481 0.620584 0.081710 -0.565772 0.109747 0.178886 -0.368479 -0.595857 -0.274227 0.593341 -0.453116 0.555759 0.398908 -0.575866 -0.023829 -0.034118 -0.736875 0.068105 -0.257831 0.593856 0.641729 0.342946 -0.614741 0.112583 0.194088 -0.168227 -0.459970 0.527472 -0.373312 -0.252079 0.167037 -0.110227 -0.119083 -0.635974 -0.269243 0.207569 -0.919926 0.368640 0.074657 -0.407035 -0.262785 0.233683 -0.085036 -0.603088 0.317325 0.417094 0.401716 -0.460373 -1.239932 0.437071 -1.284255 -0.133188 0.053701 0.198209 0.424638 -0.365400 0.951098 -0.592002 -0.149665 0.275444 0.594978 -0.206986 0.292334 -0.184661 0.159936
M015_OFF 0.277782 -0.629209 -0.116590 0.110940 1.029143 0.158228 0.009380 -0.563022 1.102166 -0.766548 -0.108852 0.484572 -0.805787 0.289906 0.837679 0.382514 0.030177 0.418277 0.694313 -0.802458 -0.460475 -0.243332 -0.020851 -0.952148 0.851250 1.011603 0.402865 0.647621 0.570330 0.158173 0.339138 0.772978 -0.169823 0.325924 -0.052983 0.289620 0.641169 -0.256283 0.190990 -0.520602 -0.637504 -0.041311 -0.709854 0.508686 -0.014830 0.875959 -0.273354 -0.266335 0.833851 -0.142612 0.387400 0.191237 0.647427 0.642806 0.906797 0.582199 0.395963 0.162854 0.109258 0.364497 0.589015 0.292738 0.567358 -0.376631 0.498665 -0.247137 -0.542917 0.695531 0.497625 0.360624 -1.162979 0.449591 -0.747460 -0.292674 0.437006 -1.078813 0.232077 -0.767841 0.265198 -0.741841 -0.113916 0.418053 0.059654 -0.924773 -0.116604 0.610534 0.570037 -0.937505 0.246201 -0.136155 0.497920 -0.678793 -0.488597 0.132192 -0.342193 0.557738 -0.435339 -0.325979 0.677505 -0.156438 -0.133321 -0.048365 -0.214439 0.841653 0.265119 0.712905 -0.438079 -0.178227 0.068287 -0.180381 0.565238 -0.406115 -0.711736 0.611772 0.050137 -0.180284 1.046623 0.512152 -0.270650 0.101947 0.212216 0.214849 0.591281 0.583255 -0.029725 0.202477 0.679048 0.184813 0.099182 -0.269326 -0.557711 -0.131275 -0.161684 0.006480 -0.415724 -0.448133 -0.418701 -0.384423 0.419421 0.374580 -0.459093 0.432568 0.231445 -0.539533 0.796711 -0.610390 0.196593 0.078708 -0.644545 -0.392188 0.669750 0.773989 0.216752 -0.436910 -1.520821 -0.898348 0.525585 0.229631 -0.015280 -0.153879 0.108137 -0.240330 -0.197077 0.805674 0.161800 0.299269 -0.193704 -0.425300 0.064972 -0.108840 -0.009044 0.436063 0.203633 0.650504 0.059632 0.177729 -0.066162 -0.004541 1.047266 -0.542645 -0.013349 -0.346976 0.158410 -0.668766 0.138035 0.172249 0.254989 0.807580 -0.147774 -0.055149 -0.016111 -0.496959 -0.246315 0.771851 0.934136 0.605935 0.752482 -0.088054 0.577902 -0.920635 0.583330 -0.096085 -0.070755 -0.560279 0.776712 -0.198229 0.023339 0.306957 0.620425 0.052173 -0.301416 -1.283372 0.585282 -1.110706 -0.601572 0.663022 0.576656 0.227678 0.958569 0.876634 0.454224 -0.115610 -0.124334 -0.573911 0.187778 0.476328 -0.512530 -0.158553 -0.590446 -0.128436 0.560813 0.957624 -0.549877 -0.023861 0.522920 0.288180 -0.205943 0.215832 0.631880 -0.675711 -0.060499 0.829233 0.453873 0.096203 -0.912302 -0.865573 -0.193090 -0.048791 0.757822 -0.282450 0.141437 0.798486 0.146253 -0.062657 -0.616449 -0.348765 0.261251 0.385460 0.146882 1.054368 -0.315883 0.241117 -1.171407 -0.311096 0.471951 -0.213867 -0.911456 0.357316 -0.336714 0.445556 0.258218 0.439098 0.733585 0.017588 -0.075248 -0.690186 0.126925 -0.172344 0.443947 -0.641620 -0.825977 -0.291932 0.235278 -0.374860 -0.147622 -0.918949 -0.185270 0.269732 -0.016482 0.891255 0.706244 0.085955 -0.430779 -0.071234 -0.108384 0.248461 -0.984434 0.494324 -0.832685 -0.488311 0.306619 0.452035 -0.818871 0.700168 -1.255451 -0.559453 -0.647033 -0.169984 -0.251219 0.285500 0.002375 -0.142750 0.121239 0.279807 -0.054071 0.644896 0.654970 -0.513502 -0.095846 0.368512 0.131596 0.128483 0.242664 0.316569 -0.470354 -0.480811 0.725765 -0.167090 0.117715 0.810613 0.894192 -0.005888 0.912127 0.825805 0.462929 -0.349608 0.989051 0.225185 -1.120332 0.011433 0.102686 -0.259565 -0.137511 -0.368438 0.709609 -0.374194 0.593246 0.462415 -0.543387 0.198312 -0.083462 -0.841426 0.222026 -0.022532 0.283349 0.986653 -0.133243 -0.343345 -0.587167 0.170065 -0.225577 0.202011 0.167261 -0.260547 -0.055650 -0.085834 -0.418343 -0.673055 -0.320092 -0.534231 0.067756 -0.625308 0.119305 0.033587 -0.586238 -0.748022 0.196724 -0.330482 -0.746588 0.614382 0.019415 1.264770 -0.422438 -1.365856 -0.006882 -1.487680 0.691512 0.004536 0.176285 0.516869 0.234608 0.548380 -0.610426 0.447915 0.568654 0.727190 -0.421713 0.580734 -0.307197 -0.240049
M015_ON -0.127561 -0.231090 -0.676730 0.301296 0.622038 -0.037775 0.067948 0.177289 0.104968 -0.525601 -0.340546 -0.004836 0.132553 0.414640 0.477333 0.548793 0.040179 0.004132 0.939421 -0.334307 -0.830256 -0.277743 0.259181 -1.174517 0.416701 0.404483 -0.293682 0.297758 0.925999 0.057099 0.206283 -0.025906 -0.214681 -0.142298 0.412242 0.731037 0.127532 -0.441986 -0.029922 -0.450688 -0.113964 -0.018033 -0.677794 0.343866 -0.261136 0.345262 -0.043459 -0.249359 0.481799 0.016738 -0.056837 0.525043 -0.181080 0.646586 0.617165 0.628064 0.321025 0.490529 0.057650 0.543464 0.626731 -0.226732 0.285369 -0.169645 0.538878 -0.506013 -0.252618 0.997720 0.504354 0.304828 -0.160856 0.160598 -0.842961 -0.372898 0.633384 -0.759588 0.205251 -0.268613 0.425274 -0.463276 0.198410 0.526996 0.671874 -0.540476 -0.439068 0.624015 0.597095 -0.728042 0.378288 -0.069711 0.430809 -0.825282 -0.570593 0.320673 -0.639638 0.592099 -0.578857 -0.235915 1.070513 -0.339198 -0.301758 -0.346304 0.149411 0.463532 -0.193720 1.063905 -0.127398 0.018864 -0.446767 0.202664 0.066705 -0.196942 -0.674963 0.256355 0.154234 -0.275176 0.242173 0.518309 -0.126783 -0.093315 0.297679 0.401939 0.880832 1.022278 -0.243451 0.176945 0.824888 -0.243954 0.010026 -0.814648 -0.193000 -0.031694 -0.213990 -0.226356 0.164984 -0.289129 0.477368 0.012455 0.261729 0.416249 0.008966 0.908907 0.395138 -0.438661 0.873938 -0.926957 -0.010083 0.426112 -0.937948 -0.717212 0.701136 0.614397 0.298102 -0.241373 -2.042301 -0.725761 0.640200 0.316545 -0.180617 -0.098810 0.297081 0.020480 -0.459465 0.649640 -0.391416 0.255546 0.084254 -0.038818 0.003458 -0.236764 -0.302047 0.108388 1.346430 0.843304 0.535887 0.182725 0.011322 -0.484378 0.818960 -0.341951 0.158177 -0.718275 0.051036 -1.050743 0.275025 0.201949 0.128344 0.761835 -0.052632 -0.266068 -0.232774 -0.551645 -0.262468 0.669558 0.331399 -0.129869 0.503418 0.336387 0.206269 -0.786165 0.947452 -0.047502 0.040646 -0.559690 0.931381 0.103106 0.423667 0.320635 0.777140 0.196339 0.040683 -1.378372 0.316136 -0.902048 -0.686864 0.521937 0.065868 0.066175 0.830327 0.894763 0.253601 -0.164172 0.100135 -1.140494 0.349040 0.822407 -0.686843 -0.166627 -0.509298 -0.352601 0.582791 1.149821 -0.663398 -0.497069 0.731610 0.153093 0.105418 -0.084519 0.162094 -0.426872 0.326291 0.422683 0.118703 0.246792 -0.445710 -0.376173 0.180229 0.453893 1.019915 -0.766350 0.238498 0.385002 0.554281 -0.075931 -0.944970 -0.467394 -0.319777 -0.051459 -0.157696 0.944768 -0.224163 0.222816 0.075499 0.131962 0.373810 -0.145224 -0.428070 0.440762 -1.027306 -0.191551 0.156195 0.709930 1.138417 0.132140 -0.069970 -1.114784 0.132962 0.108737 0.237146 0.392925 -0.152542 -0.433322 0.810245 -0.376866 -0.067278 -1.170773 -0.640917 0.009186 -0.484619 1.019834 -0.064412 0.589481 -0.275618 -0.201421 0.094449 -0.156835 -1.532463 0.540105 -1.165073 -0.009733 0.061771 0.328277 -0.741539 0.048705 -1.420750 -0.502852 -0.719765 -0.401773 -0.398924 -0.009983 -0.435729 0.139478 0.438083 0.165947 0.500894 0.163252 1.108271 -0.487182 -0.136285 -0.296632 0.084358 0.480099 -0.054345 0.400015 -0.081505 -0.212025 0.326106 0.144532 -0.828851 1.504973 0.621518 -0.560844 0.512855 0.743631 0.488227 -0.800182 0.808836 0.621573 -0.560766 -0.091836 -0.002102 -0.722688 -0.364322 -0.034857 0.515699 -0.408503 0.942341 0.513291 -0.142249 0.107195 -0.073507 -0.623683 -0.150297 -0.031876 0.463806 0.602477 0.258936 -0.603456 -0.088971 -0.106948 -0.051399 -0.489488 0.922276 -0.092491 -0.355911 0.551602 -0.534592 0.347383 -0.808664 -0.345498 -0.461058 -0.839302 0.220487 -0.019333 -0.342343 -0.258750 0.119944 0.118432 -1.335448 0.483844 0.216052 1.198730 -0.655332 -0.975418 0.533118 -1.344742 0.317062 -0.025312 0.175455 0.960280 0.070129 1.416503 -0.674468 0.328047 0.139050 0.865296 -0.020986 0.434879 -0.484298 0.146218
M007_OFF 0.203176 0.176167 0.065473 0.436217 0.062596 0.191848 0.228018 0.526232 -0.487664 -0.203134 -0.178915 0.189331 -0.032325 -0.575471 -0.271951 -0.338441 -0.947926 0.109824 -0.379399 -0.204719 0.283188 0.728505 0.274110 -0.314684 0.217388 -0.360596 -0.027871 -0.376445 0.131632 -0.198858 -0.380908 -0.294626 -0.050820 -0.405699 1.004439 -0.388813 -0.165956 0.007628 0.312029 -0.146746 -0.732789 0.480260 0.977634 0.221523 -0.425781 0.039528 0.020361 0.179098 -0.619993 0.278461 -0.104131 -0.005362 0.501631 -0.400209 0.021840 -0.386840 -0.369977 -0.862759 0.137707 0.231846 0.223450 -0.011712 -0.743734 -0.592931 0.326892 0.741682 0.448058 -0.723430 -0.890179 -0.354658 0.303489 0.263839 0.593605 0.518751 -0.845684 0.638265 -0.039647 -0.043268 0.078399 0.091773 0.031031 -0.352654 0.159897 0.390217 0.330189 -0.180541 -0.553847 0.720987 0.452920 -0.486007 0.036001 0.565869 0.847665 0.121022 0.888497 -0.514013 0.413969 -0.521479 -0.616745 0.135710 0.025761 0.557501 -1.112192 -0.193392 0.628286 -0.900322 -0.252320 0.564553 0.461350 0.101699 0.568433 -0.080289 -0.146562 -0.470249 1.185592 -0.058009 0.279509 0.174118 -0.584189 0.122028 -0.883616 0.473627 -0.596609 -0.454089 0.046181 0.011420 -0.945407 0.774182 -0.230835 0.489123 0.226090 -0.043226 -0.029222 -0.578970 0.396204 -0.177844 -0.531436 0.082899 -1.153233 0.094850 -0.090623 -0.867838 -0.223496 0.110539 -0.093312 1.195209 -0.030749 0.892551 0.594346 0.145636 -0.068791 -0.586670 -0.393327 -0.230357 0.619453 0.558018 0.288474 0.359898 0.421667 0.362085 0.601764 0.251820 -0.080991 -0.296341 -0.527873 -0.950066 -0.857250 0.018195 -0.221465 0.318457 -0.300034 -0.145286 0.800997 -0.437580 0.911310 0.595558 -0.114781 0.251373 -0.098694 -0.880790 0.853053 0.058161 0.598084 -0.108882 -0.620452 -0.754934 -1.023967 -0.458341 0.344344 0.773540 -0.016709 -0.003669 0.344105 0.426373 0.561629 -0.092515 0.019256 -0.153616 0.294657 0.833923 0.065856 0.366089 -0.474033 0.952996 -0.055653 0.121137 0.492014 -0.006053 0.166629 0.006627 0.373205 0.617204 0.637931 0.267752 -1.048369 0.436016 1.205162 0.063996 -0.032649 0.188863 0.438163 -0.200532 0.015535 0.409924 -1.221582 -0.310967 -0.064168 -0.370286 0.762306 0.603731 -1.202613 -0.024872 0.037033 0.318291 0.578844 0.160170 -0.195428 0.025242 -0.054463 0.318161 0.861620 -0.677300 -0.845937 0.154701 0.551383 -0.066262 0.013737 -0.735247 -0.179363 -0.065516 -0.776983 -1.335830 -0.574991 -0.068634 0.243380 -0.190670 1.097229 0.039088 0.152849 -0.800490 0.893898 -0.512813 0.204357 -0.776176 0.546849 -0.479201 0.599470 -0.773812 -0.174591 0.048039 0.034994 -0.518543 0.216264 -0.551140 0.029363 0.486144 -0.113058 0.101654 -0.515893 0.262540 0.075569 0.211676 0.481679 0.529747 0.145356 0.723017 0.403209 -0.119802 0.710386 -0.093209 0.230311 -0.637539 -0.418467 0.394706 1.082623 0.486622 0.908756 0.133158 -0.378296 0.607028 -0.125037 -0.227702 0.860880 -0.520777 0.402823 -0.032811 0.296070 0.177526 0.491473 0.742788 0.435715 0.172424 -0.829310 0.207354 0.486265 0.208311 -0.141985 0.086019 -0.125067 0.424860 -0.488872 0.209609 -0.255540 1.120440 -0.014601 -0.776550 -0.027057 -0.357484 0.683248 -0.862180 -0.436399 0.290874 -0.573286 -0.678974 0.740811 -0.115157 -0.590149 0.116085 0.931060 -0.032152 0.360482 0.719883 0.209560 0.348763 0.484592 -0.028445 -0.200345 -0.412935 0.383226 0.737484 0.005080 0.343226 0.122346 0.651359 -0.520619 -0.372273 0.088250 0.531612 0.457639 0.158417 0.476010 -0.056112 -0.049314 -0.296990 -0.521181 0.387361 -0.127858 -0.245155 0.163113 0.291743 0.147926 0.926668 0.041593 0.710587 1.003695 -0.287644 -0.745072 -0.058032 0.799746 0.184583 -0.130243 0.328358 0.446394 1.654055 0.148903 1.683186 0.139917 0.490618 1.029561 0.669770 -0.447152 -0.483771 0.635932 -0.574497 0.759192 -0.063079 0.825851 0.254879 -0.204558 -0.631686
M007_ON -0.397930 0.105711 -0.179648 0.948510 -0.230291 0.543445 0.532380 0.069431 -0.582225 0.055152 -0.475916 -0.365167 -0.057165 -0.387709 -0.697537 -0.184139 0.034891 -0.800766 -0.075080 0.021102 1.112307 0.760870 0.277532 -0.001127 -0.193284 -0.034939 -0.544234 0.166041 0.432775 -0.209087 -0.125345 -0.442832 0.337961 -0.582832 1.279047 -0.461558 -0.284810 0.266884 0.005484 -0.145898 -1.169526 0.286861 0.419680 0.276439 0.182437 0.264684 -0.762226 0.436186 -0.588185 0.025326 -0.037424 0.109176 0.161693 -0.368835 -0.437078 -0.388359 -0.393738 -0.789734 -0.221854 -0.310845 0.558457 0.075799 -0.350298 -0.326040 -0.241454 0.619972 0.281993 -0.858780 -0.133658 -0.600100 0.495679 0.310651 0.013058 0.295674 -0.385371 0.573232 -0.189432 -0.033350 -0.145537 0.143107 0.090331 -0.015819 -0.026446 0.050747 0.309744 0.299130 -0.429565 0.913391 0.009794 -0.628423 -0.399161 0.464187 0.703491 -0.083177 0.519615 -0.055361 0.021244 -0.730324 -0.449764 -0.140410 -0.354869 0.375831 -1.019987 -0.164991 -0.091506 -0.323135 0.410647 0.271579 0.379031 0.041981 0.515010 -0.109082 -0.008800 -1.245443 0.973019 -0.171288 0.019667 0.277132 -1.211570 -0.116519 -0.446475 0.286559 -0.107203 0.384509 0.278023 -0.474210 -0.633749 0.951013 -0.033841 0.489753 -0.006591 -0.678280 -0.048044 -0.289773 1.199438 -0.107439 -0.433362 -0.015183 -0.578710 -0.499499 0.007385 -0.408715 0.131580 0.703391 -0.219157 1.226219 -0.320004 0.834355 0.384676 0.086002 -0.365969 -0.627198 -0.701466 -0.225594 0.250726 0.479924 0.194953 0.530545 0.108595 0.518570 0.318860 0.160844 -0.065435 -0.359906 -0.900138 -0.767890 -0.099542 0.231184 -0.531479 1.154941 -0.304425 -0.546613 0.985510 -0.769700 0.595511 0.450125 0.073107 0.170820 -0.303945 -0.356918 0.452330 0.022231 0.725248 -0.541318 -0.192538 -0.052970 -0.601623 0.177472 0.789705 0.934606 -0.612073 0.406241 0.482397 0.279546 0.743140 -0.871349 -0.002059 0.219989 0.015807 0.075957 0.423258 -0.173706 -0.300644 0.132480 -0.239168 0.691019 0.367037 -0.628931 -0.089084 0.034221 0.664101 0.703765 0.594394 0.300584 -0.113147 0.555603 0.808140 -0.081377 -0.194549 -0.067720 0.266616 -0.811522 -0.145044 -0.030001 -1.179744 -0.245580 0.460839 -0.120368 0.434800 0.407893 -1.119325 -0.451375 0.630433 0.163520 0.788807 -0.021880 0.050112 -0.455130 -0.171484 1.007687 0.472346 -0.376687 -0.142911 0.005723 0.579330 0.149855 0.053223 -0.539023 -0.091176 -0.575702 -0.444256 -0.862695 -0.313547 -0.570844 0.399592 0.004146 0.587954 0.068531 -0.043916 -0.629111 0.926765 -0.266294 0.393178 -0.418642 0.330589 -0.568432 0.739530 -1.125031 0.415136 -0.026607 -0.140438 -0.476515 0.057937 -0.969053 0.373273 0.372654 0.139677 0.190182 -0.144638 0.688788 0.659116 0.780975 0.309327 0.835525 -0.438839 0.610197 0.127919 -0.288672 0.250695 0.528780 0.170004 -0.448015 -0.219904 0.265192 0.628363 0.046240 0.733750 0.086836 0.093411 0.555380 0.135541 -0.279879 0.550994 -0.317437 0.537265 0.308575 0.222039 -0.004327 0.534261 0.608283 0.721344 0.436062 -0.767707 0.216091 0.678570 0.034251 -0.219288 0.092468 -0.007394 0.393089 -0.635710 -0.174530 0.244867 0.403544 0.299144 -0.046826 -0.082370 0.000564 0.659721 -0.373544 -0.670240 0.071436 -1.049667 -1.077003 0.885653 -0.064034 -0.481243 -0.230357 0.949984 0.386909 -0.420236 0.535874 -0.705387 0.048001 0.374662 0.251645 0.034377 -0.548542 0.387466 0.374072 0.436167 0.069953 -0.114327 0.470607 -0.442481 -0.435307 0.134681 0.465533 0.111296 0.450145 0.947531 -0.236791 0.217047 -0.207688 -0.745754 0.215596 -0.445825 -0.106026 0.199621 0.560362 -0.775647 1.204609 0.192123 0.280506 1.024943 -0.222040 -0.741538 0.214935 0.366009 0.096853 -0.205902 0.057258 0.375087 1.493379 -0.045270 0.119693 0.433717 0.906400 0.563209 -0.154857 -0.045315 -0.661435 0.023507 0.124061 -0.604000 -0.562464 0.409053 0.192079 -0.218736 -0.309373
M014_ON 0.353516 -0.599451 0.205497 0.090871 -0.024354 -0.989343 -0.709087 -1.368626 0.927785 0.206154 0.514847 0.887464 -0.393883 0.269104 -0.107327 -0.215302 0.285896 0.245260 0.518720 0.381258 -0.304746 -1.134069 0.126425 1.003206 0.299845 0.386892 0.189849 -0.071929 -0.088640 0.175017 0.094215 -0.183002 0.726813 0.579786 0.345176 0.111508 -0.778360 -0.054055 -0.109641 -0.291790 0.469913 -0.150149 0.282163 -0.235853 -0.207298 -0.271501 0.491141 0.187358 0.139348 -0.151571 0.106765 0.917268 -0.862457 -0.039300 -0.168877 -0.410112 -0.780996 0.437708 0.076240 -0.348029 -0.906790 -0.829791 -0.523249 -0.009514 -0.137088 0.166957 -0.835349 1.119437 -0.241795 0.242957 -0.461126 0.042928 -0.043334 -0.711975 0.031557 0.151438 -0.985599 0.572318 0.199097 0.205755 0.059570 0.700580 -0.000492 0.322110 -0.043663 1.101914 -0.186803 -0.080646 -0.117675 0.200951 -0.465772 -0.840876 -0.196615 -0.115386 0.018347 -0.851997 0.280055 0.352848 0.466976 -0.576860 -0.365871 0.508795 1.699217 0.012027 0.254859 -0.150541 -0.496437 -0.567022 0.204826 -0.007539 0.154756 1.948530 1.153374 0.364083 0.013282 0.151824 -0.163108 -0.901008 -0.212315 -0.373138 0.429418 -0.304739 -0.639818 -0.704799 0.495875 0.017475 -0.671346 -0.024498 0.859457 -0.568909 -0.084397 -1.004157 0.495582 -0.061760 0.268629 -0.009110 -0.191105 0.923580 1.401208 -0.191890 -0.090195 -0.121540 0.270458 -0.944539 -0.800971 -0.146043 0.493172 -0.730854 -0.115288 -0.488688 -0.578306 0.821480 0.480103 -0.404194 0.172211 -0.632410 -0.431686 -0.403182 -0.230942 -0.362989 0.345529 -0.879420 0.424225 0.862796 0.289493 0.656433 0.818445 0.761370 -0.616789 -0.301145 -0.580263 -0.006090 0.285318 -0.233304 -0.076470 0.593642 -0.212557 0.086302 0.383072 0.418895 0.265609 -0.213563 -0.367250 0.125025 0.327832 -0.109514 0.377025 -0.051958 0.099750 -0.155426 0.287193 0.000569 0.802395 -0.797436 -0.129567 -0.040648 0.157924 -0.251701 0.572695 0.517831 0.088716 -0.178878 -0.534331 -0.047433 0.941736 -0.752269 -0.001326 0.081895 0.150647 -0.388578 -0.676599 -0.200827 1.225132 0.019465 0.565592 0.296564 -0.620553 -1.281270 0.233024 -0.138338 0.534182 0.039417 1.324274 0.088412 -0.375255 0.360994 -0.648822 0.336979 -0.212644 0.275420 0.322960 0.240279 0.798067 0.770914 -0.747916 -0.410322 0.782006 0.389460 0.026983 -0.771438 -1.202353 -0.035547 0.682212 -0.579107 -0.959978 -0.883627 1.135667 -0.465467 0.716721 0.864408 0.060831 0.825870 -1.039742 1.033388 0.342394 -0.634888 -0.616112 -0.667267 -0.156973 0.188106 -0.222585 -0.146367 -1.695386 0.638908 -0.100935 0.462066 0.262739 0.942577 0.221600 0.824345 0.386457 0.197400 0.587197 0.434960 0.833761 0.875410 0.886486 -1.286811 -0.962193 -0.274313 0.227050 0.294657 -0.025837 0.919787 0.919669 0.068695 -0.258821 0.441709 -0.054592 -0.051194 -0.253537 0.351619 -0.361517 -0.084180 -0.658275 0.158464 0.297325 0.172429 1.012313 0.349962 -0.809879 -0.548004 0.159762 -0.229706 0.240450 0.258402 0.402160 -0.138838 -0.344936 -0.507659 -0.037587 -0.381576 -0.579444 0.527855 -0.422532 0.077190 -0.382466 0.316681 -0.000894 -0.769279 -0.035940 0.353222 0.155026 -0.538646 0.327063 2.498092 0.006208 0.934275 0.228613 1.477137 -0.011302 -0.532075 -0.148767 -0.201108 -0.203754 0.110223 -0.088770 0.190843 -0.117655 -0.221629 0.040396 -0.115339 -0.652937 0.335515 -0.151624 -0.248863 -0.479987 0.234398 -0.686462 -0.573711 0.494691 -0.158294 0.213591 -2.056691 0.638193 -0.407349 1.173503 -0.241389 0.617834 -0.134251 0.527050 0.148661 0.168174 -0.755657 0.507330 0.073412 0.696448 0.125590 -0.593763 0.059169 -0.197544 -1.714578 0.884881 0.100071 -0.271217 0.186104 -0.987195 -0.165855 0.253483 -0.856836 0.355390 -0.733291 -0.048040 -1.046304 -0.680060 -0.785904 -0.519898 -0.957867 -0.347625 -0.959625 -0.487699 0.318494 -1.264280 0.133774 -0.710788 -0.083769 -0.656589 0.068333 0.329974 0.556184
M014_OFF 0.990468 -0.272856 -0.056849 0.135152 -0.092659 -1.390465 -0.527909 -2.044731 1.026108 0.800153 -0.379063 0.753234 -1.208325 0.385785 0.228556 -0.383758 0.206141 0.016110 0.607630 0.110232 -0.087527 -0.689847 0.205295 0.963917 -0.337453 0.375795 0.441428 0.391200 -0.864837 0.146505 0.153450 0.515177 0.585316 0.183784 -0.663395 0.628780 0.467308 -0.574992 0.587220 0.407575 0.195873 0.113237 0.268233 0.017137 -0.503740 -0.510134 0.655931 -0.807958 0.001369 -0.558917 0.449669 0.591808 -0.904267 0.541631 -0.478097 -0.222011 -0.150264 0.424048 0.157699 0.111722 -0.374871 -0.591820 -0.706097 0.815038 -0.286916 0.539484 -0.628604 0.579480 -0.275851 -0.453533 -0.798608 -0.759924 -0.209253 0.006069 0.277026 -0.267155 -0.796806 1.319128 -0.267058 0.256230 0.433088 0.710870 0.214061 0.115531 0.291741 0.402591 0.185825 -0.855717 -0.302857 -0.300908 -0.751371 -0.974113 -0.591753 -0.462702 -0.059834 -0.327876 0.604550 0.476612 0.544736 0.495515 -0.336648 -0.205754 1.375457 -0.632729 -0.387467 -0.101111 0.593605 0.052809 -0.815146 -0.858379 0.233347 1.983394 0.361847 0.310092 -0.373194 0.857687 -0.237032 -1.178524 -0.530953 0.174563 0.298889 0.835019 -0.083571 -0.733115 -0.196276 0.403458 -0.239286 0.789051 0.218248 -0.446893 -0.062324 -0.734392 0.319181 -0.080681 -0.112417 -0.504593 0.434419 1.034054 0.988226 0.267210 -0.310064 -0.122657 0.257486 -0.251318 -0.919546 -0.496030 0.488883 -0.744487 -0.380572 -0.010079 -0.259440 0.574302 0.721491 -0.072512 0.279876 -0.773665 0.162451 0.246429 -0.302241 -0.135977 0.089052 -1.021462 0.264969 0.006135 0.695674 -0.020060 0.992356 -0.459847 -0.248310 -0.936599 -0.944689 -0.021079 -0.642138 -0.257797 -0.059150 0.084583 0.411757 0.019685 0.110346 0.276338 -0.135207 -0.361673 -0.181881 -0.391737 -0.106209 -0.292909 0.068286 -0.240003 0.022061 0.331017 0.494431 0.535094 0.407874 -0.403340 -0.174658 0.001359 0.161800 0.137444 1.106556 0.285334 0.373532 0.362270 0.418508 0.433840 0.586352 -0.893256 0.157446 0.191022 0.225058 0.296221 -0.853500 0.062319 0.339130 0.128807 0.311754 0.073209 -0.525140 -0.407048 -0.097640 1.051307 -0.117258 -0.062074 1.720175 0.060982 -0.539264 0.317649 -0.761645 -0.366814 -0.018109 0.705181 -0.245963 0.053239 0.739645 0.518639 -1.055300 -0.570943 0.653322 0.544240 -0.513426 -0.845700 -0.877751 -0.467435 0.270683 -0.646226 -0.837591 -0.137033 0.770735 -0.343910 -0.193187 0.143788 -0.110651 0.435872 -0.696657 0.926504 0.304806 -0.373667 0.004825 -0.242126 -0.360931 0.270049 -0.633786 -0.346255 -1.001501 0.491311 -0.426018 0.794363 0.121489 0.882282 0.147207 0.071323 0.028793 0.730306 0.537369 0.240710 0.791142 0.271227 0.608695 -1.032645 -0.832065 -0.063095 0.094980 -0.033638 -0.358730 0.598765 0.659840 0.005015 -0.008966 0.587033 -0.567870 0.007768 -0.230634 0.107518 -0.464839 -0.011391 -0.840920 0.024483 -0.210164 0.418859 0.769472 -0.074609 -1.004167 -0.265025 0.388087 -0.196628 0.498746 0.229009 0.267430 -0.485592 -0.403879 -0.311099 -0.247329 -0.253570 -1.119432 0.702023 -0.158227 -0.150264 -0.017131 0.171242 0.176323 -0.918479 0.085841 1.000903 -0.358363 0.287339 -0.345293 2.178823 -0.027667 0.741107 -0.119566 1.093997 -0.413951 -0.493656 -0.294582 0.135463 -0.629835 -0.601807 0.121499 0.759266 0.291344 -0.177106 0.277278 0.457571 -0.384111 0.392957 -0.784539 -0.254359 -0.848934 0.176358 -0.172295 -0.041080 0.101035 -0.251669 0.318633 -1.432115 0.854346 -0.492491 1.560456 -0.470692 1.204355 -0.488323 0.609259 0.099397 0.545331 -0.307347 0.214997 0.596442 0.365948 0.913327 -0.926662 0.774931 0.580087 -1.699093 0.927735 0.931914 -0.147436 0.364511 -0.746884 0.202635 0.074901 -0.470668 0.420699 0.011139 0.458916 -1.104939 -0.366805 -0.551824 -1.059959 -1.009214 -0.480462 -0.631583 -0.581385 0.314236 -0.292698 0.194619 -0.266095 -0.093218 -0.292295 0.117316 0.612884 0.219262
M013_ON 0.100347 -0.034001 0.941698 -0.167116 -0.975977 -0.196060 -0.002764 -0.995729 -0.158195 0.266680 0.076877 0.085565 0.043686 0.136612 0.231429 -0.242336 -0.475765 -0.450039 -1.005499 0.568461 0.230270 -0.023616 0.452062 0.371398 -0.826716 -1.414492 0.975436 -0.797509 -0.651861 0.138739 0.672452 0.628512 0.695690 -0.490712 -0.709996 0.707033 0.374985 -0.214519 -0.105623 -0.416286 0.324335 -0.417040 -0.715739 0.272903 0.007616 -0.921256 0.733001 0.349666 0.063285 -0.629997 0.405127 -0.182270 0.005448 0.352406 -0.720433 -0.375880 0.257284 -0.623246 -1.238012 -0.949486 -1.223818 -0.355259 -0.335339 0.017384 -0.780761 -0.637713 0.004883 0.475277 -0.878025 -0.310995 -0.367367 0.218407 0.395712 -0.631772 -0.202488 0.099283 0.149068 -0.231944 -0.659679 -0.553807 0.341080 -0.692966 0.138215 -0.198097 1.138177 -0.505878 0.036460 -0.665350 -0.694386 -0.017802 -0.106275 -0.435879 -0.064634 -0.450012 -0.595127 0.228232 0.359283 0.901081 -0.912564 -0.646517 -0.173155 -0.180230 1.545741 -0.840593 -0.039297 0.496378 -0.579172 0.756036 -0.429328 0.026090 -1.741962 0.095766 0.449374 1.130803 0.241081 -0.000357 -0.720023 -0.135912 0.865355 -0.622741 -0.229276 0.590953 -0.237435 -0.430771 0.783376 -0.521096 0.246050 -1.060785 0.162830 -0.427552 0.449107 -0.203535 0.429625 -0.294686 -0.968284 0.735151 0.017809 0.036305 0.186854 -0.164840 -0.171629 0.078247 -0.777329 -0.532559 -0.547589 0.098099 0.289934 -0.801231 -0.302123 0.452041 -0.426905 0.299861 0.189937 0.026334 0.180316 0.276257 -0.939660 -0.147522 0.265246 0.583663 -0.733180 0.108914 0.376414 -0.119737 0.588906 -0.875662 0.607802 -0.418621 1.126856 -1.548627 0.392068 0.004525 -0.821555 0.130102 -0.792839 -0.217983 0.154979 -0.224639 -0.531299 1.299253 0.173624 -0.223751 -0.430917 0.514580 -0.080343 -0.712099 0.773933 -0.835301 0.216876 0.372117 1.000405 0.078255 1.425588 -1.611852 0.046544 -0.054077 -0.358081 -0.211630 0.277528 -0.261172 -0.403406 -0.071670 -0.036159 -0.538136 -1.074153 0.831019 -1.034177 0.226329 0.117757 0.392653 -0.804577 0.723181 -1.702765 0.458166 0.842896 -1.071169 -0.546574 0.497641 -0.649893 -0.086325 -0.905321 0.813164 0.138763 0.115560 1.309003 0.078788 -0.273893 0.494399 0.225700 -0.728077 0.519578 0.463477 0.098345 -0.385911 -0.794373 -0.246629 -0.511972 -0.405979 -0.116925 0.440025 -0.277133 0.322391 -0.266727 0.162802 -0.159712 0.443792 0.389246 0.093421 0.007924 0.543863 0.939476 1.089480 -0.160169 0.077048 0.303701 -0.194306 -0.634774 0.280464 -0.232737 0.096178 -0.715345 0.353570 0.293304 -0.214488 0.069804 0.554750 -0.153031 0.553248 0.520388 0.274625 -0.314092 0.280041 -0.541417 1.108828 -0.160049 0.334386 -0.485173 -0.140078 -0.022548 -0.743574 -0.140967 0.108633 -0.589187 -0.065714 -0.825523 -0.342613 -0.725852 -0.414181 0.102722 -0.634028 -0.815005 0.565105 -0.141290 -0.180565 -0.745527 0.010103 0.156132 -1.282601 -0.053585 0.423736 0.176188 0.316285 -0.277578 -0.442931 -0.092353 -0.021169 0.031388 -0.054105 -0.781462 -0.037617 0.180949 -0.051969 -0.034241 -0.016020 0.037318 -0.138626 -1.024534 0.391151 0.603968 -0.497303 -0.126831 0.274243 0.405089 -0.299363 0.090503 -0.230611 0.307664 0.284644 -0.165282 -0.203536 0.140961 0.242596 -0.280877 -0.194513 -0.224639 0.177133 -0.553999 -0.163149 -0.412358 -1.138376 0.258305 -0.368611 -0.330733 -0.155376 0.099081 -0.019685 0.063887 -0.187010 -0.554234 -1.166584 -0.559424 -0.078077 0.052075 -1.168501 -0.141192 -0.247514 -0.699580 -0.037088 -0.480463 0.142352 -0.374524 0.405011 -0.289883 0.281960 0.839546 -0.141127 0.774393 -0.740139 0.021082 -0.022282 -0.110296 -0.315872 0.102826 -0.394693 -0.066998 0.481182 0.328874 0.417136 -0.186305 -0.462955 0.282144 -0.570428 -0.381261 -1.257673 0.299947 -0.464746 -0.614775 -0.319152 -0.826088 -0.603730 0.435122 0.659273 -0.368408 0.367358 -0.081003 -0.660716 -0.579312 -0.257571 0.125577 -0.044975
M013_OFF 0.010329 -0.341106 0.761642 0.045282 -1.053098 -0.356584 -0.176619 -0.705436 0.083134 0.348767 0.314715 0.133618 -0.479592 0.277476 -0.092705 -0.474346 1.085138 -0.288695 -0.543268 0.197656 0.837237 -0.033752 -0.016115 0.894092 -0.477106 -0.065802 0.928953 0.192471 -0.014955 0.862429 0.606746 0.844828 0.683830 -0.360302 -1.173862 0.970613 0.155018 -0.090869 0.077291 0.311972 0.889293 -0.115897 0.176896 0.011566 -0.753005 -1.076396 0.397870 0.845794 -0.399075 -0.673728 0.097739 -0.409870 -0.463426 0.393768 -0.856283 -0.711998 0.158362 -0.472034 -0.463425 -0.430308 -0.982625 -0.576408 -0.274822 0.266339 -0.549817 -0.797952 -0.249961 0.843593 -0.010799 -0.865187 0.843520 -0.515942 -0.165049 0.466044 -0.151203 0.372994 -0.100377 -0.140390 -0.738844 -1.012110 -0.118925 -0.278524 -0.207683 0.081032 0.373081 -0.693825 -0.118349 0.473632 0.021358 0.301529 0.283665 -0.426085 -0.266408 -0.053335 -0.204709 -0.162803 0.549022 0.547075 -0.294430 -0.232627 -0.426685 0.412253 0.948242 0.297766 0.243177 -0.356881 -0.294887 -0.588995 0.516113 1.082284 -1.248167 -0.015062 0.172506 0.414397 -0.041907 0.027091 -0.713981 -0.873043 0.491691 0.384084 0.028807 0.425033 -0.411126 -0.543768 0.568360 -0.477771 -0.559504 -1.041808 0.088564 -0.272530 0.052206 0.263091 0.359250 -0.138541 -0.679203 0.691122 0.487273 0.327322 0.456354 -0.118163 0.182229 0.302875 -0.063766 -0.228390 -0.725461 0.239619 -0.089207 0.069542 -0.465723 0.330341 -0.163137 0.361692 0.490753 0.024327 0.534733 0.003713 -0.423361 -0.257870 0.258099 0.210542 -0.536638 -0.436918 -0.666514 -0.897896 1.122077 -0.713092 0.381785 -0.632464 0.736501 -1.832372 -0.027999 0.086965 -0.301444 0.446789 -1.167886 -0.111556 -0.406163 0.234694 -0.623417 1.118793 -0.671029 -0.254158 -0.661096 1.025010 -0.243140 -0.666642 -0.076175 -1.082115 -0.262981 -0.224378 1.147777 -0.243855 0.598592 -0.956732 -0.590789 0.094717 -0.156213 0.073356 0.004153 -0.020350 -0.689050 0.013956 -0.359012 -0.645433 -0.765729 -0.293465 -1.090551 0.197546 0.242202 -0.260029 -0.194622 -0.018995 -1.720222 0.415116 0.015801 -1.055708 -1.093474 0.111783 -0.799257 -0.333465 -1.028019 0.200433 0.096736 0.155406 0.953230 0.550463 -0.416279 -0.533386 -0.212130 -0.341563 0.752474 -0.018701 0.189421 0.029142 -0.750451 -0.187983 0.051678 -0.405536 -0.857356 0.805195 -0.150539 0.743621 -0.564032 -0.094476 -0.664445 0.602093 0.280590 -0.062550 0.597419 1.091512 0.095989 0.438610 0.262125 -0.124660 -0.078315 -0.171915 -0.737734 0.254078 -0.415644 -0.339950 0.242265 0.567126 -0.001448 0.333246 -0.006727 -0.467955 -0.665097 0.009480 0.463264 0.220375 0.084701 0.437340 -0.057991 0.919328 0.075009 0.462485 -0.251742 -0.549521 -0.390710 -0.114419 0.154853 0.348298 -0.529828 0.104732 0.081543 0.291509 -0.842216 -0.501310 0.065896 -0.099739 -0.230252 0.530076 -0.177750 -0.598169 -0.955121 -0.723222 0.122959 -0.291818 -0.058047 -0.568506 -0.753751 0.214471 -0.319876 0.103343 -0.166354 0.264474 0.530026 -0.110288 -0.757068 -0.195290 -0.114048 -0.482569 0.562093 -0.312830 -0.500446 -0.011049 -0.647965 0.112812 0.628946 -0.093093 0.701115 0.574923 0.069991 -0.102749 -0.089363 0.124371 0.168938 0.135510 -0.302890 0.001152 0.388478 0.424973 0.108867 0.274733 -0.087862 0.132041 0.210148 -0.260493 -0.550614 -0.836289 0.998590 -0.002354 -0.240029 0.210408 0.065867 0.090034 -0.154972 -0.322978 0.029184 -1.973723 -0.509557 -0.441174 0.029194 -0.959326 0.670360 -0.011378 -0.633356 -0.452154 -0.526731 0.372264 -0.255749 0.322935 0.331279 0.555166 1.353162 0.235946 -0.297414 -0.729662 0.294621 0.171668 0.453212 -0.775313 0.252104 -0.426749 0.834218 0.326018 0.770620 0.493140 -0.130079 0.092312 -0.062527 0.307068 -0.717922 -0.518717 -0.694291 0.973100 -1.359562 -0.528563 -0.262853 0.175236 0.369853 0.024045 0.333247 -0.111159 0.492840 -0.419092 -0.255333 -0.623684 0.853516 -0.374070
M018_ON 0.501863 -0.278866 0.203616 -0.560875 0.105291 -0.249229 -0.303927 -1.654173 1.387029 -0.017693 -0.298309 0.576017 -0.980960 0.441931 0.525055 -0.824241 0.378088 0.443258 0.599446 -0.059788 0.536598 -0.237988 0.144310 0.275223 -0.042784 0.412228 0.781588 -0.037877 0.218283 0.474275 0.463531 0.894263 0.161873 0.271954 -0.500047 0.766065 0.727127 -0.169494 0.255142 0.138080 -0.040443 -0.225895 -0.404097 0.270275 -0.051808 0.005973 0.124966 0.036003 0.633656 -0.480623 -0.181829 0.759371 -0.676740 1.080983 0.368076 -0.253262 0.277543 0.276228 -0.070823 0.086305 -0.073379 0.137117 -0.251718 0.345255 0.285541 -0.341759 -0.397512 1.187011 0.270289 -0.292905 -0.260941 -0.321360 -0.695194 -0.325205 0.063256 -0.727763 -0.477039 -0.411544 -0.169664 0.279189 0.050749 0.477939 0.057771 -0.600173 0.813989 0.794576 0.149773 -0.794113 0.044051 -0.118007 -0.168948 -0.557536 -0.906893 -0.353856 -0.137899 0.283473 -0.234896 -0.036794 1.008963 0.414393 0.242206 -0.184542 0.242576 0.092582 -0.221398 0.438427 0.463689 -0.440655 -0.257129 -0.617765 -0.199132 0.543794 0.252654 0.109490 -1.023610 -0.276205 0.465778 -0.510480 -0.368626 0.217407 0.394329 0.082314 1.027150 -0.143014 -0.148790 0.541900 -0.159545 -0.485063 -0.198038 -1.067607 -0.152635 -0.103764 -0.349330 -0.257720 -0.284275 -0.764540 0.160521 -0.236518 0.585746 -0.329205 -1.105554 -0.027888 0.798411 -0.267814 0.315879 -0.640074 0.132518 -0.556097 -0.659157 0.188255 0.119793 1.375781 -0.053263 -1.511732 -0.631545 -0.711008 -0.241374 -0.049756 0.351270 -0.349734 -0.017215 -0.729037 0.495079 1.148846 -0.292737 0.386205 -0.051389 -0.085691 0.030832 0.310102 0.224867 -0.095945 -0.195624 0.182740 0.027169 0.476135 0.375852 -0.478132 1.187848 -0.298850 0.390511 -0.028378 -0.146495 -1.037859 0.616827 0.139553 0.952662 0.424199 0.436750 0.385805 -0.414518 0.339352 0.500253 -0.144851 0.828222 -0.033321 0.722058 0.033475 0.538400 -0.636921 0.323014 -0.274469 -0.333405 -0.266663 0.073593 0.389793 -0.143328 0.131844 0.164775 0.542381 -0.536608 -0.725191 -0.047193 -0.766590 0.378871 0.434014 0.022590 0.021048 0.744031 0.240527 0.114136 -0.089662 0.690394 -0.588372 -0.089391 0.599467 -0.488713 0.518297 0.371962 -0.173310 0.712872 0.505295 0.017771 0.295164 0.072960 0.127815 -0.309883 0.832382 0.314720 -0.495773 -0.584423 -0.047181 0.771587 -0.806298 -1.075296 -1.413584 -0.726254 -0.321592 0.465574 0.770947 0.252779 0.997438 -0.551565 -0.034138 -0.433502 -0.013405 -0.391194 -0.439016 0.046234 0.697370 0.018690 0.845333 -0.569054 0.627525 0.669682 -0.028607 0.379410 0.301002 -0.280429 0.144467 0.312559 0.378877 0.382024 0.417844 0.108004 -0.173003 0.742240 -0.790496 -0.043847 -0.135055 -0.130029 -0.297008 0.514626 0.617553 0.505053 -0.497350 -0.552681 0.135752 -0.302207 -0.263735 -0.198048 1.266695 -0.024232 -0.613543 0.188798 0.724750 -1.043018 -0.469755 -0.477823 -0.395227 -0.619671 -0.080755 -0.463625 0.287233 -0.872602 -0.121886 -0.058748 -0.235425 -0.525535 -0.535639 -0.651765 0.202817 0.039268 0.737872 -0.341266 0.115407 0.621600 0.070458 0.072865 -0.511195 0.221659 0.806147 0.178619 -0.058842 -0.022813 1.020763 0.084804 0.835400 -0.220110 1.489485 0.009202 0.047129 -0.094139 0.574718 -0.076774 -0.494449 -0.027442 0.225390 -0.198151 0.065554 0.440417 -0.098358 -0.491259 0.215400 -0.194086 -0.213316 -0.081434 0.064100 -0.878659 -0.761196 0.387578 -0.537288 0.148043 -0.440493 0.742430 0.166651 0.550610 -0.912413 0.499330 -0.710685 0.095359 0.048604 0.786047 0.051476 0.581596 -0.372956 -0.298402 0.033035 -1.033573 0.710608 0.141484 -1.645933 0.514265 -0.165652 -0.419663 0.070635 -0.037973 0.412741 0.164904 -0.263317 0.698670 -0.425892 -0.530298 -1.176453 -0.114208 -1.038661 -0.488697 -0.147595 -0.024231 -0.201478 -0.400355 0.198121 -0.356765 -0.597171 -0.098667 0.176776 -0.456843 -0.288332 0.443323 -0.093746
M018_OFF 0.308873 -0.479170 0.185890 -0.280897 0.147544 -0.748534 0.090754 -0.799541 0.654185 -0.267464 -0.039048 0.792254 -0.380231 -0.077854 0.523786 0.464366 0.577162 -0.122635 -0.115565 -0.252274 -0.703589 0.211086 0.436941 -0.256226 0.388201 1.237020 0.598750 0.136372 0.232934 0.275500 -0.842707 0.076688 0.923900 0.736234 0.146870 0.430932 -0.176955 0.104034 -0.133027 0.645723 0.321510 -0.742810 0.187920 -0.347677 0.170687 -0.287679 0.321423 -0.768720 0.960213 0.030363 0.219317 0.778374 -0.300539 0.674561 0.157788 0.435475 0.137428 0.637339 0.550165 0.797587 -0.286687 -0.623045 0.090222 -0.063160 0.329230 0.053846 -0.249555 0.189352 0.337880 0.268270 -1.084836 -0.919976 -0.703508 -0.438004 0.426528 -1.093835 -0.236205 0.214075 -0.162462 -0.732126 0.070473 0.418085 0.165943 -0.609120 0.144112 0.148904 0.025950 -1.228693 0.458018 -0.213732 0.308704 -0.298854 -0.127767 0.086642 0.075812 0.581332 -0.353772 0.616910 0.364729 0.084951 -0.768494 0.043199 0.901400 1.094751 0.321112 0.777517 -0.286641 -0.223188 -0.598459 0.073748 -0.050240 1.103708 0.457694 0.383013 -0.406879 -0.112234 0.116242 -0.298323 -0.415956 0.095269 -0.773651 0.062293 0.227526 -0.239260 1.117832 -0.563442 -0.462263 -0.453298 0.138880 -0.550856 -0.609639 -0.014566 0.315212 0.318077 -0.533566 -0.017904 -0.114810 -0.407343 0.842319 -0.004478 -0.651524 -0.498251 0.252041 -0.366588 0.012451 -0.359505 -0.030249 -1.453769 -1.118859 -0.714436 -0.434298 1.195516 0.609145 -0.413958 -0.335557 -0.393790 0.442096 0.449030 -0.485058 -0.389652 0.515943 -0.379428 1.018873 1.238792 0.272468 -0.056929 0.304111 -0.099582 -0.207182 0.156733 -0.465045 0.472581 -0.209477 0.268814 -0.698052 -0.262930 -0.290790 -0.627112 0.865233 -0.170484 0.547023 -0.051661 -0.965114 0.126004 0.287303 -0.287129 0.959457 0.350219 0.205934 -0.074891 0.668325 -0.197714 0.600066 0.250070 0.194708 0.645528 0.414743 0.152482 0.156437 -0.543967 0.277201 0.202339 -0.723721 0.010929 0.384847 -0.379721 0.038130 -0.297481 -0.235472 0.536354 -0.749656 -1.052766 0.403323 -1.143877 -0.035375 0.509130 0.250846 0.081298 0.346629 1.020318 0.626577 0.580756 0.022708 -0.588059 -0.459165 0.004997 -0.254754 0.272245 -0.272614 -0.437395 0.347976 0.559827 0.047230 0.583240 -0.084467 -0.345266 0.472472 0.346407 -0.028744 -1.155487 0.012354 0.480309 0.454162 -0.202003 -0.699855 -0.785922 0.766462 -0.550582 0.529934 0.412732 0.163735 0.621678 0.522296 0.273300 -0.431429 -0.675405 -0.120585 -0.310244 0.327321 0.584377 -0.113220 1.035216 -0.242893 0.648961 -0.079641 -0.400266 0.096288 0.889506 -0.152113 -0.239447 -0.015580 0.491810 0.673085 0.108156 -0.250596 -0.078268 -0.202714 -1.019118 -0.419453 0.153002 0.026091 -0.350121 -0.047594 -0.516562 0.918833 -0.598168 -0.833464 -0.459595 -0.319908 0.043724 0.504327 0.859432 -0.124909 -0.606564 0.084819 0.368744 -0.576515 0.642451 -0.884928 -0.199022 -0.750945 0.521495 0.071053 0.320457 -0.513822 -0.536493 -0.496480 -0.741346 -0.412423 -0.062693 -0.533043 -0.003613 -0.313633 0.749110 -0.067835 -0.014671 0.345107 -0.297347 0.215639 -0.260351 -0.057501 0.143703 -0.574516 0.174042 0.027838 0.670374 0.785947 0.665227 -0.213899 1.628077 0.158175 -0.276453 -0.613079 1.292503 -0.379546 -0.654884 0.330929 0.391368 0.351934 -0.174363 0.178954 -0.546467 -0.479261 0.080070 -0.635079 -0.561909 0.146008 0.092616 -0.210053 -0.578035 -0.159840 -0.721610 -0.051982 -0.531132 1.071808 -0.622241 0.465251 -0.329969 -0.112102 -0.828021 0.211708 -0.105234 0.701627 -0.337924 0.090036 0.873555 0.301890 0.094449 -0.873751 -0.317475 0.395005 -1.498927 0.339510 -0.169409 -0.315036 0.207312 0.119551 -0.262147 -0.200270 -0.483348 0.286338 0.087435 -0.660060 -0.299853 0.130681 -0.971828 -0.145281 -0.274634 -0.409744 0.305331 -0.620911 1.159062 -0.576135 -0.148731 -0.105593 0.247934 -0.457960 -0.075851 -0.170345 1.050588
M024_OFF -0.009021 -0.212389 0.086397 -0.875448 -0.574325 -0.267097 -0.003237 -1.168710 0.179145 0.344967 0.985223 -0.520703 0.313006 -0.002594 -0.371534 0.152195 0.388092 -0.136803 0.317294 -0.476155 -0.323263 -0.447292 0.085208 0.325248 -0.181171 -0.447124 -0.481667 0.281855 0.186102 0.340982 -0.009135 0.616439 -0.346735 0.718510 -0.248690 -0.075542 0.290646 -0.337809 -0.442503 -1.083056 0.109095 0.499197 0.254731 -0.237176 -0.361263 -0.417738 -0.434108 -1.026912 0.805439 0.544647 -0.087663 -0.357744 -0.141064 -1.020648 0.843644 0.301342 0.433807 -0.614337 0.789626 0.402940 0.022194 -0.391841 -0.399903 -0.158826 0.145154 0.086401 0.782485 0.363547 0.413160 0.388460 -0.660083 0.030516 0.378707 0.421076 -0.134087 -0.719903 0.628795 -0.011505 -0.391464 0.541161 0.614179 0.192294 -0.078412 -0.096680 -0.443483 -0.259806 0.560979 0.119577 -0.122919 0.280931 -0.147970 0.154094 0.067066 -0.369696 0.607667 -0.263357 -0.293960 -0.483011 0.885483 0.147382 -0.000039 -0.611974 -0.089299 -0.155431 -0.021005 -0.151445 0.241461 -0.246812 -0.184189 -0.784827 0.496119 -1.259631 0.298293 0.169700 -0.479674 0.995185 0.335844 1.188872 -0.131434 0.475638 -0.077416 -0.318399 -0.249832 0.243351 0.005137 0.375548 1.218529 0.749680 0.065102 -0.180901 -0.855865 -1.024345 -0.751160 0.998228 0.551666 -0.065747 0.402222 -0.491983 -0.226200 0.024537 0.504545 0.589562 0.597649 -0.429166 -0.207852 0.057639 -0.223006 -0.296809 0.283316 0.011950 -0.556681 0.126641 0.250253 -0.007140 -0.369432 -0.250830 -0.200176 0.494705 -0.467368 -0.660938 -0.423107 -0.627116 -0.145043 -0.527074 0.001133 1.030608 -0.071447 -0.485463 0.177711 -0.650938 0.286585 0.185978 0.714064 0.175370 -0.011213 0.083351 -0.338353 0.827502 -0.749357 0.028403 0.179252 -0.270488 0.158001 0.357917 -0.895141 0.262553 -0.523402 -0.868914 -0.009696 -0.442705 -1.137519 0.379894 -0.306744 -0.399655 0.084769 -0.334967 0.465363 -0.642646 0.612070 0.755454 -0.189273 -0.174128 0.144522 0.156065 -0.048136 -0.331677 -0.276511 0.698078 0.554166 0.142776 -0.442981 0.403029 -0.412052 -0.147774 0.356561 0.156489 -0.427319 0.267809 -0.209236 -0.555099 0.176726 -0.208863 0.243528 0.156631 0.380194 -0.327797 0.647085 -0.079319 -0.341530 0.024301 -0.249744 -0.523872 0.358020 -0.886699 -1.418482 -0.991377 0.207653 -0.087086 -0.426825 -0.066709 0.188791 -0.930274 -0.593277 0.462949 -0.079671 0.259832 1.398579 0.640050 0.599262 -0.524156 -0.351848 -0.735304 0.906376 0.604320 -0.166867 0.153215 -0.018660 -1.046847 -0.817097 -0.493129 -0.067004 -0.700271 1.314961 0.205854 -0.123383 0.387398 0.133865 -0.474622 -0.907686 0.730609 0.201435 -1.004657 0.555419 0.332072 -0.535762 -0.212938 -0.645491 0.768004 0.593400 0.897229 0.464490 -0.074937 -0.126994 -0.160745 -0.177180 0.046062 0.717950 -1.582235 -0.114915 0.530549 0.264715 -0.423493 0.303285 -0.471553 -1.223710 0.469420 0.274436 0.551221 0.800268 -0.510526 -0.129450 0.050022 -0.586751 -0.047372 -0.602037 0.900876 -0.639787 0.965230 0.896018 -0.094549 -0.109908 0.365650 -0.228749 -0.946867 -0.088021 0.474777 0.327717 -0.703924 -0.263775 0.028173 0.029019 -1.273628 1.081866 -0.353381 -0.376751 0.303538 -0.334313 -0.378049 -0.272117 0.946007 0.088624 0.471787 0.381073 -0.147217 0.185757 -0.912447 0.375741 0.517181 -0.950594 0.848675 -0.717620 -0.476594 0.063045 0.016342 -0.164793 0.198265 1.162365 0.005936 0.099418 -0.050172 -0.033117 0.465144 0.290668 -0.520753 -0.561289 0.474284 0.212872 -0.248842 -0.477406 0.125485 -0.852439 -0.176994 -1.083788 -0.238610 0.220376 -1.092866 0.027125 -0.271555 -0.071505 -0.102273 -0.596567 0.401132 -0.260197 -0.100771 -1.240967 -0.783074 0.427444 -0.096127 -0.644506 -0.021533 -0.671657 -0.137883 -0.418919 -0.362229 -0.095173 -0.318610 0.577905 -0.620618 -1.244628 0.535897 0.045376 0.099530 -0.234822 0.640049 0.595192 0.580690 0.576540 -0.804411 0.302515 0.676733
M024_ON 0.296856 0.809928 -0.084107 -0.350216 -0.860437 -0.632732 -0.166553 -0.895675 -0.036325 0.400539 0.372370 -0.727156 -0.027926 0.486381 -0.324980 -0.196664 0.679321 0.243994 0.407373 -0.359375 -0.459678 -0.475334 0.083070 0.317494 -0.480438 -0.586750 -0.649560 -0.125425 -0.000556 -0.248818 0.385781 0.039589 -0.411238 0.582106 -0.062125 0.466113 0.051311 -0.067680 -0.344611 -1.190321 -0.383240 -0.074169 0.213589 -0.320419 -0.476902 -0.317736 -0.965565 -0.978144 0.821430 0.067814 -0.378369 0.153356 -0.921406 -0.627038 0.024047 0.103433 -0.311718 -0.773452 1.282673 0.368423 0.011706 0.021359 -0.730046 -0.385226 0.728933 -0.031744 0.440965 0.588403 0.684093 0.584133 -0.812918 -0.182285 -0.358417 0.373361 0.357949 -1.137466 0.244738 0.273539 -0.818203 0.516611 0.502232 0.189576 0.209030 -0.095943 -1.041667 0.140829 0.232860 0.266496 -0.235381 0.508500 -0.058021 0.335546 0.153077 -0.119623 0.163664 0.036146 0.221928 -0.360705 0.156352 0.167413 0.000361 -0.797797 -0.643377 0.229765 0.178161 -0.337477 -0.342948 -0.155340 -0.078826 -0.865232 0.223926 -1.207669 -0.196872 0.329741 -0.484036 0.074265 -0.051793 1.237665 0.396310 -0.139803 0.040791 -0.212702 -0.327507 0.226391 -0.682894 0.624948 0.705509 1.226636 -0.043069 -0.168552 -1.119826 -0.449805 -0.867980 0.704112 0.470683 -0.839852 0.329582 -0.426600 -0.860200 0.764957 0.287275 0.123979 0.253973 -0.161382 0.184604 -0.124113 -0.005111 -0.724957 0.319937 0.116536 -0.910378 -0.055695 0.215559 0.087291 -0.392584 -0.248733 -0.603734 0.948274 -0.545993 -0.310321 -0.537933 -0.516598 0.310248 -0.166385 0.333868 0.748079 0.133424 -0.513969 0.067942 -1.080601 0.821135 0.436326 1.122070 -0.111719 0.553354 0.565690 -0.407892 0.376544 -0.860702 -0.015391 -0.158802 -0.103450 -0.110364 0.231678 -0.842974 0.024320 -0.052648 -0.938949 -0.395995 -0.835584 -0.834364 0.444957 -0.312101 -0.436185 -0.220601 -0.596334 1.014099 -0.394796 -0.031870 0.587118 -0.353538 -0.430573 0.563719 0.448855 -0.058883 -0.409013 0.086303 0.636467 0.330216 0.234709 -0.483243 0.111721 -0.151205 -0.301580 0.418329 0.588299 -0.879751 -0.137531 -0.408236 -0.346751 0.370627 -0.165530 0.061158 0.572882 0.136495 -0.537245 0.323721 -0.061253 -0.266198 -0.357511 -0.157511 0.023613 0.707248 -0.375169 -0.772991 -0.767449 0.262426 0.203348 -0.094746 -0.202519 -0.425223 -0.561654 -0.342564 0.367790 -0.397841 0.506744 1.500934 0.360803 1.023036 -0.459830 -0.315332 -0.505983 0.701621 0.175377 -0.578929 0.054335 0.175357 -0.852371 -0.446586 -0.212834 -0.476811 -0.501629 1.115295 -0.099900 -0.014376 0.368941 -0.406433 0.082249 -0.479997 1.037378 0.298750 -0.717435 0.389118 0.287220 -0.517035 -0.470921 -0.742477 0.731960 0.547180 0.460629 0.113868 -0.479332 -0.679631 -0.496677 -0.095667 -0.204835 0.619655 -1.356427 -0.284241 0.279284 0.259217 -0.392505 0.487686 -0.274268 -1.455429 0.077349 0.172791 0.518495 1.027330 -0.039394 0.147113 -0.068381 -0.084616 0.424501 -0.133004 0.645499 -0.977269 1.286865 0.786727 -0.026952 0.063270 -0.673501 -0.073496 -0.575274 0.128905 0.036678 -0.175599 0.079834 0.145540 -0.182624 0.066648 -1.100828 0.571347 0.218683 -0.858201 -0.163163 -0.452030 -0.789384 -0.885908 0.554427 0.086357 0.728648 -0.204131 0.152264 0.531974 -0.695673 0.693521 0.398175 -0.939708 0.772836 -0.829982 -0.275156 -0.130503 -0.646316 0.220272 0.333069 1.046437 0.487990 0.266394 0.506358 -0.526590 0.250888 -0.217327 -0.483930 -0.000548 0.636388 -0.243048 0.239779 -0.283963 0.272967 -1.457934 -0.354889 -1.188973 -0.407285 0.767189 -1.268205 -0.176693 -0.193907 0.347356 0.803513 -0.019136 0.391133 -0.110261 -0.049659 -0.720435 -0.718499 0.157823 -0.181446 -0.442428 0.458275 -0.164543 -1.121224 -0.413785 -0.642196 -0.422734 -0.810230 0.384831 0.127593 -1.093862 0.139485 0.448402 -0.196920 -0.033664 0.290511 0.674595 0.133291 -0.178158 -0.157460 -0.094811 -0.166719
M017_OFF -0.158123 -0.590075 -0.906988 -1.231278 -0.022384 -0.252093 -0.114859 0.017280 1.015934 -0.183448 -0.573991 0.767757 -0.323991 -0.172255 0.403125 -0.443844 0.079798 0.981288 0.905930 0.224308 0.060153 0.469893 0.582637 0.073382 0.514385 -0.034618 0.242004 -0.741373 -0.180021 0.333529 -0.403383 0.049307 0.749257 0.291831 -0.400900 0.906387 1.016456 0.187469 0.752696 0.850302 -0.173974 -0.294321 0.547708 -0.835917 -0.663044 -0.641087 0.177201 -0.785201 1.362994 0.006256 -0.223734 0.511435 -0.112833 0.384591 0.761959 0.793305 -0.152952 0.544518 0.746670 0.483759 0.447947 -0.267570 0.584211 -0.271324 0.381160 -0.292868 -0.341730 0.887519 0.517974 0.553724 -0.569935 -1.028558 -0.994086 0.055637 0.605817 -1.428448 0.491587 -0.448230 -0.457710 0.346162 0.263154 0.190925 0.791864 -0.532739 -0.318505 -0.376428 0.242226 -0.976430 -0.216271 -0.035380 0.472389 -0.163542 -0.365745 -0.404951 -0.124480 1.138081 -0.489781 -0.137037 1.043782 0.681199 -0.254519 0.321147 0.120494 1.041160 -0.495201 0.571657 0.064099 -0.566856 -0.808763 -0.422040 0.116977 0.328821 0.203877 0.090068 -0.435175 -0.584815 0.239020 -0.117106 0.291007 -0.118421 -0.309586 -0.639188 0.636497 -0.151459 0.617606 0.350486 -0.105429 -0.467076 -0.491868 -1.052110 -1.061710 0.642232 -0.805114 0.561249 -0.332281 -0.731507 -0.098890 -0.802463 1.016246 -0.231684 -0.565255 -0.189058 1.265973 -0.187116 0.569340 -0.415185 -0.213390 -1.633247 -1.477417 -0.507644 -0.545784 1.834332 0.459129 -1.633719 -0.572008 -0.554418 0.106608 -0.061787 -0.298074 -1.101051 -0.175685 -0.470993 0.966294 1.632644 -0.243974 0.293889 -0.193786 -0.164805 -0.120343 0.474614 -0.394201 0.660419 -0.156839 0.021037 0.269902 -0.104407 0.848593 0.260647 1.249043 -0.748130 0.406277 0.523639 -0.143127 -0.314275 0.603753 0.088026 0.343953 0.426419 -0.013378 0.098340 -0.397627 0.733530 0.161685 0.066603 0.000621 0.221871 0.619419 -0.096847 0.081833 -0.092511 0.147502 -0.201454 0.088714 0.100562 0.286630 -0.313764 0.090942 -0.173090 0.014298 0.231677 -0.522553 -1.153049 0.028346 -0.923702 -0.273961 0.996012 0.262397 0.321149 0.529097 -0.041275 0.481890 0.134522 0.238561 -0.621530 -0.263121 0.253252 -0.758081 0.342841 0.419693 -0.218418 1.251672 0.128779 -0.101190 0.815315 0.277180 0.012093 -0.103866 0.904535 0.240225 -0.930590 -0.326103 -0.138576 1.141074 -0.606965 -0.927858 -1.282438 -0.726723 -0.420184 0.135196 0.999763 0.393737 0.559676 -0.117446 0.159108 -0.433935 -0.009050 -0.297075 -0.447759 0.672089 0.709859 -0.141000 1.341639 0.128503 0.276118 0.136127 -0.060071 0.318638 0.186481 -0.354441 -0.387280 0.004724 0.384591 0.590241 -0.502688 -0.211244 -0.074793 0.833429 -0.363825 0.835697 0.278105 -0.768736 -0.097584 0.787489 -0.363808 1.267413 -0.334493 -0.582156 -0.023916 0.304160 0.245927 0.572112 1.113259 0.861046 -0.914170 0.827337 0.449816 -1.241739 0.125120 -1.244862 -0.386418 -0.403620 -0.108274 -0.066947 0.816432 -0.020987 -0.594526 -0.932513 -0.499870 -0.144036 -0.454050 -1.062019 -0.172265 -0.396978 0.915499 -0.023295 -0.279838 0.697493 0.074759 -0.516378 0.040560 0.226137 0.600446 0.137785 -0.379039 -0.151683 0.220593 0.402788 0.237021 -0.585510 1.105399 0.243021 -0.456944 -0.325661 1.316994 -0.438573 0.268475 0.172879 0.033202 0.206972 -0.067968 0.294396 -0.603757 -0.393595 -0.015751 -0.656937 0.270177 0.024884 0.595302 -0.328893 -0.480305 0.364090 -0.153513 0.087658 0.419070 0.446561 0.428699 0.204468 -0.158003 0.865623 -0.702762 -0.096990 -0.248937 0.354513 -0.418621 -0.224648 0.020721 -0.127681 0.589349 -0.074477 0.335212 0.160529 -0.066713 -0.062570 -0.726060 -0.053859 0.344615 0.199243 -0.308555 -0.383255 -0.005108 0.331854 -0.348279 -0.747190 -0.607397 1.017189 -0.661658 0.087901 -0.810334 0.239976 0.750791 -0.485901 0.333647 -0.036880 -0.912669 -0.021041 0.376966 0.085706 -1.109483 0.157719 0.802171
M017_ON 0.287179 0.198587 0.818274 -0.638467 0.572919 -0.162143 0.015411 -0.974602 1.126545 -0.224756 -0.116385 0.391052 -0.880888 -0.160051 0.488679 -0.591837 0.371422 0.805715 -0.162319 -0.500252 -0.911242 0.713670 0.607819 -0.406840 -0.063494 1.031447 0.720440 -0.077603 0.776656 0.503557 -0.038258 -0.168675 0.407862 0.014723 0.672947 0.206054 -0.450740 0.256841 0.041193 0.292454 -0.526398 -1.016465 0.053461 -0.446644 0.378905 0.407971 -0.913647 -0.232629 1.177869 -0.602544 -0.189516 0.761352 0.139389 1.297963 0.353981 0.368343 0.044644 0.422454 0.509609 0.731858 0.164105 -0.217423 0.178381 -0.122098 0.451565 -0.318502 0.071090 0.863434 0.088724 1.373031 -0.419371 -0.615152 -0.952514 -0.837907 -0.134200 -0.911138 -0.323794 -0.723778 -0.118893 0.029033 -0.876269 0.174417 0.003476 -1.192691 0.586918 0.911634 -0.008453 -0.717150 0.681081 0.075258 0.239165 -0.229826 -0.268128 -0.340984 0.482335 1.171131 -0.724717 0.330291 0.830852 0.281642 0.021193 -0.193229 -0.384878 0.269494 -0.003951 1.050288 0.177315 -0.600708 -0.758102 -0.324516 -0.174990 -0.074656 0.093944 0.037108 -1.158678 -0.219901 0.524521 -0.208767 -0.579279 0.493346 -0.187720 0.603482 1.102991 0.433334 0.743946 0.828487 0.124241 -0.172126 -0.481534 0.142864 -0.837249 0.461791 0.230794 0.137464 -0.650174 -0.217901 -0.408751 -1.215991 1.044096 -0.503599 -0.890414 -0.934752 0.528704 -0.908812 1.070480 -0.782826 0.388563 -1.409938 -1.227687 -0.841430 -0.399760 1.402071 0.224574 -1.649271 -0.701335 0.151270 -0.303086 0.868907 0.129147 -0.000732 -0.105753 -1.102265 0.646815 1.521342 0.410372 0.807018 -0.179389 -0.561012 -0.507565 0.076642 0.411164 0.943256 0.211240 -0.370720 -0.499124 0.004620 0.796245 -0.590623 0.740100 0.289653 0.040260 0.399907 0.112464 -0.567924 0.347102 0.427047 1.200255 0.680812 0.609736 0.533387 -0.215319 0.053604 0.104949 0.140378 -0.036464 0.352532 0.182354 0.502821 0.221490 -0.278568 -0.081879 -0.031037 -0.448013 0.048983 0.366702 -0.638853 0.264303 0.000846 0.297596 0.275996 -0.129883 -0.788743 0.410516 -1.697993 -0.318477 0.942652 0.516171 0.462351 0.676280 0.361125 0.971078 0.137601 0.171315 -0.710963 0.087162 -0.166731 0.024452 1.124638 -0.121425 -0.077446 -0.065385 0.400585 -0.082476 0.689507 -0.311473 -0.400370 0.740270 1.306032 -0.185149 -0.837566 -0.240904 0.004834 0.338068 0.451234 -0.660454 -0.556477 -0.172334 -0.432374 0.206937 0.404836 -0.300983 0.838432 0.273124 -0.514601 -0.113996 0.124936 -0.314432 -0.035773 0.281377 0.167646 -0.203094 1.337446 0.112205 0.663079 -0.357843 -0.239438 1.002269 0.475894 -0.291616 -0.614223 0.422854 0.118851 0.585944 -0.000059 -0.507216 -0.148051 0.081506 -1.110554 -0.087720 0.085125 -0.295797 -0.053349 0.683747 -0.525983 0.725261 -0.032139 -0.557518 -0.190090 -0.043752 -0.167057 0.778902 0.703830 0.678104 -0.311628 0.386017 0.743854 -0.746742 0.244120 -0.850866 -0.259557 -0.547331 0.192731 -0.387305 1.090715 -0.234324 -0.012244 -0.430409 0.055889 0.039257 -0.337570 -0.822173 0.801058 0.263159 0.459573 0.062653 -0.093729 0.288932 -0.723782 -0.498082 0.017577 0.451581 0.442353 -0.328136 -0.349335 0.098210 0.906120 0.177096 1.027892 -0.260551 1.477983 -0.815352 -0.683001 -1.067240 1.000514 -0.616949 -0.497969 0.083902 -0.291947 0.243851 0.245042 0.411874 -0.096473 -0.401334 0.038398 -0.773499 -0.218133 0.564094 -0.453308 -0.487200 -0.154974 0.052280 -0.420273 -0.272976 0.354435 0.502520 -0.892384 0.362130 -0.424799 0.102371 -1.309075 0.179797 0.133839 0.840536 0.057198 0.719280 0.017212 0.286754 -0.246814 -1.165500 0.228137 -0.043557 -1.255868 -0.215760 -0.683314 -0.352530 0.245526 0.561265 0.138515 0.184533 -0.521132 0.931908 -0.236570 -0.675606 0.287114 0.368340 -1.213220 -0.046384 -0.054679 -0.441849 0.459625 -0.493697 1.017851 -0.413464 -0.917903 0.109664 0.193656 -0.153324 -0.463532 -0.275525 0.876475
M010_OFF 0.484986 -0.178724 0.810163 -0.825182 -0.571419 -0.105331 -0.114251 1.160619 -0.384042 -0.287634 0.507055 -0.563013 0.251934 0.317947 0.630083 0.699808 -0.408448 -0.115672 -0.652838 0.437753 0.014171 -0.208023 -0.412992 0.686133 -0.548105 -0.613880 -0.235051 0.305200 -0.779034 0.003720 0.714630 -0.688817 -0.419009 -0.375388 -0.072589 0.233169 0.141370 0.190402 -0.186474 -1.078760 -0.111256 -0.058091 -0.147756 -0.362772 -0.053481 -0.546738 0.474682 1.102041 -0.190923 -0.517166 0.136761 -0.471652 0.004655 0.098324 -0.613086 -0.359933 -0.686611 -0.458644 -0.274051 -0.129707 -0.077156 0.214856 0.540284 -0.022365 -0.609140 -0.186805 0.107491 -0.699851 -0.106327 0.450152 0.413774 -0.877215 0.388714 0.211844 0.456492 0.400953 0.455522 -0.364426 -0.098950 0.253404 -0.445666 -0.805319 -0.252931 0.216703 0.571317 -0.275538 0.020300 0.520748 -0.572408 0.408262 0.467139 -0.192814 -0.559105 -0.178855 -0.373125 0.992946 0.289586 0.574810 0.249289 1.009458 -0.096177 -0.012578 0.690026 -0.939351 -0.500900 0.040319 0.623673 0.347594 0.668775 -0.586985 -0.568327 -1.250497 0.432874 -0.009368 -0.646933 0.041413 -0.598308 -0.468414 0.529411 -0.436600 0.821147 -0.456483 -0.701286 -0.044387 -0.409242 -0.077424 0.318300 -0.185276 -0.619023 -0.304587 0.616263 0.125815 -0.199025 0.151232 -0.012039 0.361861 -0.513231 -0.022148 0.572033 0.324964 0.664350 0.735057 -0.538571 0.217217 -0.774370 -0.369030 -0.492415 0.036730 0.490230 -0.294661 -0.058210 0.300729 0.663735 0.429146 0.347069 -0.470697 -0.356346 -0.606666 0.176358 0.184924 -0.454810 0.030612 -0.344889 -0.189796 1.390774 -0.120257 0.100929 -0.256248 0.763034 -0.761109 -0.621057 0.351880 -0.754382 -0.568576 -1.110667 -0.727138 0.203214 -0.030325 -0.760788 0.725702 0.177281 0.726143 -0.087749 1.082165 -0.448556 0.338025 -0.611269 -0.123003 -1.018131 -0.173791 0.584483 0.209153 0.008425 -0.704269 -0.694590 0.651712 -0.766577 -0.669900 0.402287 1.082403 -0.497421 -1.286904 0.508599 0.285676 -0.511429 -0.608978 -1.235655 0.728410 0.152113 -0.287462 -0.439140 0.605188 -1.030663 0.423210 0.342404 0.147853 -0.956079 0.516033 -1.001484 -1.155521 0.410091 -0.513737 0.129479 0.134648 0.847307 -0.575713 -0.058784 0.305220 -0.477648 0.388384 -0.112664 0.218564 -0.613627 -0.743357 -0.822828 -0.376979 0.813108 -0.754051 -0.433261 -0.227052 -0.735958 0.098794 -0.259242 0.547590 -0.417644 1.443061 0.651309 0.726361 0.447424 0.549614 -0.066284 -0.106871 0.594561 0.185976 -0.534812 0.335168 -0.440758 1.249931 0.654170 0.092359 -0.572311 -0.020424 -0.165823 0.307500 -0.125803 -0.109145 -0.538241 0.344684 -0.590152 0.599070 -0.693620 0.286873 -0.440449 0.106775 -0.327447 0.960658 -0.105998 -0.329056 0.774823 -0.259139 -0.735755 -0.377559 -1.229617 -0.344072 -0.237461 0.237503 0.379662 0.092372 0.842556 -0.141912 0.091995 -0.098890 0.449916 0.016885 0.379356 -0.342028 0.739762 0.243716 0.071447 0.523729 0.497328 -0.019444 -0.396239 0.112625 0.130081 -0.514027 -0.226638 -0.797096 -0.285164 -0.518779 0.238408 -0.056365 -0.435403 0.916123 -0.421873 0.192177 -0.583392 0.371759 -0.817123 -0.015267 0.310061 -0.042234 0.218221 0.141233 0.274606 -0.735380 0.517336 0.240470 -0.614251 -0.790204 0.765656 -0.285300 0.286946 0.056004 -0.069392 0.496394 0.098374 -0.000715 -0.462398 -0.449701 0.651591 -0.202025 -0.342531 -0.091744 -0.330502 0.207456 0.305912 0.499630 0.147831 -0.550193 0.460370 0.064297 1.165263 -0.314859 0.356627 0.529396 -0.271687 0.313897 0.561607 -1.012844 0.680427 0.559778 0.259206 0.597832 0.532691 -0.817347 0.438457 -0.046633 0.289385 -0.032562 -0.452660 0.677122 -0.134939 -0.314656 0.200454 -0.082873 -0.253468 0.336329 0.542642 -0.292118 -0.739361 0.338851 -0.641746 -0.224216 0.352196 0.268569 -0.407635 0.117680 0.240764 -0.478943 1.366749 1.147827 -0.763426 0.955905 -0.593222 -0.766248 -0.074773 -0.344370 0.256510 -0.104033
M010_ON -0.111876 0.278958 0.074718 -0.566899 -0.590688 0.465435 0.039315 0.908373 -0.070608 0.016150 -0.000892 -0.655785 0.384509 0.907856 0.293668 0.616985 0.144812 -0.331737 -0.404573 0.043494 0.856063 -0.310994 -0.588286 0.465150 -0.592826 -0.924903 0.271042 0.560490 -0.073743 0.356483 0.651012 0.367470 0.229042 -0.154095 0.259701 -0.053046 -0.372334 0.312827 -0.790991 0.154787 0.398760 0.742536 -1.196746 -0.675488 0.314939 0.566003 -0.729041 0.537392 -0.311186 -0.346830 -0.624475 0.114713 0.511902 0.252447 -1.249312 0.708989 -0.061230 0.167860 0.303126 0.107049 -0.322907 -0.111715 0.983059 0.032136 -0.801606 -0.404980 0.558013 0.130223 -0.773690 -0.055506 0.388843 -0.451330 0.680419 0.006613 0.255410 0.514876 -0.031978 -0.546474 -0.429909 -0.026370 -0.066159 -0.512791 0.028137 -0.288926 0.169560 -0.257401 0.489541 1.141653 -0.893638 0.508091 0.069762 0.011428 -1.043563 -0.713957 -0.470557 1.074073 -0.051080 0.168415 -0.147007 0.294651 -0.213248 0.227648 0.303459 -0.878595 0.040969 0.122289 0.313964 0.292451 0.860608 -0.029844 -0.927505 -1.554123 -0.129213 0.542536 -0.118596 -0.147161 -0.229831 0.097706 0.815033 -0.108134 0.767832 0.448326 0.074222 0.555167 -0.521753 0.626587 1.088973 -0.172961 -0.399358 0.778481 0.061579 0.959511 -0.226355 -0.279213 -0.409506 0.819788 -0.039294 -0.908760 -0.159344 0.173840 0.765230 0.918997 -0.282963 -0.178052 -0.777170 -0.762619 -0.749008 0.471585 0.371579 0.434370 0.912984 0.075256 0.523623 0.510994 0.836539 0.401417 -0.870198 -1.025886 0.095357 0.650825 -0.514049 -0.763351 -1.196239 -0.960083 1.532796 0.198256 0.131827 0.351795 0.713581 -1.501297 -0.186892 0.081162 -0.497196 -0.057732 -0.693138 -0.231448 0.719880 0.139852 -0.719146 1.240322 -1.184506 -0.168265 -0.076307 0.659722 -0.377115 0.324301 -0.081287 0.133463 -0.317041 0.050091 0.390075 -0.192268 0.098686 -0.700777 -0.336132 -0.064489 -0.511410 -0.032889 0.160142 0.379835 -0.408297 -0.669532 0.231408 -0.285453 -0.024842 -0.661857 -0.849320 0.456516 -0.030570 -0.520373 0.312643 -0.079617 -0.759948 0.419401 0.568221 -0.170361 -0.570463 0.264804 -0.344168 -0.931619 0.810294 0.298994 0.207163 0.103878 0.979979 -0.489305 0.373269 0.462954 -0.853900 0.460193 -0.105768 0.276151 -0.496978 -0.462955 -0.507373 -0.104635 0.904316 -0.449806 -0.374669 -0.038677 -0.994055 0.421015 0.055492 0.501307 -0.323132 1.074014 0.463527 0.847086 0.173151 0.730340 0.122569 -0.391536 0.050040 -0.002060 -1.032868 0.288535 -1.002791 0.565775 0.698231 0.322433 -0.799235 -0.052749 -0.693342 -0.238523 -0.128716 0.021561 -0.652948 -0.156708 -0.398484 0.023468 -0.347890 -0.565428 -0.743829 0.309505 -0.056791 0.721623 -0.149977 -0.533770 0.644576 -0.374113 -0.806620 -0.760999 -0.589798 -0.026776 -0.702179 0.043249 1.013638 0.219686 0.273325 -0.198108 0.084243 -0.042184 0.399062 0.436131 0.003245 -0.465787 0.152834 -0.336014 0.504130 0.177558 0.287596 0.267846 -0.071534 -0.179956 0.133753 0.097383 0.424875 -0.834529 -0.418516 -0.982388 0.203072 0.017086 -0.068658 0.427382 -0.856367 0.038010 -0.230976 0.242104 -0.717919 -0.450315 0.488496 0.244077 0.569509 -0.656303 0.397940 -0.125457 0.111484 -0.594758 -0.594233 -0.551923 0.236151 -1.013473 0.325118 -0.534269 -0.415550 1.071237 -0.047924 -0.005821 -0.030635 -0.613745 0.519888 -0.377565 -0.382335 0.055408 -0.616281 0.264063 -0.407332 0.395687 0.579094 -0.718179 0.394328 1.133897 0.576518 0.055274 0.043880 0.094850 -0.089510 -0.008908 0.868556 0.079239 0.383300 0.988860 -0.144028 0.392913 0.667943 -0.150705 0.100756 0.529559 -0.132747 -0.490402 -0.501386 0.442196 0.255291 -0.217076 0.397899 0.156488 -0.258608 0.170499 0.566042 -0.197178 -0.562822 -0.661246 -0.289636 0.076731 -0.002140 0.249087 -0.379888 0.059675 0.523616 -0.666629 0.644150 0.870313 -0.812492 1.165321 -0.792542 -0.475697 -0.582904 0.079232 0.355572 -0.233923
M021_OFF 1.173541 0.232542 0.572153 0.232889 -0.153217 -0.533104 -0.407282 -1.111458 0.932531 0.088168 -0.005204 1.208300 0.219242 0.497745 0.776197 0.229290 0.871907 -0.044895 -1.043075 0.081023 -0.161432 -0.469362 -0.037228 -0.058018 -1.088415 0.846946 0.867691 0.478000 0.761547 0.764957 -0.538243 0.249287 0.941694 -0.067961 0.010255 -0.164380 0.500483 0.353384 -1.093264 0.014551 0.784147 0.224499 -0.202908 0.188457 0.966403 -0.425437 0.931868 0.320589 0.605548 1.285758 -0.942098 0.293430 -0.180847 -0.736318 1.160490 0.671178 0.133306 0.942526 -0.029968 -0.591976 -0.629540 -0.491285 -0.550850 0.919760 0.768104 1.069144 -0.022655 -1.111018 0.553838 -1.436857 -0.057844 -1.048962 0.262098 0.050199 0.108947 0.295895 -0.653502 0.027265 0.507597 1.057674 0.268934 -0.473678 -0.543984 -0.457659 1.284574 -0.339002 0.098786 -1.124026 -0.550451 -0.517776 -0.176989 0.204827 -0.115143 0.084093 0.132129 -0.560340 0.272995 -0.568378 0.661566 0.786892 -0.300411 0.555199 1.363265 -0.281406 0.403034 0.112687 0.864607 0.744369 0.300921 -0.468295 0.492119 0.790968 1.080759 0.586631 -0.852124 0.134494 -0.350519 -0.097546 0.249207 0.380309 -0.811046 -1.273103 -0.175366 -0.932487 0.972228 -1.124226 -1.042183 -0.851061 -0.375535 -0.326393 0.016880 0.460261 -0.660713 -0.911082 -0.157070 0.018376 0.116266 0.611273 -0.327910 0.356576 -0.538573 -0.463925 -0.859641 0.557526 -0.427500 -0.338465 -0.351665 0.231375 0.352808 0.180497 0.561695 0.003521 -0.319903 0.508253 0.266685 -0.402675 -0.285452 -0.448356 0.245957 -0.548900 0.586577 -0.171585 0.865101 0.563625 -0.200915 0.170966 0.273969 0.366573 -0.507892 1.697585 0.185071 -0.834585 -0.456480 0.314953 -0.575434 0.193231 -0.606718 -0.673714 1.351246 -0.342832 0.742573 0.117805 -0.056305 -0.373541 0.679202 0.727830 0.394429 0.630802 0.582495 0.028061 -0.683154 0.451298 0.551911 0.455916 0.565798 0.129951 0.335024 0.172285 -0.370402 -0.442700 0.116477 0.385202 -0.960631 -0.016835 0.067334 0.485603 -0.018164 -0.053137 -1.451781 0.458541 -0.809473 -0.151041 -0.096538 -0.345441 -0.062043 -0.244424 -0.315985 -0.628511 -0.685918 -0.009105 -0.436170 -0.382164 0.123619 -0.230968 -0.088366 0.550919 0.809727 -0.010082 0.393351 -0.115436 -0.267567 -0.468849 0.295788 0.365103 0.386707 -0.140682 0.158683 0.535563 0.528208 -0.821306 -0.157334 -0.142968 1.024152 -0.963935 -0.689961 -1.003099 -0.388685 0.173519 0.675899 0.927368 0.535685 0.176603 0.754074 -0.538806 -0.290028 0.498492 0.037853 -0.876794 -0.514989 0.120407 0.011308 0.438311 -0.027019 1.184304 0.433509 -0.903176 0.589073 0.063487 0.236983 0.726253 1.086788 -0.036513 -0.824492 0.373162 0.008261 0.308655 0.167196 -0.862041 -0.661535 -0.214594 0.160076 -0.599410 0.360813 0.573330 0.170329 -0.358914 -0.347343 0.090041 0.039217 -0.902980 -0.832939 0.712671 -0.624520 0.413790 0.348870 1.092701 -0.161226 -0.066023 0.391096 -0.456251 -0.040156 0.041192 0.459422 -0.556847 -0.122895 -0.333122 0.495233 -0.451065 0.056028 -0.864032 0.394701 -0.085732 -0.272352 0.480112 -0.752745 -0.052754 0.610522 1.063075 0.605166 -0.211405 -0.104893 -0.305404 -0.519870 1.298785 0.161130 0.498823 0.111647 0.381850 0.023233 0.231808 -0.230930 1.113801 -0.055642 -0.099064 0.516939 -0.098579 -0.444737 0.536846 0.676626 0.479677 -0.294918 -0.118824 -0.124481 0.193266 -0.305018 -0.342603 -0.537169 0.312236 -0.351743 -0.001134 -0.229553 -0.811353 -0.130559 -0.282883 1.106539 -0.917092 0.477181 -0.272151 -0.517805 -0.227950 0.214493 0.148455 0.280150 0.625555 0.196472 0.034910 -0.441159 -0.012160 -0.484808 -0.569210 1.458704 -1.925257 0.203782 0.198568 0.182969 0.299141 0.158423 0.465804 0.649838 -0.129166 0.048862 -0.566596 -0.178627 0.133113 -0.394850 -0.202382 -0.495646 0.372724 -0.392141 0.308505 -0.905504 -0.317532 -0.136785 -0.242832 0.757116 0.552275 -0.241445 0.315929 -0.403870 0.066953
M021_ON 0.482981 -0.534763 0.565106 -1.416740 0.143505 -0.576064 0.277064 0.248517 -0.165395 -0.050072 0.093112 0.077896 -0.701107 -0.410446 0.445968 0.552725 0.756803 -0.800081 0.422357 0.470479 1.259377 0.052276 0.232366 0.175160 0.253163 0.798428 0.407430 0.648127 -1.102261 -0.771011 -1.009827 0.663400 0.259424 1.340533 0.016019 0.334018 -0.400049 -0.085761 0.347332 1.207660 0.590616 -0.735148 -0.677142 -0.134341 1.112266 0.359629 -0.300032 -0.937046 -0.233481 0.074307 0.014001 0.130060 -0.270536 0.041316 -0.478369 -0.221125 0.160579 -0.350763 0.301134 0.425571 0.252480 0.441607 -0.442192 -0.424779 0.066352 -0.500139 0.224629 0.170571 -0.200706 -0.063308 -0.104065 0.404716 -0.065971 0.121474 0.208833 -0.135159 -0.318932 0.182484 -0.694119 -1.025478 0.671959 0.425739 -0.017182 0.232202 -0.008095 0.073611 0.301020 -0.341039 -0.231949 0.150183 -0.446668 0.031357 -0.300432 -0.396721 -0.331221 0.301786 0.226737 0.948402 -0.705901 0.325112 0.453419 -0.133420 0.563843 0.523897 -0.412759 0.075162 -0.080188 -0.045111 -0.914457 -0.286932 -0.618692 1.408775 -0.143939 -0.586610 -0.470432 0.368480 0.085817 -0.387742 -1.018343 0.014125 0.496292 0.474676 0.003048 -0.092592 -0.678692 -0.355892 -0.381369 -0.422061 0.912542 -1.120982 -0.033034 -0.606634 0.174625 -0.057605 -0.128037 -0.572576 -0.683299 -0.424768 -0.129255 -0.133924 -1.122960 0.160160 0.667441 0.793113 0.344699 -0.121673 -0.372612 -0.415207 -0.564520 1.415079 -0.721675 0.706553 -0.096232 -0.254523 1.112710 0.052695 0.688115 0.368720 -0.133322 0.423369 0.154112 0.754300 0.282091 0.123130 -0.087739 -0.867828 -0.346869 0.268911 0.564060 0.088251 0.651793 0.020454 -1.207783 -0.031915 -0.164663 -0.290970 -0.419495 -0.875230 0.647033 -0.501964 -0.303988 -0.465164 -1.385388 0.247057 0.548804 -1.118685 1.133067 -0.514279 0.212383 -0.292775 0.579891 0.016600 -0.476186 0.501151 0.261539 0.166729 0.951988 -0.442355 -0.306033 -0.782026 0.692675 -0.631959 -0.272394 -0.189741 -0.215207 0.676915 -0.144959 -0.658493 -0.562866 1.047277 -0.592587 0.200421 0.410589 0.106858 1.531758 0.379143 0.188353 -0.418984 0.791489 0.196754 0.033049 0.483736 -0.030386 0.031410 -0.865148 -0.371069 0.406103 -0.168438 -0.372371 -0.540238 0.389878 -0.136955 0.129035 -0.089658 0.711684 0.463203 -0.802715 -0.838493 0.347077 0.253820 0.437605 0.088686 0.464252 -0.769536 0.607284 -1.370327 0.281514 -1.078281 -0.578094 -0.740638 0.106257 0.325482 0.088281 0.639242 0.214748 -0.334794 0.371694 -0.665924 0.721852 0.755921 0.315412 -0.542088 -0.619892 0.094052 0.446986 0.551459 -0.490473 -0.322382 -0.071643 -0.332873 -0.919141 -0.830139 -0.243826 0.886363 0.227934 -0.127285 -0.052529 -0.192034 -0.279254 -0.095564 1.169918 -0.598787 -0.886075 0.773028 0.645389 0.145612 0.074879 -0.183827 -1.041178 -0.831148 -0.621612 1.886935 -0.855508 -1.143076 0.436922 -0.016063 -0.048217 -0.332164 0.326504 -0.456390 -1.155268 0.198981 0.872709 -0.882455 0.127040 -0.072960 0.945587 -0.172011 -0.207921 0.501195 -0.389913 -0.075496 0.520791 0.947340 -1.298943 -0.217584 -0.334888 0.267274 0.605239 -1.186914 -0.362980 -0.302443 -0.807986 -0.152706 0.205805 1.364155 -0.768486 0.308053 0.107252 1.510495 0.354865 0.574130 0.111500 0.531732 -0.129531 -0.868446 0.435073 -0.008043 0.319888 -0.278651 0.289109 -0.420305 0.071091 0.261973 -0.420519 -0.244440 -0.508512 0.103788 -0.126740 -0.766063 0.149252 -0.492681 0.142978 0.416595 0.506251 -0.221087 0.670347 -0.588620 0.661487 -1.164463 0.259064 -0.200595 0.167220 0.029361 -0.102092 0.513893 -0.449718 0.066847 -0.630368 0.572167 0.213049 -0.817725 -0.187186 -0.208887 0.041027 -0.168933 -0.178839 -0.554625 0.448695 -0.430783 0.267180 -0.415172 -0.164109 0.558916 -1.037933 0.435760 -0.689684 0.895867 -0.335633 -0.693461 -1.173978 -0.049436 0.596456 -0.311362 -0.419200 0.542655 0.423916 0.088914 0.379665 0.376489
M003_OFF -0.732105 0.137138 0.297772 0.419410 -0.502281 0.566640 -0.054057 1.075863 -0.081198 0.068695 -0.514933 -0.331534 -0.242646 -0.294847 -0.090689 -0.233728 -0.909679 0.358579 0.455078 -0.517337 -0.427637 1.071791 -0.012537 -0.597908 1.107024 0.443241 -0.766339 -0.694196 0.092837 -0.268590 -0.839288 -0.499707 0.211364 0.251892 1.057726 -1.245487 -0.484834 0.422790 0.204882 -0.230808 -0.203846 0.569671 1.179044 0.417648 -0.064630 -0.050333 -0.178449 0.347748 -1.211962 0.353573 0.196104 -0.091134 0.229054 -0.340687 -0.514583 -0.416444 -0.059510 -0.323869 -0.007954 0.124277 0.532429 -0.350600 -0.064471 -0.581995 0.402814 0.331337 0.462564 -0.819937 -0.215412 -0.321021 0.476907 0.803427 -0.181846 1.008007 -0.801482 0.580830 -0.220045 -0.005986 0.416945 0.649110 0.106072 -0.000432 0.240957 0.621598 0.190436 -0.370077 -0.653178 0.604791 -0.208158 -0.370139 0.297743 0.630998 0.495260 0.118619 0.626375 0.474864 -0.056328 -0.332941 -0.292783 0.239775 -0.112094 0.349775 -1.135833 -0.086771 0.131699 -0.802364 0.107429 0.288317 0.589248 0.453112 0.359098 -0.392763 -0.399019 -0.843669 1.479583 -0.159728 0.294899 0.466345 -0.924773 0.631973 0.122947 -0.029031 -0.611221 -0.106290 0.194604 -0.001752 -0.334880 1.028782 -0.639407 0.951511 -0.139858 0.158629 -0.304638 -1.124601 0.830267 -0.361066 -0.570217 0.353679 -0.974223 -0.379396 0.386156 -0.191081 -0.415856 0.109140 -0.170714 0.798665 -0.223700 0.917182 0.728296 0.018835 -0.946190 -1.014349 -0.122027 -0.518478 0.363079 1.035894 0.455126 -0.082893 0.336651 0.022225 0.294907 -0.209175 -0.700068 -0.021631 -1.183445 -0.434352 -0.379402 -0.269988 -0.325287 0.150607 0.082692 -0.491533 1.215438 -0.384856 1.303169 1.127145 0.609598 0.264211 0.152790 -1.176416 0.682849 0.403737 1.046817 -0.405865 -0.651079 0.153101 -0.543171 0.342843 1.029093 1.190040 -0.743640 0.065571 -0.389918 -0.047287 0.231154 -0.787790 -0.306947 -0.761603 0.190137 -0.008550 -0.355086 -0.219076 0.036879 0.724759 0.044648 0.225468 0.772599 -0.596661 0.599124 -0.477332 0.486894 0.677542 0.862366 -0.124593 -0.472722 0.265405 0.694149 -0.214888 -0.260128 -0.030971 0.293772 -0.459208 -0.093412 0.028449 -0.880597 -0.194809 -0.432641 -0.259382 0.495485 0.950117 -0.658116 -0.858645 -0.285636 0.694235 0.217643 0.390802 -0.173240 0.154473 -0.311419 0.760779 1.049695 0.501357 -0.724721 0.649366 0.870642 -0.055035 0.474783 -0.012032 0.058702 -0.709101 -0.742654 -1.800530 -0.220242 0.229563 0.205192 -0.551635 1.255457 0.243644 0.239744 -0.416337 1.158669 -0.191216 -0.349754 -1.142390 -0.173645 0.007709 -0.009899 -0.289288 0.520619 -0.356186 0.214049 -0.168481 0.246325 -0.701944 -0.590130 -0.044740 -0.926148 -0.225817 -0.132487 0.478157 0.166527 0.230380 0.788725 0.019725 0.417043 0.233093 0.448533 -0.231630 0.116027 1.306805 0.038836 -0.987148 -0.455346 0.749476 0.946064 -0.183041 0.779126 0.250452 -0.507465 0.881667 -0.299272 0.845073 0.473941 0.115023 1.076707 -0.328848 0.098615 -0.029906 0.200685 -0.007353 0.754574 0.410315 0.161653 -0.345915 0.914392 -1.012877 0.325270 -0.762616 0.108865 -0.142454 -0.831929 -0.576286 0.611802 -0.100446 0.046249 -0.703939 -0.416180 0.417949 0.659962 -1.375386 -0.436695 -0.954798 -1.122294 -1.043821 0.533173 0.542942 -0.654613 -1.162418 0.635626 0.444049 -0.469565 0.550715 -0.215101 0.292488 0.570122 0.311354 0.389111 0.142796 0.080192 0.665632 0.615775 0.542507 -0.015166 1.090373 -0.419820 -0.512760 -0.651268 1.211380 -0.378364 0.806341 0.241250 0.016880 -0.629535 0.068533 -1.545047 0.150691 -0.124264 -0.474141 0.261546 -0.569698 -0.786368 1.435655 -0.148447 0.857044 1.091485 -0.368613 -0.354878 -0.025111 0.523066 0.497533 -0.688904 0.270127 0.240556 1.061357 0.774815 0.669421 0.814860 0.650905 1.094557 -0.384596 -0.159458 -0.139844 -0.262990 0.573466 0.266765 -0.235377 -0.813489 0.843425 -0.325622 -0.098891
M003_ON -0.656168 0.116996 -0.683902 1.005387 0.537616 0.280758 -0.311140 0.843282 -1.067449 -0.005847 -0.044849 -0.288862 -0.163169 -0.114580 -0.669773 0.954121 -1.067031 -0.262887 0.565108 -0.020802 -0.042676 1.269082 -0.486390 -1.334222 -0.447642 -0.698082 -0.883116 -0.250121 0.485014 -1.327355 0.342207 -0.934057 -0.884975 -1.264706 1.391714 -0.792517 -0.884185 -0.545819 0.313803 -0.120159 -0.737901 0.040397 1.013330 0.363102 -0.010842 0.062875 -0.339498 0.440206 -0.790677 0.087085 -0.545468 -0.288472 0.608177 -0.756285 0.133406 -0.246605 -0.362851 -1.004095 -0.507697 -0.357078 0.316498 0.365646 -0.544622 -0.637030 0.337117 0.062459 0.401585 -1.146673 0.299613 0.205996 0.251331 0.584730 -0.186738 0.761171 -1.288542 0.033787 0.051458 0.005397 -0.079204 0.791369 0.199398 -0.150610 0.221778 1.117150 -0.037253 -0.225654 -0.254329 0.432637 -0.549705 -0.015681 0.132297 0.226784 0.391516 -0.152229 0.258387 -0.126020 0.157461 -0.168237 -0.434486 0.450691 -0.560842 0.251864 -1.512043 -0.043352 -0.348705 0.026402 0.228483 0.237160 0.134449 0.201311 0.352185 -0.226179 -0.600713 -0.508763 1.401515 0.414818 0.104906 0.824363 -0.579937 0.279026 -0.253054 0.366992 -0.789379 -0.532475 0.379869 -0.065126 0.573457 1.145167 -0.677562 0.063901 0.036664 0.589440 -0.157672 -1.207520 0.173759 -0.155475 -1.024212 0.405769 -0.986410 -0.260754 -0.076485 -0.866634 -0.802500 0.334743 0.239594 1.113190 -0.226784 0.729063 0.685553 -0.295553 -0.774698 -0.850322 -0.405736 -0.071236 -0.127272 0.832416 -0.026057 0.172359 -0.078071 0.034967 -0.357674 0.450923 -0.317679 -0.238569 -0.241108 -0.181532 -0.731002 -0.856902 0.077698 0.118603 -0.004267 -0.019515 0.689460 -0.130432 0.845070 0.763293 0.412084 0.134887 0.723319 -1.508798 0.326000 -0.007224 1.283893 -0.329036 -0.154726 -0.059823 -0.653574 0.317296 0.853691 0.564885 -0.644154 0.200778 -0.039841 0.028085 0.498020 -0.259066 0.104157 -0.745755 -0.254065 -0.127883 0.173386 0.320558 0.603914 0.261843 0.172082 0.464630 0.440826 -0.023039 0.697670 -0.077095 0.198524 0.997733 0.319265 0.004570 -0.276386 0.067951 1.081748 0.186768 0.515031 0.558677 0.586820 -0.304250 -0.004495 -0.185023 -0.750723 -0.505298 -0.100227 -0.397038 0.718907 0.336012 -0.720571 -0.331927 -0.415132 0.363168 0.744353 0.692827 0.291551 0.239543 0.212954 0.206044 0.590549 -0.287771 -0.051674 0.232771 0.582241 0.315817 -0.348602 -0.876859 -0.553004 0.028588 -1.130283 -1.456724 -0.856534 -0.856827 0.095554 -0.135754 0.475753 0.191431 -0.137578 -0.689901 0.906141 -0.819493 -0.233078 -0.423192 -0.189396 -0.262144 0.405445 -0.749050 0.476348 -0.118848 -0.505064 -0.394785 0.018034 -0.808108 -0.474595 0.282717 0.718150 -0.058235 -0.070265 0.055366 0.264662 0.751782 0.289333 0.242353 0.314012 1.182147 0.562739 0.678511 0.481918 0.584793 0.074863 -1.610846 -0.034851 0.666342 0.767091 0.140790 0.116631 -0.076892 -0.101050 0.800674 0.082010 0.406509 0.226561 0.051659 0.981902 0.209316 0.066282 0.274306 -0.203710 0.155644 0.030190 0.869974 0.512824 -0.066531 0.326338 -0.349648 -0.100787 -0.631744 -0.430645 0.089835 -0.048079 0.426005 0.388101 0.474665 0.100298 -0.608186 -0.612410 0.165148 0.818660 -1.056626 -0.904562 -0.284709 -1.035454 -0.822822 0.379743 0.041565 -0.422818 -0.959103 0.213571 0.119494 -0.035794 0.665217 0.110069 0.268967 0.832673 0.264115 -0.057910 -0.543775 0.391445 1.221070 0.316502 -0.091852 -0.340339 0.766800 -0.681911 -0.273897 -0.247266 0.476524 0.130442 0.652225 0.148357 -0.135180 -0.259151 0.175129 -1.017410 -0.011935 0.069876 -0.476607 0.081739 0.105663 -0.268249 1.264583 -0.150707 0.775174 1.317791 -0.612838 -0.256085 0.137280 0.409763 0.411086 0.127276 0.353368 0.564167 1.441274 0.524152 1.094836 0.602260 0.630562 0.850845 -0.424360 -0.145268 -0.517266 0.121198 -0.149747 -0.184713 -0.350010 -0.356543 0.254013 -0.191193 -0.409974
