68 50
M009_ON -0.222944 1.679141 -0.530965 -1.197552 0.295902 0.594624 3.056191 1.155489 0.002951 0.501778 2.911830 0.913851 0.867717 4.269943 0.889398 0.433716 -2.207422 -0.689541 -0.898302 -0.238402 -0.268670 1.726494 -4.149540 2.040978 -0.672158 -0.072405 0.273060 0.213530 -0.237753 -0.663620 2.120493 0.003895 -1.420684 -2.977011 0.713250 3.356590 -0.691158 -1.145434 0.521833 0.824429 2.713893 2.613644 -0.289898 0.089172 0.069510 1.985616 0.449805 -3.483129 -0.297336 -0.352718
M009_OFF -1.126033 2.191753 0.425547 -1.212501 0.101709 -0.406390 2.530843 0.479673 -0.079572 0.460128 2.505991 0.713279 0.755190 3.509527 0.862383 -0.225957 -1.780631 -1.638746 -0.970324 -0.899193 -0.562228 1.055195 -4.970838 1.640174 -1.579250 -0.271726 0.552874 1.039946 1.211320 -0.663116 2.113750 -0.776657 -1.496340 -1.313337 1.216458 2.760756 -0.590026 -2.520098 1.891047 0.887522 2.513211 2.652092 -0.924231 -1.174363 -0.704503 0.394841 0.091931 -2.516481 -0.920827 0.305615
M020_ON -1.431811 0.033990 -1.178704 -0.073581 -0.067046 -1.128007 -0.131376 -0.446768 0.163122 -1.043606 0.678245 -0.329977 -1.162467 0.133613 -0.003749 -0.768554 -1.216478 -0.263772 -0.397239 2.505666 1.580839 1.326225 -0.720946 1.534655 -0.586101 -0.200174 1.859267 -2.233385 0.024509 0.568779 0.441745 1.820883 1.852333 0.031578 0.450929 1.508493 0.041723 -0.079126 0.320627 -0.670737 3.160616 0.164342 0.502483 -0.384768 -0.799609 -2.101452 0.980551 0.582288 0.147547 0.070201
M020_OFF -2.643921 -1.405745 -0.208725 -0.380406 -1.524210 1.327135 -0.030027 -2.205781 1.173223 0.946097 -0.531896 -0.231183 0.619740 0.464018 0.850243 -0.134536 -1.289110 0.484512 -1.277381 1.568720 0.924987 1.556812 -0.643483 0.605035 0.522403 0.529563 1.158654 -2.207499 0.347502 0.407900 1.599319 1.982765 1.710513 -0.460328 0.365282 1.649946 -0.873814 -0.184033 0.769899 0.508799 0.473505 -0.054070 0.845930 0.040376 -0.317206 -1.758154 2.013913 -0.566729 0.195816 -0.116528
M019_OFF 1.522302 -1.429195 -0.212285 -0.532077 0.334372 0.740461 0.133213 -1.306178 -0.017445 0.802051 -0.043735 -3.459172 -1.192964 0.077544 0.157712 1.587691 2.735780 -0.131568 1.206583 -0.232070 -2.495730 1.482890 1.191468 0.042225 -1.872128 1.454848 -0.428548 -0.202728 1.637738 0.253348 1.131954 0.020989 -0.031594 0.493426 -1.568667 -1.134632 0.109769 -1.433812 0.048152 -3.080382 -0.107196 -0.755836 -1.296288 0.555580 0.002366 1.900973 -1.023945 -0.162778 1.232669 -1.152367
M019_ON 1.687443 -2.288339 -1.019569 -0.770898 1.018567 0.228298 -0.073659 -0.804522 -0.842089 1.033527 -0.816289 -3.303970 -1.896874 0.117530 1.312585 -0.572279 0.942813 -0.009004 0.451046 -1.424643 -2.306128 -0.205807 -0.166203 -0.051785 -1.961238 0.861514 0.101681 -0.051949 0.519883 0.541738 1.584147 0.800416 -1.021237 0.779204 -1.445670 -0.958493 0.941074 -0.616954 -0.720424 -3.528712 -0.972552 -1.569343 -1.256246 0.008363 1.017088 0.205380 -1.399569 0.013330 1.928933 -0.299831
M015_OFF 1.665828 -1.657318 0.370308 0.071052 2.014982 0.485312 0.239387 -1.311287 -0.091048 0.574265 -0.841581 -3.800940 -1.914771 -0.257317 1.140344 1.549048 1.632187 -0.464076 1.055908 -1.871899 -2.683713 0.007951 0.201612 -0.393389 -2.743029 0.503076 -0.463341 -0.260701 1.169006 1.340425 1.623791 0.888166 -0.613767 -0.465165 -1.706641 -1.215604 -0.300465 -0.152137 -0.028654 -4.118210 -1.147079 -0.390988 -2.076924 0.596251 0.827935 1.431810 -1.164754 -0.005571 -0.036768 -0.081455
M015_ON 1.250211 -1.952052 -1.727484 -1.168955 -0.155233 -0.201044 0.657193 -0.423943 -1.419491 1.004004 -0.800800 -3.333436 -2.394142 0.269280 1.117362 -0.353754 1.751722 0.586605 1.779528 -1.405534 -2.303695 0.671863 0.063205 -0.197561 -1.513719 2.140185 -0.347629 0.429122 1.455688 -0.579897 0.649534 -0.495010 -1.288801 -0.076091 -0.443027 -1.860553 0.778327 -1.589457 -1.074775 -4.355829 -0.506704 -0.670740 -1.887708 1.135121 0.102653 1.205919 -0.313059 0.168840 1.011831 -0.412719
M007_OFF -0.365280 0.044432 1.247473 1.829405 0.440535 0.749082 -0.362083 -0.522424 -0.489348 -0.704803 -0.328231 3.252364 -0.348429 -2.383854 -0.280740 -0.918608 -0.649202 0.975203 0.549245 -1.747337 3.621589 0.046554 1.667006 -0.033446 0.541259 -1.640616 -1.339003 0.231935 -0.476505 -0.077804 -1.070369 -2.468176 0.383514 -0.700185 0.214924 -2.234396 -0.818529 -0.212675 0.114171 0.384400 -2.133720 -1.802292 3.268991 -0.843764 -2.118261 1.681757 1.140486 -0.158414 -3.089840 0.891136
M007_ON -1.666113 1.084205 0.630596 1.635348 -0.145549 -0.272043 0.065885 0.796935 -0.079103 -3.432215 -1.338576 2.522148 -0.672003 -1.400947 -0.694032 -0.371513 -0.237629 1.630962 -0.262991 -0.831883 2.559615 -1.587447 2.353453 -0.768369 1.159849 -0.265982 -2.690513 -1.239992 -1.419523 1.147510 -0.362692 -2.433066 -0.571460 -0.311728 1.581743 -1.069148 -1.084758 -0.240371 -1.334164 0.725985 -0.857429 -2.084624 1.334358 0.969146 -1.068438 0.069123 -0.947187 -1.182618 -2.019607 -0.433007
M014_ON -2.548696 -1.712034 -0.172253 0.335513 0.900968 -2.438294 -1.097511 -2.332087 2.420495 0.478693 -0.102091 -0.447600 -1.786379 1.346638 1.018309 -0.831805 2.637952 2.537584 1.313869 1.762776 -2.374276 -1.642690 0.598790 2.070974 0.417240 2.218103 3.547438 -1.092120 -0.090673 0.492846 1.329027 0.347145 -0.304778 0.601195 -2.027092 1.172815 0.953191 0.584037 -0.004752 -0.302425 1.240569 0.395218 1.888975 -2.756382 -1.255636 -0.846165 1.381409 -0.319385 1.958236 -1.454214
M014_OFF -1.873306 -3.568733 -0.045275 0.111545 1.234807 0.338953 -0.059241 -2.106804 2.286804 1.163811 0.466759 -1.990039 -2.885776 2.123386 0.104557 -0.881601 1.649205 2.059177 -0.634620 2.345169 -1.908442 -2.077308 1.115875 1.465772 -0.053601 0.833620 2.668684 0.051694 -1.058961 -1.276834 -0.738952 0.735364 1.251235 0.180734 -2.018607 -0.189529 2.133779 0.456692 1.503557 0.648155 2.618249 0.248760 2.042479 -0.791741 -1.589010 -1.569048 -0.423719 -0.755498 0.475712 -0.493981
M013_ON -3.245425 0.054129 -1.986673 -2.396998 0.320679 -0.003894 0.604849 -0.878072 0.125536 -0.251093 1.085265 -0.895956 2.418561 1.903321 0.373207 -1.257192 -2.024592 0.313818 -1.460973 2.319908 -2.047678 2.774625 -1.888699 1.928249 0.071635 -1.235731 1.366236 -1.837842 -0.490608 0.650687 0.657777 0.885162 1.119781 -0.843840 1.622299 2.343328 0.371634 -0.608298 2.111705 -0.202815 1.211920 1.835564 -0.215567 0.356107 -0.053498 0.101039 0.763211 -0.902751 0.065665 0.316282
M013_OFF -2.435847 0.197415 -0.918595 -1.025802 -2.053447 1.272690 0.472291 -1.059029 -0.699193 -0.409680 1.362686 -1.147534 0.562356 1.317736 -0.837175 -0.823014 -3.791822 -1.133138 0.780592 2.214004 -1.669656 1.302036 -1.982672 2.343969 0.491689 0.106559 1.593033 -1.135615 1.232270 0.790104 2.717960 1.218102 0.521328 -1.168534 -0.808555 2.067417 -1.438367 -1.051351 -0.166130 0.924805 3.148641 1.758530 0.732766 -0.902067 -0.657670 -0.437933 0.335138 -0.253608 -0.027267 1.973554
M018_ON 0.634346 -1.315337 0.121661 -1.680461 1.398946 0.129765 -0.966168 -2.001549 0.507752 1.887303 -0.703604 -1.124043 -1.098824 1.866307 1.143773 0.360186 1.451388 -0.131700 0.561017 0.674504 -0.272472 0.470882 0.553485 2.386415 -0.929501 1.906831 0.443181 -2.536221 1.507984 0.196683 -0.295058 2.848027 0.424648 1.318234 -3.153978 -0.630341 1.940783 -0.400432 -0.610957 -1.157920 1.047753 -1.981432 -0.409221 -0.184061 -0.179015 -0.737255 -2.084423 -0.269437 2.126330 -1.043626
M018_OFF 1.679809 -1.933869 -1.408549 -0.898897 -0.149000 0.545530 -0.234516 -1.675055 0.579261 0.510267 -1.126280 -2.038101 -2.114827 -0.962257 1.446090 0.088866 2.319498 0.391824 -2.104854 0.017093 -2.638926 0.285843 -0.203653 0.570451 -1.434598 1.007662 1.472540 0.025538 -0.721123 1.583799 1.084716 -0.414785 0.860614 2.221700 -2.551098 0.863247 0.896287 -1.047366 -0.335587 -0.738881 1.868486 -1.932584 1.118406 -0.365534 0.859196 -0.279986 0.910384 -0.105636 2.449731 -1.706231
M024_OFF 1.713101 0.072368 -1.880679 -2.234044 0.742639 -0.448573 1.137781 0.451251 -0.950585 0.766334 0.699627 2.931318 0.542875 -0.268860 -2.211333 2.604755 0.245797 -0.407517 2.048466 -0.699091 -3.015947 -3.635684 0.250469 0.730785 -0.984644 -1.879303 -0.635178 1.077723 1.246391 -1.689789 -0.795776 -0.898864 -1.999983 0.604595 0.817508 1.221288 -1.813194 0.046410 0.156223 -0.474528 -1.796359 2.961081 0.782594 0.418462 0.057732 -1.400661 -0.021402 -1.278823 2.565818 0.004466
M024_ON 2.242307 -0.190774 -0.990377 -0.010297 0.077370 -1.473365 2.106644 0.171562 -1.197618 0.509114 1.077508 2.513157 -0.423900 1.293428 -2.913683 0.335368 0.051545 0.871519 3.144282 -1.543997 -3.220144 -1.924725 -1.219924 -0.286231 -1.472325 -1.645720 -1.016444 -0.561048 1.335860 -1.753857 -1.314214 -1.294155 1.549953 1.036637 0.231228 2.096021 -1.495155 0.342334 0.850956 -0.131792 -2.469651 2.824946 0.032406 0.869029 0.082238 -1.048190 -1.217824 -1.590021 1.027068 -0.082973
M017_OFF 1.606789 -0.554618 -1.266570 -2.584662 0.091329 1.424754 -1.735568 -0.252781 -1.330263 2.521386 -1.888257 -1.336264 -1.099032 -0.861125 0.413795 0.337165 2.837060 0.516136 0.375502 -2.005895 -1.866560 0.010619 0.260803 2.432912 -1.891118 1.119220 -1.821452 0.696853 -0.302552 2.052196 0.508369 1.887259 1.231305 0.627788 -2.385664 0.173020 2.881769 -0.374141 0.958666 0.743695 1.781630 -2.330332 -0.090419 -1.401180 -0.444992 1.150724 -1.996823 -0.638063 2.733098 -1.620216
M017_ON 2.414308 0.937822 1.361162 -2.366269 1.650853 0.191579 0.422183 -1.699526 0.051686 0.494756 -0.421532 -1.411505 -0.992044 -1.213090 0.214491 -0.046671 2.691922 -0.018501 -0.911950 -0.818630 -3.240135 1.678355 0.278481 1.607892 -1.471514 1.012265 2.076794 0.087640 0.699233 0.607353 0.681870 0.171282 0.945593 0.935435 -1.348460 -1.001093 1.634194 -1.548749 -1.326218 1.522441 0.153483 -3.476440 0.500511 0.770041 1.516734 -0.737693 -2.772799 -0.667932 2.859857 -2.859153
M010_OFF 0.053173 0.119853 2.977514 0.005123 -1.346146 -0.778088 2.621706 0.946301 -1.449389 0.493359 -1.242919 -1.118114 -0.221619 -0.175431 0.294267 0.252174 -1.716866 -0.445129 0.279258 1.485257 -0.923906 1.220478 -1.982027 1.740017 -1.012375 -2.310325 1.539941 1.145707 0.188486 -1.079136 1.100903 0.570900 -0.289410 -2.431339 2.536950 1.353146 0.993552 2.399038 0.580025 2.845528 0.104933 2.754874 -1.359009 0.375196 -1.382309 0.203515 1.390353 1.529062 1.311533 -0.909496
M010_ON -0.954729 0.614503 -0.242498 0.799541 -2.672294 0.558786 2.703225 -0.156273 -0.293745 -1.123685 -1.298654 0.661473 1.533025 0.942072 1.889325 0.811167 -1.349888 -0.434861 1.052900 1.567465 -0.461787 -0.074129 -0.912780 0.551021 -1.465541 -2.219635 1.776344 0.203829 0.273665 -1.438493 1.837224 1.536427 -0.533438 -2.256131 2.599773 -0.314465 1.066337 1.212917 -0.866053 2.613498 0.935927 1.985834 -3.923275 -1.875947 -2.074649 -0.711135 -0.539585 -0.647529 0.993077 -1.551512
M021_OFF 3.081633 -2.387660 -0.006062 0.700405 0.289994 -0.699447 -1.513382 -1.204616 1.677979 -0.017480 -1.000746 0.811969 1.253924 1.191324 -0.016219 0.000286 -0.305378 1.625955 -0.823733 0.385691 1.057001 0.102835 0.361534 -1.537293 -0.246445 1.979140 0.831045 -0.750224 2.535178 1.377931 -1.015187 2.077261 2.590029 1.530152 1.619838 -0.228019 0.785069 0.434161 -0.933918 -0.888901 2.127372 -0.805685 1.856169 -1.306306 0.887366 -2.378237 1.939302 3.124809 1.118628 -0.023834
M021_ON -1.675832 -1.501375 0.796973 -0.352969 -1.730159 -0.474256 -1.383027 -0.347598 0.757664 0.687491 -0.109240 -0.574564 -3.173106 -2.497974 1.017726 1.426650 0.860155 -2.197997 -1.321662 2.513037 0.476735 0.029157 0.394063 -0.358256 1.289681 1.083076 -0.005958 -1.947836 -2.519788 -0.160113 -1.859113 3.285253 0.982300 3.590046 -1.421670 1.466069 -0.830200 0.230822 -0.085291 -0.310777 -0.849412 -0.511730 -1.457209 1.113625 -0.035648 -2.048699 1.080137 -1.594462 0.152845 -0.057059
M003_OFF -1.389919 -0.833973 1.335119 1.298410 0.757987 0.515563 0.644954 2.089375 -0.695729 0.163995 -0.797309 2.200297 -1.929052 -0.727412 0.485390 1.587102 -0.383615 2.814974 1.179299 -1.574648 2.541246 0.627327 0.812844 -1.038877 0.492390 -0.476753 -1.924649 0.003221 -1.132074 0.728400 0.067899 -3.822038 0.201797 -1.167595 2.496739 -2.591588 -1.076834 -0.793611 0.534258 1.506878 -0.560153 -2.278704 1.317359 0.967705 -0.615113 0.617517 -0.125907 -0.496587 -0.625134 2.060321
M003_ON -1.998634 0.139947 1.204452 0.459761 2.519747 -1.497058 -0.522387 -0.355840 -0.539592 -1.929478 0.686119 3.391070 -0.941725 -1.584376 0.414850 1.881955 -0.934493 0.005995 -0.306658 -2.223174 2.320459 1.190319 1.500757 -1.735459 -0.149901 -1.217796 -2.379108 0.468057 -1.958461 -0.111266 -0.202184 -2.978765 -0.994188 -0.566170 0.383880 -0.867901 -1.269285 0.502973 -1.423441 0.832957 -0.222508 -3.004069 0.651527 -1.233930 -0.931148 1.005545 -0.846709 0.049414 -0.984421 0.852392
M005_OFF 0.237369 -0.777356 0.367981 2.878315 -0.159263 1.703696 -0.566662 -0.579770 -0.157563 -1.225121 -0.414565 2.916754 0.274374 -2.824270 -1.216567 -1.218925 -0.356597 0.872414 -0.001348 -1.408909 3.577092 -1.802909 1.943831 -1.227680 1.847986 0.397521 -1.188813 0.377896 -1.733692 2.349053 -0.491939 -2.065796 0.187289 -2.735469 0.917670 1.493151 0.023015 -1.481857 -0.592777 0.624169 -2.687365 -0.604584 0.436247 1.202785 -1.013846 0.151363 -0.982309 0.986776 -3.496952 -1.722355
M005_ON -0.662772 1.316203 0.951342 0.293016 2.416325 0.461507 0.383000 0.752860 -1.578332 -2.827538 -2.102254 0.952648 0.598088 -0.089868 -1.371999 -1.544181 0.235337 -1.606296 -0.103379 0.220896 4.449862 -1.969464 0.936960 -0.201030 0.481860 -0.810195 -1.341070 -1.136116 -1.443971 -1.040453 -0.685492 -1.410922 -0.469308 1.474981 1.797285 -2.919768 -0.334784 -0.808812 0.241435 0.193954 -3.367270 -2.059716 3.080916 -0.369740 -2.339253 0.953579 2.315897 -0.916467 -2.409780 0.661108
M008_OFF -1.505553 0.083036 1.700207 2.978681 -1.558554 -0.474553 -1.812936 1.399315 -0.145767 -0.513184 0.149329 1.133792 1.635643 -2.022583 1.517428 0.362583 0.480438 0.249779 0.556179 1.017753 4.953810 -0.261200 1.485413 -0.372071 -1.696522 -0.825989 0.503548 -0.833496 -2.306884 0.222655 1.138600 1.941005 1.994853 1.476886 1.094929 1.563960 0.705515 -2.758277 -0.874296 -1.478559 -0.447310 -1.259127 3.745920 1.873940 -2.510243 -2.197242 0.481159 0.469586 -1.288450 0.705628
M008_ON -0.221181 -1.605322 -1.347558 2.508641 0.033813 1.267913 -1.517719 -2.216117 0.843920 -1.398398 0.058769 0.494957 -1.280533 -0.365388 -1.360486 -1.267396 1.459688 -0.374795 -1.702157 1.996627 4.610743 1.249306 -0.878942 1.292173 1.412082 -0.462873 -2.657007 -1.545951 0.684124 -0.239422 0.452976 -0.979813 0.571626 -1.035840 1.735722 -0.393684 -1.837144 1.339506 0.076524 1.522275 -1.488919 -2.961860 0.254802 -1.132161 0.961148 -3.380126 2.162686 1.513720 -1.496104 -1.905095
M022_OFF 3.684624 -2.206368 0.515964 -0.631427 -2.452950 0.657861 -3.411972 -1.999733 -1.059947 -0.408823 1.436547 0.295537 0.350729 -2.202671 -0.013469 2.200232 1.727155 0.635390 -0.328145 -0.683821 1.238883 -0.625679 -0.849548 -1.846139 1.993066 0.239117 2.405711 -2.013897 -0.669340 -0.724302 -2.625797 1.855384 0.868853 2.976596 0.739304 1.598398 -0.890647 2.919334 0.480049 0.348473 0.904105 0.869989 -1.366814 0.685941 0.176838 -1.489258 0.386376 -0.163964 -0.528510 1.943907
M022_ON -0.832777 -1.062986 -0.643347 0.498318 0.988765 -1.682584 1.193873 1.905580 1.934055 0.494496 -1.919930 0.901308 0.513045 0.210953 0.840481 -0.253559 0.011900 -0.821818 -0.107038 2.749946 0.191679 -0.313478 0.296353 -1.695189 0.187888 0.896144 -2.304790 1.192320 2.058125 0.983059 -2.352139 3.066719 3.768857 2.709110 -0.378279 -0.295966 -0.758130 -0.596579 -2.215584 -0.550742 -0.475319 0.625465 0.375059 -0.181337 3.370761 -3.167905 2.376454 0.975103 0.934221 -0.291760
M012_OFF -2.652249 0.782779 -1.652338 -0.028942 -0.773870 1.700609 1.323041 -1.950390 -0.151949 0.169942 -1.748938 -0.608259 0.688575 -0.472921 0.574244 -0.559068 -2.148144 -0.961970 1.681413 2.512748 -0.907452 4.044061 1.481891 -0.909485 -0.785390 -3.357076 2.130896 -1.298568 0.525664 0.929637 -0.239304 0.632669 -0.209181 -0.828561 1.836835 2.177364 2.265459 1.733986 -0.276645 2.334585 0.707808 2.676385 -1.134939 -0.823743 -1.070342 0.103444 -0.168514 2.166334 1.876480 1.181212
M012_ON -2.692650 0.180591 0.364150 -0.674880 -2.639393 -0.094075 2.210854 -0.102708 -1.562745 -1.424985 -3.257973 -1.627581 1.322966 0.075063 -0.188508 0.789827 -2.169549 -1.258291 -1.162588 2.461780 -1.434980 1.554158 0.776904 2.182416 1.537575 -0.511413 2.959121 0.324128 1.202793 -0.882348 1.371137 -0.312593 3.080579 -2.452755 0.448937 1.380670 -0.468647 2.548822 0.727870 -0.157152 -0.136791 1.471760 -1.405646 -1.043216 -1.593153 -1.476322 -0.965557 1.788957 2.067081 1.836427
M016_OFF 2.824427 -1.054699 1.086122 -1.078329 -0.142106 0.733681 0.258962 0.311738 0.637853 1.632831 2.492532 -2.440798 -0.749928 0.009291 -0.288260 -0.108200 1.318832 -1.180449 1.818748 1.030546 -2.784828 1.334053 0.792160 -2.375178 -0.048353 2.064696 0.133379 2.830844 0.822688 1.686465 1.838789 0.639253 -0.272824 1.063199 1.353145 -1.705550 1.840311 0.246415 1.162292 -2.397263 -0.929511 -2.537460 0.373419 -2.377131 0.875272 1.482988 -2.502449 -2.741584 2.204134 0.547096
M016_ON 3.618784 -1.118264 0.405328 -1.873750 0.574819 -0.858333 -2.041298 -0.124082 0.848142 0.033254 1.799751 -3.463388 -1.085311 0.066908 1.718322 -1.127241 -0.464737 1.718949 -0.081273 0.013919 -1.473024 1.934591 2.507197 0.009961 -1.970944 2.565531 -1.793474 2.612190 -1.292700 0.377450 0.700325 0.226598 0.260194 0.554645 -1.075363 -0.446755 -1.130290 -0.729760 -0.045393 -0.179949 -1.958016 1.377607 -2.157573 -2.167188 0.394419 2.037978 -2.957217 -0.668203 2.108352 -2.150930
M006_OFF -1.644798 -0.303421 -0.070289 3.834937 1.785080 1.163222 -1.575269 0.817873 -1.652393 -2.285653 -1.245739 0.779961 -0.987016 -3.145687 -2.887243 0.593146 -0.862779 2.468626 -1.761210 2.365455 5.063344 -0.108590 1.449140 -2.777692 -0.285818 0.292485 0.315743 -1.890037 1.194613 -0.872755 -0.112958 1.893724 -1.322692 0.063047 1.315595 2.145329 -1.526520 -1.486038 3.118914 1.013164 -0.438646 -3.795178 1.493370 -0.611890 -0.027968 -0.574449 2.464580 -0.550162 -1.034095 -1.962485
M006_ON -0.894845 -1.137842 0.043783 0.559355 -2.757863 -0.932294 0.837582 -1.926946 1.475692 0.411524 -0.056245 3.010759 -0.249772 -0.200040 1.138364 -1.513069 0.885640 -2.549419 0.142433 -1.255129 5.827542 -0.181467 1.322585 0.471977 0.690974 0.169902 -0.608770 -1.451146 -4.110671 0.870996 1.439572 -0.039147 2.707058 -0.124271 2.028773 -3.358292 -1.914601 -0.127490 -0.497470 -0.576086 -1.033226 -0.290875 3.732089 1.783177 -0.767423 -2.451320 -0.798792 2.913982 -2.651987 -0.645304
M026_OFF 1.029513 0.750795 1.114306 -0.789563 -0.418677 -0.006780 -0.047191 3.221142 -0.130101 1.561218 1.558007 -1.704696 3.198483 1.050743 -1.071045 0.374113 0.700592 0.614228 0.060728 -2.332283 -0.749185 -1.205407 -0.188327 -2.695994 -0.419532 -1.637455 0.698220 0.002499 0.100211 -0.390208 -1.823860 -1.454038 -2.642155 -0.454942 -0.418549 -1.015694 -1.487072 0.832426 -2.012536 0.851448 0.622930 1.217883 -0.819106 -0.687805 -1.836167 -0.871760 0.544658 0.696770 1.087612 -0.390612
M026_ON -1.627141 1.681350 0.316686 -0.256350 1.258542 0.967679 1.873944 3.004136 -0.438923 1.585398 1.894684 -0.558885 -0.165481 -1.589073 -1.215006 0.901568 1.535931 0.457663 1.053382 -2.236889 -1.071471 -0.741355 -1.678732 -1.351779 1.043057 -0.318360 -1.151904 0.180302 -0.056437 -0.292790 -0.723669 -0.246463 -0.665864 -0.684097 -0.589794 -1.303851 -0.450258 1.841450 -0.837739 -0.784045 -0.964329 2.588879 -0.994411 -1.365787 0.600899 -2.019414 -1.078083 1.387972 -0.215402 -0.812067
M004_OFF -0.330280 0.270933 0.264854 3.143019 1.839052 3.923865 -1.045320 0.729974 -0.039536 -2.962950 -1.785414 2.448603 1.849999 -0.334923 -3.365274 -1.160578 -0.084344 -1.879965 -0.105340 -1.455785 3.285350 -3.455392 0.406617 -0.750484 -0.712407 0.707926 -1.310635 -0.305574 -1.941754 0.010325 0.593927 -2.761884 0.473638 -0.150627 2.605875 -1.275385 -0.037267 -0.381381 -1.223693 -0.318988 -4.589405 -1.265147 1.086488 1.881779 -3.634848 3.121994 0.897979 0.549474 -2.295357 -1.504135
M004_ON 1.106424 0.607244 -1.503221 0.466659 1.579845 -1.093055 -0.232037 0.586781 -3.335324 -0.682077 -1.704836 1.288926 0.002641 -1.175804 -0.971626 -2.103701 -0.148214 -1.294118 1.444345 0.765590 4.829232 -2.644022 1.584473 -0.379179 2.590823 -1.420326 -0.185473 0.442456 -0.703391 0.849099 -1.008069 -1.984517 -0.705613 -3.351590 0.541857 -0.023850 -0.242995 -3.410384 -0.119396 0.610851 -4.757665 -2.137710 1.773681 -0.064922 -1.328411 0.374642 -0.086196 0.032359 -5.731402 -2.065963
M027_OFF 0.254938 1.833698 -0.353500 -1.642332 0.566571 1.163277 1.395436 1.843690 -0.270378 0.423991 1.991246 -1.844346 1.658137 -2.803963 -1.424064 -0.020373 0.416590 1.709211 -1.756795 -1.491579 -0.299792 -1.321930 -2.196013 -1.908678 1.268340 -0.146418 0.415192 0.423319 2.748261 0.965893 -0.996800 -0.625813 -2.617935 0.429116 -0.475883 -1.542232 0.348406 3.361839 -0.347131 0.687893 -0.709779 2.490668 -0.056674 0.327924 -0.178834 0.071587 -2.580697 0.657561 -0.775559 -0.940348
M027_ON -0.923330 0.853797 1.407287 0.374587 -2.070725 -0.315178 0.228396 4.416407 -0.878099 0.975086 0.694731 -0.525202 2.333227 0.998801 -1.252058 0.723253 -0.500647 -0.672527 0.502814 -2.751735 -0.791152 0.570604 0.873215 -2.309006 0.937343 -2.792388 -1.548272 -0.838819 -1.117013 -0.928935 -2.996651 -0.331965 -0.044824 -0.319051 -1.610894 -1.448430 0.223851 -0.748064 -1.119295 0.198195 -0.399445 0.885077 -0.064786 -2.018019 0.859926 1.496574 -0.720323 -0.316012 1.920004 -1.463938
M023_OFF 0.817080 -0.506384 -0.416644 -0.672369 -0.749898 -0.528865 -1.107709 1.423272 -0.867237 -0.305549 -0.122540 3.522132 -1.321420 1.819592 -0.091953 2.661946 -0.342603 -0.560394 1.721835 -0.548572 -2.983200 -0.650072 0.178424 -2.432635 0.924529 -1.266173 0.509336 4.495469 3.059054 2.707739 -3.897890 1.859690 1.731235 3.389582 -0.751090 -0.407948 -2.292863 1.593665 0.129785 1.113080 -1.994369 1.945857 -1.045192 3.188751 -1.031420 -1.766039 1.401439 -0.489357 0.973445 -1.893731
M023_ON 3.774048 -2.419919 -0.178311 -1.380421 0.215397 -2.249595 0.860573 -1.153114 -0.361582 0.006575 -0.028714 1.309366 1.681043 -2.672901 -1.354285 2.454960 -0.098926 -0.237616 1.491219 -0.377677 -1.004881 -3.678719 -1.180382 -0.471817 1.118777 0.936641 -1.406404 -2.513193 -0.805313 -4.651760 -2.341775 0.193928 1.242562 3.263251 2.696814 1.435364 1.017413 0.743875 -1.898204 0.369418 0.473228 2.775609 -1.400526 -2.841788 4.055656 0.404122 -0.067563 0.433139 1.926657 2.149609
M001_OFF 0.627136 1.450865 0.863269 -0.149928 -0.883929 0.897186 1.817903 0.631342 -2.232368 -3.501042 -0.169362 2.296119 -0.328538 0.438400 -2.780509 -0.234762 2.697337 3.121239 -2.178210 -2.572896 2.703385 -0.971986 1.989357 -0.346071 1.190559 -1.628659 -2.165939 1.078056 1.210582 0.084994 2.698661 1.209887 -1.537715 0.484009 0.985155 -1.209132 1.433423 -0.299371 -1.660491 0.434610 -2.922543 1.790908 0.887346 0.502283 -1.692193 0.405479 0.225669 0.298184 -2.396085 1.366616
M001_ON 0.558449 0.534598 3.910248 1.284856 -0.750703 0.711220 2.128310 -0.336713 -0.445813 -1.285045 -0.805241 1.813507 2.054900 -1.930048 -0.588022 -2.508970 -1.150901 -0.265906 1.925587 0.104952 1.248805 -1.136902 0.890848 1.352013 0.063237 -0.838920 -1.855370 1.514801 -1.652040 0.790618 -3.696670 -2.812853 -3.050465 -0.495702 -0.222359 -0.741068 -2.423851 -0.340641 1.407474 -2.831356 0.159445 -1.675151 0.025810 -0.127904 0.592440 0.468884 0.389265 -0.218218 -2.043731 -1.871382
M002_OFF -0.715288 0.487089 0.941546 1.245637 2.587077 1.651850 1.667579 -1.276522 -3.945298 0.937536 0.259820 3.582773 0.153758 0.388133 0.690293 0.243317 -0.933043 2.123438 2.023032 -3.224638 -2.332567 -0.814336 2.127413 0.598851 -1.513193 1.007745 -1.280191 1.535736 -3.073705 0.429093 0.094609 -0.560806 -1.428997 2.566251 2.828151 1.017448 -2.663990 -0.743623 -1.457131 0.938250 -0.330841 -1.248908 -2.439697 -0.263323 0.451911 0.619183 1.548296 1.046804 -3.219492 0.568697
M002_ON 0.582841 -3.087031 2.965271 -3.888840 0.930636 -1.692205 1.659929 2.608381 0.294002 -2.760571 1.195424 1.437324 0.011788 0.078468 -2.396661 1.639025 0.646012 0.554163 1.546343 1.107063 4.024796 -0.943454 -1.495458 -0.640403 0.270777 -3.405981 -2.102135 2.119833 1.160588 0.280688 1.043849 -3.474863 -0.505816 -2.859046 -0.517002 -1.988870 1.589466 -0.717532 0.939671 0.082480 -1.233472 0.009899 -0.634712 1.361648 -0.309542 -0.027588 -0.828410 -0.497142 1.219455 1.014395
M030_OFF 2.097532 0.572777 -0.262693 1.017457 0.329677 0.621680 1.697771 -1.647284 3.774494 0.704162 -0.408176 -2.102934 0.695172 -0.429193 0.338918 0.980582 0.974454 1.411732 0.357632 0.412489 0.695757 -1.418549 -1.890808 -0.310085 3.491435 -0.721655 0.741617 2.826874 0.281381 -0.088803 -3.090647 2.644544 -0.002965 1.748825 -0.172537 1.849033 -2.906282 -1.084894 -0.651990 0.348397 -0.346676 -0.647693 0.411639 -0.389571 -1.213520 3.531745 -0.922273 3.614632 2.746624 2.217282
M030_ON 0.576282 1.217704 1.330280 -0.489750 -0.489464 2.079193 0.429305 4.973657 0.119500 -2.543089 0.969605 3.405291 -0.772943 1.524055 1.264844 -1.543411 1.306184 -1.720325 0.384269 -0.241689 -4.190053 2.060155 2.341273 -0.076104 -3.620950 2.852092 0.396050 0.032577 0.303647 -2.482914 0.214161 -1.984001 -4.006364 0.434247 -0.924500 0.287035 1.165555 3.734676 1.315508 1.268093 -1.363589 0.363820 -0.575206 -1.144262 3.030256 0.392496 -0.159346 1.063072 -2.878514 3.708006
M028_OFF -2.001461 3.146971 2.942931 -0.839021 -1.112466 1.282727 -1.079197 1.881215 -1.659557 0.445737 1.922191 1.316324 -0.383209 -1.343779 2.245592 0.494382 1.680835 1.160316 -1.402617 2.830382 -1.017562 -3.102475 -2.570494 -6.367362 1.961095 0.035363 -3.597229 -0.909243 0.710272 -2.021192 -2.326169 2.293549 2.266239 -0.148342 -1.755174 -0.899929 1.225716 0.260573 -2.298261 -0.756395 0.475773 2.266425 0.277781 -2.094710 2.898191 0.927600 0.259852 4.573185 0.565833 -0.782669
M028_ON 0.930022 -2.299526 -1.320426 1.450237 -0.330754 -2.071958 -1.106269 3.726276 2.959768 0.843879 0.616312 -2.681011 3.541177 -0.860653 -1.706387 0.894439 -0.075480 -1.102568 -0.927474 -5.021192 1.104641 1.121758 1.175772 1.814435 2.264576 0.431655 4.085205 1.247739 -0.008240 1.637367 -3.780411 0.510784 -2.248262 2.934080 1.480132 -1.218908 -2.063367 3.947102 -0.784594 1.898985 1.226424 -0.081685 -1.825418 1.452280 -0.027860 -2.249373 0.053866 -1.493589 -1.033920 0.655152
M029_ON 1.298270 3.488597 1.238593 -2.257535 -1.880948 1.604087 -3.079248 0.689235 1.499698 0.377041 -3.399527 0.462096 -2.622044 2.210337 1.137940 2.372381 0.318912 1.899493 2.265858 0.283529 -0.945187 -0.599115 -2.966642 -0.936562 2.357966 -2.360442 1.413479 1.784416 -1.602153 -2.313504 -3.231761 0.331424 0.642247 0.889266 1.547057 0.762925 -2.091502 0.402463 -1.614907 -1.225021 0.497548 -0.680573 1.016662 -1.029892 3.158092 1.811848 -2.915814 2.349960 -2.036088 -2.270384
M029_OFF 0.032255 -2.773655 -0.834645 2.631488 1.495844 -2.867241 2.104392 2.863495 -0.624189 -1.349695 2.016491 1.262106 2.774407 -2.614891 0.939673 -1.523845 2.364866 -2.919783 -1.521475 -2.114233 -2.025228 -1.102155 2.183859 0.002435 -1.013954 1.949664 -0.903906 0.449373 2.775646 -0.346854 -0.647025 0.806535 -1.607378 -1.625617 -1.188063 -1.314814 1.152531 0.650327 1.273473 4.166996 0.222980 0.961702 -1.872710 2.140687 -0.497694 1.810591 1.183163 -0.677558 1.569226 4.058055
D004_CLOSE 0.813958 -1.242584 1.476598 -0.703388 0.582905 0.512629 -3.294198 2.444253 0.879806 -1.318704 -2.427295 2.835650 -1.958818 1.178010 2.872331 0.525129 -0.343976 -1.543563 0.197759 -1.234099 -3.806261 1.604603 1.312758 -2.513493 0.152475 -0.324956 -1.125881 0.255958 2.552774 -2.076046 0.815128 -2.302551 -3.542293 -0.278345 0.276143 1.186703 0.905093 3.126892 0.919242 -1.289834 2.438108 1.587314 2.311957 0.946313 0.634242 -0.881415 -2.327419 0.528815 -3.766109 -0.383584
D004_OPEN 0.288003 0.534421 -1.209660 1.841074 -0.058631 -3.057286 2.435133 -0.209435 1.428780 -0.453458 -0.268941 -1.591775 0.270726 -2.007079 1.682053 -1.111721 1.295907 -0.033782 -1.256419 -0.672259 0.273842 -1.012368 -1.612628 1.544071 4.154462 0.086829 -1.965185 0.976442 0.744554 -0.454059 -2.885524 3.124619 0.320612 -0.134254 0.127843 0.149322 -1.427168 -0.950271 -0.893362 0.516448 -0.205427 0.186677 -2.273679 0.620103 -0.079844 2.401263 -2.272580 -0.036813 2.629487 1.741870
M025_OFF -1.686322 1.054314 0.468237 1.948877 -0.606984 -0.443418 -2.367617 1.280131 -0.915484 -1.726673 3.129387 -0.556602 0.217285 0.591623 1.044797 3.340874 -1.964364 -1.093498 -0.636379 -2.670725 -3.044631 -0.412676 0.131243 0.426412 1.388563 -0.006000 0.863112 -0.668230 0.208047 -0.705542 -3.592117 -2.338164 -0.805402 -2.807403 0.020367 -3.863089 0.693215 0.950443 -2.595210 -0.765229 -0.798169 1.370406 2.307110 -1.487698 2.364745 0.311619 -0.700899 -0.974727 -0.462493 -2.829115
M025_ON -2.745700 -0.291186 1.319249 1.320501 -0.100624 -2.020829 -0.612997 3.015154 -0.504782 4.182483 0.607949 -0.912324 1.619057 -1.572375 -2.695032 -2.591906 0.831078 0.915272 -1.010425 -0.732767 -1.308089 -2.401814 -1.438488 -1.900494 -0.436688 -1.677470 -1.319278 0.937954 2.070547 0.189538 0.457923 -2.538219 -0.811565 2.862351 -0.246208 -1.462402 -0.663207 2.592845 -1.152067 2.098248 2.436543 1.931701 -1.181226 0.081121 0.199219 4.921807 -2.331574 -0.349116 -0.109149 0.710820
M011_OFF -1.381223 0.372298 1.593809 0.898972 -2.036662 -0.230720 -2.199724 -0.704485 0.191536 0.770031 -1.752999 -0.210715 -0.062903 0.228772 -1.287490 -0.068995 -0.063409 -0.409276 -0.445696 1.173605 2.034113 -0.045786 1.921801 0.769973 -2.490079 -2.513495 2.584425 2.243582 1.554312 1.167744 -1.045720 -0.065129 1.096966 -0.698369 2.706679 0.855867 -1.733245 1.142370 0.639347 -0.013137 0.929898 -0.580344 -1.787287 1.117830 1.674535 1.509636 -0.896901 0.582037 -0.303636 1.129422
M011_ON -2.064604 1.283845 -0.534641 0.562951 -3.199524 -1.319569 -0.037917 -0.168713 -0.424934 0.321110 1.085865 -0.683210 -0.372929 -0.886136 2.063757 -0.305843 0.429471 -1.357893 -2.012673 -0.043321 1.582837 -1.012952 2.888265 -1.163551 -1.666110 -1.054478 -0.901589 -1.110954 1.662303 -0.844123 -1.079204 -0.796117 0.741166 -2.959550 2.676738 0.210225 0.177724 1.458623 -0.292054 0.952298 -0.861060 -0.275175 0.549850 0.564310 1.489643 0.129055 -0.077660 0.009779 2.599306 1.752936
M031_OFF 0.557483 0.292516 1.384284 2.152916 -0.790786 -1.739885 -1.880575 -0.056660 -0.581157 2.559494 -2.551936 1.557583 -0.303014 0.461902 -0.498941 0.277261 2.264785 -0.376745 -2.996180 1.321873 -1.940386 1.332779 -1.131034 -1.270753 -0.008129 1.090238 -0.514318 -0.276269 -1.660831 0.523133 -4.109012 1.110636 -1.270929 -0.815212 -0.192451 -0.671150 -1.680668 0.554720 -1.540919 0.177070 0.360265 0.998043 0.568553 -0.164892 -0.093400 -0.622321 -0.489009 -0.751060 -0.376051 2.678230
M031_ON 1.094266 -0.398845 0.448694 2.015521 -0.372625 -2.215613 -1.472462 -0.075616 -0.521716 1.231964 -2.303562 1.375962 -0.156415 -0.672355 -1.018110 0.611733 1.685138 0.070703 -2.367769 2.146741 -1.160292 0.757933 -1.077123 -0.535563 -0.517274 2.097731 0.316834 0.119462 -0.751629 1.602386 -3.011846 0.921766 -1.438481 -1.619679 0.707934 -1.744262 -0.700487 0.396784 -1.669083 0.734522 0.916412 1.488304 0.503164 -0.177112 0.304627 -1.565332 -1.195292 -0.408274 -0.410561 2.780224
D001_CLOSE -0.738218 0.830410 0.424756 -0.005657 -2.135128 -0.812094 -0.899807 -0.504873 0.042535 0.567970 1.080835 -0.376724 -0.714574 0.189943 0.507638 -0.531659 0.498484 -0.460049 -1.429629 -0.131580 0.729834 -1.173072 1.436900 0.278812 -2.248765 -1.102768 -0.010243 0.418856 2.124695 0.185901 -0.933132 -0.611317 0.201449 -1.574572 1.518227 0.409552 -0.487642 0.821494 -0.009473 -0.109162 0.233353 -0.422790 -0.300325 0.738320 1.656553 1.206726 -0.325121 -0.650640 1.456248 1.274740
D001_OPEN -0.912144 0.767458 0.473857 0.122370 -1.870340 -0.632035 -1.095998 -0.442182 0.239491 0.677403 0.426957 -0.227228 -0.783081 0.581470 0.046664 -0.410525 0.343685 -0.580644 -1.103938 -0.051741 0.446353 -0.894144 1.387073 0.631714 -2.346070 -1.232552 0.582113 0.822207 1.783611 0.435936 -1.200889 -0.434728 0.115180 -1.285071 1.545343 0.298433 -0.694951 0.981730 0.088685 -0.223529 0.433476 -0.079810 -0.686946 0.705737 1.717317 1.387820 -0.602483 -0.787412 0.927418 1.233565
D002_CLOSE 1.973280 0.052987 0.762686 -0.804068 0.122903 -0.025956 -0.412833 -0.008313 1.015634 0.233683 1.018960 -0.898508 -1.028396 -0.244012 0.678907 -0.884629 0.014010 0.705280 0.140337 0.996607 -0.118602 0.886478 1.053920 -0.423552 -0.544275 1.027623 -0.650445 2.351189 -0.664890 1.070875 0.185556 -0.140975 -0.462454 0.008237 -0.018581 -0.177949 0.230542 0.244032 0.416549 0.462471 -0.543294 -0.505474 -0.516009 -2.040174 0.199557 1.460631 -1.687766 -1.131295 1.300214 -0.125923
D002_OPEN 1.464600 0.318799 0.828510 -0.951893 0.189280 0.097036 -0.005638 0.196357 0.782933 0.825307 1.015905 -0.854046 -1.169554 -0.240245 0.436473 -0.368402 0.434746 0.076453 0.360711 1.238435 -0.526232 0.934657 0.489439 -0.658141 -0.143321 1.119362 -0.297034 2.256371 -0.496886 0.883874 0.546971 -0.191102 -0.961018 -0.073243 0.314708 -0.518643 0.523800 0.366358 0.547292 -0.395765 -0.489623 -0.843854 -0.135693 -2.066220 0.185658 1.356631 -1.689373 -1.347823 1.262999 0.193553
