68 200
M009_ON -0.966613 -0.378943 -0.591490 1.377963 1.347067 1.810893 2.215118 0.306356 -0.821377 -0.381891 1.260247 -1.664523 -0.248229 -0.364477 1.453727 -0.382437 2.731757 -0.682945 -0.034619 -0.529148 -0.199018 0.606023 0.944444 -0.796571 -1.218948 0.158202 -0.305601 0.268687 -1.017847 0.600224 -0.734585 0.351631 -2.885174 0.141564 0.818421 1.596262 -2.509340 -0.195564 -1.796251 -2.052872 -3.699391 -1.689195 -0.613486 -0.723744 -1.392080 1.163163 -2.597573 2.073336 0.133436 -2.438101 0.605784 0.420198 -1.344472 0.578614 -2.552875 -0.857917 -1.396470 -0.046464 2.574180 1.045832 0.170730 0.954844 1.128655 -0.386709 -0.621658 -1.036083 -0.138964 2.843622 1.403963 1.293719 0.899283 1.357118 -1.237896 -0.436113 -0.014887 -0.101535 1.180730 -0.451151 -0.070705 0.652188 -2.449818 0.805923 -0.362673 1.563007 1.381717 1.377602 -1.015858 -0.230343 0.581784 -0.575170 -0.765954 -0.314399 -1.816198 -1.012461 0.486720 1.642972 0.675020 0.623978 -0.565637 1.702095 0.112842 -0.376771 -1.768567 0.189433 -0.583803 0.121705 2.057129 0.754537 -1.547159 -0.598169 0.675586 0.507522 -0.881325 -1.222938 -0.937572 1.276955 -1.314469 -0.930349 -0.176926 0.070572 1.029241 0.676695 -0.629950 0.101381 -1.231725 2.220183 1.711199 0.060983 0.240113 0.177242 0.237178 -0.862252 0.501127 0.738636 -0.750032 0.943258 -0.301725 0.047073 -0.079885 0.704207 1.801368 0.415831 -0.542706 -0.778840 1.770157 0.266942 0.557783 -0.289011 -1.288651 -0.829815 -0.689147 0.800990 1.089454 -1.432429 -2.763180 -0.620229 0.060919 0.496713 1.854558 -0.124707 0.294219 0.506683 -0.891859 -0.695900 0.675755 -0.112075 1.033153 -0.242328 0.415563 -0.472363 -1.330136 1.695453 0.902692 0.418387 -0.236503 0.217014 1.049269 0.194894 0.475718 -0.904291 -0.204310 0.614761 0.992267 0.460802 0.542532 -0.337066 0.037371 -0.518845 -0.838682 0.518549 0.974226 -1.012935 -0.066814 0.979284 -0.168992 1.165697 -0.696218 0.729274 -0.128619 0.666127
M009_OFF -1.331508 -0.950259 0.600079 -0.429213 0.753686 1.566231 2.076492 0.777181 -0.598626 0.538043 1.389300 -0.597670 -0.295145 -0.333074 1.064456 0.059913 2.125297 -0.057269 0.571793 -1.060461 -0.091327 0.968198 0.994991 -0.394267 -1.608438 -1.029031 -0.830739 0.605358 -0.060326 0.876045 -0.705072 -1.213622 -2.742720 -0.458585 0.057929 1.097339 -2.042034 -0.471050 -1.139563 -1.476640 -3.119398 -1.312769 -0.470487 -1.885002 -1.972163 0.462194 -2.818477 1.914563 -0.075724 -1.888990 -0.200389 0.017583 -0.697514 0.234987 -2.397674 -0.375172 -1.814786 -0.444553 1.839552 0.426087 -0.164327 0.785157 0.899947 0.049884 -0.549697 -0.721451 -0.311208 2.793118 2.248290 -0.003113 1.235102 -0.050132 -1.087135 0.246454 -0.157071 -0.644447 1.128707 -0.774819 -0.736870 0.411089 -2.368277 0.583135 -0.813035 1.304353 1.373400 1.179395 -0.753191 0.560629 0.506827 -0.620461 -1.172405 -0.664879 -2.010741 -1.096899 1.015241 1.964828 0.818141 0.229121 0.547580 1.424724 -0.272369 -0.103538 -1.319010 -0.428770 -0.450786 -0.631732 1.729435 0.008152 -0.576020 -0.226616 0.928349 -0.352716 -1.366465 -1.065675 -0.373743 0.252101 -1.126489 -1.073841 -0.253754 0.069385 1.458116 0.519744 -0.233156 -0.969769 -1.240942 1.967671 0.586140 -0.289414 0.698730 -0.629992 1.344575 -0.447542 0.459932 0.752887 -0.765139 0.503549 0.289389 0.552650 1.502643 0.303098 1.820712 0.096843 -0.011338 -1.729695 0.763915 0.359645 0.118749 -0.229123 -0.807708 -1.086948 -0.436883 0.062915 0.435778 -1.074002 -2.205579 -0.532141 0.444694 0.453991 0.422989 -0.598768 0.950160 0.210157 -0.985995 0.193055 0.770269 0.475951 0.382456 0.279626 -0.436700 0.607077 -1.050546 1.564386 1.046779 -0.211544 -0.658143 -0.929059 -0.384631 -0.159813 0.824411 -1.972333 1.288344 1.649048 0.260354 1.050784 1.896531 0.398707 0.804765 -0.236825 -2.324874 -0.762881 1.214352 -1.347524 0.008260 3.145877 -0.820729 0.952027 -0.655469 0.162131 -2.625563 -0.318345
M020_ON -0.983026 1.363224 0.159063 0.700864 -1.043057 -0.801936 -0.637891 -0.335894 -0.063538 0.800366 0.644884 -0.200228 -0.617476 -0.168617 0.664773 0.992790 -0.249645 -0.605659 -0.903102 0.814758 1.318329 1.079192 -0.543505 -0.287546 -0.483960 0.456610 -0.075888 0.002255 -0.324998 -0.333255 -0.130478 -0.363895 -1.110113 0.865171 -0.810458 -0.016253 -0.060256 -0.563700 -0.460003 -0.246377 0.614085 -1.539486 -0.975198 0.007821 1.437432 -1.376408 -0.027049 0.844665 -0.178355 -0.053370 0.320197 0.154073 0.034892 0.175598 -0.292267 0.304632 0.145126 0.286133 -0.056870 -0.885500 -0.140240 -0.084804 1.048842 0.147872 -0.062839 -0.361932 0.995497 -0.596688 1.482096 -1.029778 -0.135433 -0.998299 0.972771 -1.339180 0.123316 0.110123 -0.967475 -0.724153 -0.072829 -0.426139 -0.887900 -1.387811 -0.723589 0.033030 0.257076 -0.248370 0.291638 0.074972 -0.614020 -0.426046 0.066654 -0.180980 -1.096543 0.457581 -0.120133 0.975611 -0.298712 0.185733 0.058523 -0.252933 0.401443 0.074472 0.123300 0.115064 0.619676 -0.463549 1.112537 -0.081170 0.376735 -0.186745 -0.817613 -0.728991 -1.035261 0.493018 -0.792952 -1.393877 -0.496399 0.917664 -0.644892 0.223477 1.086644 0.500071 0.273248 -0.540719 -1.472455 0.930223 -0.067847 -0.604411 1.141721 -0.052132 -0.395277 0.241070 -0.268508 -0.627901 -0.279682 0.131538 -0.259970 -1.161174 -0.350093 -0.217020 0.725213 0.010088 -0.165526 -0.342303 1.087252 -0.509160 -0.791727 0.242446 -0.743737 0.551743 1.379241 -1.223536 -0.120608 -0.082215 -0.626208 0.148311 -0.894810 -0.009471 -0.162339 0.429874 0.867310 1.356979 -0.534643 0.679133 1.090170 -1.299038 0.760009 -0.018529 0.536256 -1.011842 -0.107554 0.820125 -0.514384 0.085303 -0.463824 -0.236244 1.936184 0.873984 -0.630967 1.102929 0.007754 0.016400 -0.089100 1.411056 -0.478620 -1.065668 0.428850 -0.203620 -1.540824 -0.872854 1.130067 0.169396 0.270973 1.329708 0.575619 0.587249 -0.735715 -0.035221 -0.174432 -0.439767
M020_OFF -1.545633 1.173951 -0.149176 1.198133 -1.322019 0.754839 0.044337 -1.582160 0.104807 0.306567 0.895606 -0.940524 0.104485 0.406707 1.225704 0.867223 0.409914 -0.918912 -1.464126 0.453454 0.766720 0.816959 -0.102659 -0.558964 -0.169008 0.405056 1.431453 1.309546 0.602467 -0.421742 0.651517 1.232913 -0.741967 0.749624 -0.168955 -0.273490 -0.606170 1.285066 -1.168996 0.353102 0.782421 0.333108 -1.410611 -0.529504 1.067464 0.248013 0.452819 0.835672 -0.053165 0.216840 0.525441 0.286878 0.356957 1.116584 -1.301298 0.701126 0.459173 0.302700 0.228671 0.058285 -0.344667 0.327302 1.151665 0.877017 0.422694 0.458179 0.305890 0.257951 0.897947 0.820229 1.024435 -0.556049 0.613611 -0.511027 0.730755 -0.097580 -0.178669 0.100109 -0.218023 -1.096256 -0.683213 -0.450577 0.131794 0.305584 0.549227 0.371679 -0.166848 0.312404 -0.744506 -1.062309 -0.033080 -0.373945 -2.064742 0.678805 -0.231623 0.837617 -0.031411 0.723660 -0.814504 -0.503938 -0.222615 -0.753602 0.575568 0.267599 0.467459 0.661349 -0.702374 0.405031 0.515285 0.431190 -1.778298 -0.616095 -0.454676 0.664539 -0.514713 -0.972910 0.000915 0.366886 -0.099578 -0.191370 0.418043 0.456931 -0.782873 -0.658208 -1.031411 1.064759 0.634272 0.088226 0.921940 0.565455 -0.578365 0.413847 -0.371536 -0.304635 -0.186886 0.727222 -0.416343 -0.416253 -0.201525 0.412492 -0.376329 0.288313 -0.991394 0.080832 0.228214 -0.319149 -0.157487 -0.138771 0.462807 1.419419 0.644211 -1.165737 0.689493 -0.130611 0.527223 0.571464 -0.681272 -0.519871 -0.122360 0.120427 0.867609 -0.712311 -1.334438 -0.208993 0.088480 -0.192148 0.008200 -0.684295 0.915438 -0.971889 -0.375168 -0.412097 -0.568427 0.924954 -0.219737 -0.032247 -0.545791 -0.194138 0.378501 0.237583 0.281894 -0.070037 -0.048085 0.311524 -0.521779 0.243872 0.422522 -0.668222 -0.450117 0.156275 1.337920 -1.339393 -0.877662 0.704773 -0.686740 0.538421 -0.047511 -0.365438 -0.544136 -0.881000
M019_OFF -0.218699 0.469918 0.184588 0.375153 -2.052416 -0.720328 -1.453122 1.212859 -1.439567 -1.144420 -1.741567 0.022961 2.521395 0.215574 -1.101470 -0.340596 -1.785809 -2.137125 -1.231911 2.104254 0.215702 0.211119 0.039760 0.721586 -0.680532 -0.267181 -1.238772 -1.058524 0.583888 -1.156962 0.900656 -1.607686 0.302413 -1.654705 1.795291 -1.030778 0.471416 -0.626690 1.200589 -1.689915 -0.437302 -0.186405 0.247629 0.837131 0.235059 0.715605 -0.143437 -0.996664 -0.809249 0.104381 -0.455157 -1.505633 0.768298 -2.149820 1.098987 0.136153 -0.280810 -1.605275 -2.366322 -0.624800 -1.072794 0.128793 -0.873731 0.216999 0.969327 -0.364408 -0.192621 -0.574008 -0.341216 0.555347 0.300065 1.155949 0.615148 0.753546 -0.663349 -0.160529 -0.075293 1.014061 -0.778198 1.037740 0.172145 0.180192 -0.392528 0.155106 -0.046227 0.358585 0.588176 0.931207 0.758288 0.984348 0.180013 0.369950 0.894133 -0.090621 0.550081 -0.101532 -0.326776 -0.973501 0.553700 -0.395747 1.240995 0.060947 -0.410211 -0.712544 -1.130347 -0.592852 -1.630076 -0.788696 0.926387 0.059058 0.535445 -1.098287 -0.815676 0.617610 0.732232 -0.356379 0.585647 0.286657 0.407561 0.187660 -0.708794 -0.145383 -0.064398 -0.146493 0.098393 0.950778 0.050825 0.269303 -0.949656 0.632814 0.121073 0.790643 0.033070 1.207172 0.810123 -0.521325 -0.569964 0.570059 1.913457 -0.590468 0.602236 -0.078465 0.666734 -1.169025 -0.321393 -1.215976 0.503103 0.385447 0.804693 -1.346860 -1.956068 0.521789 0.136690 -1.695188 0.982983 0.150984 -0.115981 0.020856 0.499044 -0.262989 -1.410713 -1.288041 -0.437702 -0.366352 0.019758 0.660759 -0.424865 -1.047721 -0.338323 -0.751598 0.561065 0.868341 0.461755 -0.257174 0.322367 0.140440 -1.214992 0.869381 0.464677 -0.049472 -0.817467 0.856438 0.076445 -0.160859 0.486831 0.817270 -1.528651 -0.434654 -0.063439 -0.713188 -0.215830 -0.512340 -0.284455 -1.327759 -0.632962 0.017632 0.992741 0.110708 1.353498 0.040176
M019_ON -0.944336 0.510593 -0.388128 1.215147 -0.645004 -0.116950 -1.700674 0.612194 -0.895287 0.369751 -0.592469 -1.503955 0.849196 0.654823 -2.881858 -0.056066 -2.196353 -0.330017 0.274111 1.025325 0.329707 -0.014308 0.226958 0.952745 -0.721077 -0.551547 -1.443700 -1.064488 0.076148 -0.458928 2.512202 -1.734560 -0.238786 -1.337864 2.148418 -1.061825 -0.031899 -0.085611 1.974460 -1.639508 -0.781919 -0.588586 0.598738 1.693242 0.692866 0.719095 -0.980158 -0.646434 -0.592119 0.318997 -0.085971 -0.699337 -0.330792 -0.942041 -0.098629 -0.173674 -0.142239 -2.280473 -1.781151 -1.534196 0.042211 0.357715 -1.290087 -0.858685 0.861667 -0.767488 0.048878 -0.659082 -0.824611 0.055804 1.083408 -0.005567 -0.129261 -0.444283 -0.758335 0.054370 0.038102 0.456553 -0.577377 0.075539 0.593603 -0.231301 -0.780368 -0.411687 -1.191611 0.800703 -0.005128 1.506462 1.045680 0.870965 0.052522 0.906153 0.442327 0.284974 0.460343 -0.342657 -0.592378 0.123016 0.553346 -0.821346 0.765901 0.055898 0.199571 -0.526232 -0.602763 -0.059032 -0.888971 -0.082569 0.419166 -0.335550 0.771298 -1.342531 -0.438227 -0.305486 0.999263 -0.460334 0.767186 0.494030 -0.363638 0.066079 0.399176 0.358884 -0.554969 0.599998 -0.196407 0.834860 0.588780 0.235667 -0.643208 -0.425478 0.145410 0.430522 -1.383443 0.984637 1.522807 0.383274 -0.600926 0.034455 0.791460 0.272603 -0.316291 1.171457 1.627233 -0.697294 0.211180 -0.624323 0.587745 0.474889 1.541957 0.172625 -1.799451 0.267445 -0.420398 -0.439399 0.724318 0.731215 -0.019710 0.260754 0.496487 -0.027132 -1.758143 -0.683691 -0.313484 0.114787 -0.500682 1.178070 -1.140697 0.418545 -0.710179 -1.719292 0.788715 -0.266006 0.637061 -0.133338 -0.055444 1.098958 0.272453 0.357377 0.633154 0.280176 -0.700113 1.130500 1.446585 -0.797837 0.979181 0.283823 -0.483657 -0.331392 1.801729 0.393334 -0.014072 -0.789933 -0.349798 -1.759805 -1.854299 -1.291517 -0.115158 -0.208405 0.117176 -0.250569
M015_OFF -1.006179 -0.349248 -0.866550 1.130780 -1.106534 0.520710 -0.571193 0.909492 -1.639109 -1.013901 -1.703447 -0.769417 1.769796 0.749903 -2.660331 -0.190900 -1.796935 -1.526767 -0.273033 0.932273 0.295333 -0.717589 -0.409676 0.840414 -0.927927 -1.302002 -2.333912 -0.960152 0.451807 -0.310189 1.063057 -1.570459 0.398651 -1.026294 2.702780 -1.201571 -0.719096 -0.042597 1.331675 -2.184837 -1.773064 -0.387193 0.908357 1.850133 0.558015 0.073194 -1.244098 -0.434467 -0.658662 0.041076 -0.598138 -0.284049 0.341825 -1.009174 1.116940 -0.068781 0.247949 -2.378011 -2.381371 -0.803918 -0.611855 0.190496 -1.605467 -1.472085 0.263234 -0.379281 0.662675 -1.003784 -1.240144 0.233066 0.272524 1.604553 0.504090 0.320280 -0.609767 -0.136714 0.050076 -0.124319 -1.063286 0.955035 2.087449 0.023480 -0.280835 -0.042763 -0.547942 0.747910 1.196463 1.724838 0.485773 1.422780 -0.185954 0.210305 1.864568 0.026528 -1.183631 0.050561 -1.417129 -1.553576 0.345090 -0.655660 0.768692 -0.392557 -0.739649 -0.468209 -0.816153 -0.454932 -0.719781 -0.251630 0.892901 -0.660892 0.851716 -2.131664 -0.367616 1.030517 0.448976 -0.073852 0.836869 0.167739 -0.040953 -0.288166 -0.994263 0.263614 -0.069906 0.044923 0.558556 0.458131 0.326038 0.448882 -1.352412 0.580154 0.647979 0.445523 -0.213011 0.905993 0.483438 -0.400914 -0.882945 0.704204 1.083955 0.022042 0.347129 0.579088 0.795557 -0.645339 -0.259821 -0.818693 0.345054 0.518618 1.422656 -1.167665 -1.465761 0.367431 -0.444501 -1.239862 0.949470 0.275109 0.259606 0.340643 0.329355 0.141818 -1.553290 -1.261983 -1.256467 -1.027202 -0.368195 1.317857 -0.413693 -0.817121 -0.274527 -0.674547 0.665738 0.749316 0.852799 0.063856 0.357915 1.129894 0.213079 0.383281 0.824473 -0.769874 -1.007725 0.867045 1.192570 -0.802871 0.405213 0.325759 -1.406197 -0.407333 0.552677 -0.243740 -0.365884 -1.217557 -0.382212 -1.343555 -0.629571 -1.243364 0.144345 -0.240361 0.316873 -1.583005
M015_ON 0.217636 0.892686 0.354843 0.838636 -1.097465 -1.243239 -2.097281 1.096942 -0.888191 -1.354088 -1.413571 0.319227 1.815942 0.308122 -1.345305 0.040354 -2.119564 -1.354394 -0.131803 1.693706 -0.688742 0.555328 0.540188 0.687172 0.027906 0.244391 -1.064590 -0.204567 0.136837 -1.060400 1.424778 -2.525286 -0.118228 -1.814842 1.723628 -1.659208 0.693115 -0.179807 2.290477 -1.562272 -0.721989 -0.837961 0.152243 1.785300 0.775647 1.134552 -0.181228 -1.039335 -0.814140 0.848337 -0.182747 -1.228440 -0.041018 -1.932631 0.590322 -0.217369 -0.484397 -1.959151 -2.258742 -0.887552 -0.313105 0.237761 -1.672613 -0.119107 0.335428 -0.290706 -0.018633 -0.934506 -0.475351 -0.230090 1.197428 0.462748 0.542279 0.197962 -0.017095 -0.594269 -0.039198 1.123515 -1.334756 0.947064 0.522943 0.423448 -0.991887 0.174828 -0.898717 0.313296 0.238887 1.278798 0.950202 1.240525 0.021167 1.176189 0.722606 0.276231 1.056207 0.071991 -0.294365 0.048556 0.158243 -0.599079 1.537360 -0.068519 -0.209745 -1.166038 -1.167803 -0.945442 -1.339011 -0.503162 0.928135 -0.031060 0.028506 -1.284649 -0.937986 -1.000064 1.472960 -0.249565 -0.102072 0.525999 -0.533938 0.145525 0.193399 0.505322 -0.322075 -0.124846 -0.618634 0.161325 0.870452 0.052097 -0.660994 -0.517750 0.117189 0.767040 -0.826579 0.929191 1.490242 0.171966 -0.353907 0.331532 0.825432 -0.834067 0.678997 0.883360 1.486975 -0.620598 0.069705 -0.117909 0.667792 1.058411 0.477660 -1.096662 -2.347323 1.589285 -0.071023 -0.112018 0.545061 0.723996 0.331539 0.341081 1.212627 -0.260455 -2.147116 -0.666028 0.005314 -0.012212 -0.092941 0.634115 -0.602366 0.542540 -0.011549 -0.804108 0.411082 -0.096057 0.740639 -0.190879 -0.178310 1.003011 -0.513608 1.408024 0.951286 -0.522759 0.367438 0.674761 0.644431 -0.063795 1.731354 1.282327 -1.171967 -0.038477 1.470579 -0.042045 -0.064140 -1.329635 0.546429 -1.491904 -1.933120 -0.461447 -0.504839 1.520097 1.482282 0.776943
M007_OFF 1.120612 -0.317070 1.150523 -1.417194 0.883628 0.966204 0.885073 -1.723351 0.803934 -0.474744 -0.510847 1.104845 -1.617675 0.711225 0.580377 0.048506 -0.112232 1.250174 0.072041 -0.449476 0.956113 0.354811 -0.286100 0.368019 1.317251 0.127336 1.531164 -0.513637 -0.452418 0.856204 0.907641 1.254499 0.436265 0.557741 -1.710626 -1.400264 0.786040 -0.258993 -0.510671 2.369167 2.258389 0.448676 0.630307 0.110254 -0.636463 0.601578 1.668118 -0.427338 -0.979624 2.009302 1.435452 -0.682446 1.238351 0.367224 0.744503 0.797306 0.803669 1.344012 0.197916 1.397683 0.436598 -0.565457 0.101984 0.030900 -0.475080 1.595517 -0.711882 -0.740954 -1.458319 -0.598341 -0.954507 -0.319626 0.380729 1.387453 0.926597 -0.652995 1.672557 0.852822 0.393886 -1.082819 0.371739 -0.835921 1.591459 0.498882 -0.777173 -0.526044 1.012328 -0.998070 0.670541 0.366269 1.279914 -0.116143 1.456966 -0.633543 -2.036590 0.462685 -0.008488 -0.264926 0.146130 -0.448252 -0.829735 -0.619216 1.311960 -0.354249 1.093522 0.310187 1.324254 1.192410 -1.353112 -0.328596 -0.191434 -0.028883 0.310870 0.072264 0.227266 1.401151 0.059880 0.532547 -0.337227 0.901425 -0.104784 0.723708 0.644495 -0.338712 0.359030 -0.964608 1.060283 -0.715925 0.335407 0.571924 0.540892 0.463076 -0.423699 -1.613912 -0.597576 -0.305757 -0.903431 -0.862837 -0.398783 0.382733 -1.221084 -0.867775 -0.293006 0.824989 -0.422590 -0.650085 -0.082376 0.569715 -0.605417 0.514127 1.363728 0.258532 -0.645844 1.763913 0.725687 -1.418779 0.053418 -0.600419 -1.000748 1.110474 1.783696 0.862251 0.414188 1.318163 -1.158862 -1.840100 0.070397 0.815029 -0.082036 1.676941 1.199286 -1.394166 -0.215950 0.999382 0.902681 0.967621 1.251181 -0.463995 -0.283356 -1.305945 0.634223 -0.363663 -0.318428 -1.472754 -0.556194 0.404187 1.164509 0.807479 1.448316 0.856303 -0.094466 -1.126392 -0.015505 2.053905 1.934006 -0.121257 -0.098724 -1.375168 0.675190 -1.592443
M007_ON 0.607954 0.259840 1.235544 -1.683753 1.714960 -0.562463 1.461604 1.062334 1.485076 -1.531067 -0.266169 2.281443 -1.102235 -0.269825 2.583134 0.002844 -0.281480 1.879584 -0.291119 -1.384672 -1.621695 -0.321038 -0.609366 -0.009238 0.787847 0.983396 -0.831738 -0.390152 -0.389860 1.035071 1.029897 -0.226289 1.119772 1.230954 -1.086274 -0.428957 1.489543 -0.345069 -1.086805 0.807261 2.485778 0.137330 -0.661107 2.193673 0.883276 0.021506 2.040639 -0.766828 -0.493825 1.556812 0.640696 -0.062420 0.360138 0.749627 1.301330 0.438738 1.320117 1.992994 -0.783442 0.641156 -0.487689 -0.924177 0.022254 0.782079 0.328211 -0.144589 -0.449622 -0.558090 -1.126379 -0.671246 -0.677499 0.215335 -1.185594 0.546957 1.924164 -0.666327 -0.132860 0.832816 0.298872 -0.661361 0.696871 0.276951 0.777761 -0.197815 0.450630 -0.722109 0.236325 -1.805135 -0.192368 -0.198158 1.249925 -0.892259 0.369670 0.763080 -1.846122 0.070456 -0.557862 0.666962 0.134314 -1.123406 -1.231736 -0.247728 1.381594 0.174494 1.910478 1.034303 0.332989 0.852814 -0.242920 -0.067649 0.038927 1.121762 0.028136 -0.214348 -0.004664 0.772597 -0.502501 0.510795 0.425776 -0.739117 0.383053 -0.422545 -0.771589 1.189959 0.144532 -3.073976 0.233387 -1.175208 1.925166 0.109102 0.241929 -0.331062 -0.438949 0.584867 1.770388 0.188404 0.198950 -0.855209 -0.370048 -0.451239 -1.158911 -0.588783 0.318642 1.013825 0.480035 -0.907986 -0.162830 -0.904186 -2.287603 -0.153439 1.554173 0.387378 -0.342167 0.298680 -0.155501 -0.565483 0.224435 -0.066201 0.275996 0.869120 2.035034 0.849479 0.584837 -0.712887 -1.012964 -1.031169 1.083826 0.649790 -0.151909 1.281445 -0.130401 -0.994215 0.092618 0.803210 0.686095 0.306636 -0.132674 -1.166598 -0.523138 0.235031 -0.250032 -1.244783 -0.872044 -1.840536 -0.147490 -0.601238 -0.356864 0.549436 1.082466 -0.170379 0.188002 -0.901711 -0.232602 0.630085 0.286657 -0.926463 -0.113659 -1.651984 -0.306399 -1.955480
M014_ON -0.511212 0.318613 1.298604 1.295366 -0.404983 -0.146858 -1.628569 0.183214 1.089688 0.633576 0.993229 -0.360851 0.104386 1.538618 0.443996 -0.614362 1.439962 -2.276469 -0.054205 1.966684 3.019940 -0.691844 -0.406080 0.445038 -1.609980 2.274108 0.791834 0.162946 0.705822 -2.413033 2.689880 1.612562 -0.509936 -0.117290 -0.615159 -0.029562 0.458278 0.035537 0.446418 -0.177156 0.777194 0.015736 0.068360 0.378577 -0.128224 -0.420272 2.128928 0.641738 0.695511 -0.400918 0.314738 1.153799 -0.395317 0.324469 0.987971 -0.304681 -1.181482 -0.192764 -0.960956 -2.359926 -0.034769 -1.220921 -0.589069 -0.686808 1.153424 1.152891 -0.903697 1.195503 1.475855 -1.980151 0.245439 -1.016349 0.462913 -0.957589 -0.669991 0.094702 -2.263051 1.402710 1.369774 -0.219293 -0.759540 -0.425168 0.378457 0.348673 -1.566875 1.030601 -0.631020 1.521161 -0.911878 0.137360 -0.576655 -0.269267 -1.434317 1.369255 0.750861 -1.879262 -0.463458 -0.206694 -0.130609 0.112390 0.116592 -0.368151 -0.846922 -0.888613 -0.297923 -0.391967 -0.786698 -1.045161 1.324649 0.013431 -0.527788 -0.023381 -0.339661 0.140060 -0.370561 -1.823544 0.687074 -0.488131 -1.055900 -0.779265 1.681923 0.255266 -0.285118 -1.292887 -1.744539 3.757525 -1.251274 2.356320 0.284211 -0.683049 -1.289318 -0.618632 -0.930500 -1.127483 0.661306 -0.271831 -0.096470 2.021184 1.075859 0.636318 -0.769096 -1.147991 0.257934 -1.105263 0.815345 -0.811708 0.690851 0.735542 1.506524 0.798555 0.012036 0.803664 0.700028 -1.164513 -0.834353 0.274759 1.275824 0.659251 0.285387 -1.539944 1.314430 -0.421875 -0.940045 1.941664 0.483613 -0.161273 -0.272915 -0.179481 -0.752247 -0.860727 0.186781 -1.187852 0.990079 0.169072 1.388045 -0.299473 0.397976 -0.693510 0.823479 1.094352 0.328971 -1.165275 -0.105655 -0.455558 -1.740155 -0.940769 0.093885 -0.513250 -1.271582 -0.283138 0.998013 0.751106 0.026305 -1.137074 0.562210 -0.302260 2.480937 -1.824350 1.508468 -0.392109
M014_OFF -1.876963 1.133151 1.068618 1.715195 -0.806147 -1.059052 -2.100825 0.547650 0.857501 0.411945 1.313814 -0.155620 0.296645 1.000652 0.130513 -0.923612 1.724422 -0.886871 0.461791 1.172662 0.909867 -0.451311 0.037616 0.173846 -1.825085 1.362693 -0.167778 -1.366449 -1.627773 -1.976145 2.789478 0.807821 -1.578514 -0.100560 -1.912469 0.432051 0.563276 0.695369 0.669262 -0.134039 0.327262 0.916006 0.044772 -1.044977 0.313684 -0.698210 1.036551 0.474352 0.593797 1.291149 -0.445244 0.256630 -0.327982 -0.252869 1.370447 0.134343 -0.330904 -0.090607 -1.310680 -1.003567 -0.534102 -1.133606 0.116137 1.067109 -0.161570 1.661956 0.032352 -1.014914 1.600160 -0.748932 -0.376430 -1.126091 1.038812 0.264719 -0.964854 0.654441 -2.391336 2.454514 -0.010252 -0.229806 0.821178 0.440953 -0.096306 0.594443 -0.833015 -0.791646 0.401828 -0.011810 -1.830004 -0.564393 -0.854113 0.019753 -0.354560 2.569362 0.698440 -2.207082 -0.324216 1.175246 -0.489070 -0.598408 0.765496 -0.159085 -0.737264 0.424531 -0.574657 -1.680437 0.622588 -1.053813 1.803194 0.092190 0.048430 -0.544153 -2.127860 1.047131 -0.251000 -2.433498 0.883304 0.912331 -0.215922 0.312919 1.379034 0.607079 1.450393 -0.732248 -2.225077 3.056610 0.468206 2.016534 -0.313281 -0.870316 -0.581632 -0.356933 -0.810031 -0.854220 -1.125720 -0.146688 0.745145 1.336830 1.423355 1.202647 0.034261 0.367424 0.497862 -1.222947 0.220177 -1.496287 0.637677 -0.208287 0.836701 0.557382 -0.970682 -0.081203 0.913161 -1.660155 -1.239134 1.484773 1.629569 1.299479 0.192983 -0.978645 0.968271 -0.386849 -0.688985 0.352514 -0.004776 0.787780 0.767639 -0.024047 -0.740035 -1.661014 0.321840 -1.536958 -1.634589 0.211224 -0.170311 -0.743689 0.498382 -0.901157 0.701133 1.697733 -0.733116 -1.744634 -0.284361 -0.256213 -1.331966 -0.496129 0.371234 -0.289847 -0.889977 0.339857 0.907784 1.082516 0.680491 -0.146570 -0.013881 -0.242409 0.493503 -0.647385 0.547416 -1.195822
M013_ON -2.569797 0.796525 0.607021 1.394213 -1.151680 0.693974 0.269142 -0.892920 -0.059378 -0.369096 0.399838 -0.730038 0.805396 -0.143288 0.491122 -0.250967 0.666056 -0.397832 -0.729489 1.275391 0.402536 1.165243 0.365795 -0.324230 -0.386535 0.126310 0.245369 0.949658 -0.643842 -0.006672 -1.946304 0.593807 -1.133594 1.212995 -0.134821 0.781792 -0.510377 1.395280 -1.327915 -0.004940 -1.409567 -0.310304 -1.675512 -2.723194 0.823541 -0.891388 -0.791771 1.026296 0.567860 -1.661767 0.305420 1.237928 0.282939 0.668567 -1.797500 0.119680 -0.092683 0.254024 1.153813 0.234010 0.039925 0.174040 2.475716 1.019497 -0.727586 -0.544090 0.525468 0.552271 1.885694 0.064664 -0.291824 -1.441664 1.495687 -1.965942 0.282437 -0.345432 -0.340664 -0.688682 -0.489866 0.150328 -1.250615 -0.455121 -0.684781 1.339718 1.184637 1.862081 -0.149968 0.651889 -0.019984 -0.547023 -1.609954 0.117622 -2.652860 -0.509163 0.191289 1.305306 0.003692 0.189981 -0.469829 0.789520 -0.309428 0.308522 -0.473113 0.206152 0.280976 -0.387425 0.746675 0.226644 -0.198888 -0.223166 -0.477376 0.011444 -1.101851 -0.343051 -0.631642 -0.442995 -1.035518 0.357185 -0.629698 -1.113282 1.970873 0.838539 -1.485954 -1.060365 -1.728327 2.312930 0.853125 0.657448 0.726579 -0.391164 -0.214209 -0.400850 -0.518846 1.242796 0.472349 0.474917 -1.194300 -1.054060 0.482765 0.577886 1.825413 0.826656 -0.016905 -0.868460 0.669156 -0.054875 -0.373920 -0.384552 -0.810489 0.060481 0.697896 -0.194618 0.448427 -0.994833 -0.716909 -0.197583 -1.660531 0.727164 0.830451 -0.533188 0.626830 -0.415334 -2.653173 0.606616 0.939388 0.536819 0.970348 0.412685 0.567927 -1.432111 -1.797258 1.580860 1.583707 -0.849168 -0.492288 1.509913 0.500005 0.184884 0.707050 0.382614 -0.002486 0.544729 0.355587 1.029092 -0.072214 0.515201 -0.308999 0.871005 -0.569161 -0.196202 0.773430 -0.841726 -1.236956 0.805136 -0.463638 0.492294 -0.536852 -0.029244 -1.485000 -1.284489
M013_OFF -0.324700 0.040646 0.562638 -0.578622 0.120250 -0.324314 0.508785 -0.483681 0.187280 1.024320 1.060157 -0.820589 -0.222633 -0.054001 0.869118 0.459325 -0.963881 -0.285174 -0.129862 0.447056 0.512835 0.941203 -0.075271 0.603944 -0.591780 -0.344680 0.827927 0.928769 0.589286 0.079503 -0.410389 -0.347181 -1.641333 -0.019304 0.913747 1.821009 -2.679404 0.698124 -1.867193 -1.184630 -1.190099 0.067121 -2.697258 -2.232322 0.575597 0.722920 -2.167685 1.972773 0.053104 -0.283836 0.538246 0.591422 0.346754 0.926220 -2.156411 0.290182 -0.759679 0.255225 0.338072 0.777507 0.064054 -0.205731 2.159574 1.095077 -1.349734 -0.638873 1.365047 1.470660 2.625601 1.941666 0.340136 -0.022822 0.143044 -1.380821 0.559405 -0.009252 -0.536652 -0.885855 -1.722521 0.086195 -1.669789 -1.352199 -0.002441 0.704617 -0.232274 1.116617 0.217599 1.040647 -0.796575 -0.477301 -0.645773 -0.740750 -2.281764 -0.332974 0.298061 1.284588 0.273431 -0.174101 0.347317 0.245933 0.070289 -0.325572 -0.210070 -0.602385 0.371829 -0.132894 0.511350 -0.397191 1.160232 0.844093 -1.225570 -0.793413 -1.704539 0.335630 -0.487922 -1.199533 -0.527508 0.210528 -0.572389 0.025487 1.260015 0.430595 -1.271189 -0.711192 -0.828883 1.145826 -0.400632 0.205235 0.812303 0.180001 -0.643549 -0.196360 0.109250 -1.176339 -0.269663 0.873007 -0.571578 -0.311456 0.529346 0.545802 1.735815 0.262540 -0.148896 -0.852765 0.690094 -0.409777 0.363619 0.764832 -0.784639 -0.015002 1.002912 -0.595196 2.214031 -1.006864 -0.875628 0.137076 -0.834431 -0.248991 0.117839 0.053366 0.630499 0.340212 -1.643705 1.000294 1.132063 -0.263054 1.185998 -0.103432 0.114311 -0.839901 -0.514111 1.072746 0.255599 0.580600 0.074664 -0.164733 1.057251 0.541232 -0.547494 1.326393 0.184647 -0.351731 0.351523 1.215116 0.152051 -0.847005 0.357216 -0.424968 -1.797988 -0.185701 1.250986 -0.451408 -0.858557 0.276659 -0.817241 0.552674 -1.721087 -0.322630 0.430211 1.379627
M018_ON -1.536989 -0.181781 -1.531389 1.852932 -1.193229 0.300125 -1.331065 0.370682 -0.459267 0.538080 -0.027402 -1.614944 1.707402 0.067126 -1.062626 -0.869258 -0.705280 -1.450784 -0.467313 1.233427 1.240979 -0.085566 -0.183622 0.250807 0.307540 0.858337 -1.470368 -3.028011 0.569182 -1.611032 1.282694 -0.223885 -1.273246 -1.320128 0.589848 -1.550672 1.023698 -0.218577 1.548237 -0.631006 0.923576 0.329954 -0.616125 1.437954 1.438509 0.666550 0.198189 -0.789608 -0.940123 0.530037 -0.363684 -0.606932 0.211028 -0.714775 0.135330 -0.713663 0.716588 0.015142 -1.160092 -0.903123 -0.218216 -0.375576 0.101561 0.571336 1.098033 -0.351061 -0.119907 -0.403923 0.327899 0.378699 0.072291 -1.011807 0.449041 -0.979696 -1.109798 0.338854 0.028922 0.883267 0.331548 0.935467 -0.205807 -0.348523 -0.221670 -0.206577 -0.546583 0.152536 -0.088719 0.063011 0.534819 -0.819339 0.382288 0.397605 -0.742105 -0.371573 0.582102 -0.260303 -0.172926 -0.543957 2.160756 -0.620452 0.026233 -0.383375 -0.542664 0.381016 -1.027065 -0.335431 -1.030210 -0.728159 1.271361 0.355961 1.646067 -0.938997 0.368492 0.346997 0.578675 -1.629821 0.816173 1.121078 -0.132624 0.526494 -0.177677 -0.059658 1.348334 0.306617 -1.059492 2.802643 0.132266 0.274094 -0.349470 -0.217085 0.230530 0.611986 -0.420985 -0.449339 0.720733 -0.791200 -0.065501 0.327057 0.676433 -0.387067 -0.302163 0.277435 1.353901 -1.268508 0.433828 -1.114023 -0.015729 0.534418 1.933621 -0.419695 -0.876189 -1.334254 -0.445145 -1.718625 -0.367000 0.098199 0.227144 0.019146 -0.118973 0.302291 -0.296406 -0.400254 0.332005 -0.185443 -0.276654 0.637325 -0.692887 -0.863086 -1.075592 -0.367122 0.845068 -1.259401 0.338249 -0.383306 0.680230 -1.017672 -0.301510 -0.037416 0.434685 1.526171 0.165985 0.487608 0.634144 -0.421321 -0.196093 0.852202 -0.045478 -0.228491 -1.070945 0.517017 -0.014672 -0.325779 0.162855 -0.869112 -2.049449 -1.359930 0.094054 -0.349395 1.389608 0.374904
M018_OFF 0.282925 2.066464 0.014281 1.494707 -1.200415 -0.409871 -2.753690 0.079705 -1.119345 0.794332 0.136954 -1.077621 0.348006 0.964808 -2.000032 0.656754 -0.899961 -1.353114 -1.065848 1.920633 -0.470095 0.454830 -0.980779 0.230926 -0.040479 0.991916 -0.824560 -0.490702 -0.701426 -1.606974 2.747762 -0.226532 -0.017829 -1.035104 -0.353775 -0.681014 0.501422 0.113789 0.419581 -1.363991 1.164415 -1.040036 1.174188 1.374695 -0.667373 0.242514 0.004933 -0.950639 1.170123 -0.194370 -0.511456 -0.559453 0.465589 -1.751693 0.919663 -0.112874 -0.215843 -0.850962 -0.375434 -2.451641 -1.109989 0.996192 -1.061825 -1.002828 1.269043 -0.139943 -0.910632 0.586645 1.076816 -0.137935 0.024733 -0.257166 0.621125 -0.164741 -0.379560 -0.782552 0.111481 0.721667 0.960372 -0.017714 -0.117932 0.182695 0.202805 -0.557605 -0.415891 -0.159382 -0.266820 0.506998 0.633098 0.686375 -0.060426 1.305457 0.689793 2.100140 0.776723 0.131346 -1.056934 0.263877 -0.691224 -0.534914 0.658406 -0.366553 -0.221232 0.057296 0.208708 -0.214702 -1.995888 -1.301201 0.437519 -0.226033 -0.815605 -0.739004 -1.279504 2.114174 0.481418 -0.426992 1.430614 1.468662 0.291779 -0.096221 0.837838 -0.126610 1.095455 0.867230 -0.110561 1.508935 0.389189 1.180336 -0.101624 0.298135 -1.171403 -0.091036 0.347060 0.922581 -0.339386 0.672021 0.627472 0.200325 0.965403 0.355357 -0.310238 0.224765 0.326597 -0.452857 -0.326013 -1.270146 0.569402 -0.341951 0.900398 -0.384903 -1.371258 -0.614169 0.967812 -0.811185 -0.952371 0.984303 1.019221 -0.335757 0.190806 -0.990544 -1.155569 -1.840428 -0.620710 0.628081 0.419196 1.384290 -0.097101 -0.001301 -0.604051 -2.201998 0.494760 0.865526 -0.183055 -0.219703 -0.445764 0.243773 -0.078440 -0.047639 0.326561 -0.314938 -0.268606 0.933214 -0.303364 1.400173 -0.273183 0.986333 -0.266187 -0.261756 0.055424 -0.670411 0.053162 -1.091000 -1.287048 -0.917349 -1.139981 -0.260958 0.129929 -0.797759 0.393910 -0.644307
M024_OFF 1.407339 -2.217987 -1.366957 -2.297969 1.360133 0.719003 2.217271 -0.830089 0.691169 -0.342070 0.673924 0.041938 -0.661593 -0.333021 -0.720999 -0.141602 0.784360 0.696259 2.115491 0.214407 -0.137434 -0.893012 1.036610 0.166140 -1.027052 -0.584666 0.733469 0.817921 0.234185 -0.894257 -0.136146 1.175108 -1.079030 -0.554406 -1.236523 0.330030 0.651584 -0.659847 1.362409 0.653389 -1.419652 0.911606 1.505725 -0.497899 -0.026723 -1.410032 -0.382136 0.238459 0.480599 -0.273381 -1.138862 1.229040 -0.245968 -0.605083 -0.223585 1.043700 -0.982334 -0.689061 1.007056 0.369893 -0.399653 0.251408 -0.453824 -0.021597 -0.988133 0.569706 0.045308 0.380804 0.327903 1.775819 0.002521 1.635916 -0.011807 -1.082580 -0.352170 -0.079332 -0.358764 -0.879360 -0.960027 1.895481 0.312839 1.658280 -1.872918 0.753005 -0.481754 0.458657 -0.108874 0.060684 -0.249811 0.548000 -0.145889 -0.576234 0.165899 -0.078830 1.538104 -0.239958 0.650858 -0.711931 0.812522 1.763575 0.189764 -0.166269 1.408628 0.122358 0.055756 0.597418 -0.542019 -0.315297 -0.298037 -0.483404 0.565930 -0.320389 0.957561 0.657391 -0.824538 -0.453710 0.153585 1.962465 0.026612 0.050075 -0.764506 0.390054 -0.777522 -0.521427 0.245582 1.196771 2.390062 1.309411 0.116775 0.432431 -0.138230 -0.111194 -1.071347 0.195287 1.113241 0.178678 -1.337408 0.376244 -0.458716 0.410587 1.365547 0.900067 0.638374 0.278685 -0.061097 -0.377994 -1.356694 -0.994549 1.350579 -0.150305 -0.947990 0.400030 -0.135288 0.303644 0.058417 1.411206 -0.440578 -0.035134 -0.455368 -1.482064 -1.470147 0.004700 1.399406 -1.186054 -0.305722 0.542573 -0.864759 0.486661 0.173326 -0.103410 0.984445 0.162989 -0.049819 0.422989 0.068302 0.341501 -0.784954 -0.288150 -1.403514 -0.695476 1.093934 0.669614 -0.705189 0.580243 1.167794 -1.165187 -0.744422 -0.093867 -0.706439 -1.676019 -1.229969 0.789400 0.079702 -1.759975 0.458740 1.232543 0.956534 0.468827 -1.176595 0.685910
M024_ON 1.535038 -0.126718 -0.906675 -0.912600 0.502971 -0.508760 1.167862 -0.967017 0.805056 0.490415 -0.156748 -0.129285 -0.919795 0.529464 -2.114005 -0.171869 0.749608 1.250740 1.665599 -0.527587 -0.969954 -0.840387 0.617152 0.161872 -0.161269 -0.677704 -0.075825 0.197298 1.589981 -0.947378 -1.465335 0.597210 -0.443753 -0.024496 -0.448314 1.186795 0.244869 0.138362 0.459964 -0.152525 -1.436831 1.692950 0.598759 -0.866746 -1.113373 -0.886484 -0.480223 0.337350 0.997334 1.097095 -1.027456 1.599735 -0.751037 -0.353738 -0.316129 0.973310 -1.570463 -0.042486 0.878473 0.346873 -0.444171 -0.485984 0.102602 -0.402285 0.111662 0.583212 0.815326 0.225873 0.747442 2.272018 0.585586 1.517213 -1.126869 -0.455671 1.709830 0.127416 -0.334341 -0.671599 -1.190225 2.327549 0.327646 1.033024 -0.802212 0.632164 -0.700558 0.927824 -0.685222 -0.238987 -0.383317 0.379689 -0.268504 -0.117449 -0.239027 0.199205 1.531813 -0.188453 -0.149828 -1.926488 0.651851 0.365644 -0.827234 -0.475116 0.584958 1.364452 0.405744 0.696733 -1.058985 0.459972 -0.164128 -0.151572 1.218795 -0.677863 1.031517 0.403293 -0.795744 -0.482051 -0.492197 1.519571 0.186445 -0.007321 -1.196418 -0.853049 -0.676985 -0.106246 0.481999 0.349017 1.280392 1.370476 -0.233091 -0.209550 -0.929114 -0.419736 -1.251721 1.406482 0.324619 0.202777 -1.415457 -0.089945 0.740035 -0.168815 1.778436 0.358400 1.534677 0.263517 0.420249 -0.783158 -1.125322 -0.882810 0.299325 -0.241510 -1.000995 1.088611 -0.302162 0.583170 -0.394729 -0.640137 0.046647 -0.104132 0.844776 -2.233850 -0.543983 -0.305163 1.824792 -0.876476 -0.523391 0.589262 0.243628 0.901121 -0.434665 0.845290 0.315065 -0.340188 -0.158243 1.442583 -0.190675 -0.558838 -0.270390 0.101341 -0.403487 -1.256019 0.899301 0.327742 -0.221577 -0.982738 0.953889 -1.191098 -0.565161 -0.041290 -0.689183 -1.153160 -0.322832 1.525979 1.829595 -1.191413 0.835094 0.941596 0.846192 1.560057 -1.022428 0.448479
M017_OFF -1.129175 -0.226693 -0.069776 -0.823703 -1.572873 1.411963 -1.239515 1.593351 -1.797332 0.226364 -0.996396 -0.375507 1.028914 -0.406287 -1.679987 0.330446 -1.419348 -1.250659 -0.453709 0.616790 -0.580819 0.311976 -0.772514 1.325012 1.234671 0.760080 -2.398714 -1.374890 -1.122241 -1.675863 1.080179 -0.619362 -0.282211 -0.501805 -0.362628 -0.484800 1.464302 -0.265784 0.522815 -0.399250 1.141592 -0.470281 1.528023 -0.179093 -1.294275 1.573715 -0.344036 -2.495663 0.037715 -1.423573 -0.404206 -0.905380 -0.013484 -1.889877 -1.082835 -0.039855 -0.192150 -0.846530 0.082124 -1.587097 0.058743 1.890383 0.930860 0.460414 1.992440 -0.828513 -1.449283 -0.060882 0.649915 -0.079661 0.374066 -0.148695 0.857708 -0.359004 -0.032055 -0.714284 1.225795 1.055293 0.771602 0.462534 -0.146541 0.125322 -0.245454 -0.499034 -0.593407 -0.933707 0.120981 -0.068858 1.113026 0.214826 1.338082 1.504746 0.219053 0.832817 0.357986 0.538253 -0.550661 -0.496160 1.485467 -0.696607 0.428497 0.517057 -1.052171 1.229752 -0.415460 -0.000032 -2.887845 -1.483353 1.110981 0.297695 0.746596 -1.171757 -0.246428 1.346905 1.193455 -1.577134 0.839349 0.585398 1.721137 -0.221850 0.016466 -1.183248 0.742382 1.073129 -0.472326 2.291363 0.001344 -0.769854 -0.146918 -1.385619 -0.101652 0.627970 -0.562091 0.261046 -0.227819 0.025474 -0.458908 0.332152 1.511716 0.745058 -1.144472 0.160064 1.514425 -1.255220 0.148941 -1.790502 0.939712 -0.611694 1.879654 -0.320367 -2.236307 0.330579 0.645811 -1.011367 0.078011 -0.284477 -0.027399 -1.920546 0.168746 0.099813 -1.126522 -0.159758 0.642251 1.209052 -1.547779 0.277862 -1.374435 0.863478 -0.092400 -1.691761 1.281764 -0.231092 -0.347884 -0.460449 0.787771 -0.125082 0.890893 0.843822 0.432303 1.273140 0.142667 1.876183 0.694629 0.665977 0.033358 0.239093 -0.277360 -0.376948 -0.804630 0.273490 0.165201 -0.094174 0.192867 -1.752951 -2.124692 -0.549859 0.064990 -0.784903 1.969196 0.737649
M017_ON 0.111981 1.953683 0.316548 0.240187 -0.213971 -0.257181 -1.515156 1.166635 -0.599960 0.225021 0.007041 -1.398934 0.798642 -0.257180 -1.127529 -0.334506 -1.758488 -0.465443 -1.580198 1.247952 -0.907107 -0.101718 -0.664035 0.137589 -0.475261 0.281139 -0.616439 -2.375584 -0.444269 -1.225333 1.827828 -0.119984 -0.248739 -1.684684 0.636740 -0.299523 1.031248 -0.322819 1.484717 -0.767676 1.567417 -0.575471 0.662830 1.944190 0.397861 0.717748 -0.045811 -0.857942 1.322383 -0.459150 -1.047107 -1.316350 0.517267 -1.793544 -0.005515 0.292822 1.153914 -0.712953 -0.665686 -0.236445 -0.860907 1.088414 0.088100 0.120877 1.448558 -0.003476 -0.177789 -0.571546 0.853781 1.285145 -0.226336 -1.488841 -0.166709 -1.014220 -1.764350 -0.924212 0.280466 1.306786 0.889061 0.613792 -1.075119 0.225188 -0.970698 -1.490074 0.477863 0.547547 -0.218009 -1.121460 2.350940 -1.071046 0.134303 1.424257 0.033113 0.965892 2.430258 0.972878 -0.591523 -0.089201 0.605415 0.452254 1.015184 -0.594361 -0.742370 1.028463 0.163880 0.269439 -0.887904 -1.190415 0.200805 -0.516587 0.307187 -0.636826 0.570313 1.797682 -0.157727 -1.402175 0.897209 0.579360 0.396889 1.317169 -1.485442 -0.591366 1.169684 0.825185 0.674082 1.891327 -0.539606 0.686806 -2.086931 0.684411 0.012847 0.949021 0.455071 0.762674 0.397445 0.427716 0.018564 0.287978 1.431915 0.318941 -0.149207 -1.002464 0.432642 -0.681773 -0.711248 -1.600883 0.072865 -1.477156 1.301820 -1.724991 -1.917911 -0.516346 1.241500 -2.359406 -0.825566 -1.562354 0.292596 0.920161 -0.128579 -0.716260 -1.649693 -1.781918 0.090234 1.144807 -0.674563 1.089920 -0.432248 -0.528309 -1.749952 -0.880877 -0.456615 0.786647 0.364486 -0.882141 0.534210 -2.066163 0.705960 -0.850613 0.479634 -0.020702 -0.496377 1.752076 0.673717 -0.472585 0.324751 0.961694 0.242244 0.001249 0.299504 1.126253 -0.044724 -0.623122 -0.726541 -1.213428 -1.858713 -0.288837 -0.196896 -1.598277 0.171556 0.221562
M010_OFF -1.112993 -0.733635 0.594672 -0.586661 -1.840978 1.355478 1.409066 -1.066859 -0.848024 -1.514011 -0.034318 -1.349459 0.929062 -0.895074 1.959218 -0.324268 1.667994 -0.169904 0.257889 -0.347912 -0.552492 0.279086 1.019396 0.993085 -0.107650 -0.718485 1.101772 2.062225 -0.595453 -0.248684 -1.375344 0.152866 0.312019 -1.103826 0.601063 2.314040 -0.414181 1.710885 0.223523 -0.743267 -1.589893 0.121981 -2.297669 -0.645510 -0.648666 0.056497 0.599551 3.094028 1.455116 0.209814 -0.168471 0.224279 0.789291 1.124649 -0.830190 0.772819 -0.457239 -0.254519 -1.532906 -1.126230 0.035027 -0.607526 1.752330 -0.505799 -1.126188 -0.263738 1.232006 0.292906 0.704104 -0.761321 -0.313126 -0.023096 -0.021621 -1.046394 0.101478 1.788383 -0.137721 -2.151330 0.971623 -1.780983 -1.259971 -0.377786 -0.472230 -0.132477 1.366747 -0.199364 -1.186471 -0.327591 0.055557 -1.415837 -0.535931 -0.457204 -0.214906 0.418773 0.174187 0.742964 0.152909 0.738177 -0.279579 1.564479 1.371235 -0.297609 -0.523970 -0.133386 -1.106325 0.476255 0.458972 0.603948 -0.895510 -0.741389 -0.286887 -1.602963 -0.108929 -0.050733 0.595950 0.390419 -0.550490 -0.091317 0.817822 -0.811457 -0.173880 -0.664424 -0.214122 -0.237136 -0.073084 0.808024 0.186759 -0.888397 -1.186416 -0.803018 0.982948 -0.120399 0.771499 0.764881 -1.064159 -0.685552 0.459518 0.508660 1.350889 -0.035782 1.431211 0.985411 -1.091703 0.908147 0.012242 0.578349 -0.295409 0.065594 0.624756 0.471501 -1.380247 0.090655 -0.112384 -0.184247 -0.942289 0.242824 1.448750 -0.173064 0.509791 -1.134506 1.314700 1.376786 0.391062 0.966499 -0.230451 -1.757823 0.057952 -1.253246 1.496519 -0.661476 -0.965249 1.224444 -0.380669 -0.258741 0.353721 -1.337278 0.601464 1.002552 0.088219 0.439468 1.394977 0.803422 0.536294 1.424803 0.584066 -0.118894 -0.439559 0.042465 -0.655942 0.380946 1.276058 1.145941 0.149952 1.503139 -0.106667 2.636307 0.190727 -0.791261 0.276133 1.705543
M010_ON -0.451625 1.000869 0.042273 0.373706 -0.218398 2.223106 2.844657 -0.027013 0.245382 -1.549768 -0.552656 -0.605315 0.408433 0.070110 2.813236 -0.839758 2.793034 0.590689 0.589844 -1.743022 0.889828 0.528526 0.718721 0.199728 0.088406 -0.210724 0.406861 2.932573 -0.535618 -0.390337 0.058742 -0.286297 -0.441770 -0.794622 0.525749 1.694116 -0.301855 0.649958 0.682110 0.343659 -1.915859 -0.860290 -2.163459 0.092025 -0.185727 -0.636745 -0.042771 2.288873 0.628375 -1.465466 -1.298350 0.848048 -1.270667 0.845806 -1.667518 -0.140205 0.323448 1.087998 -0.269095 0.357325 -0.588740 0.712172 0.217038 0.072766 -0.386907 -0.708123 1.680544 -0.834149 0.494762 0.291209 0.208909 -0.516171 -0.099232 -2.400548 0.132701 0.912170 -0.208724 -1.620519 -0.956076 -1.727221 -0.169704 0.145020 -0.087135 -0.464323 0.215519 1.093919 -1.070566 1.038658 -1.346854 -1.452865 -1.053208 -0.698699 -0.768336 -0.161962 -0.165022 0.971544 0.148914 0.011335 -1.922576 -0.060190 0.557524 0.024722 -0.832512 0.330779 -0.663495 0.925532 -0.819786 0.637012 -0.181538 -0.145109 -1.113710 -1.293456 -0.578068 0.166577 0.616377 -1.531101 -1.091014 0.284843 0.263705 -1.206883 -0.142147 0.824246 0.898021 0.531042 -0.253315 0.341115 -0.060811 -0.249175 -0.786744 -0.448889 0.225367 1.045502 2.145299 -0.549565 -1.715153 -0.441790 -0.724234 -1.147078 0.324181 -0.265095 0.558310 -0.072015 -1.113240 0.775247 -0.695032 1.603387 -0.347432 0.056824 0.489275 0.094108 -0.797461 0.731553 0.593242 -0.308075 -0.410581 0.508067 0.957531 -0.870782 1.039678 -1.082954 -0.556014 0.312723 0.369630 0.889220 0.251206 -0.551611 -0.511810 1.073558 1.698623 -0.728957 -0.092882 1.639828 -0.583612 -0.109040 0.957086 -1.479775 0.662033 -0.081672 0.765435 0.971372 0.359601 0.338758 0.523786 -0.393456 -0.099394 -0.500220 0.859966 0.292442 -0.623434 0.589698 0.962919 0.322397 0.807348 0.909799 -0.024044 1.533910 -0.050284 0.734229 -1.020697 0.090325
M021_OFF 0.413634 -0.319603 -0.375942 2.798281 -0.769690 0.566829 -0.848935 1.367659 0.763132 1.246458 0.566678 -0.497891 0.627669 1.032754 -1.203814 0.415503 -0.512319 -1.388164 -1.891915 1.228582 0.623489 0.462036 -1.713956 -0.803432 -0.910856 0.653046 1.719285 -0.543576 1.210733 -0.660674 1.336585 0.445582 0.345793 -0.816999 -0.004253 -0.615147 0.754098 -0.504514 -0.108704 -0.018966 1.481662 0.417923 1.533810 -0.049592 0.324730 -1.337650 1.226998 1.016246 -0.304492 0.247820 -0.464506 -0.242036 0.659084 0.760051 0.464338 -0.285321 -0.193795 -0.141609 -0.957800 -1.878873 -0.980707 -0.674626 0.023688 1.577147 1.027997 -0.703758 -0.052713 0.704768 -0.635523 -1.177656 0.263536 0.870132 0.804819 -0.672878 -0.236236 0.897118 -1.407178 -1.469311 0.401483 0.195333 0.228043 -0.369333 0.071605 -1.986732 1.096476 -1.945275 -0.033872 -0.965691 -0.380016 -0.557922 0.446510 0.573863 -0.875217 0.799742 0.822804 -0.956760 -0.307589 -0.739159 0.668761 -0.932004 -0.594479 0.026947 0.208667 0.268558 0.708710 0.010277 0.143036 0.948321 0.683297 -0.084468 -0.149977 -0.998734 0.672637 0.493810 -1.263545 -1.279569 0.800673 0.515541 0.959805 0.032875 -1.181753 -1.313714 0.597557 -0.035542 0.450416 -1.233480 -1.736020 -0.691197 -0.074134 0.589478 -0.805820 -0.339469 -0.108975 -0.912529 -0.277861 -0.336528 -0.005173 -1.795805 0.210553 0.030659 -0.177375 0.770591 -0.513762 0.995274 -0.205085 -0.136788 -1.376677 1.016986 0.253732 1.977528 1.951585 -1.095595 -0.577868 1.485461 -0.079443 0.503001 -1.127578 -0.237399 -1.219732 0.509514 0.373788 -0.344082 -0.362694 0.379625 0.089087 0.725504 -0.533653 -0.973181 0.859646 0.396156 2.667584 -1.106126 -0.482377 -0.083507 -1.410320 -0.014165 -2.267169 -1.588228 -0.741641 2.154734 0.203084 1.105923 -0.969384 0.702078 -0.767877 0.337937 0.786360 1.377776 -0.064526 -1.795885 -0.924554 -0.121151 0.518183 -0.323931 1.195677 -0.182781 -0.176260 1.928368 0.967928 -0.235069
M021_ON 0.291192 0.737780 -2.493804 -0.393382 -2.139691 -2.427732 -2.443241 -4.197611 -1.268831 0.765028 0.408813 -0.873649 -0.254829 -0.688258 0.560856 1.358965 -0.647280 -0.505406 0.091999 0.778121 -0.264336 -0.983089 0.638509 -1.117317 1.677776 0.761424 -1.153301 0.277442 0.238123 0.529529 -1.130001 1.416873 0.304285 1.173727 -0.894335 -0.704267 1.295681 -0.462493 0.220352 -0.685381 0.914809 -0.175084 -1.297830 1.123840 1.262036 -0.892259 0.296735 -2.151213 0.825796 0.257833 0.158275 0.602865 -1.150205 -0.396883 0.696096 -0.399133 1.437099 0.355812 -0.267228 -0.000821 0.510597 1.472394 -0.972604 -1.102543 0.226839 0.134934 0.266502 -1.501066 0.286269 0.541198 0.751241 -1.404599 0.007425 -0.622994 0.041928 -0.447365 -0.109649 1.033391 1.103092 -0.684599 0.135177 0.139927 -0.585273 -0.097497 -1.417609 -0.178394 0.450687 0.550905 -0.974638 0.658251 -0.878259 -0.326010 -0.339195 0.584953 -0.891260 -0.211142 -0.785351 0.877155 -0.574489 -0.667637 0.137908 -0.275654 0.611864 1.014738 -0.907313 0.252969 -1.405579 -0.891326 0.271606 1.390978 -0.824481 1.817338 -0.112372 0.528164 -0.146774 -0.109841 0.334841 0.613974 -1.601944 0.680388 0.707733 0.746930 1.104814 0.164708 -0.673346 0.365443 1.134225 1.071381 1.173038 -0.162341 -0.612997 0.553579 -0.234133 -0.320150 -0.013499 -0.563295 0.697467 1.744610 -1.881383 -0.800289 -1.653629 -0.597295 -0.654253 0.273301 -0.574923 -0.151431 0.235611 -0.203811 1.216643 1.052862 0.503950 -2.056926 0.409337 0.297504 1.440517 0.782590 0.782499 -0.382428 -0.766982 0.062741 -0.235229 0.619861 1.145097 -0.941755 1.386974 0.403604 -0.668987 -1.483720 -0.286958 0.167673 -1.100233 -0.048068 -1.751753 -0.462210 -0.481245 -0.609073 0.415400 1.154724 -0.026111 -1.477932 -0.420982 -1.606665 -0.580610 -0.385728 -0.330770 0.142840 -0.702772 -1.454239 -0.285976 0.157981 -0.679609 1.373725 -0.598525 -0.085148 -0.278817 0.005675 0.557926 -0.959626 -0.814153 -0.269674
M003_OFF 0.751817 -1.672474 0.963733 -2.102442 0.687484 1.220285 1.315116 1.036373 -0.157191 0.988581 0.097274 0.551266 -1.031227 0.591657 0.698541 0.390998 1.248294 1.338535 0.739671 -1.460950 0.559028 -0.486046 -0.979684 0.439703 0.665659 0.708790 0.838012 -1.022544 0.351134 1.220897 1.392499 0.680074 1.645568 1.484968 -0.686440 -0.980379 1.559011 -1.151500 -0.272366 1.341957 2.820438 -0.333309 -0.205169 1.574125 0.479828 0.444285 2.206663 -0.703719 -0.917977 1.425703 0.515718 -0.420428 0.352155 1.363279 0.215820 0.643699 1.426351 1.661695 -0.554221 0.977513 0.262423 -0.710063 -0.155987 0.366060 0.973217 -0.189846 -0.124753 -0.912927 -1.332068 0.176152 -0.386719 0.380741 -1.798862 1.959713 1.007510 -0.229195 -0.033032 0.305144 0.280549 -0.330280 0.056325 -0.746267 0.963553 0.401897 0.440557 -0.395857 0.364710 -1.576575 0.166361 0.680817 1.700603 -0.115282 -0.073146 -1.280902 -2.281973 2.413782 -0.480094 1.281083 1.275501 1.179889 -0.755121 -1.118116 1.628332 -2.030849 0.770780 0.727226 0.973809 1.153006 -0.400323 -0.764391 -0.350652 -1.329557 0.227568 -1.115542 0.399548 2.189047 -0.360391 -0.980068 0.990987 0.815108 0.515651 -0.453014 -0.192973 -0.245351 0.363997 -0.861310 1.018500 -1.947045 -0.089130 0.058639 -0.566562 0.223246 -0.419440 0.288467 0.420358 0.913605 0.803976 -0.516444 -0.151100 -1.401682 -0.675885 0.138007 -0.685159 -0.813901 0.278194 -0.650812 0.795086 -0.261280 -1.949085 -0.896997 0.104448 1.422812 -0.414401 1.270643 0.227633 0.133178 0.668599 -0.281372 0.756809 0.323999 0.730868 0.012513 0.734808 -0.264370 -0.555384 -1.048823 0.399226 -0.979778 0.095745 0.827015 -0.376717 -0.528064 -0.328086 0.701156 0.562881 -0.093976 0.355549 0.644853 0.439859 -0.875041 0.453691 -1.564185 -0.637851 -0.537416 -0.970150 0.377544 0.964950 0.382082 0.469089 1.208094 0.463671 -0.198974 -0.260686 0.642114 -0.235867 -0.482474 -0.300953 -0.654318 -0.890707 -0.919649
M003_ON 0.734427 -0.515736 1.213148 -1.934518 1.159590 -0.662740 -0.070431 0.253801 -0.389992 -1.624492 -0.232228 2.500948 -0.100011 -0.375102 1.709416 1.803817 0.028793 0.125735 -0.713188 -0.316225 -0.205978 0.408136 -0.406139 -1.540440 0.661597 -0.112846 -0.966479 -0.287621 -0.425274 0.298684 0.487243 -0.296456 0.441009 0.339143 0.211769 -0.585666 -1.045251 -0.773391 -0.815262 1.867735 2.047870 -0.945902 1.457937 0.314562 -0.181103 0.705295 1.088166 0.279647 -0.655919 1.719192 -0.048937 0.310613 -0.558098 0.322131 0.288031 0.628926 -0.181252 0.809024 -0.488065 1.015396 0.183331 -0.488018 -0.752537 -0.501340 -0.029507 -0.094490 -1.091811 -1.226900 -0.783070 -0.350443 -0.924561 0.533928 -1.238945 0.314129 0.175719 -0.862656 0.336636 1.048451 -0.127830 -1.384699 0.840927 -0.345075 0.414571 0.634521 0.052731 -0.189548 0.785005 -1.585013 -0.780698 0.433183 0.437710 -0.707515 0.683977 0.665738 -1.710488 0.561022 -0.364057 0.310039 0.076540 -0.603307 -0.712334 -0.751980 0.773641 0.110973 -0.319164 1.340766 0.467524 -0.027116 -0.450712 -0.100195 -0.750114 0.950087 0.041952 0.375820 -0.059438 1.491490 -1.096217 -0.972896 -0.607544 0.561847 -0.140806 0.188279 1.023393 -0.933389 0.584953 -1.733548 1.087132 -1.353619 0.646743 -0.422257 0.323495 1.296358 0.025684 -1.072139 0.292927 0.584848 -1.658854 -0.973997 0.317448 -0.347486 -1.585317 -0.677923 -1.238522 0.900658 0.662297 -1.117092 -0.126401 -0.595742 -1.029756 -0.859849 0.749681 1.735047 -0.858027 0.041387 -0.753313 -1.957631 -0.947085 -0.533432 1.100914 1.038340 0.491216 1.209424 0.580577 1.132074 -0.904293 -0.341951 -0.703510 1.309721 0.994366 1.101872 1.250742 -0.066771 -0.856268 -0.289148 0.209240 0.836801 0.572817 -1.176167 1.521495 -0.810870 0.098840 -0.598039 -0.011472 -1.794979 0.282795 0.636731 0.744716 1.927789 2.150669 0.571963 -1.253183 -0.535959 0.680636 1.474693 1.255617 0.211435 -0.812934 -1.614442 0.426524 -1.521396
M005_OFF 0.537351 0.220732 1.709555 -0.278883 1.396363 0.537546 1.221644 0.027832 -0.027516 -0.134080 -0.036898 2.737672 -0.202370 1.068508 0.086576 0.080137 -0.194253 1.649493 -0.186401 -0.136147 0.326815 -0.572962 0.077746 0.749853 0.035471 0.024093 0.622070 1.298883 -0.999401 1.170525 0.697081 0.047104 0.680227 -0.206042 -1.216384 0.070514 1.404932 -0.885857 -0.604121 1.718093 1.385557 -0.085397 -0.241434 0.720949 -0.641122 0.907069 1.366825 -0.521210 -1.205342 0.893222 0.000208 -1.217220 0.864956 -0.845711 0.465423 0.692884 0.570490 1.576974 -0.803267 0.908465 -1.180862 -0.103484 -1.202324 1.628636 0.370053 1.153025 -1.563828 -0.017649 -2.207613 -0.355373 -0.548672 0.517243 -0.814492 0.338752 2.196058 -0.437268 0.043093 1.028741 -0.153259 -0.752462 0.662597 1.471517 0.777271 -0.177013 -0.219618 -0.424865 0.455817 -1.399586 0.240983 -0.591557 0.464947 -0.479096 0.765346 -0.526577 -0.914281 0.610297 0.739468 -0.474503 0.044538 -1.332557 -1.345226 -0.542999 2.454275 -0.771149 1.401158 -0.266582 0.750794 2.443587 -1.893482 -0.957670 0.557950 1.054490 0.833561 -0.371456 -0.529675 1.251822 -0.876230 0.161615 -0.496642 -1.276664 0.768577 0.122741 0.338956 0.814409 -0.124208 -2.890587 0.037647 -0.870070 1.690158 1.287531 1.258030 0.260398 0.010274 0.673458 1.024111 -1.338324 -0.103652 -1.375742 -1.128972 1.002259 -2.217907 0.017577 -0.679790 2.299962 -0.372698 -0.957622 0.206574 -0.701675 -1.791022 0.817962 2.652952 -0.726336 -0.477828 0.807180 2.641502 -1.603444 0.141085 0.285559 -1.399254 1.998429 1.519547 0.057395 1.471010 0.588505 0.145835 -3.213216 0.332568 0.611205 -1.022604 0.768271 -0.151344 -0.540181 -1.068909 0.226541 0.861938 0.775655 0.559876 1.061336 -1.579967 0.223504 -0.912535 -0.461404 -1.222143 -1.603874 -1.370771 0.485268 0.638973 0.316611 0.931677 1.000055 0.376258 0.958683 0.443883 1.866853 1.322992 0.312415 -0.507125 -0.734568 -0.822084 -0.743101
M005_ON 2.237190 0.072870 0.803957 -1.261511 2.012125 0.009249 0.674884 -2.965285 1.668575 -1.292741 -1.311270 0.977171 -2.740307 -0.182763 0.739478 -0.804671 -0.751031 1.634508 -0.304301 -1.198472 1.017678 0.808345 -1.774686 0.752839 1.273891 -0.331747 0.705002 -1.048189 -1.054320 0.598163 0.977543 0.165630 1.067197 1.526342 -1.190184 -1.080891 0.495148 0.119845 -0.277487 1.309690 1.605055 0.041061 -0.323439 0.868705 1.306717 0.233298 2.014812 -0.601114 -1.733914 1.090828 2.229741 0.375231 0.510925 2.743143 0.583151 -0.529425 0.557988 0.394234 0.586321 0.869644 1.002920 -0.961503 0.676950 -0.385923 -0.519722 0.225559 0.327096 -1.074482 -2.055087 -1.369806 -1.382772 -0.067266 1.514550 0.924436 0.750914 -0.601118 0.831625 -0.595583 0.658001 -1.069149 -0.508167 -0.711863 0.073072 0.434702 0.413900 -0.484207 0.236078 -0.932952 1.291457 0.974069 2.348714 -0.239164 1.807815 0.738979 -1.764153 -0.095647 -0.233622 0.840951 -0.400874 0.316098 0.433458 0.367916 -0.842804 1.132420 1.833731 0.314175 0.408570 -0.942753 0.142565 0.561279 0.220632 0.663406 0.120106 -0.276026 0.025932 1.363657 1.115151 0.118472 0.125150 0.797615 -1.078487 0.629542 0.848053 -0.608716 0.475787 -1.730682 -0.714249 -0.787275 0.561606 0.899897 0.286805 0.466626 0.418748 0.041369 0.163698 0.953691 -0.115201 -0.943586 0.015282 -1.023324 -0.247413 -1.765843 1.160818 0.493670 -0.208524 0.466343 -0.072800 0.119803 -1.624332 -1.543043 1.001781 0.081512 -1.331361 1.405413 0.119010 0.358806 0.132488 -1.293376 0.361470 0.445291 2.216557 1.716567 0.389845 -1.603194 -1.719133 -0.806712 0.974634 1.643146 0.316029 1.955303 -0.353020 -1.330389 0.448668 0.933512 0.820728 0.464345 -0.582185 -1.215190 -1.005467 -1.040358 0.607997 -1.176992 -0.569567 -1.139717 0.368469 -0.318085 -0.963494 0.710495 0.992945 -0.058468 0.973144 -2.168374 -0.914450 1.228246 1.157939 -0.631308 0.453636 -0.982994 1.174847 -1.021478
M008_OFF -1.059471 2.351064 -0.453008 2.132898 -0.771071 -0.685899 -0.285726 -2.841793 -0.482308 0.335295 -0.442305 0.120011 0.143323 0.247123 0.516109 0.179372 -0.775525 -0.231111 -0.405198 -1.012552 2.189445 0.751918 -0.375786 0.522437 0.319589 -1.304344 1.543926 1.020352 -1.706165 0.775602 1.401154 -0.241242 2.078141 1.688810 -2.892462 -1.796245 1.758380 0.229473 -0.999448 2.102803 2.404806 -1.800612 0.233689 0.668970 1.725450 -0.496068 0.985123 -1.216081 -0.691944 1.860511 1.262240 -1.171342 1.424133 0.185017 0.918840 1.381633 0.964660 1.322542 0.510564 1.114679 -0.551338 -1.846172 0.380294 -0.245049 -0.174319 -0.459216 -0.184295 0.698106 -1.183162 0.349730 0.636312 2.621503 0.347569 -0.235595 0.933646 -1.346130 0.629769 0.256933 -0.899646 -0.870446 -0.758519 -1.271847 0.492728 -1.026522 0.305736 -1.072311 -0.025728 -1.051164 -0.941335 0.449991 2.482737 -1.970755 0.519283 0.235000 -1.924101 1.808645 0.067892 0.731165 -1.612252 -0.393485 1.435924 0.922530 0.636424 0.822005 1.089212 0.061313 1.175449 0.234229 -0.548931 -0.195054 -0.452174 2.190264 0.676598 -0.492709 -2.148396 -1.594032 1.129668 -1.394982 0.245989 -0.533079 0.110486 -0.513272 0.902409 -0.288590 0.483126 -1.203988 -2.047541 -1.649124 2.358163 0.188548 1.534921 -0.091231 -0.285282 -0.024214 1.553146 0.743138 -0.259475 -1.187372 -0.271468 -0.453071 -2.001870 -0.472007 0.021568 0.670161 1.094424 -0.298793 -0.686823 -1.067297 -1.202683 1.411619 0.751837 -0.073857 -0.999019 -0.187860 0.189266 0.275432 -1.273572 -1.949441 -0.406019 0.573031 1.891214 1.538927 1.901360 -0.653074 -0.757589 -2.076521 0.620071 0.383016 0.328221 1.288127 0.717705 -0.148061 -0.643678 0.532216 0.947893 0.248474 0.011529 -0.749478 -1.042426 -0.574896 0.019455 -0.266516 -0.809259 -0.382895 -0.119751 -1.076034 0.904076 -0.728932 -0.212245 0.389336 -0.000930 -0.156150 0.739561 0.887949 0.343395 -0.405541 0.067755 0.090340 -2.435962 -1.282212
M008_ON 1.201530 0.146911 2.023910 -1.186915 1.446525 0.388388 0.314154 -0.768755 0.488418 -0.051349 0.755229 1.727463 -2.310046 0.247130 -0.081738 0.715735 1.333755 1.032722 -2.006754 -0.965332 -0.114698 -0.056193 -1.371918 1.120187 -0.013828 0.868450 -0.726717 -0.505812 0.905671 -0.211269 -0.180883 0.220955 -0.305488 1.151335 1.413622 -0.641040 -2.117409 0.485248 -1.007804 1.698140 2.499465 -1.815470 -0.459106 1.726380 2.270199 0.728450 1.579518 1.203105 -1.465528 0.955373 0.042522 0.801536 -0.439476 1.784025 -1.088179 0.012467 0.441981 0.701791 0.241454 0.398833 -0.100296 0.531825 -0.907450 1.261961 1.290580 2.231182 -0.410235 -2.991250 -0.093967 -1.710163 -0.468860 -2.450623 1.126598 0.988717 1.545386 -0.061680 0.045760 1.214180 0.255448 -0.654796 1.409012 -0.014299 -0.236800 0.314351 0.329609 -0.724629 0.657391 -1.073958 0.168106 -0.625982 1.530666 1.142305 -0.084843 0.780374 -0.592805 -0.381455 -0.031703 0.584960 0.536994 -1.307097 -1.370450 -0.852947 1.659189 0.325816 1.847610 0.618983 -1.184421 0.209799 -0.999851 0.046912 0.555194 -0.845038 1.284012 0.653640 0.967335 2.041682 -0.794672 0.390809 -0.212620 0.726338 -1.543826 0.842568 0.486635 -0.548159 -0.566558 -0.564519 1.472263 -0.988962 0.642979 1.449714 -0.840595 0.975225 0.668543 0.393183 -0.181288 0.110274 0.083695 -1.444860 -1.406385 0.370205 -1.104666 -1.172519 -0.899237 0.912237 -0.006419 -0.257451 -1.189678 -0.026025 -1.724625 -0.078502 1.676580 -1.459847 -1.545306 1.709972 1.604744 0.021532 -0.396172 -0.045754 -1.206066 2.295175 2.526420 0.201381 0.256322 -0.695382 1.015616 -2.138819 0.214953 -1.527684 0.392112 -0.501557 -1.163920 -1.083859 -1.099860 0.496757 -0.525003 -0.530447 -0.456476 1.074847 -1.879832 -0.028937 -1.075558 -0.659510 -2.158766 0.712461 -1.715385 0.205416 -0.142795 -0.091012 -0.157188 -0.398339 1.938520 -0.060549 -0.530126 1.196450 1.563180 -0.120692 0.694101 0.190433 1.803376 0.633950
M022_OFF 0.813212 -2.047997 -2.285669 1.841360 -1.442404 0.869862 -1.902434 -1.346173 -0.993036 0.772434 2.694845 -1.740371 1.036507 -0.396729 -1.436335 1.477864 -0.950774 -1.105026 1.197067 0.180731 0.528897 -0.398897 -0.355002 -0.620450 0.232184 -0.338061 1.161034 -1.372655 0.110721 -1.331180 -0.786566 0.953322 0.505608 1.527520 -0.972119 1.143686 2.268511 -0.669592 1.019197 -0.911592 1.188352 0.527340 0.349430 0.031491 0.241854 -2.314493 0.901147 -0.775319 0.256784 -0.214901 0.009150 1.598418 -0.527262 2.443848 1.358198 -2.364295 1.758279 -0.680882 0.387153 -0.922057 0.075917 0.914584 -1.108883 0.693220 -0.521992 -0.216754 0.774752 -0.340804 0.539675 1.067874 0.557947 0.287891 0.499789 1.095749 1.064882 -1.723358 1.050021 -2.298341 -0.583073 0.119407 0.915213 1.027724 0.098029 0.741663 0.040470 -0.553747 -0.060112 -0.290567 -1.422727 1.462371 0.124609 0.886086 0.512051 0.006973 0.670915 -0.419429 1.163698 0.190586 -0.297001 0.521942 0.712148 -1.579211 -0.335786 0.704591 -1.091930 -1.198030 -0.686253 0.737096 -0.483869 0.128192 -0.603804 0.593515 0.182933 0.092244 -0.196863 0.258605 0.896312 0.074854 -0.964326 0.223176 0.165327 -2.209720 -0.347799 0.652631 1.637722 -1.698329 -1.645911 0.580464 0.519170 -0.373850 -0.885352 0.820313 -0.413153 -0.096389 0.638224 -1.699262 1.287147 -1.372885 -3.059673 0.365383 -0.658550 -0.133573 -0.343895 3.056495 -0.722025 0.402127 -0.920582 0.169007 -0.176195 1.485279 1.329666 -1.254535 0.258802 1.694054 1.771024 1.733290 -1.241279 -0.044919 -0.098994 0.311204 -0.931923 0.216022 0.700400 0.762852 0.463729 0.317233 -0.864927 -0.877690 1.999362 1.070645 1.219952 -0.196708 -2.535625 -0.135774 -0.692588 -1.201170 0.117240 -0.448181 0.030898 -0.208118 0.621511 -0.733166 -1.393299 0.223364 0.141387 0.844576 0.041593 0.709376 -0.207612 -1.203631 -1.554006 2.412290 -0.686958 -0.853765 1.502032 -0.476816 1.168277 -0.089958 1.241589 -0.105410
M022_ON 0.988416 0.478123 -1.483418 -1.047164 -0.134174 -1.958502 -0.166853 -0.771068 0.829656 1.337285 -0.679379 0.438699 -1.250592 0.452869 0.510998 0.484780 -0.182305 0.285644 -1.058179 0.907168 -0.830501 -1.031097 -0.959924 -1.352387 0.850896 1.280681 0.114965 2.299140 1.440845 1.603853 -0.537844 1.463857 0.323983 -0.493994 0.169382 -2.053462 -0.610710 -0.031985 -1.235137 1.265022 0.646530 1.174059 0.809679 0.043324 0.865468 -0.541638 0.421067 -0.358975 0.855363 0.383698 -1.008843 -0.001295 -0.602296 -1.832682 0.261140 1.587572 -0.382330 0.935161 -0.426857 -0.835304 0.215785 -0.094690 0.036647 -0.566086 0.405282 -0.499952 -0.318295 -0.349760 -1.607746 -1.062497 0.209110 0.118534 0.331632 -2.153826 -1.243946 2.880699 -2.553151 0.240822 1.776500 0.412646 0.910940 -0.404711 -0.330902 -2.843539 -0.178807 -2.207244 1.310523 -0.565946 -0.566353 -1.091427 -0.823053 -0.231116 -1.115334 0.458901 -0.413581 -1.569135 -1.959532 -0.906922 0.165267 -1.252712 -0.938110 1.433731 0.347812 1.572531 0.710631 0.505786 -0.199948 -0.467283 0.728061 1.419932 -0.354423 0.873096 1.616312 0.587923 -1.125699 -0.835217 0.103392 0.831431 0.696131 0.518178 -1.867038 0.875347 1.609216 -0.448198 -0.122139 -0.627332 1.303180 0.123698 -0.334778 -0.309160 -0.210991 -1.041099 0.020412 -0.603592 -1.147687 0.782745 0.555086 1.177447 0.615300 -1.594151 -0.449680 1.204211 -0.979648 -0.250319 -0.982087 0.682974 -0.842392 0.492317 1.559186 1.764184 0.945834 -1.066028 -1.113863 1.757594 0.171829 -0.263165 0.291354 -0.509667 -2.210788 -0.285078 -0.719729 -0.118440 0.817647 -2.446103 0.437587 1.117494 -0.328181 -1.526945 -0.321284 0.307713 0.129158 -0.839779 0.166214 -0.360579 -1.490797 0.631433 -2.233877 0.291203 -0.857175 0.604393 -0.171310 0.026795 -0.209884 0.914505 -0.834418 -0.389417 -0.094810 -0.240995 0.186811 -1.132071 -1.613820 0.343908 1.061950 -0.699339 -0.215047 0.382780 -1.086518 3.564283 -2.080276 0.467846
M012_OFF -1.757071 0.517340 -0.219823 -0.029904 -0.842744 0.602211 1.031341 0.640179 -0.147908 -1.431815 -1.218931 -1.065954 1.759189 -0.779743 0.686405 0.441992 1.178530 -0.964183 -0.106807 1.729250 1.312689 0.901796 1.128468 -0.690690 0.230248 -1.826171 1.468795 0.529843 0.474635 -0.141957 -2.239637 0.854331 1.767199 -0.398300 0.455240 1.234086 0.567097 1.320538 0.666316 2.091270 -0.463258 1.328332 -2.108106 -2.220294 0.243040 -0.477148 0.064723 1.711211 1.928065 0.050241 -0.290729 1.009404 0.340235 1.349627 -0.838871 1.731470 -0.153370 0.658854 -0.208331 0.005862 0.202249 0.019102 2.024186 -0.372942 -1.514964 0.499533 1.335780 0.086293 0.327165 -0.170839 -1.194779 -2.256880 0.019210 -2.003978 -0.819275 1.211520 -1.693842 -1.511954 -0.616038 -1.246654 0.850194 -0.903986 0.928046 0.791665 0.878072 0.803433 -0.336058 0.928207 -0.865976 -1.320810 -1.628318 0.954910 -0.928406 0.047294 0.881582 1.749238 -0.769544 0.010129 -1.845295 0.540879 -0.411756 -0.419919 -0.617987 -0.146093 0.678801 0.073313 -1.455821 -0.977513 1.574554 0.860245 -3.424585 -1.045301 -0.149766 0.162737 0.251486 -1.983687 -1.111972 0.138480 -0.688333 -1.079389 1.227930 -0.253574 -1.556091 0.001445 -0.879362 -0.831275 -1.528721 0.029540 0.007592 -1.160509 -0.177212 -0.538776 0.376161 0.483797 -1.226534 1.478740 -0.986717 -2.017881 0.143142 -0.109386 0.956019 0.741679 0.120894 -0.127157 -0.771304 1.072024 0.704419 -1.210076 0.407808 -0.455129 1.152346 -0.098926 1.527294 -0.036650 1.534420 0.418053 0.835927 -0.620920 -0.541186 0.297811 -0.798036 0.087866 -0.428746 0.835245 1.842228 -1.284141 0.225565 -0.156313 0.840686 -1.615311 -0.673729 0.213454 -1.069925 0.257660 -0.942314 -1.598848 1.892627 0.850476 0.156861 1.902625 0.456493 0.385269 0.172722 1.093051 -0.858275 -0.253059 -0.127828 0.596543 -1.044241 0.872475 2.176744 -0.391526 -0.450011 -0.678275 0.782187 0.282500 -1.664320 0.100579 0.899005 0.111646
M012_ON -0.471569 -0.609309 0.826185 -1.266675 -1.909935 -0.056291 0.420385 -1.040534 0.689321 0.157108 -0.478814 -0.544481 0.530085 -0.039155 2.442557 -0.434860 1.185748 -0.003610 -0.929047 -0.216138 0.858367 0.351998 0.351347 0.661504 0.601868 0.756164 2.310784 2.125406 0.046550 -0.287786 -0.586848 0.717648 1.735068 0.769782 0.179969 2.739572 -0.669951 2.286483 0.689177 -0.806775 -0.607726 0.748769 -1.870794 -1.398835 0.424727 -1.274438 0.082058 1.736421 0.743576 0.335369 -0.214856 1.704059 0.381057 1.392978 -2.134355 -0.693281 0.069115 0.314598 -0.928385 -0.487484 0.264977 -1.098111 1.867834 -0.188996 -0.231220 -0.507689 2.356006 -0.486128 2.054157 1.230605 -1.069506 -0.996431 0.486501 -1.499424 0.099706 0.757426 -0.464484 -2.147452 -0.526328 -1.391141 -0.151971 -1.424440 -0.588317 -0.680482 -0.839331 0.046701 -1.458978 1.101913 -0.246386 -2.712940 -0.691591 -0.856980 0.002302 0.200583 0.807626 0.855221 0.157210 -0.091205 -0.552951 0.694632 -0.334141 0.464670 0.844811 1.010512 -0.950010 0.940612 -0.591034 -0.568874 1.281552 0.787044 -0.346699 -0.516929 -0.939120 1.308673 0.832073 -1.422312 -0.701417 0.083439 -0.033679 -0.538498 -0.994338 -0.655314 0.404745 -0.325703 -0.197088 -1.061834 -1.141569 -1.017822 -0.809611 0.689158 -1.868534 0.660005 -0.467724 -2.049346 0.288655 -1.442165 -0.492555 -0.135232 -0.621510 0.174481 1.610897 1.003329 -0.418669 -0.215720 -0.293370 -0.406085 -0.390172 0.123658 -0.050511 0.220986 -0.445440 -1.421982 0.480585 -0.300332 0.600468 -0.581476 -2.381836 0.045076 -0.275950 -0.115580 -0.899845 -0.386998 -1.584318 0.560590 -0.873736 -1.047016 1.280195 0.064103 1.098027 -3.274214 -1.037783 1.611716 0.467570 -0.078858 0.386620 2.483012 0.740855 1.461017 0.060866 1.857571 -0.226432 -0.647751 0.578752 1.073262 -1.011172 -0.011511 0.258464 -0.131574 0.722772 0.033545 -0.303521 0.457030 -0.177038 1.616772 -2.406314 0.438886 -0.745270 0.244766 -0.621859 -0.328303
M016_OFF 0.283136 1.029671 0.039835 0.265139 0.770395 -0.235722 -0.632255 0.987353 -0.344685 -0.189281 -0.760516 -1.461276 1.259212 -0.004385 -1.724607 -0.057167 -0.262229 -1.732923 0.165507 1.576126 -1.391023 -0.005860 1.551255 -0.363381 -0.767314 0.120129 -0.398954 -0.707535 1.317897 0.184743 2.196732 -1.657747 0.305494 0.611515 1.942136 -0.985500 0.893291 0.975812 1.548179 -2.211927 -2.097329 -1.093724 0.839464 -1.476241 0.059977 1.372997 -2.291255 -2.077158 0.875232 0.513258 1.006197 -0.909752 -0.254511 -0.488425 0.152743 0.632081 0.871859 -1.319730 -1.544135 -0.958006 -1.014436 0.866662 0.168444 1.172828 0.129928 -1.479785 -0.732756 -2.319019 -0.926852 -0.405554 -1.573492 -0.658354 0.474680 -0.838783 -1.040530 -1.338468 1.415233 1.152112 -0.726530 -1.525182 0.164033 1.007469 0.073404 -0.863514 -1.428382 0.934507 1.183450 0.005558 1.985855 1.491765 0.000750 -0.204793 0.482389 -0.725162 -0.352642 -0.604673 -0.833092 0.922714 0.679985 -0.970004 1.131621 0.212308 -0.839447 0.327329 -0.914168 0.587797 -1.636552 -0.360851 0.400824 -0.161663 1.641612 0.202968 -1.356317 -1.106215 0.704225 -0.514743 1.631103 -0.463044 -0.233009 0.686490 -0.268581 -0.663701 -0.745306 0.746045 2.158158 1.536633 -0.924289 0.762478 -0.717537 0.659083 -1.058256 1.170165 -0.422898 0.377472 -0.664279 -0.073067 -0.252899 -0.399952 1.413352 -0.413071 0.114574 1.035656 -0.228949 -2.519508 -0.557909 -0.304578 1.024513 -0.760064 0.910059 -0.392432 -1.927098 -0.084828 0.049280 0.518281 -0.869317 1.370296 -0.174898 0.259240 0.649318 0.817548 -0.355328 -0.193450 1.248274 1.775966 1.474059 2.643436 -1.642896 -2.568899 -2.313283 -0.249619 1.728782 0.436901 0.042855 -0.909067 0.449480 -0.495695 0.023687 0.350400 1.022595 0.373180 -1.218663 2.260548 0.882587 -0.957428 1.805706 0.875049 0.209407 -0.016872 -0.379897 -1.065012 0.130258 0.153885 0.279856 -1.508214 0.258215 -0.421821 0.853729 0.298601 1.047498 -0.340478
M016_ON -1.064419 -0.872362 -1.544545 -0.419448 -2.364237 -0.606018 -2.309676 2.275194 -1.538394 0.867711 -1.363202 -3.286247 0.794380 -0.388252 -1.761722 -0.531590 -1.161030 -0.594128 -1.438180 2.254098 1.547587 0.956205 0.859584 0.374660 -1.187560 -0.425778 -1.150297 -1.008479 0.710196 0.232688 1.456108 -0.978073 -0.306028 -2.675434 0.347116 -0.789204 -0.386558 -0.819628 1.665273 -0.974249 -0.457290 -0.738153 -0.363861 1.183793 0.042030 0.293619 -1.184144 -1.135066 0.785720 -1.070533 0.057169 -0.802177 -0.516190 -0.795806 0.783862 0.162915 -0.270582 0.424701 0.720554 -0.647829 0.342132 -0.225177 -1.113505 -1.344069 0.711923 -0.924151 0.399191 -0.678468 0.605612 -0.593087 -0.094091 1.091359 -1.249140 0.781533 -0.391464 0.223736 1.141559 1.212484 -0.972088 -0.835423 1.962466 0.697018 0.183562 -1.345023 -0.692534 -0.348781 0.331927 -0.241575 -0.224799 1.442972 0.174462 0.880842 0.002132 0.226939 0.412135 -1.116864 0.085787 -0.372593 0.754241 -0.818587 0.516447 1.226523 0.061232 -0.557498 0.373504 1.425260 -0.722587 0.456896 -1.185199 1.466601 2.131783 -0.009162 -1.141424 -1.121282 1.836483 0.209725 0.144583 0.348555 0.787310 -0.324207 -0.143416 0.267153 -1.513836 0.640352 -0.452324 -0.066826 0.672753 0.015287 -1.265555 0.147057 -0.141967 0.582820 -0.007284 0.353857 2.138188 -1.419903 -0.918843 0.447385 2.875107 1.465644 0.346709 -0.877701 1.732817 -0.859999 -1.939345 0.067767 0.658610 -0.156266 0.115137 0.689330 -2.573381 0.829054 1.862638 -1.679065 -0.991780 -1.041808 0.813883 -0.625519 -1.287696 -1.852937 -1.308806 0.354594 -0.016359 0.732022 0.503753 1.658422 -1.127714 -0.559375 0.056444 -0.931425 -0.743822 0.880949 0.338706 -1.203344 -0.071214 -0.082870 -1.280784 -0.056332 0.917743 -0.463494 -2.317086 0.068686 0.046118 -0.385489 0.596026 0.089841 -1.026161 -0.373141 1.995220 0.862612 -0.804464 -0.097556 -0.913216 0.723274 -0.569645 -1.232486 0.639639 -0.324452 1.601735 0.962082
M006_OFF -0.149947 0.005030 0.795684 0.645542 0.762040 0.323919 0.505989 1.083361 1.524051 -0.244408 -0.679504 2.330878 -1.483603 -0.697556 -0.441447 0.098728 -1.608971 3.786514 -0.415992 -0.818583 0.284609 1.498508 -0.238871 -0.352039 1.205568 0.178795 1.724013 -0.350875 0.063267 0.489561 -1.345677 0.496767 1.052973 0.660009 -0.595645 -0.699118 0.706401 -0.701871 0.282631 2.224659 2.511030 -1.354405 1.175502 0.880366 1.308215 -1.003524 3.234890 -1.546692 -0.894214 1.263071 0.559907 -0.602600 0.877082 0.788851 1.414820 0.281106 0.821438 1.725020 0.704373 0.546122 -0.929541 -2.100945 -0.993031 0.624020 1.902058 -1.104760 -1.232324 -1.163730 -0.708003 -1.593320 0.278143 1.062016 -0.793118 0.399758 1.243803 -0.709314 0.723655 0.722627 -0.436864 -0.911573 -0.366525 -0.474100 -1.302765 -0.454221 1.356541 -0.803019 -1.459993 -1.772597 0.470155 0.420691 0.739591 -0.446648 -0.040224 1.166446 -1.186907 -0.153959 -1.311518 -0.508483 0.567724 -0.727913 -0.228519 1.561554 0.797981 0.510279 2.088573 0.381076 0.071856 -0.127126 0.037548 -0.516849 0.577542 0.730766 0.352410 -0.707498 -1.402813 0.438831 1.016835 -0.954933 -0.835338 0.423919 0.327476 0.617310 1.081676 -2.424652 -0.595926 0.430135 -0.945696 -1.799353 0.547028 3.096217 -0.156225 1.101066 1.048736 -0.062679 -0.514354 1.074443 -0.693673 -0.967791 -2.450958 0.035163 -1.806678 -0.641593 -1.065415 1.632643 0.984292 -0.123187 -1.793572 1.341440 -1.453630 0.560193 3.067484 -1.469075 -0.193190 1.063782 0.148522 2.281724 0.939741 -1.396713 0.518162 0.748247 1.912219 1.933838 1.064067 -1.421265 1.411384 -3.083096 -0.266892 -1.241415 1.384259 -0.260734 -0.351859 -0.731663 -1.657957 2.697222 0.256226 -0.840220 -0.291086 0.066813 -0.665156 0.616314 -1.268513 -0.534707 -0.167982 -0.442497 -0.662212 -1.502919 -1.457804 -1.000891 0.597605 -0.643561 1.993896 -1.633535 -0.859590 2.638537 -0.137243 0.524469 0.637617 -2.170506 0.044588 -0.501257
M006_ON 0.183589 2.476053 -0.084426 0.782845 0.145936 -0.935697 -0.117100 -4.553030 -0.771603 1.126879 -0.027419 1.201308 -1.529111 1.814656 0.256390 0.994448 0.979439 -1.431513 -1.262749 -1.709567 1.521829 -0.183566 -1.084616 0.755851 -1.377144 -0.607552 -0.641029 0.668920 -0.494462 0.014922 2.271375 -0.467319 0.060732 1.992025 -2.062979 -0.701436 1.065700 -0.366225 -1.238065 1.346318 1.847044 -0.528360 -1.623872 1.343834 1.024364 0.230759 0.602727 0.504664 -2.075970 0.250412 1.109786 -0.784786 -0.266654 1.150027 -0.429237 1.063900 0.823758 -0.126487 -0.262197 0.584167 -0.103440 1.501664 0.315064 0.652376 0.070088 1.356177 0.140150 -0.718904 -1.838206 -1.334224 -1.301098 -2.133348 0.548167 2.023474 1.213838 0.385345 -0.915455 -0.279568 1.260320 -2.096026 -0.309141 0.054067 0.952905 0.395055 0.228056 -0.057208 0.640335 -0.376217 -0.611123 -0.555744 3.127859 -1.401462 0.184398 -0.612352 -0.865069 0.329542 2.223180 1.778840 -0.245016 -1.086224 -0.620246 -0.750595 3.135705 -0.380488 1.157309 1.365533 0.647185 1.422401 -1.247827 -0.429558 -1.034370 -0.259797 1.043420 0.735626 0.020971 0.675290 -0.439774 0.729576 0.957852 -0.211956 -1.767148 0.337578 -0.621514 1.207120 0.408879 -3.712025 0.587400 -1.576942 1.466199 0.170148 0.297446 0.276423 -0.756861 0.227473 0.525563 -0.650606 0.761959 -1.634696 0.073973 -0.233815 -0.903174 -1.383297 -0.207631 -0.026152 -0.115280 0.385749 0.109075 -1.831645 -1.196758 0.391573 -0.023602 0.274091 -2.093474 1.279951 1.198845 -2.307293 -2.144956 0.206806 -1.515743 1.425470 1.739311 -0.134146 -0.271257 0.252452 -2.322888 -0.638344 0.841090 2.852585 -0.541256 1.362180 -0.372965 -1.219154 -0.070583 -0.872464 -0.214786 0.757957 -0.207047 0.177805 -1.612235 -1.141086 0.873561 -1.462493 -1.070318 -0.433018 -0.518037 -0.074995 2.590585 0.749997 0.326963 2.404056 0.543144 0.834639 1.506180 -1.619068 2.998894 -0.278127 0.170547 -0.483768 0.429345 -0.398221
M026_OFF 0.712975 0.438174 -0.271144 -0.892481 0.421173 0.049839 1.000111 1.542326 0.302935 0.144028 1.137738 0.182707 1.092349 -0.416291 0.687347 0.291684 2.055668 0.355215 0.648925 -2.173018 -0.835977 -0.057143 0.433265 -1.876232 0.346916 -0.330213 0.495930 0.440236 -0.231159 0.517350 -2.236236 -0.980066 -1.049255 -1.762331 -1.217889 -1.904830 0.059457 -0.385205 0.328013 0.472075 -0.376520 0.792934 1.415145 -0.437241 -0.508604 -0.501424 -0.819099 -0.753798 0.217996 0.504476 -0.301444 -0.914660 0.461290 -0.829091 0.190508 1.166931 -0.796459 -0.905310 1.725055 0.289101 1.464975 -0.726493 -0.315186 -1.124168 0.427867 0.769058 1.134936 0.731318 -0.676380 1.407070 1.423083 1.370655 -0.143978 0.677408 -0.466709 -0.024546 -0.209093 -0.773871 -0.096880 1.195668 0.431839 0.027881 0.075348 -0.663137 -0.763264 -1.213115 0.056078 -0.340765 -0.228856 -0.299948 0.874604 1.178619 0.309879 -1.130696 0.842549 -0.332638 0.747835 0.282321 -0.995031 0.049842 -0.115294 -0.683506 -1.077142 0.504067 -0.305268 -0.381866 0.684206 1.061433 -0.495738 1.093195 0.733686 -0.548669 0.791281 -0.263457 0.670382 0.962631 -0.341618 -0.086561 0.618679 0.448301 -1.171423 -0.066519 -0.366163 0.270941 1.405385 -0.317264 -0.436603 0.912945 -0.118534 0.167175 -1.631062 1.041746 -1.617127 -0.458600 0.249299 -0.150831 0.434198 -0.096754 -1.518367 -0.228292 -0.119160 -1.186213 -0.347483 -0.175593 0.303934 1.000036 0.207941 -0.678654 0.664061 0.920737 -0.132386 -0.369513 0.348083 0.074839 1.245844 1.075918 0.152804 1.569928 -0.729042 -0.430018 -0.381929 -0.338645 0.973050 -0.034292 -0.224752 0.099620 -0.950233 -0.664162 0.762715 0.036998 1.583037 1.385440 0.673379 -0.151574 0.923776 1.149237 0.810725 0.616848 -0.717799 0.054521 0.414607 -1.165838 0.086747 -0.113819 -0.927413 -1.115541 -0.224753 -1.085420 -0.407423 -0.184462 -1.053992 1.993959 0.227116 -0.973562 0.842016 0.763326 0.611593 -1.157640 0.979070 1.745961
M026_ON -0.240587 0.361967 -0.562050 0.363043 0.729738 -0.073549 1.303279 0.889156 0.316612 -0.444922 0.226350 0.628514 0.020658 -1.608231 0.198614 0.527351 -0.302810 0.646996 1.801497 -1.922823 -1.026074 -0.126704 0.671411 -0.241732 0.437254 -0.191877 -0.173601 0.682414 0.303135 0.126012 -1.165610 -0.935153 0.526520 -0.878869 -0.227580 -0.110120 0.002086 0.111911 -0.206350 -0.221840 -1.082106 1.952059 1.164194 -0.923594 -0.695785 -1.014235 -0.017420 0.695634 0.151655 0.341360 -0.151104 -0.556327 1.601132 -2.004750 1.368298 1.486749 -0.518876 -0.752101 0.520791 0.401909 1.130440 -1.282431 -0.575635 -0.966993 0.044319 0.396359 -0.156937 0.858245 -0.809725 -0.544098 -0.335793 1.286215 0.404680 0.425252 -0.710209 -0.067765 0.104473 -0.602362 -0.022175 0.704560 -0.286590 0.412773 -1.017059 0.084851 -0.797364 -1.055402 -0.184766 1.030907 -0.387610 0.197811 0.680955 -0.276546 0.339921 -0.821571 0.540419 -0.763990 0.286166 -1.382851 -0.594391 -0.250384 -0.420001 0.238500 -1.426970 0.569241 -0.352124 -0.180034 -0.391667 -0.039737 0.209758 0.590855 0.953068 -1.104829 0.121505 0.323694 0.647326 0.676669 -0.398203 0.436039 -0.675600 0.309997 -1.170644 -0.586749 -1.920740 -0.138122 1.193049 -0.209138 0.231234 1.686352 -0.511077 0.639418 -1.045776 -0.442123 -0.505075 -0.248879 -0.098589 -0.044782 0.497198 1.036958 -2.024004 -0.140379 0.373971 -0.300990 -1.495846 -0.213258 0.197773 1.947908 -0.481903 0.078755 0.352250 -0.105464 -0.293440 0.042970 -0.329264 0.554423 0.017685 0.259366 -0.295824 0.958800 0.333823 -0.734086 -0.688869 0.469551 0.076097 -0.102664 0.176749 0.496650 -0.605242 0.409009 -0.823661 1.436407 -1.251809 -0.235732 -0.640063 -1.334921 -1.633578 -0.007903 -0.574680 0.645799 0.775454 0.068140 0.676904 -1.377147 -0.132953 1.915663 -0.443074 1.174606 0.821744 0.067810 0.321965 1.958071 -0.161882 1.193382 1.378214 -0.589646 -0.224036 0.057565 0.149505 0.149127 -0.582298 0.824661
M004_OFF -0.345912 -0.913085 3.517828 -1.757021 3.147259 -0.033608 0.023358 -1.767510 1.922514 0.050409 -0.569212 0.592421 -0.011912 1.919120 -1.369794 -1.142374 -1.462158 2.151245 0.170243 -1.376501 -0.007722 -0.852197 -1.024412 2.017749 -0.483696 -0.066043 0.981852 -0.219898 -2.443590 0.767237 1.109443 0.110478 -0.013474 0.404251 -0.878605 -0.389803 1.136307 -0.369845 -0.550890 1.201059 1.158241 -0.809358 -1.345648 1.587832 -0.315850 2.834460 2.268039 -1.322605 -0.684440 1.266728 0.093674 -1.434718 0.922136 1.117133 -0.496717 -0.027398 0.764161 0.388620 0.079921 1.888506 0.692231 -0.347639 1.124958 0.116963 -0.020538 0.833696 0.399502 0.568008 -4.413056 -1.613782 -2.538095 0.580363 1.831835 0.121137 0.397856 -0.875043 0.495078 -1.560241 0.688294 -0.972966 0.240567 0.652925 -0.263034 0.823340 -1.794918 -1.453110 0.784285 -0.784167 -0.842865 1.269082 3.041332 -0.996411 1.536628 0.812750 -0.830614 1.154396 1.249736 0.992598 -1.075601 0.269369 0.049295 2.113877 2.012787 0.115947 1.149222 1.144599 0.767683 1.679901 0.005032 -0.827828 1.528248 0.610333 0.655906 0.223128 -1.061949 1.761843 -0.468234 -0.429055 1.068122 -0.888297 -0.301378 0.561871 1.050790 0.055418 -1.246823 -2.796951 -0.671548 -0.485716 0.955863 1.567867 0.521676 1.312953 0.443209 -0.234873 0.706002 0.195355 0.068750 -0.157286 -1.326871 -0.068690 -1.554753 -1.475571 0.872698 1.939632 -0.305732 0.895185 0.067073 0.089362 -1.951551 -0.645203 1.894487 -0.618403 -0.580222 1.069460 2.174511 0.204959 0.466580 -1.620233 -0.152633 1.002433 1.159692 0.777996 1.357417 -2.276458 0.551576 -1.368693 1.494758 1.372175 -0.153038 0.838627 -0.481668 -1.655418 -1.244483 0.197297 -0.908291 -0.360405 -1.986613 -1.161570 -1.442551 -1.883997 -0.858601 -0.691549 -1.663665 -1.436100 0.640311 -1.438051 -0.831967 0.055617 0.614008 0.842354 1.478795 -0.225994 -0.606175 1.842373 1.165161 0.140244 1.126682 -0.487122 0.520240 -0.447243
M004_ON 2.817582 1.597578 -1.114450 0.562962 1.293299 0.153073 1.097819 -2.653342 -0.358104 -0.470333 -1.032862 2.809388 -3.325994 -0.342664 0.391591 -0.651248 -0.402823 2.526143 0.219686 -0.055033 1.562779 0.904641 -0.870825 0.815016 1.103005 -2.304727 0.617306 0.706284 -0.217580 1.093763 0.435885 -1.065995 2.223731 -0.134158 -1.121932 -0.199489 -0.023532 -0.172782 0.028603 2.315234 0.711542 -0.151197 0.436981 -0.451843 1.471292 -0.477034 0.253473 0.341837 -3.035766 0.287056 1.534297 1.107760 0.334009 2.307911 0.675121 -0.267581 -0.711270 1.505560 -0.252189 -0.613390 -0.748776 -1.328788 -2.542142 2.013825 0.176073 1.071539 -2.164000 -0.950455 -1.745751 0.267699 0.153193 0.525344 -0.205086 0.603875 2.185545 0.231831 -0.906732 1.496280 -0.184282 -0.397353 -0.133387 1.282881 0.410595 -0.782925 1.795444 -0.615711 -0.678230 -1.582299 2.607133 -0.722919 0.470657 -0.783046 1.693230 -0.639260 -1.334248 -0.641557 -0.138639 -0.625133 0.937475 -1.655070 -0.800092 -1.147449 0.009010 0.244674 2.588461 -1.342345 -0.116265 -0.714924 -2.241689 0.700900 1.033694 2.293364 -0.135770 -1.030012 1.149425 1.933420 0.772004 0.315835 -1.197695 -0.097685 -0.106057 1.398282 1.119799 -0.720683 0.551421 -1.549104 0.272467 -0.562583 1.825569 1.514068 1.379153 -0.145414 1.025673 1.591561 1.078361 -0.952484 -0.196130 -1.520378 -0.020214 -0.023727 -1.610075 -0.583360 0.039173 1.193616 -0.432920 -2.091604 0.679504 -1.237828 -1.836606 -0.897651 2.164709 -0.851536 -1.680741 0.189266 1.003318 -0.919844 0.095816 -0.040070 -0.651778 1.993706 2.235991 0.802002 1.123996 -0.655186 -1.772696 -3.148948 -0.496725 1.509222 -0.862614 1.436012 -0.458572 0.650741 -0.754362 0.127350 2.466953 1.577242 1.254432 1.200261 -2.104911 1.280295 0.431630 -1.018592 -0.783708 -0.438522 -1.225460 0.702393 -0.019376 0.260062 -0.120245 -0.141998 0.730000 -0.881755 0.311032 1.534473 0.723436 -0.534395 -0.986512 -1.345071 -0.343280 -0.552712
M027_OFF -0.157656 0.690070 -0.572554 0.610767 0.727378 0.404006 0.740354 0.808495 0.595129 0.086507 0.483117 -0.624580 -0.097711 -1.015053 -0.911380 0.208640 -0.995040 1.995522 0.667250 -1.195306 -2.254931 -0.861687 -0.755522 -0.800487 0.848951 -0.067802 0.316493 1.221024 1.284857 0.358259 -0.016743 -0.855004 -0.323566 -1.162365 -0.524309 -0.267101 0.506233 0.843422 0.460676 0.359409 -0.266588 1.989131 1.395122 0.529411 -2.042597 -0.633018 -0.293809 0.381504 0.856052 -0.251609 -0.385531 -0.283020 1.104727 -0.861548 0.576337 -0.269330 1.331781 -0.546690 1.544567 1.148892 0.942589 -0.351584 -0.005268 0.136259 0.211862 1.728455 0.931179 0.594025 -0.860752 -1.361749 0.013137 0.784084 1.093498 0.006152 -0.623298 -1.575259 1.562734 -1.244824 0.049786 0.364603 0.976408 1.141035 -0.479404 -0.096588 -0.647049 -1.272895 0.712842 1.558017 -0.421475 -0.623117 -0.207533 0.614618 0.539757 0.056539 0.559972 -0.916525 0.459819 0.126078 -0.763827 1.572904 -0.876283 -0.807430 -2.794660 0.730286 -0.654856 0.018291 0.076051 0.321808 1.163153 0.738441 -0.281372 0.822057 0.778467 -0.410492 0.128997 0.344314 -0.809995 -1.413715 -1.350162 0.237625 -1.637793 -1.017713 -1.285680 0.218278 1.964275 -0.873905 -1.990170 0.615107 -0.337982 -0.080292 -1.249913 0.622407 0.136346 -0.971380 0.238747 -1.078673 1.074143 1.106419 -1.545153 0.108849 0.397464 -0.879568 -1.484693 0.413155 1.207981 2.817650 0.822979 -0.479138 -0.418564 -0.550831 -0.072896 0.356466 -0.076485 -0.114887 -1.259704 -0.100093 -0.403981 2.643111 1.496845 -0.205756 0.201749 0.743297 -0.441266 -0.168150 0.236132 1.930417 -1.707323 0.379308 0.938532 1.093023 -0.457284 0.692723 1.373531 -1.026881 -0.379087 1.352254 -1.150380 -0.045587 0.901090 -0.229367 1.006879 -1.655767 0.122619 1.348411 0.055734 0.275544 0.440069 -0.606140 -0.625030 0.097650 -0.613993 1.289725 1.058003 -0.602769 0.485548 0.697812 0.540814 1.175178 -0.748928 2.307420
M027_ON 0.897542 0.113782 1.042152 -0.721069 -0.159992 -0.524068 1.128165 0.705145 0.911680 -1.168813 -0.105032 0.284960 0.232776 -1.421620 1.910807 -0.386760 0.580203 0.649582 0.626090 -2.468648 -0.792192 0.471087 1.306954 -0.651392 1.420797 -0.818469 -1.113389 0.226523 -0.381076 1.070810 -3.606705 -1.850877 0.840026 -0.608555 0.291697 -1.224091 0.017661 0.114999 -0.782250 -0.680871 -0.834855 0.589002 1.095111 -1.533346 -0.612334 -0.968621 -0.838479 -1.370664 1.754787 -0.965506 -0.395785 0.064876 -0.750669 -0.028605 0.365308 0.427744 -1.404401 -0.927556 0.894212 -0.610750 1.715876 -1.187997 -0.526480 -0.818477 0.536223 -0.517970 -0.523058 1.622950 -0.061230 -0.153088 0.869155 -0.393553 0.298295 1.464605 -1.627307 0.672065 0.089006 0.007768 0.627531 1.676814 -0.448146 -1.077414 0.131298 -1.231728 -0.048115 -0.524867 -0.583182 -0.142860 -0.796956 0.040832 0.411741 0.415300 -0.121692 -1.692288 1.039661 -1.118555 0.590842 -0.687497 -1.069933 -1.597616 -0.845413 0.675339 -1.194062 0.768497 -0.329499 -1.300116 -0.559368 -0.064308 -0.449862 1.090927 1.981081 -0.685590 0.320528 -0.373470 2.015962 0.420904 0.385234 0.406873 1.898874 0.176739 -1.273169 -0.444786 -0.080859 0.370579 0.515130 -0.015993 0.232802 2.707498 -1.234311 -0.382490 -0.340474 -1.175934 -0.983422 0.179981 -0.053775 -0.267674 0.565547 0.414342 -2.057781 0.286153 -0.994789 -1.054214 -0.079672 -0.523182 -0.254372 1.624424 -0.765027 1.319830 1.096785 1.787791 -0.194391 -0.774776 -0.690310 0.830655 1.092751 0.756472 -0.929491 0.610231 -2.329177 0.103158 -0.867180 -1.435119 0.433771 0.396647 -0.474703 0.281893 0.953820 -1.550122 0.328922 0.217643 1.005052 0.832134 1.007921 -0.969911 -0.232288 -0.043345 0.933710 -0.182032 -1.543913 0.302537 0.079713 0.212675 0.313948 0.119620 -1.821083 -0.322336 0.484909 0.568348 -0.370605 -0.484389 -1.859248 1.499933 -0.542193 -1.579663 0.540810 -1.482101 0.751184 -1.081528 0.707571 -0.288527
M023_OFF 1.055917 -1.217706 -1.123241 -1.289605 0.126774 -0.748216 -1.047856 2.515576 -0.519942 0.025210 -1.131810 -0.325087 1.932113 3.314986 -0.935249 0.401686 0.714355 -0.140411 1.467014 0.475729 -3.229685 -2.665642 0.116152 -0.918119 1.152330 -1.097614 1.100368 2.133024 1.878155 1.016148 -2.811884 2.161258 0.575339 -0.016029 -1.080615 0.553550 -0.728914 0.868968 0.730581 1.475338 0.273985 1.320874 -0.286146 0.784787 0.295508 0.166118 -0.415582 -0.283717 -0.380229 0.249751 -0.483124 1.667660 -1.124074 1.061561 -1.169797 -0.639097 -0.315028 -0.728903 1.131126 0.431266 0.730926 -0.001576 -0.456826 -0.293264 -2.125787 -0.568786 -1.084382 0.561510 0.786823 -0.295280 -0.406649 0.557414 -1.153345 -0.464501 1.353529 0.292058 -1.686669 -1.038186 0.495941 0.865202 0.334538 1.078091 -1.992737 -1.361712 -0.734434 0.271020 0.181248 -0.537426 -0.301719 1.871388 -1.166961 0.515840 -0.356187 -0.444191 -0.529459 0.196288 -1.322975 -0.328980 1.916619 1.579359 0.674371 0.873632 -0.291516 3.116826 0.501834 -0.572765 -0.095649 -1.599011 1.552397 1.001014 -0.146201 0.169095 0.116292 0.114730 -0.503528 -2.220073 1.761295 2.459140 0.688140 0.533231 -0.293319 -0.368818 -0.289840 -0.887903 0.088537 -0.693953 1.810467 2.215032 -1.555028 0.107454 -0.353008 1.100284 -0.673037 -0.812838 -1.235823 -1.619633 0.824975 1.297252 -1.414033 0.290712 1.413034 2.153715 0.122448 2.741932 -2.759856 -0.249342 -1.602312 0.052707 2.808418 -0.806097 -0.554507 1.683154 -0.450808 2.526483 -0.767540 0.944907 0.704056 0.483516 -1.901234 -2.450905 -3.766129 -0.327130 3.628205 -0.506334 -0.303357 0.232932 -1.804823 0.208561 -0.568573 -0.071030 0.578104 -0.070409 0.159979 0.845874 1.171005 1.068653 -2.226193 -0.017796 -0.835104 -2.158127 0.802268 -0.830446 -0.603679 -1.467851 0.438906 -0.847081 0.028294 2.431315 -0.474030 -0.982394 -2.414467 3.996697 0.897403 -2.882820 2.332566 2.107932 0.777404 0.719521 -2.754685 -0.393468
M023_ON 3.794386 -2.162095 -2.978011 -1.220939 0.577709 -0.654844 1.855114 -4.918974 -0.028221 1.062488 1.698405 -0.554799 -2.102196 -2.517338 -1.739753 0.655078 0.164208 0.568694 3.087870 -1.024354 1.492782 -1.002489 0.131601 0.102374 -0.657706 0.649713 -0.527637 0.069228 0.509121 -1.599344 0.223385 0.514780 -0.112156 -0.133225 0.524969 1.554043 2.786352 -2.161953 0.907319 -0.768618 -1.403897 2.451502 0.875373 -2.082098 -1.644780 -2.344384 1.142009 -1.161909 3.299872 -0.376500 -2.129491 0.495703 -1.070663 -2.451054 2.624909 1.020342 0.333465 1.064367 -1.338761 -0.295511 -0.656645 1.494296 -0.512585 -0.167457 0.578287 -0.880421 2.130095 -1.927610 0.126007 1.936591 -0.738138 0.442155 -0.107298 -1.405864 -1.271107 1.375655 -0.060369 -1.554298 -0.360279 1.121756 1.611916 0.942535 0.365450 0.014095 -0.126800 -0.210645 0.236669 -0.979791 -1.963095 -0.673559 -0.825829 -0.026682 0.209968 0.709133 2.633419 -2.072535 0.773219 -2.240779 -0.344858 0.398595 -0.372523 -1.012867 0.329613 -0.906411 -1.910444 0.764266 -1.365397 0.977209 -0.932407 -0.675841 0.346250 -0.291066 2.571069 -0.352857 -1.146864 1.347712 -1.900156 -0.901868 0.246302 -0.250276 -1.533438 -2.087189 0.745190 0.419488 0.706662 -0.334366 -0.525291 0.226653 -0.311683 -2.034921 -0.712101 -2.308625 0.137374 1.217069 0.779442 0.575175 -1.522614 -0.848422 0.863637 -1.474604 0.332557 0.027538 0.202045 0.123199 0.967153 0.780800 -0.742025 0.537171 -0.303123 1.894362 0.279687 -0.203332 -0.185280 0.536926 1.006646 0.071056 -0.454177 -1.073972 1.194003 -0.729603 0.123503 -0.088189 -0.495447 -0.540879 -0.616993 2.545722 0.930589 -0.993829 2.300830 2.129895 2.116498 -0.111868 0.009613 -0.368709 -1.020463 -1.512753 -0.176653 -1.161617 0.419427 1.338850 0.609108 0.695106 -0.335201 0.010331 0.251596 0.573355 -0.901670 0.317340 1.296025 -1.984744 -3.344480 0.690310 -0.769108 -0.521047 -0.172492 -0.931593 0.432160 1.329375 1.105750 1.248180
M001_OFF 0.008434 -2.662657 0.766357 -3.132189 0.849462 1.405316 2.486288 1.502081 -0.867980 -2.265458 0.585653 0.620586 -0.085079 0.593512 0.193907 -0.111120 1.899319 0.731108 -0.102175 -1.389211 1.811490 -0.144233 -1.464021 -0.212474 1.704135 -0.660809 0.666603 -1.486038 0.492642 0.290256 1.976349 2.227098 1.084517 0.437301 -0.270410 -0.405184 1.082813 -0.628056 -1.556446 2.319526 0.731072 1.728060 1.375794 0.787065 -0.408487 0.532553 -0.448943 0.050283 -2.013986 0.020643 0.679743 -1.063930 1.456429 -0.388135 0.196615 -2.217532 -0.096250 0.132633 -0.513063 -0.682605 -0.481499 1.137263 -0.137660 1.138051 -0.645882 1.446008 -0.460696 -1.022539 -0.249128 -0.020383 0.552992 -0.002796 0.634285 0.309711 1.976072 -0.370764 0.023548 0.556307 -0.570916 -0.975306 -0.620151 0.899029 -0.058449 -0.251836 1.090189 -0.579750 0.719255 -0.035409 0.590584 -0.501571 2.500720 -1.198892 1.800519 2.777906 0.230539 -1.050595 0.907300 -0.632190 -0.701019 -1.470110 0.355661 0.386874 -0.719124 1.704910 1.503366 -0.036596 1.172079 -0.128310 -1.416329 -1.449314 -0.178211 0.614843 0.091677 -1.893893 -1.199093 0.003698 0.655703 1.536843 -1.438917 0.744508 0.719817 0.609349 0.113325 1.880579 1.735525 -2.167114 -0.872051 0.308232 0.908235 0.778481 1.519543 0.458821 -0.466916 1.256058 1.202825 0.515768 -0.962179 -0.598356 0.725991 -1.350873 -0.011834 -2.365730 1.089406 1.818698 -1.051479 1.658232 -1.622348 0.939722 -2.245200 -0.091941 0.328706 -1.490408 -0.715014 1.977864 0.229637 0.261124 0.100502 -1.359547 -0.026799 0.873223 2.099257 -0.417839 1.146745 -0.838537 -0.341986 -1.835804 1.414998 0.487632 0.251460 1.497719 -0.794954 -1.780414 0.812904 0.387081 -0.106531 0.346073 0.483128 1.935879 -2.866694 -1.067343 -0.291917 -1.472684 1.233930 -1.810528 0.417181 0.429873 -1.120505 -0.506303 2.080945 0.583204 0.037681 -0.969558 0.986454 0.735066 0.886024 0.381159 1.191852 -1.634508 -0.982080 -0.293679
M001_ON 2.533089 0.645849 1.859515 0.145602 1.195674 0.256774 2.023581 -1.904271 1.322296 -1.167153 -1.829125 2.305611 -1.783864 -1.330414 1.121512 -1.018552 -2.431521 1.683036 -0.294055 0.168003 -1.170796 -0.431286 1.310092 1.987236 -0.094012 1.184009 -1.576751 0.676957 -2.320155 1.638069 -0.087395 -0.800463 -0.438925 0.873775 -1.385162 0.048760 0.377265 -0.760800 0.600864 -1.403159 0.969321 -0.727771 -0.759106 1.203832 -0.759039 -1.147829 2.580537 -0.689393 -0.222007 0.885227 1.369241 -0.497788 -1.183963 -0.675903 1.302711 1.728391 0.546501 0.224073 0.664152 2.987187 -0.628095 -1.764327 -0.691424 -1.922290 -0.336492 -0.909646 -0.448490 0.363033 -1.367779 -1.765076 -0.750652 0.696589 -1.402614 1.281752 0.836124 -0.272462 3.021289 0.639921 -0.282425 -0.296076 0.000859 -1.125014 0.516138 0.470993 -0.840551 1.819872 0.480324 -0.361155 0.875758 1.163048 -1.533023 1.451438 0.458110 -2.553612 -2.497895 0.161270 -0.682019 0.128666 0.291761 0.258269 -0.831201 -1.025827 1.026045 -0.688066 0.617948 -0.123137 -0.764610 1.445414 0.224126 0.865217 0.240368 -0.497279 1.347475 1.816240 0.298842 0.200806 0.657308 -0.161842 1.133392 -0.802300 -1.660436 -0.739348 0.425805 0.374391 0.146138 -1.310298 0.499556 -1.805215 -0.244650 0.981141 1.362859 -1.177110 0.519383 0.361745 -0.931473 -0.426394 0.884423 -1.309520 -1.056908 2.633951 -0.252595 1.519731 -0.024960 0.035065 0.101687 -0.151955 0.454518 -0.067963 0.029596 -0.147948 1.515318 1.239833 -0.184028 1.032440 1.881360 -0.917874 0.546956 0.868789 -1.931088 0.169091 1.448782 2.681864 1.226775 0.696813 -1.307022 -1.710063 0.184425 1.733018 -1.539021 1.290841 -0.582820 -1.142550 0.587727 1.503815 1.212448 -0.368457 -0.800216 -1.398224 -0.371021 -0.047168 -0.917378 0.495578 -1.865263 -1.337207 -1.356047 -0.109511 0.868741 1.259305 0.920017 0.817325 0.483110 0.466296 -0.604929 0.791891 1.079053 -0.117473 -1.340839 0.732574 0.008039 -0.235613
M002_OFF -1.541195 -2.359883 -0.200799 -0.736448 1.041491 1.211317 0.055994 0.085689 -2.531825 0.926140 -0.495300 1.319846 0.473516 -0.292744 -0.605662 0.914268 -1.013159 0.005220 0.929682 0.930609 1.271342 -0.264073 1.007726 0.437578 -1.771819 -0.182910 0.880159 -1.800254 -0.823681 -0.315277 1.611079 2.161980 0.578736 0.576168 0.820844 1.809383 -0.738954 -2.464257 0.116383 0.783155 0.910338 0.356527 -0.246603 1.428739 -1.092659 0.061602 1.821971 2.826964 -2.639475 0.523501 -0.473825 1.158939 -0.642622 -0.235111 0.187037 0.151586 -0.871264 2.262281 -1.076725 1.451142 -1.154290 0.559363 -0.453266 -1.554108 -0.370139 0.073130 -1.225271 -0.369082 -1.471905 -1.101635 -1.402241 1.836320 -1.294103 -0.047462 0.969015 -1.358588 -0.057193 0.193600 -1.070709 -0.215982 -0.496107 0.265547 -0.521834 1.072671 -1.507929 -1.001364 0.629426 -0.122034 -1.001256 0.576343 0.042277 -0.007928 -0.100907 0.609899 0.511728 -0.109126 -0.227135 -1.744154 -0.484172 -1.735554 1.282848 -0.251848 -0.315889 -0.168853 0.766204 1.342568 -1.680410 0.718984 -0.800463 0.537056 -0.828908 -1.135996 0.192470 1.298615 -0.073118 1.036990 -1.367135 -0.469857 0.116325 0.999391 -0.220504 -0.931753 -0.089696 -0.017559 -0.545010 -0.658179 2.570398 -0.405857 0.095949 0.673510 0.607226 -0.128353 1.047239 0.530396 -0.087007 1.569660 1.017650 -0.042800 -0.293447 -1.025396 0.981770 -0.520580 -2.082183 0.040326 -0.381698 0.705292 -0.520723 -1.488488 -2.955582 -1.330055 2.382779 0.736099 -0.927755 2.074544 0.565036 -1.422795 -0.216405 -1.503936 2.015638 -0.703884 1.336542 2.581156 -0.081279 -0.038642 -2.007635 -1.236790 -0.444800 2.513569 -0.370621 2.175990 -1.216768 -0.879503 1.021647 1.263214 2.105941 0.123543 -0.768934 -0.166363 0.146049 -0.260399 -0.603917 -0.719570 -0.613884 -1.222457 0.083177 0.366459 0.370213 1.129402 2.436439 0.523517 -0.410105 -0.666715 -0.546779 0.945085 -2.079545 -0.070251 -1.638624 1.533450 -3.301316 -0.165975
M002_ON 3.967417 -1.745201 1.604022 -3.029238 0.797592 -0.566087 1.706011 -2.605685 0.489392 -2.097742 0.313102 0.831207 -1.953713 1.186455 -0.382215 -0.112897 0.284058 0.823164 -0.384968 0.600167 1.040165 -0.695294 -2.174505 0.444429 1.224544 -0.738727 -1.516045 0.269073 -0.406325 1.221639 2.121935 -0.279542 0.909864 1.294491 -0.672541 -1.118988 0.480840 0.319192 -1.139229 0.675183 0.528880 -1.816083 0.620692 -0.528861 0.438994 0.203145 0.373816 -2.194168 0.719958 0.164338 0.603586 -1.020439 -0.967689 0.993522 -0.256008 -0.154164 -0.358923 -2.180122 0.242998 0.025039 -0.325829 -1.391506 0.001966 0.265526 -1.002375 -0.867018 0.023903 -0.601224 0.117779 1.866565 0.200616 0.418369 -1.475254 -0.039123 2.183450 0.490137 0.445548 0.347130 -0.738835 -1.447565 -0.022588 0.217079 0.869781 0.232303 1.800329 2.920245 1.163102 -1.830549 0.912188 1.346126 0.524617 -1.444347 0.623628 0.155246 -2.894810 2.712118 -0.109954 1.879392 2.020714 2.189747 -1.383355 -1.699212 1.708829 -0.333710 -0.210262 -0.546098 1.333947 -0.122792 0.384135 -1.327664 -0.186437 0.621747 0.438649 -1.289036 -0.908549 0.506424 1.275220 -0.165309 -0.248750 -1.346477 0.452752 1.838231 2.455585 -1.377238 0.908823 -0.245485 -0.366577 -1.551728 0.390313 0.913388 1.406500 1.658046 -0.342485 2.067315 1.241470 -0.033781 -1.977304 -2.350583 2.289792 0.047129 -0.437589 1.751183 1.796718 1.595470 0.313432 -1.596702 -0.006678 0.367795 0.165981 -1.358014 -1.124209 1.298033 -0.555899 -0.756191 -0.106621 -0.144986 0.154131 0.363693 -1.153549 0.596073 -0.587768 -1.815670 2.521845 -1.252596 1.396678 -1.124614 1.332869 -0.344813 0.783605 -1.381410 -0.449841 -0.437520 -1.173513 -0.072277 -1.690917 -0.270572 -1.513586 1.178658 -0.376685 -1.619511 -0.022804 -0.652456 -0.001452 -1.708064 0.105861 0.633412 -0.794507 1.332521 0.416196 0.661323 0.318542 0.698845 1.519300 0.377238 2.406691 2.178185 0.013551 -0.406869 1.071630 0.283752
M030_OFF -0.815470 -0.266305 -1.065821 -1.170962 -0.322740 0.350992 0.448097 1.009823 0.889906 0.517141 2.295719 -3.034225 1.962865 -0.075174 -0.333305 0.067571 1.069204 0.249128 -0.030133 -0.710002 -0.879509 -1.654950 -0.250627 -1.013997 1.831493 -0.234416 1.459369 1.054632 0.880992 0.253533 -2.217730 1.276311 -2.673186 0.336059 -1.794222 0.513910 -0.998119 -0.704133 1.568181 1.207328 1.627811 0.021954 1.742211 -1.412207 -1.813503 0.915341 -0.084697 -0.339451 0.151613 2.099511 1.765769 -0.953405 -0.839816 -0.478321 2.106548 -0.014034 2.057325 0.266186 0.149794 -2.303057 -1.028264 -0.614289 -1.745302 0.200257 -0.126440 -0.132132 0.534151 1.634121 -0.390835 -0.486972 -0.600849 3.025488 1.558148 0.538591 -1.474478 3.496405 -0.912485 -0.820866 2.244511 -1.093747 0.896311 2.320874 -0.893502 1.740155 0.089100 0.161739 -1.235855 1.543466 -1.945682 -0.069216 -0.917542 -0.560281 0.003863 0.545881 1.195277 -2.472104 -0.816137 -1.135209 0.368467 0.838807 0.471872 -0.353964 0.495371 1.062888 0.030979 -1.001149 0.029382 -1.114344 1.790493 1.550798 -0.335455 2.827004 0.618939 1.995264 -1.602079 -0.757279 2.449637 -1.056343 -2.148709 0.389106 -0.664130 -0.701732 0.553102 -0.902820 1.529236 -1.204811 -2.767587 -0.552737 2.005795 1.181817 -1.298370 -0.971724 1.685532 -0.011776 -0.332717 -0.062503 2.354709 -0.402979 1.792041 0.515813 -0.128167 2.779250 0.807630 0.772035 -0.407096 -0.081310 2.228422 0.456026 2.099024 1.477347 0.065878 -2.909433 -0.840554 -0.544138 -0.702384 -0.272644 -0.067412 -1.684015 0.249397 -1.174971 -1.566764 -1.478196 -1.602136 -0.705506 0.625446 2.082456 0.308362 -0.766758 -0.606946 0.033507 0.023569 -1.053091 -2.028547 1.646390 -1.285532 0.465579 -0.207892 0.271387 0.998117 -1.658689 -1.415152 0.216889 0.054761 1.091300 0.922523 1.788541 -1.385867 0.111242 0.941557 1.002533 -0.934877 0.582032 -0.602847 -0.502281 1.949156 0.534092 -1.468210 3.318011 1.688899 0.936828
M030_ON -0.409809 -2.319906 -2.133244 1.548700 1.199372 0.379451 -2.383129 0.708948 0.950643 0.675208 -1.419011 4.892107 -0.830393 2.276062 -0.123099 -0.297265 -0.643832 0.461183 2.237633 0.075725 -1.336762 2.321278 0.046513 -0.611526 -1.808057 1.856672 -0.047655 -2.053491 -1.384816 -0.089799 0.103088 -0.062721 2.917621 0.200015 1.649250 -0.202575 0.974926 0.830752 -1.825168 -1.016504 -2.754405 2.050149 0.213537 0.383920 -0.612362 -2.552562 -0.140543 0.285251 0.029034 -1.461575 -2.200899 1.714412 0.974388 -0.736417 0.169822 -1.078907 -1.760923 0.791141 -0.739562 0.268850 0.158101 2.371353 2.612067 -2.142493 -1.226493 -1.496358 -1.692669 2.150468 0.880254 2.114136 1.073378 -3.375373 -3.782786 1.879282 0.225510 -0.634955 -0.323495 -1.222250 0.646461 1.600923 0.618603 -0.775798 4.125020 -0.004470 -0.179824 -0.818663 0.058776 -0.978713 0.903249 -0.899220 -0.217579 -0.199109 0.452511 -1.223530 0.150374 -0.471946 0.806851 -0.948380 -0.561265 0.286381 -0.278698 2.383598 -0.071683 0.160494 -1.814783 -0.448383 1.815857 0.382843 -2.089129 -0.030903 0.363145 0.460781 0.477880 -1.120089 0.370833 1.842796 -1.516470 -0.560525 0.382058 0.510472 0.681298 -0.588344 -0.108812 0.441708 1.848532 -2.260473 0.396707 0.112597 -2.719487 -2.701988 1.163198 1.639234 -2.264954 -2.717210 -1.847259 -0.252200 1.035928 2.817798 -0.782826 -2.432936 0.549618 -2.950247 -1.157465 0.054903 -2.667076 0.942700 -2.077473 -0.529156 -0.180363 -0.629700 -1.449556 1.609300 1.852121 1.196510 2.676970 0.008161 1.215608 0.378298 -2.452619 -0.229078 -1.276802 -0.967225 0.499433 -0.062205 0.832029 -0.549294 0.194734 -2.072386 -0.295182 0.076798 0.169741 -0.440008 -0.551605 1.023562 -0.162599 -0.300093 0.007155 0.085359 1.045201 -0.930654 1.822478 0.590763 1.391545 -0.786612 1.203646 -0.362382 -0.413749 -1.816603 -0.092916 -2.061582 -0.962557 -0.542259 0.697634 -2.514096 -2.353089 -0.968612 1.044942 -0.008100 0.481505 -0.154381
