241 400
M009_ON 0.007010 0.546911 0.443403 -0.843496 0.794468 0.135470 0.723045 0.922096 0.649226 -0.251352 0.597717 0.751750 -0.220462 0.411925 0.282045 0.763844 0.222341 0.229771 1.281765 -1.414714 -1.265054 -1.075486 -1.057461 0.241283 0.195913 -0.158008 0.524899 0.841860 0.182572 0.046714 -0.603366 -0.238435 -0.247545 -0.056962 0.015909 0.122175 0.315148 0.173140 -0.365265 0.640468 0.247611 1.150105 -0.342642 0.065759 0.063651 0.486317 0.522228 -0.939972 -0.230856 -0.402631 -0.194270 -0.557781 1.208276 -1.097559 -0.342530 0.245997 1.098319 -0.554059 -0.751732 0.465124 1.116774 0.901189 0.781418 0.888332 -0.587378 0.009197 -0.007619 0.132535 -0.208398 0.278661 0.044578 0.066251 0.064245 -0.751959 0.350475 -0.739024 0.742011 -0.067570 0.071468 -0.045999 -0.113270 0.680782 0.628290 0.171381 -0.533337 -0.034750 0.383126 0.226817 -0.052683 -0.071177 0.275998 0.289005 -0.174494 0.156660 -0.398161 0.408502 -0.522191 -0.575270 0.208196 0.186775 -0.491049 -0.686024 -0.375532 0.716749 -0.421094 -0.916297 0.335744 0.845392 -0.051066 -0.341690 0.668825 0.089775 0.106466 -0.111306 0.859504 -0.136821 -0.811527 -0.469851 -0.888102 -0.349353 0.581760 0.655030 -0.189211 -0.739653 0.094188 0.513459 0.174108 0.701118 -0.451201 -0.491691 -0.436738 0.380216 -0.919333 -0.228868 0.553681 -0.292924 0.087228 0.623659 -0.496326 -0.326853 0.279843 -0.009575 -0.213955 0.412497 -0.914188 0.934279 -0.320096 -0.053859 -0.916198 -0.700141 0.071107 0.350982 -0.593678 0.312120 0.370230 -0.510570 0.153191 0.313271 0.332818 -0.317451 0.424715 -0.227836 -0.272921 0.348372 -0.511109 -0.612751 0.284126 -0.333491 1.121835 0.156106 -0.356135 0.400227 0.315652 -0.156865 0.554187 0.183345 0.601105 0.664152 0.440523 -0.343853 0.043679 -0.397331 0.203739 -1.020671 -0.990991 -0.148737 -0.876100 -0.017416 0.477294 -0.558016 -0.231765 0.611290 -1.092509 -0.350598 0.370952 0.944988 -0.061652 -0.626164 0.078176 -0.931555 0.593842 -0.114877 -0.063005 -0.356628 0.181583 0.251165 0.600448 0.438334 0.021026 0.722701 0.023545 -0.481250 -0.623490 -0.414542 0.355199 -0.133346 0.729956 0.523538 0.260226 -0.301507 -0.158266 -0.069811 1.055186 0.503053 1.003148 0.028457 -0.723418 -0.465489 0.035480 -0.102461 0.572656 0.313983 -0.309540 0.303538 0.483221 0.077508 -0.187788 -1.173435 -0.198621 0.438730 0.329279 0.385048 -0.919432 0.001589 0.171662 0.125609 -0.175444 -0.111410 0.037744 -0.187046 -0.251344 0.024962 0.957517 -0.443692 -0.275390 0.327068 0.175788 -0.270273 0.087959 -0.388014 -0.658980 0.023908 0.906379 -0.815976 -0.104840 -0.043280 -0.753308 -0.132792 -0.770966 -0.400595 -0.186818 -0.101952 -0.446836 0.454133 0.232139 -0.397490 -0.075114 1.498635 1.015764 0.098263 0.402138 -0.543117 0.044096 -0.223789 0.111136 -0.194822 0.497379 -0.887834 -0.091443 0.579833 -0.536793 0.964007 0.521990 0.134386 1.268432 -0.065063 -0.702958 0.775138 -0.786758 -0.684399 0.737241 0.380890 -0.029550 0.341421 -0.539671 -0.220882 -0.510976 -0.493611 -0.477589 -0.126286 0.269367 -0.184490 0.058349 0.019256 -0.057286 -0.319777 -0.636107 -0.318928 -0.075535 0.516725 -0.034528 -0.764384 0.656120 0.227474 1.060663 -0.903286 0.718261 -0.247166 0.159731 -0.927358 0.162249 -0.014771 0.728677 -0.851619 0.992943 0.205235 -0.116862 -0.690229 0.612039 -0.552603 0.461287 -1.962060 -0.121536 0.082524 0.714259 0.004658 0.181896 -0.658908 0.553168 0.053154 -0.449402 -0.326639 1.008692 0.539907 -0.709373 0.181045 0.019373 -0.619373 0.043491 -0.387403 -0.224691 0.525539 -0.641660 0.676250 -0.734298 0.729896 0.349164 -0.143333 0.157667 -0.249210 -1.206374 0.187601 -0.074201 0.173019 -0.179218 -0.102518 0.058871 0.100371 -0.695245 -0.316927 0.232314 0.646178 -0.347955 -0.340220 -0.260059 -0.554584 0.498878 -0.275469 -0.740809 0.666729 0.098318 0.691091 0.305774 -0.467011 -0.192408 0.702574 0.446948 0.226254 0.476801 0.100701
M009_OFF -0.728980 0.450067 -0.295469 -1.010956 0.985680 0.198229 0.356050 0.342646 0.267558 -0.103828 0.557235 0.446732 0.084623 0.029287 0.199371 1.166626 -0.067224 0.029091 1.756564 -1.414034 -1.468325 -0.901562 -1.294800 0.484604 0.226136 -0.870387 0.011189 0.985848 0.662834 -0.203690 -0.309573 -0.774570 -0.195209 -0.277817 -0.064263 0.207210 0.079710 0.069011 -0.114689 0.766848 0.499460 0.754713 -0.763619 0.306727 -0.116795 0.001996 0.442129 -0.691852 -0.103435 -0.426353 -0.369228 -0.834513 1.782162 -1.382843 -0.294656 0.269973 1.068227 -0.602088 -0.943681 0.194880 0.604106 1.284703 0.778612 0.624112 -0.890309 0.034235 0.036111 -0.071358 -0.032573 0.396565 0.168166 0.102011 0.167902 -0.728890 0.267760 -0.286336 0.604816 0.088410 -0.343244 -0.066661 0.118120 0.950603 0.380241 -0.017945 -0.393611 0.002455 0.289361 0.379374 0.070861 -0.007338 0.134735 0.024971 -0.408372 -0.058213 -0.026991 0.814493 -0.508518 -0.960103 0.135769 0.224499 -0.080515 -0.275301 -0.432443 0.579625 -0.631414 -0.790420 0.219910 0.110606 -0.351377 -0.352268 0.507619 0.176318 -0.205459 -0.092636 0.292114 -0.149310 -0.714560 -0.361928 -0.944183 -0.238987 0.603471 0.697872 -0.041734 -0.573026 -0.099887 0.410432 0.151298 0.898453 -0.076770 -0.548697 -0.223666 0.646531 -0.765163 -0.381553 -0.065838 -0.497730 -0.013080 0.473734 -0.349933 -0.098736 0.322476 0.165271 -0.097828 0.362777 -0.573660 0.774404 -0.413717 -0.278624 -1.233035 -0.401546 0.227928 0.592861 -0.766483 0.606315 0.513147 -0.492477 0.206368 0.145662 0.019040 -0.082790 0.411134 -0.356557 -0.591145 0.377791 -0.504375 -0.364808 0.351106 -0.160506 1.109416 0.191182 -0.091618 0.793463 0.467430 -0.171454 0.272586 -0.120276 0.444554 0.588785 0.627033 -0.353453 0.222303 -0.161604 0.066659 -1.202171 -0.573196 0.074523 -0.738674 -0.141624 0.539862 -0.735455 -0.360085 0.432184 -1.013987 -0.071905 0.250965 0.924831 0.365190 -0.936414 -0.012038 -1.106148 0.507926 -0.341926 -0.264374 -0.579023 0.398887 0.354967 0.326978 0.769058 -0.104663 1.041003 -0.040112 -0.825125 -0.336491 -0.793266 -0.006605 0.199101 0.609262 0.351365 0.647020 -0.748722 0.226599 0.094176 0.694374 0.631366 0.730298 -0.105134 -0.644683 -0.305004 0.117525 -0.186144 1.009764 0.282583 -0.196648 -0.161558 0.611247 -0.037843 -0.209153 -1.750285 -0.569620 0.318776 0.362290 0.187967 -0.890213 0.178101 0.227904 -0.412410 -0.186990 -0.013391 -0.123034 -0.355477 -0.240870 -0.101896 0.656616 -0.064412 -0.480582 -0.086213 0.011161 -0.510435 0.273241 -0.247393 -0.800536 -0.008278 0.579660 -0.384966 0.119000 0.079573 -0.238011 -0.409860 -0.852801 -0.541725 -0.508782 -0.252603 -0.116088 0.587844 0.423489 -0.248621 -0.009542 1.344598 1.053823 0.228865 0.144377 -0.458803 -0.142477 -0.299110 0.093407 -0.034812 0.921320 -0.413539 0.205494 0.456635 -0.330671 0.660191 0.601659 -0.046750 1.099313 -0.012527 -0.563315 0.863252 -0.712603 -0.426513 0.816276 -0.073511 -0.027934 0.093546 -0.326637 -0.074791 -0.820981 -0.340281 -0.447809 0.004482 -0.031468 -0.393287 0.336531 -0.229855 -0.193649 -0.388224 -0.737935 -0.368160 -0.226576 -0.058521 0.095582 -0.400050 0.559099 0.214639 0.987560 -1.087600 0.395747 -0.327563 0.069445 -0.756997 -0.009862 -0.121851 0.560060 -0.741712 0.623802 0.010155 0.158834 -0.456511 0.351328 -0.611116 0.713612 -1.876968 0.198529 0.662242 0.584435 0.306348 -0.156115 -0.953909 0.561465 -0.040709 -0.428406 -0.064421 0.863535 0.631325 -0.919224 0.629379 0.437235 -0.896407 0.560871 -0.099966 -0.136769 0.371810 -0.170635 0.638336 -0.782667 0.836025 0.032101 0.165896 -0.161082 -0.063415 -1.160768 -0.006619 -0.069317 0.344429 -0.108593 -0.678346 0.508122 0.186321 -0.461573 -0.305384 0.015054 0.536147 0.039148 -0.122274 -0.759475 0.019480 0.613509 -0.319363 -0.577141 0.568846 -0.008340 1.289219 0.349956 -0.853722 -0.416297 0.399701 0.645440 0.632904 0.853759 0.635624
M020_OFF -0.329529 0.221208 0.259525 0.118499 -0.612619 0.127132 -0.140115 0.756367 -0.219575 0.468283 0.144578 0.256195 0.128782 -0.050822 -0.143080 0.424853 0.386547 0.099849 0.252191 -0.190087 -0.537383 0.685162 0.823839 0.263802 -0.284990 -0.110307 0.065022 0.255546 0.199469 0.037172 -0.249180 -0.629196 0.177673 -0.118642 0.678741 0.427024 -0.648447 0.199464 0.908910 0.349208 0.026155 -0.667196 -0.023584 0.138854 -0.057677 0.053841 -0.078621 0.403622 -0.392956 0.000928 -0.384592 -0.291520 0.223444 0.171548 -0.363708 -1.115473 -0.592332 -0.275525 -0.022058 0.098055 -0.348407 0.076788 -0.627999 -0.205575 0.061411 0.068740 0.044787 0.524046 0.125162 0.597617 0.778152 -0.302769 -0.818044 1.338992 -0.058375 -0.131491 0.215325 0.397219 -0.150182 0.173883 -0.185306 0.147332 0.336189 0.400823 -0.057947 0.429917 -0.173448 0.262215 0.372030 0.243493 0.166140 -0.327701 0.319305 -0.264770 -0.361831 -0.096681 0.403320 0.109371 0.234840 0.070691 0.472420 0.558752 0.721798 -0.500103 -0.609460 0.263899 0.572136 0.098105 -0.788949 -0.366768 -0.163384 0.649847 0.040107 -0.712941 0.444656 0.233516 -0.135960 -1.001916 -0.099669 0.184507 0.436740 -0.101088 -0.894032 -0.002137 0.385022 0.196032 -0.120450 -1.005564 -0.610986 0.259828 -0.237373 0.122588 0.210947 0.437590 -0.144284 0.361145 -0.394877 0.279688 0.209162 0.148071 0.070585 0.422512 0.238515 -0.136523 0.177470 -0.343032 0.480775 -0.072203 0.108314 0.016380 -0.995258 0.692742 0.477744 -0.621802 0.231574 -0.461378 -0.522211 -0.058362 0.570989 0.520550 -0.768028 -0.392414 -0.189772 0.262908 0.176692 0.295141 -0.130424 0.241581 -0.335371 -0.072759 -0.289149 0.295048 -0.156269 0.199299 -0.231002 0.328267 -0.114425 -0.000333 0.973127 -0.146124 -0.163707 0.647585 0.241303 0.041823 0.349433 -0.587524 0.246636 -0.471360 0.585868 0.078020 0.301693 -0.554792 -0.102332 -0.020522 -0.482317 -0.043310 -0.212417 0.327029 0.462044 -0.114973 0.190573 0.399805 0.007544 -0.210825 -0.260374 0.590635 0.284835 -0.634353 0.488464 0.072897 0.262438 0.067257 -0.168607 -0.358856 0.548621 -0.541247 0.182420 0.511025 0.301127 0.718172 0.167688 -0.103508 0.328909 -0.484809 -0.314878 0.639325 -0.109651 -0.234106 0.788579 0.632513 -0.597663 -0.302165 0.558684 -0.027076 -0.621721 -0.514289 -0.219328 0.962642 -0.012735 0.682933 -0.213172 -0.681893 0.130529 -0.681030 0.124634 0.004594 0.167382 -0.781727 -0.253976 0.039457 0.118101 0.124560 -0.158381 0.123666 0.858094 0.279386 -0.130009 0.111311 -0.282030 0.154819 0.082656 0.040082 -0.340339 0.245971 -0.170794 0.122091 -0.313439 -0.061544 1.137736 0.083692 0.059824 0.042568 0.253993 -0.024511 0.494792 0.705359 0.416925 -0.438283 -0.518046 -0.374808 -0.417087 -0.120368 -0.151479 0.657173 0.491319 0.195101 0.361607 0.263554 -0.161933 0.439421 -0.086094 0.079168 -0.238093 -0.293793 0.018645 -0.296184 -0.068953 -0.433599 -0.483213 0.175976 -0.126409 0.710201 -0.424620 0.093542 1.069354 0.163917 0.807584 -0.290073 -0.353864 -0.191466 0.004726 -0.222971 0.960269 -0.163174 0.145300 0.109327 -0.149705 0.033300 -0.006365 0.343786 0.131339 0.467143 0.447335 -0.031255 -0.535882 0.142205 -0.411782 0.274632 0.400802 -0.590802 0.091185 -0.242071 -0.281635 -0.099470 0.070781 -0.034482 -0.029876 -0.926978 -0.128349 0.159713 -0.050306 0.861621 0.078700 -0.419342 0.064983 1.000342 -0.258296 0.123806 -0.448956 0.341585 -0.754864 -0.437951 -0.140183 0.258977 0.229765 -0.050916 -0.488785 -0.059221 0.220561 0.027403 -0.155336 -0.115576 0.581258 -0.210060 0.001807 0.548657 0.550597 -0.137640 -0.178475 0.488824 0.460994 -0.157921 -0.075685 0.090410 0.424505 -0.301007 0.028623 0.177495 -0.092190 0.153535 -0.044456 0.570086 -0.092356 -0.811324 -1.022799 -0.802496 -0.322879 -0.299974 0.485710 0.076196 -0.685406 -0.980445 0.472698 0.258720 0.554628 -0.373924 -0.715161 0.115194 0.698816 -0.746783
M020_ON -0.357046 -0.384071 0.119903 -0.055146 -0.123813 -0.262474 0.423252 0.683066 0.085580 0.248584 0.290118 0.056772 -0.421008 -0.297444 -0.042809 -0.075639 0.144603 0.020130 0.055289 0.653451 0.953994 0.322285 0.505736 0.640944 -0.600263 0.224949 0.089321 -0.089657 -0.103505 -0.066630 0.303716 0.044095 0.091488 -0.495559 0.281973 0.148883 -0.185338 -0.188508 0.610552 0.275747 0.042869 -0.441163 -0.208725 0.082799 0.044544 -0.658768 -0.012543 -0.032108 0.137152 -0.193489 -0.594968 -0.137757 -0.127589 0.016747 -0.107078 -0.618733 -0.395538 -0.127950 -0.239620 -0.035923 -0.109592 -0.399680 -0.625923 0.271350 -0.229214 -0.001872 0.122208 0.388285 -0.317020 0.219897 0.502651 -0.372942 -0.828738 0.472884 -0.249669 -0.080919 0.337128 0.787870 -0.312326 0.239192 0.016944 0.030430 0.512740 0.094331 -0.065609 0.315857 0.310595 -0.047121 0.071039 0.227939 -0.148009 -0.528384 0.001581 -0.612090 -0.411292 0.056041 -0.268192 -0.121735 0.187042 -0.090638 -0.202701 0.431837 0.725928 -0.030732 -0.489567 0.181420 0.273548 0.122427 -0.868516 0.123024 -0.094278 1.002796 0.048804 -0.682057 0.615902 0.365026 -0.479481 -0.621705 -0.391885 0.115603 0.188053 0.625334 -0.681795 -0.282208 0.427530 0.273411 0.228039 -0.535102 -0.534849 -0.044412 -0.041744 0.005862 0.234835 0.256969 -0.183366 0.772139 -0.225272 0.214452 0.071337 -0.158363 0.185638 0.464499 0.091506 -0.463581 0.387248 -0.020402 0.337858 -0.323006 -0.156301 -0.064238 -0.644527 0.826554 0.293779 -0.496260 0.400923 -0.317716 0.215359 0.224256 0.210298 0.347892 -0.459928 -0.265223 -0.102480 0.229577 0.649929 0.397154 0.090916 0.166601 -0.509697 0.252991 -0.099173 0.322859 0.240603 -0.057202 -0.242917 0.158547 -0.107206 -0.134047 1.260206 -0.079887 -0.040788 0.430412 -0.032615 -0.172339 1.083637 -0.578401 0.182116 0.225424 0.892962 -0.012140 0.589423 -0.614722 0.294071 0.348119 -0.828285 -0.110246 0.046570 0.544412 -0.355934 -0.397135 0.528597 0.519322 0.224613 -0.191156 -0.165588 0.143519 0.085101 -0.475982 0.267690 0.441604 0.369149 0.348859 -0.680675 -0.105739 0.726712 -0.439239 0.024637 0.401109 0.285414 0.904697 0.170584 0.111473 0.567307 -0.357694 -0.014188 0.223397 -0.208347 -0.008251 0.699562 0.277290 -0.293725 -0.313127 0.794003 0.331088 -0.363834 -0.288004 0.395555 0.550311 -0.747908 0.113046 -0.510423 -0.571818 0.575740 -0.417889 0.042930 0.195766 0.401242 -0.484328 -0.390160 0.315441 0.105107 0.179171 -0.018783 -0.161974 0.917164 0.073507 0.294039 -0.102483 -0.460497 0.112205 -0.009739 0.334785 -0.389074 0.551911 -0.421977 0.289486 -0.344588 0.178238 0.968855 -0.221027 -0.586551 0.010604 0.024022 0.250890 0.025114 0.645314 0.599590 -0.480981 -0.377357 0.344743 -0.485623 -0.104858 -0.421234 0.499980 0.214876 0.255064 0.337635 0.309842 -0.457219 0.488249 0.180477 -0.530999 -0.176845 -0.045505 0.099869 -0.557190 -0.109637 -0.491440 -0.218147 0.652912 0.520823 0.728488 -0.074371 -0.064801 1.063077 0.052383 0.813316 -0.374301 -0.473103 -0.361299 -0.426097 -0.102297 0.771795 0.064096 0.624207 -0.495215 -0.609104 0.261192 0.099628 -0.150250 -0.069765 0.716417 0.370691 0.396318 -0.036656 0.031536 -0.251086 0.362265 0.468410 -0.274373 -0.466836 -0.028103 -0.573511 -0.447346 -0.064291 0.079594 -0.476110 -0.718651 0.132608 -0.037633 -0.157615 0.380015 -0.286128 -0.527435 -0.090915 0.606084 -0.640485 -0.421330 0.014838 0.219495 -0.817249 -0.433321 -0.310097 -0.279132 0.046851 -0.517320 -0.285720 -0.257374 0.216394 -0.148193 -0.216537 -0.231004 0.983776 -0.066701 0.225722 0.382283 0.144657 0.428775 -0.658732 0.273199 0.923333 -0.245426 -0.113002 0.580291 0.384557 -0.127629 0.226831 0.011862 -0.097922 -0.259405 0.026706 0.643273 0.105763 -0.316714 -1.024463 -0.384210 -0.565786 0.123209 0.359654 0.136379 -0.764778 -0.796636 0.494576 0.109353 0.456531 -0.770142 -0.223955 0.243977 0.617715 -0.498401
M019_OFF 1.095229 -0.318913 -0.592249 0.511823 -0.224718 0.426696 -0.440636 0.485417 -0.316423 0.246333 0.077781 -1.270177 -0.054863 -0.072161 -0.028327 0.719552 0.068025 -0.650683 -0.566141 0.664179 -0.567652 0.319106 -0.175039 -0.914881 -0.133457 0.608637 -0.351243 0.140119 0.346792 0.492230 0.178615 0.001061 -0.186100 -0.277803 -0.394460 0.059933 -0.479204 -0.322131 -0.252972 -1.249711 -0.528994 -0.026266 0.016057 -0.036905 0.948609 -0.089551 -0.581476 -0.100624 0.265912 0.208811 -0.085719 -0.261579 -0.364072 -0.414688 0.629291 1.262446 -0.461925 0.155973 0.264052 -1.082857 -0.220770 0.355428 -0.097878 -0.740656 0.468913 0.424289 0.475692 -0.943585 0.778571 -1.202337 -1.063323 -0.283762 0.526465 0.639214 0.178171 0.188478 -0.128431 -0.090892 0.271198 -0.715924 0.579610 -0.165546 0.520080 -0.986867 0.734777 -1.002665 0.021931 -0.721617 -0.109187 0.214041 0.103452 -0.235978 -0.104202 0.465051 0.151662 -0.476360 -0.412326 0.082241 0.149972 -0.110897 0.107922 0.185128 0.246502 0.155673 1.097210 0.294308 -0.296628 0.051806 0.192188 -0.070346 -0.688832 -0.542665 -0.689777 -0.223874 -0.031316 0.240436 0.645778 0.546979 0.349456 -0.134716 0.222289 -0.173955 0.022665 0.178565 -0.600764 0.281732 -0.010140 -0.294272 -0.161243 0.753976 -0.225084 -0.555732 0.134614 0.268412 -0.121498 -0.120005 -0.035966 -0.203067 -0.343320 -0.586599 0.019087 0.787531 0.105234 0.011823 0.341442 -0.528586 -0.177771 0.439802 1.481974 0.666956 0.202927 -0.945314 0.662820 -0.484324 -0.743595 0.976008 1.070937 -0.608289 -0.416089 -0.383497 0.124856 -0.139478 -0.681876 -0.566078 0.295568 0.409951 0.136845 -0.741119 0.034639 -0.829080 0.631586 -0.102512 -0.205974 0.240547 -0.813868 0.180431 -0.231770 -0.633008 -0.328820 0.036578 -0.415043 -0.086640 -0.084413 0.843104 -0.447132 0.004960 0.020072 0.149871 0.262802 -0.361659 0.133894 -1.147995 -0.472653 0.233410 -0.107177 -0.086597 0.083207 0.531899 -0.130666 -0.078706 0.018992 -0.538435 0.211492 0.135695 -0.489764 -0.234847 -0.450128 -0.099696 -0.187572 -0.418818 -0.977881 -0.341674 0.696231 -0.481542 -0.239975 0.390861 -0.135408 -0.132093 0.241390 0.002148 -0.442246 -0.308159 -0.580217 -0.097674 0.025420 -0.169961 0.734784 0.278279 -0.992047 -0.639243 -0.291437 -0.096833 0.215277 -0.661566 -0.332587 -0.183832 -0.380589 -0.288468 0.439668 -0.246757 0.364035 0.367340 0.131357 0.913295 -0.216995 0.554009 0.341083 0.105884 0.703360 -0.870792 0.111575 0.642904 0.131884 0.178942 -0.277378 -0.128943 0.204538 0.296614 -0.001886 0.525544 -0.474791 0.217016 -0.229766 -0.210503 -0.091846 0.814032 -0.414025 0.083313 -0.214171 0.121508 0.317631 -0.164654 0.535061 -0.706387 -0.415243 -0.416793 -0.537504 -0.465472 0.175592 0.657505 0.286783 -0.381959 0.664137 0.058629 -0.335514 -0.775496 0.103654 0.250442 -0.619131 0.371512 0.874416 0.110902 -0.507744 -0.156495 -0.304372 0.056681 0.719693 0.372101 0.695733 0.731666 -0.397465 -0.562081 -0.244225 0.459426 -0.272331 0.343873 -0.035583 -0.241033 0.682820 0.242694 0.169430 0.354741 -0.456112 0.137172 0.246618 -0.334633 0.214643 0.162157 0.026032 0.380708 0.416258 0.270045 -0.065420 -0.134977 -0.731021 0.948786 -0.580848 -0.503887 -0.048661 1.029021 0.265136 -0.252342 0.020215 0.885212 -0.607202 -0.238848 0.681668 0.177210 -0.131343 0.860911 -0.974562 0.157153 0.516334 -0.585419 -0.412423 0.370644 0.373557 0.843778 -0.139284 0.287287 0.409475 0.195031 -0.105887 -0.306684 -0.749774 -0.175004 0.047024 0.791929 -0.385060 0.134499 -0.567624 -0.374497 -0.006645 -1.332268 0.298285 -0.490151 -0.120669 -0.222626 -0.353438 -0.869514 0.071897 0.284698 0.214812 -0.525183 -0.386257 0.302265 -0.474023 -0.748946 -0.034268 0.542048 -0.152868 -0.230355 0.196790 0.228117 1.139523 -0.488495 0.777965 0.212002 -0.632323 -0.294346 0.586688 0.608442 -0.570767 0.679483 0.065482 0.365315 0.777140 0.213224 -1.642442 1.145888
M019_ON 0.360779 -0.479458 -0.569129 0.245206 0.288082 0.489463 0.174890 0.287220 -0.233769 -0.252726 0.332625 -0.703763 -0.389158 -0.276686 0.277079 0.235362 0.219224 -0.468742 -0.694703 0.766035 -0.678515 0.041676 0.023630 -0.945117 -0.028010 0.626215 -0.460500 -0.022512 0.354035 0.288891 0.609940 0.307806 -0.304500 -0.122545 0.185611 -0.310215 -0.361309 0.285796 -0.520951 -1.015281 -0.652541 -0.046408 0.353576 0.012687 0.962377 0.205534 -1.048729 0.008277 0.447038 0.139224 -0.186636 -0.223528 -0.624699 -0.672738 0.325212 0.887824 -0.296306 -0.048468 0.078698 -0.457454 -0.159224 0.229162 -0.141635 -0.608220 0.268579 -0.049139 0.576042 -1.129678 0.099549 -0.928410 -0.803157 -0.664981 0.614618 -0.236655 0.152131 0.165095 0.572634 -0.034403 0.369008 -0.741223 0.380139 -0.455105 0.497968 -0.956468 0.651590 -0.287496 0.470810 -0.580410 -0.007675 -0.124251 -0.020523 -0.435444 -0.046668 0.612622 0.075786 -0.517327 -0.277244 0.579152 0.473343 -0.210190 0.329328 -0.065223 -0.029759 0.289699 0.719254 0.391210 -0.258986 -0.097971 0.172802 -0.369406 -0.496268 -0.592756 -0.676493 -0.359540 0.083228 0.279913 0.199310 0.836427 0.319699 -0.099983 0.083532 -0.006287 0.118906 0.053906 -0.821424 0.873392 -0.232534 -0.186890 -0.489803 0.589483 0.180262 -0.343862 0.362980 0.454162 -0.307816 -0.257981 0.244305 -0.068722 -0.343529 -0.410752 -0.151292 0.550430 -0.273592 0.412490 0.231307 -0.242373 -0.371267 0.163111 1.418389 0.397095 -0.398341 -0.930918 0.676519 -0.160979 -1.251929 0.847206 0.995548 -0.458351 -0.786408 -0.098937 0.456296 0.019290 -0.265325 -0.059236 -0.267218 0.996065 -0.108450 -0.627365 -0.767311 -0.620476 0.691205 0.078551 0.059396 0.097929 -0.786444 -0.001952 -0.176801 -0.646999 -0.580992 0.394894 0.040623 0.181609 0.595861 0.925274 -0.110234 -0.223834 0.260436 0.248947 -0.098232 -0.474474 0.185244 -1.028630 -0.190931 0.159711 -0.172147 0.035118 0.057210 0.401103 -0.210848 0.004225 0.091886 -0.106116 0.111820 -0.096367 -0.952524 0.100476 -0.454268 -0.139354 -0.108713 -0.004467 -0.819486 0.294729 0.802283 -0.063820 -0.222938 0.202079 -0.542331 0.090381 0.370053 0.384826 -0.479692 -0.038866 -0.644350 -0.272708 -0.125078 -0.083296 0.567282 -0.014426 -1.035700 -1.052302 -0.421600 0.364424 0.309270 -0.665539 -0.043348 -0.544206 0.135731 0.060680 0.627267 -0.485926 0.347465 0.022809 0.231271 0.564312 0.284330 0.468800 0.440071 -0.127392 0.477782 -0.752654 -0.129953 0.443675 0.271001 0.467577 -0.057145 0.117950 0.665233 -0.389107 -0.145954 0.174515 -0.615165 -0.332032 -0.081292 -0.501683 -0.444007 1.289513 0.104938 -0.045828 -0.449253 0.496089 0.535014 -0.328405 0.604995 -0.907614 -0.531157 -0.355022 -0.732521 -0.314289 0.071675 0.630695 0.250999 -0.170945 0.851495 -0.372216 -0.064192 -0.774834 -0.052649 0.118910 -0.566201 0.183026 0.189818 -0.371402 -0.337150 0.245656 -0.369122 -0.028521 0.825807 0.412338 0.577231 1.313612 -0.364541 -0.516209 -0.558248 0.191103 -0.499149 -0.245226 -0.201954 -0.208314 0.769793 0.229225 -0.001814 0.237489 -0.173750 -0.375083 0.161686 -0.328654 0.476992 0.042308 -0.620665 -0.191297 0.223112 0.377650 -0.237518 -0.288079 -0.856672 0.694498 -0.248753 -0.138267 -0.197255 1.074782 0.631677 -0.279904 -0.294308 0.537373 -0.344372 0.135407 0.318558 0.515718 -0.574536 0.479985 -0.922695 0.193956 0.152183 -0.646128 -0.094252 -0.029181 0.871269 0.489491 0.401557 0.093853 0.687987 0.391096 0.160001 -0.640143 -0.736059 -0.393958 0.341237 0.101724 -0.273417 -0.127893 -0.573118 -0.691795 -0.636284 -0.959772 0.127477 -0.508205 0.121852 -0.003504 -0.182008 -0.486968 0.158315 0.336865 0.315010 -0.041830 -0.229064 0.418904 -0.270307 -0.542740 0.212032 0.977452 0.092610 -0.278283 0.380759 -0.039883 0.959843 -0.884087 0.232680 0.377083 -0.332955 -0.336021 0.629532 0.631709 -0.512177 0.655201 0.491121 0.015746 0.524401 0.469438 -0.892685 0.421333
M015_OFF 0.684349 -0.363023 -0.724768 1.227503 -0.075603 0.650290 -0.386725 -0.328868 -0.102192 0.351129 0.026446 -1.183272 -0.324617 -0.074790 0.037020 0.414716 -0.115770 -0.368243 -0.386348 0.231474 -0.713189 0.184162 -0.285273 -0.994132 0.063775 0.414656 -0.473879 0.249420 0.123008 0.688788 0.365499 0.258724 -0.126881 0.019160 -0.098405 -0.239363 -0.353080 0.181502 -0.388473 -0.768331 -0.638443 -0.003299 -0.072606 -0.234157 1.033052 0.029683 -0.861270 -0.448202 0.317629 0.056005 0.104944 -0.621331 -0.016966 -0.421463 0.297295 1.049265 -0.354846 -0.188250 0.040155 -0.684255 0.090181 0.611985 -0.048592 -0.936670 0.564287 0.271569 0.953339 -1.210684 0.056972 -0.839887 -0.779766 -0.485961 0.872758 0.326080 0.519957 0.347107 0.169954 -0.211767 0.593099 -0.879121 0.407583 -0.712163 0.566296 -1.164742 0.666830 -0.660375 0.464962 -0.806508 -0.397935 0.122342 0.176364 -0.494537 -0.034893 0.856551 -0.228926 -0.354402 -0.253296 0.515345 0.111798 -0.211023 0.465689 0.087461 0.030641 0.331015 1.173903 0.134524 -0.351884 0.015412 0.148633 -0.315457 -0.852772 -0.919314 -1.014757 -0.265776 -0.265712 0.437450 0.487816 0.994932 0.102358 -0.407069 0.533637 0.353327 0.093726 -0.045346 -1.073926 0.440646 -0.265994 0.007959 -0.290301 0.987299 -0.017636 -0.140943 0.155521 0.600639 -0.403197 -0.062160 -0.028728 -0.280893 -0.916266 -0.473284 -0.411775 0.982920 -0.532864 0.524436 0.536267 -0.381285 -0.241194 0.317763 1.476496 0.904526 0.578721 -1.294335 0.393113 0.092450 -0.424382 1.064070 1.207483 -0.270617 -0.525200 0.094549 0.592058 0.050459 -0.492334 -0.717973 0.193892 0.304219 0.139202 -0.841921 -0.548823 -0.881627 0.728651 0.020912 -0.185535 0.358944 -1.100596 0.158128 -0.329123 -0.498094 -0.794758 0.390010 -0.212091 -0.173288 0.516594 0.769888 -0.884116 -0.302336 -0.053393 -0.006862 0.081148 -0.315743 0.602019 -1.217883 -0.702732 0.377685 -0.074481 0.269368 0.181682 0.255790 0.212667 -0.017554 -0.092134 -0.156095 -0.158971 0.130402 -0.868815 -0.467750 -0.644879 0.283983 -0.342380 -0.183006 -1.157738 -0.216524 0.742618 -0.447384 -0.319196 0.295110 -0.463687 -0.066872 0.018033 0.236333 -0.510412 -0.403952 -0.785489 0.269543 0.309176 -0.432969 0.838686 0.134605 -1.386339 -0.712268 -0.460296 0.306333 0.135573 -0.987493 0.068079 -0.361951 -0.121061 -0.448904 0.769032 -0.233216 0.522117 -0.002570 0.133606 1.035450 -0.115770 0.610398 0.479964 0.026974 0.789109 -1.116393 -0.141956 0.715574 0.247574 0.366765 -0.381307 0.442553 0.718109 0.114227 -0.034051 0.485428 -0.706659 -0.243567 -0.233407 -0.385137 -0.367480 1.068552 -0.422192 -0.262901 -0.375098 0.381890 0.106809 -0.412250 0.364155 -0.559332 -0.599886 -0.755333 -1.018972 -0.262954 0.306053 0.431046 0.145093 -0.328125 0.653277 -0.288437 -0.264218 -0.814778 0.129690 0.048130 -0.527764 0.450192 0.762196 -0.161026 -0.565537 -0.070317 -0.169089 0.040677 1.019816 0.493288 0.550899 0.844717 -0.129961 -0.828744 -0.428214 0.685950 -0.841642 -0.028806 -0.024321 -0.245312 0.806801 0.205739 0.468801 0.244924 -0.560454 -0.151946 0.348733 0.121556 0.306391 0.069741 -0.204900 0.205482 0.192801 -0.130297 -0.146272 0.159853 -0.757525 0.766416 -0.328121 -0.538465 -0.719762 1.019681 0.855929 -0.245583 0.322413 0.730754 -0.445336 -0.095766 0.850516 0.485944 -0.274823 0.613175 -0.635397 0.441840 0.306629 -0.536912 -0.355481 0.041349 0.696729 0.688595 0.320540 -0.083061 0.791174 0.373600 0.407111 -0.296507 -0.790521 -0.355697 0.214321 0.226914 -0.402086 -0.469586 -0.611107 -0.750382 -0.646328 -1.155185 0.178094 -0.424341 -0.251480 0.016878 -0.250251 -0.406683 -0.162779 0.426028 0.148816 -0.231529 -0.631343 0.242754 -0.234072 -0.636767 0.022882 0.772783 0.057151 -0.019294 0.370146 0.062267 1.273088 -0.617375 0.465280 0.718508 -0.540773 -0.303891 0.953958 1.061078 -0.712019 0.705587 0.173483 0.047610 1.212409 0.620985 -0.668220 0.643871
M015_ON 0.974321 -0.417524 -0.427872 -0.015887 0.137557 0.457086 -0.205048 0.663431 -0.284640 -0.343480 0.474578 -0.802646 -0.069605 0.075070 0.500278 0.777119 -0.152101 -0.634800 -0.982856 0.886881 -0.549591 -0.025660 0.028566 -1.130828 0.143191 0.823103 -0.181058 -0.113814 0.463221 0.185528 0.469690 0.483526 -0.600259 -0.160929 -0.222061 -0.251959 -0.171810 -0.372733 -0.389452 -1.369655 -0.120825 0.175783 -0.054408 0.353326 0.947668 0.348370 -0.523304 0.134213 0.234324 0.382073 -0.111967 -0.242724 -0.873125 -0.399409 0.661003 1.263125 0.039779 0.397239 0.054087 -0.521706 0.128313 0.314242 -0.173644 -0.371990 0.179153 0.292231 0.752267 -1.030988 0.347309 -1.383564 -0.806503 -0.314286 0.785410 -0.001155 0.240898 0.109473 0.382852 -0.169285 0.331997 -0.975959 0.719390 -0.126924 0.473865 -1.055995 0.331623 -0.968822 0.446758 -0.756967 -0.330937 -0.158925 -0.167645 -0.134161 -0.136432 0.892728 0.151372 -0.744399 -0.576987 0.428585 0.417893 -0.405049 0.214761 -0.528862 0.026800 0.094613 0.889639 0.270979 -0.589398 0.201749 0.407125 0.221780 -0.762082 -0.826846 -0.764299 -0.175987 0.188925 -0.002810 0.371628 0.816224 0.313892 0.282862 -0.150472 -0.120059 0.498835 0.155366 -0.984983 0.389515 -0.061077 -0.336196 -0.275365 0.638374 0.126067 -0.484845 0.341386 -0.240947 -0.104568 -0.186901 0.624806 -0.040194 -0.488127 -0.535862 -0.193743 0.534081 -0.292372 0.549265 0.142576 -0.290901 -0.327859 0.953570 1.508519 0.713781 0.217103 -1.138543 0.923369 -0.011335 -1.221054 1.212885 1.441756 -0.391333 -0.659511 -0.399965 0.286496 0.089548 -0.622352 -0.750525 -0.151059 0.850866 -0.234749 -0.622541 0.297489 -0.658052 0.820992 -0.385259 -0.450363 0.347494 -0.587916 -0.425339 -0.336402 -0.513128 -0.878140 0.297474 -0.053427 -0.467984 -0.215894 0.894404 -0.308328 -0.295284 0.304199 0.163791 -0.241754 -0.278556 0.266603 -0.999622 -0.125291 0.382625 0.093248 -0.093170 -0.164828 0.684427 0.120428 0.273997 0.196803 -0.447249 0.019763 0.253751 -0.769779 -0.154548 -0.257024 -0.333004 -0.507907 -0.019305 -0.736605 -0.112405 0.696940 -0.191941 0.132355 0.314099 -0.294723 -0.509359 0.451454 -0.052549 -0.713924 -0.193069 -0.311881 -0.306852 0.309556 0.001144 0.614343 0.276787 -0.742626 -1.238479 -0.374141 0.137633 -0.358538 -0.966539 -0.136828 -0.133481 -0.081251 -0.289351 0.298607 -0.470582 0.454176 0.388786 -0.048440 0.613619 0.492257 0.531414 0.439394 0.336835 0.717616 -1.209872 0.050323 0.314427 0.592752 0.516552 -0.201761 -0.335061 0.231404 0.255631 -0.017406 0.448976 -0.521861 -0.077885 0.114885 -0.382392 -0.093551 1.154261 0.078327 0.111028 -0.745408 0.036083 0.993426 -0.166612 0.619054 -0.597726 -0.142677 -0.379415 -1.012822 -0.520019 -0.063599 0.892204 0.837825 -0.359106 0.983044 -0.003438 -0.312973 -0.790569 -0.148812 0.057745 -0.888833 -0.054547 0.466416 0.001367 -0.704733 0.029460 -0.714279 -0.008963 0.632267 0.557710 0.603532 0.986802 -0.448374 -0.393411 -0.323543 -0.065321 -0.381162 -0.198815 0.087619 -0.391786 0.519909 0.161166 0.013723 0.529637 -0.210157 0.018998 0.282765 -0.535946 0.829592 0.005818 -0.198636 0.018116 0.306422 0.426660 -0.392258 -0.192240 -0.642859 0.803626 -0.366405 -0.000543 -0.187884 0.796558 0.359819 -0.128581 -0.111403 0.495221 -0.328182 -0.183571 0.517583 0.443115 -0.169444 0.807881 -0.964722 -0.169164 0.457376 -0.751017 0.048895 -0.096590 0.773792 0.328543 0.363290 -0.002981 0.383233 0.215856 0.112802 -0.316293 -0.490512 -0.124667 0.304477 0.546193 -0.338862 -0.105390 -0.214079 -0.792463 -0.121197 -0.944885 0.365676 -0.565050 0.157570 -0.165618 -0.655395 -1.000443 0.266692 0.111727 0.220735 -0.384721 -0.437827 0.364177 -0.821995 -0.581449 -0.176245 0.955269 -0.039904 -0.047622 0.257406 0.218346 1.400071 -0.585907 0.342280 0.388984 -0.544217 -0.409356 0.686888 0.541020 -0.642869 0.815338 -0.047336 0.515655 0.624050 0.142279 -2.061339 1.609982
M007_OFF -0.112310 -0.637314 0.295038 0.759097 0.113148 -0.310592 0.130677 -1.476279 0.077424 -0.743035 -0.855393 1.057362 -0.418148 -0.174738 0.173828 -1.131851 -0.674865 0.853100 -0.218023 -0.516611 1.461994 1.015218 1.488704 0.207249 0.450810 -0.352616 -0.053619 -0.671576 -0.721351 -0.058436 -0.356904 -0.705516 0.442591 0.722705 -0.121906 -0.902409 0.522898 0.235508 0.672541 0.558838 -0.257528 -0.639566 0.941181 -0.126840 -0.770763 0.370889 0.432963 0.241162 -0.764445 0.421497 0.636814 0.061468 -0.613593 0.629192 0.521808 -0.506181 -0.265111 0.334231 0.821328 0.869695 -0.055848 -1.261302 -0.943545 -0.470510 0.408683 -0.192149 -0.480133 0.551308 -0.345996 0.458927 0.985137 0.578877 -0.329252 1.255344 -0.327962 0.204968 0.090346 0.334167 0.025882 0.421610 -0.514924 -0.430466 -1.071462 0.899947 -0.021509 0.290954 -0.665106 0.145207 0.758751 -0.039634 0.285238 0.567690 1.014979 -0.216431 0.589556 0.319770 0.932901 0.093511 -0.363002 -0.211942 0.337636 0.173406 -0.554785 -1.051535 0.073654 -0.186843 0.478151 0.030198 0.006953 0.188274 0.689758 -0.890904 -0.037974 0.110227 -0.327309 0.387849 0.285888 -0.286128 0.786173 0.423510 -0.518167 0.044364 0.587344 0.024718 0.132279 -0.516304 0.139152 -0.115020 0.225124 0.076383 1.109184 -0.317342 0.329957 0.126245 0.290410 0.621405 -0.193452 -0.161225 0.232045 0.620605 -0.028638 -0.643547 0.226450 -0.381957 1.115528 -0.472799 0.486237 0.658695 -0.283936 0.212648 0.052323 0.546632 -0.280767 0.141526 0.050582 -0.202074 -0.388428 0.716889 0.813528 0.060730 -0.289165 0.542119 0.592814 -0.780795 -0.109062 -0.846770 -0.113951 0.119155 -0.300626 0.449910 -0.633715 -0.664775 0.550738 0.505741 1.349106 0.054432 0.078322 0.504116 -1.104427 -0.702327 0.668052 -0.270888 -0.075122 -0.471164 0.074977 0.235247 -0.314607 -0.232058 -0.116453 0.926651 -0.013722 0.315684 0.772768 0.396609 0.465415 -0.361219 0.023458 -0.688699 0.642806 0.990322 -0.442702 0.187366 -1.016365 1.405168 0.515512 -0.689893 0.015544 0.239243 -0.263216 -0.282847 0.511578 0.138372 0.352082 0.501204 -0.743266 0.631935 0.231069 -0.815709 -0.771474 -0.010091 -0.257755 0.341251 -0.481164 0.118800 -0.593712 -0.186790 -0.045037 0.275025 1.105680 0.374189 -0.372834 0.463398 -0.509568 0.237530 0.129290 0.681217 -0.035772 0.517425 0.032263 0.025675 0.684969 -0.548715 -0.739976 0.258315 0.060356 0.092456 0.063360 0.283328 0.042951 0.267394 -0.092272 -1.123284 -0.622645 0.047960 -0.143079 -0.417427 0.418533 0.828981 -0.017936 0.036039 0.927102 -0.405931 0.368311 0.042538 0.892613 -1.355337 0.872061 -0.039110 -0.000756 -0.097196 -0.239301 -0.403246 0.118167 0.455479 -0.152542 0.004543 -0.359168 -0.018583 -0.127166 -0.168737 -0.218797 0.865725 -0.055788 -0.205446 -0.064910 0.354188 -0.938373 -1.031169 0.860099 -0.036757 0.327157 -0.350098 0.022391 -0.300129 -0.406914 0.660767 -0.175892 -0.362033 -0.558967 -0.620780 -0.332595 0.524504 0.928524 -0.300740 0.187806 -0.225313 0.490821 0.580417 0.021501 0.642265 0.137557 0.175431 -1.222998 -0.175201 0.228943 0.763363 1.190971 -0.342858 0.545760 0.421662 -0.493554 -0.669738 -0.084034 0.194687 0.030294 -0.502921 0.700934 -0.040614 -0.285276 -0.200761 0.166922 0.335503 -0.172839 -0.108965 -0.297740 -0.022997 -0.103112 0.744549 0.412127 -0.161125 1.085176 1.238837 0.267338 0.310057 -0.170683 -0.601234 -0.281459 0.045287 -0.157908 -0.268732 0.272119 0.235602 -0.508349 0.274203 0.883291 -0.067833 -0.006577 -0.030474 -0.380811 0.356479 0.550395 -0.063259 0.065643 0.520829 0.361145 0.129095 -0.305034 -0.453403 0.661271 0.341975 -0.209709 0.082258 -0.201610 0.157465 -0.008090 -0.227727 0.064193 0.300710 -0.009918 -0.124714 -0.187362 0.384591 -0.199572 0.338580 0.236122 0.476130 -0.084154 0.126577 0.393573 -0.055230 -0.461324 -1.343203 0.312747 -0.171489 -0.074851 -0.187584 -0.625185 -0.166279 -0.052489 -1.119590
M007_ON -0.725244 0.245947 0.443193 0.302610 -0.064303 -0.832964 0.650410 -0.543662 -0.386209 -0.764745 -0.987068 0.740354 0.238560 -0.105991 0.011515 -0.757499 -0.565338 0.202709 -0.305173 -0.494938 1.790048 0.394503 1.012159 0.486943 0.479215 -0.360370 0.269883 -0.454081 -0.331373 0.066020 -0.175158 -0.792782 0.473836 0.457076 0.343562 -0.659627 0.156080 -0.169644 0.483466 0.303425 -0.346176 -0.381277 0.696746 0.287483 -0.482272 0.112174 0.370360 0.114385 -0.678330 0.020645 0.888314 0.300228 -1.274858 0.522740 0.222050 -0.257290 0.030271 0.372197 0.767302 0.467018 0.033604 -1.069813 -0.527920 -0.554390 0.435458 -0.429619 -0.686367 0.321052 -0.801807 -0.124263 0.388693 0.891826 -0.264019 0.363259 -0.353866 0.105206 -0.197369 0.306516 -0.132175 0.186221 -0.288731 -0.217562 -1.472915 0.225927 -0.765441 0.341864 -0.826672 0.507353 0.049769 -0.169731 0.231147 0.519679 0.839937 -0.340152 0.837898 -0.084147 0.361538 -0.123333 -0.959304 -0.652174 0.212731 0.364301 -0.780953 -0.225420 -0.280422 0.266373 -0.536238 -0.362067 0.348694 0.944353 0.407353 -0.455917 0.204503 -0.118757 0.124070 -0.267448 0.303476 -0.216957 -0.034222 0.436784 -0.804758 0.012746 1.098637 0.232851 0.171044 -0.786960 -0.108739 0.375755 0.324409 0.704430 0.399895 -0.403277 0.473664 0.509384 0.617178 0.835616 -0.024223 -0.160776 -0.329559 0.046437 -0.084165 -0.908374 0.249404 -0.205969 0.681714 0.414623 -0.084441 0.564278 -0.323216 0.378190 0.307576 0.224007 -0.270968 0.289989 0.744495 0.295342 -0.483851 0.433970 0.625109 0.307981 -0.529195 0.969760 1.195870 -0.783365 0.099355 -1.207695 -0.081675 -0.024439 -0.495205 0.321170 -0.956968 -0.302180 -0.123327 0.492798 0.643896 -0.170880 -0.140180 0.608060 -1.431985 0.108496 0.105576 -0.617617 -0.664222 -0.073368 0.271388 -0.255675 -0.168159 -0.247939 0.092078 0.555630 0.216064 0.416501 0.991281 -0.329537 0.377337 -0.925618 0.265768 -0.262226 0.315672 0.891230 -0.286080 -0.232791 -0.691825 0.619994 0.589315 -0.778918 0.208009 0.041352 -0.420092 -0.746047 0.949782 0.192096 0.657153 0.762193 -0.056670 0.383896 0.206648 -0.778668 -0.616740 -0.230769 0.082897 0.255311 -0.359692 0.220511 -1.162552 -0.319415 0.474713 -0.248821 0.232179 0.770291 -0.283560 0.009799 -0.033264 0.545125 0.270247 0.330658 -0.300175 0.010373 -0.345041 0.520106 0.201694 -0.074720 0.039052 0.391405 0.714368 -0.134810 0.080211 -0.010979 -0.371799 0.305456 -0.114280 -0.552713 -0.467280 -0.321593 0.273352 -0.133094 0.374662 0.410833 -0.387951 -0.000019 1.123753 -0.277584 -0.155535 -0.065169 0.734128 -1.154802 0.722300 0.091677 0.021838 -0.388924 -0.591590 -0.362586 -0.290334 0.690660 0.202673 0.193086 -0.075593 -0.235499 -0.245280 -0.405999 -0.073758 0.887253 -0.536247 0.269673 -0.154546 0.671603 -0.921118 -0.405752 0.818369 -0.148489 0.104570 -0.253384 -0.073402 -0.085292 -0.218697 -0.034873 0.118506 -0.699410 -0.284484 -0.626752 -0.084265 0.399924 0.920153 -0.293508 0.431341 -0.313652 0.609621 0.197526 0.298647 0.424131 0.274020 -0.187845 -0.755518 -0.134059 0.326532 0.841401 0.396431 -0.205845 0.893087 0.424561 -0.800241 -0.947505 -0.072832 0.020989 0.340935 -0.301042 0.474340 -0.193333 -0.132774 0.358130 -0.669898 0.287308 -0.431394 0.217083 0.213815 -0.323919 -0.237157 0.757779 0.534990 0.258516 0.429016 0.788101 -0.274270 0.079798 -0.101148 -0.227035 -0.656778 0.087344 -0.313156 -0.128717 0.076490 0.282127 -1.024818 0.359247 0.696637 -0.220886 -0.314607 0.268828 -0.560234 0.492752 0.704559 -0.263413 0.687540 0.392112 0.542542 0.025218 -0.710039 -0.469241 0.351900 0.788073 -0.748644 0.266630 0.105849 -0.179854 -0.081747 0.032237 0.191601 0.283842 -0.200976 -0.387689 0.086092 0.011803 -0.228586 0.908872 -0.291359 0.306039 0.184331 0.301054 0.664478 -0.266932 -0.210981 -1.386940 0.479849 0.284729 -0.486567 -0.224954 -0.083844 -0.238471 -0.612833 -0.483113
M014_ON 0.278993 -0.698297 -0.323232 -0.217268 -0.130079 -0.740851 -0.442700 0.405304 0.235004 0.025108 0.665260 0.035308 0.041262 -0.086227 -0.342004 0.064686 -0.521246 0.169865 0.263879 0.191778 -0.683915 0.189992 0.242811 0.052818 -0.110928 0.897933 -0.184417 -0.390719 0.603485 0.250235 0.489062 0.104649 -0.669329 -0.186230 0.156358 0.889932 -0.538676 -0.103228 0.105112 -0.623678 -0.226966 0.130190 -0.250183 -0.621850 -0.326964 0.154133 0.085904 -0.221891 1.266498 0.221305 -0.019347 0.793201 -0.275594 0.626777 0.316433 0.224731 -1.117348 0.623240 0.215518 0.207156 -0.289732 0.061127 -0.068860 0.106022 0.036649 0.222946 -0.104680 0.422472 0.862509 -0.076913 -0.303363 -0.944192 -0.734732 0.157006 0.184862 -0.821613 -0.473386 0.601249 0.261354 0.742617 0.744828 0.456450 0.453652 0.244301 -0.271696 0.699666 0.077236 -0.789191 -0.463361 0.679094 0.104164 -0.255032 -0.637895 -0.083260 0.075877 -0.986240 -0.440963 -0.047725 1.404348 -0.351085 -0.412109 0.507377 0.956518 0.038711 0.509884 0.854964 -0.354255 -0.638675 -0.037280 0.150178 0.254826 1.132143 0.728309 0.306734 -0.052351 -0.182583 0.375635 0.360069 0.193150 -0.456966 -0.145967 -1.055823 -1.385145 -0.206403 0.656758 -0.068495 -0.406179 -0.333688 0.380620 -0.322437 -0.892981 -0.367279 -0.500852 0.297685 0.080788 -0.093000 0.276932 0.057760 0.643628 0.136849 0.033784 -0.199894 0.688191 -0.914940 -0.143586 -0.311859 0.504894 -0.551424 0.403928 -0.200085 0.227985 0.296493 0.979750 -0.006388 -0.435457 -0.392243 -0.226638 -0.286673 -0.999803 -0.152927 0.462360 -0.622518 -0.383029 1.454765 0.410979 1.921824 -0.214938 0.313494 -0.843816 0.093795 0.551959 -0.563960 0.716490 0.019701 -0.263937 0.771407 0.067254 -0.150148 1.076259 0.262041 0.052766 0.401781 0.336624 0.382010 0.578752 -0.121031 0.257179 -0.008830 -0.051487 -0.118579 0.235954 -0.626303 0.871883 -0.463740 -0.485515 -0.590685 0.211517 0.247075 0.781715 0.144262 -0.076648 0.220178 0.873641 -0.350114 -0.050043 0.696096 0.033360 -0.171371 0.610039 -0.604756 0.282059 0.180342 0.230675 -0.306015 0.616343 -0.115174 -0.310819 -0.231951 0.621671 1.467401 0.704146 -0.846573 0.887651 -0.566954 -1.184280 -0.428934 0.151534 -0.409620 -0.815099 0.828939 -0.215481 -0.473751 0.360137 0.627576 -0.649002 -0.637902 -0.113400 1.577320 -0.383186 -0.475577 -1.366682 -0.088074 0.863429 -0.554108 -1.100272 -0.375914 0.536581 -0.599899 0.806531 0.600782 -0.144304 0.250210 -1.232914 0.304680 0.218937 0.064461 -0.392170 -0.363391 -0.561319 0.334384 0.888368 0.270143 -1.542662 1.140082 -0.724559 0.387941 -0.091307 0.411486 0.597752 0.411132 0.006009 0.767754 1.063712 -0.159706 -0.141479 0.358141 1.562734 -0.478324 -0.575907 0.299818 -1.062189 0.002340 0.160332 0.353208 1.406460 0.574490 0.396082 1.004936 -0.347246 0.572543 0.447017 -0.898611 -0.102331 -0.533858 -0.514758 -0.630671 0.556522 0.369605 -0.054447 0.642798 -0.790414 -0.573669 -1.367630 0.717809 -0.351893 0.859783 -0.213547 0.131951 -0.027173 -1.000970 -1.162574 0.052331 0.887439 -0.367334 1.287842 -0.337556 0.293975 0.181838 -0.372365 -0.359478 -0.057617 0.665611 -0.077621 0.072800 -0.258067 1.100859 -0.896103 0.995642 -0.095592 0.945883 0.124781 -0.395657 -0.232534 0.175697 0.009685 -0.572632 0.100110 0.203130 -0.491915 0.702977 -0.610322 0.616757 -0.469284 -0.051198 -0.142112 0.550055 0.561799 0.613918 -0.783670 0.867770 0.144567 -0.286474 -0.479553 -0.855888 0.450241 0.206508 0.120633 0.043810 0.245452 -0.170437 -0.702874 -0.560996 0.269467 -1.101228 0.271886 -0.353583 0.655881 0.698207 -0.942215 0.032460 0.372925 -0.493972 -0.007729 -0.061243 -0.310271 0.140995 -0.114200 0.128906 -0.364824 -0.488180 0.017129 0.318425 0.086801 -1.233567 -0.773120 -0.851521 -0.003118 -0.441202 0.935821 0.392571 -0.254878 0.136313 -0.826802 0.580599 0.168309 -0.669980 -0.554715 -0.618592 -0.280922 -0.057713
M014_OFF 0.951633 -1.426277 -0.117502 -0.567084 0.455783 -0.445954 0.258259 0.945226 -0.269701 0.361248 0.447452 0.348787 0.130571 0.496395 -0.154574 0.029580 0.369189 -0.318502 0.237746 0.319499 -0.623837 -0.205102 -0.015414 -0.260176 -0.453433 0.613587 -0.352336 0.009975 0.011210 0.547861 0.488589 0.449322 -0.196780 -0.182680 0.510444 0.363329 -0.734188 0.283823 0.150108 -0.791838 -0.287658 0.198034 0.142412 -0.141474 -0.314170 0.042976 -0.122997 -0.022216 0.816531 0.492470 -0.567641 0.602682 -0.524804 0.291207 0.829387 -0.176752 -0.867979 0.546952 -0.085229 -0.536663 -0.880200 -0.197053 -0.899926 0.278759 0.156919 0.273257 0.460692 0.215492 0.417189 -0.324942 -0.858125 -0.564610 -0.313958 0.837553 -0.011302 -0.734741 -0.662015 -0.020129 0.915602 0.675333 0.678239 0.851561 0.575617 0.179954 0.082126 0.349886 0.409897 -0.867961 -0.276508 -0.066598 -0.461725 -0.421207 -0.106200 -0.205464 -0.236423 -1.129648 -0.611281 0.131367 1.018439 -0.374651 -0.307800 0.040933 0.929927 0.070468 0.261010 0.499932 0.531638 -0.039579 -0.348152 0.021586 0.698214 1.084140 0.222485 0.623229 0.589071 0.448862 0.355741 0.364729 0.420821 -0.178394 -0.408155 -0.822809 -0.878176 -0.256082 0.701198 -0.228191 -0.120573 -0.317406 -0.508042 0.092062 -0.886465 -0.321168 -0.272116 0.176323 -0.063694 -0.576637 0.510052 0.082983 0.366223 0.075720 0.457604 0.238421 0.357217 -0.800577 -0.763145 -0.689875 0.770568 -0.615374 0.457870 -0.305202 -0.013077 0.134210 0.931377 -0.049740 -0.143025 -0.513261 -0.333802 0.085856 -0.810185 0.160501 0.097880 -1.049062 -0.283073 0.859885 0.339641 1.405312 0.224496 -0.296007 -1.304703 0.229648 0.071938 -0.058385 0.293024 0.083221 -0.017999 0.590894 0.123300 -0.238790 1.152671 0.026426 -0.378850 0.107987 0.368860 0.019651 0.470191 0.045812 0.689341 0.217590 -0.218026 0.069910 0.440287 0.105563 0.813009 0.113579 -0.180549 -0.570812 -0.036273 0.376734 0.608530 -0.361932 0.206050 0.365855 0.844919 -0.057318 0.205103 0.079022 0.047497 -0.278927 0.594462 -0.025910 0.088574 0.025626 0.295635 -0.241397 0.542460 0.576615 -0.713668 -0.031952 -0.843910 1.151856 0.826222 -0.972492 0.675145 -0.437326 -0.713561 0.177576 -0.061360 0.185921 -0.257353 0.537378 -0.795502 -0.863945 0.723581 -0.033132 -0.271798 -0.856303 0.038380 1.442389 0.299631 -0.523449 -0.898221 -0.438460 0.573485 -0.777930 -0.944239 -0.443418 0.457742 -0.038658 0.695651 0.566672 -0.240944 0.305592 -1.241081 0.145927 -0.429625 -0.158194 0.107508 -0.251014 -0.073972 0.912882 0.091192 0.142917 -0.642324 1.056525 -0.534741 0.325688 0.050175 0.487778 0.653723 0.904737 0.182476 0.375597 0.835720 -0.675270 -0.083772 0.282994 1.335806 -0.504195 -0.178069 0.535311 -0.551157 -0.070538 0.130942 0.442899 1.194665 0.175578 0.302593 0.934288 -0.593503 0.295553 0.722262 -0.598387 -0.066810 -0.100568 -0.654430 0.022415 0.080812 0.309964 0.613176 0.801669 -1.323693 -0.109123 -1.250515 0.200089 0.010076 0.974062 -0.157881 0.496723 -0.331879 -1.025696 -0.596594 0.117676 0.074879 0.008442 0.941683 -0.513932 0.060897 0.289391 -0.426268 -0.092718 0.178107 0.751526 0.191184 -0.006093 -0.194336 1.053360 -0.449707 1.364703 -0.371379 0.792101 -0.355909 -0.829398 -0.565058 -0.066678 -0.600934 -0.833600 -0.010433 -0.159737 -0.360557 0.937752 -0.538195 0.724660 -0.815614 0.059307 -0.552503 0.493514 -0.016332 0.376865 -0.980832 1.249385 -0.344683 0.014480 -0.765735 -0.490084 0.015286 -0.096739 0.243641 -0.202601 0.759671 0.275536 -0.754568 -0.444402 0.276832 -0.579406 0.069674 -0.427413 1.146727 1.318980 -0.949900 0.007095 0.475557 -0.471729 0.072574 0.331840 -0.146369 0.313279 -0.138392 0.145174 -0.347775 -0.461964 -0.249178 -0.093693 0.208664 -0.949134 -0.458708 -0.969949 0.258016 -0.433362 0.743565 0.106168 0.219365 0.140970 -0.362292 1.008455 0.029116 -0.428111 -0.504834 -0.780243 2.138756 -2.130520
M013_ON -1.172585 1.367493 0.087291 -1.165684 -0.472238 0.387366 0.281176 1.326131 -0.325865 0.257478 0.434564 -0.246483 0.414775 -0.235963 -0.382147 0.494009 -0.221124 0.228076 0.470635 0.224464 -0.913112 0.388736 0.119920 -0.129974 -0.387350 -0.809391 0.295327 0.390842 0.753046 -0.245170 -0.395282 -0.679124 0.064365 -0.254285 0.666891 -0.098639 -0.577908 0.474606 0.665151 0.311586 0.534021 0.424483 -0.743616 0.097671 0.497819 -0.274893 -0.015471 -0.013989 -0.085169 0.157077 -0.886319 -0.537774 1.117676 -0.679276 0.065607 -0.160615 -0.008553 -0.963773 -0.489961 0.036960 -0.022026 -0.198287 0.307594 0.254405 -0.619702 -0.266546 0.340367 -0.287214 -0.452588 0.739767 0.025891 -0.185698 -0.469427 0.179318 -0.403943 -0.247507 0.843291 0.117069 -0.472709 -0.161535 0.083012 -0.289769 0.930679 0.123213 0.027669 -0.005378 0.436518 0.647872 0.424210 0.273685 0.218023 -0.344301 0.013213 -0.082186 -0.290439 0.407339 -0.138408 -0.147691 0.396470 -0.021794 0.248171 0.034444 0.366929 0.070947 -0.496015 -0.091067 0.276293 0.217605 -0.431385 -0.174980 -0.293734 0.808871 0.117276 -0.644651 1.200609 -0.343135 0.127806 -0.479850 0.002191 0.127957 0.176240 0.268179 -1.125545 -0.424749 0.066499 0.393744 0.474738 -0.609961 -0.903168 0.374303 -0.756011 0.414061 -0.362988 0.331272 -0.256415 0.592521 -0.403390 -0.017150 0.092076 -0.146647 0.276768 0.386138 -0.007749 -0.555440 -0.168533 0.176734 0.236990 -0.203843 0.149156 -0.156358 -1.088106 0.584080 -0.068174 -0.238296 0.464285 -0.341670 -0.713127 -0.259834 0.067037 0.233006 -0.725528 -0.721147 -0.730977 0.446751 -0.710052 0.786989 -0.155733 0.489112 0.187724 -0.455681 0.284637 0.670573 0.423824 0.279930 0.018121 0.601534 -0.197688 0.422772 1.075007 0.541481 -0.348414 0.142301 0.745204 -0.441243 0.047932 -0.453001 0.032317 -0.099863 0.682670 -0.460572 0.059270 -0.304793 -0.556634 -0.623207 -0.485493 0.073296 -0.641144 0.150814 0.031230 -0.586333 0.579191 0.375652 0.337798 -0.699963 -0.315896 1.019302 0.444976 -0.354117 0.598374 0.340150 0.089274 0.114748 -0.867174 -0.508528 0.307936 -0.446789 -0.054576 0.507980 1.032802 0.806991 0.178083 -0.175209 -0.136602 0.012721 0.599551 0.097154 -0.164636 -0.488957 0.336657 0.391806 -0.200281 -0.618037 0.731605 0.484454 -0.258328 -0.706090 0.391329 0.204108 -0.262773 1.077294 0.192114 -0.254389 -0.420782 -0.590139 0.066361 0.737739 0.066164 -0.846628 0.282641 0.402350 -0.061216 0.348000 0.298304 -0.198943 -0.046667 -0.069211 -0.542636 -0.169900 -0.236738 -0.148027 -0.220513 0.592565 0.798556 -0.326031 0.056161 0.381158 -0.571187 -0.585366 0.305002 0.217010 -0.499374 -0.300999 -0.224772 -0.187979 0.399975 0.834632 0.789476 0.437088 0.395869 -0.125434 -0.509258 -0.134461 -0.277792 0.506854 0.201212 -0.178657 1.193593 -0.030672 -0.240107 0.695265 0.074024 -0.310505 0.276618 0.216545 0.848486 -0.348846 -0.800706 -0.293453 -0.228570 0.012977 0.733651 0.461174 -0.874802 -0.039673 0.280489 0.462896 0.288184 -0.750678 -0.820426 -0.414589 0.135811 0.019844 1.571139 -0.098639 -0.069303 -0.287239 -0.570728 0.117278 0.082982 0.298304 0.475390 0.647586 0.781987 -0.000317 0.257740 -0.705236 0.011375 0.040378 1.324235 -1.011774 -0.403123 0.244068 0.067999 -0.700317 0.725582 0.163893 -0.428227 -1.584923 -0.145061 0.009964 0.032023 -0.710847 -0.081270 -0.431921 0.370410 0.927456 0.021662 -0.813862 -0.454138 0.287427 -0.511002 -0.529819 0.255814 0.084186 -0.450008 0.210365 -0.216146 -0.394579 0.628353 0.291015 -0.697360 0.550091 0.448363 -0.045747 -0.533029 -0.237755 0.982141 0.074259 -0.623026 0.168166 0.392108 -0.030805 0.472147 0.251476 0.018229 -0.485189 0.308988 0.365697 0.021742 -0.181315 0.120586 0.594058 -0.178474 -0.675920 -1.554362 -0.286000 -0.335390 0.047008 0.239011 -0.169987 -0.449528 -0.360093 0.344912 -0.030769 0.488238 -0.689744 -0.651709 0.442856 1.233511 -0.727532
M013_OFF -0.480192 0.163218 0.764340 -1.152002 0.330686 -0.405951 1.081894 1.929567 -0.165888 -0.224823 0.220292 0.207729 0.506510 -0.048466 0.043289 0.716942 0.490495 -0.146529 0.774817 -0.323472 -0.748096 0.129529 0.045624 0.796440 -0.342401 -0.367141 0.055501 0.393616 0.441796 0.128022 -0.299262 -0.856655 0.083003 -0.961804 -0.053310 0.170969 -0.650533 0.332467 0.203218 0.360013 0.416781 0.109231 -0.446941 -0.167646 0.345566 -0.308324 -0.512216 -0.259861 -0.134338 0.340552 -0.604574 -0.511172 0.993550 -0.306534 -0.689660 -0.337980 -0.152918 -0.475976 -0.492513 -0.072212 -0.311865 -0.158490 0.230788 0.370798 -0.719881 0.126257 0.510498 0.455577 0.158430 0.685917 0.304905 -0.376412 -0.189463 0.533683 0.466750 -0.143839 0.410720 0.778124 -1.179487 0.181263 -0.072234 -0.082246 1.192766 0.132553 -0.623237 0.155170 0.330777 0.376913 -0.025172 0.226152 0.115427 -0.398623 -0.261532 -0.764343 -0.916985 0.406037 -0.240858 -0.552548 0.175604 0.001339 -0.294606 0.050092 0.887851 0.256904 -0.389763 0.027286 0.217290 0.448681 -0.663783 0.102932 -0.370450 0.398038 -0.282030 -0.425138 0.985560 0.299460 -0.666867 -0.059955 -0.065035 0.151673 0.377168 0.968166 -1.214990 0.066928 0.328204 0.796474 0.778051 -0.443218 -0.345437 -0.088652 -0.715127 0.436972 -0.122379 -0.214366 -0.222741 0.431589 -0.396342 -0.107934 -0.064808 -0.051023 0.822087 0.938145 0.327636 -0.285593 -0.060493 0.114535 0.083610 -0.573890 -0.673924 -0.436151 -0.635942 0.644193 -0.041781 -0.360640 0.421056 -0.299895 -0.243457 -0.015353 0.110495 0.345784 -0.096196 -0.880597 -0.766600 0.189181 0.330156 0.297378 0.799211 0.622027 0.290363 -0.437824 -0.026464 0.625396 0.506936 -0.169297 -0.317891 0.745782 0.020883 0.133933 1.217612 0.181004 -0.607752 0.358049 0.033235 -0.204788 -0.108910 -0.404046 -0.036489 -0.159351 0.938032 -0.088497 0.157412 -0.567672 -0.725615 0.043314 -0.968907 0.389481 -0.416367 0.418964 0.093070 -0.641228 0.156863 0.317956 0.693459 -0.594842 0.012587 0.105919 -0.177814 -0.154112 0.651323 0.463905 -0.109442 0.310775 -1.158958 -0.266214 0.546366 -0.558428 -0.168755 0.903994 0.275147 0.757639 0.165459 -0.071389 0.886293 -0.087585 0.231749 0.389390 -0.161757 -0.404481 0.583459 0.481655 -0.019063 -0.172530 0.841332 0.319142 -0.648558 -0.210774 0.726537 -0.056634 -0.815450 0.495959 -0.108918 -0.607249 -0.243742 -0.704841 -0.266995 0.696554 0.268300 -0.241607 -0.058726 0.253873 -0.070625 -0.399959 0.632560 0.451805 0.381746 0.037090 -0.258412 -0.175970 -0.040253 -0.399923 -0.108848 0.246175 0.165762 0.263001 -0.121330 -0.140539 -1.028399 -0.174653 0.526967 -0.189415 -0.492163 0.249123 -0.155458 -0.039779 0.528747 0.640890 0.552210 0.334127 -0.049806 0.684961 -0.115498 -0.084661 -0.517590 0.125505 0.080283 0.465279 0.896385 -0.207638 -0.415320 0.699139 0.710684 -0.306038 0.590903 0.005030 0.252085 -0.431714 -0.366576 -0.074999 -0.090829 0.158446 0.361359 0.890907 -0.425583 0.231035 0.621572 0.845952 0.663833 -0.083763 -0.637700 -0.323060 -0.238253 0.036785 1.164151 -0.032713 0.103389 -0.202491 -1.169905 0.131378 -0.355195 0.304697 0.153060 0.893788 0.395157 -0.031940 0.331726 -0.240496 -0.284586 0.019088 0.587231 -0.421380 0.259607 0.172351 -0.163163 -1.008738 0.223250 0.381781 -0.095393 -1.223002 -0.474956 -0.673241 0.176958 0.034701 -0.408103 -0.200516 0.365293 0.325401 -0.041073 -1.295356 0.339811 -0.866327 -0.225462 -1.006157 -0.225986 -0.584804 -0.071767 -0.121742 -0.391580 -0.865647 0.579533 -0.290930 -0.508186 0.582961 0.486857 0.630975 -0.004952 0.313740 -0.238884 -0.060407 -0.235077 0.653735 -0.032747 0.171592 -0.078062 0.223450 0.940831 -0.622257 0.870241 0.380327 0.562296 0.058672 0.210176 0.681595 0.365893 -0.136499 -1.594064 -0.590063 -0.588732 0.307282 0.374578 -0.138668 -0.504033 0.370725 0.043414 -0.100390 -0.001054 -0.630687 -0.524232 0.222850 0.107031 0.905375
M018_ON 1.344745 -0.396671 -0.580391 0.577191 -0.014307 0.400194 -0.371876 0.534403 0.072650 0.675597 -0.226194 -0.723283 -0.334251 0.074757 -0.182056 0.269287 0.919655 -0.317867 -0.885507 0.545456 -0.092190 0.238758 -0.083176 -0.506863 -0.403767 0.827733 -0.971641 -0.232340 0.272086 0.327804 0.521186 0.532546 -0.106846 -0.327184 0.092200 -0.042332 -0.176870 -0.360491 -0.353737 -0.721973 -0.851134 -0.656049 0.576434 -0.198754 0.740291 -0.187818 -1.477166 -0.424422 0.596802 -0.457973 -0.207633 0.246433 -0.620505 -0.386499 0.170134 0.501546 -0.843403 -0.138487 0.010039 -0.584212 -0.671521 0.298420 -0.418306 -0.342566 0.341244 0.372929 0.192171 -0.514131 0.599766 -0.771939 -1.136017 -0.625470 0.156746 0.327544 -0.063876 -0.135465 0.267563 0.128984 -0.377539 -0.246740 0.650296 0.160687 0.546074 -1.019855 0.667115 -0.407112 0.513598 -1.002224 0.171990 0.071779 0.521964 -0.788469 0.185982 -0.727266 -0.304247 -0.867549 0.093940 -0.242123 0.878645 -0.171761 0.014153 0.464144 0.843416 0.548739 0.765501 0.474458 0.356234 -0.175613 -0.524673 -0.935291 0.207473 0.117214 0.385831 -0.490160 0.223983 0.393421 0.372804 0.285813 0.415023 -0.517047 -0.001762 -0.626550 -0.848269 0.088908 -0.022616 0.813775 -0.297520 -0.771173 -0.207201 0.372306 -0.005519 -0.262132 0.034052 0.542897 -0.334035 -0.263920 -0.622631 -0.571486 0.273970 -0.446242 -0.153660 0.469952 0.252655 -0.346412 -0.202308 -0.587904 0.003619 -0.224836 1.562149 -0.140170 -0.799889 -0.838137 0.474496 -0.684920 -0.943671 -0.209435 0.077352 -0.658479 -0.543985 0.100224 -0.023920 -0.628289 -0.091126 -0.040979 0.207998 0.964405 -0.005255 -0.556047 -0.420838 -0.128743 0.542468 -0.020753 0.136358 -0.478245 -0.437578 0.617747 0.157523 -0.243374 0.367360 -0.002803 -0.284817 0.753325 0.631411 0.491668 0.570436 0.165858 0.476210 0.352106 0.324224 -0.216055 -0.492662 -0.937747 0.412422 0.024573 -0.224097 -0.417001 0.532040 1.001350 -0.327261 0.027984 -0.407786 0.122141 0.126371 -0.285456 -0.586902 -0.254709 -0.568848 0.153470 0.354288 -0.106873 -0.888468 0.599355 -0.247063 -0.306336 0.281175 0.025589 -0.032883 0.580549 0.277757 0.388054 -0.200323 -0.551602 0.206010 -0.829531 -0.067121 -0.015764 0.582506 0.341482 -0.520033 -0.070244 -0.377881 0.026723 0.623139 -0.552117 -0.768306 -0.243417 0.016984 1.404872 0.596910 -0.376005 -0.597726 -0.059078 1.091138 -0.014658 -0.960651 0.186309 -0.092325 -0.275222 0.629441 -0.004252 0.300545 0.456760 -0.382994 -0.430518 0.650751 0.805714 -0.102841 0.067539 -0.425603 0.140533 -0.420270 0.147390 -1.015307 0.565002 -0.308757 0.540983 -0.226167 -0.141067 0.822290 0.699634 0.518913 0.280810 0.243662 -0.754193 -0.562009 0.292572 0.287110 -0.880763 -0.520470 0.102082 0.022253 -0.062042 0.955862 0.523673 -0.338134 -0.496094 -0.185866 0.288097 -0.547077 0.322445 0.494586 0.001470 0.031096 -0.281511 -0.206679 0.224217 0.370729 -0.699457 0.854726 0.877851 -0.358991 -0.605717 -0.406168 0.950221 0.249703 0.413602 -0.091173 0.088670 0.576490 -0.206752 0.121365 0.653423 0.140411 -0.056403 0.186670 -0.589233 0.207154 0.264426 -0.465182 -0.103470 0.144544 0.928787 0.021818 -0.279762 -0.953884 1.018718 -0.943485 0.374772 0.590033 0.456479 -0.123278 -0.437940 -0.539489 0.147366 -0.208668 0.169075 -0.061805 -0.266771 -0.454208 0.804611 -0.881587 0.872924 -0.342605 -0.612901 -0.111643 0.386334 0.545130 1.234403 -1.228442 0.603599 0.325145 0.382198 -0.228265 -0.538006 -0.148791 -0.376982 -0.358547 0.570611 0.104741 0.177287 -0.533689 -0.334668 0.331442 -1.095620 0.131006 -0.706369 -0.145792 -0.092429 -0.279344 -0.530593 1.213894 0.176615 -0.026377 0.249884 -0.562102 0.049886 0.052887 -0.798722 0.280081 0.332899 0.155816 -0.269899 0.187941 -1.072099 0.278026 -1.550649 -0.028238 -0.334716 0.021598 0.287280 0.240502 -0.245677 -0.519638 0.710810 0.583403 -0.213700 0.156018 -0.221352 -0.650404 -0.041655
M018_OFF 0.602484 -0.954177 -0.623390 0.378692 -0.210956 0.682918 0.235223 0.338190 -0.361247 0.039390 0.328079 -0.428320 -0.497616 -0.274084 -0.118819 0.508716 0.529470 -0.611753 -0.567934 1.038761 -0.812968 0.924110 0.208007 -0.557360 -0.824773 0.732593 -0.133900 -0.534415 0.058162 0.217970 0.933726 0.027620 -0.048445 0.109195 0.344561 0.733499 -0.682083 -0.054836 -0.096441 -0.780528 -0.318326 -0.810124 0.629247 -0.002203 0.420533 -0.150252 -0.316702 0.570938 0.769785 0.083331 -0.650892 0.457556 -1.161339 -0.235829 0.111786 0.003752 -1.057008 0.437677 0.605242 -0.366558 -0.711219 0.181466 -0.262595 -0.390447 0.232715 0.045816 0.221907 -0.016192 0.884941 -0.588491 -0.799688 -1.011185 -0.657295 0.743885 0.282401 -0.439976 0.869011 0.209742 0.288865 -0.412876 0.234431 -0.120676 0.961312 -0.113001 0.932182 -0.026164 -0.343279 -0.979668 0.294028 -0.105449 -0.207896 -0.140922 0.115679 0.453115 0.049357 -0.176769 -0.314772 0.439945 -0.074557 -0.124065 0.037638 0.252795 0.439782 0.205341 0.774182 0.765431 -0.318586 0.058000 -0.379783 -0.156958 -0.764488 0.044758 -0.524752 0.131420 0.271441 0.261778 -0.033694 -0.016921 0.535212 0.070692 -0.003143 -0.359317 -0.091377 0.215302 0.353263 0.466468 0.030061 -0.919153 -0.754738 0.475345 -0.312654 -0.273135 0.424011 0.704311 -0.331922 0.089969 0.418134 -0.358038 -0.210682 -0.192287 0.143595 0.362024 -0.090578 0.162951 0.318794 -0.607218 -0.171514 -0.658699 0.521527 0.211058 -1.012860 -0.119603 1.436798 -0.632918 -0.850740 0.631630 0.396432 -0.583822 -0.583641 -0.274190 -0.051745 -0.494163 -0.247212 1.209384 0.098667 0.997273 0.363780 -0.397047 -0.764989 -0.604183 0.164129 0.203245 -0.206685 0.344218 -0.547398 -0.057003 0.101037 -0.723071 0.396945 -0.128031 0.190863 0.964382 -0.029537 0.796555 0.433052 -0.393836 0.552164 0.265650 0.571543 -0.605943 0.406467 -1.076534 -0.257772 0.014988 -0.491523 -0.233463 -0.359504 0.539979 -0.060143 -0.611215 -0.100953 0.093932 0.018362 0.002265 -0.769819 0.428820 0.225699 -0.863465 0.044979 -0.234619 -0.946857 0.179750 0.646867 -0.761097 0.190561 0.094706 -0.459841 0.103597 0.069156 0.764387 0.127435 0.404728 -0.501941 -0.580964 -0.922604 0.143454 0.320596 0.473234 -0.319658 -0.355227 -0.644311 -0.216321 0.904180 -0.119217 -0.799639 -0.869778 0.225243 0.507188 0.382287 -0.637373 -0.122471 -0.218505 0.552830 0.047451 -0.228348 -0.036935 0.488412 -0.718606 -0.241544 0.200334 -0.185998 0.789553 -0.362895 0.068396 -0.099439 -0.094253 -0.121391 -0.718112 -0.067685 0.351087 0.035311 0.030677 -0.119842 0.354180 -1.065822 0.957633 0.298117 0.543767 0.389314 0.106536 0.304302 -0.063676 1.234309 -0.604660 -0.268771 0.062232 0.094388 -0.747935 -0.284891 0.596597 0.018638 -0.123524 0.008093 -0.335899 0.814203 -0.418255 -0.023864 0.569921 -0.752394 0.268570 0.130751 -0.011443 0.223201 -0.334571 -0.651573 0.109308 0.464926 -0.055910 -0.389753 1.098684 -1.024620 0.140027 -0.563953 0.203069 0.594369 0.084152 -0.040397 -0.034219 -0.008680 0.008590 -0.934650 0.226713 0.317926 -0.451318 0.656941 -0.755864 -0.097048 -0.055925 -0.721844 -0.185340 0.575559 0.805136 -0.203300 -0.260196 -0.580221 1.320574 -0.384334 0.715773 0.165444 1.453222 -0.355247 -0.666039 -1.090153 0.614069 -0.757711 -0.474257 0.069595 -0.072166 -0.626603 0.709960 -1.123003 0.366162 0.139590 -0.224952 -0.560881 0.408174 0.282643 0.707713 -0.127826 0.590874 -0.280798 -0.108941 -0.620722 -0.556557 -0.397419 -0.821966 0.340593 -0.218318 -0.076936 -0.172793 -0.967414 -0.493408 0.654612 -0.934391 0.270904 0.060231 0.548390 0.500077 -0.851311 0.275942 0.238403 -0.161542 0.629699 -0.506231 -0.057675 0.548351 0.048752 0.057328 0.506514 0.259134 0.405399 -0.750530 0.240872 -0.225543 0.681000 -1.015777 0.374215 -0.326008 -0.717468 -0.271531 -0.067781 0.343605 -0.057099 0.343671 -0.050610 -0.197374 -0.133599 -0.029513 -0.980585 0.792371
M024_OFF 1.330806 -0.560259 -0.049185 -0.526123 0.595085 0.733252 -0.130919 -0.126333 0.400555 -0.314270 1.026886 0.593612 0.409002 -0.181583 -0.165397 0.533826 1.357902 0.142179 0.011410 -0.239162 0.210198 -0.717615 -0.000413 -0.167848 -0.173493 0.066807 -0.171215 -0.181344 -0.198687 0.775463 -0.319238 0.472482 -0.459801 0.181787 0.218709 0.571239 -0.529707 -0.878252 0.178952 -0.164528 -0.548188 0.105372 0.496937 -0.998946 -0.269840 -0.143198 -0.250118 0.378599 -0.103933 0.463039 -0.513347 0.764516 -0.139864 -0.651164 -0.233029 -0.309978 -1.266654 -0.340766 0.703399 0.074502 -0.021634 0.390140 -0.166959 -1.088276 -0.784879 -0.161055 0.769970 -0.460460 -0.071106 0.904558 0.346501 0.212092 0.750050 -0.142804 -0.163327 0.701209 -0.617091 -0.567950 0.657840 0.505168 0.310357 0.179027 0.195210 0.361734 -0.624487 0.164169 0.235494 0.053397 0.257477 -0.120962 0.294174 0.516155 0.271488 -0.290299 0.576790 -0.330619 -0.338075 -0.726777 0.233878 0.259966 0.632290 0.085365 -0.209255 0.679810 0.130681 -0.436342 0.200509 -0.118504 -0.362941 -0.035990 -0.024996 -0.260167 0.650260 -0.207392 -0.244395 0.796095 -0.380262 1.616300 -0.124353 -0.025720 -0.280139 -0.535962 -0.188940 -0.064279 -0.490009 -0.462721 -0.587316 -0.704137 1.082066 -0.611950 -0.725959 -0.165536 -1.252595 0.602147 -0.391986 0.379879 1.351860 -0.197769 -0.466417 -0.588731 0.568947 -0.106549 0.018349 0.267065 -0.836354 0.863150 -0.520953 -0.427912 0.064506 0.046328 0.432127 -0.763958 -0.364461 1.340825 0.457212 0.604728 0.241996 0.094381 -1.103417 -0.602620 0.621239 0.305374 -0.241410 -0.855432 -0.501939 0.524324 0.196918 0.721252 -0.200249 0.119686 0.378166 -0.307551 0.423554 -0.331382 -0.024011 0.897161 0.291643 0.585117 0.456610 0.294610 -0.256080 -0.851470 0.066905 0.392409 -0.523061 -0.129295 -0.332140 -0.860284 0.002347 -0.020903 -0.432132 -0.178557 -0.762105 -0.304588 -0.443301 0.337680 0.208451 -0.681828 0.124706 0.678595 -0.221295 0.284376 -0.896065 -0.169530 0.188826 -0.354769 -0.197967 -0.073343 -0.669239 0.091097 -0.039416 0.235724 0.358808 0.189073 -0.150307 0.591538 0.460736 0.166745 0.421870 -0.964512 0.649316 -0.135845 0.098855 1.145733 0.422128 -0.639966 0.621155 -0.472922 -0.794222 -0.220232 -0.137069 -0.916473 -0.421726 -0.668267 0.655908 -0.128762 0.328659 -0.347356 0.558626 -0.451735 1.442330 -0.637542 0.000436 0.298256 0.132732 -0.383856 -0.359179 0.656515 0.131890 0.394781 0.231714 -0.889131 0.680073 -0.156703 -0.366214 0.798565 -0.720400 -1.628017 0.675814 0.365861 0.361123 -0.088740 0.922039 -0.520157 -0.057810 -0.112857 0.575172 -0.844512 -0.962557 -0.299267 -0.167990 -0.883948 -0.227198 0.068076 -0.075857 0.473234 0.727363 0.065501 0.059143 0.897714 0.294026 -0.295017 0.939747 -0.312929 0.339188 0.118938 0.081090 -0.841073 -0.005819 -0.233686 -0.102944 0.489298 -0.329681 -0.480708 0.712097 0.181726 0.004083 -0.271527 0.262586 -0.336138 0.233711 -0.576457 -0.177379 -0.305512 -0.925138 0.395529 -0.651874 0.328025 0.635480 -0.239528 -0.334888 0.618822 0.319972 -0.758688 -0.034375 0.427771 0.412533 -0.371433 -0.741498 0.348176 -0.213268 -0.410431 -0.239890 0.167220 0.054856 -0.176588 -0.267369 0.043440 0.694255 0.695035 -0.502262 0.022801 0.553885 0.010216 -0.129197 -0.399919 -0.006052 -0.064933 0.458110 -0.157028 -0.191201 -1.056497 0.389310 0.544865 -1.110868 -0.176312 1.074204 -0.661253 -0.414244 -0.370909 -0.055573 1.156835 0.066836 0.162265 -0.839834 -0.683530 0.373957 -0.435352 0.455472 -0.940758 0.126478 0.633356 -0.534424 0.405327 0.118145 -0.493858 -0.034874 -0.285246 -0.056623 -0.621921 -0.773743 -0.073886 -0.402441 -0.390190 0.032053 -0.108001 0.563951 -0.278039 0.401275 0.101573 -0.199774 0.327955 -0.238969 -0.441715 -0.325753 -0.213008 0.392705 0.241414 -0.755445 -0.286120 -0.133681 0.059526 -0.264856 0.074939 -0.141795 0.606047 0.854557 0.191884 0.678974 0.227736
M024_ON 1.145109 0.408376 -0.546137 -0.348207 -0.172568 0.476388 -0.218437 -0.216894 0.213101 -0.058129 0.641788 0.349971 0.170114 -0.204152 -0.079385 0.306068 0.972530 0.553390 -0.033007 -0.391656 -0.086561 -0.644817 0.654649 -0.719836 -0.015982 0.327090 -0.471352 -0.020636 0.592823 0.030460 -0.602163 0.187004 -0.353918 0.383265 -0.214836 0.100659 0.057940 -0.017259 0.198357 0.017748 0.154857 0.737559 0.021819 -0.231019 0.189911 0.153362 -0.122143 0.337244 0.410804 0.915289 -0.582798 0.798897 -0.448674 -1.122014 0.275864 0.245162 -0.727726 -0.392206 0.925939 0.020682 0.657572 0.305884 -0.350222 -0.668290 -0.121270 -0.079686 0.383820 -0.097458 0.483842 0.883522 0.575436 -0.175186 0.189240 0.095479 0.870364 0.300219 -0.603204 -0.079324 0.477527 0.414633 0.539838 -0.072792 0.291606 -0.143174 -0.894669 0.104347 -0.390308 -0.046031 0.054236 -0.180273 -0.161156 1.269298 0.389651 -0.041902 0.565523 -0.377921 -0.034545 -0.564200 -0.186385 0.184682 -0.093236 -0.621122 -0.590088 0.166358 -0.081360 -0.899307 -0.066159 -0.029197 -0.445916 -0.276054 -0.346752 -0.208469 0.666723 -0.205539 -0.366648 0.165599 -0.548817 1.299560 -0.267838 -0.287182 0.518042 -0.439435 0.660127 0.334978 -0.445852 -0.253514 -0.288419 -0.438749 0.688905 -1.221655 -0.840513 -0.465209 -0.828546 0.998600 -0.312754 0.068769 1.637631 -0.000018 -0.143895 -0.322054 0.414679 0.119003 0.289711 0.222472 -0.311777 0.830010 -0.144909 -0.214603 0.197376 0.014526 -0.197059 -0.475134 -0.259918 1.060138 0.014709 0.748012 0.173417 0.475776 -0.397502 -1.167843 0.082821 -0.171386 -0.111854 -0.347564 -0.275453 1.022663 0.245907 0.976865 -0.324320 0.081622 0.501433 -0.784052 0.598371 -0.122309 0.334878 0.918309 0.279802 0.463327 0.390738 0.246455 0.268333 -0.393121 -0.163672 0.242480 -0.056641 0.129765 -0.347702 -0.468891 0.077835 -0.398768 -0.736254 0.120708 -0.312532 -0.812737 -0.721842 -0.315135 0.436183 -0.551048 -0.098321 0.338858 -0.179828 -0.020598 -0.244602 -0.136334 -0.136064 -0.246206 -0.373313 -0.075495 -0.867038 0.138036 -0.229629 0.121227 0.391049 0.300472 0.403520 0.335693 0.199370 -0.226198 0.002394 -1.038107 0.133172 -0.099102 0.497401 0.958591 0.697597 -0.768081 0.687387 -0.167404 -0.618210 -0.311094 0.795454 -0.585228 -0.327594 -0.117115 0.276783 0.614525 -0.038094 -0.199982 0.698465 -0.408413 0.561086 -0.639348 -0.369028 -0.060523 0.305709 0.101370 0.082996 0.550453 0.441573 0.249142 -0.356058 -0.764200 0.867354 0.221678 -0.622581 1.321942 -0.420995 -1.813635 0.245787 -0.169475 0.300037 -0.044846 1.316528 -0.248153 0.045800 0.219581 0.665137 -0.492412 -0.824052 0.132584 0.666226 -1.559288 -0.395848 0.604322 -0.180846 -0.133386 0.856029 0.071444 0.869707 0.707647 0.149707 -0.379981 0.935662 -0.688818 0.409205 -0.094970 0.403019 -1.241658 -0.266917 -0.163217 -0.451248 1.227661 0.505154 -0.331149 0.555471 -0.288585 -0.489417 -0.019407 0.283062 -0.340246 -0.627546 0.106545 0.201427 0.650689 -1.038861 0.417418 -0.114599 0.362784 0.744810 -0.421299 -0.563498 0.047143 -0.530369 -0.494816 0.318362 0.028827 0.966661 0.246274 -0.992534 0.057720 0.227305 -0.845976 0.266252 0.120703 0.181405 0.415610 -0.139334 -0.246005 0.112587 0.871252 -0.665355 0.103109 0.546882 -0.186986 0.342184 -0.329072 0.398889 0.293491 0.153589 0.044386 -0.208834 -0.924963 -0.009331 0.263443 -0.873860 0.019406 1.126075 -0.261277 0.250255 -0.235256 0.360335 1.304975 -0.043499 0.492979 -0.639288 -0.127966 0.538038 -0.340292 0.809985 -0.641640 -0.233030 0.224533 -0.817581 0.443711 0.067009 -0.876084 -0.029562 -0.136812 0.196390 -0.215677 -0.807396 -0.119487 -0.452263 -0.431130 -0.302065 -0.132951 0.519242 -0.054444 -0.441364 0.294540 0.242988 -0.463876 -0.920976 -0.422296 -0.477279 -0.735679 0.144228 0.143704 -1.221326 -0.187664 -0.206431 0.079772 -0.375304 -0.186365 -0.341726 0.518924 0.699208 -0.698297 0.786341 0.921918
M017_OFF 1.228196 -0.508148 -0.798098 1.036560 -0.515852 1.074863 0.036855 0.079066 -0.737228 0.324704 -0.191943 -0.920057 0.041566 0.055810 -0.602712 0.125857 1.374009 -0.765069 -0.802348 0.814429 0.034845 0.160085 -0.309249 0.113330 -0.775566 0.554569 -0.745586 -0.360787 -0.178110 0.159158 1.006309 0.396922 0.328001 -0.401534 0.217734 0.813023 -0.023721 -0.492952 -0.450157 -1.000962 -0.931642 -0.411717 1.098623 -0.118583 0.308430 -0.078750 -0.820385 0.030956 0.881982 -0.493017 -0.660538 0.129131 -1.127660 -1.138645 0.176522 0.642994 -1.244305 -0.349782 -0.337528 -1.152693 -0.960918 0.696520 0.000641 -0.299298 1.000169 -0.357788 -0.624814 -0.141628 0.954978 -1.449293 -1.285107 -0.896508 0.089688 -0.239387 -0.026116 -0.168539 0.758382 -0.341666 -0.197846 -1.070279 0.044354 -0.099585 0.384884 -1.174999 0.779285 -0.995542 0.262852 -0.826027 0.548754 -0.189310 -0.158647 -0.055677 0.231367 0.447406 0.121355 -0.140386 0.025833 -0.380636 0.146216 -0.260069 -0.076043 0.577679 0.047432 0.747017 0.812008 0.043438 -0.442970 -0.188404 -0.030546 -0.868020 0.180268 -0.467072 -0.583877 0.173519 0.561129 -0.149866 0.180374 0.121930 1.246374 -0.564257 0.165119 -0.824925 0.218243 0.229266 -0.224039 1.319840 -0.375754 -0.444674 -0.501570 0.460567 -0.359076 0.070615 0.018739 0.857403 -0.282829 -0.946669 -0.025949 -0.731947 -0.184217 0.110552 0.084860 0.575415 -0.031201 0.214150 -0.353689 -0.579385 -0.254675 -0.567385 0.867343 -0.243923 -0.824953 -1.099064 0.661924 -0.304500 -0.895875 -0.028783 -0.098280 -0.995326 -1.267320 -0.421528 -0.181524 -0.204928 -0.084370 1.021298 -0.507796 0.467796 0.390012 -0.512078 -0.201368 -0.651896 0.689849 0.316088 0.365980 -0.335598 0.210653 0.509763 0.355138 0.399872 -0.248197 0.181769 -0.033845 1.144737 0.343814 0.930298 0.105001 0.230135 -0.005056 0.685601 0.308074 -1.052560 -0.813380 -0.377752 -0.043613 -0.119486 -0.075753 -0.127872 0.340345 0.518721 -0.627714 -0.333456 -0.693742 -0.144766 -0.349442 -0.193024 -0.648640 -0.202767 -0.073758 -0.165249 0.111392 -0.537883 -0.840715 -0.059471 0.392686 -0.354006 -0.279518 0.267072 -0.300985 0.135940 -0.210773 -0.021149 -0.508245 0.168897 -0.464756 -0.620541 -0.325426 0.445880 0.276211 0.288603 -0.427933 -1.011211 0.693457 0.184057 1.395645 0.023504 -0.643105 -0.544210 0.047293 0.675398 1.050357 -0.455413 0.035565 0.151138 1.311388 -0.011579 -0.575154 -0.498524 -0.558894 -0.200316 0.517610 0.274561 -0.329227 0.793757 -0.002098 0.105612 0.112935 0.546775 -0.167781 -0.719057 0.133596 0.122869 -0.216957 -0.091905 -0.240779 0.364704 -0.385924 0.292822 0.166849 0.129211 0.278266 1.135732 0.743652 0.453988 0.955650 -0.787306 -0.741068 -0.144816 -0.038853 -0.535124 0.301349 0.568214 -0.044649 0.370039 0.753836 -0.145009 0.230605 -1.211521 -0.769523 0.315528 0.017775 0.015659 -0.016807 0.649845 0.505246 -0.203559 -0.354314 0.979231 0.014143 -0.763183 0.226244 0.771503 -0.601413 -0.352758 -0.218383 0.813009 0.427264 -0.166332 -0.782469 0.671072 0.728373 0.302243 -0.165483 0.345935 -0.152443 -0.479766 -0.484917 -0.953290 0.007212 0.173596 -0.949136 0.004139 0.180721 -0.112610 -0.049279 -0.714138 -0.339649 0.535546 -0.659253 0.863004 0.814362 1.392780 0.033510 -0.949951 -0.947400 0.448432 -0.012840 0.214195 -0.230094 -0.220844 -0.911400 0.062236 -0.732938 -0.072280 0.004451 -0.028207 -0.201586 0.421371 0.580545 1.950122 -1.329040 0.781000 0.440245 -0.076398 -0.333250 -0.114853 -0.354014 -0.041697 -0.015108 0.095317 0.217779 0.531701 -0.529772 -0.145797 -0.298348 -0.592209 -0.195935 -0.507312 -0.656827 -0.243300 0.599107 -0.353606 0.262417 0.669199 0.404330 -0.396000 -0.362171 0.266848 0.413290 -0.852170 0.654898 0.587850 0.616504 -1.279567 -0.011601 -0.490344 1.218792 -1.223100 0.481872 -0.470665 -0.612066 0.402204 0.000769 0.579352 0.152648 -0.054511 0.067220 0.360412 0.663179 -0.328370 -1.107199 0.698147
M017_ON 0.863125 0.118869 -0.214822 0.609726 0.186965 0.260693 -0.078537 0.731958 -0.392132 -0.137914 0.327511 -0.360324 -0.567564 -0.194024 -0.225031 0.591138 0.315503 -0.045928 -0.476795 0.184773 -1.320169 0.562391 -0.430676 -1.117895 -0.571974 0.795069 0.009270 -0.480473 -0.168274 0.437516 0.414469 -0.305215 -0.115165 -0.686970 0.454475 -0.401512 -0.217412 -0.141790 -0.519632 -0.528798 -0.968283 -0.593368 0.697531 -0.145169 1.288890 -0.073290 -1.031853 -0.194584 0.820871 -0.402108 -0.507951 -0.025135 -0.534158 -0.785738 0.532294 0.867387 -0.888505 -0.067216 0.540666 -0.377062 -1.039441 -0.213472 -0.024490 -0.375349 0.468520 0.304392 -0.088726 -0.847421 0.332326 0.077340 -1.623525 -0.743663 0.021707 -0.351417 -0.621322 -1.008083 0.435235 0.106604 0.559088 -0.136202 -0.190239 -0.458754 0.639417 -0.916985 1.026629 -0.503177 -0.025509 -1.153175 0.233947 -0.092279 0.792395 -0.143487 0.310452 -0.207001 0.568279 0.123913 0.229161 0.348801 -0.067358 -0.274500 0.057626 0.142470 0.285566 0.555948 1.279508 0.740522 -0.546650 0.319293 -0.370742 -0.487162 -0.228829 -0.093294 0.391803 -0.060792 -0.091812 0.494419 0.216985 0.948744 0.868541 -0.091755 -0.116028 -0.816633 -0.909091 0.497433 0.270716 0.296757 0.132788 -0.053125 -0.667521 0.638241 -0.327929 -0.593890 0.217102 1.149819 -0.113203 0.079431 -0.536058 -0.835857 0.217071 -0.283323 -0.287306 -0.564346 -0.109054 -0.139311 0.227401 -0.425711 -0.157377 -1.188446 0.926068 0.060051 -1.065486 -0.700099 0.596480 -1.010417 -0.797224 0.192534 -0.352740 -0.179165 -0.523857 -0.154005 -0.385030 -0.952302 0.238580 1.343003 0.268182 0.643155 0.424506 -0.752380 -0.794823 -0.482250 0.420765 0.376671 -0.067529 -0.277220 -0.425664 -0.181246 0.693980 -0.391165 -0.246450 0.665819 -0.064476 0.664567 0.572342 1.009308 -0.067095 0.447481 1.144233 0.591917 0.348424 -0.254393 0.247823 -1.235402 0.056851 -0.585902 -0.579772 0.086220 0.061545 0.764161 -1.143241 -0.435357 -0.166325 0.093882 -0.402463 -0.055954 -0.807285 -0.228144 -0.257235 -0.676882 -0.154701 -0.324076 -0.997277 -0.164753 0.843734 -0.814048 -0.255562 0.250610 0.574387 0.571864 0.255138 -0.074389 0.512932 0.774705 -0.600749 -0.059525 -0.147844 0.192138 -0.156275 1.086850 -0.650887 -0.835865 -0.146990 0.326283 0.922938 0.329261 -0.612977 -0.479423 0.564219 1.070499 0.598045 -0.918968 -0.334980 0.093203 0.489420 1.061192 -0.869780 -0.306033 -0.313514 -0.105179 -0.450215 0.318760 0.277998 1.009828 -0.047822 -1.027328 0.128792 0.020520 -0.091223 -0.419856 -0.221356 0.173748 -0.280019 0.471138 -0.322525 0.143246 -0.151842 0.605272 0.823557 0.860199 0.188828 0.446645 0.000626 -0.188334 0.899876 -0.922178 -1.090563 0.010501 -0.031598 -1.387191 0.320897 0.296263 -0.066816 -0.116634 0.602720 -0.628435 -0.144850 -0.538560 -0.534274 0.184858 -0.106574 -0.090117 0.666201 0.381518 0.472339 -0.140758 -0.060905 0.858674 0.099845 -0.415803 0.145383 0.858569 -0.283936 0.009996 -0.127373 0.582287 0.118399 -0.184679 -1.000873 0.125187 0.854118 0.071842 -0.671490 0.812465 -0.856873 0.167185 0.201874 -0.289845 -0.288303 -0.122527 -0.583712 -0.144179 0.509251 0.763165 -0.107039 -0.679220 -0.570994 0.928304 -0.077186 0.229101 0.242490 1.346323 -0.869504 -0.670904 -1.072855 1.116397 -0.764168 -0.110284 0.212303 0.208943 -0.318986 0.458131 -0.953259 -0.041884 -0.033042 -0.519208 -0.848460 0.303996 0.793121 0.697510 -1.088717 0.498508 0.223896 0.572517 -0.653308 -0.007560 -0.688958 -1.110994 0.004869 0.501890 -0.087782 -0.059255 -0.235294 0.463228 0.323103 -0.430069 0.109452 -0.547851 0.636739 0.000290 -0.373846 -0.942833 0.048945 -0.119271 0.218368 -0.584437 -0.696270 0.758152 0.249402 -0.463990 0.654807 -0.183941 0.555535 -1.401062 -0.166148 -0.157732 1.343702 -1.445551 0.591758 -0.741167 -1.318822 0.196915 0.020669 0.509869 -0.651290 0.305042 0.337197 0.178634 0.007061 0.486266 -1.855852 1.173233
M010_OFF -0.136910 0.409800 0.232575 -0.199361 -1.374057 0.576162 0.813268 -0.070006 -0.126702 0.117828 0.210076 -1.030099 0.096397 0.195546 -0.630241 -0.377084 -0.326124 -0.065535 0.412126 0.697942 -0.520361 -0.130209 0.225506 0.612975 -0.207037 -0.223961 1.033779 0.636778 0.293852 -0.247809 -0.337922 0.216900 -0.216921 -0.909388 0.394552 0.940286 0.091905 -0.119385 0.795778 -0.141858 -1.025099 0.844279 -1.037102 -0.102471 0.072327 0.140823 0.565090 1.052479 0.787467 -0.458727 -0.246764 -0.606331 0.971201 0.129772 -0.429460 -0.012993 -0.094531 -0.626508 -1.268236 -0.596013 0.297465 0.655044 0.963837 0.251427 -0.618903 0.209435 -0.348599 -0.191944 0.232187 0.560737 0.064422 -1.003809 0.417503 -0.842326 0.505635 0.509198 -0.286698 -0.999026 -0.221977 -0.349331 -0.769113 0.093824 0.664058 0.186555 0.354019 0.146943 0.354053 0.322513 -0.240122 -0.865349 -0.326183 0.113777 -0.406779 0.118215 0.083139 0.179248 -0.008877 -0.341400 -0.293041 0.545042 -0.420915 -0.313693 -0.348141 0.771515 -0.400913 -0.092727 0.015401 0.195117 -0.037897 -0.229283 -0.572185 -0.060559 0.225576 -0.330119 0.598112 -1.037446 -0.642239 0.079250 -0.007287 -0.082065 -0.336937 0.353234 -1.069272 0.275019 0.547781 -0.476404 -0.705681 0.359872 -1.103746 -0.471063 -0.574850 0.189674 -0.104167 0.322459 -0.326447 -0.166647 -0.035127 -0.378708 0.092385 0.585016 0.797035 0.612631 -0.428630 0.544606 -0.942956 0.161066 -0.070395 -0.134308 -0.181021 -0.072747 0.216966 -0.186878 0.521492 0.281436 0.882417 -0.847675 -0.074893 0.373582 -0.059904 0.653404 -0.030527 -0.552023 -0.629299 0.628097 0.294681 -0.878462 0.516616 -0.209657 0.417165 0.162795 -0.087091 0.156584 -0.225552 -0.526274 -0.203246 -0.570516 0.256224 0.575518 0.762497 0.879473 -0.258519 0.516328 0.121103 0.409590 0.041086 0.231440 -0.400657 0.024993 0.051976 1.033481 0.563407 0.260889 -0.356859 0.112165 0.196486 1.349670 -0.415645 0.563595 0.336577 0.186569 0.519665 -0.281666 0.049889 -0.041353 -1.178280 0.870961 -0.091913 -0.399394 0.166789 0.306779 -0.455862 -0.746567 -0.949198 0.127030 0.105833 -0.269415 0.263490 0.730019 0.724442 -0.197028 0.839955 -0.001024 0.754928 0.652906 1.030047 0.505339 -0.520954 -0.092176 0.237779 -0.188549 0.742177 0.153257 -0.272074 0.362716 0.217690 0.304800 0.453141 -0.619447 -0.291986 -0.278943 -0.386777 -0.002704 0.071186 0.108178 -0.168845 -0.144879 -0.610414 0.372841 0.521882 -0.008518 0.531563 0.327328 0.864165 -0.045093 -0.119245 -0.055215 -0.352079 0.460958 0.929310 0.146727 0.293437 0.502684 0.458943 -0.226361 0.531025 -0.434837 0.558233 -0.085441 -0.563561 0.325623 -0.058327 0.440148 -0.649190 0.003871 0.203261 -0.202062 -0.361347 -0.266851 0.702323 0.878255 -0.450288 -0.330607 -0.216664 0.373643 0.108630 0.026090 -0.148948 0.077897 0.935251 -0.900792 0.111489 0.586529 0.141532 -0.341068 0.931380 -0.218164 0.058262 -0.275863 -1.036701 0.218067 0.702608 0.017062 -0.572192 0.233042 0.221476 -0.130111 0.028286 -0.116180 -0.321073 -0.409704 0.146715 -0.455298 0.319231 1.043814 0.106867 -0.469734 -0.377523 0.471712 0.048316 -0.462361 0.222084 0.232474 -0.463040 0.533235 0.744951 -0.542176 0.303558 0.411846 -0.219997 -0.821802 0.339671 1.020052 0.249768 0.117891 1.009565 -0.361879 0.078269 -0.301173 0.224866 -1.027299 0.144005 -0.247814 -0.036924 -0.646708 0.128070 0.674205 0.420517 -0.399840 -0.498537 -0.521528 0.021541 -1.067318 1.040251 0.966280 -0.014706 0.216121 -0.380045 -0.175509 1.049594 -1.142214 0.487579 0.242379 0.044565 0.881017 0.097176 -0.397296 0.599528 0.061558 0.063777 0.337736 0.581610 0.244751 -0.517392 -0.446012 0.024015 -0.527249 0.379439 0.701833 -0.222561 0.229281 -0.241120 0.777694 -0.717393 -0.327879 -0.411898 -0.200250 -0.569382 0.199020 -0.020523 0.323203 0.219798 0.409249 -0.461490 -0.325617 -0.148602 -0.566015 0.373913 0.351320 1.230161 0.808280
M010_ON -0.244205 0.971091 0.429915 -0.669900 -0.797037 0.450019 0.514323 0.780570 -0.209994 -0.266142 -0.156540 0.204128 0.295636 0.975403 0.177922 0.324976 -0.560728 0.045847 0.695105 -0.239550 -0.260834 0.296518 -0.177382 0.164541 0.181314 0.064749 0.842995 0.807122 0.940365 -0.079733 -0.229306 -0.189935 -0.254390 -0.530830 0.873827 0.239245 -0.343005 0.486160 0.334128 0.424755 -0.567344 0.551506 -1.635582 -0.376550 0.479828 0.350449 0.254664 0.493673 0.243064 -0.205196 -0.575579 -0.094821 0.526504 0.530480 -0.244204 0.240123 0.169938 0.119647 -0.406893 0.153189 0.198620 0.743012 0.820649 0.300743 -0.247270 0.226662 0.047214 -0.181215 -0.225474 0.251587 0.135169 -0.712824 0.415728 -0.737725 0.401481 0.014019 -0.809779 -0.740001 -0.137043 -0.516250 -0.762889 0.589582 0.946087 -0.179174 -0.386973 0.832818 0.534065 0.766820 -0.221778 0.241499 0.014972 -0.073842 -0.684572 -0.231093 -0.585954 0.344376 0.207130 -0.453707 -0.364665 0.459492 -0.020025 0.069902 -0.761978 0.494711 -0.140057 -0.184788 -0.070167 0.267807 -0.195497 -0.218699 -0.819531 -0.141610 -0.176357 -0.263044 0.582560 -1.376613 -0.112547 0.404054 -0.325340 -0.067617 0.266880 0.590650 -0.100848 0.207413 -0.035883 0.162257 -0.750045 0.547451 -0.562633 -0.433238 -0.764681 1.088048 1.045510 -0.247547 -1.229003 -0.103248 0.006150 -0.676529 0.413828 0.005113 0.250773 -0.485591 -0.118495 0.344832 -1.070276 0.433801 -0.173537 0.013312 -0.385396 -0.403130 0.492011 0.400708 0.562264 0.226100 1.302495 -0.285365 -0.130658 -0.274307 0.023989 0.201393 -0.258690 -0.323457 -0.321429 0.531427 0.670285 -0.589476 0.266271 0.820232 0.440074 0.048442 0.071367 0.524257 0.026351 0.014851 0.288343 -0.269449 -0.035681 0.162719 1.255915 0.685099 -0.737558 0.157598 -0.219510 0.045470 -0.523484 0.168315 0.107545 -0.297553 -0.146938 0.571312 0.645370 -0.573229 -0.212585 0.169493 0.055283 0.662595 -0.296004 1.177278 0.493589 0.246163 -0.073021 0.377521 -0.175877 -0.351849 -0.782623 0.313183 0.566349 -0.065060 0.019393 -0.176050 0.132499 -1.399905 -0.564790 -0.260154 0.105430 -0.550978 0.407073 0.214389 0.750999 -0.410958 0.655582 0.407444 0.475645 0.721235 1.603052 0.126577 -0.328577 0.550542 -0.082008 -0.011214 0.858513 0.581343 -0.595717 0.107419 0.565051 0.605323 0.580046 0.155522 -0.277819 -0.387620 -0.340039 0.159443 0.044078 -0.017752 0.260776 -0.794492 -0.797490 0.576554 0.214796 0.055134 0.800465 0.079545 0.217072 0.091097 -0.374604 0.074196 -0.598722 -0.069201 0.902509 0.135521 -0.385043 0.297603 -0.362636 -0.527121 0.454906 -0.361370 0.288781 -0.002460 -0.498417 -0.079107 0.327233 0.042622 -0.252670 0.546022 0.389687 -0.145580 -0.700528 -0.457446 -0.077182 0.747134 -0.278287 -1.047114 0.000865 0.705496 0.417770 -0.412259 0.234131 0.330905 0.641064 -0.747038 -0.080231 0.565827 0.314589 0.159710 0.820542 0.224022 -0.201383 -0.243086 -1.056593 0.088581 0.571706 0.351287 -0.471791 0.639789 0.145616 -0.246744 0.216680 -0.627665 -0.395018 -0.854155 0.266980 -0.367213 0.948588 0.955554 -0.276866 -0.172964 -0.280780 0.279258 -0.472306 -0.436293 0.543492 0.120662 -0.302145 0.293668 0.221560 -0.351174 0.379606 -0.537248 -0.271358 -0.569715 0.508548 0.118334 -0.430771 0.032827 0.765939 0.174618 0.057892 -0.264544 0.462976 -1.448813 0.409391 -0.674681 0.081025 -0.924050 0.082940 0.404888 0.503834 -0.373721 0.199875 -0.915858 -0.127022 -1.019654 0.303303 0.690268 0.602369 -0.039950 -0.580193 -0.246492 1.253814 -0.915178 -0.021206 0.064359 -0.041382 0.162125 -0.088754 0.446774 0.740763 -0.160305 -0.250677 -0.412780 0.359209 -0.282456 -0.549267 -0.777743 0.368507 -0.527549 -0.004877 0.118374 -0.338926 0.465490 -0.582843 0.360976 -0.649248 0.295839 -0.719886 -0.648335 -0.200508 -0.312583 0.613520 0.579676 -0.342984 0.199548 -0.480062 -0.192565 0.264283 -0.621822 0.111460 0.453879 1.277955 -0.059306
M021_OFF 0.822278 -1.311524 -0.842036 1.047413 -0.777782 0.757216 -1.118082 -0.640908 0.352576 0.303423 -0.325587 -0.453022 -0.245626 0.153955 -0.407400 -0.246468 0.501456 0.431068 -0.782686 1.584034 0.893293 0.185663 0.517690 -0.269699 -0.783397 1.060719 -0.157750 0.132908 0.504602 0.103683 0.249940 0.659601 0.675696 0.200566 1.874175 0.209669 -1.409743 -0.159908 -0.157511 0.030563 -0.355786 -0.884525 0.755654 -0.320879 0.179329 -0.105853 -0.135210 1.331042 -0.516165 0.267288 -0.941262 0.435604 -1.024469 -0.148489 -0.043186 -0.108491 -1.393606 0.251238 0.052331 -0.565827 -0.172953 -0.443966 -1.156867 -0.414512 0.205048 0.252533 -0.124273 -0.236946 0.291936 -0.388344 0.651330 -0.119568 -1.017218 0.719092 -0.342253 0.755775 -0.287016 -0.008246 0.400540 0.831784 0.039985 -0.252882 -0.043530 -0.130572 0.673109 0.350358 -0.141504 -0.371450 0.326096 0.487575 -0.358223 -0.469768 0.055888 -0.270852 -0.405517 -0.310781 -0.153966 -0.204811 0.604926 0.109617 -0.396722 0.686691 0.725693 -0.738014 0.358265 0.094281 0.901389 0.449203 -0.236554 -0.393532 0.180506 0.302056 0.665191 -0.603769 -0.410322 0.764534 -0.177004 -0.772656 0.078613 0.148374 0.282291 -0.454861 -0.475294 -0.526857 0.404188 -0.314117 0.115370 -0.624093 -0.422576 -0.109702 0.275442 -0.417536 0.160734 0.032228 -0.158112 0.758374 -0.627312 0.359664 0.908285 -0.279942 -0.505544 0.270742 0.028064 -0.160191 0.692715 -0.612470 0.610194 0.451386 0.426503 0.380807 -0.179651 0.772022 -0.001234 -0.592565 0.123657 -0.525664 0.657158 -0.118624 0.860491 -0.259379 -0.480562 -0.428328 -0.249413 0.412318 0.118831 0.770352 -0.474553 0.466142 -1.004052 0.954528 0.061105 -0.538500 0.152275 -0.007412 -0.357086 0.571172 -0.379430 -0.988101 1.604086 -0.679345 0.314559 1.188960 0.513734 -0.177188 1.215801 0.391887 0.312945 1.013282 0.964810 0.067898 -0.074408 -0.631782 -0.275091 1.068302 -0.470649 -0.363182 -0.372699 0.687911 -1.042892 -0.068635 0.043269 0.917749 -0.378734 -0.223626 -0.591149 1.145992 0.361519 -0.354414 -0.211624 0.586358 0.424379 0.808172 -0.397307 -0.076946 0.256434 -0.810617 -0.422817 0.186380 -0.036270 0.937488 -0.363637 -0.512967 0.179869 -0.710715 -0.639931 0.281215 0.947500 -0.509112 0.298370 0.770929 -0.398486 -1.044851 0.451558 -0.200328 0.115589 -0.175209 -0.416492 0.884681 -0.202088 -0.098428 -0.536327 -0.465500 1.102289 -0.982674 0.069441 -0.082841 -0.742148 -0.213902 -0.530841 0.458589 0.248807 0.258924 -0.397118 -0.329246 0.792950 0.823720 0.020611 -0.210969 -0.476697 -0.008422 0.037819 0.449639 -0.456057 1.200350 -0.388274 0.180852 -0.411449 0.236656 0.812908 0.192745 0.499151 0.121678 -0.459163 0.079523 -0.157037 0.744370 0.109390 -1.216630 -1.205229 -0.234197 -0.094092 -0.285113 0.250637 0.526999 0.155871 0.149174 0.130836 0.783248 -0.518357 0.154555 -0.485030 -0.140577 -0.478931 0.451964 -0.031287 0.058485 0.424772 -0.260748 0.424108 0.327100 -0.031946 0.170593 -0.170723 0.013748 0.545405 0.164977 1.430237 -0.416963 0.142062 -0.753160 -0.128973 0.194685 0.481788 -0.256636 -0.113479 -0.593308 0.706118 0.518409 -0.125834 0.030151 0.249326 0.572001 -0.132261 1.032812 -0.723220 0.708554 -0.306099 0.476588 0.691903 -0.336130 -0.687349 0.028294 -0.049698 -0.322765 -0.586596 0.168766 -1.045185 -0.608737 0.294199 0.793523 -0.624122 0.931564 0.156641 0.317544 -0.353401 0.236366 -0.436467 0.226816 -0.123013 0.287612 -0.260093 0.326187 -0.069701 -0.387250 0.369506 -1.000185 0.198624 -0.102783 -0.458555 -0.327947 -0.056856 0.063193 0.402988 -0.389558 0.424729 -0.009401 -0.451162 0.178870 -0.338909 0.143989 0.948008 -1.022586 0.146233 0.221371 -0.005202 -0.056565 -0.431843 0.321917 0.718513 -0.004893 -0.246570 0.734790 -0.268733 -0.336520 -0.608199 -0.196545 -0.412225 0.282814 0.182954 0.229375 -0.299029 -0.771319 0.220915 0.115788 0.695968 -0.248440 -0.307573 0.430288 -1.288943 -0.843991
M021_ON 0.465334 0.361838 0.654942 0.173538 -0.723216 -0.748761 -0.524088 0.105976 -0.122015 1.062615 0.149041 -0.016906 -0.637945 -0.759266 0.205248 0.608167 0.903701 -0.249296 -0.279345 0.149390 0.071965 0.434328 0.937572 -0.159949 -0.308586 0.009851 -0.161908 -0.124281 -0.749446 -0.127968 -0.317366 0.039286 -0.596982 0.061013 -1.135639 0.843043 0.654520 -0.434008 0.752779 -0.097532 0.265295 -0.816513 -0.240062 -0.109993 -0.712843 -0.271552 -0.154049 -0.209718 0.764408 0.106829 0.180910 -0.101713 -0.210129 0.414568 -0.077006 -0.764358 0.094249 0.214110 0.798341 0.900039 -0.256901 -0.159802 -0.638204 -0.246790 0.132763 0.066011 0.342153 0.468659 0.222516 0.506811 0.005100 -0.182783 -0.727014 1.361802 0.244933 -0.184462 0.082532 0.578893 -0.333332 -0.049917 0.309072 0.253929 -0.208462 0.910802 0.105582 0.619497 -0.052813 -0.364925 0.088200 0.329090 0.066356 -0.391318 0.503164 -0.352362 -0.344529 -0.356615 0.740748 0.875842 -0.615451 0.774958 0.648005 0.148331 0.819286 -0.332233 -0.780763 1.004066 0.073610 -0.379048 -1.326446 -0.559079 -0.796198 0.881648 0.050238 -0.473413 -0.254974 0.984328 -0.388474 -0.838250 -0.181111 0.039747 0.137595 -0.550227 -0.247825 0.810821 0.171135 -0.080156 0.013210 -1.340975 0.137397 -0.075730 0.116723 -0.337629 0.637174 0.787516 -0.143243 -0.008513 -0.128751 -0.035227 -0.138359 0.071657 -0.077570 0.377585 0.094980 0.448256 0.333364 -0.501956 -0.287559 -0.757596 0.332771 0.277037 -1.695555 0.401783 0.843867 -0.773849 -0.580038 0.089288 -0.556943 -0.272493 0.188816 0.288104 -0.445807 0.505040 0.576563 -0.153099 0.554551 0.689523 -0.084460 0.152125 -0.158951 -0.224179 -0.154601 0.569295 -1.119855 -0.512210 -1.013972 -0.128656 -0.305110 -0.898259 0.325534 -0.733155 -0.081548 0.320401 -0.984293 0.604112 1.018961 -0.987155 0.755576 -0.291933 0.429928 -0.146979 -0.375707 -0.019284 0.262744 -0.361422 -0.557574 -0.168833 0.407495 0.343267 -0.003081 0.024961 0.062387 0.065096 0.629012 -0.068114 0.011203 -0.028043 -0.118781 -0.641595 0.103127 -0.351506 -0.571805 0.514646 0.291031 -0.229319 1.195599 -0.653432 0.344221 0.301994 0.251973 0.257092 0.591286 0.536491 0.140354 -0.850713 -0.257750 0.479098 0.028315 0.714019 0.134115 -0.074460 -0.975480 0.058002 0.408085 -0.718822 -0.980945 -0.535792 0.062169 0.865069 0.508709 -0.411657 -0.231145 -0.805816 0.953736 -0.422189 0.188320 -0.118928 1.235981 -0.804753 -0.837283 -0.504679 -0.099882 0.756476 -0.003855 0.693153 1.512061 0.594897 -0.194692 -0.720444 -0.711349 0.062705 -0.144663 -0.718339 -1.087237 0.529769 -0.778416 1.060235 0.014629 0.008725 1.795855 -0.039771 0.382696 -0.445721 0.737941 0.143194 -0.025974 0.461202 0.622114 -0.926231 -1.138005 -0.647399 0.199475 -0.587999 -0.571553 0.311714 0.305425 0.308107 0.390420 0.617773 -0.579565 -0.212124 -0.895177 -0.091083 -0.976530 -0.857665 -0.853484 -0.270844 0.650947 -1.094579 0.122382 1.096891 -0.460349 0.142897 0.312717 -0.547306 1.399196 -0.344425 0.347559 0.465085 -0.151861 0.331414 -0.327068 -0.346603 1.206340 -0.048042 0.179711 -0.242397 -0.435925 -0.072907 -0.108101 -0.875709 -0.038971 0.486490 -0.352192 -0.325882 -0.908557 0.787627 -1.272517 0.680815 0.026662 0.286202 -0.250154 -0.173137 -0.497191 0.359437 -0.286430 -0.691404 0.682990 -0.264520 -0.627059 0.608032 -0.903703 0.791599 0.261099 -0.874751 -0.745423 0.216537 -0.250521 0.805014 -0.127956 0.894629 -0.786426 -0.728229 -0.476032 0.287553 0.067779 -0.130029 -0.449385 0.548868 0.256815 0.029441 -0.511590 -0.833157 0.955581 -0.553471 0.258730 0.254511 0.387498 0.242656 -0.818590 0.615531 1.488758 0.178687 -0.763960 0.164012 0.103739 0.049962 0.263492 -0.434710 -0.285228 0.401115 -0.184115 -0.745671 0.195767 -0.287974 -0.366649 -0.344228 -0.664771 -0.009937 -0.387874 -0.440993 -0.597740 -1.183177 0.935399 0.476932 0.663714 0.182639 0.011385 -0.582192 1.732846 -0.792530
M003_OFF -1.264043 -0.226242 0.275477 0.460437 0.386060 -0.247554 0.185930 -0.188742 -0.473595 -1.087627 -0.489607 1.115128 -0.348895 0.386330 0.405804 -0.413945 -1.028566 0.421085 0.416587 -1.323266 0.326867 0.004122 0.257148 -0.128361 0.319917 -0.369489 0.268919 -0.515861 0.330827 0.260084 -1.081606 -0.944630 -0.007331 0.941909 -0.146860 -0.891611 -0.108886 -0.408541 0.365196 0.436865 -0.120322 -0.097020 0.736621 0.768583 -0.087049 0.774649 0.315708 -0.033816 -0.555304 0.152051 0.233067 -0.716289 -0.917567 0.236555 0.607899 0.371479 0.713828 0.619901 0.085195 0.352702 0.487084 -0.610481 -0.546297 -0.259652 0.714185 -0.542049 -0.543736 0.339291 -0.357901 -0.638791 0.432939 0.813583 0.117060 0.557612 -0.441814 0.022434 -0.275308 -0.474769 0.422367 0.289848 -0.224495 -0.155991 -1.472646 0.096977 -0.160252 -0.936939 -0.510933 0.274533 -0.932579 -0.230233 0.821640 0.072761 0.136057 -0.175319 1.229520 0.512529 0.381153 0.151586 -0.082427 -0.210597 0.028459 0.201504 -1.309546 0.324411 -0.143948 -0.293000 -0.454782 -0.998815 1.173172 0.739294 0.717922 -0.944996 -0.307437 0.176887 0.104296 -0.429071 0.119496 -0.004710 0.479046 1.253340 -0.525701 -0.002322 0.807666 -0.786745 -0.371388 -0.025928 0.003663 0.890378 -0.180666 0.156874 0.443038 0.211202 -0.160266 0.427752 0.930573 0.141259 0.852075 0.408534 -0.997140 0.269030 -0.263812 -0.890597 -0.163504 -0.281711 0.719619 0.087615 -0.180701 0.399292 -0.351956 0.112218 0.405782 -0.472046 -0.081014 -0.049342 0.313161 0.367895 -0.165485 0.294401 0.160253 -0.003433 -0.715062 0.406677 0.635416 -0.922575 -0.055126 -1.125172 0.157392 -1.066360 -0.365821 0.281518 -0.313578 -0.335585 -0.146623 0.573328 0.722939 -0.703931 0.312416 0.739123 -0.512108 -0.892512 0.111267 -0.778042 0.049048 0.155051 0.153754 0.144121 -0.639635 -0.260145 -0.516064 1.386538 -0.062586 0.703254 0.186964 -0.279486 0.444619 0.006021 0.473242 -0.696136 0.452392 0.783242 -0.693493 -0.920941 -0.425634 0.839327 0.298288 -1.192943 0.241122 0.377908 0.777499 -0.490966 0.357232 -0.159271 0.732327 0.793861 -0.786689 -0.379191 0.084390 -0.814318 -0.305512 -0.442938 -0.262096 0.839942 -0.230259 0.379501 -0.101930 -0.507712 -0.000277 -0.215542 0.263109 0.382471 0.411641 0.355794 -0.922209 0.875797 0.103117 0.936968 0.188292 0.235055 -0.270229 -0.638888 0.590463 0.261411 0.115359 1.137654 0.940524 -0.764802 -0.235924 0.450768 -0.431610 -0.089047 -0.170681 -0.974888 -0.628456 -0.118259 -0.083917 -0.291179 0.597403 0.398448 -0.191466 0.477533 1.059220 -0.103589 -0.741381 -0.092777 0.121350 -0.662289 0.605788 0.102414 -0.036272 -0.633476 0.076638 -0.403656 -0.359713 0.550480 -0.571096 -0.710425 -1.034889 -1.216803 0.408261 -0.421697 0.062536 0.835721 0.059256 0.189786 0.384792 0.252012 -1.080057 -0.708272 0.814959 0.410916 0.003324 -0.159397 -0.677474 0.338129 -0.340482 0.129981 0.072502 -0.770446 -1.081251 -0.620129 -0.045021 0.869106 0.649638 -0.189800 0.327444 -0.982110 0.253957 0.417953 0.267574 -0.245445 0.413962 -0.019611 -0.927877 -0.199178 0.099090 0.364375 1.272618 -0.901920 0.709127 0.243932 -0.990066 -1.339896 0.564423 -0.728186 0.297830 0.003717 0.421197 0.304612 -0.879455 0.546137 -0.068631 -0.161400 -0.938740 0.238069 -0.347266 0.457281 -0.444880 0.949842 0.618774 -0.077998 0.372133 0.718349 -0.153051 -0.251372 -0.106823 -0.790271 -0.403716 -0.063795 -0.130140 -0.692652 0.878925 0.489993 -0.179745 0.952113 0.796781 0.014750 -0.781653 0.394718 -1.165074 0.410861 0.990383 0.093272 -0.681601 0.639435 0.084348 0.690895 -0.725199 -0.962892 0.740137 -0.069247 -0.782027 0.251079 -0.390229 0.241898 0.089324 0.345060 0.173875 0.262349 -0.502791 0.715111 -0.209811 -0.004101 -0.153133 0.287840 1.341992 1.017444 0.518941 0.098632 0.460263 -0.665892 0.140416 -1.103978 -0.275444 0.447920 0.040121 -0.295796 -0.245642 0.334901 -0.081831 -0.203340
M003_ON -0.609193 0.675915 -0.451930 1.416249 -0.541646 -0.914029 -0.921517 -1.924287 -0.376658 0.375992 -0.385418 0.452910 -1.080223 0.109721 -0.752447 -0.798931 -1.679298 0.749869 -0.366927 -0.100101 1.489418 0.345135 0.129605 0.372604 0.095271 -0.967130 -0.525315 -0.520294 -0.195377 -0.512624 0.446314 -0.416163 -0.531749 -0.100096 -0.689091 -0.792214 0.428759 -0.704758 0.437495 -0.171640 -0.154782 -0.313716 0.421937 0.893628 -0.856430 -0.203697 0.639921 -0.244704 -0.013915 0.038854 0.565190 -0.457937 0.112345 0.462396 0.890447 0.320521 0.284564 0.025598 0.366274 0.287491 0.990363 -0.592452 -0.332888 -0.048320 0.931482 -0.020527 -0.543945 -0.222425 0.210094 -0.129971 0.555845 0.623755 0.549849 0.550726 0.125069 0.048197 -0.247212 0.016145 -0.282192 0.168505 -0.100166 -0.204883 -1.338228 0.427980 -0.209328 -0.007980 0.136500 0.428399 -0.229853 -0.024924 0.343501 0.596626 0.109408 0.202017 0.744811 -0.134801 0.691588 -0.053515 -0.158297 0.001605 -0.068605 0.002280 -1.256386 -0.109993 0.346734 -0.351689 0.026812 -0.933333 0.376020 0.141791 0.923893 -1.153873 -0.187437 -0.047091 0.106370 0.136594 -0.151064 -0.132793 0.565786 0.757451 -1.006795 0.878182 0.343057 -0.870989 -0.822977 0.409559 0.461719 1.049841 0.285303 -0.201213 0.455572 0.246965 0.074185 0.491099 0.796065 0.346926 -0.062946 0.114235 -0.593607 0.600108 -0.095014 -0.799049 -0.316679 -0.114600 0.972539 -0.246013 -0.317057 0.728264 0.206596 0.277179 0.211225 0.378247 -0.274345 -0.036939 0.361894 0.146251 -0.309792 0.436470 0.151507 0.166250 0.046381 0.447374 0.533465 -1.251306 0.077459 -1.301880 -0.275414 -1.117339 0.143922 0.046958 -0.456832 -0.085940 0.690882 0.440993 1.125729 -0.210866 -0.551983 0.380643 -0.671277 -0.953687 -0.395801 -0.754935 0.147613 -0.269138 -0.043808 0.121856 -1.168362 -0.186460 -0.033505 0.687111 -0.379102 1.002320 0.006860 0.266622 0.649353 -0.134322 0.863967 -0.917497 -0.109547 0.889598 -0.465163 -0.249483 -0.481377 0.628212 0.600330 -0.933206 0.314942 0.620959 0.508426 -0.080025 0.068910 -0.141663 0.061029 0.869430 -0.535440 0.136180 -0.119591 -0.806579 0.216598 0.286658 -0.139415 0.603060 -0.410627 0.413076 -0.793674 -0.793205 -0.143384 -1.015256 -0.406529 0.825771 -0.188480 0.686459 -0.698491 1.190753 0.559013 0.886823 0.290877 -0.053582 -0.006009 -0.267490 0.262510 0.349658 0.104794 0.607509 0.587146 0.043289 0.046338 -0.020758 -0.120417 0.302571 -0.585118 -1.280463 -0.633295 -0.159696 0.027237 -0.056697 0.799228 0.947214 -0.041930 -0.515245 1.135583 -0.756694 -0.531034 0.127914 0.289927 -1.314210 0.566259 -0.333031 -0.271517 -0.099884 -0.153805 -0.344510 -1.028267 0.632185 -0.935592 -0.484502 -0.750937 -0.078736 0.120213 -0.617291 0.225014 1.061094 -0.078791 -0.111129 -0.166517 0.153640 -1.245952 -0.776770 1.242476 -0.176882 0.120900 -1.028801 0.018763 0.456024 -0.517416 0.181195 0.313113 -0.030582 -0.322524 -0.710262 -0.228994 0.401697 1.072471 -0.379461 0.154506 -0.200279 0.535832 0.758914 -0.017391 0.540502 0.162517 0.181441 -0.791201 -0.531538 0.037495 0.722734 0.803701 -0.665179 0.500216 0.315712 -0.382566 -0.857200 0.155711 -0.299374 0.606748 -0.686390 0.411963 -0.404185 -0.258346 -0.055361 -0.037013 0.065163 -0.256972 -0.367247 0.009134 -0.168911 -0.236383 1.414860 0.162345 -0.294938 0.339499 0.847379 0.494732 0.238953 0.188607 -0.892603 -0.485057 -0.185424 0.371446 0.311337 0.502502 0.319898 -0.710541 0.705772 0.283070 -0.410310 -0.420335 0.057441 -0.518284 0.792651 0.184452 -0.006321 -1.086444 0.672266 0.502074 0.005458 -0.202209 -0.436669 0.982557 0.551865 -0.264149 0.544725 -0.262704 0.510529 -0.034433 -0.286213 0.376062 -0.195453 -0.437095 0.033960 0.167751 -0.296518 0.281555 0.972171 0.573047 0.924014 0.487354 0.295073 0.090526 -0.187307 -0.133771 -0.802209 -0.192371 -0.109735 -0.377321 -0.260634 -0.026889 -0.005666 0.010614 -1.562649
