241 200
M009_ON 0.920841 -0.035695 -1.485096 1.320026 0.212647 0.411477 0.617676 -1.286505 1.312752 -0.983003 -3.208890 0.482945 1.410026 -0.670348 -0.660332 -0.188472 0.017944 -0.646657 3.029901 -1.016777 1.900258 -1.365030 -0.332126 0.696440 1.778618 -0.219473 0.324018 0.077326 1.093298 -1.146274 -0.934973 0.764573 1.346481 0.492454 0.017416 0.583231 -0.864593 0.417835 -0.109028 -0.107312 -0.427065 1.292389 -0.923640 -0.459117 0.638533 1.629657 0.914244 -0.933890 0.600442 0.048041 -0.782160 -0.151880 0.538765 0.375618 -0.091794 1.678032 -0.967560 0.011610 0.279715 1.239004 1.766534 1.042078 0.291792 0.396129 0.631426 1.868540 -0.588144 -1.137180 0.352747 -0.820954 -0.284559 1.464183 -0.787506 -0.425312 0.856133 -0.705818 -0.504716 -0.405123 -0.735194 1.110878 -1.355999 0.769417 0.449210 0.344282 -0.902596 1.644166 -0.002290 -0.452295 -1.347218 1.126348 -0.604069 -0.512336 0.393484 0.717153 -1.443306 1.178346 -0.059042 -0.998693 -1.220050 0.885070 -1.020588 -1.193782 -2.330857 -0.426294 -0.408609 -0.971452 -1.048924 -0.145545 0.731553 -1.060616 0.612328 -1.480734 -0.603019 -0.497946 0.760264 -0.830081 -0.234205 -0.196548 1.501684 -0.783332 0.698325 0.292332 0.529192 0.515337 0.011125 1.756745 -0.035258 2.535755 -0.906293 0.238298 -0.372884 0.080182 0.384306 0.901230 0.352631 -0.554250 -0.951150 -0.532050 -0.897448 0.243330 -0.041349 0.716366 -0.367595 -0.622525 1.282408 0.102146 0.080366 -0.929121 -1.298493 -1.257775 1.629138 1.267850 -1.898538 -0.007503 0.865499 0.315332 0.574351 0.379286 0.203913 0.077674 0.460507 -1.442873 0.015231 -0.401986 -0.428490 -1.184719 1.422064 1.166914 0.532851 -1.016772 -1.171304 -0.238825 1.534872 0.307146 1.163748 1.226257 0.431426 1.047820 1.025267 -0.764443 -1.621738 -0.421298 -0.661195 0.175403 -2.185658 0.209725 -0.537180 0.310342 -0.248590 1.798985 0.616730 0.681439 -0.153933 0.225020 -0.106284 1.703285 0.592615 -0.069070 -0.526337 0.468881
M009_OFF 0.771745 -0.698528 -0.897712 -0.310721 -0.354945 0.177058 1.146487 -1.265588 0.769563 -0.875549 -2.298887 1.048296 0.457691 0.286339 0.911848 -0.893346 0.507869 0.378199 3.084212 -1.945107 0.977611 -0.537449 -0.778347 -0.153608 1.584322 -0.601185 0.606167 0.742383 1.140658 -0.997203 -0.313527 0.539855 1.304065 0.937605 0.187797 0.506084 -0.160871 0.324750 0.553114 -0.340094 -0.758818 1.072820 -1.692514 0.010759 -0.330921 0.928678 1.804359 -0.192138 0.157518 0.247148 0.338330 -0.714419 0.640686 0.323521 0.837568 1.617434 0.068017 -0.023621 -0.431942 0.150282 1.965106 1.081595 0.080837 -0.458241 -0.196240 2.071259 -0.472951 -1.595912 -0.795113 -0.324202 -0.662200 1.722179 -0.010202 0.176125 0.938825 -0.240492 0.708765 -0.635012 -0.562572 -0.190461 -0.693901 0.455342 0.467759 0.232669 -0.391893 0.632944 0.192458 0.190290 -1.383751 1.773661 0.524182 -0.304042 1.327538 0.178403 -0.003953 1.639663 0.354255 0.026842 -1.348272 1.180189 -0.349849 -0.453476 -1.897816 -0.709931 -0.384067 -0.650017 -0.489220 0.588826 0.747786 -1.392516 0.303122 -1.467581 -1.352382 -0.591212 1.181387 -1.938800 0.382909 -0.208725 1.049033 -0.980118 1.384993 1.269881 1.348887 0.576001 -0.015665 1.162661 -0.079226 3.107681 -0.307399 0.023815 -0.957285 0.246157 -0.628499 0.458746 0.516572 -1.057420 -1.023334 -0.493920 -0.738622 -0.063671 -0.052866 -0.491377 -1.096029 -1.315231 1.326633 0.030903 0.327353 -0.432065 -1.902355 -0.884020 1.226925 2.229944 -1.436481 0.185319 1.455046 0.296989 0.422076 0.738070 0.821794 -0.020933 1.126582 -0.619458 0.471571 -0.473072 0.464366 -2.214971 0.064041 0.452354 1.046022 -1.300373 -0.752801 0.652956 1.322521 0.040860 1.232684 0.973453 0.496472 1.480956 0.882282 -0.921229 -1.207183 -1.045506 -0.509667 0.051471 -1.661369 0.956280 -1.068949 -0.000838 -0.340091 2.329341 0.391260 0.461316 1.143649 0.188993 -0.132430 1.019097 0.994574 -0.154184 0.561295 0.839716
M020_OFF 0.154246 -0.733684 -1.651717 0.742922 0.514130 0.354612 -0.245238 0.862948 -0.072927 -0.508497 0.304328 0.744404 0.284328 -0.333746 0.386590 0.762636 0.125099 0.250114 0.985711 -0.627227 -0.612878 -0.019601 0.800029 0.359215 -0.622397 1.171232 -1.659415 -1.241101 -0.579998 -0.093783 1.321192 -0.593727 0.228285 -0.404972 0.847983 -0.645202 0.620490 -0.025399 -0.266373 -0.800358 -0.555606 -1.114162 0.693953 0.934291 0.143410 -0.326902 -0.076195 -0.304104 -0.335091 -0.925579 -0.928093 0.815546 -0.049596 0.046848 0.450446 -1.622255 0.128933 0.183358 0.329747 0.222211 -0.229413 1.347630 -0.195992 -0.126753 0.879752 -0.002590 -0.621767 0.390257 0.024215 -0.974311 1.099503 -1.103470 -0.765611 1.108164 -0.265354 -1.350479 1.012109 0.338404 1.377503 0.026472 -0.853759 0.555651 1.033324 -0.334151 -1.414734 -0.794577 0.195459 -0.321833 0.534505 0.424547 0.199207 -0.406618 0.445404 0.797903 -0.501430 -1.585033 -0.205804 -0.266848 0.974399 -0.641828 0.742097 1.429529 -0.176564 -0.195927 -0.441373 -1.023949 0.085393 0.147278 -1.265247 -0.151456 1.563228 0.935360 0.426493 -0.372471 0.080942 -0.225322 0.199791 -1.044426 -0.683479 0.019374 0.610094 -0.131605 0.587092 0.704375 0.129803 1.276802 -0.790719 -0.651618 -0.514975 0.433997 0.072689 -0.180755 1.190644 0.511005 -0.500820 -0.088376 -0.159435 1.496564 -0.208629 -0.308525 -0.112138 -0.513045 -0.088429 0.021349 0.200302 0.188741 -0.440748 0.457900 0.562627 -0.097818 -0.532086 0.674492 0.865028 0.088152 0.151765 0.268027 0.390797 0.508014 0.052415 1.125168 -0.033846 0.407480 0.342078 0.184381 1.623241 0.718549 -0.509574 -0.883012 -0.655239 0.187171 -0.544044 0.213839 0.874364 -0.435128 0.247652 -0.192630 -0.848895 -0.694025 0.245795 0.393215 -0.594580 1.467102 -0.627284 0.641342 0.761439 0.083898 -0.182707 -0.209146 0.259894 -2.093563 -0.029173 -1.011261 0.388317 -0.341847 -0.733287 -0.746310 1.544042 0.462617 0.770164 0.259459
M020_ON 0.256990 -0.300266 -0.432317 0.974181 -0.456455 -1.531210 -0.201504 -0.105895 -0.714589 -0.259881 0.106011 1.118927 -0.365247 0.034454 -0.347958 0.576271 1.111107 -0.506910 0.975478 -0.500949 0.285532 -0.415104 0.013410 0.306554 -0.982578 0.734417 -1.198298 -0.533455 0.255569 0.061724 1.519320 -0.700856 1.200965 -0.363579 0.104832 0.431053 1.065333 -1.252534 -0.121784 -1.209714 -0.345976 -0.973470 1.108055 0.476248 -0.256736 -0.778130 -0.973581 -0.878981 0.633564 -1.812863 -0.176368 0.426632 -0.770996 -0.336400 -0.279382 -1.604043 0.506184 -1.033027 -0.519488 -0.760642 -1.242080 1.153351 -0.707838 -1.315001 0.492635 -0.331466 -0.790926 1.421915 0.417541 -0.492607 0.660325 -0.321050 -1.781534 0.585948 -0.356943 -1.117959 -0.224687 1.304610 0.096974 0.055311 0.020735 -0.464327 0.120622 -1.573594 -0.503169 -0.577030 -0.025890 -0.689846 0.451442 0.232903 -0.576158 -0.339243 0.548261 0.946693 -0.011627 -0.202099 -1.053219 -0.140173 0.104428 -0.323214 -0.979533 0.492149 0.222462 0.707864 0.410864 0.552821 0.306897 0.522347 -0.677775 0.301432 0.434906 0.542510 0.211569 -0.043703 0.495000 0.174234 -0.322919 -0.914905 -0.593989 -0.876031 0.833639 0.590394 0.797352 1.246810 1.378378 0.391736 0.030018 -0.091379 -1.142411 1.116800 -0.042019 -0.247238 0.753068 -0.273892 0.016098 0.096567 -0.544036 0.459232 -0.045352 -0.389312 -0.341247 -0.292405 -0.308423 -0.150975 0.436026 -0.526648 -0.210517 0.151158 -0.163198 0.057665 0.073040 0.612587 0.424051 -0.232426 -0.423678 -0.824852 0.368851 1.089569 -0.509021 0.746139 -0.086946 0.219798 0.347066 0.542947 1.220213 0.580463 -0.159762 -0.864887 -0.386592 -0.629642 -0.816470 -0.088804 0.904366 -0.854795 -1.087684 1.366752 -0.391648 -0.802441 0.207247 -0.277553 0.250497 0.906442 -0.559657 0.463672 0.385772 -0.894063 0.182919 -0.057961 0.902958 -1.751901 -0.179060 -0.211877 0.564061 1.226428 0.406475 -1.690208 1.499124 0.743819 -1.021749 -0.683459
M019_OFF 1.284538 0.144160 0.736328 -1.101560 0.224226 -0.002496 -0.997116 0.836318 0.006158 0.695687 0.684215 -1.023552 -2.076244 -0.023835 0.455673 0.111247 -0.276559 0.633755 -1.028896 0.433324 -0.260050 0.567592 -0.010064 0.773077 -0.739052 0.021261 0.317261 2.247935 -0.736296 0.934446 -1.377588 -1.553439 -0.814924 -0.744892 -0.534618 -0.014559 -0.959709 0.303701 -0.139347 0.106095 -1.040093 -0.236535 -0.660552 -0.866043 0.780227 0.610241 -0.676742 -0.380977 -1.406227 -0.161068 1.290827 -1.457018 -0.277060 -0.945819 0.220425 1.093090 -0.082987 0.808781 0.232348 -0.381615 -0.128918 -0.462032 -0.560935 0.880003 -0.911370 -0.515376 -0.784713 -0.442480 1.786774 0.133733 0.563500 0.529321 1.301056 -1.319754 -0.760366 2.155198 -1.272234 -0.222441 -0.393065 0.406299 -0.031675 -0.109190 -1.875492 -0.162382 1.111187 -0.921791 -1.927968 1.438895 0.734816 0.254869 -0.081746 0.188993 -0.622558 -0.086330 0.808212 0.469075 -0.415446 -0.415576 0.676547 0.761954 0.577865 0.615147 1.617935 -1.048788 -0.015263 0.871404 0.073004 0.542531 -0.153647 -0.969890 0.018887 -1.180878 -0.572780 -0.290794 -0.382425 -0.309271 0.407495 0.222357 -0.175259 -0.161625 -0.251581 0.041345 0.529126 -1.124810 -1.303344 0.184091 1.300931 -0.681513 0.672025 0.021164 0.736179 -0.953197 0.891583 -0.612210 0.636358 0.211446 -0.035206 -0.288650 0.763861 -0.669507 1.365551 2.170436 1.489262 1.102127 0.406403 0.001156 -0.404297 1.047561 1.037529 0.517667 -0.987727 -0.644323 -0.288736 -1.560019 -1.355145 1.705381 1.442932 -1.759808 1.318922 -2.191483 -1.048720 0.505240 -0.783275 -1.488350 -0.472663 -0.486920 -0.228183 0.298295 1.639231 -0.134411 1.105157 1.105407 -1.169864 -0.057719 -0.546991 -0.571867 -0.197434 -0.889644 -0.622545 0.184020 0.850847 0.025452 -0.601539 1.060207 0.622970 0.384448 -0.334928 0.672147 0.377072 -0.054075 -0.264674 -1.106640 -0.331468 -0.356408 -0.862776 0.084440 -1.674245 -0.774104 -0.766444 -0.133659
M019_ON -0.868201 0.702340 -0.288760 -0.564964 0.754263 0.519346 -0.401687 2.125596 -0.846165 1.229030 0.535031 -1.844095 -0.537335 0.384733 -0.648699 -0.928223 -0.522529 -0.479356 -0.723266 1.322944 -0.093205 0.389021 -0.712207 0.727738 -0.831887 -0.198630 0.007263 0.945370 0.545663 -0.508975 -0.110521 -0.713941 -1.352791 -0.413425 0.447426 -0.072972 -0.974477 0.442829 0.069054 0.257696 -1.648336 -0.235010 -0.511791 0.425977 0.337310 0.279710 -0.445716 -0.131823 -1.210673 0.254189 0.135663 -0.357465 -1.154634 -1.190974 -0.158319 0.862141 0.054041 0.417204 -0.725132 0.888454 -0.636686 -0.893877 -1.163969 0.522770 -0.574623 -1.835456 -0.253523 -1.219398 0.196552 0.097862 0.737745 0.596161 0.496281 -1.968657 -0.452420 2.498858 -1.430031 0.579645 -1.129195 0.644750 1.142486 -0.604735 -0.671816 0.471398 0.358542 -0.513385 -1.129762 2.106347 0.699502 0.610451 -0.191584 0.106926 -0.234246 -1.073377 -0.122650 0.647249 -0.762109 -0.229006 0.778565 -0.038257 0.580110 -0.141671 0.996783 -0.968408 -0.505724 0.440674 0.323153 0.599193 0.273923 -0.384150 -0.160449 -0.854656 -0.424246 -0.800015 0.346663 0.160846 -0.049708 0.518802 0.154602 -0.340007 0.350470 -0.003915 0.345461 -0.769428 -1.668459 1.028985 1.354617 -0.474874 0.778772 -1.475092 1.062466 -0.959354 0.235050 -0.328102 0.544574 -0.034377 0.457905 -0.814999 0.106217 -0.577732 0.568091 1.846485 1.763021 1.495230 0.622885 -0.367918 -0.617100 0.947253 1.123115 0.680526 -0.556554 -0.571924 -0.923839 -1.101637 -1.875338 1.725967 1.005050 -1.365606 0.804448 -1.537187 -0.653731 1.420216 0.231991 -1.045084 -1.444199 -0.766496 -0.539101 0.312996 1.178895 -0.360331 1.546635 0.185696 -1.250464 0.698067 -0.276242 -1.099338 0.719131 -0.209556 -1.022982 1.273056 0.140419 -0.082428 0.380450 -0.073071 -0.217006 0.574904 -0.297027 -0.017117 0.244387 -0.139918 -0.897442 -0.635511 -1.088757 -0.545426 0.369946 -0.827547 -0.228459 -0.406627 -0.923865 -0.710506
M015_OFF 0.547579 -0.020460 0.239756 -0.067941 0.517913 0.807686 -1.452463 1.180718 -0.382850 1.875327 0.436619 -1.842732 -1.415926 0.025177 -0.430906 -0.780109 -0.571481 -0.388242 -2.163568 1.748457 -0.165235 0.074689 -1.005024 0.737427 -0.938656 -0.527869 0.592563 2.352352 0.327914 0.615980 -0.895565 -0.360594 -0.758017 -0.139720 0.243147 0.231178 -1.451466 1.098382 0.042173 0.518030 -1.608965 0.219461 -0.549356 0.224516 0.253087 0.965148 -0.172167 -0.183722 -1.779585 0.389983 0.605538 -1.166284 -0.499749 -1.327868 0.302565 1.293438 -0.091458 0.305593 0.177071 0.784471 -0.285527 -0.617531 -0.718641 0.507500 -0.917412 -0.793709 -0.586073 -1.110456 -0.132057 -0.548828 0.197130 0.387405 2.273391 -1.898663 -0.656062 2.294308 -1.889384 -0.007201 -0.375272 0.292907 1.183640 -0.218220 -1.686018 0.670042 1.164325 -0.971289 -1.832170 2.188375 1.248685 0.517956 -0.475736 0.204419 -0.127259 -0.150235 0.640221 0.376070 0.076061 0.422388 0.056016 0.511882 0.181602 0.697178 1.063492 -1.914832 0.442730 0.693196 0.326654 0.709525 0.763372 -1.648042 -0.559854 -1.398824 -0.872069 -0.247152 0.030815 0.228948 0.640001 -0.180490 0.636456 -0.935414 0.131026 -0.170438 0.849135 -1.444763 -1.783508 0.391088 1.451784 -0.715007 1.080809 -0.365025 0.608213 -1.071671 0.568731 -0.002974 -0.215513 -0.605357 0.480704 -0.988261 -0.324568 0.339879 0.243038 1.990175 1.442220 1.939147 0.801684 0.282643 0.396963 0.301740 0.945337 1.278028 -0.105777 -0.813162 -0.813429 -0.971026 -1.513349 1.658350 1.130747 -1.733702 0.639897 -1.888276 -0.331634 0.843305 -0.830844 -0.617583 -1.650096 -0.600656 -0.078248 1.414677 1.202512 -0.519932 1.118961 0.950447 -1.342732 0.251955 -0.299140 0.037386 0.666439 -0.952917 -0.626824 0.380992 1.082446 0.397181 0.203134 0.168970 -0.115781 -0.117888 0.081222 0.761610 0.608105 0.266136 -0.555737 -0.471301 -0.686572 -0.672469 -0.512658 -0.119302 -1.135222 -0.277549 -1.262408 -0.105675
M015_ON -0.064802 0.974109 0.196113 -0.907038 0.327185 -0.348646 -0.442432 1.394710 -0.260093 0.847824 0.710702 -1.107037 -0.907687 0.327987 -0.160082 -0.163505 -0.576611 -0.596368 -0.207483 0.526158 0.687556 0.523017 -0.637882 1.140416 -0.266735 0.469142 0.414163 1.367131 -0.414319 -0.125412 -1.178612 -0.773668 -1.071868 -0.207201 -0.635735 -0.026882 -1.038014 -0.104136 -0.771809 0.289064 -0.318644 0.588867 -1.548626 -1.051998 0.829847 0.617200 -0.705358 -0.838984 -1.248272 0.737994 1.213090 -0.981321 -0.362644 -0.837821 -0.418230 1.303474 0.210175 0.812916 -0.625864 0.739884 0.270525 -0.840626 -0.658839 1.138984 -0.489812 -1.093447 0.382209 -0.663026 1.601810 0.340179 1.326640 0.935367 -0.408746 -1.689753 -0.562193 3.052924 -2.108805 0.033500 -0.851035 0.916294 0.019316 -0.426575 -1.388920 0.109591 0.226508 -0.532213 -1.702405 2.189522 0.121933 0.232839 -0.366569 0.313071 -1.035193 -0.667155 0.459536 1.027026 -0.762563 -0.632149 0.593090 0.624600 0.645531 -1.235212 1.049705 -0.807419 -1.281944 0.541351 0.522422 0.659516 0.176203 0.168327 -0.139090 -0.949492 -0.295485 -1.065647 -0.757809 -0.589277 -0.394041 0.240039 -0.679235 -0.135003 -0.221010 0.113219 0.776242 -0.458852 -1.604977 -0.021895 0.410446 -0.331777 1.181193 -0.871459 0.805381 -1.050741 0.866423 -1.142903 0.967207 0.568536 0.399621 -0.419723 0.870962 -1.685474 1.688170 2.443198 2.339202 0.936321 0.295152 0.128737 -0.614514 1.766628 0.934195 0.298339 -0.559250 -0.319059 -0.653787 -1.044386 -1.592774 1.628300 1.842472 -1.195995 1.465606 -2.040813 -1.432540 1.333766 0.135558 -1.933144 -1.467432 -0.568550 -0.341267 1.138870 1.417721 0.341171 1.446376 0.337802 -0.736953 0.522666 -0.261016 -1.097854 -0.522742 -0.057122 -0.859854 1.076526 0.544060 -1.096017 -0.739271 0.669016 0.136529 0.656103 -0.097297 -0.347843 -0.657892 -0.324563 -0.077231 -1.478654 -0.266876 -0.626045 -0.040486 -0.498914 -1.604205 -0.401756 -0.118710 -0.097814
M007_OFF -0.782166 0.450417 1.806915 -0.028721 0.700446 -0.198762 0.695230 -0.862565 0.167735 -1.332230 0.065593 1.403554 0.036619 0.546065 -0.258949 0.279869 -0.393571 0.594907 -0.602864 -0.774996 -0.637682 0.638581 -0.296341 0.354089 -0.179715 -1.073113 1.011852 0.017276 -0.115541 1.858705 -0.269192 -0.584847 0.343928 -0.150983 -0.478177 -1.131669 1.294510 -0.692791 0.007055 1.595502 2.379482 0.462336 0.681875 -0.064556 -0.019427 0.383210 0.167048 0.715907 0.325128 0.965476 -0.055206 -0.319784 1.246512 0.490968 -0.002306 -1.265118 -0.160596 -0.473107 -0.417248 1.097713 0.470586 -1.739339 0.777394 0.573471 -0.461115 0.360279 1.466767 0.718035 -0.648989 -0.559354 -1.380984 -2.215986 0.183386 1.402827 -0.361321 -1.207496 2.011472 0.395984 -0.863672 -0.325680 -0.128613 -0.150064 0.370380 0.600568 1.075914 -0.224019 1.881997 -1.048498 0.409036 -0.615126 1.733542 -0.325769 0.065058 -0.068430 1.755733 0.045408 1.089948 0.415455 0.846183 0.798682 0.545988 0.597467 -1.063291 1.612707 1.335882 -1.137470 -0.781302 -1.998568 0.832273 1.650035 -1.525970 1.932618 0.043373 0.023790 -1.546218 0.016616 0.662365 -0.300213 -0.907162 1.405952 -1.922292 -0.271932 -0.646154 -1.083167 0.352648 -2.585414 -2.342666 -1.513996 0.578965 -0.034434 1.371630 1.276660 -0.407904 -0.360198 -0.869567 1.503903 0.190128 0.235717 -0.176151 0.637821 -1.148145 -2.267748 -0.170097 -0.220232 -1.356088 1.059252 0.974763 0.952916 -0.783941 -1.091882 0.362054 -1.300937 1.811538 1.700602 0.713657 -0.796269 -0.629971 -0.483206 -1.146853 1.271072 0.568168 0.490513 0.150090 1.085591 -0.388149 1.084027 0.634866 1.160017 -1.505689 2.128098 0.237231 -1.284613 0.769253 0.612443 1.085055 -0.659260 -0.012249 -0.490775 -0.450904 -0.887715 1.932500 0.081782 0.465712 -1.759153 1.096393 -0.967698 0.687827 0.015970 -0.367677 0.039360 0.913344 -0.558590 0.417913 0.077287 1.110456 0.079660 -1.667277 1.251959 0.238766 0.979302
M007_ON -1.075098 1.123956 1.749301 0.690047 -0.376689 -0.183462 0.212582 -0.008283 -0.871653 -0.772790 0.133938 1.355177 0.381991 1.627975 -1.153909 1.340632 -0.445377 0.227315 -1.331454 0.117515 0.406767 0.006807 -0.257598 0.219417 0.197044 -0.940331 1.400007 0.260657 -0.969947 1.455534 0.185444 0.603547 0.352875 -1.096850 -0.031211 -0.717151 1.045774 -0.759095 -0.512653 1.941054 2.469129 1.149341 -0.040898 0.579930 0.186864 0.037647 0.033348 -0.021730 -0.084936 0.539443 -0.530159 -0.479770 1.683188 1.048149 -0.586302 -1.384465 0.608384 -0.289922 -1.518534 -0.302419 -0.217330 -0.280043 0.163895 1.529298 1.035197 -0.374242 0.888013 0.495265 -0.275599 -1.918829 -0.637170 -1.931583 -0.069640 1.343994 0.245910 -1.514694 0.224945 -0.642807 0.155054 -1.039887 -0.257696 0.107519 -0.108464 -0.407169 0.371485 -0.834206 1.748923 -0.436629 0.185756 -2.032402 0.623734 0.282264 -0.419826 1.290796 -0.177269 -1.090897 0.422103 0.432773 -0.211325 -0.973222 0.450346 -0.300475 0.174663 2.034114 0.710148 0.110675 1.075392 -0.307109 -0.454480 0.819541 -1.018376 1.285164 0.106027 -0.741560 0.519331 0.736952 -0.627748 -0.216069 -0.787469 2.074509 -0.986059 -0.536710 -1.781945 -0.703374 -0.705379 -2.660272 -1.019745 -0.478409 -0.125847 -0.101587 -0.053523 1.362607 -1.188349 0.061514 0.966943 1.555110 -0.317924 0.120873 -0.809694 0.522751 -0.870630 -1.679168 -0.247128 0.827423 -1.619533 0.507554 0.507772 0.352000 -0.857949 -0.446328 -0.087117 -0.110329 1.489614 1.030318 2.037380 -1.423677 -1.722439 0.171144 -0.337785 1.583011 -0.314198 -0.188354 0.628149 1.356309 -1.016669 -0.077856 0.789975 0.575649 -1.043609 1.541236 -0.655031 -0.399547 -0.239719 1.021979 1.025936 0.101912 0.279721 -0.676646 0.241600 -0.445736 -0.351142 -0.755271 1.038865 -2.683211 0.633064 -0.776159 1.131826 0.395391 0.767919 -0.195110 0.695897 1.179769 -1.330747 0.806953 1.409486 -0.466191 -1.540282 -0.389091 1.032194 0.126952
M014_ON -1.552713 -1.076949 -0.392933 0.970398 0.463622 -0.216932 -1.292135 2.289722 -0.404694 0.686228 1.288502 0.484514 0.062872 0.010860 -0.615093 0.583560 -0.117545 -0.087535 -1.049587 0.064127 -1.806651 1.120821 -0.239018 -0.953218 -1.172471 2.368396 -2.100701 0.762102 -0.128899 -0.589871 1.381228 -1.806609 -2.711403 -0.488793 1.605934 -0.909083 -1.615018 1.039920 1.043409 0.121373 0.157287 -0.985978 0.315555 1.030145 1.164290 -0.382348 -0.490944 0.060926 -1.198926 -0.730524 0.517533 1.280323 -0.609286 -0.402775 -1.194515 0.206422 -0.222726 -0.077050 0.005567 -0.725991 -1.087152 -0.287903 -0.970229 -0.089741 0.563388 -0.406804 -0.066088 -0.286603 1.601008 -0.219385 -0.366272 0.317783 -0.787027 0.859267 0.563026 -0.247354 -0.754047 1.410269 -1.207833 0.217888 2.867397 0.699100 -1.745154 0.200102 0.505278 1.557515 -0.868139 -0.864597 -0.292730 0.037976 -0.225804 1.158049 -1.912157 -0.301194 -0.550941 -1.774980 0.112517 -0.019377 1.072040 -1.509938 -0.193286 0.627522 0.934348 0.833250 0.997432 1.242989 0.008348 -0.401289 -0.992172 0.016686 2.202851 0.017427 0.313017 1.838263 -0.830195 -0.104942 1.262561 0.704266 -1.946908 -0.888129 -0.153192 0.676693 -0.498343 0.148438 0.809875 1.045350 1.051864 -0.270587 0.200122 1.468508 -0.282619 0.430393 -0.717956 -0.870705 1.121705 -1.766248 0.873442 -0.142245 1.411970 1.032875 0.793619 0.004089 0.014276 -0.962700 -0.237434 -0.458927 -0.928775 0.168386 -0.769977 0.266860 -0.107006 -0.229657 0.359981 -0.520543 -1.685337 -0.237938 -0.109980 1.353208 -1.088867 -0.132256 1.285391 0.674201 -1.688671 0.612746 0.302993 1.013928 -1.387857 -1.692456 0.718023 -1.704662 0.063115 -0.498511 1.986632 -1.011449 -0.653783 1.434525 -1.561436 0.370691 -0.619592 0.297094 0.209143 0.745504 0.413760 0.849878 -0.636940 0.756703 -0.895269 -0.729105 -0.316471 -1.482043 -0.309836 -1.776208 -0.649493 -0.585201 -0.415182 -0.526904 0.624193 -0.389673 2.891831 -0.784296
M014_OFF -0.893015 -1.036632 -1.384987 1.140266 1.114154 0.092519 -0.892632 0.177528 0.008055 -0.059962 2.073022 -0.006996 0.122916 0.239942 0.276570 0.484094 0.853888 -0.091157 -1.108396 -0.554284 -2.420861 0.258171 0.447496 -1.554746 -0.863814 1.084274 -1.513223 0.813554 0.233522 0.395825 0.184362 0.186118 -1.571166 0.381004 -0.071305 0.227965 -0.248298 1.247539 -0.247400 -1.515908 -0.788906 -0.081166 0.675868 1.070944 0.554733 -0.929267 -1.384125 -0.437248 -0.506432 -0.765620 1.259552 0.777173 -0.906624 -0.455809 0.067793 0.122465 0.612407 -1.178824 0.616937 -0.019999 -1.607412 0.596741 -0.875964 0.350321 -0.616043 -0.850446 -0.788883 0.169992 2.213141 0.205252 -0.476411 -0.619537 -0.742016 1.330777 0.383328 -0.838502 0.087915 1.643968 -0.801741 -1.276532 1.869579 1.377404 -0.961290 -0.428449 0.403608 1.710998 -0.525597 -0.416306 0.145436 -0.585747 -0.378760 0.919312 -1.341146 -0.714697 -1.058849 -2.631926 0.107598 0.202996 1.494536 -1.138218 -0.268601 -1.190510 1.359026 -0.172685 -0.779459 0.950989 0.832253 0.015403 0.688424 0.011175 1.755179 -0.476700 0.311838 0.292664 -0.426359 1.067618 0.395880 -0.356408 -1.493942 -0.978364 0.844955 0.471618 -2.271706 -0.253012 0.618730 1.350827 2.421870 0.085399 0.003348 0.888237 0.506921 -0.602166 -0.933736 -1.641688 1.430638 -1.778779 0.276004 1.258149 1.391179 1.205957 0.560886 0.557663 0.016024 -0.071812 -0.261422 -0.350264 -0.444929 0.252550 1.492810 0.091462 -0.241571 -0.860053 0.208687 -1.737010 -2.069961 0.703573 -0.275640 1.930274 -0.971949 0.065059 0.205728 -0.822947 -2.643990 -0.986868 0.201583 2.293810 -1.529523 -2.206632 0.144174 -0.798316 0.649011 -0.580460 1.581922 0.381334 0.018794 1.240541 -2.228244 -0.911169 -0.924215 0.001464 0.298223 -1.499700 0.518893 -0.132947 -0.203898 0.212941 -0.621594 -0.799230 -1.218164 -0.833612 0.022525 -0.429073 0.596349 -0.611656 0.480912 -0.112971 0.666712 -0.877342 1.677277 -1.031462
M013_ON 0.754272 -0.487508 -2.076807 -0.552266 0.300536 -1.217358 0.775598 1.313693 -0.657791 -2.163178 -0.509449 0.972786 0.531484 0.202608 0.104793 1.263842 -0.400238 0.422817 2.597045 -0.928521 -1.094948 -1.602386 0.154063 0.030439 0.408603 -0.275157 -1.345008 -0.771213 0.739652 -1.135919 0.962083 -0.839157 1.174458 -0.808807 0.579791 0.040039 -0.204378 0.217697 -0.562737 -1.113362 -1.529103 -1.086088 0.417429 0.379939 0.323646 0.735852 -0.728924 -1.646358 1.537861 -0.612302 -0.686157 0.370036 0.419312 -0.982107 1.209864 -0.449900 -0.259969 -0.724791 0.071664 0.247752 0.058849 0.677445 0.495738 -1.232480 0.286254 1.112818 -0.916078 0.524748 0.010646 0.153342 0.908888 0.031246 -0.069107 -1.375857 -1.044522 -1.500652 1.008869 0.942901 0.829353 0.248361 -0.669974 -0.321209 1.610225 -1.491739 -2.113722 -0.507413 -0.450738 -0.115456 -0.459835 0.510576 0.157637 -0.570583 1.933957 0.135539 -0.910806 -1.041057 -1.504831 -0.896030 -0.142959 -0.746862 -0.228645 0.469192 -0.160379 -0.209677 0.556831 -0.328481 0.116994 0.905532 -0.153994 -0.714330 1.010494 0.821981 0.912271 0.284201 1.917418 -1.779782 -0.777373 -0.662504 0.861285 -1.415695 1.385089 0.859581 0.475432 1.008352 0.053311 2.175679 0.048881 0.952843 -0.376731 0.130251 -1.269583 -0.653120 0.932248 -0.214679 -0.303478 0.075230 -1.571070 0.450836 -0.627063 -0.812910 0.307130 -0.139611 0.055190 -0.156455 1.019067 -0.122831 -0.293533 -0.550556 0.398217 -0.241961 0.138411 1.741725 -0.606718 -0.393924 -0.383787 -0.881319 -0.699664 1.202812 0.509245 0.850616 0.377968 -0.898962 0.614291 0.716848 1.470876 0.406889 0.134535 -0.543488 1.006556 -0.774647 -0.040417 0.951442 1.544908 -1.416297 1.133284 1.363942 0.225716 -0.548975 0.133383 1.204565 -1.503280 1.312345 -0.616054 -0.208652 -0.131394 -0.199913 -0.612082 0.623104 1.065119 -2.049367 -0.607508 -0.344731 0.481646 0.059824 -0.400122 -0.408012 1.699445 -1.409953 1.165108 -0.903177
M013_OFF 1.394079 0.362541 -0.936989 -0.719978 0.177136 -0.713930 0.630189 0.588938 -0.136484 -1.185748 -0.213270 1.111233 0.531244 0.003200 -0.758680 0.209008 -0.535408 0.617281 2.599539 -1.285184 -0.543921 -0.841064 0.116787 0.754746 -1.414313 0.123054 -0.406248 -0.120086 1.790614 -1.084122 0.341380 -1.569698 1.436254 0.250601 0.298680 0.584384 1.379968 0.241864 0.505021 -0.440461 -0.610736 0.558360 -0.230598 0.579885 -0.338784 -0.615576 0.888467 -1.315986 1.431797 -0.669228 -1.041502 0.340669 0.504506 -1.148436 1.253349 -0.444612 0.860032 -0.321659 0.333385 0.180598 -0.413706 1.630822 0.475283 -1.313213 -0.215144 0.900547 -0.550310 0.109896 0.546201 0.382204 0.778715 -0.193175 -1.164497 0.182436 0.096130 -1.855102 1.365307 0.620469 0.951013 0.805637 0.276310 -0.307814 1.012423 -1.383161 -1.876582 0.222343 -0.416772 -0.640479 0.585501 1.021232 -0.201039 0.355769 1.444987 0.820315 0.409844 0.358997 -1.102016 -1.655357 0.450596 -0.456544 -1.539419 0.892269 -0.760393 0.089763 0.642212 -0.202108 0.176630 1.029948 0.450794 0.020992 1.765002 -0.718117 0.232873 0.338534 0.820037 -1.543138 -0.187986 -0.443028 0.807530 -1.786955 1.940422 0.071233 0.487887 1.451542 0.638418 1.995627 0.833379 0.901838 -1.494253 1.163691 -0.907302 -0.957870 0.461036 1.095944 0.747304 -0.220654 -0.507468 0.948914 -0.010953 0.026758 0.505571 -0.664162 0.451894 -0.146997 1.552560 -0.937634 -0.776145 -0.501698 0.240801 0.017235 0.896853 0.580238 0.126867 -0.978104 0.180111 -0.219414 -0.099656 1.901275 -0.671256 0.414966 -0.809819 -1.033755 -0.318834 0.211891 1.300326 -0.022573 -0.137436 -1.626563 -0.104853 -1.028361 -0.513059 0.456319 1.226468 -0.098458 -0.384807 0.796916 -0.494463 0.320948 -0.377199 0.107318 -0.162864 0.910200 -0.851227 1.391759 -0.280303 -0.241468 -1.121739 -0.257231 -0.108590 -1.796903 -0.737260 0.109163 0.362136 0.124173 -0.668901 -1.405831 1.997905 1.892722 -2.191587 -0.638360
M018_ON 0.163076 -0.750397 -1.196298 0.399058 -0.683761 1.086086 -0.943822 0.847820 -1.685185 1.220231 0.331872 -1.678788 0.289427 0.553923 0.194824 0.934227 0.697147 0.039364 -1.559916 0.119885 -0.805948 1.120137 -0.286301 0.161766 -0.646833 0.034528 -1.363406 0.961573 0.376059 0.306119 0.804454 -1.421467 -0.405712 -1.009811 -0.038852 0.767840 -0.429275 -0.533814 0.102236 -1.547745 -0.436756 -1.578568 -0.030017 1.459790 0.083864 -1.290388 -1.236755 0.644373 -1.043039 -1.454877 -0.295561 0.155942 -1.315035 -0.386756 -1.060743 -0.915990 -0.350783 0.918414 -0.277374 -1.384998 -1.951409 0.235253 -1.021077 0.370829 -0.717849 -1.239353 -0.913713 -0.065242 2.466872 0.521836 0.383745 -0.373420 0.567078 -0.629140 -0.617939 0.709018 0.192967 -0.336238 -0.729585 -0.174932 0.677302 0.332363 -1.848453 -1.826001 0.944620 -1.031570 -1.140493 -0.339493 -0.396286 -0.841942 0.919739 0.821024 -0.791183 -1.727346 0.605158 -0.208474 0.028736 -0.869719 1.838186 -0.868178 0.666841 0.800280 1.058155 -0.156805 -0.876008 0.954892 0.614117 -0.561908 -0.460006 -0.938815 1.069659 -1.521093 0.441453 -0.955922 0.116866 0.538136 -0.254837 0.789497 0.259108 -0.188899 1.630553 -0.693903 0.230984 0.227127 -0.879637 1.227079 1.565979 -0.839510 0.571113 -0.415664 1.364538 -0.474602 -0.269018 -1.576429 0.701290 -0.271232 -0.318540 0.558108 0.315122 -0.549086 0.251063 0.698591 0.315968 -0.072589 0.743044 -0.641120 -0.887590 1.090990 1.263051 0.048443 -0.484103 -0.854901 0.426963 -1.696484 -1.581516 0.812837 1.221692 -1.384525 0.311732 -0.590480 0.052748 0.542012 -0.819702 -0.809425 -0.287700 1.245965 -1.485977 -0.916556 0.968401 0.400206 1.899738 0.929329 0.349400 -0.423308 0.201653 -0.079712 -0.674320 -0.071388 -0.569806 0.791352 1.129241 0.659193 0.245375 0.444199 0.370010 1.661749 -0.062685 0.403458 -0.257774 -1.181757 -0.981741 -2.172105 -0.491224 -0.185105 -1.199267 -1.055422 0.059955 0.031035 -1.240150 -1.242310
M018_OFF 0.091356 -0.115930 0.921537 -0.323383 1.597634 0.042608 0.652009 2.339582 0.045728 0.709930 0.928290 0.124054 -1.519691 -0.724604 -0.056291 0.465845 -0.134355 -0.214667 -0.979318 -0.676831 -1.388577 0.534086 -0.216306 -0.184697 -0.493651 0.905396 -0.994414 0.717573 -0.805430 -0.661918 1.873949 -1.920731 -2.207945 0.176786 -0.663513 -0.645096 -0.236885 0.460730 0.373550 -0.613696 -1.544176 -0.747133 0.903257 0.336720 -0.212294 -0.048344 -0.924724 -0.189421 -1.208764 -1.707943 0.810633 0.024627 -1.324201 -0.451681 -0.952330 -1.328462 0.658166 0.203357 0.804202 -0.199235 -1.349489 1.384440 -0.974131 0.432858 -0.147568 -1.261857 0.051297 -0.059819 1.313249 0.288422 0.870318 -0.221509 1.387769 0.255896 0.735317 1.219326 -0.703806 0.406501 -0.226141 0.071273 0.660532 -0.561626 -0.903040 0.071148 1.179232 0.331846 -1.923575 0.905520 0.907810 -0.719384 -0.013485 0.134260 -0.232181 0.882809 -0.951269 -0.870504 0.001802 0.201929 0.759810 0.085544 0.884637 0.117814 0.977552 -0.726053 -0.164983 0.693313 -0.302795 0.276662 -1.128256 -1.170787 0.572841 -1.463647 0.186756 0.135113 0.078183 1.073983 0.239292 0.720332 -0.646372 -0.163761 -0.343994 0.176059 0.246927 1.033212 0.223712 0.966789 0.870361 -1.054344 0.063946 -0.307856 2.129811 -0.811372 0.704025 -0.147158 1.133604 -1.043477 0.798946 -0.127599 0.656137 -0.504972 0.998054 1.139647 0.582415 1.188125 0.443825 0.534736 -1.947362 0.846381 1.403137 0.600609 -2.258573 -0.637268 -0.513258 -0.985642 -2.648089 1.470473 1.000685 -0.949607 0.156714 -0.882079 0.818040 0.782673 0.271881 -0.663841 -0.017400 0.207512 -0.724588 -1.754920 1.398344 -0.903838 0.896946 0.398306 -1.036763 -0.576717 -1.647066 -1.705529 -0.731008 -1.297414 -2.401011 0.630366 0.645873 1.159812 -0.631209 1.378021 0.276229 -0.850188 -0.126517 -0.136436 0.260076 -1.311166 -0.527376 0.274899 -0.680784 0.001443 0.709230 -0.369950 1.146215 -1.085761 -0.249503 -0.986251
M024_OFF 1.502414 -0.553954 0.470518 -2.170369 -1.087935 -1.831486 -0.531275 -1.420393 0.474815 0.401652 1.107013 0.346337 -0.074435 -0.690346 0.671337 0.642057 -0.148690 0.363386 0.582291 -0.725131 -0.120499 -2.074583 0.317793 0.484557 0.655788 -0.410388 0.622921 0.229863 1.020161 0.597272 -0.427414 -0.195774 -0.581139 0.356830 -0.177200 0.626435 -0.635000 -0.302839 0.163865 0.400961 0.428306 1.211973 0.749223 -1.200763 0.083051 -0.793110 0.992826 -0.564661 -0.003595 1.038476 -0.210240 0.911371 0.955399 -1.405794 0.682985 0.991469 -0.176004 0.211601 0.028416 -0.687854 0.614738 -0.819663 -0.497109 0.137180 -0.817281 -0.477139 1.468520 -1.961743 -0.224046 1.397248 0.298874 1.208092 0.424974 -0.901693 1.175280 0.288278 -0.661781 0.098111 -0.270393 1.758843 0.816305 0.511337 -0.788467 0.478320 -0.332482 1.463331 -0.010880 -0.424696 -0.424255 -0.660610 -0.362268 0.548542 -0.068578 -1.792998 1.362290 -0.924290 -0.628960 -0.314454 0.363458 0.565425 1.171472 0.000158 0.966647 -0.231959 -0.044912 -0.229880 0.650246 0.102569 -0.439329 -0.383108 -0.606550 -0.107377 1.206237 0.581889 -0.921562 -0.094288 0.200365 1.572636 0.000930 -0.292551 -0.614180 -0.702931 -0.054976 -1.799681 1.037061 0.731116 -1.301930 -0.333184 1.181264 -1.622228 -0.238882 0.233416 -1.869350 0.509070 0.765108 -0.437023 1.519557 -0.881526 -0.216583 -0.522149 0.413595 0.427909 0.173338 0.838144 -0.433232 0.593826 0.114214 -0.633789 -0.155784 0.860904 0.575711 1.153634 -0.947371 1.044843 0.245705 0.359704 0.204887 0.598505 0.811237 -2.558940 0.981427 -1.088780 -0.370877 -0.117666 -0.899921 0.364656 -0.229245 1.466747 0.437366 -0.172889 -1.350358 -0.426633 1.037318 0.164989 0.996066 0.831707 0.844036 1.223807 2.244306 -0.096966 -0.096965 -0.411878 1.178090 0.103816 -0.256351 0.273595 -1.026655 -0.770617 0.957602 1.164337 -0.234341 1.307402 -0.861457 0.228200 -2.035971 1.499889 1.546668 -3.290505 -1.050654 0.819828
M024_ON 2.161234 -0.504208 0.895732 -2.591111 -0.372142 -0.455109 0.183516 -1.674078 0.087322 -0.618410 0.419753 -0.195498 -0.308996 0.445341 0.335804 0.155559 0.537738 0.459512 0.293259 -1.084095 -0.184978 -1.977340 0.815005 -0.444446 -0.080946 -0.201079 0.144752 -1.096621 0.836243 0.172985 -0.008426 0.229101 -0.398037 2.446404 0.090158 1.079766 -0.557320 0.045663 -0.916960 -0.624973 0.883059 0.566600 0.015353 -0.533310 -0.084458 -1.376514 0.798593 -0.372651 -0.041938 2.111905 0.768761 1.124411 -0.708462 -1.811236 0.827820 1.994638 -0.761785 0.110600 -0.206962 -0.190405 0.475654 -0.151144 -0.536757 0.260414 0.461860 -0.047580 2.102014 -2.107536 0.168694 0.738999 0.218069 1.797479 1.324437 0.026382 1.715429 1.264885 -0.955373 0.997347 -0.657086 1.447801 0.493583 0.348810 -0.699067 0.397235 -0.408833 0.074996 -1.116518 -0.459871 -0.679989 -0.271766 -0.428393 0.087683 0.180136 -1.429888 1.461169 -0.545300 0.187869 -0.311168 -0.291439 0.262538 0.492817 -1.434937 0.368568 -0.036430 0.532830 -1.182034 0.441151 0.432344 -1.922107 -0.620343 -0.186929 0.071636 0.563598 0.699119 -0.896109 0.282578 -0.334237 1.642843 0.153907 0.418385 -0.162448 -0.544587 0.328423 -0.672630 0.685322 1.081198 0.297494 -0.190195 0.837114 -0.158222 -1.129754 0.738670 -2.330755 1.817091 -0.024119 -0.246171 1.430797 -1.841554 -0.172235 -0.386793 1.254384 0.626024 0.018525 0.160196 0.163813 -1.078500 -0.216963 -0.597299 -0.343101 1.185489 -0.401465 0.135155 -0.236540 0.841170 0.164774 0.934100 -0.631772 0.721023 0.960217 -1.867963 1.136065 -1.586385 0.089045 -1.081789 -1.341973 -0.369515 1.150218 0.361218 0.082991 -0.243932 -0.206569 -1.110260 0.578490 0.793932 1.564773 0.273679 1.503300 1.590745 -0.492173 0.141361 -0.846197 -0.444207 0.748909 -0.881151 0.008025 0.616033 -0.541936 -0.245424 0.588267 0.901286 -0.561007 0.802305 -1.348057 -0.908064 -1.861788 1.369536 1.685638 -0.789690 -0.878211 0.663023
M017_OFF -1.376730 -1.273601 0.626044 -0.928336 0.233575 2.336884 1.394557 1.204420 -0.507291 0.322022 0.282045 -0.451253 -0.982266 -0.252518 -0.211074 -0.900952 0.915645 1.586042 -1.047455 -0.228458 -0.395559 0.613375 0.353854 1.262335 0.819110 -0.015690 -1.148059 0.273606 -0.656614 0.742199 0.710738 -1.459522 -0.977202 -1.176032 -0.441279 0.704266 -0.345050 -0.399659 0.921490 0.017238 -1.176123 -0.286707 1.335229 0.637045 -1.819120 -0.330054 -0.628985 1.780623 -1.103628 -1.946124 0.789621 -0.604940 -0.980310 -1.317871 -0.750923 -0.411040 -0.262607 1.783209 0.676685 -1.405936 -1.103378 0.549643 -0.580659 0.876038 -0.162045 -1.492993 -2.096730 -0.013944 2.131355 0.205972 0.501283 -0.529885 1.791563 -0.967411 0.733457 1.728766 -0.366388 -0.854418 -0.246488 -0.414187 0.278515 0.560422 -1.959716 -0.481377 1.149573 0.111927 -1.161649 0.967881 0.951931 -1.951551 0.215029 2.038458 -0.478934 -1.151929 0.453615 0.081211 -0.681483 -1.917445 1.326522 -0.446269 0.868985 0.745750 -0.214534 0.061253 -0.379111 0.087177 -0.476978 -1.141551 -0.775139 -1.338251 0.546428 -2.872546 0.244077 -0.888772 1.408179 0.598402 -0.512430 1.394349 0.484992 0.429046 -0.043251 -1.181691 -0.566177 0.071399 -0.179126 1.406691 0.659672 -0.289047 0.497358 -0.929448 1.433812 0.257712 -0.410982 -0.393506 0.989433 -1.191284 1.010399 -0.934023 0.319647 -0.216854 1.320226 0.806512 0.189181 1.382891 -0.398275 -0.042522 -1.563317 1.184587 1.126469 0.085270 -0.580069 -0.891858 -0.547374 -0.745466 -1.080021 0.769578 0.907549 -2.050060 0.089407 -1.133072 0.165160 1.309285 -0.475027 -1.733307 -1.345456 -1.291564 -1.819370 0.106897 2.077920 0.241788 1.974128 0.550865 -0.278656 0.167514 -0.297043 -2.183894 -0.414499 0.957463 -1.272536 2.238401 1.399897 0.443040 0.270398 2.002791 -0.135888 0.122014 -0.363542 0.400095 -0.593854 -0.188616 -0.365510 0.012384 -0.089453 0.796150 0.823334 0.185375 0.050252 -0.864178 -0.793829 0.308463
M017_ON 0.547088 -0.266217 0.867092 0.021648 0.382382 0.888764 -0.110107 0.761928 -0.425007 1.049339 0.838185 -1.911248 -2.197022 -0.009566 -0.147996 1.114101 -1.620222 0.667150 -1.949773 0.931131 -0.703302 1.067575 -0.245769 0.225263 -0.062495 0.653691 0.137916 1.209947 -0.839520 0.318291 2.050920 -1.700711 -1.325913 -1.140769 -1.090732 -1.193705 -0.658364 -0.844888 0.102342 -0.673413 -1.582349 -1.787948 0.442824 -0.140366 0.737998 -0.881112 -1.151560 -0.120051 -1.383287 -2.062548 0.434163 -0.744793 -0.938922 0.401053 -1.048936 -0.387641 -0.584076 0.997666 0.234837 -0.105310 -1.611840 0.117717 -1.424916 0.452302 -0.968981 -0.789932 0.404503 -1.204773 1.460882 1.026682 -0.228488 -0.032331 1.926057 -0.334930 0.242209 0.846163 -1.401807 -0.464233 -1.059356 1.080173 -0.633398 -0.457173 -1.626320 -1.256216 1.430494 0.893390 -0.843092 0.268384 0.072094 -0.910944 1.731430 -0.081457 -0.538078 -1.757455 -1.052920 0.616764 0.571714 -0.655781 1.395262 -0.283793 1.243404 -0.726904 1.216784 -0.480560 0.669240 1.204921 -0.709584 0.147467 -1.024992 -0.549701 -0.396185 -2.208895 0.634773 -1.150527 0.548199 0.888265 -0.722170 1.828293 0.035493 0.509260 -0.761485 0.117237 -1.251687 0.320343 -0.336845 1.258787 1.020386 0.463149 0.457615 -0.234543 2.614386 -1.508675 0.910190 -0.661996 1.704293 0.202300 -0.399970 -0.671363 0.212146 -0.963120 0.427452 0.126856 -0.266107 0.664550 1.024632 0.199337 -1.116444 0.174613 1.764285 -0.940613 -0.767633 -0.146727 0.312907 -2.411652 -1.404973 1.184652 1.036819 -0.226800 1.386104 -0.643538 -0.000614 -0.354992 0.021182 -0.833502 0.153859 -1.059901 -0.203813 -1.504473 1.188404 -0.077414 1.062679 1.802726 -0.294394 -0.817742 0.171678 -1.331639 1.032096 -0.308869 -2.335393 0.711497 0.241628 0.494708 -0.040293 1.177215 -1.699992 -0.176000 0.656199 0.258160 -0.518924 0.802313 -0.509392 -0.949539 -2.154254 -0.119398 0.677008 0.977470 0.017241 -1.359827 -2.744179 -1.785341
M010_OFF 0.775789 -1.170404 -1.290811 1.027504 -0.451287 1.242587 1.538890 -0.393094 1.309988 -0.700720 -0.946351 -1.146276 1.257875 -0.294467 -0.547310 -1.281318 -0.625313 -0.423850 1.802572 1.679141 1.269893 -0.996737 0.421657 0.061415 -0.477848 1.409019 1.229222 -0.165714 -0.039233 -0.761812 2.105068 1.181718 -0.118869 -0.059139 1.658595 1.306795 -0.258368 0.057940 0.305249 -0.750113 -2.132556 0.610528 -0.374138 -0.921016 -0.145720 0.159766 0.187300 1.566008 0.892781 0.513066 -0.011073 0.981012 -0.738846 0.054366 -0.277487 0.870095 -0.818118 -0.452360 -0.235662 -1.097360 0.925086 0.364805 0.960378 -0.854980 -0.171423 1.449821 0.762306 -0.830350 -1.940064 -0.043020 -0.050199 1.082427 0.577427 -1.661526 0.006278 1.282452 0.157454 -0.612952 -0.322517 -0.045029 -0.514104 -0.162396 1.291676 0.019269 -0.633064 0.869882 0.046411 -0.357167 -0.959150 0.410924 -1.007430 -0.118761 0.832000 -0.986064 0.400997 -0.295915 -0.682522 -1.430035 -1.177937 -0.323602 -0.604468 -0.073584 -1.108355 0.532804 -0.191385 -0.158980 0.610676 2.100313 0.814208 -0.353316 0.199371 -0.555324 -0.382603 0.217568 0.066263 -1.718004 -1.285453 -0.362436 -0.097772 -1.011825 -0.255031 1.019828 -1.131763 1.058698 1.633178 0.017721 -0.941006 1.582223 -1.154396 0.074361 -1.680842 0.839375 -0.725734 -0.274871 0.517691 -0.718391 -0.308783 -0.491743 -0.060217 -0.653886 0.667125 0.009816 -1.096144 0.391775 -0.013970 0.327028 0.037337 0.053929 -0.096545 0.610353 1.938521 0.025715 0.763385 0.474760 1.281888 0.011132 0.900715 1.825606 0.999856 0.884212 -0.457787 -0.513432 -0.703514 0.496761 1.649380 -0.167229 -0.469337 -0.283862 -0.272513 0.294716 1.095123 0.116506 1.267819 -1.376247 -0.248155 0.585411 -0.866761 -0.381276 0.351949 1.479900 0.084295 1.060757 -0.702992 1.517962 1.007106 -1.040944 -1.354739 0.170799 -0.396988 -0.061647 0.361500 0.170884 1.194617 0.143284 0.305086 2.073783 0.391547 1.713962 0.579678 0.134309
M010_ON 0.468287 0.539942 -1.597444 -0.411179 -0.771580 0.722855 1.077883 -1.374155 1.593059 -0.877975 -1.498770 -0.174111 1.041739 0.668401 0.750449 -0.887129 0.970299 -0.227112 1.417218 1.203717 1.429538 -0.497141 0.286986 -0.333153 0.203643 0.607918 0.694263 -0.718366 0.674414 -0.306414 1.355587 0.795177 0.019064 -0.216562 1.158001 0.925598 -0.041132 0.775151 -0.620220 -0.782865 -1.998423 -0.575981 -1.169200 -1.421488 -0.294512 -0.374755 -0.970050 0.749497 1.240431 -0.174993 -1.067512 1.458153 -0.844241 0.544173 0.257807 1.265166 1.119706 1.020328 1.079358 -0.190071 -0.758404 1.114545 0.196996 -0.386500 -0.498945 1.137793 0.857097 -0.538846 -0.609728 -0.763611 -0.059046 0.325475 1.049749 -0.167259 0.314458 -0.242247 -1.289420 -0.627003 0.022645 0.890853 0.024269 0.114554 0.927657 -0.756070 -0.805277 0.464435 1.541831 0.430104 0.202067 0.798783 -0.649649 0.243547 0.515558 -1.028748 -0.987628 -0.555507 0.042087 -1.247198 -1.023963 -0.353446 -1.060198 0.312642 -0.537448 0.052797 -0.093678 -0.338211 1.619785 2.178497 0.349225 -0.443665 -0.145174 -0.692958 -0.006105 0.512739 0.274644 -1.596809 0.018500 1.278191 -0.170460 -0.972666 0.623244 0.718703 -0.582722 1.332086 2.223434 0.734342 -0.244733 2.182190 0.165940 -0.668152 -1.351322 1.079082 0.507253 -0.901400 -1.572376 -0.619991 -0.022090 -1.014334 0.886360 -1.236522 1.289449 -0.549444 0.049792 -0.747313 -1.271387 1.159128 -0.056978 -0.069268 -0.159313 -0.736502 0.347586 1.298932 0.433943 -0.271947 0.766641 0.466280 0.062112 0.459878 0.075006 -0.813002 -1.288801 -1.209855 0.666990 0.404579 2.371061 0.048843 -0.022534 0.952369 -0.157199 -0.157267 -0.027591 1.488371 1.033496 0.087179 0.334853 0.465037 -0.423214 -0.340038 1.552217 -0.260182 -1.344129 -0.018423 -0.301088 0.248390 -0.389660 -0.270594 0.157343 -0.579726 -1.212808 -0.598922 -0.473155 -0.304152 1.843718 0.241766 0.617902 1.646801 -0.533554 2.388447 0.839900 0.244315
M021_OFF 0.894415 -1.143373 0.342732 2.100501 -0.142605 -0.004313 -2.076173 -0.240321 0.474634 0.780894 1.690282 1.337692 0.155957 0.292461 1.058617 1.164081 0.955563 -0.120862 -0.689915 -1.928863 -0.837957 0.000424 -0.117337 -1.142793 -0.734081 1.091913 -0.951276 -0.315308 0.158995 0.756071 0.876552 -0.363183 0.400579 0.296944 1.637727 0.207714 -0.476730 -0.291992 -0.973788 -1.983859 1.243191 -1.757800 2.206280 0.564433 -0.690836 -1.097001 0.134021 1.025737 -0.560662 -0.076401 -0.380659 1.542204 -0.934137 0.521878 -0.030040 -0.855217 -0.494968 -0.312734 0.228612 -1.552501 -1.048970 -0.524248 -1.610841 -0.576884 0.660063 -0.478819 -0.919388 0.792562 0.352786 1.066459 1.424082 0.337461 -1.049781 1.253780 -0.814801 -0.354662 0.764054 -0.204210 1.467944 0.540230 -0.130494 -0.197066 -0.113170 -0.168955 -0.083568 -0.127356 -0.792040 0.052298 0.164549 1.065831 0.558716 -0.853242 0.435215 -0.137471 -0.276744 -0.583844 0.775783 -0.061336 1.245138 -0.589745 -0.276393 0.989587 2.210869 -1.333214 -0.576598 0.365457 0.570518 0.738944 -1.026942 -1.167481 1.399149 -0.077191 1.388738 1.044713 -0.786321 1.648192 1.066740 -0.389064 -1.007182 -0.268165 -0.168556 -1.129397 0.562626 -0.329424 2.175735 -0.903112 0.268848 -1.653361 0.281216 0.471028 1.190623 -0.068557 -0.038375 -0.905452 0.322202 0.327763 0.526921 0.746345 0.767026 -0.207811 -1.540244 0.311769 -0.998356 0.275039 0.153861 0.033390 -0.110923 1.248734 1.137373 0.841923 0.013583 -0.452139 -0.618718 0.675890 0.082273 -0.476199 0.433283 -0.545148 0.046179 -1.112080 0.438036 0.919846 1.352247 1.385290 1.146049 0.724984 -1.864128 -0.451318 -0.669037 2.158702 1.504259 -1.371503 -1.628665 -0.101915 -1.581246 -1.822013 -1.159977 -1.775492 -0.224533 0.044475 1.514341 2.290300 -0.393882 -0.525490 0.659641 0.186570 1.394795 0.690726 1.404758 -2.025032 -1.111663 1.382873 0.948495 0.229563 -0.238207 -2.429847 1.275457 0.582563 -1.514517 -1.474056
M021_ON 0.286312 -1.097783 -1.065060 -2.101930 0.098330 -0.501786 0.630684 2.228799 -1.513160 1.818838 0.412858 -1.269743 -0.597629 -1.838448 0.505455 1.565225 1.973998 -1.284734 -0.574078 1.455287 -0.502340 0.290214 0.678667 0.110100 0.104159 1.574340 -1.875228 -0.859054 -1.500680 -0.030443 0.135992 1.172323 -0.586167 0.680180 -0.912183 0.055767 0.803739 -1.520580 0.043880 -0.518643 -0.489247 -0.720805 0.664286 0.203088 0.570430 -1.415075 -1.497898 -0.635327 -0.446706 -1.456376 0.112202 0.421357 -1.141825 -0.776874 -0.871186 -1.836768 1.168669 -0.089869 0.681696 0.454507 0.089044 1.817382 0.366247 -0.326633 0.211014 -1.749942 0.388723 0.367556 -0.000640 -0.452552 0.097072 -0.995002 -0.681199 0.671937 0.981335 0.067551 0.583791 0.830252 -0.221972 -1.375273 0.659397 0.153746 -0.468136 -0.379591 -0.377028 -1.388310 1.386880 -1.418334 0.743180 -0.225058 -0.627584 0.357609 -0.953869 0.547927 -1.245237 -1.653172 -0.009575 0.944070 0.327736 0.363483 1.080434 1.109909 0.646960 1.030491 -1.472265 0.634714 0.567310 -0.678110 -2.797500 0.331132 -0.215450 1.903258 -0.009110 -1.467936 -0.431730 1.874166 -0.360589 -1.021627 -0.491959 1.097988 0.357256 -0.435504 0.165179 2.164120 -0.301109 0.128123 -0.033491 -1.469616 -0.494061 0.036176 0.173802 -0.251086 0.627067 0.346389 -0.932145 -0.732823 -0.699355 0.952650 -0.489701 -0.467578 0.098176 0.482131 0.653528 0.356985 -0.699019 -0.103686 -1.362182 -0.150192 0.705355 1.562926 -2.606920 -0.526705 1.227377 0.655017 -0.632379 -0.182791 0.802195 -0.635308 -0.926250 0.924751 0.128292 1.563962 -0.414090 -0.427467 -0.614097 2.168456 0.095279 -1.275960 -0.367039 -1.175601 -1.976816 1.637318 -0.211141 -1.082722 -1.205557 1.109709 -0.426086 0.362054 0.373051 -0.903242 -0.633416 -0.267246 -0.712519 1.247071 1.767522 -0.450859 -0.292282 -0.488739 1.044629 -1.462144 -0.690181 -0.940814 -1.074941 -0.232090 -1.032013 -0.523625 0.844909 -0.054942 0.289832 0.732045
M003_OFF -0.820106 -0.864562 1.284615 0.630723 0.592814 0.968231 2.164275 0.706316 -0.547364 0.649052 -0.018363 1.088506 -0.896818 2.414676 -0.210510 -0.488294 0.043544 -0.193039 -0.061265 0.194761 0.809918 0.073654 -0.344693 1.158268 -0.230270 0.220037 2.940907 1.479526 0.094748 1.881959 -0.793993 0.701622 0.514715 0.772035 0.072020 0.232433 0.559540 -0.170965 0.742055 1.741394 1.007335 0.861154 -0.785218 0.207513 -0.012552 1.272192 0.658969 0.587776 -0.043701 0.337650 -1.978795 -1.306504 -0.168596 0.529665 0.068626 0.559349 -0.303253 0.775793 -1.200262 0.723786 0.286875 -1.284997 -0.388495 2.653162 0.890172 -0.360485 0.455759 0.407384 -0.473670 -1.285316 -1.549912 -1.568246 -1.334547 1.635342 0.318405 -0.845280 -0.227330 -0.454020 -1.508671 1.079544 0.360401 0.171583 0.450516 0.474937 1.256118 -0.203991 2.593473 -0.704498 -0.657811 -1.057147 1.570937 -0.201025 -0.844185 -0.924007 0.301903 1.747163 0.656491 1.171965 0.994107 0.224278 -0.070926 0.122659 -0.010131 0.992911 0.407632 -0.425147 -1.251920 -1.259788 1.311434 1.078480 -1.246549 1.268969 -0.573222 0.135783 0.899680 -0.527609 0.354774 -1.623263 0.596541 2.131531 -1.569337 -0.961324 -0.662730 -2.857677 -0.481386 -1.131274 -1.763653 -1.248595 -0.793405 0.521355 -0.228931 1.477585 -0.082299 -0.655208 -0.182791 0.893162 0.963107 -0.073484 -1.557866 0.455884 -0.803562 0.284968 -0.822227 -0.694635 -2.290724 -0.242031 1.319292 0.298955 -0.831803 -0.524213 0.321165 -1.058600 1.916789 0.904969 1.542140 -0.797259 -1.039069 -1.910874 -0.250987 0.948909 -0.879461 -0.532011 0.600125 0.983354 -0.927149 -0.022555 0.802704 0.024329 -1.252684 0.666536 1.188449 -0.840049 -0.956651 1.554914 1.392496 -0.458222 1.009553 0.075967 1.117900 -0.615457 0.970534 -0.580687 0.338002 -1.836309 0.308656 -0.722912 2.026461 0.383145 0.045988 2.033330 0.615964 0.489786 -0.712707 -0.980781 0.834500 -0.461429 -2.174191 -0.006528 2.024369 0.046883
M003_ON -2.240667 0.600181 1.159658 1.017389 -0.184886 0.446611 -1.116625 -2.070544 0.122217 -1.944625 0.433617 1.300155 -0.096315 0.856873 -0.562993 0.494023 -1.163533 0.369892 -0.485124 0.318277 0.565468 0.421275 0.765799 -0.143582 -0.193905 -1.298176 1.316862 0.258215 -0.661203 0.443163 -0.907215 0.720321 -0.653735 -0.737426 -0.938446 0.577577 0.128498 -0.768977 -0.205060 2.069895 0.515340 0.596845 0.527986 -0.769974 -0.277955 0.388879 -0.488183 1.028410 0.206168 1.340697 -1.090179 -0.371782 -0.492069 0.499682 -0.520449 0.856273 -0.918502 -0.850161 -1.629788 1.282734 1.652908 -0.201254 -0.042369 1.140991 0.158186 -0.196036 -0.436922 1.432779 0.985829 -0.522772 -0.593316 -0.879985 0.478010 0.814324 -0.501513 -0.151749 0.173318 -0.350524 -2.399850 -0.829303 0.948242 -0.268933 0.152658 1.772941 1.150519 1.190936 2.025167 0.513797 -1.297949 -0.826975 0.049275 -0.542639 -0.654996 -0.286453 0.094216 0.162993 1.961522 -0.140418 -0.435398 0.735377 -0.714186 -0.469139 -0.224216 1.918467 0.333144 -0.088588 -0.077405 -1.164473 0.246459 0.221465 -1.669100 1.535728 -0.495892 -0.084704 -0.333467 -0.855393 -1.816012 -1.089518 -0.791554 1.623656 -2.346760 0.512469 -1.454392 -2.622249 -1.356335 -1.803449 -1.395169 -0.340712 0.226650 -2.136058 1.378052 1.884320 -0.167767 -0.525178 -0.158263 1.315584 -0.861926 -0.188800 -1.133868 1.592236 -0.944504 -0.976346 -0.921796 0.928777 -0.785584 0.145421 0.172632 0.100079 0.032188 -1.447552 -0.356014 0.382175 1.825368 1.100347 1.183780 -1.612989 -1.910798 -0.902852 -0.459633 0.984429 -1.356351 0.756125 -0.102176 0.093419 0.456463 -0.711574 0.169255 0.238965 0.200387 1.065242 0.279223 0.517281 -1.283550 0.139460 0.043464 -0.502789 0.303043 0.174740 0.974926 -3.029794 0.102111 -0.416771 0.694430 -1.242976 1.474774 -0.270755 -0.685938 0.361662 0.061357 0.791460 -0.240386 0.330223 -0.195602 0.897997 2.471384 1.093605 -1.241586 0.100596 1.001387 0.423309
M005_OFF -1.602523 0.645421 2.351549 0.690062 0.823354 -0.818071 0.445412 -1.204713 -1.011294 -0.474165 0.390033 1.616503 0.845155 -0.771571 -0.273997 -0.184408 -0.523126 -0.562561 -1.515487 0.818523 0.107989 -0.017829 0.400842 -0.356205 0.162825 -0.691526 0.072806 0.621803 -2.270972 1.407495 0.083603 0.701499 0.481609 -1.224046 -0.100974 -0.696880 1.339167 -0.533907 0.328114 1.011262 2.471945 0.725348 -0.349902 -0.091410 -0.139283 -0.312054 0.121170 0.158122 0.292389 0.132318 -0.231578 -0.723640 1.324660 -0.277667 -0.083955 -1.536534 0.032360 0.155760 -0.851523 0.803935 -1.489541 -1.353326 -0.434096 -0.184818 0.058782 0.470458 0.900304 0.738496 -1.532648 -1.863549 -0.251417 -1.501456 0.136335 0.500586 -0.507772 -1.300606 1.877701 0.380656 0.438116 -1.449738 -0.472162 1.329108 -0.081047 0.785027 -0.190732 -1.010364 1.405074 0.095617 -0.654667 -1.348439 -0.370056 0.019683 0.537851 1.607725 2.316884 -0.781063 0.732286 0.323877 -0.495089 -1.759160 1.280154 -0.749510 -0.747044 0.431768 -0.346433 -1.065265 -0.994853 -0.378703 0.283938 1.812472 -0.993808 0.728571 1.079942 0.035975 -1.116821 1.681320 -0.112508 -0.190236 -2.023459 0.715036 -1.069350 -1.302982 -0.319816 0.322261 -0.593483 -4.148863 -1.609275 -0.811620 1.252665 0.516894 2.175899 -0.160433 -0.241533 0.961246 -0.034042 0.815290 0.687856 0.485095 -0.865735 0.862222 -1.647736 -0.646856 -1.064283 1.665698 -0.039352 1.720800 1.015578 1.042335 -1.563623 -0.193513 0.846731 -0.633805 0.280001 0.115064 1.957525 -0.046179 0.171779 0.302617 -0.280119 2.125408 -0.313916 0.765027 1.556879 1.031998 0.445823 -0.184887 1.054379 1.572962 -2.401627 0.923835 -1.521124 -0.426557 0.695566 1.329065 0.393886 -0.448127 -0.108413 -0.444618 -0.039090 1.011367 0.435995 0.046652 1.449691 -1.806856 0.449994 0.366858 2.037639 -1.083360 0.197259 -0.158144 1.382546 0.143946 -0.736110 -0.664806 0.244846 -0.997907 -2.489546 1.572347 0.179005 1.157027
M005_ON -0.253685 1.749465 1.266511 0.350775 -1.301794 -1.063813 -0.398578 -1.417231 0.278682 -0.808918 -0.693009 0.665855 0.455704 0.567111 -1.169522 0.548131 -0.646790 0.154165 -1.828938 0.552076 0.472280 1.685345 -0.390776 0.883329 0.479294 -1.459975 0.229465 -1.529937 0.286314 0.909153 0.186354 -0.292043 0.797956 -0.149420 0.578893 -2.017542 0.695518 0.277577 -0.228532 1.356159 2.235700 0.250065 1.001410 0.294209 0.206036 -0.218689 0.592941 0.168411 -0.311323 1.924918 0.444207 0.316796 1.557631 2.128253 -0.229527 -1.729784 0.109653 -1.612745 -1.231653 -0.859109 -0.348228 -1.657804 0.909984 0.595448 -0.521127 -1.029382 1.276998 -0.419585 -1.560399 -0.518218 -1.514752 -2.111115 -0.481592 0.957472 -0.295710 -0.420833 0.159060 -0.701105 0.290584 -1.215391 -1.307719 -1.071088 0.515959 0.444001 1.011620 0.231047 0.785151 0.152833 2.105094 0.037400 0.605954 -1.104722 -0.459856 1.388871 -0.895247 -0.293626 -0.299893 1.764443 0.411592 0.849730 0.936345 1.184519 0.584390 1.757152 1.036565 0.103776 0.767420 -1.877113 0.139095 0.878799 -1.706968 2.543392 -0.844000 -1.407683 -0.139602 0.461294 0.894480 1.002510 0.273656 1.811871 -1.508769 0.656080 -1.174640 -0.798668 0.170686 -1.705238 -0.300940 -1.655049 -0.997207 0.166837 -0.835590 0.989691 -0.893443 0.601252 -0.811456 2.143064 -1.066580 -0.058413 1.292975 -0.254962 0.425344 -2.039069 1.071469 -1.731253 -2.107074 -0.020266 0.415286 0.082250 -0.410039 -1.757166 -2.188029 0.899359 1.296479 2.755198 0.095069 -0.775881 -2.223096 -0.597912 -1.487978 1.128733 0.630053 0.398372 0.625609 1.076910 -1.465512 1.420357 0.699723 1.144027 -1.167758 1.871182 -0.312690 -1.512339 0.018988 0.131258 -0.138368 0.133352 -0.355649 -0.305905 -0.300118 -0.896691 0.640604 -0.138678 0.439093 -2.094224 1.413815 -1.690367 0.019487 1.305772 0.623651 -0.556553 0.625089 -0.166022 1.792681 0.168273 1.075529 0.293381 -0.416668 0.064584 0.174578 0.178493
M008_OFF -0.855212 0.906906 1.226186 1.524874 -1.110396 -1.926074 -1.071963 -0.835176 -2.060559 -0.402102 1.022795 2.005883 0.185192 -0.594818 0.898994 0.341885 0.314340 -2.011616 -0.098894 -1.073412 0.292517 0.871325 1.593583 0.402715 -1.369626 -1.202601 -1.082614 -1.416009 -1.716468 1.351931 2.238474 -0.789667 -0.008801 -1.399651 -1.054555 -0.616732 1.211915 -1.443743 -0.384906 -0.088964 0.481895 -1.600282 1.649090 1.308759 0.070730 0.045465 -1.692536 0.546284 -1.251080 0.982980 -0.358779 -1.162215 0.217079 -0.103538 1.017122 -1.728958 -0.007521 -0.697111 -1.633094 0.053771 -2.187316 -0.024508 -1.331926 0.657662 0.682340 -1.142762 -1.295058 1.696042 -0.573497 -1.125334 1.267605 -0.915297 -1.891510 2.326200 0.023409 -1.950089 0.382752 0.728487 0.237977 -2.376010 -2.018812 0.127860 0.632576 0.283518 0.722038 -1.094676 0.655954 -0.855542 0.554338 -0.386326 -0.181865 -1.016229 0.455454 1.118664 -0.067171 -0.291847 0.911985 2.818650 -0.265193 -0.715654 1.785412 1.144906 1.233126 -0.269968 -0.433496 -0.144251 1.674644 -0.844140 -1.305332 0.481848 -1.825819 2.359782 -1.392949 -1.427193 -0.571603 0.213890 0.271455 -0.550485 0.643513 0.628613 0.957773 -0.561264 -0.283394 0.805396 1.259526 -1.317536 -1.536659 -2.020882 0.797977 1.122033 0.820762 1.735253 -0.091501 0.451567 -0.041889 -0.306142 0.752214 -0.309567 0.979162 0.807945 -0.572772 -0.997432 -0.245001 0.984389 -2.361578 -1.311664 0.170077 -1.192806 -0.766608 0.141954 0.188551 -0.585998 2.528601 1.141744 0.372040 0.352633 -0.905296 0.389244 -1.540282 1.438259 -0.294915 1.783802 1.593697 0.900468 0.943806 -0.133160 -0.089943 0.674844 -2.487817 0.817227 -0.467147 0.148795 -0.286869 0.086372 -0.390950 -0.513330 0.125597 -0.463686 0.323163 0.634009 0.228391 0.290814 0.140226 0.667827 2.425139 -0.631120 0.596097 -0.718400 0.043573 -0.577067 -0.030482 0.142908 2.330027 -0.466672 0.458905 0.251448 0.394748 1.941925 -0.657308 1.026160
M008_ON -1.810396 0.687895 1.019015 0.954822 -0.014591 0.029339 -1.254385 -1.386574 1.098782 0.626099 1.549009 0.067403 0.205592 0.466152 -0.825816 -0.126815 0.531527 0.773024 -2.041815 0.739888 -0.071361 0.004923 0.308621 0.435033 -1.126058 0.947922 -1.080959 -1.887052 0.049222 1.109554 -0.263998 -0.211132 0.707375 -0.542478 1.082524 -0.382115 1.094658 -0.631880 0.621015 -0.960895 1.035986 -0.537599 1.196523 0.308680 -0.441880 -2.043022 -0.061703 0.620170 -0.548459 -0.561977 -0.276476 0.419286 0.263934 0.989301 -0.107222 -2.199863 0.846137 -1.301257 -0.652444 -1.682698 -0.309180 0.177656 0.533196 -1.283252 -0.052840 0.677074 0.692309 0.245533 -0.898794 -0.838082 0.040346 -2.260655 -0.162278 1.431887 -0.205682 -0.460950 0.341220 -0.786813 0.678551 -0.073646 -0.228887 0.163201 1.175798 0.270211 -1.253344 -1.379543 0.829097 2.159864 1.510453 -0.327728 -0.051075 -0.077632 -0.333339 2.350612 1.531312 -1.002280 -0.594464 -0.229704 1.024373 0.147411 0.635511 -0.058796 -0.495578 1.932299 -0.299380 -1.131458 -1.236193 -0.779399 -0.734744 1.309237 0.377901 0.477667 1.057351 -0.524249 -0.100309 1.415110 0.123315 -0.899912 -3.684783 1.920604 -2.258615 0.492846 1.633605 -0.385319 -0.664318 -1.196720 -1.453102 -1.417471 -2.120761 0.865589 0.202427 0.204472 1.636341 -0.208923 -1.940954 1.382392 0.000405 2.411697 -0.128765 -1.167783 -0.465883 -0.899693 -0.282122 -0.269618 0.041088 0.841514 0.449780 2.015728 0.600692 -0.765866 -2.626627 1.120797 0.992388 0.380163 2.365184 -0.708637 1.319559 -0.656074 -0.655946 2.009075 -0.044015 -0.030785 0.489704 1.046788 0.772536 -0.031403 0.732580 -1.811683 -2.017681 1.048958 -1.232959 -1.710598 0.310812 0.157382 -1.131913 0.404795 -0.478954 -1.016019 0.865796 -1.470611 0.064189 1.239528 0.301658 -1.843480 1.420519 0.039387 0.986637 -0.641462 2.109529 -1.233913 0.389582 -0.737957 -1.231606 -0.202019 1.537482 -2.636486 0.966814 0.627933 0.960998 -0.033818
M022_OFF 2.058920 -2.791681 0.473159 -1.276605 -1.923958 -0.805641 -1.211316 1.518493 -0.072731 0.891613 1.725910 -1.882552 0.336493 -2.655964 0.690187 0.095629 1.389255 -0.772645 -0.852075 -0.460158 0.338969 0.056926 0.665938 -0.153075 0.934985 1.522655 -0.336936 -2.275365 -0.613181 -0.923207 -0.213768 1.169285 0.267622 0.492899 0.107835 0.899698 1.529230 -0.149549 -0.099111 -1.989605 1.295635 0.356576 1.128090 0.133204 -0.365167 -0.556473 -1.358031 -0.859413 1.375154 0.376003 0.728395 0.788354 0.542381 0.844382 0.575580 -1.402721 2.042428 -1.047543 0.283449 -0.981183 -0.223726 -0.829535 -1.322173 0.191420 1.260703 -1.432841 1.255681 -0.092399 -0.199694 0.199414 -0.347104 -0.325878 -0.747914 2.355732 -0.201837 -1.049066 0.537421 -0.104213 -0.905637 0.097061 1.726837 0.271127 -0.660906 0.308979 -0.441444 -1.037319 0.520306 -1.084954 0.082296 0.617167 -0.022024 -0.098864 0.958744 0.160254 -0.288328 -2.172686 1.042556 0.810235 0.964008 0.976876 1.239253 -0.898255 1.101816 -0.734145 -1.521767 0.059699 -0.145481 -0.198223 -1.827250 -1.060041 0.712579 0.358942 0.446510 -0.129080 0.138526 3.327295 0.455850 -1.146715 -0.947897 0.679734 -0.442771 -1.441081 0.586591 -0.043738 0.907318 1.031092 -1.551471 -0.906623 -0.825321 0.351457 -0.557106 0.349497 1.848704 0.325458 -0.122449 -1.439119 1.394794 -0.375694 -0.082540 0.664066 -0.226428 0.459415 0.472547 1.040983 0.283124 -0.309883 1.101968 0.223100 -0.209582 0.551637 -1.176700 -0.713374 1.409431 0.824151 -0.634913 -0.138677 0.692085 0.312121 0.631938 0.021117 0.226902 0.843990 -0.278524 1.993636 0.034714 2.948582 -0.327290 0.238136 0.705061 1.133241 0.170030 0.539119 -1.092907 -1.536214 -0.855253 -1.322811 0.401859 -0.432858 1.348369 0.405448 0.981442 1.243642 -0.227302 0.552341 2.730867 1.517243 0.079393 0.553761 1.238996 -1.756092 -1.135605 0.839376 -0.379450 2.193743 -1.678236 -1.533518 1.451991 1.328031 0.186695 1.732113
M022_ON -0.738469 0.320077 -0.912375 0.181044 0.761696 0.374255 -0.641383 -0.372669 -0.733089 1.213136 0.282000 1.199145 -0.529476 -0.221905 1.155086 2.728446 1.280533 -0.974260 -0.018403 -0.156109 -0.459616 -0.076324 0.374187 -1.816803 -0.583189 1.314201 -2.036297 -0.294890 0.198687 1.203473 -1.110178 0.308157 0.487099 2.016841 0.982132 0.223723 -1.512362 -1.407175 -1.445594 0.059794 0.987635 -2.152047 1.356411 -0.346383 0.603429 -2.367191 -0.315210 1.558663 -1.281199 -0.434216 -0.328074 1.668199 -1.612098 -1.895980 -1.162611 0.016001 -0.874118 -0.069520 1.613002 0.387783 1.009451 0.682155 0.439120 -3.037059 -0.497407 -0.951915 -0.267612 0.573693 -0.522731 1.678959 1.150571 1.328985 -1.363727 -0.114711 -0.008852 0.994653 0.769202 0.451865 2.094892 -0.423946 -0.666183 -0.457247 0.448818 -0.457517 -0.616420 -0.137049 0.255375 -0.390721 0.052614 0.865457 0.471219 -0.456780 -0.921108 -1.780117 -0.324047 0.958876 0.436544 -0.077669 -0.548016 -0.496509 -0.910190 1.362837 0.941678 0.327444 -1.200584 0.670817 1.832772 0.890060 -2.417649 0.450584 -0.560761 1.152329 1.909833 -0.334634 -1.346989 1.047095 -1.044604 -0.121320 -0.567132 -0.281709 0.452118 -0.785756 -0.947264 1.114981 1.347301 -1.887253 1.538231 -2.090179 0.879369 -0.124562 0.051765 0.053448 -1.471803 0.898021 -0.770181 1.324084 -0.431366 0.643649 0.242668 -2.018373 -1.004228 0.482141 -0.611566 -0.377517 -0.545236 0.716310 -1.715823 -0.359194 1.324878 2.569678 -0.489605 -0.884379 -1.805704 1.085743 1.280143 -0.918375 -0.947350 -0.923470 -0.917149 -0.607673 -0.253998 1.159495 0.878966 -0.912723 -0.100041 -0.455726 -0.538544 -1.079554 -1.684028 1.025900 -1.207309 -0.754706 -0.913670 -0.020659 -2.042005 0.772121 -1.109377 -0.102055 0.471516 -1.003441 -0.399379 -0.380644 -0.682692 0.561514 0.042887 -1.630693 0.991131 -0.897013 1.256289 -0.711093 -0.741025 0.527230 -0.055324 -1.467192 -0.614628 -0.657116 1.025035 -1.318445 -1.395213 -1.808649
M012_OFF 1.193012 0.576376 -2.437178 0.573103 0.383332 -0.400196 -0.107606 0.196020 1.091486 -2.089789 0.836149 0.331974 -0.854632 -0.120319 -0.237982 0.545837 -0.425732 0.383557 1.574543 0.720998 0.128345 -0.912755 0.849491 -0.334240 -1.550288 1.066059 0.228756 -1.293694 -0.035718 -0.401228 1.809887 1.103014 -0.267817 -0.916049 -0.097294 1.230465 1.803822 -1.083545 0.261507 0.315372 -1.965217 0.090413 -0.408795 0.195996 -0.142512 0.120746 -0.030204 -0.888509 2.940889 -1.014550 -0.783454 0.374284 -0.678606 -0.858168 2.361413 0.261343 0.200510 0.288524 0.482225 -0.125740 -0.437214 2.692426 0.610178 -1.973977 -0.151685 0.458682 -0.343391 0.796166 0.623145 0.263869 0.266977 -1.256043 -0.489189 -1.269096 -0.794204 -0.515329 -0.060306 -0.485665 0.801413 0.718715 0.717060 -0.226746 1.666464 -1.244131 -1.518059 -0.688948 0.172617 -0.432285 -0.016989 0.639728 -0.044838 1.004823 1.857198 0.394062 0.750378 -0.685470 -1.825038 -1.066600 -0.196962 -1.041548 -1.298532 0.807982 0.428341 0.123974 1.577208 1.247402 -0.994985 1.283255 -0.070273 -0.017010 -0.254017 -0.402893 0.748898 0.715186 1.157314 -1.948364 -1.171343 0.866852 -0.226490 -1.902296 0.427370 -0.337735 -0.514786 2.213322 1.942624 0.298770 -0.339099 0.432279 0.645342 0.191534 -2.051277 -0.712470 0.679160 0.748069 -0.681361 1.058670 0.365215 -1.318059 -0.643684 -1.576427 0.971532 -0.346070 0.361983 -0.033848 0.393123 1.006346 0.177875 -1.664491 1.341835 -0.744083 1.242167 0.336782 1.631590 -0.328705 -0.486248 0.672641 0.315930 1.203229 -0.316256 -0.118284 -1.821806 -0.683758 -0.284511 1.010566 2.576251 2.420487 -0.706618 0.294255 -0.515316 0.351906 1.695435 -0.093688 1.012868 -1.348042 -0.542860 0.742333 0.117707 -1.018107 0.089590 1.301774 0.518986 1.677522 -1.474167 2.457084 1.393617 -0.488183 -0.274054 0.945175 0.601675 -1.232598 -0.859108 -0.506973 2.205024 -1.264131 0.991558 -0.174792 0.665435 -0.404278 1.809769 0.122415
M012_ON 1.680532 -0.954127 -1.302494 -0.979798 -0.843386 -0.183809 2.091320 0.503366 -0.996780 -1.131981 -0.719695 0.453211 -0.188251 1.524925 -0.902911 -0.449126 -1.254237 0.587539 0.938543 1.145180 -0.524228 -1.420059 1.755255 1.260981 -0.506243 1.218829 1.272297 0.150719 1.289115 -0.127389 1.725724 -0.168974 2.537084 0.022197 1.467731 0.290800 0.332511 1.489524 0.424636 -1.207584 -1.987085 -0.033528 0.518305 -0.054566 -0.540648 -1.947869 -0.602434 0.098806 0.588873 0.759349 -1.106879 1.584331 1.357390 -1.702350 0.661283 -1.945754 0.457974 0.080163 0.206837 0.294336 -0.868483 1.083661 -0.245033 -2.312767 0.871998 0.090919 1.736509 0.367229 -0.894075 1.215950 0.543339 0.039667 1.106297 -0.975546 -0.975970 0.020563 0.186051 -0.089512 1.648923 0.380291 -0.140707 -0.990693 0.448528 -2.440510 -2.154021 0.934156 0.253692 0.114938 0.884699 -1.231888 -1.468740 0.244057 1.973078 -0.493669 -0.305103 -0.955531 -0.416323 -1.279230 0.416057 0.180072 -0.852336 2.273276 0.382227 0.401478 0.178471 -0.428414 1.197402 1.113943 -0.054790 0.597231 0.841043 1.552835 -0.076362 1.501245 0.425343 -1.582414 -1.413440 -0.074069 0.660299 -1.055365 1.037149 0.441751 -0.788496 1.264655 1.077087 0.345586 -0.669928 0.246200 -1.042023 0.823385 -1.424058 0.062495 1.211012 -1.261038 -0.733154 -0.701810 -1.660143 0.316242 0.195722 -0.068184 2.273813 0.648892 -0.264422 -0.612597 -0.595865 -0.832539 -0.753672 1.002487 1.130866 0.550811 0.860612 0.575390 1.001061 -0.037778 0.815458 -0.889083 -2.412091 2.669640 0.712485 0.471312 -2.105100 -0.126291 0.694757 -0.366354 2.454624 -0.365928 -0.148898 -1.533717 -1.194000 -1.119856 0.349473 2.045639 0.917920 -0.324023 -0.047969 0.670175 -0.738812 -0.445027 -0.517771 1.231709 -1.131855 1.010376 -0.711864 1.661504 0.194033 -0.798422 0.077023 -0.968048 -0.403692 -2.462204 -1.205645 -1.696949 -0.013819 0.638824 -0.498995 -0.148197 0.720613 1.485477 0.181178 -1.220215
M016_OFF 0.060549 0.284046 1.239841 0.112050 -0.445670 0.511895 0.089954 0.653739 -0.030764 1.017699 1.383028 -1.872422 -0.710693 0.787518 0.318092 -0.650528 0.328233 -0.800532 -1.005253 0.910824 -0.574628 -0.476082 -0.696022 0.183159 -0.229318 1.482334 0.738797 2.738549 1.113937 0.745775 -0.928539 -1.337113 -1.374381 -0.712330 0.891107 -1.243261 -0.717998 0.627544 -0.706616 -0.098988 -1.161494 -0.244155 0.786936 -2.022317 -0.716535 0.775773 -0.084812 -0.926680 0.101368 0.171007 1.809182 -1.618831 -1.483982 -1.473101 0.013929 1.516606 0.041785 0.507609 -0.429186 0.191967 0.554358 -1.795112 0.940907 2.846222 -1.042317 -0.705297 -2.488872 -2.362114 1.018086 -0.120466 0.396954 -1.205560 0.244950 -2.337250 -0.719370 1.722006 0.399123 1.509925 -0.940631 0.092676 -0.684553 0.664866 -0.829141 -0.314711 -0.494731 0.234033 -0.257549 1.220143 1.391960 0.453528 0.150249 0.289129 -0.583298 -2.518291 -0.114427 0.854243 -1.161457 0.107090 1.088757 -1.054977 0.138950 0.446222 0.918762 -0.043807 -0.217109 0.101492 -0.177326 0.726781 0.409330 0.078076 1.158362 -0.737103 -0.453946 -1.064011 1.418441 -0.554420 0.358265 1.524559 0.388264 1.376904 -0.416380 -0.112747 -0.038210 0.149699 -0.609900 0.992913 1.652796 0.504979 -0.098408 0.065632 0.775766 -0.474619 0.622863 -1.271925 -0.980723 -1.315819 -0.094313 -0.778459 0.889759 -0.470422 0.117960 1.428491 0.197644 0.980115 -0.578982 -0.547327 -1.248982 2.074852 1.625074 0.733428 -1.149958 -0.710710 -0.717444 -0.453616 -1.435497 1.809961 1.111887 -1.634304 -0.895168 -0.163420 -0.410431 0.573227 0.310380 -0.269451 0.043897 -0.127496 -0.819193 -1.082086 0.841980 -0.624453 1.834501 0.238217 -1.909373 -0.175390 -1.803545 -2.001622 0.520228 0.286859 -0.536590 2.222690 -0.071387 1.665701 0.374299 1.009232 0.166223 2.204030 0.515695 0.928073 0.194208 -0.320441 -0.954969 -0.106696 0.103692 -1.051674 0.005577 -0.012311 -0.184842 -0.042947 -1.834636 -0.594446
M016_ON -0.061415 -0.106748 0.227999 -2.717442 0.037429 -0.131231 -0.298530 0.852222 -0.186639 0.885921 -0.618547 -1.838187 -0.854368 0.055647 1.365959 -1.913855 -0.076819 1.498721 -1.183386 0.709193 -1.166259 1.272752 0.929957 0.964612 -1.300312 -0.174889 -1.383678 1.405600 -1.201946 2.309638 -2.116298 -1.538336 0.272448 -1.159890 -0.492721 -0.231824 -0.451602 0.420333 -1.096896 0.136583 -1.137014 -0.660776 -1.636730 -0.765817 1.924648 0.032635 -2.078335 -0.242536 -0.335963 -1.141459 0.473900 -0.252546 -0.743532 -0.047432 -1.034715 1.926668 -0.543516 2.310486 -0.113788 -1.050847 -0.530730 -1.102266 -0.769486 0.673058 -1.433271 -1.999774 -0.490671 0.248848 1.024714 -1.013806 -0.318886 1.302803 -0.193304 -2.032210 0.350581 2.726876 -0.362983 -0.877984 -1.100698 -0.775955 0.827180 -0.142019 -0.035181 -1.416624 1.637657 -1.338814 -0.625735 0.409309 0.148929 0.522926 -1.290334 -0.626111 -2.052143 -0.776222 -0.631912 0.335871 -0.842822 -1.593795 0.953612 -0.962188 0.663085 1.586923 1.591913 0.523769 0.231102 1.360948 -0.759630 1.275700 -1.554360 0.800803 1.615661 -1.020850 -0.728159 -0.808410 -0.014045 0.116088 0.710149 1.086064 0.950532 -1.472311 -0.628235 0.577815 0.343997 -0.402427 -1.090551 0.085472 1.499416 0.113721 -0.619543 -0.400017 1.169220 -0.962391 0.517945 0.071828 1.098317 -0.796947 0.734879 -0.961725 0.939460 0.965018 0.967449 2.111722 0.738257 0.306300 0.029305 0.275944 0.340029 0.475601 -0.147828 1.951957 -0.655534 0.324972 0.283756 -1.284507 -1.170299 0.520839 1.928037 -0.808959 -0.235798 -2.196034 -0.318039 1.248563 0.553257 0.210421 -0.163859 -1.633851 -0.507421 -0.402784 1.392796 0.479503 0.730894 1.239244 -0.421848 -0.577961 0.377234 -1.154300 -0.648641 -1.114849 -0.781956 0.200100 -0.012801 0.411835 -0.202731 -1.412572 -0.044433 -0.254979 0.137617 0.693406 0.534919 0.474364 -0.994295 0.505379 -1.771576 1.404339 2.434533 -0.692827 -0.904637 -1.018362 -0.077268 0.053245
M006_OFF -2.497233 -0.555458 0.923092 0.820768 0.071110 -1.091118 -0.403523 -1.179740 -0.303548 -1.073098 0.649964 1.390640 -0.794670 -0.885651 -0.982626 0.281250 -0.893012 1.277584 -0.462231 1.222598 2.209164 0.859867 1.434066 -0.079119 -1.141340 -1.346169 -0.253128 -2.921562 0.570022 1.048869 2.130649 -1.160079 -0.277195 -1.175349 -0.574355 -0.454620 1.253894 -1.077849 1.198935 0.443305 1.226377 -2.361624 0.988228 -0.560145 -0.630235 -2.290926 1.253626 -0.411100 0.502848 -1.192097 0.277099 0.657414 -0.335581 1.798569 0.550777 -2.608858 1.190706 0.661252 0.672491 0.062342 -1.446341 -1.347762 -0.366084 0.784247 1.037813 -1.324067 -0.472102 1.839007 -0.319006 -2.116377 -0.381572 -1.900180 -0.804695 0.256263 -0.129381 -2.698123 0.778726 0.886503 -0.028963 -1.350798 -1.218813 0.341862 -0.573787 0.069374 -0.995473 -1.531063 0.634999 -0.734882 0.299240 0.007855 -1.177408 -1.101581 -0.689567 2.446633 0.145357 -1.578035 -1.486872 2.364272 0.621211 0.201966 -0.661597 0.736011 0.336729 1.575512 0.495748 -0.676180 -0.203725 -1.016272 -1.585125 1.684818 -1.280296 3.270231 -0.208841 -0.441341 -0.216981 1.354467 0.801346 -0.219834 -2.227564 2.143463 -0.603679 0.023706 -0.236709 -1.997341 1.277819 -1.040670 0.423887 -2.173688 -0.965872 0.069153 0.173705 2.573227 0.650246 0.357963 -1.723230 2.335822 -0.558287 -0.239430 -0.763405 -0.338023 -2.381541 -0.897542 -0.517327 0.892681 -0.854924 -0.543380 -0.683746 1.601446 -0.573770 0.892291 0.271731 -1.112382 1.141553 0.739390 0.913386 1.689900 0.614843 -0.439509 -0.075914 0.671252 0.885314 1.767630 1.255916 0.824381 0.748510 0.593822 -0.297063 0.113681 -1.420343 0.974845 -0.995970 -2.273211 -1.053032 1.844962 -0.671921 0.509604 -1.071165 -2.257253 2.613346 1.058540 -0.419568 -0.906959 -0.667104 -0.681638 2.063476 -0.833328 1.386268 0.247780 2.543770 -1.511712 2.800670 -1.858948 -0.220349 1.749936 -0.450591 -0.904107 -0.655262 0.830032 -0.243904 -0.355440
M006_ON 0.643109 1.490175 0.713865 1.385050 -0.099744 -0.793768 -0.550530 -1.561741 0.175567 1.591636 1.429749 1.669879 0.073725 0.664332 0.608833 -0.617303 1.267207 -0.901141 -0.888044 -0.212124 -1.852241 0.350770 -0.784461 1.353450 -0.458914 1.444170 -1.619172 -0.135166 -3.370235 1.119140 1.045683 0.365511 0.914980 -0.242636 0.613259 -2.149999 1.766481 -1.259340 -1.472814 0.025573 1.848970 0.516634 2.074827 1.205994 -0.641553 0.490914 -1.068867 0.712398 -2.161871 -0.055235 -0.904063 -0.308155 0.091640 0.004306 -0.951878 -2.639256 -0.697264 -1.722425 -2.438761 -0.921607 -0.688277 0.348412 -0.387819 0.592711 -0.089387 -0.092153 0.295403 1.968342 -2.294386 -0.445131 1.350252 -1.537563 -0.708409 2.971776 -0.097430 0.177375 -0.891426 0.482932 1.685008 1.286655 -0.656526 -0.470334 2.106677 0.753742 0.521804 -2.116984 1.796739 0.575474 1.594713 -0.664419 0.782943 -1.247306 0.006323 0.476380 0.679797 -0.189690 1.258373 -0.372241 1.398127 -1.393486 1.787031 0.917689 1.174320 -0.069179 -0.157775 -1.767990 -0.071736 -0.463079 0.384032 1.089695 -0.228476 1.441396 0.875153 -0.149133 -0.847196 0.508243 -0.365667 -0.927676 -0.675741 1.144083 -2.043680 0.048064 -0.010112 0.473965 -0.458004 -2.344428 -2.694894 -1.330155 -0.101499 0.254702 0.540543 -1.171752 -0.215629 0.352662 -0.155811 -0.659028 0.659163 2.538649 -0.542701 -0.184310 0.170055 -1.319492 -0.598381 -0.718205 -0.866890 0.665147 1.739343 -0.087284 0.283336 -1.658468 -3.106382 2.632677 1.384857 1.432181 0.936586 -2.827023 -1.383154 0.240236 -0.832843 2.841660 -1.494391 -0.460873 0.860819 0.733344 -0.132240 0.734461 0.244499 1.419176 -2.086170 1.022088 -0.370421 0.577957 1.170580 -1.414564 0.220780 -0.233983 0.206534 0.492262 -1.224769 -1.646042 2.641204 2.443372 1.637780 -1.361979 1.143782 -0.985416 0.536691 0.028426 -1.421222 -1.567963 -1.719667 1.127173 1.512185 -2.324503 0.432566 -0.351711 -0.394560 1.838765 -0.083883 1.286853
M026_OFF 0.076970 0.407214 0.267910 -0.559874 -0.405163 1.322026 0.731884 0.126356 0.339352 0.427007 0.705669 -2.016090 1.019337 0.260952 -0.499769 -1.148027 -0.816456 0.718737 0.193332 -0.188193 -0.250211 -0.243890 0.101425 -0.978199 -0.265588 -1.546441 1.325489 -0.920790 0.015575 -0.248941 -0.627802 -0.206976 -2.298652 -0.611723 0.210533 0.558383 -1.042705 -0.082478 0.623826 0.321516 -0.617351 0.177965 0.599237 -0.319564 -1.570422 0.384509 -0.436877 0.235645 0.210583 1.401258 0.081379 -0.975854 -0.105693 0.081804 0.166329 1.076977 -0.082578 -0.257364 1.620220 0.165590 2.269497 -1.542108 0.740939 -0.043248 0.301838 0.858646 0.840089 1.490632 -0.735472 1.234837 1.306242 1.767452 -0.385457 1.770457 0.604281 -0.402511 0.850981 -0.952736 0.439526 1.416626 0.130577 -1.176784 0.889038 0.856921 -0.058335 -0.540195 0.361427 -0.088150 0.588223 -0.391713 0.518727 1.492633 1.205954 -1.734169 -0.390704 0.583363 0.003924 0.378631 -1.452415 -0.505335 -0.406450 -1.713409 -0.290895 -0.168405 0.404787 0.015945 1.324648 2.137190 0.566883 0.761245 -0.001831 -1.543771 -0.193309 1.314842 0.175026 1.195688 0.346607 1.489841 0.871084 1.301668 -1.182366 0.281410 0.208785 0.266010 1.129363 -0.860937 0.273660 -0.458158 0.444132 -0.638722 -1.222002 0.816245 -1.841938 -0.211419 0.290741 0.418835 2.057270 -0.813114 -2.035655 0.044706 0.156030 0.057512 0.143312 0.506226 0.261022 -0.321872 0.627889 -0.066473 -0.205424 1.157524 0.967432 -1.474318 -0.827546 0.900000 0.284184 0.460509 0.146174 1.236202 1.251704 -0.530141 -0.323045 -0.533479 -0.582779 -1.517288 -0.660171 -0.648466 -0.254559 0.845828 0.408571 0.093227 0.283434 -0.969610 -1.361308 0.118780 -0.486094 0.077816 0.533276 1.671066 -0.087675 -0.628748 -0.066416 -1.775162 0.913231 0.136886 -1.079367 0.526740 -0.843782 -1.333208 -0.381754 1.660142 0.034723 0.903665 -1.289799 0.973039 0.272941 1.751877 -1.445546 -0.848752 1.976165 1.560777
M026_ON -1.088949 1.178675 0.708349 -0.366908 -1.196058 0.878032 0.593107 -0.847031 0.447631 1.110360 0.946051 -2.620875 0.256841 -0.443058 0.200381 -0.760689 0.776491 -0.081238 -0.342549 0.231232 -0.259969 -0.335882 0.105975 -0.757562 0.507452 -0.913230 0.877205 -1.487325 0.022123 0.427410 -0.463082 1.182474 -0.184753 -0.447546 -0.906624 -0.197516 0.092883 0.235971 -1.509436 -1.903823 -0.612247 0.916837 0.336689 -1.443535 -0.351433 -0.004186 -0.537596 0.856276 0.840043 0.325199 0.532196 0.376952 0.622981 -0.156897 0.006011 2.084486 -0.598288 -0.814666 0.954008 -0.065610 1.585334 -1.585684 1.571489 0.164086 0.878902 0.390170 0.772958 0.865088 -0.228811 1.411191 -0.408785 1.281097 0.700698 -0.246555 0.851326 0.059527 -0.802422 -0.396032 -0.756032 0.681675 -0.874851 -0.563387 -0.397586 0.754662 0.320348 -0.770878 0.920254 0.748319 -0.008269 0.029861 0.128037 -0.041800 -1.247294 -0.301294 0.211927 0.887107 0.941073 -0.101751 -1.274521 -0.157742 -0.986982 -0.360476 -0.734796 0.060390 0.346108 -0.018201 0.232625 0.453757 0.838438 -0.400964 -0.851977 -0.922131 -1.505472 1.738199 -0.890327 0.096862 0.303753 0.728980 0.171986 0.760200 -0.687861 0.455945 -1.032515 -0.830488 -0.432062 0.033124 0.410041 1.022201 0.374220 -0.924040 -1.597510 -0.701146 -1.602216 1.073451 -0.096958 0.639819 -0.065680 -0.587298 -0.345897 1.173074 -0.325949 0.225878 -0.492109 -0.823790 0.773274 -0.655648 0.358068 -0.270953 -0.360915 0.866955 0.154189 -0.561585 0.561974 -0.660817 0.145909 0.340587 -1.084894 0.731868 1.155865 -1.053893 -0.707231 -0.881896 -1.467843 -0.571090 -0.361578 -0.420071 0.779983 0.560104 -0.292095 -0.910733 -0.198539 0.963638 0.240157 0.816225 0.152132 0.791037 1.344269 0.537815 0.416327 -0.253218 -0.522556 -1.601919 0.928167 0.195919 -1.675249 0.058881 0.028982 -0.432728 -0.526278 0.906170 -0.207669 0.282569 -1.405132 -0.568500 -0.969602 0.257693 -0.592553 -1.301635 -0.452239 -0.389035
M004_OFF -0.605220 2.020180 2.399497 1.193424 -0.087950 -0.164647 -1.061921 -3.512322 0.939431 -1.144179 0.164516 0.464170 1.697646 0.599331 -1.002714 -0.919421 -1.281132 0.526438 -2.262348 2.125525 -0.158594 -0.847574 0.617337 2.388209 -1.505228 -0.823136 -0.253672 -0.537158 -1.891548 0.932706 1.718240 -0.155923 0.800182 -0.213006 0.243557 -0.810376 1.917793 -0.403355 1.093176 0.303608 2.152829 -2.056007 -0.917111 0.870166 0.287884 1.224112 1.296523 0.741357 0.380603 1.597580 0.309640 -0.381900 -0.397855 2.441770 -0.330861 -1.931150 0.154144 -1.328452 -0.827217 -1.250312 -0.814413 -2.353576 1.513337 -1.022531 -0.362004 -0.340506 1.553811 -0.285797 -1.785045 -0.836910 -1.817638 -1.571226 -0.238070 -0.170919 0.536166 -1.233770 0.884479 -1.344283 0.037317 -0.715187 -1.872273 0.214576 -1.181908 1.100596 -1.128024 1.000535 1.876906 -0.610183 1.364160 0.501365 2.182916 -0.131694 0.039368 1.829190 2.492737 0.611473 1.074187 2.691105 0.768806 0.315067 2.591211 0.912422 0.432850 1.310303 -0.996970 0.653581 -0.479260 -0.688662 1.757577 0.717951 0.075928 0.804217 -0.387378 -0.971906 -1.772320 1.546311 0.199970 0.664277 0.567530 1.235557 -1.428334 -1.514504 -0.525838 0.290187 -2.164428 -3.908431 -0.153824 -1.299497 0.919598 -0.725294 0.104726 1.214822 -1.709053 1.853907 1.822407 1.522736 1.480275 0.210276 1.771488 -0.203802 -0.095853 -0.896838 2.045114 0.495508 -0.178099 0.740257 0.742223 0.647031 -2.147914 -2.462064 -1.495922 -0.087275 0.023933 0.082377 0.757836 0.849123 -1.336915 -0.273740 0.106533 0.499571 -1.354425 0.624723 2.063599 0.632870 -0.048721 0.667634 1.842570 2.748005 -3.291111 0.451895 -1.274389 -1.739928 0.248215 0.212069 0.161902 -0.288769 -1.615744 -1.611866 -0.121377 -0.300115 -1.152170 -0.987252 -0.415675 -1.996621 2.282144 -0.872803 0.911271 0.558238 0.077782 0.088615 1.020504 1.716215 -0.750229 -0.557491 -0.361254 0.122631 -1.126517 0.756784 0.519554 2.961249
M004_ON -0.806811 1.079605 1.293553 -0.584840 0.245838 -2.366087 0.444405 -0.814018 -1.764928 0.713031 -0.908444 1.291005 -0.828683 -1.082922 -1.209408 0.180482 -1.047928 -1.368630 -0.813766 0.886649 0.745277 2.625012 -1.226582 -1.835462 2.333167 -2.424179 0.673416 -0.835761 -0.099580 1.164774 -1.301533 0.241900 0.084141 -1.318715 1.232646 -1.797527 -0.935245 -0.202532 -0.102672 1.534660 2.229221 1.941536 1.883176 -0.237458 -0.195397 -1.619941 -0.163595 0.128091 -0.660447 1.150503 1.113501 0.365050 3.168525 -0.113463 0.866459 -0.745655 -0.056943 -0.089498 -1.133158 0.548050 -1.308132 -2.183925 -1.389839 0.000643 -0.647619 -0.167443 0.510494 0.123563 -2.689301 -1.407658 -1.427749 -0.564152 -0.229145 0.788373 -1.466502 -0.471287 1.008416 0.078303 1.029112 -2.265464 -1.111885 1.831999 0.578276 1.366062 1.727354 -1.132222 -0.266036 1.601475 0.853354 -0.844698 -2.322781 -1.277953 0.475617 1.344125 0.491703 -0.884439 -1.221214 -0.418365 -0.700026 -0.602786 0.369796 -1.328707 -0.647261 0.382128 0.785595 -1.047014 -0.184166 -2.216827 -0.689095 2.273566 -3.168391 1.943419 -0.297347 -0.390956 0.887688 2.336254 1.037215 1.080789 -2.375538 1.381251 -1.899794 1.535518 -0.484268 -1.089647 2.169273 -1.982987 0.116957 -0.201157 -0.209461 1.923837 0.831780 -0.106050 0.571362 1.201141 -1.846445 1.787613 -0.618412 -0.747900 -0.721402 -0.685020 0.323352 -1.113284 -1.468361 -0.684521 -1.858710 0.522183 1.145662 -0.151698 -0.621662 -1.580539 0.085215 0.437154 0.356834 1.776812 0.905989 -0.528883 -0.447613 -0.089786 -0.478754 1.639132 0.207854 0.529218 0.724979 0.378337 -1.836863 -0.311678 0.368228 1.066330 -1.713476 2.356371 -2.233004 -0.026799 0.282662 2.077405 0.609833 -0.544748 0.963277 1.606391 0.186778 0.251864 2.396053 0.110133 2.405800 -1.411173 -0.155808 -0.103404 0.389812 -0.736624 -0.125208 0.047344 1.594441 -1.725753 1.845945 -0.264788 1.212926 0.201224 -3.297535 2.238468 -0.476581 -0.463514
M027_OFF 0.006584 1.435380 0.402901 -0.977061 -0.283507 -0.134533 0.375396 0.330716 -0.262090 0.770831 0.919917 -2.175784 0.617097 -1.452165 0.154234 -0.740332 0.926919 0.903578 -0.883221 -0.268339 -0.909147 -0.551201 0.002744 -1.201276 0.241215 -0.877680 0.757267 -1.243128 0.578726 0.065578 -1.313170 -0.622886 -0.650462 -0.271792 -0.955597 -1.097858 0.454455 1.248979 -0.589240 -0.669257 -0.928516 -0.326206 1.315324 -0.165053 0.861156 0.593677 -1.753476 1.052047 0.432420 0.153955 0.091054 0.141726 -0.018730 0.136707 -0.042433 1.504427 0.814236 -0.684289 2.464772 0.539005 1.240584 -1.501125 1.441271 0.040974 1.876016 1.277915 0.294047 -0.028770 -0.961167 -0.718919 0.358775 0.574151 1.111254 -0.539115 -0.610288 -1.401332 1.226380 -1.479429 0.421509 1.276343 -1.279308 -1.274417 -0.669928 0.256984 0.102287 -0.574523 -0.535811 0.742345 1.072617 -0.976481 0.543997 0.499740 0.339374 -1.098151 1.493043 0.917168 0.533498 1.176309 -0.574289 1.432347 -0.784312 -1.199668 -0.985539 0.050021 -0.239274 0.739814 0.446670 0.621251 1.567469 0.120432 -0.175478 0.009839 1.151982 1.141849 -1.359421 -0.832161 0.664770 0.314156 -0.325700 0.927188 -2.463330 -1.144534 -0.296442 -0.196394 1.014410 0.071556 -0.917836 -1.012879 0.614821 -0.858778 -1.025439 -0.380959 -0.367480 0.261190 0.280363 -0.514870 0.312177 -0.641664 -0.686254 0.820219 -0.431073 -0.619197 0.129093 -0.330413 1.263194 -0.352870 0.251132 -1.339417 1.089966 0.737777 -1.199109 -1.641256 -0.902779 -1.415051 -1.375312 0.246450 -1.754274 0.115661 1.067210 -0.200175 -0.069952 0.643768 0.776503 0.535565 -0.657228 0.010768 -0.739652 0.229879 -1.197885 0.582030 -0.785964 -0.447941 -1.213530 -0.845020 -0.143832 0.868375 0.648579 -0.586832 0.497896 -0.327931 0.491262 0.257285 -0.088949 1.689575 0.523884 0.715261 1.111605 -0.597461 -0.704575 1.077350 -0.522222 1.285600 1.021784 -0.730117 -0.007046 -0.310731 -0.678680 -1.038504 -0.562358 1.633389
M027_ON -0.992245 -0.397355 0.170332 0.012325 -1.427260 0.262557 0.394219 -0.219481 0.086766 -0.132183 -1.020738 -0.768158 0.540607 0.271503 0.621448 -0.341106 -0.499498 -0.391408 -0.589069 0.369434 0.736225 1.355372 1.839756 -1.550205 0.367800 -0.434581 -0.305347 -1.889112 -1.056349 -0.235064 -1.220182 -0.114002 0.039236 0.185216 1.000534 -0.877704 -1.171397 -0.498403 0.078380 -0.700708 0.509452 0.152624 0.214272 -1.240781 -0.375652 0.451654 0.143890 0.089004 1.461323 1.360858 -0.107781 0.039079 -0.026566 0.502563 0.940663 1.987204 -0.860061 1.544976 0.203911 -1.049431 2.025824 -1.376561 0.418975 -0.787854 -0.199995 -0.222744 1.034267 0.910592 -0.329371 2.305980 0.274735 1.407781 -0.955743 2.773494 -0.218989 0.754279 -0.421047 -0.074673 0.997767 1.667260 0.902171 -1.278255 0.150683 0.233949 0.056129 -0.539057 0.093393 -1.622492 -1.152885 -0.512425 -0.561658 0.935056 0.194788 -0.522759 0.511816 -0.067043 -0.205294 -0.621586 -1.890997 -2.494837 -0.560516 0.745272 0.566168 -0.862425 -0.112172 0.754219 0.491814 0.768014 -0.855090 1.311280 0.171531 -1.266293 -0.772305 1.083691 0.880253 1.429534 -0.019150 1.697208 2.643759 0.472179 -0.116416 0.176608 0.862674 0.300360 -0.807981 -0.931220 0.960816 0.743050 -0.974358 -0.445975 -1.368992 -0.942212 -1.245653 0.418551 -1.284569 1.767101 1.599195 -0.147365 -0.541286 -0.621497 0.034028 0.116743 -0.660681 -1.522695 -0.257499 -0.437156 0.288812 1.041011 0.235247 1.945294 0.012149 -0.048212 0.030987 1.280926 -0.541634 0.327930 0.159043 0.002463 0.219131 -0.589786 -1.813903 -1.368588 -1.433162 -1.746552 -0.821087 0.522502 0.374508 -0.686974 1.282373 -1.600645 0.730346 0.508348 -0.778764 0.773376 -0.669633 0.152798 0.755363 1.560446 -0.061192 0.575325 0.040858 -1.473080 1.011468 1.092498 -1.732576 -1.120743 0.112370 -0.339158 -1.092995 0.564598 0.358274 -0.269770 -0.913187 0.451874 -1.126254 0.116011 -0.124239 -1.649012 1.862824 -0.470975
M023_OFF 0.401862 -3.024325 0.389010 -3.987528 0.094746 -1.280605 -0.689332 4.168747 1.188663 -0.045625 1.833107 0.491808 0.386026 -0.560050 1.460928 2.350096 1.770631 -0.859741 0.991406 -0.498745 -0.777869 -1.726390 1.959882 -1.791603 1.021306 1.268324 0.963037 -0.544661 2.136454 0.561485 -1.765669 1.762728 0.539837 3.041756 0.468803 1.535049 -2.556000 -0.054205 0.212856 -0.113804 0.827481 0.012258 1.647707 0.151664 1.362930 -1.997989 -0.642681 1.075735 -0.574973 0.422775 0.250280 3.234011 -2.499315 0.013852 -0.702314 -0.184777 -1.550750 -1.689068 2.209723 -1.626064 2.253587 -0.866723 -1.532144 -3.040598 -1.587931 -1.741563 0.437512 -0.516743 0.240658 0.382288 0.216273 -0.545358 0.956371 0.477733 1.563019 0.776058 -1.982824 -0.156884 0.849005 -0.008537 0.878535 0.022901 -2.070742 -1.541453 -2.324887 -0.616194 -1.312612 -0.289193 -2.052306 1.222889 -0.230015 0.219796 -0.627701 -0.739554 1.885100 -1.726366 0.890931 0.209738 0.756054 0.703349 1.109984 0.819749 2.187714 1.741207 -0.384252 -0.359230 -0.639739 -1.160786 -1.646468 0.442215 -2.236887 0.485520 2.093645 -0.987673 -0.108714 -0.328908 0.532754 3.554816 -0.438065 1.226218 -0.498964 -0.851955 -1.636975 -0.088484 1.673875 -0.591352 0.573176 0.974411 -0.352281 -0.676741 -0.734688 0.888490 -1.477846 -0.079750 -0.033550 -1.670856 2.976629 -0.180505 -2.167865 -0.213534 -1.075848 0.775786 0.534238 2.740762 -1.801973 1.149769 -1.126132 0.235405 2.635702 2.579057 -0.491482 -0.268630 -0.833473 2.064391 0.468231 0.484777 0.013648 1.398594 -1.555832 -2.294488 -0.945403 -0.766652 0.636863 1.620018 -0.754694 0.100848 -0.978478 0.462590 -0.711174 -0.093806 -0.485455 -1.110100 0.126887 -0.577363 0.113805 0.966438 1.397842 0.635916 -0.023590 -0.447889 0.467572 -0.369219 0.082604 0.383827 0.261268 -1.406117 0.362443 -0.382378 0.836148 0.959363 -1.231234 1.912537 -0.777548 -1.893879 -2.171930 0.452865 0.542624 0.297988 -2.233875 1.365584
M023_ON 3.978244 -0.054734 -0.230301 -0.280733 -2.099103 0.003187 -0.252428 -5.276629 -1.357969 2.049947 1.004727 -1.263508 -0.481735 -1.703313 0.229221 0.711470 -0.139422 0.505713 -2.197863 -0.094161 1.674678 -1.176449 0.048171 -0.176594 0.408786 0.986994 -1.639306 -0.444681 -0.304129 -0.490363 1.044858 0.477764 -0.128498 1.083306 0.484086 0.022068 2.084962 -0.585564 -1.388267 -0.912277 1.359700 0.982070 -0.039253 -2.032038 -1.189786 -1.940983 0.851034 -0.701336 0.948886 0.727590 -0.671476 -0.252880 0.720972 -2.676438 1.819039 1.306671 1.396850 1.330351 -0.014308 0.036105 -0.583492 0.258195 -0.057308 1.626905 1.114488 0.264367 2.395580 -1.943769 -1.438202 2.032988 -0.045171 2.619228 -0.385540 -0.109245 1.760887 0.793349 1.080946 -0.024346 -1.349710 1.425574 2.141944 0.301612 0.535778 0.449534 0.958876 2.553887 2.142065 -2.026661 0.137498 -1.265884 -0.521644 0.273110 -0.088450 -2.337379 -1.967612 -1.604564 1.792806 -0.051062 -0.216992 -1.596165 -0.873452 -1.172818 0.799011 -1.859312 -1.286475 0.621956 1.196955 2.443911 -2.773005 -1.765927 1.837183 0.414138 2.218355 0.588138 -1.414492 2.487014 -1.062071 -1.758794 0.520943 -1.730500 -0.375573 -2.115433 1.067824 0.109303 1.242533 0.504518 -1.237173 -2.374156 1.517774 -0.703250 -0.107155 -0.675767 0.304347 2.417365 -0.189104 0.300749 -0.589186 -1.417302 2.301783 -1.400781 -0.351067 0.707508 -1.333873 -1.349249 1.005853 0.224836 0.167850 -0.810799 -0.715486 2.400922 -0.437472 -0.248079 -0.737873 1.120116 0.903840 -1.126611 -0.650224 -1.089326 1.408412 -1.354040 1.794773 -0.158233 0.104326 -0.422378 -0.961568 2.782797 -0.299778 -0.050554 0.998873 1.925374 0.142970 0.021358 -1.468714 -1.106972 -1.011887 -1.016736 -2.086272 1.431468 1.292289 0.822418 0.343356 0.368285 -0.324775 0.273916 1.352180 2.295115 0.805823 0.824888 1.577495 -1.054117 -1.922882 0.790097 0.157759 0.563774 -1.053063 -0.328993 2.853954 -2.646515 0.373861 -0.968368
M001_OFF -1.536899 0.303367 -0.860099 1.019113 -0.316310 0.729870 0.299198 -0.607394 0.062647 -1.275926 -0.181797 -0.017242 0.161818 0.454142 -2.245218 1.048579 1.214934 2.883705 -0.497279 0.151610 0.010180 0.782086 1.308434 -0.417650 1.301901 -0.406911 0.609463 -0.658346 0.110338 1.228237 0.781567 1.435101 2.095584 -1.155987 0.954318 -0.944036 1.775769 0.663473 -0.870239 3.023480 1.174936 1.805514 0.138105 0.265935 0.665114 1.350808 -1.791915 1.347520 0.699773 2.187334 -1.156457 -0.926109 3.570003 -0.597861 -0.115513 -0.286039 -0.772539 -0.051383 -0.530863 -0.901455 -0.678862 -1.440568 0.064854 0.733644 0.511025 1.340903 1.407066 -0.915789 -1.308290 -0.069180 -0.582178 -0.308712 -0.857410 -0.425016 2.628869 0.297360 -0.451073 0.385761 -1.028326 -0.763874 -0.084215 0.010411 1.088933 -0.581645 1.630750 0.114292 0.218538 -0.521494 0.938272 -1.487374 1.672643 -0.447029 -0.171358 2.502747 0.231189 -0.473692 0.519898 0.386407 -1.349413 -0.856263 1.114670 -0.407719 -0.346657 1.350859 2.126454 0.404278 -1.041574 -0.436487 -1.058331 0.074698 -1.509854 1.817668 -0.179620 -1.502525 -2.982579 0.111584 1.555518 1.390539 -1.566388 0.382962 -0.166829 -0.395793 -0.687476 1.580019 0.535216 -2.957148 -1.667834 -0.389460 0.456419 0.349672 0.033573 1.228122 -1.048412 1.628714 0.398103 2.457186 -1.212600 0.309559 1.972580 -0.333392 -1.620402 -1.671440 0.565587 1.614546 -1.300643 1.131830 -0.035944 0.335907 -1.806958 0.898637 -1.951256 -0.216568 1.006656 1.276194 -0.879989 0.390369 0.482290 -0.685667 1.210142 0.348361 0.271317 -1.779993 1.987204 0.539357 -0.500548 0.312915 0.351454 1.694602 0.055264 -0.008739 0.527438 -1.618482 -0.921170 0.642829 -1.365739 -0.380887 0.411144 -0.170773 -0.921710 0.919116 0.331149 -1.080359 2.498001 -1.755948 0.606670 -1.054592 2.306084 -0.593825 0.610090 1.215634 1.563086 -0.336972 1.916653 0.017566 0.234806 -0.180269 -1.350752 1.032406 -1.315626 1.361972
M001_ON 0.047541 1.101177 5.151342 -1.317952 -1.508916 -0.059905 1.550259 0.186095 0.236659 -0.808201 -0.201601 0.410328 1.146500 -0.466393 1.874165 -1.085132 0.059824 -1.391246 -3.161799 0.113533 2.804826 0.700759 -0.318603 0.948798 -1.092988 -0.916796 1.042358 1.104947 -1.341388 0.824492 -1.147337 0.044800 -1.714400 -0.114894 -0.964375 -0.752317 -0.338586 -0.117634 0.348159 0.016502 2.586817 0.488587 -2.091266 -1.094902 -0.579417 -1.964450 2.938232 -0.025819 -0.978020 0.514550 1.827238 -1.144678 -0.054498 1.406271 -0.421880 -0.424224 0.659271 -0.806620 -0.372030 1.861932 -0.773470 -1.063032 0.529703 -0.376847 -0.691409 -0.986978 1.965036 0.157255 -0.831398 -1.669369 1.066344 -2.248159 1.705068 1.644535 -2.254012 0.372192 1.187141 -0.849739 0.884995 -1.042894 -0.960236 -2.192406 -0.625070 1.024896 -0.048853 -0.402975 1.115635 1.684534 -0.311702 0.231999 -0.374293 0.523919 -0.316532 -1.149914 -0.154288 0.151677 -0.394690 0.747796 0.076185 0.677028 0.395569 -0.027728 -0.221526 0.232967 0.501204 -1.601419 0.989401 -0.200699 1.605777 1.463139 -1.988141 -1.228390 1.247213 0.528133 0.311944 -0.481963 -0.541118 -0.063531 -0.339843 1.394904 -1.521222 -1.019213 -1.863889 -1.450168 -0.763378 -1.889327 -1.355463 -2.029879 0.751187 -0.179606 0.180955 -1.049875 -1.106916 -0.632910 -2.157755 0.720074 0.110859 -1.470083 -0.866919 2.182237 0.542542 -1.081239 -0.097207 -1.741329 0.175391 1.193540 1.348513 0.516947 -0.245105 -0.432861 1.968215 0.333002 0.418732 1.580577 3.517869 -0.645356 -1.564597 0.918497 -2.167550 1.562722 2.185878 2.077256 -1.772394 0.778468 -0.257906 -0.217752 1.310626 2.142483 -0.603688 2.011148 -0.522474 -0.681067 1.683159 1.146011 0.528690 0.622198 0.248895 -0.123378 0.475592 0.052361 -0.195978 -0.292019 -0.538081 -0.623623 -0.799813 0.320203 0.382493 0.455768 0.501297 0.746496 1.171343 -0.155522 -0.768905 -0.085810 0.211641 0.730576 -1.348412 0.712451 -0.387684 0.311141
M002_OFF -1.362461 2.209701 2.048041 0.273758 -0.342854 0.582421 -0.083273 -0.932140 -0.417142 1.515744 -0.322604 0.602568 -0.318679 -0.356577 1.098773 -0.266758 -2.509766 0.934148 -0.288569 -1.498663 0.190278 1.339082 2.314458 1.070927 -1.589239 -0.260723 2.228996 0.720866 -0.782313 0.528377 0.557642 1.550246 -1.567960 1.416679 0.471126 1.876323 0.876649 -0.775983 -0.393924 0.447920 -0.430515 1.760774 -2.755079 -1.416764 -3.082594 -0.025658 0.855960 0.815333 0.399934 -0.500239 0.711599 -0.758322 -0.269416 -0.549581 -0.900327 2.075817 -0.258468 1.788736 -1.137020 1.851516 -2.473011 0.837501 1.242561 -0.763876 -0.884920 -1.688385 0.522551 -0.344698 -0.002868 1.640978 -0.505650 2.101250 -0.196755 -0.587978 -0.987913 -0.187976 0.668735 0.395414 -2.466187 0.324275 -0.423920 -2.243820 1.773919 1.212558 0.348614 2.920729 0.483203 1.986858 -1.680156 0.459422 -1.077132 -0.484869 -3.734314 -1.871200 0.120452 -0.418362 1.740056 -0.441739 -1.404209 0.121333 2.285625 -0.388759 -0.792776 -1.603347 -0.477723 2.450539 -1.850077 0.345726 -1.048479 -0.042668 -2.209814 -0.455518 0.455622 0.288500 -1.042141 -0.965918 -0.201020 -2.887298 1.095842 1.490027 -2.884079 -1.740016 -2.297837 -2.348162 -0.910162 0.840226 0.787096 0.077191 -2.154305 -0.286215 -0.413562 -0.704403 0.303014 -0.025531 -2.058391 2.938617 0.805772 0.290952 1.774873 1.910408 0.934943 -2.074159 -2.748655 -2.199512 -1.192473 2.567730 1.190274 -0.795321 -1.860544 0.586037 -1.078115 2.811996 2.372107 2.626642 -0.277308 -1.808671 -2.294349 -1.958316 2.062587 -1.894273 0.165584 0.609994 -1.373205 1.686785 -0.969616 0.803479 0.426217 1.165547 0.467795 0.811741 0.023508 0.527238 0.633388 3.271633 0.925606 -2.561458 -0.019967 -0.631134 1.462777 0.762059 -0.883482 0.404310 3.206176 -1.728078 0.544951 -2.600641 2.295998 -0.733583 0.082415 1.429024 1.320752 -0.268089 -0.145882 -2.304694 -0.330088 -0.242833 -1.362340 2.447772 -0.830624 1.844975
M002_ON -0.057756 -4.094026 0.966677 -2.684822 0.605280 1.141079 3.495679 -0.307903 -0.016092 -2.350480 1.336070 1.203317 -0.054504 1.942646 -0.915269 0.060522 3.138806 -0.165204 -1.261963 3.272510 2.951920 -0.434144 -0.502953 -0.918617 0.016534 -0.789943 0.622534 1.838013 0.277790 0.273048 0.082755 0.655171 1.241746 0.398440 0.107845 0.111159 -1.501997 2.276093 1.020818 2.074859 0.904569 -0.863926 -0.100441 -0.499617 1.902355 -0.732332 1.135247 1.022197 0.408014 3.103044 -2.282190 -0.689674 -0.811116 0.547307 0.680138 1.020104 -2.158048 -1.728617 -0.096579 0.062647 1.071870 -2.946844 -2.014262 1.418060 -0.095301 0.963491 0.875395 0.991016 -0.778485 -2.157489 -0.280262 -3.121067 -1.202093 1.218960 2.652771 1.183161 -1.107650 -1.521597 -0.458316 -2.060946 1.344782 2.972682 -0.906236 1.539677 1.905804 1.211115 0.629314 -0.433297 -0.472376 -1.266241 1.460950 -1.836094 1.445633 0.657217 0.437710 2.415823 -0.718672 1.280712 1.529910 0.239706 -1.945514 -0.860014 1.755509 2.850698 1.007670 -2.460244 -0.332943 -1.827699 2.044262 0.270320 -0.737952 0.910630 0.426525 -0.869770 0.097133 -0.581268 -0.492783 1.509010 -1.659532 -0.901890 -0.107138 0.828652 0.426210 -1.596658 -0.117430 -2.511992 -2.186457 -2.549736 2.367758 -0.725097 0.559413 1.602313 -2.070427 2.888682 0.625786 -0.753464 -0.651020 -2.135029 -1.272891 0.041203 -1.056624 2.336678 1.402612 1.417280 0.588907 -1.715285 -0.199219 -0.823657 0.990987 -1.239017 -1.471599 0.154010 0.386527 -1.429062 1.877979 0.875615 0.487263 0.491039 -2.995440 2.333375 -0.446977 -1.848833 2.773286 -0.663796 1.019342 -1.809719 0.561994 0.854076 -0.220733 -1.391093 0.226090 -0.108350 -2.667972 -0.720020 -2.018973 1.087446 0.027215 2.061340 0.826372 -2.207436 1.499963 -0.890246 -1.272688 -0.189542 0.420692 1.614506 0.405692 0.728568 0.214059 2.364934 0.879118 0.934709 1.866856 -0.372126 1.349481 2.289122 -0.668023 -0.772291 0.191004 -1.119734
M030_OFF 0.093194 -1.028323 -0.530383 -0.322026 -0.017186 0.829914 1.493467 0.698228 1.616203 0.593728 -0.116225 -0.982659 -0.686243 0.452514 2.545909 -1.181402 1.494605 -0.664086 -1.871258 1.252330 -0.222141 1.049751 0.609884 0.016597 1.236592 1.262427 0.121414 0.893821 1.126182 -2.495781 -1.006964 3.322443 -2.556566 1.771726 0.637346 2.407278 -2.463448 0.371530 0.340382 1.004388 1.582728 -1.627292 0.671424 1.109590 0.426179 1.097647 -0.092919 2.853100 0.459888 2.366995 1.209745 0.874272 -0.719733 0.225807 0.008905 1.328882 1.722062 1.739277 2.318599 1.580348 0.942305 -1.538602 -0.172278 -0.233908 -0.194914 0.435623 0.339046 1.373156 -0.715312 -0.213911 0.099892 -0.379980 0.038160 1.847018 0.468932 1.458930 2.571576 -0.001513 1.121883 -1.946369 0.743555 1.484009 -0.209769 1.208546 0.615454 2.170433 -0.958051 -0.304498 -0.733693 -1.130192 0.161039 0.011631 0.485802 -1.247011 0.341936 -2.032945 0.287317 -0.510620 -0.799793 -0.875865 -1.541647 0.763093 3.411871 0.727196 0.423059 1.898904 1.262631 0.449934 0.326773 -0.227791 0.377205 0.968953 2.713937 1.714824 -0.468581 0.546087 0.240983 -0.564104 0.582233 -1.104190 0.742006 -0.494805 -2.125837 1.920569 2.781854 -0.786253 -0.351483 -1.407388 1.868540 -1.736830 0.859034 -3.210662 0.405413 1.836405 0.293764 1.025000 0.362749 -1.631282 0.884345 0.817291 0.217597 2.077497 2.295592 -0.042422 -1.133426 -1.155314 -1.132760 -0.265154 1.367346 1.703253 0.341009 -1.467041 -0.172938 -0.815892 0.038748 -1.143565 -0.831794 -2.580342 0.648177 -0.844350 0.118910 -1.854917 -2.306091 0.327028 0.113467 1.372231 0.446651 -0.600841 -2.179637 0.979464 -1.925443 -1.237633 -1.552777 1.501642 0.042539 -0.637862 0.034409 -0.345841 0.875245 -2.189075 -0.060582 1.657273 -0.840246 0.280447 1.642180 1.549139 -2.093499 -0.382048 0.504552 1.552698 0.793008 -1.446912 -1.315213 2.151366 -0.374737 -0.581297 0.036968 -0.324883 0.167316 -2.175689
M030_ON -0.422780 0.116357 -1.097122 3.221969 0.228763 0.738986 -3.036705 1.377524 2.486730 0.057882 -1.761837 -0.718560 0.289400 -2.438832 0.121466 0.966116 -1.383182 -1.604442 0.522681 0.758574 -1.611261 0.533421 1.198595 -1.382556 -1.542187 2.465250 1.156368 -2.814543 -2.016495 1.305055 -1.907060 -1.056324 0.884042 0.585018 -1.657179 0.285176 2.465680 0.424363 -0.289318 -0.238472 -1.262023 0.661923 -0.521139 -1.320725 0.591565 -1.487505 0.649200 -2.442604 0.521633 0.292276 -0.271000 0.749936 2.418505 -0.319828 -0.824701 -0.833697 0.182569 1.743352 -0.498138 -0.547352 0.136638 2.290425 1.332415 -0.588280 -1.188303 -1.860564 1.074874 -1.753425 0.923863 2.671394 -1.850354 0.409499 0.872800 -1.719968 -0.350742 0.781169 0.476899 0.156259 0.941110 1.655352 1.339419 -1.288138 2.683292 1.101990 0.514313 -2.972990 -0.602355 -1.533970 0.609205 0.535129 1.423195 -0.963924 0.736603 -1.419584 -1.820711 1.768242 -0.753767 -0.308013 -0.613378 2.294172 1.737535 0.573133 -0.179778 -1.151659 -1.194095 -0.547007 0.862013 0.680455 -1.859097 -0.979059 -0.200719 0.307439 -2.347662 0.533712 -1.284824 2.623893 -1.014926 1.470892 -1.529604 0.520429 0.364804 -0.631877 -0.689680 -1.080077 -0.549054 -0.896453 0.245879 -0.397227 -0.608172 -0.862403 0.112079 3.634909 -3.058216 -3.916724 -0.105838 -1.922470 0.103801 0.665310 -1.021499 -1.031876 0.515264 0.273392 -0.907827 0.638511 -0.408217 1.456145 -0.349285 -1.553159 -2.037962 0.040002 -1.102116 -0.977469 -1.721697 -0.199617 -1.444963 0.116582 1.761348 0.425168 0.344068 -0.463200 1.252027 1.177691 0.308469 1.108966 -0.181630 -0.861555 1.583995 -1.117357 1.427606 0.188183 2.809423 0.265914 0.448241 -1.562312 -0.797580 1.282294 2.746155 -1.358167 2.228012 0.390484 -0.215857 -0.748850 2.094508 -0.743004 0.230589 -0.383601 0.630733 0.498452 2.118297 0.616257 -1.473781 1.422176 -1.400522 -0.180725 -3.436448 1.151610 0.325971 1.273309 -0.855057 -2.136618
