117 50
M009_ON -0.719363 -1.550769 -2.895502 -1.003189 0.712943 0.124449 -0.293035 2.405729 1.667398 -0.053150 -0.306712 1.643403 -1.461506 0.874303 -1.832906 1.162985 -2.225379 -0.387541 0.578216 -1.822284 -3.078331 -3.487327 -3.927567 2.338933 -1.367666 -2.088085 -1.634590 0.737068 0.242338 0.505938 1.963972 -0.057498 -1.290746 -0.932961 0.864307 1.434612 0.469967 -1.035512 -0.879483 0.120397 0.743102 -0.325730 -0.345991 -0.173326 -1.530550 -0.622109 0.512550 0.842024 -1.385516 -3.195601
M009_OFF -0.502430 -1.890365 -2.430986 0.553619 0.536399 1.172665 -0.495270 1.203133 0.924039 1.009192 -0.516992 0.759643 -0.707496 0.024248 -1.386986 2.057076 -1.755148 1.045429 0.703158 -1.791629 -3.734461 -3.011195 -3.506296 2.589097 -0.777216 -2.447801 -1.227354 0.395740 1.126849 1.383885 1.081902 -0.064327 -2.157974 -0.464857 1.475081 1.111640 1.745603 -2.930084 0.483060 -0.282380 1.101837 -0.110512 -0.864627 -0.563123 -0.273248 -0.346043 0.038667 1.223862 -1.461324 -2.890952
M020_OFF -0.686937 -0.472741 1.934061 -0.671882 -1.899813 0.762289 -0.100965 0.051171 -0.011550 0.026304 0.527977 2.740561 1.019723 0.786909 -0.641981 0.884651 0.129768 -0.967270 -0.342676 -0.510465 -0.431303 0.537834 0.879938 -0.779019 -0.928147 0.179775 1.950600 1.197914 1.209280 0.732259 -2.710729 0.145043 1.779894 -0.288509 2.013595 1.207466 -0.206829 1.608147 -0.196840 2.244804 0.832031 -0.695556 -0.597560 -0.245877 0.839291 1.034785 1.085483 -0.446002 -0.113455 0.297636
M020_ON -0.281635 -0.621753 2.067533 -0.760449 0.543269 -1.203808 0.151412 0.632774 -0.403389 -0.590014 0.405555 0.160719 -0.343161 0.971704 0.728839 0.037768 0.648143 -2.581227 -0.689783 -0.870528 0.357468 -0.562840 0.598464 -0.540611 -1.160947 -1.039084 0.705480 0.913618 1.679544 1.003042 -2.629514 1.255047 2.613547 -0.263330 1.711936 0.774397 0.399393 0.027395 1.157961 2.464844 1.693115 -0.003202 -0.509734 -1.173413 0.218100 -0.562841 -0.392788 -0.898042 0.539121 0.593785
M019_OFF 0.515036 -1.643871 -1.085631 -0.669760 1.328107 -0.070955 -0.312021 -2.265595 -1.840489 -0.141152 -0.298751 -2.918591 -0.448355 0.505952 -0.218952 -2.374067 -0.568732 -0.512700 -1.102691 1.134533 0.182559 0.379034 2.754753 0.297154 -0.557960 2.286051 0.374786 -0.543302 -0.608185 -0.243966 1.829281 -2.138285 -0.457970 -1.029933 -1.338133 0.635310 1.708684 -1.294692 -0.833542 -2.573132 -2.390552 -1.328035 -0.245492 0.691574 0.736350 3.011683 0.824034 0.651439 1.179618 1.323158
M019_ON -0.030668 -0.890869 -1.790248 0.075758 0.654354 -0.344282 -0.240147 -2.700935 -1.095120 0.205668 -0.412597 -2.117657 -0.620306 1.877376 1.159796 -1.687573 0.945581 -0.275716 -0.572863 0.481399 0.306048 0.030834 0.871737 -0.523850 -0.425687 2.883288 -0.019522 -0.674944 -0.652983 0.120026 3.177143 -1.271765 0.084149 -1.288896 -0.106401 0.809082 1.062542 1.138755 -0.283687 -3.933624 -2.775376 -2.266637 -1.511572 -0.229869 -0.221079 2.338461 -0.986726 -0.948289 1.418653 0.502837
M015_OFF -0.447772 -0.749127 -1.681064 0.532150 1.251099 -1.212343 -0.331790 -2.947350 -1.749656 -0.123161 -0.529267 -2.988541 -0.676533 1.043803 0.974440 -1.598508 -0.009304 -0.384293 -0.566813 0.861006 -0.051354 1.170253 0.517554 0.052988 -1.075803 1.933543 -0.351870 -1.096663 -0.653143 0.372099 2.201891 -1.267510 -0.153783 -0.924490 -1.929308 0.919297 1.127097 -0.203845 -0.989371 -4.504560 -3.474268 -1.306446 -1.935866 1.802133 0.073426 2.620308 0.952251 0.108135 0.967824 0.900497
M015_ON -0.102806 -1.023609 -2.323816 0.621127 0.725981 -0.784027 -0.251172 -3.074458 -1.657794 -0.170321 -0.744182 -2.691158 0.373600 1.939217 0.469564 -1.811297 -0.018787 -1.312966 -1.597810 1.143185 0.489084 -1.176526 2.147136 -0.325979 0.966359 2.512489 0.497823 -0.228146 -1.006378 -0.122451 3.632334 -2.347575 -1.385278 -1.871459 0.003321 -0.365374 2.242067 -0.974198 -0.347631 -3.613304 -2.140164 -1.376776 -1.204920 -0.145173 -0.173755 1.756876 0.569660 -0.118763 0.959686 0.747232
M007_OFF 1.232689 3.072134 1.296723 1.022886 -0.548116 1.570663 -0.232115 -0.975385 0.436217 -1.621383 1.397637 1.445683 -0.175098 -1.931387 0.876423 -0.990489 -0.282543 0.592481 0.365752 -0.307629 2.533003 2.824115 0.046064 -1.068794 0.280215 -3.706249 -0.143236 -0.841119 -0.367536 -0.692801 -2.009639 0.111853 -2.048025 1.366177 -0.636612 -2.738394 -1.646153 -0.385973 0.979303 0.828902 0.099224 0.148953 0.878084 2.239295 -1.304327 -0.630674 1.320325 -0.546970 -1.610434 -0.297423
M007_ON -0.952790 3.966498 1.653554 0.367010 0.383955 0.504425 0.929033 0.256079 1.888102 -0.750839 -0.610246 2.076948 0.085064 -0.216691 0.029221 -0.314850 0.164658 0.258524 0.703340 -0.227864 3.232202 1.591396 0.378906 -1.115404 1.843391 -2.539716 -1.462156 -1.252548 -1.644603 -2.097005 0.144837 0.471801 -1.462687 0.099439 1.044957 -2.160797 -0.626595 0.064704 1.119563 1.545955 -0.680791 0.116849 1.012408 2.169717 -0.471704 -2.019691 0.170567 -2.545972 -1.321688 -0.292657
M014_ON -0.994837 -3.010484 1.976551 -1.212753 2.327328 -1.913645 0.634251 -1.830703 3.677632 -0.294006 3.244051 0.036070 0.339262 0.716829 1.432555 -0.916120 3.421256 2.261182 1.098301 1.398827 -1.585675 0.069974 3.211001 1.053222 0.167115 2.308243 0.412132 -1.182720 -0.060477 0.602455 -1.723392 -1.931676 3.187456 1.237943 -0.192049 0.937151 -0.064925 1.030157 -0.937125 1.398948 0.667018 0.982239 -0.101591 -2.579744 0.050693 1.832136 -0.436857 -1.102347 0.888642 -0.167434
M014_OFF -2.051967 -4.047016 1.316521 -1.102250 1.329915 -1.500398 0.105718 -1.413634 1.603141 -0.188771 2.469210 1.028133 1.523487 0.374912 2.372957 -1.555534 2.153962 2.002343 0.822459 1.487910 -1.386201 -1.446803 3.230438 -0.589329 -2.151385 1.121845 -1.225535 -0.125062 -0.118252 -0.679623 -3.032345 0.083384 1.854454 0.719103 -2.102485 0.445702 1.369550 2.422386 0.242025 1.207794 0.410388 0.713737 0.541630 -1.185093 -0.146376 1.096619 -1.764325 -0.439329 2.821019 0.469509
M013_ON -1.028477 -1.331154 0.347434 -0.820784 -1.435348 -0.919068 -0.714475 0.769884 0.314254 -0.545895 -0.330186 1.571524 0.935085 0.725854 -0.910068 0.647243 -1.422604 -0.722315 -0.389505 -1.113876 -4.787638 -1.304233 0.554257 -0.443292 -0.844377 -1.677816 0.818987 -0.321631 1.401513 2.954546 -0.226282 0.578003 2.247293 -1.912443 2.161379 0.714822 0.208362 0.551542 -0.040325 2.802967 1.481674 -2.168817 -0.274243 0.003843 2.111963 -0.782807 -0.134900 -1.314303 0.571072 0.162087
M013_OFF -1.190994 -1.944439 1.712670 -1.219000 -0.441111 -0.358822 -0.621191 0.550302 -0.016776 -1.477554 -1.126123 0.499556 -1.387538 0.171831 -1.202028 0.255178 -1.999970 -1.179596 -0.809615 -0.441761 -2.613949 -1.458955 -0.286449 2.021819 -2.403253 -1.424816 0.988602 1.080300 2.617074 2.187043 -2.250226 -0.695760 3.128149 -0.253562 0.107336 0.855964 0.017073 0.755734 -0.175339 0.965156 2.802755 -1.081772 -0.762900 -0.831958 0.882125 0.065455 -0.945065 0.334090 -1.798844 -0.246754
M018_ON 0.848698 -0.631066 1.420291 -2.665029 0.606361 -0.742352 -0.841760 -0.712457 0.015213 0.035940 -0.385625 -1.051089 0.700502 2.044803 0.473364 -0.872245 1.052732 0.632401 -0.091760 -0.437929 1.058607 0.136528 2.689010 -0.059348 -0.495807 4.099950 0.022060 -0.758230 0.940740 -0.055315 -0.311395 -0.533553 2.892269 -0.243174 -1.599199 0.813004 3.217500 0.488684 -0.075370 0.324029 -2.284225 -2.513037 -1.272927 -0.863059 -0.680175 1.752475 -0.366048 -1.224220 2.094989 1.421734
M018_OFF 0.501327 -1.286470 0.292290 -1.078002 0.941714 -0.073496 -0.178084 -2.743948 -1.704550 -0.890090 0.805588 -0.612573 -0.667405 0.138765 1.024597 -2.107382 1.474724 -1.019483 -0.737611 0.478131 -0.156653 0.120189 2.169370 -0.825448 -0.674296 3.509637 1.486211 0.544095 -0.411737 1.174915 -0.462247 -1.473426 0.873949 1.340493 -0.523952 2.522421 0.751041 0.825009 0.053668 -0.715802 -0.375657 -1.406731 2.036227 -1.849833 0.641210 3.363276 -0.384951 -0.946476 3.203081 -0.682176
M024_OFF 1.710271 -0.883575 -3.493239 -0.845819 -0.039242 -0.595646 -0.863375 -2.536356 1.216551 0.067345 -0.541673 0.405791 0.810829 -1.627129 -2.721197 0.966203 -0.401759 0.634035 4.080449 1.014035 -0.160956 -0.814524 -0.088515 1.408742 -1.523618 0.672856 -1.303617 0.078472 0.659843 -0.587503 0.196327 1.262194 -0.461279 -0.892276 -0.312070 -0.986607 1.011845 -1.254861 -2.692632 -3.657003 0.067026 0.226188 1.693678 -0.054779 1.113797 -2.281902 0.083496 -2.758359 -0.440834 -0.125261
M024_ON 2.493757 -0.573014 -3.464285 -0.982101 -1.626278 -0.769422 0.995801 -1.633852 0.508398 0.466908 0.460777 -0.489268 -1.432991 -0.195745 -4.068551 0.852166 0.673317 0.150707 3.987496 0.476425 -1.709621 -1.067949 0.191897 0.381742 -1.852737 -0.235609 -2.759816 -1.177742 1.617063 -1.131597 0.943435 0.333704 -0.201646 0.766731 -1.201197 -2.284534 0.524907 -0.773509 0.293430 -3.029515 -0.993606 0.280152 0.537059 -1.763988 0.845746 -2.300284 0.622346 -1.293079 0.070003 -0.220128
M017_OFF 2.163870 0.055449 1.513084 -1.187602 0.252982 1.305039 -2.604373 -0.566239 -1.900094 1.007187 -0.515379 -0.790588 -0.219095 0.425094 -0.561681 -2.128608 0.316866 1.239477 1.046243 -0.091141 1.310248 0.816041 1.888808 1.460378 0.375800 1.840625 -1.435352 0.388817 -0.758071 0.266414 1.648026 -1.031632 1.999216 0.108122 -1.676833 3.057183 2.722764 0.210728 0.228059 -1.985204 -2.715773 -2.730644 1.491126 -3.287230 -0.449155 3.032820 -1.531528 -0.276889 2.761705 -0.471076
M017_ON 2.405505 0.564312 0.528147 -3.459405 2.702178 0.081217 0.807606 -1.704842 -0.986487 0.144276 0.160242 -1.357253 -0.537821 0.008012 -0.096657 -0.436928 -0.836569 0.670208 -0.911420 0.157564 0.892386 0.394191 1.545200 0.450934 -0.866682 3.158380 1.841863 -1.806762 -1.019058 0.216256 1.224430 -0.277627 0.427895 0.128754 -1.791800 0.530875 2.006094 -0.119075 0.177110 -0.674990 -2.551760 -3.804713 3.376316 -1.243685 0.670565 2.735453 -2.683111 -0.373889 3.129117 -0.788637
M010_OFF -0.874041 -0.908303 1.712700 0.354688 0.226934 -1.832198 1.462873 0.486060 1.725206 -0.723589 0.363174 -1.176610 0.805241 0.763772 -2.210891 3.797073 -2.534006 -0.566149 -1.197954 -0.594933 -2.064203 -0.047237 -0.912643 1.507985 -0.001690 -2.708942 -1.054124 1.342399 -0.485849 0.563024 -0.023437 1.623387 -0.527277 -1.844389 0.617519 3.164889 0.928754 0.337845 -0.330330 -0.923717 -0.741422 1.628788 2.113217 -0.467712 1.101259 -0.485682 0.652520 3.007054 1.489053 1.410927
M010_ON -0.080324 -0.069730 0.329338 1.151317 -1.604755 -0.527059 1.905694 0.292967 1.964215 -2.490454 -0.220607 0.192072 1.102260 2.745782 -0.381554 4.530072 -2.769503 0.917726 -0.497630 -1.008046 -1.711680 -0.315499 -1.142265 1.829503 -0.646004 -1.644380 1.794615 1.097145 1.214987 1.264348 0.325228 0.917179 -0.695671 -0.135151 0.881595 0.924386 0.090330 -0.327680 -2.031506 -1.279243 -0.400607 0.805940 -0.501476 -2.680724 -0.353081 -0.939074 -1.621371 2.099404 1.426229 1.261406
M021_OFF 2.427776 0.216830 1.020473 -0.147500 0.932656 1.120356 -0.258643 -0.430222 -0.685888 1.546375 -0.073117 -0.886144 0.173171 1.793939 0.705805 -1.288488 2.819795 0.351119 -1.118285 -1.750448 1.011122 1.109103 0.842157 -3.670415 -1.626548 1.931174 -0.393051 1.664427 2.046959 0.631091 -2.603404 0.225062 2.608056 1.448665 2.208494 0.319596 0.507568 1.225708 -1.841770 1.864071 2.028203 0.587423 1.053579 -0.111209 0.513451 0.366248 1.540230 0.057158 1.070770 2.974565
M021_ON -1.062950 -0.762389 2.265061 -2.054790 -2.020559 -1.135219 -0.729179 0.446306 -2.055961 0.066328 1.107951 1.708388 -0.697071 -2.197847 0.706319 2.028389 2.121377 -2.857911 0.414846 1.318216 1.073234 0.127582 1.222709 -0.709676 1.150474 4.042497 1.561968 1.322889 -0.327725 0.689656 -2.696200 2.371791 0.855853 0.302159 0.159682 0.149010 -0.268047 -0.059233 2.279326 1.036962 -0.286246 1.053727 -2.266046 -1.078449 0.236183 1.954965 -0.495040 -2.578937 1.203487 1.272427
M003_OFF -1.256156 1.075992 -0.237642 1.716865 -1.722377 0.387109 -0.192993 0.978424 0.843556 -0.238325 1.895730 1.093203 -3.448692 0.501045 1.174411 0.247906 -0.536276 1.762682 1.618480 -2.190884 3.944979 3.974684 -0.539317 -0.695681 1.043308 -2.216974 -1.784931 -1.203869 -0.916393 -1.478598 1.820062 -1.963050 -2.950599 0.028621 1.870746 -3.366954 -0.476429 -1.547294 2.394096 -0.638695 0.547616 0.194085 1.463835 1.334670 -0.060893 -0.429988 0.254588 -0.407929 -1.218999 -0.711820
M003_ON -1.449828 2.279416 0.613088 1.461802 1.075482 -0.150138 -1.827981 -0.356383 0.827157 -1.155153 0.937798 2.304921 -0.580807 -2.706645 1.861026 1.918348 -1.419846 0.783770 0.295915 0.081077 4.165758 2.391863 -0.200012 -1.621695 -0.477466 -2.741555 -2.415540 -0.589947 -1.835033 -2.719579 0.740873 -1.658320 -2.838216 -0.749505 0.108463 -1.903863 -0.994417 -2.481207 -0.357821 0.977441 0.272696 -0.770078 1.638963 1.119003 -0.170274 -0.390831 0.846070 1.279239 -0.121855 0.021154
M005_OFF 1.129930 2.696654 0.666700 2.421417 -0.604800 4.140842 1.634502 0.399504 -1.222218 0.034340 -1.027184 1.789156 0.050838 -1.053665 0.246796 -1.114035 0.911648 1.673215 0.032591 0.596441 2.873543 1.853105 1.129439 -1.188241 2.439858 -3.923768 0.122300 0.532508 -2.173403 -2.153643 -2.428068 0.361325 -0.105905 -1.554465 0.417539 0.406784 -0.455708 0.145557 -0.640754 -0.208241 0.650117 1.225004 0.557315 2.059250 -0.872538 -2.084865 -1.048414 -2.235446 -2.871678 1.106521
M005_ON 2.069632 2.739901 1.777912 0.688455 0.933610 -0.607632 1.302592 -0.860333 -0.086912 -2.226753 -0.837769 0.659600 2.287430 -1.284625 -0.635379 -0.450911 1.295570 -2.095401 0.064374 0.071429 2.438442 1.231464 0.131703 -1.146993 1.273978 -2.955596 0.606910 -0.627587 -1.080142 -0.721671 -0.227728 0.378289 -1.047420 2.479781 0.629171 -4.524304 -2.875803 -0.532395 2.897273 2.263321 -2.922450 0.279443 -0.284503 1.431117 -1.413862 -1.156926 1.729337 -0.389612 -1.709276 -1.692993
M008_OFF 0.841748 1.778824 4.764764 1.750500 -1.455129 -0.392399 -0.083887 1.248722 -1.152263 -0.592141 0.578495 1.092960 1.177336 0.563173 2.505595 -0.761212 2.479424 -4.303174 3.318167 0.311347 3.638178 1.362505 2.310001 -1.855361 -0.365849 -2.206487 1.356548 0.835932 0.120300 0.983270 -1.547925 2.043262 1.381493 0.800250 1.436114 0.897340 -0.472914 -1.110568 0.133448 2.080990 0.927435 1.057887 0.782082 1.383019 0.090424 0.445393 -0.514439 -0.720217 -2.519716 -0.264855
M008_ON 0.540894 1.098884 0.751942 0.584747 0.969385 2.130269 1.432285 -0.778414 -2.443188 0.321815 1.632704 1.913962 1.472878 0.305726 -1.106493 1.756291 2.437094 -0.460613 -2.915871 -0.010906 4.188537 2.390612 1.290632 -0.749119 0.191675 -1.022834 0.064239 -0.437990 1.392559 -1.735599 -4.535648 -0.226485 -0.722847 -1.282448 1.795241 -0.732501 -2.148910 3.356860 1.240424 4.132536 0.015205 -1.587332 -1.364703 -0.418001 1.191534 -0.539344 1.811284 -0.984521 -0.699231 0.675058
M022_OFF 3.746184 -1.932311 0.565904 -1.353303 -2.224951 -1.565777 -0.630133 0.816509 -2.346743 0.972188 2.912492 -0.925890 -0.438288 -2.007057 -0.679312 1.232141 1.649446 -1.244293 1.786214 -1.725621 0.829260 0.511888 -0.469723 -2.009220 1.176613 1.968384 2.301970 0.639831 -0.021183 -1.993188 -2.282988 0.668759 -0.255131 2.058042 0.758671 2.409218 0.164517 1.749409 -0.846711 0.478346 2.806776 1.425952 -1.980459 0.733560 0.186516 -0.307697 0.227840 -1.498067 0.527830 2.809342
M022_ON 0.196075 1.884340 -0.946947 -0.267077 -0.081507 -0.606620 0.664235 1.077739 -0.888461 1.448578 -1.552363 0.792081 -0.496841 1.357025 1.002010 2.150708 1.389444 -2.091140 -0.935974 1.564277 0.845571 -0.288761 0.948791 -3.161680 -0.274450 3.884560 -2.447649 2.582647 1.115347 2.188937 -2.629194 0.558101 2.525400 1.762871 0.345064 -2.558947 -0.842610 -0.597900 -2.637558 1.585924 -0.545031 0.966706 0.094519 -1.232576 1.437285 0.091293 0.993882 -0.606528 0.639684 0.601426
M012_OFF -0.729595 0.042414 1.226700 0.989325 -1.422430 -0.681488 -0.948281 1.503178 2.132815 -2.791607 -0.697360 0.225548 0.582715 1.162447 -2.342430 2.213579 -2.405306 -2.395420 -1.376869 0.641477 -3.671937 1.942834 1.164822 0.511211 -0.498968 -2.479275 1.600805 -0.941345 2.255455 1.622387 -2.185737 0.381653 2.160411 -1.288067 2.240875 1.073660 -0.443022 0.880154 -0.221295 -0.274705 1.793747 -0.202166 0.245950 -0.511028 -0.494879 0.565385 -1.597135 0.743558 2.608176 3.673282
M012_ON -1.836924 0.455012 3.108670 -0.271001 -1.903626 -4.095858 1.501201 -0.055504 -0.320925 -0.381339 -3.027172 0.449554 0.644622 2.002022 -0.840293 2.585415 -1.548142 -0.319577 -1.693121 -1.248147 -2.955050 -0.189705 1.298077 0.687460 -0.417246 -1.865784 1.930408 0.968311 1.740558 -0.332962 -1.789324 -0.722942 2.620265 -0.988930 1.324073 1.309588 -0.460153 1.758160 1.224298 -1.168712 0.100812 -0.789879 1.007207 -1.661133 2.000987 -2.173251 -0.427648 1.376033 0.135746 1.536631
M016_OFF 1.991987 -0.305319 0.785232 -0.683413 1.212882 1.181701 1.506408 -0.117887 0.462231 2.030706 0.986503 -2.477692 -0.224287 -1.110984 0.699716 -1.435092 -1.376182 -0.169340 -0.608559 4.030936 -1.367201 1.366380 1.240449 -1.921059 -1.017311 0.798785 0.066534 1.640031 -1.464074 0.872266 4.010056 -1.639569 -0.878559 -0.300473 -0.068350 0.344113 1.987285 1.153156 -0.129704 -3.161138 -1.061872 -2.514471 -2.485943 -1.210220 -0.066815 2.443210 -0.898966 -0.827940 1.711271 2.223578
M016_ON 1.828641 -2.291436 -0.262348 -0.346016 1.072294 -0.385090 -1.529789 -1.790818 -1.280973 0.626458 -0.635093 -3.196728 -2.119738 0.523698 0.550053 -2.159740 -3.405173 1.358215 -1.890800 1.074585 0.521749 0.997068 2.383276 0.476373 -1.725491 2.496577 -1.260902 1.653450 -2.512510 -0.985029 2.253846 0.428064 -0.215467 -1.903712 -0.327373 0.134413 -1.032127 0.671617 -1.365101 -0.705754 -2.889369 -0.071103 -2.148085 -2.129416 0.870712 2.073524 -2.494262 -0.783345 0.213535 0.823086
M006_OFF -1.120719 1.638903 3.055405 1.562490 0.887219 -0.065957 2.483052 3.344532 -2.396074 -2.550822 -0.107769 -0.307406 0.785598 -1.925551 -0.276335 -0.863125 1.045130 0.451463 -0.696658 0.560818 4.216448 3.222387 1.292169 -2.651659 -1.159446 -1.259260 1.562656 1.563021 2.195795 -2.314894 -2.946867 1.082670 0.498434 0.498836 1.636291 0.537406 -2.162030 -2.311259 0.749808 3.099997 0.039855 0.841897 0.264202 0.949275 0.349730 -0.237776 2.963141 -5.584236 0.024845 -1.237829
M006_ON 1.523953 2.813913 2.035061 -1.764568 -2.073635 2.424026 0.124053 -2.872168 1.285668 1.391226 0.940066 4.236242 1.590625 0.781816 1.746258 -0.837610 1.379140 -3.832851 -0.158695 -1.821154 3.788794 2.583482 0.626112 -2.128428 -0.044171 -0.939356 2.375365 1.377998 -1.594757 -0.773987 -2.424619 0.869335 1.647826 -1.293534 2.173649 -2.613229 -0.808007 1.764215 1.076759 2.333549 -0.521013 1.615991 0.399825 0.574241 0.701609 -0.492607 -0.378980 1.719321 -3.358057 0.830986
M026_OFF -0.222094 -1.215702 -1.427684 -0.684530 -2.510245 0.094752 -0.479946 1.483191 1.268205 0.538068 1.294173 -3.070627 2.977315 0.215332 -0.510609 -0.865419 -0.617627 0.814418 -0.203293 -1.253834 -0.005028 -0.708379 -2.196046 -1.015138 -0.103844 -0.234813 0.042832 -1.999735 1.118364 0.006750 1.384623 0.358556 -3.330388 -0.006011 -2.331160 -2.145493 -1.128163 -0.901574 -1.331324 -2.131075 -0.132758 1.918469 1.378660 -0.222027 0.258882 0.326654 -1.076463 0.096605 -0.297818 -0.017944
M026_ON -2.070239 1.625523 -1.531315 -0.533503 -0.332697 0.244083 0.781153 1.068169 1.223500 1.988468 1.651970 -3.989456 0.646116 -2.281585 0.140341 1.287041 -0.145810 0.998889 0.465831 0.027238 -0.205335 -1.095514 -2.414197 0.163843 0.789672 0.028220 -2.148391 -2.449078 -0.100593 0.941373 0.770113 -0.064849 -0.459822 -2.382400 -1.372017 -1.894219 0.334388 -0.366415 -1.143670 -3.024859 -0.260167 0.325476 0.662193 -1.308454 1.483850 -0.287582 -0.660511 1.066772 -1.423381 -1.058317
M004_OFF 2.421886 2.045440 0.235499 4.371586 1.191321 3.239102 2.161886 0.503767 1.239490 -1.134073 -1.859280 -0.015761 3.611603 -2.205789 -2.313873 0.108671 1.484598 0.757913 1.467569 -0.563675 2.565704 0.843983 0.545528 -1.331259 0.151840 -2.242526 -0.131239 0.306175 -2.456399 -2.531878 -0.187164 0.940573 -1.482013 1.099419 2.213995 -2.375510 -2.199059 1.085904 1.781088 -0.615616 -1.731732 0.223722 0.012847 5.154887 -1.632753 0.139367 -0.885917 -0.032916 -2.937357 -2.680845
M004_ON 2.522035 2.686520 -1.600095 0.141391 1.541197 1.437773 2.800103 0.510784 -1.975583 0.212329 -0.241505 1.928029 -0.703131 -0.506159 1.505703 -0.707838 1.823511 -0.915288 -0.467629 2.347651 1.359137 1.462390 -0.254139 -0.056202 2.988423 -5.841524 1.710914 -1.657308 -1.389113 -0.943389 -1.423839 -0.538564 -1.112638 -0.919974 -2.265015 -1.755957 -4.132285 -2.462219 -0.863551 -0.356588 -3.766650 0.320386 1.013183 1.416567 -2.892332 -3.411451 -0.518503 -1.542705 -3.731666 -0.186917
T003_22.0 -2.425205 0.259377 -4.116407 -2.960933 -2.325096 -1.130040 1.149442 0.362738 0.134352 -0.980933 -0.877644 -1.346737 0.893025 -1.908676 -0.922045 -1.854833 -2.291530 4.647161 2.652012 0.922715 1.072029 -1.789380 -0.171680 0.809751 0.072103 -0.942106 -2.900418 -0.261618 0.161734 4.209341 1.740723 -2.475774 -3.437368 -1.285111 2.378024 3.186076 -2.054012 -1.015141 1.747494 1.470033 -1.892107 0.505364 1.268459 2.103278 -2.212344 -1.516718 -1.993328 4.948825 -2.120933 0.305534
M027_OFF -0.519154 1.314590 0.115208 -0.553227 -1.207693 0.113531 0.927577 0.641603 1.100789 2.182780 -0.009861 -4.226256 -0.957306 -3.052446 -0.976108 0.452021 -0.614499 -0.421787 -0.423932 -0.906127 0.739748 -2.099725 -2.119607 0.282642 0.713876 -0.414326 0.253718 -1.630161 1.101621 0.283753 1.243806 -0.293312 -1.481111 -0.933435 -1.155814 -0.458658 1.366386 3.576485 -0.479625 -2.086583 -0.573522 2.103396 1.122139 1.838429 0.386414 -0.167740 -2.781965 -1.097930 -0.521544 -1.653422
M027_ON -0.783600 1.817244 -1.497035 1.801795 -2.212800 -0.590708 -2.775318 1.616492 -0.113826 0.505024 -0.783490 -1.338965 2.276985 0.076498 -1.555315 -0.013401 0.165395 1.260796 -1.257229 -1.608844 -0.478108 -0.284675 0.409612 0.142312 1.768199 0.365032 -0.654398 -2.302146 -0.733566 0.057565 0.367137 -1.083616 -1.512447 -0.941200 -2.142645 -2.888244 -1.770727 -1.974302 -1.979586 -1.296291 0.066433 1.670998 1.406933 -3.714691 0.377625 1.085868 0.611884 0.641145 -0.226578 -1.132177
T004_22.0 -2.130459 -3.403595 -0.318507 -2.372992 -3.531341 2.462717 0.668920 0.244504 2.930071 -2.237585 -1.451780 -4.101273 -0.014887 1.595978 -0.527532 0.175439 0.848764 4.056791 1.451000 1.955706 -0.112441 -3.782954 -1.917863 -0.912407 -0.292985 -2.692496 -0.647182 -2.707150 -2.951421 0.033672 -0.090685 1.867333 -2.853897 0.959595 1.775014 1.058440 -2.392595 -1.931173 -0.057253 -0.662104 -1.297786 -4.294563 2.986203 -0.661149 -2.135601 2.331442 1.701060 1.215858 -5.233185 1.019318
T002_22.0 -1.312238 -1.730656 -0.438360 2.981109 3.445246 -1.220372 0.753872 3.232665 2.486864 -1.146183 1.365578 2.357462 -1.578528 -2.507598 -2.780838 -2.298680 -2.031845 4.306477 0.800963 -1.108029 2.267809 -5.288884 -0.253830 -1.124287 0.059839 0.635390 0.246320 -2.988689 0.819166 3.810395 1.621236 -0.598904 -3.432283 0.270590 1.295505 0.966771 -2.577511 -0.590095 1.177093 -3.782875 -2.180666 -1.876156 1.618334 -0.670681 -1.140540 -1.444854 -0.837745 3.021547 -3.697432 4.512405
T003_24.0 -4.498028 2.830143 -4.247413 -3.895637 -0.402374 -0.653072 0.793633 0.874618 -1.717201 -1.638023 -0.758385 -2.636974 2.483794 0.208136 -1.723198 -4.682447 -2.127142 3.650944 2.974768 1.896389 -2.764732 -0.333342 -3.050150 4.828222 2.066113 0.531519 -1.744310 -0.152800 -1.505937 1.239360 0.852366 -0.018550 -2.051745 1.842455 2.884686 -0.886062 -0.106009 -0.209938 0.455739 0.622680 0.948758 -1.032480 0.484802 1.153100 -1.536474 -0.898929 -2.528832 3.793986 -1.103461 0.579713
T005_22.0 1.364090 -2.614758 -3.080165 -0.766565 -0.539763 -0.770357 -1.986099 1.006690 2.304580 -2.704974 1.315106 1.229254 -0.156698 -2.050664 0.642698 2.739278 1.284330 1.981401 -3.831577 -0.641472 -0.063450 -1.670660 -0.481477 -0.023134 -1.169011 -4.224033 -2.694683 -1.419615 -1.642215 -0.531109 2.494251 -1.700947 0.023746 0.768430 0.880523 0.145822 1.292968 -2.677095 0.459331 -3.577266 -1.337041 -1.300586 -0.414827 1.609473 0.222770 -1.212099 -1.659060 0.728365 -2.129744 -3.176045
T002_24.0 -4.461359 -0.743401 1.967494 1.543443 3.348982 3.770686 -1.520048 2.525733 0.780163 -1.771104 2.227518 0.386926 -0.677747 -2.487587 -0.821974 -3.556726 -2.049051 2.813376 1.690428 -0.412541 -3.376410 -4.204473 -4.382171 0.409568 1.757541 0.794297 -0.301525 -2.431203 2.422513 -0.490475 2.528285 -0.570657 -2.843944 2.990883 0.294643 0.241904 -2.663980 -0.498511 -0.324524 -3.147771 -4.477695 -0.912636 1.812061 -1.024951 0.428228 -2.920655 -2.123397 2.081768 -2.301586 3.863284
M023_OFF 2.788250 -0.527447 -2.292859 1.060705 -2.124352 -0.411409 -1.154032 -0.214934 -0.573330 0.542033 2.483155 -2.099767 -1.754730 1.358306 -1.771487 3.657390 -0.637802 0.157538 2.871450 1.951834 -0.793143 -0.280197 1.426114 -1.092547 1.600785 3.776945 -1.156131 5.398324 2.490817 2.297725 -1.923627 2.119240 -0.068710 2.732006 -0.808386 -3.298363 1.006619 1.785266 0.617409 -2.509520 -0.723150 1.504078 2.186266 0.617095 0.647928 -1.959140 1.319104 -2.792454 0.986440 -0.149863
M023_ON 2.374492 0.050682 -1.611987 -2.427367 -0.806786 -2.396632 0.338022 -2.745782 -1.857148 1.898129 -2.307586 1.737622 0.509032 -3.041331 -2.508939 1.432610 1.580460 0.284676 1.420184 -0.193765 1.278242 -1.238985 -2.368229 -2.788687 -0.959076 0.732013 -0.676464 -2.113795 -0.737478 -2.225098 0.109284 1.761954 1.982162 1.943319 1.322734 0.436680 0.680309 -1.211838 -4.051467 -0.646559 1.668370 2.568353 -2.077708 -2.658219 1.706899 -0.454710 -0.153309 -0.511315 1.739312 4.348105
T005_24.0 0.750400 -1.620429 -2.148463 -0.741823 -1.666701 1.861656 -2.166473 0.818941 2.976065 -3.238499 2.436097 -0.234257 0.285258 -1.425788 2.564625 2.031274 0.695870 1.658211 -4.041424 -0.155505 -1.763758 -2.584614 -1.923576 1.026269 0.117974 -2.768365 -3.691552 -1.139335 -2.770376 -1.676499 1.063698 -1.905359 1.295135 1.943070 1.048430 -0.173558 0.704604 -3.808355 0.856026 -3.191243 -3.046151 -0.632540 0.472191 1.416948 2.184263 -2.114505 -1.806358 0.736392 -1.873908 -3.564124
M001_OFF 1.652745 2.913794 1.008644 1.224989 -0.306111 0.050791 0.737424 -2.384351 -0.814583 -3.632818 0.067616 -0.608380 -2.035441 -0.894404 -2.023961 0.165874 2.217061 2.205309 -0.940076 -0.641866 0.933024 0.121955 0.060433 1.050077 1.531363 -2.836779 0.069134 0.014747 -1.160868 0.048927 3.536582 3.445687 -1.436627 0.897901 -0.306741 -1.041314 -0.006669 0.432350 -1.167992 2.331170 -1.678067 3.896975 1.678172 2.326460 -0.451837 -0.267004 0.262648 -0.733756 -2.832099 0.286955
M001_ON 0.610544 2.874279 0.799400 0.280705 -1.118435 2.326802 3.053317 -0.698158 1.415257 -0.278119 -1.925004 0.568512 2.603597 -0.882049 0.486768 -2.193155 -0.205700 -1.428202 0.024661 -0.298092 3.110166 -0.301424 -1.016284 1.375160 0.465356 -1.973653 -2.772639 0.760071 -1.612847 -0.073038 -1.989805 -1.656206 -3.892617 0.570516 -2.137755 -1.314017 -1.931228 -0.204921 0.468903 -3.196419 0.435400 -1.257068 -1.850349 0.386906 -0.319804 -2.528946 1.303588 -1.839152 0.186118 -0.521741
T001_20.0 -2.871074 -2.044098 -1.793895 -0.889387 1.718010 0.143907 0.867422 0.980710 3.236297 -1.659682 -1.165728 0.033330 -2.067913 -0.042012 -2.940813 -2.528977 1.166013 1.737045 0.567078 -0.726474 0.109561 1.058613 0.571968 -2.686380 1.134066 -1.982440 -1.567759 -1.281624 -1.115320 3.787618 -0.756193 0.767019 -4.994892 -0.358155 0.964015 -0.381857 -0.198780 -1.593208 -1.018712 -1.820002 -2.931349 -1.609185 -1.086200 -1.461396 1.370200 -1.207359 -4.079186 3.481575 -2.200308 -3.471801
T001_22.0 -5.801835 0.365164 -1.017997 -2.630770 2.561837 2.177585 -0.826142 -0.874412 1.659224 -2.719692 0.101134 -3.270961 -0.130869 1.852087 -1.748393 -3.055397 0.603276 -0.629782 1.200033 0.361126 -2.502729 1.656550 -2.406441 -2.160174 3.183623 -2.025248 -0.107240 -0.772453 -1.262240 -0.454125 -1.064281 1.964852 -3.178567 2.223191 0.621985 -1.404390 2.063764 -1.030390 -1.599135 -0.834748 -1.592771 -2.439518 -1.620736 -1.831639 2.376204 -2.363591 -3.422009 1.069741 -1.930044 -2.846683
T003_20.0 1.674029 -0.992633 -3.817052 -0.353075 0.315538 -3.739208 1.756456 -0.185347 0.289174 0.693243 -3.813674 0.503290 1.000968 -2.313745 0.604852 0.501539 -1.362866 0.869346 3.982890 -1.812605 1.251103 2.880474 -0.403792 -0.178481 -2.366149 -0.531674 -1.724149 0.531990 -0.276234 4.366293 3.773743 -3.953154 -3.600471 -3.672460 0.060478 2.629192 -2.641783 -0.422275 2.646757 1.399244 0.447939 0.219768 1.304878 0.828447 -4.944427 -0.706968 -1.616125 1.440362 -0.374609 0.401395
M002_OFF -0.961010 3.773547 -0.143451 0.391749 -0.238596 0.424373 0.505828 0.005043 -3.376875 2.397929 -0.237165 1.061637 -1.473018 -1.455385 1.714383 2.788919 -0.245259 2.708463 0.713068 -4.020904 1.084179 -0.382371 3.246352 1.238869 -4.248555 -0.337409 -0.937932 0.304296 -4.082450 -0.151372 3.395867 -0.871528 -4.612790 2.722222 0.760163 -1.034625 -1.211014 -1.843656 -1.761831 -3.606467 -0.026274 0.666678 -0.070617 -0.718465 -1.246484 -1.827742 1.315938 0.180743 -2.101567 -1.167869
M002_ON 2.462595 -3.300357 0.103552 2.113995 0.293650 -0.083126 1.413225 -0.182574 1.655321 -2.656219 1.730650 1.190719 -1.498026 1.026389 -1.630171 0.721636 1.820208 1.280825 1.245565 2.045265 4.502196 1.400643 -6.423252 1.326357 1.858930 -1.041373 -2.627503 2.914932 -1.326887 0.149185 3.356302 -2.567238 -1.045682 -2.902976 -3.108770 -3.386648 1.586757 -1.250122 0.706519 0.529548 -0.359847 -0.010855 1.311157 1.818607 1.091886 -1.126457 -0.714720 1.136708 0.509250 0.156192
T004_24.0 -4.375238 -1.611984 1.721314 -2.627590 -1.226027 3.884258 1.170286 -0.962158 -0.712538 1.145067 -1.298714 -5.064281 0.100627 5.142493 -0.331133 -2.494154 -3.334372 1.529830 3.224957 3.457638 -1.223062 -2.443548 -3.352367 1.823472 1.324875 -3.448922 0.467537 -3.944117 -3.682954 -2.400009 -2.356785 4.437829 -0.615458 3.223646 0.981086 -1.296645 -0.772969 -0.652762 -1.903856 -0.137087 1.726502 -1.768325 1.183346 0.211390 -0.234226 3.966838 2.464371 -2.894864 -1.357009 -0.509218
T002_20.0 2.507410 -2.214252 1.243677 4.705509 2.988056 0.401969 2.613353 2.334001 1.199111 1.857015 -0.269143 4.283998 -3.749397 -1.784064 -0.119794 0.151242 -2.246691 1.245288 3.681652 -2.719555 1.847990 -2.842518 3.196677 0.914621 -0.260462 1.204908 0.252071 -1.192681 1.147245 1.822655 1.621079 -1.695939 -3.393336 -5.176902 -0.732160 -1.343406 -2.776740 -0.672432 -0.371429 -1.260762 -1.534092 1.716663 0.481271 0.111736 -1.485689 0.469117 2.367624 3.209817 -0.124287 1.938409
T004_20.0 -1.607008 -3.242620 -1.772446 -0.586512 -1.874884 1.121074 -0.933173 2.587529 2.143735 -0.103146 -3.149250 -1.093588 -1.887601 -1.299959 0.539345 2.459814 3.229894 3.813037 1.055545 0.401964 1.863974 -1.470308 1.941550 -1.322456 -1.204963 -3.736183 1.598872 2.016569 -0.613323 1.644878 2.418853 -0.301467 -3.376025 -3.580111 -0.008406 -0.886934 -0.957177 -0.215496 -1.444475 -1.464111 -1.173589 -2.262196 3.285835 -0.434883 -5.837927 3.176415 1.971029 1.928173 -1.826217 -0.258977
M030_OFF 1.168266 0.175944 -1.722908 1.311292 -0.998382 -1.457384 0.876385 -0.642233 2.943708 0.825192 -0.371069 -0.103070 -1.889733 -1.057265 1.182065 -0.613246 1.186982 1.568817 0.239124 0.833165 -0.256924 -2.266414 -0.221290 -1.113226 2.642680 0.313446 -2.829599 3.391292 2.113121 -2.687623 -0.529948 1.591014 0.123046 1.188393 -1.204873 0.942266 -2.950450 -1.664558 -0.923962 0.006020 2.325294 -0.655254 0.986654 1.079719 0.422671 4.431997 -1.436528 1.635365 1.518933 2.691082
M030_ON 0.328846 1.881751 -3.780170 0.376959 1.340466 2.136741 -0.033114 3.715538 0.846963 -4.501621 -3.420271 -0.419330 -0.412637 1.187178 1.298749 1.981299 -0.613578 -1.466220 1.721269 1.062907 -2.578068 1.262670 0.315839 -0.822472 -2.342667 2.326047 0.647505 -1.618692 -1.898951 -2.564111 1.016872 -1.273698 -2.274327 0.879876 -1.742087 0.862373 3.610779 1.848198 2.420117 -0.347081 -0.779256 4.083482 -1.201449 -0.817564 2.194332 0.246493 2.339891 -0.214030 -1.203549 1.549706
T005_20.0 2.704753 -2.188982 -2.757335 0.029203 0.654147 -0.640312 -1.545308 2.498858 0.298327 -0.129982 -1.142173 2.391586 -0.971046 -1.672855 1.097427 2.894886 0.438194 0.530610 -2.675126 -1.416602 1.041366 -0.489566 0.628549 2.209631 -1.212671 -4.074636 -1.456168 -0.354809 -1.481306 -0.385160 2.959149 -2.736970 0.206464 -2.302521 0.892323 -1.966580 1.725358 -1.178583 -0.440662 -2.758329 0.219651 0.183772 -1.276680 2.052185 -0.406336 -0.194352 -0.336790 0.448329 1.668491 -3.440691
M028_OFF 1.586588 3.283510 3.214996 -0.370815 -2.072716 -0.313652 -0.164267 1.501416 -1.662860 -0.915811 -0.981507 -0.724376 -0.438877 -1.911096 1.377038 -0.115819 0.364508 1.178179 -0.074092 3.949632 0.305478 -1.789773 -3.389236 -4.063643 1.368456 4.236568 -0.879298 -1.654108 1.935459 0.345836 -2.265937 0.673521 1.274043 -3.525007 -0.246830 -1.997983 0.035270 0.666768 -3.047554 -0.627142 3.016623 4.186824 -1.020688 -1.262226 0.635705 1.905173 2.170236 2.424061 1.835795 -2.361931
M028_ON -0.331191 0.022343 -3.431078 0.401507 -1.571279 -2.330212 -2.812707 1.610524 1.865692 5.394720 1.592870 -3.558300 1.982318 -0.381963 -0.111934 1.513341 1.422498 -1.749750 -1.555180 -4.845394 1.593033 0.509739 0.129298 -0.104229 1.178336 0.139379 2.352352 2.961793 -0.655280 0.786865 -0.952268 0.424673 -1.201316 4.383121 -2.212076 -0.416154 -0.069275 2.545995 1.220120 1.980989 0.872258 1.289607 0.151303 0.121031 2.529685 0.732397 -1.740643 -3.068758 -0.284414 3.145967
M029_ON 3.426551 3.443330 -0.959461 -3.128023 0.770719 0.393276 -2.483416 -1.676417 0.363269 -0.014909 0.365060 -0.754750 -1.219387 2.353792 -0.145260 3.003028 -0.165407 1.671257 -0.578227 0.567851 1.137291 -1.400775 0.105959 -3.106643 3.888173 1.345662 -0.845910 1.838875 0.892856 -2.051311 -0.695556 1.062198 1.035862 -1.599426 -3.038811 1.952998 -3.024477 -0.066460 1.790581 -1.564273 4.250333 1.295978 -2.101971 0.967185 1.378762 0.368641 -0.794569 0.359717 1.418681 -1.261503
M029_OFF 1.871261 0.076102 -1.991381 3.253161 -0.393790 -3.096952 0.092451 2.715037 0.898887 0.787454 -3.627819 0.170483 0.383340 -1.633985 0.870926 -1.843009 1.044848 -1.360712 0.572584 1.019286 -1.936158 0.979041 -3.068369 2.211893 -1.153447 1.871491 1.352145 0.317771 -0.699741 0.162740 -1.502006 0.288009 -2.387291 3.195694 0.501268 -0.481955 5.198110 1.482925 0.077650 1.987229 -3.632289 1.644847 2.119269 -1.304578 1.719786 1.389801 1.852040 -1.179990 -0.299171 3.534868
T005_26.0 2.129654 -1.747191 -1.515342 0.731755 -0.643386 1.811618 -0.776672 1.353650 2.662990 -2.355497 2.331322 -0.977171 1.429083 0.150830 4.080026 1.619355 -0.302846 0.190894 -3.892859 -0.577149 -2.888305 -1.936213 -2.101147 3.238821 0.432563 -1.426747 -4.687029 -3.121629 -5.022854 -2.224659 0.748822 -2.192639 1.032730 1.923810 1.180602 -1.209532 -0.367370 -3.762148 0.941449 -3.794778 -1.404908 -0.828230 1.122883 0.984609 1.978605 -1.411900 -1.061437 -0.038407 -0.629991 -3.159385
T001_18.0 -0.463328 -0.830936 -2.205195 1.214919 2.913394 -0.861424 0.207420 1.679328 2.048065 0.478550 -2.538376 1.113367 -4.434114 -1.973110 -2.144267 0.111200 3.177068 0.347192 2.820713 -3.114898 0.457453 1.571774 1.610235 0.124092 -0.278142 -1.274170 0.807763 0.517069 -1.389674 1.388338 -0.511533 -2.206155 -4.185445 -4.305147 -1.463984 -0.153266 -0.003793 -0.548410 -0.630911 0.487863 -2.153821 -1.072548 -2.188638 0.821255 -1.319965 -1.347957 -3.077868 3.855384 2.711681 -1.538709
T003_18.0 -0.250063 0.646123 -3.104480 1.812608 1.557595 -0.923413 2.309864 -2.715621 -1.721346 2.338156 -3.209925 -0.713738 -2.618023 0.252036 -0.202222 2.274678 -1.061208 -0.144262 4.665650 0.950231 1.025837 2.991548 0.529502 1.182380 -2.333920 -0.299926 -1.210819 3.310984 -1.172219 1.976322 3.518276 -5.164917 -0.791871 -2.922364 0.873070 0.378905 -0.970334 -0.592305 1.120569 2.009043 0.544769 -1.093194 1.194570 2.061745 -3.829551 -1.177648 -0.676309 -1.296981 0.416226 0.532139
D004_CLOSE 2.689165 -1.973865 -0.384488 -3.431347 2.215806 1.426792 -3.648186 1.190029 0.717694 -1.044948 -3.690124 -0.901514 -0.883269 1.853431 2.362883 0.348509 -0.790918 -0.257718 0.894270 0.793269 -0.509036 0.872542 -2.081679 -0.562309 1.561863 0.593794 0.152077 -0.467292 1.339822 -0.888560 -1.593673 -1.917791 -3.313601 0.088852 -0.331781 0.419019 -0.322454 3.483050 3.139944 -2.735910 -0.094641 1.940563 -0.036166 -0.872978 1.100132 -1.798087 2.936163 -0.062385 -0.625767 0.573117
D004_OPEN 1.292805 1.513873 -1.683315 1.866736 -0.430034 -4.810597 -0.730029 -1.046616 2.248811 2.317126 -1.265498 0.700602 -1.457023 -1.681399 1.804395 -0.738904 0.738767 0.949268 -0.724238 0.103736 -0.333043 -1.640453 -1.725968 0.767091 4.049824 0.711437 -0.696306 1.716665 0.098744 -0.851230 -0.775297 2.501510 -1.150815 0.114909 0.785339 -0.553744 -0.296372 -1.187813 -0.710867 0.660522 -1.126379 -1.819453 0.444624 -0.357745 0.826420 2.424455 -1.797156 0.467987 1.474977 1.085771
T002_18.0 1.090887 0.494536 1.346375 5.044799 2.114421 -0.072826 0.023848 -1.525360 -1.004264 1.155795 1.076661 3.087543 -4.281015 -0.397599 -1.718146 0.828968 -1.654603 -0.173828 3.984615 -2.666712 -1.298325 0.531351 0.608315 0.700479 -2.051130 2.129630 0.615263 1.036088 0.102950 -1.653679 1.313667 -1.649862 -1.617870 -3.443023 -2.418421 -1.757549 -0.087716 -2.345094 0.812554 0.044879 -0.417284 -0.394114 0.658829 1.773672 -2.572302 0.065314 1.729603 0.922912 0.014858 0.954353
T004_18.0 -1.358032 -0.686788 -2.302685 2.254641 -0.222270 0.277732 -1.114602 -0.153542 0.478994 2.868194 -1.395233 -2.023626 -4.116661 -1.131706 -1.412638 2.321374 1.431692 0.781804 2.651210 -1.401441 1.543189 -0.968080 0.767207 -0.784006 -2.368144 -2.169159 4.239052 3.001848 -1.863481 -0.333374 1.989126 -3.613480 -0.800210 -2.910868 -1.928765 -3.067225 0.695612 -0.396277 -0.806626 -0.044553 0.550655 -1.384341 1.416084 0.871127 -5.268945 1.219579 1.403733 -0.138750 0.866366 -0.138932
T002_26.0 -3.519060 -0.074813 3.179919 1.411019 3.855627 3.445094 -0.089257 0.928086 -1.637057 -0.869935 2.489712 1.417428 0.704982 0.693053 -0.588753 -3.228211 -1.808101 1.442770 0.815298 0.552760 -5.968587 -1.370262 -3.337928 0.247412 3.478319 1.737221 -1.681477 -0.764415 4.185141 -2.302958 3.694235 1.580519 -3.071259 1.599816 -0.824357 -1.949062 -0.562289 0.448338 -1.044530 -3.104834 -2.482499 -0.310446 1.565209 -1.731940 1.658772 -1.867497 -1.223630 1.802916 -4.144033 1.078864
T005_18.0 1.916218 0.351466 -0.861804 1.982154 0.479749 -1.055554 -1.638085 0.359970 -0.827177 1.378008 0.179849 1.786806 -2.384988 -1.261930 0.328359 3.016404 -0.328251 -0.844105 -0.206059 -2.706389 0.308639 0.329001 -0.998413 2.408064 -1.727510 -0.991611 0.143620 0.929140 -1.379656 -2.504438 1.708320 -3.813815 1.322127 -1.394918 -0.172981 -1.836705 2.084837 -1.577935 1.187307 -0.457771 0.643498 0.589268 -1.180820 2.443985 0.369654 -1.386013 0.181449 -0.025506 3.008843 -0.473865
M025_OFF 0.497110 3.770712 -1.426164 2.531171 -0.631650 -1.930402 -4.582828 -0.564802 1.428046 -0.292686 1.726685 -2.939280 -0.749374 -0.071608 -1.072045 0.242422 -0.281966 0.648752 -0.999334 1.290565 1.402753 -0.736906 -1.316977 0.053329 -1.146260 0.349864 1.179858 -0.687009 -2.798266 -0.935270 0.180423 -1.167453 -0.690762 -2.011852 -0.049525 -1.511043 -0.331349 4.008871 -0.094016 0.856051 1.081578 1.107228 1.567899 -5.199752 0.213536 -1.034702 0.223915 -1.679830 0.633151 -0.707920
M025_ON -0.862921 1.385018 0.385141 1.231589 -1.801230 -2.266341 -1.454654 0.613977 0.787803 4.936042 -0.997384 0.793976 0.479307 -0.773210 -3.646051 -2.419368 0.110490 1.371236 -1.424558 1.259575 0.134761 -0.941211 -2.696161 -0.389342 0.738567 -1.325224 -0.170546 -0.374021 1.792834 1.651874 -0.604470 -2.536340 -0.248741 1.306058 -3.269142 -0.732132 1.711421 0.447853 0.236724 -1.228760 -0.418247 3.918667 -0.141200 2.575904 -0.376856 0.865011 -1.216504 -1.430946 2.338416 -1.613196
T003_26.0 -3.609787 2.781493 -2.488532 -4.160654 0.169157 -0.835651 1.616853 -1.716809 -2.564384 -0.030382 -0.463246 -2.578964 3.306504 1.852299 -0.547165 -3.107667 -2.538771 2.830014 2.588648 2.054646 -3.195743 2.210941 -2.020854 3.817053 1.705830 0.203132 -1.641754 0.303126 1.548569 -0.455407 2.326230 0.748265 -1.868186 0.711449 0.311223 -0.663024 0.838685 1.060093 0.122419 1.344751 1.826885 1.041107 -0.183726 1.004697 -2.399701 0.874175 -1.328163 2.113129 -0.808930 -0.500321
M011_OFF 0.866771 1.512290 1.096003 0.232537 -1.338725 -1.160545 -1.753654 1.096134 0.251373 1.545389 1.851871 -1.194343 0.257880 1.801901 -0.599417 -0.209182 1.245563 -0.288456 -1.314566 1.323920 1.595826 0.677956 0.764417 1.295744 -2.703332 -2.087534 2.331231 2.497151 1.922719 -0.097850 -1.286718 -0.771832 -0.794742 -0.840766 1.465397 0.754746 -1.466964 -1.019928 1.582689 -0.850731 0.593077 0.111483 -0.766233 1.778422 2.493380 0.205998 -0.112631 1.372222 0.905992 1.111583
M011_ON 0.062849 4.240993 1.149517 0.715554 -0.909665 -1.206246 -0.835064 1.128429 0.604185 0.786532 0.869543 1.348783 -0.140856 1.824312 0.487851 0.286248 1.180705 -2.199293 -0.771608 2.399553 0.981067 -0.490544 0.016752 1.388413 -3.896734 -1.171343 1.607277 0.786755 1.023196 -1.299848 -1.164706 0.533116 -1.541096 -1.587545 2.515316 1.622437 -0.304458 -0.023012 -0.258484 0.738348 -1.064971 0.542864 -0.967415 -0.045131 0.368481 -0.467335 0.044309 0.580956 1.918431 1.299835
T005_28.0 2.070781 -2.093737 -0.566507 -0.299156 -0.471969 1.633572 -0.422707 1.590178 1.466600 -1.449384 1.529838 -0.290973 2.221313 0.966487 3.986986 0.712422 -2.029001 0.516413 -4.456664 1.131724 -1.012022 -2.473915 -2.733521 3.723331 0.006019 -3.018795 -4.653300 -5.348563 -4.354126 -1.275719 0.808878 -1.048575 1.511789 2.670750 1.865990 -0.284574 -1.445478 -2.255620 0.554744 -4.649071 -1.519118 0.616332 0.836063 0.980518 1.899343 -0.324410 -0.610203 -1.632993 0.672406 -2.188530
T002_28.0 -2.653464 1.796596 2.594200 2.098028 3.576493 1.849171 0.223636 -2.328798 -1.274863 -0.599406 3.529251 0.416968 1.497508 1.129299 -1.362487 -2.618570 -4.500624 -0.953159 2.208061 -0.860385 -4.348066 -1.479245 -2.918914 -0.177274 3.024880 0.626602 -0.191464 -1.204701 4.233295 -3.941057 2.998599 1.694719 -1.251468 0.426489 -3.096912 -0.495983 0.699827 -0.132309 -0.558419 -1.563314 -0.056195 -0.060070 0.092494 -0.905117 1.045134 -1.197655 0.451374 -0.356369 -3.645787 0.926716
M031_OFF 0.940082 0.201580 2.486165 -0.088039 -0.823724 -2.105827 -2.243334 0.576943 -0.123182 1.641744 0.551571 1.366168 0.689318 0.817018 -0.598519 -0.139758 3.281705 0.364773 -2.071613 0.214936 -2.112627 0.795245 -0.631295 -0.785723 -0.143471 3.903599 -1.772105 1.190245 -1.777512 -0.387896 -3.150955 0.516997 -1.904378 -0.207556 -0.424640 0.361438 -1.275593 -2.226648 0.591929 0.536081 1.923132 0.737084 1.500763 0.766449 -2.159724 -0.553107 -0.376208 -0.802614 0.097149 1.355595
M031_ON 1.227489 0.080200 2.099384 -0.279737 0.481350 -1.667565 -1.825105 0.548723 -0.226728 1.652241 0.401863 0.561288 0.289535 0.723450 -0.430258 0.031212 3.590738 -0.306990 -2.477799 0.245697 -1.892707 1.665871 -2.017436 -0.850505 -0.922731 4.249033 -1.511301 0.179995 -1.742681 -0.109066 -2.471171 0.586551 -1.939075 -0.749206 -0.109016 -0.666802 0.135643 -0.590222 0.377438 1.328445 1.739161 1.157263 1.412687 0.345764 -1.534661 -1.085062 -1.131338 -0.893333 -1.141883 1.766530
T005_30.0 2.103951 -0.934511 0.276373 -0.917447 0.749087 0.785666 -0.458646 0.243852 -0.768418 -0.566354 1.574296 1.393748 3.349628 2.088008 2.926220 0.381360 -3.228395 0.413704 -3.528886 2.177980 -1.187065 -1.584357 -2.452182 3.425200 0.385044 -2.971624 -3.710217 -4.820382 -1.937180 -2.644012 2.381605 0.592635 1.024286 2.651315 1.176141 -0.454810 0.022559 -0.737561 0.394485 -4.072106 0.751041 1.861341 0.248612 0.696956 1.914245 1.084438 1.145246 -2.601940 -0.300051 -2.095121
T001_16.0 -0.787145 1.069393 -1.004079 2.022857 1.197384 -0.790577 -0.144500 -1.910301 -0.786668 1.696859 -0.298632 0.554960 -3.749428 0.347490 -2.346624 0.606461 0.142581 -0.426607 2.678862 -0.662516 0.351396 1.174619 0.444784 0.211175 -1.612165 -0.223083 0.439131 2.000545 -0.631048 -0.525648 0.732900 -2.333333 -0.806313 -2.073973 -0.656162 -0.663439 1.035745 -0.977126 0.248996 1.488201 0.417475 -1.622701 -0.404450 1.763666 -1.337116 -0.547390 -0.559978 -0.150512 0.905485 0.089961
T003_28.0 -2.809249 2.061851 -2.153126 -1.801131 0.597054 0.750649 1.711744 -3.337292 -1.219819 -0.060861 1.433751 -2.083920 3.289829 1.641044 -0.664943 -2.088336 -3.047456 1.246541 1.495306 0.333362 -1.260548 0.071882 -0.947268 2.017130 2.175851 -1.144315 -1.060779 -0.670343 -0.315499 -0.594131 1.526660 1.337557 0.127405 0.544601 -1.127540 0.577746 1.167709 -0.093568 -0.093367 0.732268 0.464292 1.660368 -0.687294 0.163533 -2.743007 1.067078 -0.172744 0.300666 0.252348 -0.936699
T005_32.0 0.636197 2.566064 -0.169164 1.457065 0.577846 0.496099 -0.325122 -2.136657 -1.602212 0.248509 3.488568 0.543536 3.501107 1.478490 1.107745 0.365875 -3.897089 -0.585348 -2.215640 -0.158066 -1.589636 -1.949398 -1.389512 2.342219 1.528434 -1.976024 -1.440899 -2.195471 -0.252366 -3.507751 2.166641 0.470812 2.544131 1.479024 -1.981351 -0.298770 1.416345 -0.868372 0.463096 -1.515028 1.325067 2.046699 -0.631346 0.938855 0.745446 0.653870 1.358928 -2.413907 -0.715032 -0.835796
T001_24.0 -3.386342 1.424619 0.140704 -0.430927 2.449571 2.447276 0.691795 -2.101918 -0.939925 -0.196147 0.132148 -1.127488 1.936218 1.615462 -2.110986 -1.846143 -0.819016 -1.239176 1.498615 -0.351309 -0.963698 0.670661 -1.196962 -0.783785 2.600105 -1.861053 1.364003 -0.415413 0.327190 -1.063843 0.410588 2.683928 -0.922791 -0.331954 -1.807984 -0.811538 1.220377 0.365024 -1.426768 0.359988 -0.654922 1.083725 -1.711891 -1.133901 -0.597388 0.460313 0.234936 -0.871882 -0.448673 -1.922043
T004_26.0 -2.678129 0.821638 0.170901 0.256956 1.230354 2.265550 1.354849 -3.146834 -1.283184 0.728164 0.684305 -1.161673 2.225063 2.039147 -2.185652 -1.722197 -3.407893 -0.717786 2.383619 0.256029 -0.715214 -1.257897 -0.947835 -0.355607 2.367023 -3.180098 1.242154 -1.087012 0.824683 -0.943912 0.329614 3.537905 0.926068 -0.025997 -2.119551 0.038280 0.985273 0.209761 -1.381478 0.619374 1.170777 0.945572 -1.228046 -0.503634 -2.032406 2.762895 1.680086 -2.285823 -0.391321 -0.875630
T002_30.0 -1.407682 1.617643 0.084729 1.412859 1.559049 1.528797 0.972439 -2.557174 -1.325454 0.348944 2.175131 -0.061492 2.812052 0.735516 -1.283711 -1.105906 -3.499131 -1.013747 0.842775 -0.966658 -1.471990 -1.677653 -1.560589 0.523262 2.134975 -1.600602 0.451675 -0.765360 1.655218 -1.649539 1.471648 1.810911 1.476580 -0.143660 -2.591442 0.215292 0.817255 -0.265582 -0.860381 -0.257060 0.452870 1.996867 -1.033355 0.021087 -1.250189 1.042024 1.003156 -1.143241 -0.397234 -0.175116
T003_30.0 -1.669086 1.079407 -1.863878 -1.257109 0.639066 0.591083 0.991293 -1.655686 -0.778165 -0.289816 1.353790 -1.309114 2.619152 0.942002 -0.220159 -1.693136 -1.568274 0.596416 0.984190 0.681650 -1.267858 -0.272124 -1.147013 1.623969 1.701801 -0.283780 -0.995226 -1.257843 -0.007160 -0.753738 0.804832 0.761931 0.335819 0.676404 -0.440453 0.500686 0.262377 -0.560147 -0.114116 -0.083281 0.186533 1.268896 0.211411 0.421543 -1.644080 0.688357 -0.388006 0.239793 0.083828 -0.721523
D001_CLOSE 0.362165 1.897522 0.590523 -0.584850 -0.765585 -1.075410 -1.282391 0.155565 0.584150 0.615047 0.915845 -0.418792 -0.377480 1.295495 0.292188 -1.193065 0.647505 -0.149197 -0.603004 1.818764 0.498529 -1.115542 -0.153930 1.045975 -2.643331 -0.661494 0.724994 1.239424 1.133698 0.142423 -0.903974 -0.045216 -0.752463 -0.690925 1.219776 1.069898 0.282982 -0.381795 0.329547 -0.098873 -0.307818 -0.222057 -1.161620 0.094262 1.466339 -0.264036 0.184421 0.452726 1.375879 0.836988
D001_OPEN 0.386407 1.610711 0.173483 -0.898002 -0.700674 -1.177325 -1.199419 0.261300 0.604442 0.797005 1.208696 -0.570047 -0.405539 1.049227 -0.017048 -0.880740 1.023878 -0.109887 -1.029085 1.318742 0.671152 -0.726798 0.108192 1.154201 -2.608282 -0.423745 1.053182 1.449455 1.269188 0.095706 -0.757829 -0.178625 -0.698619 -0.807826 1.040945 0.780781 -0.119100 -0.350813 0.612676 -0.325235 -0.049442 -0.002518 -1.119828 0.322541 1.720449 -0.112610 0.114524 0.144843 1.219302 0.576043
T005_34.0 -0.450228 1.462960 -0.462597 1.098016 0.947837 1.113231 0.769564 -2.128790 -0.881887 0.376120 1.830742 -0.090192 2.810708 0.450693 -0.546270 -0.800218 -2.509954 -0.749464 -0.172278 -0.771300 -0.954830 -1.123534 -1.084143 1.072732 1.657424 -1.540767 -0.311170 -0.834377 0.389861 -1.193527 1.193222 0.812035 1.514156 0.126544 -1.980021 0.143295 0.528822 -0.290005 -0.353732 0.086882 0.175086 1.984299 -0.844644 0.278301 -1.437415 1.123492 0.632925 -1.295066 0.085720 -0.604356
D002_CLOSE 1.046074 -0.391279 1.068188 -0.702415 0.559671 0.634640 0.102512 -0.536040 0.980064 0.006167 0.482996 -1.322736 -1.478981 -0.058855 1.162910 -1.245847 -0.251280 0.783728 -0.820525 0.990589 -0.114557 1.273131 1.038497 0.160345 -0.490527 1.500612 -0.605335 1.772414 -1.068864 -0.178882 0.594296 -0.202695 -0.553569 -0.169080 -0.152920 0.374534 0.356576 0.179181 0.347294 -0.189284 -0.886875 -0.395670 -0.927048 -1.970315 -0.229045 0.892796 -0.975281 -0.887681 0.840030 0.555704
D002_OPEN 1.069196 0.230065 0.770340 -0.926583 0.504275 0.677551 0.407482 -0.047827 1.149181 0.370974 0.654282 -1.341941 -1.309654 -0.346914 1.419155 -0.846430 -0.302299 0.752011 -0.825455 1.352006 -0.297014 1.064376 0.677810 -0.029677 -0.496185 1.309112 -0.554427 1.608871 -0.849199 0.047460 1.043247 -0.270759 -0.504985 0.094550 -0.046346 0.507078 0.402015 0.195201 0.519909 -0.295053 -0.775237 -0.614142 -1.106204 -1.646909 -0.125450 1.012989 -1.053029 -1.086218 0.866941 0.729968
T005_16.0 -0.124467 0.942662 -0.166207 1.411699 0.534699 -0.141227 -0.332553 -1.061171 -0.888622 0.908860 0.556186 0.307446 -1.843672 -0.083921 -0.675114 0.945513 -0.124129 0.029828 1.120398 -0.497190 0.705626 0.564628 -0.419134 0.511531 -0.993451 0.061820 -0.056294 0.974860 -0.766973 -1.197828 0.971076 -1.900888 0.129212 -0.539009 0.065302 -0.760656 0.598094 -1.118396 0.726043 0.546662 0.146591 -0.401412 0.341112 1.292556 -0.744751 -0.468329 0.023876 -0.566246 0.515296 0.312748
T003_32.0 -1.069345 0.875836 -1.283603 -0.774666 0.323967 0.695264 0.867049 -1.405863 -0.693030 0.133990 0.871281 -0.954026 2.136286 0.726337 -0.491227 -1.200067 -1.576339 0.288851 0.737584 0.248189 -0.698296 -0.627459 -0.630751 1.018000 1.320008 -0.780066 -0.465276 -0.952849 -0.037181 -0.639008 0.592882 0.833996 0.582314 0.449504 -0.658053 0.295043 0.329634 -0.101749 -0.168599 -0.035322 0.270329 1.120490 -0.361589 -0.153091 -1.130527 0.770510 0.059358 -0.604896 0.343416 -0.780083
T002_16.0 -0.159929 0.482251 -0.260942 1.289489 0.542558 -0.175331 0.187445 -0.997020 -0.578592 0.769178 0.154049 0.178326 -1.527845 -0.121063 -0.802529 0.338130 -0.264297 -0.011544 1.454547 -0.395952 -0.026028 0.253576 0.290485 0.252721 -0.942504 0.548651 0.097457 0.890633 -0.138875 -0.298398 0.553537 -1.389378 -0.184290 -0.953129 -0.209533 -0.334396 0.106367 -0.651764 0.391248 0.577679 0.104916 -0.567664 0.261345 0.974070 -1.031854 -0.161649 -0.056849 -0.028604 0.165361 0.568808
T003_16.0 -0.298904 0.621945 -0.238735 1.071085 0.453459 -0.209078 0.104313 -0.940949 -0.662802 0.774601 0.137515 0.049557 -1.295241 0.021215 -0.653021 0.336244 -0.280159 -0.005713 1.237802 -0.202724 0.097416 0.406770 0.062708 0.177881 -0.841678 0.396614 0.027591 0.853356 -0.202670 -0.305850 0.533611 -1.289266 -0.222862 -0.686548 0.068358 -0.215496 0.011742 -0.532967 0.544241 0.592335 0.068860 -0.553419 0.334765 0.825801 -0.782977 -0.161501 -0.066014 -0.217467 -0.011770 0.578791
T001_26.0 -0.917850 0.732036 -0.176160 0.341773 0.804812 0.820364 0.517019 -1.071167 -0.755452 0.207182 0.664603 -0.329801 1.305689 0.736181 -0.929075 -0.662439 -0.956399 -0.721950 0.379842 -0.188102 -0.635421 -0.441883 -0.605216 -0.120872 1.032180 -0.863708 0.416003 -0.023486 0.543493 -0.444023 0.362998 1.154769 0.208597 -0.317486 -0.901590 0.175275 0.231770 0.031757 -0.359526 0.298796 -0.033900 0.568399 -0.795895 0.093485 -0.665530 0.947734 0.138644 -0.370477 -0.401946 -0.766446
T003_34.0 -0.819735 0.448505 -0.671709 -0.470151 0.491028 0.457830 0.669037 -0.770820 -0.407387 -0.029739 0.729385 -0.511819 1.303399 0.719244 -0.032761 -0.929707 -0.880768 0.128764 0.133883 0.131766 -0.750505 -0.319345 -0.471171 0.715294 0.938294 -0.205018 -0.494561 -0.483247 0.140967 -0.371068 0.447418 0.469703 0.365545 0.354514 -0.167703 0.244833 -0.053828 0.010758 0.047905 0.048973 0.240481 0.400681 -0.258391 0.206626 -0.666572 0.589758 -0.277141 0.057943 -0.121453 -0.469322
T002_32.0 -0.451279 0.815354 -0.297948 0.657547 0.682920 0.784373 0.351308 -1.107738 -0.532421 0.381143 0.842360 -0.329898 1.301346 0.486885 -0.848638 -0.628587 -1.142002 -0.488200 0.167389 -0.284093 -0.514308 -0.690925 -0.746711 0.170583 0.953982 -0.954860 0.003402 -0.618877 0.596590 -0.661596 0.624981 0.630379 0.412851 -0.487334 -1.281668 0.211213 0.443487 -0.028341 -0.197505 -0.225012 -0.179359 0.888759 -0.545255 0.117055 -0.689603 0.778764 0.170312 -0.612501 0.079569 -0.709026
T004_28.0 -0.318465 0.602272 -0.216804 0.339744 0.423289 0.560918 0.400874 -0.668178 -0.423494 0.235836 0.378817 -0.318859 0.959214 0.545434 -0.648840 -0.487062 -0.751701 -0.428186 0.192693 -0.091151 -0.470469 -0.525454 -0.609221 0.108919 0.667047 -0.628644 0.201565 -0.222056 0.323667 -0.347527 0.332286 0.517374 0.162010 -0.309475 -0.755672 0.321074 0.270919 0.045018 -0.167055 -0.096942 -0.107132 0.550368 -0.513026 0.068524 -0.590140 0.860410 0.148266 -0.436500 0.070679 -0.551063
T005_36.0 -0.128341 0.755502 -0.367682 0.647332 0.491493 0.458001 0.220629 -0.963921 -0.502595 0.372308 0.719909 -0.373984 1.187528 0.328042 -0.632774 -0.540284 -1.134414 -0.432179 0.126435 -0.290405 -0.450637 -0.714113 -0.707851 0.309985 0.729869 -0.784447 0.053897 -0.544471 0.327974 -0.577156 0.621306 0.296771 0.329595 -0.358579 -1.020911 0.203631 0.292120 -0.064003 -0.098789 -0.279367 -0.130326 0.869356 -0.351764 0.162727 -0.594525 0.853240 0.152603 -0.632191 0.058156 -0.535376
T003_36.0 -0.225811 0.093713 -0.254363 -0.226893 0.123338 0.136683 0.208029 -0.103748 -0.098415 -0.055752 0.156393 -0.223418 0.389279 0.255213 0.153368 -0.193489 -0.245214 0.127902 0.052135 0.086440 -0.114647 -0.064295 -0.228555 0.300179 0.224990 -0.110425 -0.213244 -0.275933 -0.061632 -0.168840 0.107824 0.141607 0.114599 0.230382 0.023003 0.157404 -0.073323 -0.033952 -0.021467 -0.025694 0.071333 0.139592 0.046328 0.067731 -0.234601 0.315367 0.014024 -0.046324 0.061332 -0.078752
T002_34.0 0.126968 0.551992 -0.156406 0.330758 0.141431 0.077515 -0.028218 -0.546101 -0.203748 0.221934 0.110323 -0.167086 0.221740 0.174655 -0.315198 -0.313180 -0.376489 -0.076258 0.063239 -0.058296 -0.149095 -0.314099 -0.408889 0.044649 0.172121 -0.309858 0.053611 0.025689 0.013887 -0.166891 0.236218 -0.086515 -0.243211 -0.327310 -0.458779 0.073762 0.324563 -0.028066 0.023640 -0.139335 -0.001051 0.293488 -0.265487 0.149271 -0.316162 0.432802 0.150031 -0.265512 -0.021125 -0.146855
T005_38.0 0.078058 0.517733 -0.168177 0.372412 0.105434 0.032808 -0.009566 -0.316260 -0.177014 0.264148 0.066295 -0.148009 0.193875 0.200625 -0.322670 -0.118373 -0.383241 -0.090696 0.072099 0.011240 -0.088280 -0.211191 -0.379787 0.064557 0.105307 -0.290002 0.041483 0.043177 0.008004 -0.168863 0.237971 -0.164182 -0.230644 -0.347214 -0.391923 0.027330 0.206933 -0.072215 0.075280 -0.095138 -0.006580 0.259395 -0.253846 0.096073 -0.222149 0.346636 0.134592 -0.266993 0.044567 -0.197160
T003_42.0 -0.075816 0.250390 -0.124421 0.070952 0.015206 -0.123221 -0.059914 -0.186169 -0.065578 0.014159 -0.023777 -0.044340 0.088643 0.081912 -0.117850 -0.056752 -0.279609 -0.046420 0.016916 -0.068296 -0.117257 -0.100715 -0.155025 0.041574 0.032998 -0.204623 -0.022143 0.035789 0.004507 0.050267 0.152602 -0.122924 -0.081029 -0.174304 -0.183755 -0.082615 0.128768 0.045094 -0.031256 -0.036318 0.109646 0.078749 -0.163052 0.073574 -0.029991 0.109261 0.055505 -0.154948 -0.039580 -0.025076
T003_38.0 -0.121494 0.200577 -0.137873 -0.005961 0.062383 -0.078924 0.026987 -0.217543 -0.048181 0.010528 0.090413 -0.085756 0.175670 0.124880 -0.032523 -0.091883 -0.235389 0.031703 0.045380 0.016393 -0.089889 -0.052832 -0.116156 0.134627 0.105287 -0.143165 -0.080374 -0.054224 0.011097 -0.024114 0.168024 -0.025185 -0.027092 -0.080307 -0.152847 -0.036062 0.121289 0.004346 -0.025971 -0.017134 0.096552 0.108235 -0.067530 0.082124 -0.080103 0.092651 0.055444 -0.091321 0.012503 -0.069291
T001_28.0 0.075911 0.193942 -0.026543 0.146471 0.040327 -0.000990 -0.014434 -0.151373 -0.062597 0.042285 -0.017272 -0.069686 0.033582 0.051633 -0.158261 -0.062684 -0.084958 -0.004696 0.009491 0.021796 0.061975 -0.045187 -0.114207 0.013158 0.020447 -0.129240 0.007900 0.015530 -0.022991 -0.044591 0.078264 -0.070507 -0.143465 -0.124532 -0.129629 -0.008710 0.100878 -0.024987 0.030641 -0.056111 -0.058370 0.081875 -0.057364 0.042555 -0.090426 0.100996 0.060385 -0.110696 0.000764 -0.023630
T003_40.0 -0.013097 0.107783 -0.066158 -0.006746 0.030236 -0.075438 -0.018197 -0.089688 -0.033719 -0.017787 0.015262 -0.056766 0.005726 0.060164 -0.025264 0.006594 -0.062567 -0.016445 0.021410 -0.035937 -0.034018 -0.063122 -0.077113 -0.005941 0.017218 -0.076886 -0.017723 0.048971 -0.022450 0.016726 0.037418 -0.114260 -0.087209 -0.072848 -0.103719 -0.036983 0.088036 -0.001395 -0.009976 -0.032093 0.011834 0.062027 -0.058043 0.023548 -0.019144 0.121431 0.023260 -0.100621 0.026052 -0.046632
