241 50
M009_ON -0.133482 -1.050271 -1.432317 1.473068 1.319748 2.519218 2.470481 -1.245361 1.143664 -0.060608 -1.528967 1.319996 2.418654 -0.049141 -3.331848 -0.585254 -0.096747 0.372573 5.660804 -3.033106 1.244131 -4.443826 1.845393 -0.196481 2.248364 -1.289102 -1.111079 -2.290221 2.138825 0.563976 -2.221942 0.043737 -0.446433 1.251054 -1.126801 1.218979 -0.226317 0.317646 1.266673 -1.520906 -3.630317 1.946066 -1.529626 -1.159828 1.321814 4.188462 0.585022 -1.560515 -0.594578 0.317841
M009_OFF 0.104941 -0.669737 0.029002 0.044441 0.463656 1.650462 1.113952 -2.677472 2.655778 0.431073 -2.141542 1.025917 3.069799 0.075189 -3.222314 -1.627310 -0.131836 -0.803026 4.645072 -5.461694 1.698605 -3.012675 2.546356 -0.997390 2.375079 -0.081248 0.531690 -1.877271 2.866399 -0.123373 -0.191662 -1.666225 -0.010443 1.051548 -0.391066 -0.176134 -0.996524 -0.638899 0.479724 -0.637423 -3.872481 2.445607 -2.123347 1.827320 1.145233 3.340948 1.041334 -0.499337 -0.620448 -0.028965
M020_OFF 1.271386 0.736732 -0.312940 -0.173252 0.405931 -0.460734 0.524513 2.926558 1.163779 -0.012922 1.545782 3.530169 0.467556 -0.096452 2.844656 -0.612997 1.766121 0.164390 -1.082955 0.104531 -2.281728 -0.069656 2.564755 0.632169 -0.730142 1.457682 -2.030912 -2.242208 0.140231 -0.178532 1.409001 -0.015947 -0.114155 -1.064057 0.692727 -0.059138 2.832267 -1.437675 0.528396 -2.385766 -0.869145 -1.446886 0.650047 -0.311682 -1.033623 1.323851 -0.095390 0.372073 -0.141158 -2.333941
M020_ON -0.159342 -1.056924 1.178859 -0.779497 0.061585 -3.493372 1.389874 1.912637 1.059992 -1.165923 -0.783248 0.581956 0.569168 -0.039647 2.706243 -0.323978 0.772298 0.097141 -1.205481 0.203949 -0.727493 -1.934851 0.222647 0.371769 -1.046591 0.285523 -1.581489 -1.689103 0.192493 0.813885 2.009311 0.528942 0.676716 0.026977 0.714498 1.044447 2.582452 -3.243690 -0.598924 -0.504375 -1.446499 -2.381246 2.032470 0.827756 -1.058119 0.193860 -1.469235 -1.788583 -0.782215 -1.622151
M019_OFF 0.582792 -1.468504 -1.549549 -1.889420 0.708495 -0.353191 -2.309054 0.290146 -2.025246 0.023658 -0.563745 -3.564475 -1.859922 -1.866061 -0.837584 0.477419 -0.313943 -1.868136 0.968318 2.349137 -1.752559 1.964219 -1.845718 1.700401 -0.586298 0.696656 1.183077 5.733197 -0.949560 -1.314518 -1.298452 -2.910547 0.852142 -1.668515 0.609249 0.170585 -3.130610 -0.338060 -0.826470 -0.769170 -0.434947 -1.386409 -0.338028 -0.520606 1.050665 0.775673 -0.301227 3.124608 -3.387042 -1.667306
M019_ON -0.403775 -0.424694 -1.925869 0.363452 -0.603248 1.647834 -2.113853 0.634325 -4.502093 1.706979 -1.474840 -3.276592 -0.686459 -0.967402 0.760918 0.485593 0.752263 -2.025439 1.771080 2.545851 -0.827658 2.442208 -2.428545 1.657925 0.399552 0.048923 -1.087195 6.307570 0.470034 0.273653 -1.423100 -0.843314 0.464871 0.076873 3.067637 -0.783502 -2.309090 0.824544 0.901542 1.466743 -1.278235 -1.583464 0.945431 1.665079 1.737383 0.226201 -0.423258 -0.383285 -2.866249 0.182700
M015_OFF -0.200580 -1.022068 -0.503029 0.742661 0.097223 0.615269 -3.072701 0.329762 -2.678599 1.980158 -0.738011 -3.852601 -1.937289 -2.637992 -1.320240 1.976882 0.812671 -2.486761 0.817020 2.456905 -0.851511 0.556937 -3.070966 2.145746 -0.159435 -0.582990 0.534423 6.517817 0.223247 -0.293955 -1.347221 -0.892497 0.347215 0.126176 2.112443 0.796778 -2.030241 1.870929 0.315026 -0.385490 -2.739208 -0.986533 -0.220607 0.336863 3.031269 0.579203 -0.274489 3.340762 -3.381336 0.866146
M015_ON 0.212872 -0.798886 -2.322121 -2.093411 -0.434927 1.216675 -2.309520 1.096651 -3.572636 1.182493 -0.128572 -2.724900 -0.803846 -0.324843 -0.657801 -0.917104 0.533415 -4.230146 1.758306 3.024201 0.462626 1.956384 -1.878158 2.371065 1.040323 1.498422 0.354954 6.130521 0.331330 -0.880136 -1.694519 -2.596557 0.421380 -0.643958 1.193094 -2.392960 -4.040117 -0.895762 -0.940204 1.416632 -0.635524 -0.012631 -1.746084 0.985104 0.078183 -0.073592 0.106272 0.137433 -3.273740 -0.369245
M007_OFF 2.451770 2.505786 3.857726 1.743776 -0.324794 0.416527 -0.285003 -0.385539 2.094554 -3.491510 3.250352 2.969285 -1.027502 2.208436 -0.921754 0.925736 -2.766172 0.531604 -3.069765 0.092579 1.981630 3.927022 -1.073376 0.480672 -0.372047 -0.491588 0.441299 -0.935548 -0.308577 2.223439 -0.848352 0.330951 -0.981708 0.196295 -1.547391 1.202861 2.370872 -0.552560 -1.100997 2.534848 2.858979 1.747435 -1.875953 -1.824693 -2.781074 0.051322 1.271371 0.475831 1.625828 3.262084
M007_ON -0.966044 4.364851 3.823331 0.171325 0.611136 0.121500 -0.102642 1.302943 0.626585 -2.493716 1.664615 3.280288 -2.937822 1.324410 -0.285840 2.775738 -1.999794 2.778446 -3.602348 -0.490816 2.602911 -0.208362 -1.405438 0.823255 -1.020166 -0.285925 0.873965 1.133344 -3.313415 0.331390 0.619958 1.262446 0.252530 0.289989 -1.454509 1.545341 1.645980 1.158725 -1.362464 1.837106 3.185050 2.091700 -0.094921 1.345975 -2.124136 -1.203436 1.515922 -1.288370 0.888957 3.285086
M014_ON -3.810474 -2.298684 -3.806464 -1.188007 0.036578 -1.990880 0.232037 3.305009 0.892183 -0.187112 -0.486848 -1.438666 1.141734 1.314880 1.543632 -1.184057 -0.745344 1.055653 -3.463428 -0.780498 -3.429571 1.194147 0.329350 1.486008 -0.870860 1.930943 -2.752594 2.826045 0.201658 2.279102 3.569285 1.026033 -3.277010 -2.868867 0.572552 -0.634218 -0.017070 1.838416 -0.605659 -3.508239 1.692127 -2.046990 1.837306 -2.496501 1.789462 0.717332 -1.255504 -2.063884 0.893590 -0.447789
M014_OFF -3.178072 -4.937488 -1.195960 -0.933749 3.196057 -0.656139 -0.087009 0.783566 1.727616 -0.873746 0.162204 -1.265988 1.266511 -0.692508 2.267226 -2.226710 -0.408112 0.169621 -2.543399 1.132785 -4.157103 1.826542 0.566071 0.784007 -2.803655 -0.638291 -1.242135 2.642925 2.567425 1.126763 3.493773 0.837609 -3.559312 -1.288276 -0.287177 -2.337971 0.974464 2.684166 -1.336507 -2.284498 2.462792 -1.015885 1.114406 0.219763 1.046841 -0.104854 -3.848473 -2.323826 1.040239 -1.212421
M013_ON 0.872730 1.039387 -2.788978 -2.505294 0.190854 -1.735521 1.555061 2.811633 1.711223 0.062982 -1.069652 2.861913 1.193118 -0.478725 0.949353 -1.390332 0.030323 2.469688 1.336415 -1.179909 -4.371308 -4.411618 1.211044 -1.590451 0.263832 -1.383475 -0.917084 -1.090579 0.995981 -2.227065 0.539359 -0.998337 1.591436 -1.530245 0.777749 -0.551034 1.976858 -2.018397 1.450197 -0.454136 -3.905792 0.305037 0.984452 1.921326 0.901535 2.483569 -0.223178 -1.450891 0.138320 -1.667466
M013_OFF 1.269078 0.052065 -0.023677 -1.563330 0.592790 -3.465383 0.947532 0.338713 1.006929 -1.981485 0.019851 -0.054682 3.475080 0.616131 4.082208 -0.059422 1.099669 1.369405 1.955414 -0.634439 -2.799933 -3.560140 1.091630 0.003289 0.517990 -1.753163 0.257826 -2.007448 1.674430 0.038407 1.298861 -1.671036 0.884255 1.117681 1.327572 0.941160 0.717833 -2.822358 2.001887 -2.738946 -2.367958 0.405028 1.200722 0.196289 -0.796860 2.227531 -0.204266 -1.754367 0.854368 -3.418050
M018_ON 0.477133 -0.938497 -0.922876 -0.457257 1.497552 -0.564745 -1.858911 0.340800 -2.341650 0.588696 -1.896326 -2.501806 -0.223412 0.154710 1.217981 0.011548 2.558138 -0.293645 -1.005330 0.853023 -3.373195 4.264333 -0.984384 1.511490 0.129455 2.404619 -0.619097 3.724812 1.018372 -0.093226 0.858686 -0.537007 1.147825 -2.605191 1.390374 0.613481 -0.059396 -0.585559 -1.537444 -1.478334 1.589220 -1.757895 0.794574 0.989923 2.567317 -0.308302 -2.426783 0.386264 -1.121400 -4.766741
M018_OFF 0.315085 -1.472233 -2.830111 -1.012706 -1.858503 1.759063 0.796603 0.751041 -2.769367 -0.065545 -1.377350 -2.359227 -0.209201 -2.012298 1.722219 1.022646 0.061315 -2.022919 -3.393080 1.337930 -3.826247 1.732107 -0.025936 0.390306 -0.945931 1.491203 -1.310257 4.077833 -1.394538 0.229890 1.784057 -2.545382 -2.238038 0.149799 -1.324508 0.278019 -1.116735 -0.200049 0.746044 -0.714545 0.174167 -3.547029 1.951962 1.193883 0.010856 -0.865705 -1.726402 -0.176422 -2.314868 -2.554992
M024_OFF 1.247567 -1.945239 -3.401876 -2.434924 0.846524 0.199841 -1.465405 -4.344628 0.047774 0.769495 0.970263 1.827996 1.187350 -1.574510 -0.141917 1.404108 -2.054508 -1.221151 1.840193 -1.633277 0.699638 -1.433890 0.952253 1.716115 2.452030 -0.002903 0.193919 -1.056570 0.822046 -0.104451 -1.883225 2.027472 -2.552328 -2.441198 2.052801 -1.677477 -2.410770 1.719988 1.226408 0.764682 0.794717 3.281044 1.644504 -1.175338 3.452251 -4.035992 0.162581 0.492916 -0.810440 0.113013
M024_ON 2.510654 -0.883653 -2.607713 -3.039780 1.606280 0.862158 -2.131916 -3.775303 -1.835888 -0.091130 0.466640 -0.244854 -1.608062 -0.103467 -1.823776 0.660771 0.531131 0.397432 1.190851 -0.967387 -1.867620 -2.886569 2.665874 1.178721 2.165991 -0.522576 0.540905 -1.059762 0.592718 -1.120553 -0.072576 -0.049364 -2.367487 0.744828 0.801412 -0.409029 -2.503020 2.214173 -0.141582 -0.307915 0.601008 3.414689 0.149519 -0.518781 3.701537 -5.681656 0.977997 -1.007115 -1.018708 1.494794
M017_OFF 0.069085 0.731252 -2.534023 -1.050885 -0.432860 2.995687 -1.104616 -0.931340 -6.376722 -0.641067 -2.725418 -2.973655 -0.846901 -1.994120 -0.298647 1.276682 0.991008 0.308138 0.123130 0.292756 -1.294826 2.919387 -0.151591 3.655495 -0.930304 1.419551 -0.861452 3.897967 0.824899 0.297551 0.040102 -0.951344 -0.545989 -2.110023 -3.989557 0.969947 -0.279597 1.544379 0.406002 0.913257 1.858968 -1.542356 2.631267 0.202113 0.893905 1.436760 -1.065981 1.659741 0.379222 -5.666684
M017_ON 1.623807 0.390038 -0.511492 0.806969 0.163295 2.577998 2.492661 -1.184714 -2.330170 0.201917 -3.362516 -3.361812 -1.570172 -0.107471 0.793008 2.169073 -2.187175 0.551329 -1.134017 0.644310 -3.136195 3.620536 -2.750224 1.354071 -0.734940 1.086629 2.922581 2.603281 -0.149169 1.214558 -0.434256 -2.675362 0.093331 -2.348065 0.256545 0.102921 -3.842935 0.385932 -0.802350 -1.097378 1.207362 -3.754795 1.223869 2.172156 2.828921 -0.816852 -1.435495 -0.596295 -2.725083 -4.495783
M010_OFF 0.881375 -2.787798 0.233337 2.782294 0.096602 0.782259 3.799098 1.971852 1.134377 0.429710 -1.445833 -2.356862 0.805262 0.490074 0.526436 -2.524319 -1.237357 -0.611038 2.497906 -0.184520 1.165471 -5.601167 2.805192 0.076035 -0.085044 2.166090 3.705907 -1.105855 0.149175 -0.321001 2.706438 1.640611 1.451919 -1.574761 -0.134093 1.403804 -1.573488 -1.384165 0.992438 1.050057 -3.173099 1.457136 0.904598 -1.939440 1.000249 0.549150 0.731279 2.316232 2.695940 0.065269
M010_ON 0.117647 0.517092 -1.799643 -1.051393 -0.603983 0.409462 2.750234 0.782022 0.510528 -0.899858 -1.828270 0.430584 1.439884 2.665943 0.134163 -2.620903 0.939257 0.278189 3.868311 1.643921 2.009366 -3.335743 1.828694 -0.747965 0.647971 3.981909 4.375348 -2.605599 1.671389 -0.201615 1.375847 0.708151 -0.155097 -1.968079 0.398281 -0.074366 -0.402545 2.123867 -0.990579 0.813144 -3.936952 -0.718084 -0.966790 -0.841688 -1.150318 -0.465039 -1.589459 1.257040 2.654671 -1.065689
M021_OFF 3.384212 -1.438704 -0.854385 -0.047390 0.276544 -1.934314 -2.267115 0.965307 0.288860 0.597612 -0.839895 0.541182 0.203407 -0.589158 1.295031 -1.683089 2.755218 -0.337692 -2.694049 -2.139138 -0.786515 0.766940 -0.061908 -1.933158 -0.000470 1.869608 -0.956152 0.796576 0.281552 2.278548 0.786978 -0.445997 1.701969 2.190523 1.900761 -0.539330 2.884193 -0.748251 -1.229129 -1.462060 5.141808 -4.439109 5.465417 -1.285751 -1.709836 -3.433015 0.450968 2.085490 -0.755360 -0.698093
M021_ON -0.839188 -2.645186 1.933004 -1.951859 -0.677803 -1.256171 1.152731 1.897672 -0.298460 1.870682 1.769873 0.485991 -0.700790 -2.280561 2.975480 4.541765 1.271384 -1.001504 -2.073332 3.729600 -2.809186 1.798918 1.801938 0.779351 0.248640 3.859893 -3.288119 -1.745201 -3.297248 -1.199378 -0.386326 2.727852 -1.234132 -0.729826 -0.561814 0.340636 0.665958 -2.379213 -0.756000 -0.872444 0.053136 -1.099281 -1.002714 0.407771 -1.154075 -1.546786 -2.935803 -1.716986 -0.102295 -2.011017
M003_OFF -0.794594 -0.530092 2.920164 1.184485 -2.376403 1.987633 1.263307 1.774216 0.202722 1.325030 1.033343 3.670478 -5.403316 3.177746 -2.088542 1.031678 -2.473493 2.229193 1.733719 -1.553718 3.563793 2.108665 -1.843617 1.922532 -0.949934 -1.221777 1.792222 0.660695 1.279692 1.772706 -1.054808 -1.713148 -1.148445 1.210385 0.704349 0.811412 1.384604 1.152960 0.304644 3.345671 4.259146 1.295339 -1.774114 -0.745512 -2.131991 -0.036222 1.796067 -0.907651 2.105402 2.657554
M003_ON -2.282509 0.810098 1.374555 2.220077 -0.155289 0.451163 -2.944334 -0.183897 0.767348 -3.346430 0.784052 3.613072 -2.518985 3.508030 -1.550961 3.259443 -3.003333 0.574551 0.348476 -0.943519 4.567042 1.346832 0.239136 -0.147719 -3.220231 -1.151798 0.834276 1.434677 -1.209453 -1.156592 -3.029020 -1.474622 -1.593171 0.385775 -1.331740 3.151541 1.377577 -0.711289 -3.013313 3.556840 1.500250 1.107688 0.225589 -1.612494 -2.080259 -1.481143 -0.834341 0.539677 2.922170 1.562753
M005_OFF -0.352593 2.267172 3.813910 3.214764 2.004181 0.450660 1.519729 -1.243326 -0.671180 -1.422045 3.538374 5.200363 0.444018 -0.205686 -0.257293 -1.676924 -1.421538 0.703747 -3.399997 2.086838 3.508077 0.394510 0.795916 -0.441986 2.038823 0.138688 0.432540 0.987648 -3.880079 1.538894 0.148445 1.536732 2.284544 -1.382189 -0.873304 3.083218 2.226624 1.165551 -0.213442 0.778592 5.534113 2.451589 -0.635867 0.899848 -3.069888 -0.935851 1.755342 -0.080402 0.206604 2.072517
M005_ON 1.128471 3.687642 3.585220 -2.122479 -1.224661 -2.042254 -1.835493 -0.208512 1.735613 -3.725730 -0.257134 1.747574 -2.211360 2.864311 -2.017801 1.897897 -0.942417 2.028427 -4.844256 1.600209 2.110220 4.790898 -2.545631 1.129167 -1.865981 -0.085545 -0.924761 -3.068771 -1.735269 1.764939 1.754945 1.456865 0.346448 2.880259 -0.134851 -0.727609 0.046460 0.320211 0.587469 2.057025 -1.436535 0.167636 -1.723087 -1.063591 -1.624654 -1.277054 1.432737 0.739520 -0.089301 5.241109
M008_OFF -0.689228 0.012167 6.227234 -0.283783 -1.469952 -1.692160 -2.206521 -0.724437 -2.279425 0.993449 2.427686 5.303700 -0.504921 0.696929 2.436896 -0.629035 0.552084 -0.064710 -1.294975 -0.311581 -0.296905 1.885534 1.409350 2.051429 -1.306606 -0.354015 0.029124 -1.855939 -5.045763 2.581605 4.113530 1.563737 2.709298 -1.178434 -2.274110 1.321233 3.800240 -3.363651 -1.493649 1.607218 0.842364 -3.938857 2.242418 0.562277 -0.192094 -1.265958 -0.580638 -0.188994 -1.089125 4.011422
M008_ON -0.435925 3.291761 1.802879 2.472875 1.919026 -1.748639 2.018273 1.809481 2.220691 -2.250684 3.519417 0.239060 -3.265460 3.108431 0.810202 -0.267319 1.618755 -1.007707 -4.723256 1.509055 2.185626 1.296872 0.758463 0.211113 -1.872996 2.358113 -5.513648 -2.739938 0.219322 -0.003346 -0.910379 -1.524754 0.300178 0.380086 2.578580 2.488814 3.547196 0.893761 2.891204 0.258212 1.742017 -0.508954 0.403664 0.611648 -4.647132 -4.186006 0.226331 1.123002 -0.313701 -1.572375
M022_OFF 4.449604 -5.046474 2.148678 -2.827925 -3.331648 -2.281860 -2.831764 2.266726 -0.235564 1.659726 2.704694 -1.588438 0.198093 -3.046630 0.944533 1.429945 0.947304 -0.541948 -1.138797 -2.328234 0.215341 0.924190 0.029937 -1.365336 2.365106 3.114152 -1.203998 -3.874985 -1.992241 -1.267491 0.086672 0.981821 -1.000843 0.550104 2.393746 2.453979 1.456561 2.842570 1.098602 -0.622325 3.494596 -2.806273 1.268096 0.425475 -2.123530 -2.542781 -3.623855 -1.183127 0.006309 0.355220
M022_ON -1.694859 0.826935 -2.353672 -0.009471 2.685057 -0.176632 2.132205 -0.970379 0.766431 2.743365 -0.329036 2.161284 0.537430 -0.676862 2.024045 3.407776 1.864878 -0.294922 -2.075082 2.391865 -2.065235 0.832090 2.139588 -2.336328 -0.114942 1.957325 -3.121829 -0.419062 0.122960 1.122002 -1.892296 1.954654 2.741602 2.564694 0.203042 -3.141699 0.793150 -4.400954 -3.099532 -1.368881 1.329626 -2.280304 2.258533 -2.035262 0.678303 -5.778008 1.878611 2.121187 0.439675 0.135060
M012_OFF 3.127908 0.803043 -3.454851 -1.786078 -1.768175 -2.512040 2.204366 3.080363 0.590838 -1.560760 -0.912199 0.376806 2.453649 -1.186059 2.767431 -1.445781 0.042517 0.278159 0.467085 3.020514 -1.468205 -3.664525 -0.003842 -0.550005 -0.003955 -0.388884 1.644376 -1.856686 2.171264 0.591993 2.596295 1.563373 -0.308841 -1.497096 0.946587 1.776151 2.772746 -3.119762 0.701452 2.828401 -2.963567 1.201462 1.862400 1.856006 -0.111397 1.211017 -1.916543 2.143743 5.174409 -1.108911
M012_ON 2.015309 0.233793 -0.119492 -0.333838 -1.892348 -1.599219 1.405249 2.611019 -1.422685 0.362006 -1.952426 2.594365 0.363737 2.965405 4.606096 -1.948116 -1.183666 0.954653 -1.190659 1.725285 -3.516730 -3.593254 1.340650 1.536037 0.090585 0.041055 3.908910 -1.627988 3.523419 -3.303663 1.710972 2.065180 3.912370 -0.944027 2.608205 -1.520988 0.847532 -1.354298 1.952364 -1.672104 -3.839652 0.341154 0.906836 -1.622872 -1.648961 -0.514681 -1.191210 -0.689134 2.024353 -2.162391
M016_OFF -0.100066 0.306262 0.636781 -0.762377 -0.618454 0.121524 -1.198027 -2.508180 -2.343066 -0.221720 1.545902 -4.705119 -2.360364 -1.717953 0.690220 0.041373 0.563894 -1.348353 2.996954 3.469584 -3.909798 1.565003 -0.475192 0.023369 2.478480 4.425300 1.156177 5.999804 0.037461 2.948890 -1.383404 -2.786438 -0.248034 -1.466231 1.668025 -2.514963 0.195816 1.967649 0.440899 1.338072 -1.349740 -3.342272 1.405855 -1.650063 -0.270262 1.539700 2.096996 -0.729519 0.567011 -1.822237
M016_ON 1.534497 -1.943214 -1.851312 -2.016453 -0.073835 -0.576479 -0.617112 0.065792 -1.943755 2.801898 -1.168605 -4.759683 -1.747155 -1.147166 2.328274 -2.597538 -3.218592 1.798523 -0.489073 1.945351 -0.625704 2.575431 0.342450 -0.363151 -1.922331 -1.003553 -2.604302 5.612237 -1.797228 3.051332 -3.336508 -2.091889 1.149883 -0.567975 -1.107419 1.730995 -2.022001 1.600907 -0.405703 2.641569 -2.295873 -0.624480 -1.732249 -1.586567 3.174795 -0.472538 -0.195360 1.584583 -0.819920 -2.530263
M006_OFF -1.031177 -0.203457 5.225459 -0.043955 2.187916 -2.864439 -2.208643 4.033108 -1.253369 -4.023884 -0.011609 3.437468 -2.188923 -1.798757 0.289222 0.553135 -0.052193 1.976485 -5.135622 2.699610 4.470964 2.586114 1.088518 -0.473983 0.433644 -0.483223 -0.319138 -4.001821 0.815921 0.535851 1.590546 1.226362 -1.893285 -2.569221 -0.660090 1.343653 4.268215 -2.783084 1.931650 0.886016 2.024629 -4.457780 -1.226679 -0.462790 -1.317199 -3.196373 6.189344 0.062541 -1.388919 0.064983
M006_ON 1.552494 2.828623 0.777603 1.244235 -0.641408 -2.153951 1.631357 -1.510019 2.770354 -0.498727 4.221497 3.972198 -2.668979 2.671161 1.595628 -0.928792 1.399410 -1.520430 -1.958757 0.550438 0.227939 2.828968 0.588380 3.870170 -5.353758 2.758688 -1.951987 -2.819373 -5.567557 1.815231 1.135291 0.976816 2.928200 2.703476 1.360186 -0.858607 1.064223 -0.319810 -1.865825 2.097759 3.884665 2.990438 3.733442 -0.017558 -4.585196 1.580349 -3.232890 -0.172036 -2.631901 1.568308
M026_OFF 0.215374 0.677069 -0.340217 0.774967 -1.557746 1.776132 0.456493 0.867779 -1.804617 0.220659 0.830171 -4.716932 2.002532 -1.687178 -2.109871 -0.216040 -1.642676 0.868870 1.578379 -1.914662 1.564831 -0.726079 0.842635 -1.314587 -1.431123 -3.695311 2.504808 -2.797891 1.513378 -2.838719 -3.070597 -0.966963 -0.869085 -1.424201 -0.638954 -3.076311 -3.343633 1.349370 -0.866499 0.649528 2.743731 0.555560 1.648994 -0.436422 -0.886221 -2.604051 0.013164 0.128438 0.372553 3.387050
M026_ON -3.941113 1.570670 1.624810 0.104881 -1.142877 0.128763 0.845936 -0.792050 0.135794 3.242826 0.527767 -3.826394 0.162127 -1.299907 -1.520713 0.709785 0.704850 -0.186902 2.036098 -1.370864 0.909464 -0.050703 -1.465746 0.633056 -0.467664 -2.003106 1.457011 -2.842501 0.274660 -1.355130 -1.140057 -1.038910 1.015225 -3.337662 0.649601 -1.633105 -2.734150 1.269893 -1.043063 -0.824302 -0.254474 2.479959 -0.668814 -3.063423 2.493081 -2.599681 -0.252575 1.663874 1.711173 2.743414
M004_OFF 1.951589 3.246373 4.514226 1.835201 4.474144 -0.408758 -0.563455 -0.603856 -0.111296 -2.090579 0.708912 2.519737 2.703303 1.492470 -4.230072 -0.821381 -2.215827 2.342893 -2.994031 3.724703 3.654491 0.542117 -1.740674 4.545318 -2.389503 2.245661 -2.717428 -2.033488 -5.422042 -0.443699 1.707609 -0.204306 2.304793 4.556180 -0.427340 -0.092064 -0.569432 3.078847 3.560354 1.196898 1.848475 -2.035916 -1.535335 1.810288 -1.500336 -0.930628 2.018345 3.212611 1.783321 4.616950
M004_ON -1.574786 3.785228 3.038896 -0.790248 0.844586 -0.732498 1.003337 -3.190856 -0.192719 -1.901106 2.494547 2.584971 -4.633346 1.414234 -1.182755 -0.108822 -0.974323 -1.490985 -4.087083 2.576480 3.587873 5.170185 0.334831 -3.448661 4.033627 -3.432390 1.126221 -2.175890 -1.828572 2.811788 1.318465 2.816039 0.679686 -2.641760 0.681349 3.518527 -1.099341 0.138668 -1.113901 1.135583 0.272217 3.558739 3.053432 0.014908 -3.686979 0.922099 1.827807 -0.847743 -3.379727 5.269217
M027_OFF -0.656322 2.738400 1.660350 -1.597320 -0.015767 -0.196931 0.497351 -0.430988 0.541613 4.425706 1.155591 -2.288941 -0.609664 -5.479388 -1.030493 0.568236 2.542255 2.415205 -0.369326 1.030605 1.365521 -0.378406 -1.604157 -0.513375 0.516295 -1.426910 2.541658 -1.291195 1.707569 -1.409617 -2.045404 -2.672385 1.133002 -1.184749 -0.876690 -3.370008 0.863108 5.256426 -1.712846 -0.264804 -0.068740 -0.228477 1.341563 1.655141 1.784572 -1.643670 -1.644525 2.321610 2.470269 1.861883
M027_ON -0.876225 0.725640 -0.432166 2.238893 -3.173318 -0.641026 -0.826392 0.015598 -2.796704 0.180834 0.087448 -2.782127 3.385752 1.166030 -0.954105 1.697691 -1.352775 -2.775443 -1.084875 -0.738649 1.307700 0.924726 3.143850 -3.249023 -0.450118 -1.530739 0.357318 -2.933224 -2.201956 -2.252333 -3.016713 -1.117716 -0.982491 -1.627251 1.648001 -4.683769 -3.904037 -1.199275 -0.501599 -1.144510 2.082862 1.600712 1.031554 -2.037859 1.030927 0.255854 0.670204 -1.446608 4.185914 1.585526
M023_OFF 1.797244 -2.106538 -1.412614 -2.284823 -0.868575 -3.717066 -1.548339 0.839932 1.782825 3.800789 3.352850 0.520207 -0.442717 1.349693 -1.106342 6.623592 0.140645 -0.353564 1.741530 1.324142 -1.049260 -0.601926 6.244204 -1.192963 2.193901 3.713538 0.951269 1.370627 2.777379 2.581401 0.231885 5.659035 0.042043 2.626456 -2.342823 -1.940423 -3.099661 1.352099 0.113903 -0.805073 2.709028 1.933154 4.387073 3.649557 3.025523 -7.599617 1.018617 2.207993 -0.028083 -2.470590
M023_ON 2.751481 -4.306694 -3.817022 -4.106919 0.154324 1.067994 0.598584 -5.492890 -3.227334 0.654101 -1.509017 -0.246476 1.149915 -5.557339 2.004013 0.084021 -0.425057 1.490148 -4.147542 -0.974111 0.435728 -2.510197 -1.292703 -0.815755 3.498451 3.732152 -1.328436 -2.499412 -2.537967 -4.307080 -1.784206 -0.032245 -0.439039 1.183204 5.384523 0.017668 1.961132 -0.778502 -2.218772 1.264986 2.020993 -0.224896 -1.193565 -7.431724 0.548275 -3.635897 -2.040370 -2.160731 -0.319415 0.722369
M001_OFF 1.832319 1.653189 1.513658 3.373162 -0.976421 0.954585 -0.643155 0.452991 0.366725 -1.951334 3.557861 0.063936 -0.909074 -1.714854 -4.343247 0.901713 2.582186 6.916957 -3.832592 -0.069474 3.093974 2.519098 1.697124 -3.002409 -0.487568 1.252586 1.080064 1.491842 -1.082490 1.652512 1.183352 4.036267 2.604528 0.295041 2.359871 0.384264 2.776327 1.167061 -0.797517 3.605523 -1.171806 3.867272 -4.309285 0.720226 1.529750 -0.420049 0.056442 1.436324 -0.387055 5.906702
M001_ON 0.642823 3.749525 4.446585 -1.764582 -2.473775 1.168388 3.067156 -3.454248 1.386138 -5.107608 0.032994 1.572584 1.783687 0.911693 3.259407 0.454830 -1.457856 -4.340771 -0.374767 -0.322639 3.288175 0.311615 -2.646472 3.074421 -1.643739 -2.208356 1.572557 0.219741 -2.913239 2.472692 -1.795311 1.271033 -1.250438 -0.244911 -4.157650 -0.712330 -2.053505 2.309596 0.375480 -1.845678 4.499901 1.073180 -2.508120 -0.572545 -3.995677 -3.556305 4.146630 0.396368 -0.834820 1.574996
M002_OFF -3.265012 3.289729 1.285134 0.816306 1.249901 0.751441 0.861558 -1.156019 -5.030343 1.978414 -3.283432 1.773208 -0.150052 -0.545051 1.379854 -0.888905 -4.100269 0.654086 3.364712 -4.244100 1.640122 4.007956 1.934278 1.507068 -3.160341 -1.296687 4.459095 0.707154 -2.375417 2.030305 0.663485 3.860330 -6.438115 5.986696 6.715770 4.146007 -0.643921 0.325983 -2.720929 1.759764 -0.351617 3.289793 -4.996532 -4.428014 -5.871546 -3.216269 1.189299 3.582270 -0.087729 0.255100
M002_ON 0.947924 -7.006374 -1.120810 0.023654 -2.980868 1.266924 2.001079 -4.743448 1.817273 -4.153508 5.323674 3.133402 -3.620165 3.379856 -3.767640 4.714589 5.146131 2.735172 0.197605 3.530353 6.371996 -0.707231 -1.539327 -0.711166 -1.422934 -1.114402 0.946423 3.302777 2.037678 0.780636 -0.761076 -3.422555 5.084918 -1.868310 -3.447291 -0.660542 -2.304979 1.466013 3.446926 2.857085 2.496965 -2.197850 -0.727719 1.964116 3.024127 -1.752295 1.424042 -1.795085 2.974202 4.413201
M030_OFF 0.504141 -2.252105 -0.642214 -0.831038 0.181448 0.414433 3.337866 -2.011487 3.447223 -0.233556 -0.095965 -0.514835 -0.525383 0.222224 5.545974 -0.389148 2.883126 1.176860 -2.111758 -0.114969 -1.204021 1.457959 2.332071 -0.579308 4.074002 -0.290105 0.578074 2.926753 1.924236 -5.982197 -3.350530 4.031463 -4.636894 3.330417 -0.562935 0.972224 -3.092756 1.051899 -1.555185 0.750826 3.367992 -4.649055 1.724254 -0.621938 2.168300 0.071493 -1.026994 4.062158 2.072313 5.019656
M030_ON 0.813798 -0.711390 -2.611262 4.466434 1.521887 2.531978 -6.329063 3.975184 2.282217 -1.636845 -3.589750 0.090842 -0.014096 -5.167090 -0.161488 1.769850 -3.596218 -5.431906 2.855163 0.799523 -4.824028 0.926679 -2.636397 -4.189974 -2.908491 3.348296 1.917160 -4.153325 -2.344405 3.077657 -0.262132 -1.481040 2.699816 -0.698391 0.287480 1.147063 2.313253 1.705391 0.493080 1.386734 -0.294134 1.384039 -1.749841 0.179637 2.189725 -5.794508 0.769141 -2.893774 -0.321868 0.923087
M028_OFF 0.391511 2.440000 1.415109 -0.487288 -2.415295 -1.738853 -1.137943 -1.888187 -1.825539 5.286439 -1.707122 -0.255461 -2.159918 -3.520039 7.769992 3.100337 3.774822 0.233275 0.110674 2.553873 3.096391 -0.872284 -0.854559 -9.454013 -3.988935 3.959744 -6.453351 -3.362807 2.893845 -1.529606 2.656216 -2.791821 1.678862 -3.181933 -1.940514 -4.542216 -2.244869 -2.512226 -1.800650 -2.085466 5.557309 0.951842 0.512301 -4.573566 2.202526 -0.897218 -0.236292 0.008657 1.947203 3.860852
M028_ON -1.064924 -1.898328 -1.021405 -0.533715 -2.099437 -4.383113 1.539051 4.602036 1.662551 1.950083 4.634351 -4.056503 3.823780 -2.629564 -1.821637 -0.168454 2.035944 -1.842560 -3.241640 -2.814146 -1.212833 4.211296 3.887014 4.193314 2.896133 -3.542156 6.610945 -2.717506 -5.177124 -2.244867 -6.561276 2.664069 0.855879 2.931354 1.527439 -0.980290 2.956731 4.648686 0.284534 -0.244091 -0.256521 -3.641070 2.872591 1.981667 -1.207996 -4.039384 -0.869110 -1.106356 2.836460 -2.194604
M029_ON -0.447679 -1.662751 2.062080 -7.267036 -3.007640 4.092161 1.398479 -1.216619 2.329663 -0.062149 -3.013775 -3.313723 -3.397690 3.532428 5.075584 0.604019 0.500839 -1.108319 1.661717 2.251797 3.434748 0.899383 3.668277 -3.090953 1.551785 0.945449 -0.806413 1.709718 -1.649707 -3.533830 -0.476353 2.736573 1.481111 3.357218 0.246196 -2.121331 1.995175 1.111363 3.721571 -3.960148 5.429212 1.576791 0.920825 -0.404251 5.398285 1.895037 0.114488 1.710330 1.058659 0.860195
M029_OFF 0.290086 0.221261 -5.273014 5.936843 3.214688 -5.542247 -2.605702 0.380447 -1.431332 1.351909 0.069004 2.786577 2.409229 -5.963398 -1.660317 -0.231450 3.151751 -1.623058 -2.865503 -1.400292 -6.144540 1.677336 -1.775148 -0.245280 -0.168167 3.475203 1.903782 -4.441040 0.853447 0.909069 -1.535564 1.833031 1.604502 0.516088 -3.399986 4.078926 -4.137512 0.926475 -1.436817 7.008221 -1.924675 -3.012272 -0.215297 -0.979562 -2.633651 -3.813950 0.274319 -2.628139 -0.330970 -0.606144
D004_CLOSE 3.009108 -1.301921 -0.854573 -2.132917 1.123026 3.058552 -7.313554 3.228444 0.676235 -0.051779 -1.061815 -1.593391 -1.630116 -2.078189 3.171720 0.170716 -2.877180 -6.032668 0.121124 1.691484 -1.306187 -0.192311 1.261110 -3.783293 0.326370 0.009071 1.910866 0.800715 1.496230 1.999955 -1.944145 1.703833 3.874990 1.205123 -3.424656 2.164738 0.570828 1.390652 3.043877 -3.547218 0.048303 2.998652 -1.095130 -0.825123 -4.015462 -1.435580 0.482339 -1.036326 -0.825368 -1.457591
D004_OPEN -1.893348 1.249801 -0.415949 1.055291 0.961607 -3.780386 4.143838 -2.954019 1.929399 1.752105 -2.948827 -0.306271 -1.796899 -0.036114 1.528293 -0.375188 4.053621 0.907458 -0.205888 -2.952723 -1.073233 0.739931 -1.513131 2.606322 4.632014 2.824290 -0.229674 0.989060 1.340766 -4.005552 -3.175773 2.010517 -2.020567 2.025114 -0.546435 1.743402 -3.340958 -0.932224 -0.908761 3.909496 2.525367 -2.582573 -0.674722 0.830693 0.746397 0.170601 -1.640904 1.769974 2.023347 2.162825
M025_OFF -0.864186 -2.099765 0.420880 0.432009 -3.781168 -1.495635 -1.265631 -2.403738 2.076335 -0.353134 -0.483445 -1.155415 1.306472 -2.140944 0.556519 0.462789 0.910871 -2.265353 -4.759430 0.717828 3.298136 0.204720 0.600157 0.092703 -1.426074 -4.125789 -1.310726 -2.193377 0.846211 -1.159822 -1.398346 -1.700879 2.766276 -1.568092 0.327024 -1.205525 -0.069717 2.390807 1.497956 -1.220454 0.983552 2.360618 3.177289 -2.956649 2.816129 -1.195924 1.779935 -1.000082 4.640955 -1.634349
M025_ON -1.675298 2.079511 2.151227 2.349858 -1.949625 -4.493525 -0.629257 -0.493934 0.083554 4.911280 -0.341321 -0.097294 -0.310852 -4.859931 -0.205865 -0.707338 -0.906138 2.082273 -0.832206 0.070220 -1.641401 1.017475 2.588578 -0.769199 -0.591178 0.014272 1.452525 -0.504446 0.810337 -1.141050 -3.007588 -3.031085 -1.915000 1.553673 0.336696 -4.649753 -0.632778 1.127347 -1.879648 1.057098 3.109781 0.108738 -1.367833 2.012125 -0.602596 -1.307015 -0.555940 -2.054036 -0.577652 1.322230
T002_23.5 -2.889803 2.690904 -0.340286 3.063333 -3.387878 2.680596 -2.351246 -1.311847 3.425766 -0.804030 -1.697611 -0.448645 -0.465796 -1.320946 -3.907637 0.989999 -4.224213 2.036640 4.466991 -0.439884 1.039709 -1.768401 2.669120 1.854979 2.923466 -5.658422 -1.385729 -0.891203 2.192719 -1.385128 2.693848 0.640960 2.431762 0.272925 2.657489 0.275802 -6.508260 1.464643 -1.483187 1.301708 1.769976 -1.316608 -3.035423 -1.420284 -1.268007 1.871444 -0.803382 0.512876 3.804096 0.279384
T003_23.5 -2.494498 -0.211060 0.147463 -2.047789 -1.212767 7.525712 -1.164335 -3.654478 4.373927 2.596312 -0.609881 -2.513249 5.532629 1.378506 -5.146208 0.230792 0.616861 0.177369 1.375712 3.002769 -1.810930 -1.910106 0.126197 0.263188 -3.372967 -3.708132 1.226816 -0.608316 2.021678 -3.446819 -0.615788 2.063123 0.509907 -2.071117 1.551725 3.474762 -0.142835 -1.103175 0.812224 1.885519 1.039205 0.395038 -1.084554 -0.199309 -2.806631 1.314239 3.822151 -2.657447 0.893483 2.062436
T004_23.5 -3.570437 5.607725 0.990471 -0.330908 -2.288249 2.151129 -3.473510 -0.771790 1.854699 0.565512 2.201513 -1.327184 3.065181 -2.487357 -4.196423 -4.182583 -1.291278 4.156016 0.904557 1.902144 -1.283919 -2.611643 1.473115 0.010594 -0.957776 1.717218 2.779783 0.157537 2.884262 0.447574 -2.296669 0.568431 -4.358005 0.752697 -2.026913 2.664451 -3.692280 -3.786883 5.077601 -0.652870 1.400633 0.094354 -0.949404 -0.561625 1.813666 1.067893 -3.021504 -0.150245 -1.478978 2.818839
T003_24 -0.945259 1.017209 -0.084401 -2.886371 0.710680 7.650469 -2.878993 -3.015758 4.488335 3.355024 0.367765 -2.414474 5.105269 2.479793 -4.430497 0.092767 0.495050 1.195680 -0.217507 1.791555 -1.394259 -2.370913 -1.678120 -1.563976 -3.009061 -2.955563 1.822640 -1.259996 2.135350 -1.837841 -1.300244 1.819686 0.530221 -3.002383 1.636351 3.360530 -2.179002 -1.580202 0.921730 1.903341 1.389758 -0.933953 -1.831045 -1.467797 -1.665002 1.387155 2.603003 -1.729229 0.306638 0.499318
T004_23 -3.314770 3.799799 0.719774 0.305957 -2.088116 1.547488 -2.768481 -1.102844 2.189453 0.919047 1.051549 -0.918736 3.348149 -2.483501 -3.216477 -4.623269 -3.275008 3.320799 4.045465 2.356586 -1.824330 -1.269578 0.506361 0.007711 -0.706335 -0.056589 2.442325 0.556504 4.304348 0.597692 -1.174265 -0.622398 -2.256676 0.698370 -0.771690 3.080945 -2.832004 -2.005295 3.443626 -1.597384 1.750141 0.055312 0.147590 -0.484346 0.334081 -0.372640 -2.403045 -0.320814 -1.496744 3.989417
T003_23 -1.403671 -0.930839 -1.385988 -2.137158 -1.239064 5.528915 -1.859643 -3.353037 4.266376 3.849946 -1.571194 -1.849059 4.925321 1.349040 -3.883861 0.564462 -0.909649 1.821838 2.226169 1.986957 -0.307106 -0.526613 -0.091227 0.703589 -3.287026 -2.793426 1.557481 0.222257 2.560600 -2.795783 0.444385 -0.402305 0.208009 -2.679213 1.835288 4.423857 -0.171381 1.074801 0.819634 1.761941 0.187387 0.131746 -0.712496 -0.784213 -4.889259 0.560473 4.979991 -2.122674 -0.251844 2.993924
M011_OFF 1.021305 0.524667 1.172525 -0.523998 -2.222180 -1.412061 -0.998434 -0.267484 -0.557331 -0.988830 0.672120 -0.881782 -3.194049 2.158205 1.492311 -1.376581 0.374300 -1.209795 -1.245264 3.089925 0.242140 -2.715746 3.756347 2.326534 -2.210718 -0.718045 1.087660 -2.355012 0.542031 1.403581 -2.161431 0.787291 2.104759 0.366168 1.439978 1.564551 1.201527 -1.199175 -1.499614 -1.576033 0.330752 -3.675238 -0.450114 3.064104 0.609453 0.900239 0.100943 -1.144432 1.450603 0.500245
M011_ON 0.125698 0.957970 -0.421299 0.010208 -0.818486 -0.411198 -1.411417 -1.272303 -0.169589 1.463618 1.941542 0.556986 -2.242314 -1.138834 3.276263 -0.086609 0.551515 -0.692726 -3.392351 -0.272832 1.818964 -3.655571 1.951255 1.754052 -3.834558 1.844117 0.056635 -1.403608 1.230100 1.889929 -0.529977 1.234713 0.757690 -1.221587 2.675298 2.575073 -0.425849 -0.826803 -2.190629 0.965662 -2.094864 -1.937979 0.634151 1.727232 -0.447614 1.312450 1.007300 0.945304 1.418031 0.219971
T001_22 -2.598847 3.182775 0.139828 -1.189703 -1.129307 5.337513 -2.333245 -0.045748 3.459570 -1.187282 -1.207656 -2.987750 0.549623 -0.714390 -2.834553 -2.863306 -0.703076 1.746781 1.031549 -0.520400 1.284334 -2.503252 -0.521818 1.280792 3.364368 -2.279122 0.215426 -0.335555 0.889617 1.111474 -1.188748 1.159455 2.851831 -0.765011 -0.022212 -0.797705 -1.780935 -0.881809 0.877777 0.939042 0.702625 1.506633 -0.597139 -0.620839 -0.158493 -0.237837 -2.640778 -2.292474 -1.157546 -0.052084
T002_24 -4.074048 1.918276 0.293263 1.956952 -1.851534 3.561275 -2.361725 -2.348710 2.951723 -1.099978 -1.191595 -1.253204 -1.369452 -1.877327 -3.705626 0.252089 -3.080969 0.872938 3.657890 -1.571963 0.038057 -2.842882 1.176010 -0.518523 3.153273 -5.940465 -1.322783 -0.540031 1.280620 0.659202 1.781561 1.346180 1.400299 0.861329 2.947176 -0.822961 -6.489792 1.330546 -0.362356 2.046762 1.543923 -0.968026 -3.365440 -1.300509 -1.532747 2.352427 -1.748918 0.175061 3.848649 -0.311901
T004_24 -2.138453 5.072295 2.420035 0.104646 -0.129765 1.866391 -3.827766 -0.093460 1.260921 1.218017 3.531380 -0.734472 2.853905 -1.219694 -2.870024 -2.888592 -1.095514 3.391411 0.113374 1.136333 -1.784058 -3.234761 0.537592 -1.837039 -0.373812 1.321645 3.780956 0.676728 2.288257 2.077120 -2.872880 0.567355 -3.776769 1.531204 -2.647891 0.534879 -2.413860 -4.880988 5.225785 -0.331905 2.156133 0.087063 -0.649232 -1.173514 2.633782 1.569210 -3.940908 0.458796 -2.336692 1.144561
T002_23 -1.876826 0.881435 -0.865579 2.645684 -2.908518 1.516324 -1.167191 -1.947770 1.816468 -0.663617 -0.959000 -1.581417 -0.049526 -1.112455 -2.974240 2.209481 -3.845564 2.288728 5.751212 1.551533 1.607049 -0.763423 4.595235 2.484673 2.368563 -4.693920 -0.820052 -0.876692 2.337750 -1.859637 4.574157 0.070490 2.070554 0.678035 1.062497 1.059778 -4.759878 2.359330 -2.441220 0.899570 1.729093 0.114001 -3.134252 -1.752905 -1.899207 2.634401 0.463931 0.342882 2.136128 1.630995
T005_23.5 -2.478963 0.018333 1.184509 -0.932190 -1.819769 0.267672 1.501337 -0.269273 -0.145344 -2.237327 -0.500095 0.678560 0.442051 -1.156154 -2.406959 -2.069382 -2.555135 0.200210 2.325789 -0.906998 0.958159 0.835401 -1.693860 1.939605 0.326872 1.173365 1.182771 -0.381249 2.519676 -0.985534 -2.172030 -1.147767 1.221194 1.854071 0.141744 2.258830 -2.103520 1.132895 -1.754392 -2.077632 -1.884920 2.372056 1.706410 1.004639 2.111141 -0.193248 0.987189 -1.227045 1.692129 2.074317
T003_24.5 -2.120361 0.338291 0.412890 -1.388708 0.648378 7.369946 -3.200656 -2.648264 3.042817 3.525864 0.909380 -2.156024 4.988182 2.884953 -4.325578 0.301883 0.434605 0.786831 -1.036865 0.987949 -2.211822 -3.396549 -1.769824 -1.384982 -1.993065 -3.050958 2.315327 -1.380611 0.536264 -0.583288 -2.132508 2.036343 0.512950 -2.052322 1.385598 1.708390 -1.580497 -1.643105 2.200633 3.279511 1.429506 0.423673 -1.378602 -1.393883 -0.951901 2.433541 1.569703 -1.023771 0.065465 0.054814
T002_24.5 -5.154419 2.060494 -0.017457 1.792258 -1.589175 3.835329 -2.586797 -1.321288 1.534666 -1.276366 -1.057612 -0.755803 -1.271593 -1.538714 -3.197889 0.928134 -2.832189 0.346222 2.607950 -2.600083 0.520739 -3.708189 -0.240463 -1.190856 3.961089 -5.834292 -0.097885 -1.168257 2.156604 1.159540 1.300235 0.623923 1.310386 0.778358 2.434069 -1.719354 -7.132294 1.787217 0.728538 2.228661 1.081136 -1.072498 -4.336616 -0.682153 -1.444287 2.492700 -1.660397 0.616482 2.643692 -0.861800
T005_24 -2.958004 0.250081 1.222104 -0.880371 -1.880676 1.477597 1.767393 -0.360227 -0.394251 -2.515179 -0.419180 1.044355 0.034149 -0.995222 -3.663910 -2.590069 -1.602572 -0.142324 2.513004 -1.063431 0.007849 0.079666 -1.773808 1.386090 -0.870915 0.422800 0.497891 -0.497749 1.969200 -0.434235 -2.870456 -0.953140 0.922871 1.703587 -0.240861 2.804598 -2.574164 0.757463 -1.695909 -2.186527 -1.899544 2.469476 1.508940 1.593712 1.811762 -1.152217 0.569142 -0.903422 2.652668 2.119308
T003_22.5 -1.206374 -2.078538 -2.228857 0.583444 -1.251877 4.102558 -1.401563 -3.952575 3.884718 3.453982 -3.432574 -1.894217 3.975672 2.106780 -2.480011 1.860394 -0.579497 1.726802 2.572473 1.783554 -0.060578 -0.327760 1.362046 2.461314 -2.820394 -2.085800 1.381601 0.849598 1.158504 -3.276012 -0.246157 -1.050926 -0.060998 -2.936368 0.471881 3.303494 1.560337 1.094772 0.991142 2.308210 -0.636433 0.751307 0.690455 -0.544894 -5.117179 0.410752 4.335200 -1.846504 -0.987556 4.617671
T005_24.5 -3.615666 0.015388 1.230140 -1.181186 -1.430519 1.983941 2.003987 -0.525665 -1.569880 -2.869122 1.312426 1.024902 0.575172 -1.999914 -3.517204 -3.438043 -2.221415 -0.837541 1.937475 -1.616899 0.228483 0.106672 -2.567060 0.420243 -0.748842 1.210924 1.119904 0.085314 2.666566 -0.859250 -3.235114 -1.325445 0.485850 1.798739 0.836810 2.596559 -2.861080 0.458945 -0.427897 -2.065424 -1.754092 2.289028 0.905812 0.734436 2.692886 -0.599699 1.334730 -0.049948 2.950062 1.862831
T001_22.5 -1.855164 2.955377 0.203893 -1.459397 0.669013 4.055954 -2.957290 -0.122648 2.655376 -1.181298 -0.931421 -3.132780 0.052136 0.923143 -3.103389 -2.173514 0.440931 0.471779 -0.622989 -1.056594 -0.110112 -2.606364 -1.917400 0.076707 2.819170 -2.248374 0.841421 -1.290199 -0.057316 2.236087 -2.264815 0.852019 2.063682 -0.631223 -1.340257 -1.732214 -0.424388 -0.954037 1.669564 1.924805 0.618105 1.019410 -1.715047 0.208589 0.758973 0.190380 -4.330089 -0.814310 -0.447627 -0.438086
T004_22.5 -2.892122 2.798125 0.061023 1.952119 -2.574897 0.583381 -2.770116 -1.134135 1.502596 0.556185 -0.158030 -1.999080 3.657127 -0.957924 -1.889209 -2.604959 -2.884496 3.175665 3.158247 1.510954 -0.751874 -0.400721 1.358323 2.406337 -0.150075 1.316994 2.300984 0.276720 4.583161 -0.666578 -1.218973 -1.807851 -1.618569 -0.550651 -1.441888 3.349367 -1.640994 -0.904566 1.295083 -1.384922 0.392115 1.712456 0.408162 -0.245411 -0.410668 0.151283 -0.180008 -0.632164 -1.471831 5.110238
T001_21.5 -2.028706 2.468805 -0.241377 -0.780563 -1.250487 3.941935 -2.627401 -0.667597 3.967731 -1.445431 -2.004637 -1.709938 1.983224 -1.460163 -2.788978 -2.287733 -0.753793 2.724799 2.448668 0.027973 0.303341 -0.921296 0.144499 2.573035 3.320652 -1.925299 0.767702 -0.868507 0.665479 -0.139195 -0.843350 0.577663 2.766118 -0.046530 -1.112222 0.493176 -2.084980 0.081644 -0.100380 0.536070 0.248415 1.991503 0.049279 -0.559745 -0.371355 -0.341396 -1.849457 -1.190861 -0.574609 0.831612
T003_21.5 1.214193 -2.922729 -2.846729 1.050429 2.326885 1.146626 -1.440567 -2.798240 2.265504 2.686727 -3.706091 -1.468310 1.191006 2.253197 -0.078685 3.745303 -0.775513 2.243840 2.236931 0.287239 2.561576 0.473396 1.600636 1.536125 -2.347136 -1.339032 1.747611 1.504938 -0.298931 -0.877536 -0.311025 -1.336467 -1.015445 -3.681828 1.432757 0.740835 1.995143 0.078428 2.144951 0.708736 -0.812212 1.194149 -0.762934 0.341829 -5.519220 1.883923 2.758689 -1.184906 0.267196 4.577373
T002_22.5 -1.796020 -0.100933 -2.842361 3.796589 -2.053551 -0.059784 -1.384128 -2.052001 1.964238 0.155023 -2.366564 -0.636010 -0.187804 -0.190922 -1.456193 3.273491 -3.951585 2.653768 5.735754 1.332693 1.464909 0.138972 4.676113 1.690592 1.888191 -4.137338 -0.890474 -1.147141 2.286467 -1.007845 3.421182 -1.687171 1.945645 -0.006687 0.225454 0.770345 -3.323481 2.457714 -1.778595 1.496469 1.906998 -0.287734 -2.903244 -0.726996 -2.085540 1.247029 0.925685 1.539441 0.985628 2.590315
T005_23 -2.222365 -0.695275 0.579524 0.122991 -1.272156 -0.184992 1.470184 -0.266528 -1.267152 -1.886224 -0.106003 1.072106 0.611351 -0.871049 -1.424464 -0.646268 -1.695245 0.689079 2.465729 -0.796024 0.744571 1.074005 -1.123140 1.676286 -0.042303 0.346321 1.031300 0.028282 2.507205 -0.678885 -2.106915 -1.612795 1.286013 1.735259 -0.376656 3.078878 -2.414606 1.562958 -2.219967 -1.831541 -2.120955 2.947793 0.054510 1.053957 1.663409 0.195928 2.082664 -0.232569 1.067968 1.756689
T003_22 0.870824 -2.314258 -2.875305 1.032832 0.186338 1.937237 -1.029710 -2.824962 3.081322 2.866583 -4.349324 -1.665362 3.333333 2.175106 -0.710357 2.768718 -1.240203 2.811406 1.486290 1.046085 1.929986 1.098800 1.192527 2.619378 -1.737708 -2.408002 1.892329 1.055604 0.463468 -1.362838 0.028152 -1.085680 -0.383721 -3.216151 0.963252 2.249391 0.569435 0.828559 0.615100 0.946059 -0.935500 0.804876 -0.174250 -0.442848 -5.240639 1.026087 3.206626 -1.357077 -0.762751 3.981167
T004_21.5 -2.609292 0.069982 -2.615873 2.462676 0.875819 -1.222074 -1.606428 -1.601628 -0.278111 1.731638 -1.054922 -1.601466 1.898651 1.003529 0.147292 0.855188 -1.918075 3.455573 3.058088 -0.063372 1.752137 1.511146 2.025386 2.581988 -0.226151 0.999633 4.202423 0.966505 2.586154 0.430810 -1.596125 -3.361220 -0.940102 -2.151158 -2.598936 1.604612 -0.042136 0.198008 2.760708 -0.941190 -1.262466 1.445484 -1.339678 1.577152 -2.370924 1.157808 0.994861 0.856510 0.100060 6.792441
T001_21 -2.399591 0.743290 -2.155334 1.211486 -1.772691 3.246600 -2.005623 -0.112926 3.939936 -0.786361 -3.249227 -1.598209 1.570135 0.024314 -1.752238 -0.835529 -0.500858 3.812432 1.962368 0.102237 1.796578 -0.819755 1.165617 2.672122 2.232874 -1.813470 1.336797 -0.179687 0.946346 0.637888 -0.921559 -1.001318 2.387477 -0.962650 -1.631904 0.547982 -1.948407 1.086681 -0.043209 0.707745 -0.535230 2.586556 0.097260 0.596977 -2.381513 -0.064535 -0.325606 -0.968121 -0.784682 2.689559
T005_22.5 -1.980195 -0.897944 -0.087503 0.920476 -1.147726 -1.285558 0.167807 -0.077815 -1.313493 -1.730383 -0.541429 2.002825 -0.174269 -0.057861 -1.368297 -0.191395 -1.713633 0.506144 1.802495 -1.071156 0.691343 0.297873 -1.131583 1.395226 -0.935026 1.768670 0.140585 0.436998 2.282952 -0.192634 -2.222242 -2.234437 0.996409 1.537621 0.268715 2.666317 -2.034658 1.245900 -1.759221 -2.273555 -1.939129 3.261310 0.830133 1.518144 1.717516 0.113996 2.358313 -1.266041 1.109830 2.239572
T003_25 -1.948925 -0.219403 0.161878 -1.110865 1.023615 6.716394 -3.147213 -1.888154 2.371041 3.225194 0.431262 -2.284668 4.061365 2.756389 -3.066904 0.976067 0.754100 0.945763 -2.133493 0.930213 -1.934999 -3.232016 -2.475468 -1.765313 -1.077574 -1.984415 2.494615 -0.908199 0.232461 0.205431 -1.943704 0.927727 0.564696 -1.375035 0.021910 0.990553 -0.842086 -0.947226 1.858744 3.959272 1.114000 0.337490 -2.110782 -1.457929 -1.234229 2.587069 1.074987 -1.060412 -1.555518 -0.496076
T004_22 -3.161207 0.668535 -1.855210 2.001638 -1.143335 0.027171 -2.126769 -1.248866 0.376137 1.038235 -0.671616 -1.767223 3.566768 0.365012 -0.416371 -0.507716 -2.535244 3.403532 3.295196 0.869670 1.344094 0.511513 1.537443 2.347792 0.244408 0.993265 3.815327 0.223440 3.774963 -0.410604 -1.143900 -2.600247 -0.963827 -1.252387 -1.769156 3.041270 -1.484953 0.232546 1.751456 -1.171959 -0.335352 1.955494 0.310289 0.738606 -1.586670 0.502562 1.120839 0.538357 -1.145002 6.216756
T002_25 -5.542391 1.384477 0.031118 1.754078 -1.357816 4.229592 -1.965443 -1.406668 0.885498 -1.054744 -1.096029 -1.508393 -1.218451 -0.048070 -2.826008 0.812731 -1.287165 0.721032 1.182067 -3.523186 0.076381 -4.099447 -0.665837 -0.253398 4.141257 -5.226264 0.286702 -1.315643 1.595104 1.884574 0.584949 -0.136478 1.516117 0.859910 0.968946 -1.926291 -6.020957 2.039062 0.191038 2.588125 0.661042 0.411054 -3.457484 -0.170779 -1.250071 2.900859 -1.549738 2.009570 2.346999 0.068783
T002_22 0.377265 -1.022868 -2.897465 3.897355 -0.937036 -1.410787 -0.798306 -2.510026 -0.012118 0.270792 -2.333101 -0.651029 -0.396012 0.744873 -0.327508 3.837560 -3.433989 1.682923 4.461647 0.986611 1.893521 -0.117609 4.225842 1.209943 2.215749 -3.411986 -0.311432 -0.028416 1.139222 -0.218883 2.791467 -2.307685 1.071919 -0.676916 -0.372339 0.611929 -1.566058 2.265007 -0.726902 1.832700 0.498618 0.063264 -2.837410 -0.068278 -2.422811 1.740807 1.105401 1.054164 0.331143 3.065313
T002_21.5 0.961845 -2.257495 -3.304167 3.827420 0.794718 -2.010870 -0.654929 -1.726444 -0.560530 0.562927 -2.212305 0.083043 -0.518872 1.208620 0.531124 4.286871 -2.662971 0.899435 3.068066 0.187671 2.405500 -0.264068 4.407229 0.466117 1.044231 -2.348735 0.318446 0.197040 -0.062191 0.316457 2.394195 -2.385475 -0.315411 -1.190924 0.112320 -1.296507 -0.465751 1.735113 1.053683 1.336506 0.288678 -0.276839 -3.091814 0.803105 -2.984044 2.243288 1.440999 1.211225 -0.055703 3.068858
M031_OFF 0.256813 -3.386117 2.947247 -0.556864 -1.747429 -1.156233 -0.776975 0.758451 -0.032880 0.502905 -3.292002 0.322667 -0.930813 0.701761 0.153688 -0.350290 3.915194 0.760096 -2.262841 0.992577 -3.342010 -0.160327 1.324444 -1.226139 -0.157241 0.459452 -1.717804 -0.877316 -3.357795 1.382259 -3.740527 2.836849 -2.787331 0.065375 -0.133728 -0.779117 -0.849989 -0.949477 0.407637 -1.861550 0.142489 0.425546 1.061486 0.019773 -2.594366 -1.682908 -0.912037 0.167153 1.553640 1.130962
M031_ON 0.956732 -2.385590 1.426749 1.798058 -0.504106 -1.029667 -1.295263 1.193102 0.267496 0.575052 -3.800150 1.411275 -0.995245 0.429933 -0.635749 -0.163576 4.557042 0.820085 -1.870018 1.506740 -3.275655 -0.759061 -0.776787 -2.036789 -0.130311 1.121138 -1.288398 -0.791659 -2.329487 3.302087 -3.639326 1.841873 -2.084770 -1.245495 -0.116990 -1.491750 -0.635760 -0.362950 0.199662 -0.762864 0.938735 0.219574 2.919507 0.674928 -2.068188 -2.320774 -0.928601 0.214993 0.684849 1.028567
T005_22 -1.918042 -2.302642 -0.372490 0.702831 -0.538714 -1.091171 1.340565 -1.321127 -1.662908 -1.335899 -0.650309 1.653081 -0.121565 -0.486625 -1.110064 0.849482 -2.050656 0.121819 2.629955 -0.805873 1.623627 1.385608 -0.114569 0.610518 0.238284 1.377774 1.793326 -0.487758 1.163515 -0.297511 -1.533099 -2.392292 1.190406 1.657376 0.138065 1.761225 -2.013757 1.596361 -1.021963 -0.980727 -2.539901 2.632920 0.287757 0.958630 0.722280 0.505937 2.661104 -0.180890 1.219375 2.419260
T003_21 1.877611 -1.629712 -2.900280 1.597683 3.504545 -0.201403 -0.491891 -2.557322 0.205216 2.817307 -3.900236 -0.094529 -0.850737 2.230453 -0.591020 4.301971 -1.079903 0.907132 2.083786 0.039905 2.726237 1.044295 1.464290 -0.047548 -1.650955 -0.829381 1.363508 1.631213 -1.145372 -0.207503 -0.252457 -1.746165 -1.093634 -3.258467 1.705320 0.015386 1.370257 -0.982101 2.408335 0.254416 -0.920609 0.881821 -1.895867 1.094547 -4.737039 2.348482 1.747217 -0.944269 0.748734 3.871211
T001_20.5 -2.507389 -1.344917 -2.099492 2.089139 0.161204 2.228744 -1.505979 -0.481150 2.583480 -0.180782 -2.483427 -1.824509 -0.216038 0.296165 -0.510264 1.002098 -1.060504 3.581363 2.689004 -0.543534 2.142139 0.210678 1.904666 2.729070 1.559598 -1.417202 2.350238 -0.454246 -0.707747 0.404513 -0.108059 -1.339454 2.036289 -0.641423 -1.408798 0.885584 -1.502717 1.340116 1.034822 0.567996 -0.389273 2.698139 -0.811518 0.229705 -2.555069 0.860331 -0.219954 -0.639601 -0.215052 3.343208
T004_24.5 -0.725015 5.515720 1.921096 0.645152 -0.009004 1.325883 -3.858352 0.690347 0.646895 1.100732 2.529359 -1.418103 1.994713 0.012217 -2.448890 -2.242695 -1.089169 2.216576 -1.022922 0.350378 -1.698940 -4.299377 -0.417816 -0.845424 1.313045 1.111621 2.621514 0.024374 1.304043 1.698890 -1.934354 0.168754 -2.947234 -0.069236 -3.472977 -0.811749 -0.887261 -3.080853 4.356114 1.029169 1.923251 1.654534 -1.434317 -1.728093 2.865140 2.227880 -4.758165 0.617389 -3.472665 0.435005
T005_25 -3.908622 -1.207787 1.501151 -1.241105 -0.850961 2.439107 2.059223 -0.541041 -1.816500 -2.912451 0.915782 0.660751 -0.433890 -1.241373 -3.285930 -3.157540 -1.265771 -0.931292 1.370942 -1.616344 0.105525 0.583213 -2.725249 0.017555 -0.889681 0.808919 2.279704 -0.635435 2.088784 0.702966 -4.278582 -0.613177 0.033792 1.720911 -0.291192 2.604936 -3.113228 0.744177 -0.511776 -2.387413 -2.501318 1.730309 1.387510 1.496332 2.838246 -0.505290 1.005252 -0.175265 2.536407 2.176952
T004_21 -1.278063 -0.833197 -2.869211 0.956943 3.081794 -1.100030 -0.118944 -1.982295 -1.808964 2.995931 -1.163205 -1.996347 0.543629 0.599919 -0.287721 1.613440 -1.882322 2.226671 2.288571 -0.981928 2.700298 1.008649 1.911394 1.192590 -1.265390 0.183511 3.347499 -0.039712 1.452749 1.038982 -0.709300 -2.753024 -1.680168 -1.903229 -1.123557 0.501569 0.871426 -0.553577 3.025726 -0.981319 -0.821147 -0.083103 -1.392742 1.858516 -2.293669 2.073336 0.671887 0.314321 1.053967 5.476332
T005_21.5 -0.755526 -2.495220 -0.918551 1.152508 0.069487 -1.116149 1.563755 -0.843714 -2.373436 -1.220428 -0.528299 2.180504 -0.503415 0.626099 -0.490173 1.469749 -1.613381 0.277548 1.734665 -1.144027 1.337916 1.109228 0.194587 0.799452 -0.679591 1.331672 0.973076 0.638150 0.565349 -0.332061 -1.786354 -2.390869 0.833086 0.716678 0.052055 2.026846 -0.784410 1.406822 -0.964181 -1.073792 -2.018831 2.215712 -0.715117 1.033563 0.125931 0.611045 2.999761 -0.366496 1.811377 2.113381
T005_25.5 -3.600816 -0.717265 1.279206 -0.777493 -0.995944 1.473393 2.267543 0.297391 -2.276813 -3.145687 1.347614 0.805528 0.048035 -0.172740 -3.008023 -2.989558 -1.287131 -0.389788 1.428721 -1.366699 0.528534 0.265139 -2.666561 -0.226310 -0.715628 1.038314 2.638423 -0.759545 1.960230 0.853866 -4.045856 -0.355003 0.236621 1.723228 0.343596 2.614158 -3.057355 0.527072 -0.320011 -2.308510 -2.463315 2.111475 1.226248 1.877416 1.756187 -0.369208 0.962254 0.652948 2.564021 2.499961
T001_23 -1.662846 2.965659 0.127538 -1.039684 0.626729 3.289251 -2.267769 1.020510 1.216963 -0.560109 0.056196 -2.233558 -0.330970 1.029466 -1.392625 -1.979455 0.349224 -0.223931 -1.805225 -1.011741 1.078493 -2.985691 -1.716701 -0.085531 1.840780 -0.561544 1.351269 -1.265047 -0.747952 2.854573 -1.697865 0.801858 1.783031 -0.551908 -1.742762 -1.839187 0.637893 -1.561607 2.767249 1.588708 1.041592 1.637249 -2.031137 -0.569561 1.777335 0.872333 -3.309797 -0.559415 -1.691590 -0.812031
T002_21 1.770429 -1.659779 -3.073346 2.632353 1.696833 -1.051146 0.040828 -2.017663 -1.668687 1.373486 -1.978837 0.483706 -1.742610 0.480138 0.035085 3.966349 -2.325146 -0.337092 3.059316 -0.755243 3.132512 0.495623 3.870396 -0.369696 0.035975 -2.374635 1.064737 0.821699 -0.953130 0.415756 1.199760 -1.321392 -0.988201 -0.712542 0.886110 -1.346028 0.538453 0.937273 1.627644 1.635562 -0.135719 -0.571032 -2.743269 0.614463 -3.832307 2.186493 0.805108 1.009410 0.960755 2.749590
T002_25.5 -5.484065 0.967220 -0.360336 1.554799 -0.824575 3.743608 -2.358089 -0.594007 0.742164 -1.357564 -1.098936 -1.330458 -0.134107 1.004090 -1.671102 0.580573 -0.264302 0.842749 0.257234 -2.926650 -0.227457 -3.703718 -1.196784 -0.544754 3.726678 -3.858531 0.629817 -1.534294 1.854736 1.820542 -0.165922 -0.054117 0.909830 0.670536 -0.063828 -1.931305 -4.744643 1.582431 0.753697 3.119942 0.877407 1.021778 -3.310270 -0.446321 -0.019662 2.860096 -0.688296 2.188717 1.088627 -0.311475
T001_20 -1.322468 -1.295596 -2.873120 2.193479 0.401661 1.015698 -0.535422 -0.970751 0.960575 -0.435556 -2.615322 -1.382202 -0.753104 0.550578 -0.454271 1.492354 -1.249669 1.723339 1.529370 -1.285195 2.000870 -0.287522 1.453566 1.536721 1.357499 -1.672238 1.368002 -0.214887 0.013890 1.061711 -1.562264 -1.800084 1.239191 -1.687644 -1.215520 0.679492 -0.524612 0.163826 0.512346 -0.439428 -0.608043 1.736442 -1.015452 1.766609 -2.282926 2.214551 -0.640812 -0.071291 1.719236 3.205697
T003_25.5 -1.125898 0.321581 0.253524 -1.251699 0.692731 5.410485 -3.235157 -1.682811 1.591062 2.256991 0.234787 -2.583743 3.932797 3.017536 -2.244442 0.244986 1.289950 0.900163 -2.605126 0.661080 -2.215783 -3.354537 -1.768237 -1.188693 -0.568898 -1.780187 1.731557 -1.418368 0.583969 0.456772 -1.526106 1.166182 0.154055 -0.940559 -0.590378 0.058091 -0.042249 -0.456595 1.582122 3.793628 1.340585 1.015593 -1.750243 -1.381467 0.163731 2.192467 0.734094 -0.669168 -2.516030 -0.567101
T005_26 -3.824522 -1.004203 0.979498 -0.515556 -0.896398 1.647306 1.303258 0.018715 -1.469059 -2.325115 0.888741 0.219521 0.731744 0.133058 -2.873163 -3.233047 -1.497743 0.010615 1.475490 -1.081283 -0.472583 0.792500 -2.661298 -0.083358 -0.913590 1.717456 2.408705 -0.041973 2.009691 0.913152 -4.171764 -1.213433 -0.379976 1.435797 -0.173914 2.308587 -3.005626 0.427667 -0.563470 -2.000523 -1.739711 2.081254 1.370121 1.362050 2.030280 0.050435 0.417178 0.182936 2.045441 2.783073
T005_21 -0.136290 -1.812400 -0.965361 0.786245 0.031595 -1.753896 2.153866 -0.767001 -2.302424 -1.181467 -0.761167 1.789593 -0.610879 0.838721 -0.481909 1.814892 -1.784760 -1.109728 1.424096 -1.266309 1.593178 1.152109 0.073804 0.546433 -1.011736 0.292044 0.834808 0.750059 0.658981 -0.361270 -1.386599 -2.246177 0.356398 0.394966 0.165933 1.037098 0.348870 0.958287 -0.929148 -0.901946 -2.095700 2.313682 -0.700106 1.381465 0.501684 0.983301 2.579852 0.108911 1.987250 1.481528
T002_20.5 3.477716 -0.202962 -1.944706 1.876079 1.015842 -1.114829 1.618792 -2.116413 -1.190651 0.729734 -2.548987 0.484978 -2.588830 -0.430267 -0.858011 2.656967 -2.383554 -1.457441 3.404002 0.502608 2.938852 0.980841 3.239927 0.219975 -0.394827 -2.385648 -0.135407 2.188258 -0.247199 -0.624547 2.037900 -0.692330 -0.674066 -1.081612 0.801184 -0.685416 1.423988 0.272400 0.918459 0.937760 -0.110909 -1.490791 -1.738460 0.156371 -2.731648 1.182130 0.214769 0.591004 1.877264 1.713594
T003_20.5 3.354079 -0.960235 -1.582128 0.720984 3.381058 -0.811986 0.161811 -2.820920 0.134189 1.902469 -3.145959 -0.295291 -2.819934 0.498453 -0.548179 2.959732 -0.689044 -0.860005 2.584799 -0.284098 2.474340 1.125317 1.531083 0.367193 -2.207168 -0.917259 0.989669 2.112388 -0.748018 -0.112119 -0.029619 -1.125403 -1.016639 -3.053235 1.071335 0.051385 1.997687 -1.506420 1.510461 -0.298766 -0.554831 -0.433810 -1.963207 0.823806 -3.329904 1.527242 0.788116 -0.916026 2.280922 2.200817
T005_20.5 1.241337 -1.853628 -0.178663 -0.024641 0.790709 -1.677724 2.477273 -1.192450 -3.295654 -0.780398 -0.644404 2.616520 -1.214956 0.020784 -0.870935 1.200904 -0.868677 -1.293646 1.867710 -1.151257 1.640545 1.868403 -0.009339 0.582217 -1.420183 0.312559 0.570120 0.863602 0.524616 -0.100859 -1.098730 -2.118737 0.890331 0.518416 0.131701 1.673180 0.576920 0.329467 -1.080630 -1.494917 -2.092906 1.434403 -0.144770 1.866749 0.193082 0.525053 2.817906 -0.529265 1.643017 1.088577
T001_19.5 -0.227095 -1.469710 -2.504432 1.262462 1.979769 1.387843 0.556617 -1.990417 -0.250190 0.208650 -3.211601 -1.486578 -1.658539 0.096287 -0.777431 1.202710 -2.108630 0.103018 2.389678 -0.578601 2.397754 0.070973 1.957922 0.772860 0.077371 -1.586754 1.477504 0.182022 -0.370598 0.232821 -1.050720 -1.244432 1.558195 -1.545539 -0.661390 0.592897 0.399475 -0.767410 1.302595 -1.221590 -0.722421 0.101139 -1.229404 2.020759 -2.621360 2.133677 -0.485731 0.159666 1.914621 3.555153
T003_19.5 5.403436 0.778140 -0.228683 0.795988 2.128239 -1.674508 1.089921 -2.486552 0.044449 2.561558 -1.985565 1.794094 -3.624283 -0.634302 -1.201537 2.696216 0.249458 -1.702366 2.844254 0.539006 3.020519 2.290452 1.934539 0.921151 -2.497209 -1.056674 -0.677185 3.375463 -1.159198 -0.635450 2.391726 -0.737103 -0.262769 -1.675772 1.420005 0.862262 1.679300 -1.724142 0.729381 -0.486226 -0.465107 -1.984306 -0.985681 -0.880320 -2.045071 -0.347601 0.336398 -1.612942 1.982217 0.050297
T005_26.5 -3.186350 -0.546757 1.089951 -0.351502 -0.366675 1.412437 1.672106 0.225518 -2.045763 -2.883045 0.703837 0.321657 0.423535 0.007053 -2.647742 -3.049836 -1.669043 0.237882 1.050147 -0.971191 -0.296402 0.748345 -2.538286 -0.005365 -0.390951 2.082752 2.749115 -0.329110 1.423262 0.816226 -4.211144 -0.905821 -0.200731 1.312600 -0.601178 2.275990 -2.949359 0.311653 -0.885098 -2.539394 -1.998004 2.377668 1.401286 1.341090 2.128564 0.574495 0.064779 0.691013 2.025782 2.493552
T003_20 4.559832 0.223785 -1.034712 0.334647 2.769565 -1.520494 0.899419 -2.412893 -0.447788 1.771132 -2.239516 0.764496 -3.037282 -0.057446 -1.137105 2.543347 -0.096200 -1.354820 2.634490 0.342063 2.798880 1.271452 1.947373 0.706048 -2.552465 -1.016417 -0.472628 2.613936 -0.713723 -0.156360 1.107118 -0.437861 -0.583452 -2.253860 1.234885 0.789239 2.428554 -1.795808 0.909129 -0.946358 -0.697075 -1.687087 -1.391380 0.427099 -2.225015 0.134146 0.534058 -1.675472 2.251134 0.989499
T004_20.5 1.333823 -0.552877 -2.271400 0.514030 2.630473 -1.039351 1.038355 -1.771463 -1.851189 1.879965 -1.298957 -1.046933 -1.277260 0.434870 -1.257741 1.498531 -1.954393 -0.706369 2.877332 -0.676958 2.405256 1.072476 1.303329 0.922319 -1.389232 -0.090145 2.385989 0.645403 0.485355 0.471305 -0.890890 -1.458301 0.372528 -1.571074 -0.494191 1.089272 1.523985 -0.704261 1.500791 -1.895877 -1.273966 0.106270 -1.448229 1.883672 -1.837470 1.719199 0.638791 -0.044998 2.558525 4.433103
T002_20 4.808586 0.789427 -0.553318 0.276875 1.057015 -1.709697 2.092341 -2.461987 -1.175715 0.622739 -1.716426 1.560942 -3.386331 -0.927637 -0.668387 1.990738 -1.406736 -1.842837 3.144382 0.080848 2.804439 1.389491 2.085377 -0.188383 -1.097151 -2.114472 -1.034594 3.350266 -0.873853 -0.459230 2.508275 -0.618916 -0.265210 -0.771647 0.654011 -0.337822 2.559698 -1.076505 0.334723 0.578088 0.031175 -0.965485 -1.235469 -0.107118 -0.973676 0.185036 -0.493203 -0.311671 1.633052 0.309820
T003_18.5 3.598798 0.947181 1.260947 0.180102 0.867900 -0.708623 1.240242 -1.332247 0.272770 2.968981 -1.078096 3.090835 -3.028610 -1.013963 -0.870991 1.806826 2.444039 -0.763001 0.179059 -0.228932 3.752943 2.303295 0.387156 0.495920 -2.895844 0.132293 -0.201455 4.256568 -1.327831 -0.194380 2.282155 -0.792537 -1.665882 -0.362853 1.274258 1.035303 0.067471 -1.759717 1.846468 1.739679 -0.938788 -1.313670 -0.154893 -2.350789 -1.363843 -1.415349 0.470417 -1.846327 1.216059 -2.782803
T002_26 -4.572822 1.076594 -0.125213 0.957436 -0.841409 3.639293 -1.839614 -0.302758 0.441755 -1.940422 -0.853400 -1.540387 0.698213 0.914895 -1.581932 0.157687 -0.211613 0.722370 -0.049545 -2.201097 -0.942114 -3.512744 -1.370713 -0.042779 4.280547 -2.828470 0.940860 -1.696909 1.460767 1.689109 0.176644 -0.231448 1.186121 0.870888 -0.660924 -2.242732 -3.984327 1.819388 -0.424571 3.134220 0.784496 1.548287 -2.602442 -0.534487 0.120909 2.190238 -1.100861 2.229646 -0.838573 -1.026837
T004_25 0.497206 5.626694 1.698239 0.672364 0.703737 -0.223376 -2.968971 1.403355 -0.382208 0.604741 1.376365 -2.452744 2.315955 0.755896 -1.121269 -0.942892 -0.840797 0.081031 -1.025026 -0.061129 -1.357674 -4.210486 -0.416809 -0.982265 2.140335 -0.243243 0.970412 0.009848 1.002901 1.948644 0.044225 0.194564 -2.374095 -0.006661 -3.937874 -2.945170 1.130193 -1.530806 2.543463 1.857583 2.048924 1.456396 -2.133503 -0.777201 3.238392 2.640351 -3.728218 0.769992 -4.849359 -0.020486
T004_19 4.248916 1.028891 0.278139 0.504067 1.726550 -1.517888 1.397344 -2.018591 -0.584745 2.089538 -1.864453 2.364878 -2.634135 -1.167490 -1.448952 2.035270 0.239247 -0.976805 1.943520 0.016762 3.583459 2.159601 1.050228 0.908071 -2.319921 -0.191799 -0.453217 3.563683 -0.759596 -0.867468 1.941661 -1.184080 -0.653064 -0.624595 0.768271 1.112976 0.483811 -1.157364 0.938500 -0.329860 -1.311367 -0.824600 -0.701630 -0.939028 -1.198968 -0.838764 1.037758 -1.889695 1.740433 -0.203583
T001_19 1.523522 -0.427903 -2.274104 0.689545 1.903295 -0.007871 1.152209 -2.817098 -0.878478 0.140823 -2.411775 -0.541406 -2.583432 -0.208079 -1.232449 1.572785 -2.098217 -1.289948 3.212942 -0.303432 2.271495 1.139096 2.034838 0.487534 -0.332871 -1.599948 0.536518 1.097895 0.011800 -0.157188 -0.113852 -0.992403 0.872265 -1.182446 -0.069605 0.292293 1.060161 -0.732995 0.698056 -1.130366 -0.706567 -0.478671 -0.951057 2.013406 -1.908395 1.230769 -0.788221 -0.211764 2.554846 2.752126
T003_26 -1.147494 0.908223 0.260206 -0.877970 0.225467 3.615854 -2.258117 -1.079302 0.973547 1.223472 0.444410 -2.471897 3.681908 2.436772 -2.256161 -0.006280 0.810773 0.860053 -2.487757 0.946455 -2.135185 -3.062576 -1.688578 -0.660151 -0.349682 -1.385557 1.263396 -1.387546 0.918711 0.384100 -1.235154 0.378807 0.151587 -0.617182 -1.273028 -0.541164 0.425157 0.416890 0.807226 2.989076 1.277860 1.550057 -1.363970 -1.149122 0.532022 1.829141 0.406805 -0.139715 -3.019453 -0.419560
T005_20 2.082897 -1.618207 -0.627641 -0.187198 1.334026 -2.253722 1.878681 -0.767358 -2.763010 -0.191735 -0.905455 2.313248 -2.336333 -0.042087 -0.818570 1.913222 -1.052138 -1.852548 1.766011 -0.889555 1.829114 1.419004 -0.077703 -0.002795 -1.532115 0.465505 0.054003 0.942647 -0.293806 0.309939 -0.943524 -2.035168 0.652539 -0.161830 1.067020 0.486964 1.300283 -0.648411 0.342452 -0.840376 -1.837134 0.689416 -0.221846 1.750144 0.359858 0.496011 1.489489 -0.570627 2.346281 0.486320
T001_18 3.844109 0.529042 -0.780384 0.987772 1.341366 -0.987811 0.712856 -2.620802 0.802007 1.992955 -2.303471 2.281460 -2.900940 -0.639615 -0.905646 2.759191 -0.415223 -0.595071 2.118904 0.241099 3.374391 2.264084 2.196317 0.856848 -1.554376 -0.774025 -0.799415 3.655741 -1.197242 -1.355463 2.427900 -1.216862 -0.243089 -1.567086 1.097389 0.442797 0.929916 -1.417857 1.025318 0.597848 -1.031018 -1.629612 -0.491571 -0.753963 -2.061935 -0.309300 0.107753 -1.631305 1.589078 -0.618398
T004_18.5 3.196323 1.697213 1.840307 0.872075 0.410423 -0.578678 0.591827 -0.910754 1.032543 3.303103 -0.397015 2.882264 -2.244262 -0.944819 -0.748518 1.332013 2.771895 -0.140225 0.084664 -0.139323 3.384508 1.957311 0.699063 0.961313 -2.280595 0.329487 -0.448535 4.127229 -0.836186 -0.461465 2.243388 -0.649293 -2.093874 -0.232667 1.218601 1.060861 -0.408825 -1.429661 1.943818 1.958251 -0.394122 -1.445387 -0.428283 -2.728949 -1.320113 -1.657255 0.396710 -2.010103 0.058750 -2.964799
T002_19.5 4.800124 1.136024 0.212510 0.361001 0.930223 -1.845976 2.215277 -2.061473 -0.806480 1.077935 -2.193394 2.758732 -3.201699 -1.120014 -0.714076 1.613450 -0.521370 -1.521331 2.191093 0.586703 2.980022 1.820763 1.658797 -0.005278 -1.346721 -1.376425 -1.182757 3.590015 -1.239532 -0.390127 2.653886 -0.714071 -0.405576 -0.601712 1.364316 -0.222805 1.780848 -1.097930 1.024943 0.279986 -0.156945 -1.704356 -1.066999 -0.475471 -1.403653 -0.020439 0.261396 -1.128486 1.285362 -0.824527
T005_19.5 2.396061 -0.292385 0.217218 0.070689 0.824245 -1.910954 2.100588 -1.267866 -2.294936 0.310013 -0.908361 2.960549 -2.505837 -0.423133 -0.490967 1.664581 -0.350644 -1.650314 1.285488 -1.087535 1.714811 1.744600 0.432752 0.087119 -1.814587 0.648852 0.095038 1.949092 -0.095281 -0.689160 -0.211752 -1.038578 0.104309 0.045307 1.471638 0.553743 0.908679 -1.075248 -0.021072 -0.768157 -1.232946 0.342917 -1.105491 0.963192 0.127739 0.021377 1.581949 -0.707621 2.480086 -0.261314
T004_20 2.690964 -0.378080 -1.471109 0.529874 2.858112 -1.792333 1.623341 -1.898710 -2.281520 1.541223 -1.424297 0.146116 -2.525093 0.089255 -0.980052 1.689991 -1.848791 -1.396445 2.651987 -0.651163 2.885016 1.774905 1.672091 0.642252 -1.683384 -0.653630 1.191294 1.667124 0.102663 0.390377 0.105683 -1.065293 0.374565 -1.101235 -0.077965 0.391301 1.611126 -0.999368 0.612187 -2.025859 -1.096268 -0.271046 -1.638767 1.113036 -1.499165 1.213888 0.380180 -0.271406 2.792371 2.898203
T002_18.5 3.176906 1.282377 1.432566 0.354900 0.506191 -0.947210 0.417241 -0.752581 0.360240 2.945768 -0.527687 2.753603 -2.951866 -0.767908 -0.637795 1.471443 1.823861 -0.459245 0.045735 -0.633809 3.210261 1.795583 0.342302 0.535587 -2.355167 0.191612 -0.433599 3.717016 -1.035067 -0.396054 1.149950 -1.020362 -1.557332 -0.109472 1.021947 0.938683 -0.030458 -1.177739 1.591533 1.839783 -0.525367 -1.534978 -0.275971 -1.992735 -0.257686 -0.996983 0.014517 -2.147862 0.973498 -2.617401
T002_26.5 -4.012611 1.182120 0.745757 0.785294 -1.109399 2.985346 -1.891587 0.208231 -0.179913 -2.558302 0.000777 -1.417767 1.502608 1.204168 -1.162047 -0.812847 -0.586595 1.113809 0.214350 -1.327986 -1.290727 -3.434668 -1.236134 0.048259 3.615263 -1.684356 0.611042 -1.186775 1.730240 1.092736 -0.388446 -0.049027 1.189582 1.437183 -0.497451 -1.768458 -3.021036 1.783338 -0.954328 2.747900 0.540816 2.504034 -2.229322 -1.167419 1.012480 1.883564 -0.467199 2.308661 -1.630611 -0.867567
T001_17.5 3.244843 0.951443 0.870185 0.675987 0.486295 -0.849266 0.640209 -1.309931 1.047747 2.749816 -1.040750 2.584301 -2.434291 -0.849117 -1.095087 1.742324 1.809153 -0.796950 0.317758 -0.001518 3.445989 1.970590 0.561694 0.892700 -2.047631 -0.033759 -0.105804 3.441756 -1.020722 -0.917171 1.897941 -0.982242 -1.101559 -0.966333 0.811043 0.987411 -0.037352 -1.245989 1.612685 1.814578 -0.716832 -1.192394 -0.120540 -2.150138 -1.139579 -1.043447 0.074398 -1.875870 0.851213 -2.200841
T003_19 4.252818 1.053000 0.325101 0.489218 0.671148 -1.824411 1.710237 -1.663421 -0.212904 2.044629 -1.189584 2.949545 -2.815683 -0.457934 -0.778674 1.891419 0.907953 -1.446993 1.031903 0.139889 3.106573 2.220900 0.840814 0.642952 -2.472888 -0.570229 -1.089931 4.188853 -1.159781 -0.753902 2.322230 -0.910183 -1.053879 -0.746210 1.137085 0.716355 0.699912 -1.173484 0.731678 0.474049 -0.918897 -1.575185 -0.149303 -1.065995 -0.789146 -0.965419 0.238314 -1.654078 1.322135 -1.205662
T004_19.5 3.741870 0.426536 -0.274739 0.515597 1.950705 -1.287537 1.945055 -2.341135 -2.032299 1.387509 -1.588983 1.240754 -2.662183 -0.518583 -1.055749 1.629830 -1.260197 -1.734707 2.542458 -0.604533 2.817120 1.937552 1.234892 0.863694 -1.803805 -0.633580 0.057896 2.286127 -0.493521 -0.153019 1.240027 -1.088114 0.424799 -0.673286 0.569157 0.688350 1.676055 -0.972347 0.095652 -1.348173 -1.246131 -0.147417 -1.145431 0.322009 -0.969697 0.693086 0.439665 -0.751457 1.866306 0.797378
T001_23.5 0.330802 2.762865 0.925553 -0.803309 1.409816 1.791886 -1.184360 1.433858 -0.289701 -0.120583 0.099150 -2.122706 0.870903 1.735733 -0.973397 -1.671642 0.832324 -1.368673 -2.498174 -0.384155 0.671706 -2.506239 -1.730490 -0.402008 1.421735 0.054307 1.453609 -1.388343 -1.046091 2.260605 -0.799913 0.770202 0.490307 -0.385262 -2.810240 -2.325400 2.066597 -0.865603 2.051293 1.336614 0.394197 1.740206 -1.646724 -0.793365 1.410490 1.158691 -2.794020 0.315936 -2.710140 -0.606304
T005_27 -3.402603 -0.678894 1.082681 -0.017436 -0.591236 1.938606 1.301872 0.470846 -1.665331 -2.743103 0.841092 0.144614 0.413504 -0.091267 -2.744704 -2.659572 -1.636970 0.369530 0.969675 -1.121183 0.035937 0.214652 -2.597695 0.095322 -0.378459 1.024043 2.515319 -0.264884 1.705300 0.925002 -3.651049 -0.994436 0.044068 1.246451 -0.535336 1.740978 -2.715394 0.297513 -0.086756 -1.924248 -1.681131 2.395104 0.746676 1.343781 2.292031 0.454663 -0.201544 0.608408 1.657854 2.311884
T005_19 3.206105 0.225790 1.272553 -0.217322 0.213679 -1.532892 2.099159 -1.201623 -1.213117 0.430018 -0.331646 2.986501 -2.710754 -0.709005 -0.944543 0.973014 0.821524 -2.087394 0.484099 -0.351070 2.641893 1.873657 -0.236460 0.200896 -2.109852 0.450231 -0.419282 2.933688 -0.196550 -0.415393 0.887397 -0.761386 -0.406360 0.678013 0.989155 0.772210 0.440998 -0.843078 0.009428 0.193336 -0.837924 -0.271142 -0.601486 -1.199726 0.585056 -0.497412 0.694659 -1.399774 1.919612 -1.681406
T005_27.5 -2.621790 -1.114577 0.980074 -0.122674 -0.471865 1.515697 0.894869 0.254779 -2.063295 -2.637813 0.826633 0.101406 0.635462 0.158970 -2.725164 -1.932969 -2.023363 0.727379 1.035490 -1.012488 -0.278119 0.473038 -1.943595 -0.157406 -0.061514 1.731385 2.215470 -0.445044 1.269824 0.670833 -3.700200 -0.593333 -0.188348 1.916908 -0.721272 1.673534 -2.839367 0.626992 -0.641558 -2.008518 -1.931105 2.696462 0.792714 1.142126 2.302564 0.603294 0.196501 0.711330 1.343695 2.929399
T001_18.5 2.505774 -0.080409 -1.146082 0.413853 1.253387 -1.095176 1.350561 -2.131770 -0.840379 0.441064 -2.009478 1.321794 -2.660702 -0.625272 -1.118045 2.007714 -1.421236 -1.324219 2.890992 -0.450409 2.397550 1.710756 1.628197 0.423495 -0.898508 -1.202399 -0.362586 1.767788 -0.608225 -0.637951 1.025913 -0.702283 0.686209 -0.754547 1.038749 0.455149 1.483187 -0.805711 0.125044 -0.381952 -0.394653 -0.999536 -0.943579 0.824881 -1.150283 0.315089 0.267131 -0.412040 2.055807 0.916372
T003_18 2.739624 1.243701 1.508908 0.886406 0.505157 -0.123826 -0.208404 -0.784158 1.295509 3.408750 -0.138644 2.634290 -2.116102 -0.579030 -1.139650 1.412712 2.865367 -0.317210 -0.353775 0.243926 3.631310 1.540969 0.639778 0.455259 -2.624857 0.317649 0.133126 3.170712 -0.972445 -0.379388 1.784358 -0.651248 -2.045932 -0.514427 0.937573 1.216459 -0.849830 -1.271632 1.989950 2.436908 -0.571428 -1.450935 -0.050019 -3.510799 -1.125436 -1.566751 -0.121431 -1.982065 0.307218 -2.985638
T005_18.5 2.662216 1.006565 2.112181 0.349981 -0.346215 -1.102005 1.047763 -0.790260 -0.181290 2.030827 0.069441 3.217277 -2.380689 -0.674070 -1.072096 0.882618 2.113101 -1.437064 -0.261026 0.107327 2.652300 1.843526 -0.123832 0.194929 -2.531454 0.598195 -0.235189 2.966185 -0.651036 -0.248388 1.095741 -0.571455 -0.990987 0.399398 0.721172 1.040568 -0.154888 -1.049185 0.601409 1.837889 -0.144245 -1.084425 -0.474712 -2.137478 0.604639 -1.376070 0.467969 -1.478260 0.985648 -2.660625
T003_26.5 -0.589313 1.837180 0.965026 -1.636814 0.346923 2.952629 -1.249970 -0.035543 -0.017877 1.182921 0.877953 -2.228980 3.069947 2.535209 -1.938977 -0.265429 1.056096 -0.392652 -2.061420 0.491586 -2.001354 -3.040628 -2.230326 -1.253777 0.055789 -0.814311 1.498445 -1.146060 0.614017 0.071579 -1.159405 0.399113 0.159647 -0.545158 -1.500554 -0.908626 0.994548 0.437280 0.191410 2.776777 0.690935 1.644882 -0.698559 -1.166875 1.386188 1.476365 0.632145 0.362540 -3.190711 -1.248316
T002_19 3.786529 0.427738 0.976571 0.256905 0.920318 -1.441785 1.452005 -1.571746 -0.255431 1.525685 -1.411659 2.900753 -3.180397 -1.021269 -0.435547 1.686211 0.611979 -0.965117 1.179513 -0.238241 2.991596 1.878042 0.807393 0.377842 -1.904713 -0.269868 -0.841996 3.722912 -0.921231 -0.371570 1.652861 -0.960109 -0.804909 -0.238985 1.132643 0.215392 0.272280 -0.905639 0.891064 0.817811 -0.523061 -1.218818 -0.634746 -0.971063 -0.420121 -0.498807 0.398496 -1.302609 1.276564 -1.400186
T002_18 2.900200 1.209493 1.236145 0.776022 0.544769 -0.240884 0.059270 -1.006464 1.259825 3.059445 -0.678362 2.231602 -2.102203 -0.893506 -0.825190 1.587252 2.125061 -0.268645 0.214103 -0.093561 3.399029 1.534179 1.017290 0.688192 -2.362991 0.070687 0.191696 3.328219 -0.876295 -0.489151 1.595202 -0.858664 -1.895628 -0.445776 0.562169 1.229602 -0.384985 -1.301701 1.670115 2.274075 -0.753452 -1.429771 -0.077987 -3.076443 -1.322834 -1.664691 0.073655 -1.860408 0.454746 -2.781291
T002_27 -2.538482 1.125574 1.281177 0.768653 -1.147329 2.602938 -1.140479 0.457096 0.048327 -2.074301 -0.682638 -1.499534 1.545661 1.401517 -0.934985 -0.834870 -0.779299 -0.057229 -0.038193 -0.611090 -1.595089 -3.061669 -1.787049 -0.550402 3.418811 -1.559173 0.279302 -0.812511 1.062415 0.892675 0.519861 0.294376 1.186369 0.560208 -0.677288 -1.810355 -2.274437 2.663982 -1.195537 2.437026 0.471020 2.714473 -1.604684 -1.472645 1.476690 1.612568 -0.236887 1.510136 -2.161522 -1.355251
T005_28.5 -3.619677 -0.684197 0.819173 0.164140 -0.743810 2.064185 0.937554 0.381728 -2.028352 -3.349551 1.080692 -0.348442 1.221762 0.276607 -2.351935 -2.264577 -1.890736 1.139443 0.489636 -0.864158 -0.173693 -0.482440 -2.264000 0.209043 0.478014 0.996772 2.739258 -0.957945 1.601821 0.694590 -3.377218 -0.796831 0.199553 0.975644 -0.896905 1.207201 -3.022378 1.269053 -0.535297 -1.405196 -2.031355 3.156573 0.340639 1.034141 2.209804 1.118767 0.079926 1.227909 1.632975 2.136300
T004_25.5 1.854923 4.489847 1.625816 0.146102 0.814718 -1.000632 -0.749830 1.639355 -0.378533 0.155919 0.918625 -1.896145 2.281076 1.340804 -0.232236 -0.042649 -0.106267 -1.539825 -1.504309 -0.111170 -0.170623 -3.329565 -0.456157 -0.706647 2.014324 -1.118038 -0.085333 0.553487 0.195956 1.129907 1.494339 0.913057 -1.931772 -0.459751 -2.804655 -3.333758 1.955077 -0.507798 0.891343 2.000361 1.590302 1.231406 -2.141978 -1.194612 3.064348 2.529451 -2.360141 1.209517 -4.716895 -1.230982
T002_27.5 -2.039649 1.914790 1.368790 0.365718 -1.066039 1.701236 -1.297312 0.295182 0.043517 -1.900661 0.160240 -0.994894 1.694173 1.165415 -1.413933 -0.945653 -0.510018 0.050744 -0.083085 -0.854982 -1.447515 -3.513538 -1.247820 -0.549369 2.946994 -1.415777 -0.379951 -1.011393 1.387804 0.956003 0.072703 0.105461 0.304717 0.756967 -0.610194 -2.314825 -1.987556 2.035873 -1.081677 2.300179 0.671047 1.834422 -1.441689 -1.277162 2.378293 1.612638 -0.576281 1.295516 -2.440871 -1.536412
T005_28 -3.257467 -0.592047 0.955414 0.267532 -0.828854 2.109873 0.958962 0.597456 -2.020967 -2.397005 0.715404 -0.670719 0.924058 0.076076 -2.593391 -2.266622 -1.660369 0.363293 0.682972 -0.502662 -0.035238 -0.014871 -2.201824 0.019187 0.060346 0.640414 2.653783 -0.502126 1.753078 0.763542 -3.257955 -0.829072 0.065476 0.869820 -1.146363 1.427225 -3.169785 0.692485 -0.555559 -1.933962 -1.786149 2.508656 0.552686 1.167572 2.105800 1.151092 -0.130493 0.954251 1.682693 2.256257
T003_27 0.376452 1.545978 1.088935 -0.961581 0.422509 1.256799 -0.715705 0.869220 -0.617956 0.735582 0.840663 -1.510380 2.535459 2.115280 -0.904642 -0.519253 0.686659 -1.328944 -1.710123 0.181409 -1.432045 -2.659247 -1.867920 -1.098227 0.423499 -0.055283 0.566205 -0.367892 0.391002 -0.169844 -0.307762 0.311119 -0.902505 -0.325725 -2.148968 -1.591705 1.296890 0.355941 0.086122 2.524359 0.826708 1.617600 -0.915942 -1.461332 2.357570 1.509299 -0.061404 0.537293 -3.293871 -0.939384
T002_28.5 -0.356502 3.400602 1.857326 0.063114 -0.458126 0.162860 -0.471771 1.315488 -0.662110 -1.411632 1.211468 -0.707251 1.209954 1.198736 -0.567864 -0.579547 -0.107939 -1.540601 -0.704853 -1.234962 -0.973539 -3.061219 -1.524950 -0.837670 2.142931 -0.927643 -0.026032 -0.235095 0.565297 0.408757 0.374958 0.002657 -0.601159 0.747451 -1.396075 -2.482630 0.044100 0.928000 -0.635897 2.562371 1.100648 1.469718 -1.891824 -1.139472 3.128653 1.829102 -0.858153 1.665221 -2.771623 -1.953286
T002_28 -0.466188 2.736690 1.521271 0.368404 -1.190761 0.816384 -0.507262 1.082837 -0.749143 -1.544014 0.697340 -0.738691 1.281401 1.205186 -1.367539 -0.845479 -0.001643 -0.878031 -0.239068 -0.901816 -1.098050 -3.206156 -1.479271 -0.803591 2.195217 -0.873866 -0.335095 -0.642808 0.745777 0.570329 0.137612 0.142118 -0.304168 0.452826 -1.095777 -2.367408 -0.968392 1.286690 -1.062893 2.239151 0.479172 1.621789 -1.611870 -0.797136 3.211788 1.620270 -0.679701 1.337271 -2.696804 -1.559779
T005_29 -3.261766 -0.619185 1.233867 0.623779 -1.120316 1.697266 0.055530 0.935488 -1.343234 -2.375181 0.960618 -0.501043 1.450418 0.542646 -1.664428 -1.474698 -1.180530 1.202814 0.451854 -1.197801 -0.119616 -0.836193 -1.881310 0.016015 0.701279 0.633521 2.157512 -0.386429 1.642083 0.641182 -3.062822 -0.885618 -0.423855 1.289153 -0.692032 0.638366 -3.141405 1.198924 -0.411215 -0.826041 -1.668538 2.651906 -0.188572 0.548216 1.478154 1.389945 0.396110 0.961840 0.345883 1.758478
T005_18 2.183083 1.109756 1.740564 0.256651 -0.452866 -0.677832 0.389674 -0.508373 0.849188 1.977354 0.050998 2.707286 -1.967438 -0.837780 -0.735351 0.786720 1.851417 -0.521743 -0.497117 0.099897 2.364434 1.508430 0.120372 0.405322 -2.182590 0.705456 -0.314378 2.750321 -0.360379 -0.433179 1.034154 -0.914684 -1.038614 0.183162 0.482559 1.250753 -0.288570 -0.923241 1.230703 1.786194 -0.178808 -1.182166 0.005318 -2.234612 0.083293 -1.361620 0.369968 -1.702955 0.941500 -2.518946
T002_29 1.162245 3.276522 2.113764 0.061081 -0.077480 -0.990819 -0.061608 1.758394 -1.237825 -0.700427 1.379262 -0.449161 1.086500 1.323772 -0.467073 -0.602878 -0.176901 -2.291652 -1.101292 -0.545813 -0.292281 -3.025068 -1.350086 -0.994302 2.000418 -0.257328 -0.324077 -0.077644 0.500772 0.222592 0.933083 0.466077 -0.628964 0.492797 -1.727304 -2.814524 0.736925 0.618215 -0.855478 2.243135 1.208196 1.437676 -1.351466 -1.318365 3.790868 2.012188 -0.909364 1.368535 -3.129083 -2.049443
T003_27.5 0.481489 1.949683 1.552620 -0.683701 0.549038 0.603591 0.295548 1.285050 -0.687467 0.239246 1.194533 -1.491823 2.161399 1.894913 -0.713649 -0.293324 0.589434 -1.686598 -1.683988 -0.067750 -0.642340 -1.936476 -1.904821 -0.807273 0.474443 -0.222314 0.550795 -0.130172 0.032778 0.129096 0.154349 0.540410 -0.804469 -0.332609 -2.005729 -1.844959 1.516989 0.496375 -0.738602 2.145865 0.531996 1.056120 -0.629501 -1.003144 2.610103 1.908400 -0.377846 0.312467 -2.791261 -1.154811
T005_29.5 -2.992405 -1.009923 1.020566 0.366114 -0.665800 1.630636 0.303151 0.347530 -1.767374 -2.281307 0.764533 -0.400844 1.942955 0.316444 -1.289527 -1.520735 -0.822583 0.902596 0.227513 -0.809908 -0.305857 -1.051509 -2.028074 -0.158945 0.843330 0.960256 1.870285 -0.607907 1.561070 0.854188 -2.261222 -0.834107 -0.059230 1.516148 -1.058678 0.570285 -2.114130 1.636355 -0.739433 -0.323461 -1.275196 2.829974 0.417985 -0.032088 2.195880 0.785738 0.581381 1.037843 -0.616922 1.280038
T001_24 0.772224 2.619391 1.379900 -0.125308 1.248321 0.343185 -0.232737 1.592457 -0.911015 0.185079 0.440912 -2.042789 1.071642 1.754744 -0.262927 -0.603873 0.819091 -1.746571 -2.412057 -0.168774 1.359450 -1.715753 -1.222494 -0.319585 1.112174 0.185269 1.032048 -0.497874 -0.859896 1.775284 0.404791 0.503564 -0.390991 -0.368462 -2.236573 -2.587248 2.128870 -0.123996 0.613985 1.422974 0.329859 1.528467 -1.573275 -1.166289 1.755480 1.191919 -2.158938 0.668115 -3.191137 -1.213551
T004_18 2.615187 1.327380 0.073623 0.481897 0.754762 -0.492243 -0.342562 -1.114431 1.300301 2.898125 -1.286193 1.168229 -1.372908 -0.883461 -0.659541 1.661443 0.638002 -0.078963 0.758929 0.404067 2.223522 1.321998 1.376376 0.580089 -1.263870 -0.563459 -0.263804 2.480963 -0.443256 -0.843223 2.043314 -0.503382 -0.840424 -1.060775 0.728004 0.904350 0.078332 -1.044380 1.436306 0.949444 0.091719 -1.301349 -0.202365 -1.640422 -1.503476 -0.752821 0.211005 -1.665164 0.552522 -1.318334
T005_30 -2.870286 -0.220061 1.427326 0.367834 -0.961593 1.969264 0.109855 0.570982 -1.594813 -2.199596 0.353086 -0.390934 1.678026 0.837048 -1.641504 -1.357393 -0.817676 0.156521 -0.327660 -0.661420 -0.749577 -1.565143 -2.136480 -0.065754 0.942813 0.419999 1.165885 -0.757824 1.464504 0.319787 -1.511710 -0.605583 0.087528 1.794964 -0.577359 0.351099 -2.021711 1.589893 -0.921400 0.548309 -0.705840 2.886393 -0.213249 0.141550 1.927581 1.522568 0.865177 1.378189 -1.384112 0.516498
T004_26 1.503505 3.457716 1.919231 -0.231085 0.908655 -0.694544 0.283477 1.451054 -1.072438 0.060106 1.119036 -2.003638 2.141214 1.964273 -0.120952 -0.147320 0.338826 -2.116812 -2.740567 0.117672 0.746110 -2.907622 -1.128743 -0.726280 1.860922 -0.861225 0.305004 0.342486 -0.265842 0.799898 2.160731 1.481429 -1.230649 -0.365316 -1.939890 -3.098812 2.217219 0.365130 0.015027 1.906908 1.212410 1.466990 -2.362738 -1.397501 2.642837 1.871325 -2.090162 1.282221 -3.435827 -1.555117
T003_28 1.236820 2.002078 1.249630 -0.817273 0.852728 0.745858 0.437507 0.722682 -0.680231 0.475693 0.987966 -1.452861 2.191967 1.616028 -1.161961 -0.208410 0.169859 -1.388885 -1.935788 0.161519 -0.350465 -1.981981 -1.580010 -0.694365 0.767986 -0.344635 0.733784 0.007070 0.065258 0.323820 0.443796 0.789485 -0.955977 -0.717806 -2.019980 -1.984874 1.638821 0.708595 -0.447201 1.528444 0.437919 1.388320 -0.772875 -1.461288 2.269829 1.391537 -0.372005 -0.052531 -2.779933 -1.225693
T002_29.5 1.081167 3.233869 1.862906 -0.155072 0.358881 -1.327884 0.292276 1.554665 -1.493795 -0.519433 1.226475 -0.977982 0.895528 1.045185 -0.060201 -0.483970 -0.204214 -2.099161 -1.641952 -0.523424 0.380027 -2.379150 -1.019170 -0.931030 1.913055 -0.545731 -0.327284 0.433810 0.135072 0.874937 0.937131 0.530193 -1.186136 0.321590 -1.416062 -2.890195 0.818342 0.507428 -0.070203 1.591611 0.791677 1.138208 -1.556758 -1.069679 3.233328 1.693196 -1.308977 1.165922 -2.724463 -1.773070
T005_30.5 -2.449102 0.301594 1.514164 0.045555 -1.481166 1.985534 0.070197 0.504994 -1.495703 -2.365138 0.386890 -0.780849 2.115037 0.777803 -1.686920 -1.725688 -0.868815 0.162328 -0.297819 -0.093740 -1.150608 -2.001963 -2.078599 -0.542858 1.049818 0.396289 1.084512 -0.890614 1.744352 0.306009 -1.632242 0.079185 0.248043 1.308581 -0.829456 -0.105449 -1.684646 1.876821 -1.300460 0.780000 -0.760779 3.143117 -0.227882 -0.331809 2.535326 0.863862 0.785954 1.120480 -1.784320 0.465741
T005_31 -1.658050 0.632945 1.789618 -0.099776 -0.978897 1.308286 0.406410 0.630964 -1.276374 -2.037989 0.316419 -0.742883 2.065791 0.908769 -1.406807 -1.595878 -0.543678 -0.528084 -0.546503 -0.616635 -0.983960 -1.984741 -2.243472 -0.568072 1.162322 0.226313 0.485663 -0.418386 1.549073 0.145517 -0.916645 -0.134989 -0.009969 1.601264 -0.960192 -0.690297 -1.522886 2.085298 -1.572613 1.090409 -0.329121 2.479908 -0.371931 -0.772545 3.172250 0.769465 0.640857 0.957532 -1.987474 -0.776452
T005_31.5 -0.610193 1.482809 2.262619 -0.417422 -0.652785 0.933744 0.566050 0.662904 -2.054318 -1.491334 1.179116 -0.437198 1.844575 1.007177 -1.429057 -1.473128 -0.079410 -1.453752 -1.104815 0.060624 -1.217134 -2.268856 -2.250407 -1.053264 0.651330 0.320582 0.163310 -0.625662 1.274489 0.201265 -0.950837 0.017655 -0.070748 1.106445 -1.106945 -1.109563 -0.734581 1.911474 -1.699683 1.206998 -0.085110 2.262573 -0.166222 -0.700484 3.779314 1.340706 0.669017 0.780475 -2.381198 -1.232232
D001_CLOSE 0.204632 -0.127319 -0.030015 -1.043681 -1.473597 0.172272 -1.132882 -0.746278 0.071418 0.093420 0.657272 -1.210732 -1.057365 -0.245127 1.644289 -0.341281 0.747423 -0.766217 -1.517303 0.479008 -0.137366 -2.538460 1.734810 1.409413 -2.046370 0.644211 0.162116 -0.799921 1.365231 0.865522 -1.692137 0.428973 1.065770 -0.658501 0.517401 1.074815 -0.208835 -0.685769 -1.595500 -1.224950 -0.217830 -2.097647 -0.187848 1.940933 0.802914 0.675043 0.380859 -0.474391 1.204044 0.179017
D001_OPEN 0.469032 -0.003028 -0.028619 -0.938211 -1.273447 -0.073060 -1.018101 -0.598873 0.063139 -0.127349 0.357204 -1.182316 -1.141343 -0.239586 1.450602 -0.512627 0.665583 -0.671745 -1.287509 0.380287 -0.074074 -2.362988 1.764517 1.507108 -2.097468 0.212810 0.284456 -0.639582 1.250948 0.849937 -1.955934 0.117096 0.847494 -0.575463 0.441002 0.808482 0.056977 -0.471085 -1.553815 -1.448354 -0.305566 -1.792670 -0.201442 2.123280 1.111431 0.746979 0.707197 -0.695478 1.095501 0.496509
T005_32 -0.277508 1.755978 2.320024 -0.156952 -0.589411 0.117294 0.875848 1.371691 -2.059563 -1.386549 1.336186 -0.336012 1.588366 1.038853 -1.111289 -1.071500 -0.079936 -2.235338 -1.300405 -0.763940 -0.925950 -1.775479 -2.188306 -1.003711 0.626693 0.408258 0.178938 -0.287406 1.067714 -0.208474 -0.629893 0.081237 -0.778441 1.135015 -1.093588 -1.101294 -0.355849 1.408243 -1.566478 1.380019 0.030447 1.946551 -0.441472 -0.461598 4.131138 1.216156 0.256749 1.239125 -2.042738 -1.337401
T003_28.5 0.968279 1.100894 1.167413 -0.810999 0.826663 0.542246 0.979332 0.890384 -0.835248 0.125173 0.654292 -1.029130 1.979994 1.586614 -0.434545 -0.366923 0.734164 -1.724074 -1.725847 0.171568 0.522524 -1.126394 -1.532987 -0.750219 0.375713 -0.329109 0.360467 0.404512 -0.339565 0.042359 0.626835 0.714081 -0.921526 -0.377261 -0.967981 -1.498441 1.270005 0.556219 -0.492588 1.126229 0.067132 1.332702 -0.956005 -1.360092 1.550775 1.350762 -0.081667 0.255869 -1.898101 -1.111175
T005_32.5 0.549305 1.671935 2.179129 -0.077105 -0.024417 -0.659830 1.057613 1.623698 -1.685940 -0.920380 1.375450 -0.259692 0.994977 1.403590 -0.526868 -0.932672 0.096633 -2.689176 -1.474299 -0.490864 -0.235628 -1.471673 -1.875037 -1.034353 0.593476 0.468806 0.377322 -0.022267 0.490632 0.123105 -0.076199 0.290579 -0.627959 0.485746 -1.149393 -1.712762 0.448749 1.250379 -1.218806 1.362971 0.023817 1.741195 -0.547432 -0.924471 3.829080 1.298319 -0.044664 0.987086 -1.801715 -1.247553
T001_17 1.719418 0.665016 0.851133 0.186364 0.283474 -0.295207 0.157094 -0.275620 0.877219 1.660315 -0.136641 1.712051 -1.252960 -0.634394 -0.179825 0.735129 1.538819 -0.029142 -0.144099 0.175751 1.388603 1.163359 0.412797 0.261184 -1.101370 0.300067 -0.642193 1.982451 -0.543931 -0.436685 1.308403 -0.196948 -0.896538 -0.360911 0.927457 0.640479 -0.429216 -0.804278 0.943560 0.949399 -0.193260 -1.177727 0.288724 -1.398003 -0.753426 -1.114808 -0.032793 -0.970967 0.159008 -1.750303
T002_30 1.711829 2.113739 1.598758 -0.197260 0.684415 -0.996956 1.089182 1.508609 -1.525724 -0.025870 0.894973 -0.706533 1.508394 1.297011 -0.189768 0.009657 0.447792 -2.136296 -1.514237 -0.267721 0.554912 -1.774442 -1.177373 -0.959947 1.240533 -0.437484 0.312713 0.379510 -0.223439 0.438004 1.318763 0.800609 -0.999742 -0.041929 -1.068748 -2.489732 1.145815 0.632786 -0.584607 1.246525 0.264503 1.368297 -1.228716 -1.566769 2.295592 1.609265 -0.930548 0.711913 -2.225150 -1.647598
T004_26.5 1.345289 2.305737 1.404902 -0.155110 1.169261 -0.726945 0.490625 1.318213 -1.135262 0.110526 0.534291 -1.455828 1.871417 1.343735 0.052375 0.045462 0.809475 -2.135409 -1.699683 0.204837 0.724141 -1.829840 -0.873893 -0.596510 1.352233 -0.711184 0.170671 0.046039 -0.356258 0.412360 2.018852 1.085333 -1.140864 -0.451347 -1.181746 -2.251471 1.390994 0.495912 -0.287232 1.174306 0.314255 0.801966 -1.661298 -1.190545 1.604152 2.019406 -1.516714 1.031557 -2.916537 -1.422657
D002_CLOSE 0.390056 -0.679846 0.562071 -0.928611 0.025120 0.802076 0.028449 -1.551095 -0.178066 0.292264 -0.279834 -1.926585 -1.608155 -0.624166 1.111348 -2.062206 -0.288782 0.871260 -0.781119 1.313266 -0.931409 1.674550 0.629153 -0.043741 -0.354402 1.257243 -0.515947 1.968603 -0.350214 1.978547 -0.415440 -1.447179 0.022018 -0.381041 -1.172346 0.559980 0.140529 0.381927 0.227883 0.076672 -0.592785 -0.994332 -0.165833 -1.072928 0.338974 -0.392480 -0.859065 -0.025161 1.189432 -0.773377
D002_OPEN 0.072061 -0.105556 0.918998 -0.808390 -0.247779 0.607479 0.149233 -1.134609 0.029682 0.173928 -0.191593 -1.978705 -1.755483 -0.438271 0.993490 -2.001282 -0.141743 1.067932 -0.187923 1.084087 -1.426136 1.566255 0.611658 0.285232 0.247891 1.579734 -0.152539 1.894848 -0.118088 1.544404 -0.902364 -1.335471 -0.000042 -0.223139 -0.467807 0.396844 0.288778 0.510144 0.162220 -0.304613 -0.664442 -1.179395 0.134878 -0.988995 0.270782 0.051913 -0.895236 -0.436733 1.629633 -0.805332
T005_17.5 1.299179 0.622304 0.830479 0.525773 -0.250090 -0.493415 0.031327 -0.134787 0.568193 1.633041 0.026748 1.716017 -1.163723 -0.287689 -0.587202 0.871170 1.333568 -0.295211 -0.118408 0.133839 1.624142 0.886843 0.155520 0.271524 -1.336721 0.231425 0.019272 1.642668 -0.112339 -0.224423 0.702863 -0.701479 -0.831045 -0.195701 0.327408 0.549780 -0.530126 -0.528992 0.974388 1.367441 -0.055084 -0.608550 -0.047522 -1.629891 -0.147903 -0.817567 0.236763 -1.159328 0.182875 -1.411946
T001_24.5 0.619783 2.192868 0.875752 -0.094213 1.097227 0.027930 0.329246 1.082303 -0.892670 0.025819 0.285429 -1.507117 1.541043 1.099561 -0.311789 -0.048289 0.425545 -1.841112 -1.815315 0.075829 0.548498 -1.441752 -0.979404 -0.473310 1.211844 -0.350456 0.353584 -0.042150 -0.516627 0.770287 1.244161 0.385499 -0.367548 -0.264101 -1.403128 -2.085137 1.459178 0.410841 0.386752 0.921393 0.403087 1.278610 -1.423612 -0.718557 1.499654 1.161699 -1.406214 0.760034 -2.594349 -0.817781
T003_29 0.531804 1.478496 1.137889 -0.364641 0.640969 0.302401 0.747976 0.894446 -1.093233 0.001483 0.634300 -1.191920 1.752468 1.170760 -0.363873 -0.375150 0.345154 -1.356990 -1.371108 0.018744 0.236816 -1.328000 -1.276334 -0.646581 0.521013 -0.316792 0.088502 0.278538 -0.302806 0.025007 0.963127 0.366277 -0.672432 -0.326100 -0.632462 -1.397780 0.966616 0.656980 0.026937 0.870353 0.016932 1.167966 -0.846748 -0.996977 1.570591 1.365734 -0.492595 0.669519 -2.137723 -1.038262
T005_33 1.013738 1.759453 1.609149 -0.284624 0.185539 -0.959017 1.300812 1.292594 -1.924550 -0.404037 0.996468 -0.483906 0.977120 0.969648 -0.217922 -0.424210 0.390733 -2.265434 -1.651836 -0.375019 0.496070 -1.221377 -1.294617 -0.891995 0.663359 -0.249917 0.474357 0.437212 -0.089881 0.526247 0.419310 0.354983 -0.747822 0.215421 -0.984704 -1.787960 1.100118 0.862931 -0.855361 1.258731 -0.038304 1.260607 -0.895701 -0.972160 2.478827 1.126792 -0.317797 0.615153 -1.564254 -1.222990
T003_29.5 0.308317 1.212561 0.880515 -0.401094 0.377546 0.684043 0.451509 0.665780 -0.580652 -0.132246 0.526771 -0.958961 1.514118 1.262078 -0.793617 -0.343203 0.395697 -1.351839 -1.173590 0.195395 0.098385 -1.039725 -0.835000 -0.135151 0.396914 -0.331146 0.471270 -0.103677 -0.088862 0.125537 0.791179 0.422518 -0.727361 -0.226874 -0.896092 -1.039372 0.825103 0.435116 -0.255461 0.591051 0.018961 0.921272 -1.054481 -0.721965 1.178597 0.816694 -0.460303 0.308790 -1.918578 -0.859112
T002_30.5 1.072828 1.726405 1.144184 -0.340663 0.953572 -0.858670 1.196469 1.575772 -1.613987 -0.221476 0.962261 -0.578683 1.318846 1.415797 -0.286470 -0.051795 0.469859 -2.217087 -1.451815 -0.118661 0.719286 -1.470787 -1.236755 -0.721022 0.986897 -0.351699 0.156570 0.310988 -0.390400 0.267168 1.559637 0.685493 -1.015214 0.025776 -0.880024 -1.774732 1.009896 0.739879 -0.469172 0.884796 -0.043505 1.270578 -0.797658 -1.103348 1.946580 1.433594 -0.942840 0.891999 -1.990472 -1.406223
T002_17.5 1.659233 0.745477 0.460090 0.419387 0.429683 -0.297974 0.091510 -0.392166 0.542698 1.429506 -0.598370 1.112478 -0.957210 -0.454467 -0.281583 0.689323 0.752421 -0.201247 0.348798 0.122219 1.111686 0.762851 0.598501 0.346676 -0.827771 -0.052069 -0.381609 1.554115 -0.448891 -0.348450 1.175430 -0.353720 -0.904155 -0.504867 0.610795 0.365158 -0.195210 -0.592279 0.868765 0.755639 -0.385383 -0.812574 0.056236 -1.072474 -0.771287 -0.452820 -0.154049 -0.849562 -0.004730 -1.076047
T005_33.5 0.980751 1.373842 1.710943 -0.281022 0.344564 -0.568143 1.338681 1.114749 -1.603285 -0.370977 0.829315 -0.444770 1.025521 1.139238 -0.110769 -0.187643 0.571005 -2.019328 -1.460559 -0.607159 0.700845 -1.272516 -1.356831 -0.598715 0.416692 -0.223641 0.342915 0.516742 -0.229930 0.597401 0.692986 0.371529 -0.744122 0.198839 -0.827603 -1.690091 0.987879 0.708257 -0.711080 0.915992 -0.094783 1.367934 -1.156325 -1.009184 1.873875 1.060721 -0.229373 0.623833 -1.541634 -1.085899
T003_30 0.228611 0.796832 0.528185 -0.526352 0.386747 0.721438 0.213680 0.321180 -0.124984 0.125259 0.517530 -0.764051 1.252575 0.829098 -0.742615 -0.361830 0.434253 -0.548751 -1.082988 0.153831 -0.213365 -0.874997 -0.824949 -0.154306 0.397394 -0.004961 0.284533 0.049189 0.148087 -0.046851 0.514462 0.408074 -0.815648 -0.438139 -0.664353 -0.738678 0.227886 0.224627 -0.082317 0.468505 0.249376 0.579797 -0.063617 -0.591958 1.018942 0.796565 -0.523099 0.250274 -1.452638 -0.659389
T003_17.5 1.335411 0.615547 0.477654 0.402655 0.164286 -0.326822 -0.132843 -0.257992 0.574054 1.269902 -0.282304 1.155949 -0.765206 -0.281794 -0.339488 0.878321 0.903145 -0.084682 0.148161 0.113642 0.938984 0.637689 0.348103 0.333547 -0.998893 -0.087568 -0.220286 1.593810 -0.210701 -0.350880 0.889536 -0.529826 -0.731997 -0.534882 0.353500 0.384772 -0.261227 -0.604937 0.809412 0.970356 -0.053750 -0.684098 -0.114004 -0.969499 -0.564961 -0.377326 0.052734 -0.860909 0.072009 -0.971123
T001_25 0.506113 1.699201 0.572705 -0.143673 0.535272 -0.097580 0.344280 0.973921 -0.846000 0.053765 -0.047386 -1.146323 1.382212 1.072320 -0.168958 -0.049555 0.358579 -1.483905 -1.439859 0.421552 0.691274 -1.167948 -0.462158 -0.328709 0.876470 -0.748022 0.161998 -0.441753 -0.404852 0.305085 1.051857 0.275500 -0.173521 -0.612931 -1.019862 -1.647290 1.126373 0.456872 0.170553 0.724543 0.221096 0.820160 -0.888659 -0.720633 1.083584 0.990436 -1.035718 0.734928 -1.978364 -0.626032
T004_27 0.962544 2.009694 0.784471 -0.185046 0.957575 -0.294427 0.575513 0.723376 -0.973078 -0.049332 0.164635 -0.751088 1.498435 0.932545 -0.488298 -0.028270 0.479346 -1.816933 -1.112815 0.269713 0.672941 -1.314911 -0.609987 -0.300979 1.162424 -0.812131 -0.055571 -0.272682 -0.351787 -0.123157 1.175291 0.499741 -0.520766 -0.506499 -0.665828 -1.415565 0.718532 0.495497 -0.073203 0.643018 -0.058154 0.990813 -1.078912 -0.883928 1.477900 1.418268 -0.860482 0.773095 -2.115908 -1.003258
T005_34 0.946167 1.417008 1.200563 -0.017557 0.442812 -0.544739 1.011705 0.908897 -1.349125 -0.175246 0.257824 -0.393802 0.928216 0.761318 -0.347085 0.024633 0.334599 -1.812589 -1.134043 -0.025460 0.870377 -0.726768 -0.790428 -0.459224 0.581179 -0.032842 0.311422 0.474984 -0.203489 0.175315 0.954607 0.249137 -0.686576 -0.081086 -0.640217 -1.376999 0.900961 0.551926 -0.235498 0.771634 -0.250016 1.238488 -0.975166 -0.854552 1.344347 1.038873 -0.357273 0.537454 -1.480598 -0.887123
T003_30.5 -0.173969 0.287672 0.325479 -0.190363 0.305490 0.678422 0.143287 0.204194 -0.171017 0.022684 0.213090 -0.530508 0.683704 0.692753 -0.599756 -0.006733 0.133292 -0.541083 -0.709383 -0.035157 -0.104640 -0.435108 -0.535035 -0.268274 0.100702 -0.206039 0.095955 0.010161 0.052209 0.156671 0.095907 0.231080 -0.274854 -0.105703 -0.477051 -0.530189 0.104913 0.081731 -0.209606 0.350931 0.071408 0.410436 -0.130642 -0.297182 0.557245 0.352204 -0.120481 0.039713 -0.915388 -0.378247
T002_31 0.759712 1.258400 0.926020 -0.228360 0.460411 -0.355079 0.879852 0.998760 -1.005558 0.005644 0.443439 -0.618104 1.080877 0.693383 -0.253979 -0.004248 0.666118 -1.606559 -1.155549 0.146519 0.689637 -0.849067 -0.602112 -0.396108 0.726036 -0.192399 0.231958 0.086917 -0.388081 0.064120 0.856394 0.469238 -0.608014 -0.066256 -0.532926 -1.220553 0.532027 0.534939 -0.218213 0.424730 -0.239977 0.649854 -0.755133 -0.723563 1.277024 1.030946 -0.556324 0.778257 -1.456626 -1.045001
T001_25.5 0.465115 1.404326 0.669903 -0.109307 0.595000 0.056287 0.441638 0.352135 -0.511358 -0.095116 -0.038511 -0.795287 0.996587 0.667188 -0.392034 -0.044424 0.326418 -1.217324 -1.099050 0.307767 0.676442 -0.779074 -0.357134 -0.057229 0.609765 -0.567414 0.128619 -0.172138 -0.361104 0.048912 0.854513 0.192304 -0.293572 -0.319874 -0.666687 -1.055069 0.569411 0.483021 0.049676 0.443028 -0.003090 0.692081 -0.802139 -0.316225 0.821499 0.936006 -0.679348 0.648347 -1.550558 -0.522635
T005_34.5 0.797569 1.093347 0.847054 -0.064452 0.538536 -0.321218 0.853237 0.694024 -0.801912 -0.166953 0.148126 -0.413637 0.679271 0.752610 -0.258823 0.025851 0.332483 -1.530749 -0.767887 -0.118157 0.638677 -0.499858 -0.560888 -0.204328 0.349901 -0.208816 0.343063 0.407316 -0.024293 0.063430 0.648999 0.012574 -0.544147 -0.165318 -0.633307 -0.892077 0.532350 0.502305 -0.232240 0.450054 -0.306966 0.894325 -0.723071 -0.605700 1.201398 0.979199 -0.465740 0.464702 -0.979401 -0.672314
T004_27.5 0.816360 1.146032 0.586476 -0.039295 0.550575 -0.206262 0.597532 0.292369 -0.519385 -0.111581 0.038892 -0.312582 0.857670 0.507334 -0.391522 0.029653 0.384956 -0.953945 -0.720704 0.017804 0.422379 -0.671589 -0.163728 -0.081953 0.402870 -0.459848 0.118185 0.087612 -0.175071 0.080530 0.910593 0.025433 -0.425530 -0.401984 -0.552787 -0.885885 0.505746 0.408192 0.010486 0.407872 -0.137703 0.527045 -0.682157 -0.399100 0.838923 0.844981 -0.548213 0.487881 -1.129746 -0.433383
T003_31 0.155320 0.453483 0.222052 -0.101667 0.209813 0.174754 0.126506 0.135471 -0.295215 0.065075 0.280918 -0.594773 0.528619 0.398758 -0.308648 -0.131600 0.150383 -0.450634 -0.680409 0.072420 0.064965 -0.374810 -0.189850 -0.119816 0.328558 -0.082616 0.291284 -0.057444 -0.076958 0.139537 0.112075 0.095540 -0.224876 -0.052203 -0.723248 -0.458488 0.362760 0.148110 -0.124243 0.422366 0.108177 0.300859 -0.215525 -0.501125 0.581910 0.289493 -0.281376 0.167767 -0.764337 -0.370813
T003_32.5 0.098458 0.347953 0.259930 -0.182496 0.290204 0.315851 0.145896 0.044839 -0.077670 -0.033501 0.027819 -0.478625 0.797907 0.357559 -0.359655 -0.209956 0.144052 -0.453666 -0.530538 0.290646 0.252741 -0.421143 -0.128478 -0.008028 0.348001 -0.266974 0.052319 -0.211067 -0.103060 -0.043828 0.385831 0.271687 -0.093883 -0.151938 -0.326229 -0.418432 0.306758 0.384857 0.039029 0.310790 0.244914 0.433170 -0.199385 -0.549278 0.373534 0.237149 -0.243786 0.086750 -0.826459 -0.200648
T003_32 0.226564 0.560055 0.215970 0.013265 0.209578 0.167299 0.069484 -0.070332 -0.258915 0.317405 0.032867 -0.633036 0.641949 0.297264 -0.431830 -0.177827 0.166806 -0.407018 -0.635649 0.343481 0.394956 -0.198580 -0.268858 -0.116975 0.182734 -0.097759 0.249728 -0.100149 -0.050280 -0.066054 0.288581 0.127731 -0.372380 -0.169092 -0.528197 -0.460122 0.336947 0.198533 0.221991 0.281319 0.024650 0.403936 -0.296603 -0.450215 0.521462 0.119852 -0.411831 0.174333 -0.799112 -0.165991
T003_31.5 0.011007 0.095127 0.267332 -0.077702 0.230112 0.486560 -0.017741 0.008766 -0.117593 0.177451 0.126822 -0.470935 0.507188 0.519185 -0.445454 -0.133065 0.059975 -0.195855 -0.492192 0.243805 0.027942 -0.417587 -0.377740 -0.304592 0.172126 -0.051519 0.118019 -0.060675 -0.024357 0.241523 0.091964 0.224659 -0.288230 -0.068997 -0.384751 -0.391882 0.031721 0.213410 -0.044388 0.294729 -0.072116 0.361911 -0.093440 -0.376203 0.363982 0.202390 -0.191539 0.164204 -0.633440 -0.237458
T001_26 0.369825 0.885041 0.576212 0.051414 0.152328 0.049318 0.459848 0.334766 -0.363559 -0.295026 0.009048 -0.202529 0.667069 0.457198 -0.406278 -0.087148 0.266989 -0.779258 -0.587085 0.082340 0.617664 -0.420059 -0.165496 0.095702 0.173594 -0.329858 0.088237 -0.046419 -0.159102 0.035267 0.739385 0.024000 -0.386687 -0.417283 -0.293456 -0.583302 0.253879 0.307179 0.038990 0.475063 -0.056692 0.486208 -0.524630 -0.307524 0.628515 0.507670 -0.451412 0.427322 -1.159689 -0.272678
T002_31.5 0.294810 0.734178 0.648974 -0.042808 0.436692 -0.160535 0.670240 0.555687 -0.550670 -0.337162 0.272027 -0.242505 0.752582 0.505304 -0.279624 -0.114281 0.423704 -0.926180 -0.687652 0.007189 0.466805 -0.518752 -0.221806 -0.052480 0.272992 -0.380680 -0.058686 -0.012261 -0.120170 0.080189 0.740841 0.106860 -0.398570 -0.333884 -0.197904 -0.628148 0.198764 0.448052 -0.081026 0.308060 -0.202817 0.432728 -0.397664 -0.294183 0.801794 0.661067 -0.417129 0.605383 -1.120049 -0.363192
T005_35 0.427777 0.652204 0.504657 -0.120732 0.455684 -0.182923 0.544124 0.310282 -0.632214 -0.102796 0.171587 -0.162303 0.521846 0.479040 -0.377180 -0.014077 0.394336 -0.899301 -0.626593 0.167021 0.483996 -0.222962 -0.314586 -0.065954 0.250559 -0.247119 0.081788 -0.032184 -0.267446 -0.036178 0.599519 0.136164 -0.362925 -0.184227 -0.209634 -0.654210 0.057538 0.470858 -0.099166 0.241329 -0.287646 0.344036 -0.216537 -0.336513 0.651505 0.509991 -0.378692 0.446467 -0.977070 -0.329437
T003_34 0.009614 0.393162 0.134821 -0.026354 0.146558 0.304684 -0.038422 0.027971 0.193160 -0.003443 0.042015 -0.377082 0.350380 0.310826 -0.151425 -0.160406 0.137210 -0.186888 -0.368408 0.117008 -0.142510 -0.269974 -0.171237 0.013110 0.147907 -0.153061 -0.053905 -0.028840 0.002008 -0.126187 0.152224 0.191633 -0.209102 0.020456 -0.190046 -0.145766 -0.020082 0.146944 0.042458 0.217306 0.106575 0.009254 -0.217497 -0.149247 0.247290 0.269057 -0.106592 0.199561 -0.442016 -0.204903
T003_33 0.092089 0.393517 0.053218 -0.022835 0.084076 0.155030 0.148557 0.047789 -0.134183 0.148454 -0.041131 -0.344130 0.509357 0.191177 -0.228231 0.008614 0.017216 -0.247448 -0.250308 0.111423 0.281489 -0.220030 -0.098701 0.030810 0.159941 -0.198947 0.283540 -0.058824 -0.017705 -0.046526 0.187107 0.018705 -0.034616 -0.128392 -0.350824 -0.207152 0.091486 0.124518 0.194519 0.310733 0.073412 0.253485 -0.163799 -0.247512 0.251128 0.169677 -0.119887 0.187178 -0.407018 -0.153661
T003_33.5 0.296413 0.410010 0.180379 0.073057 0.169832 -0.083040 -0.018685 -0.049475 -0.128869 0.185702 -0.133787 -0.213477 0.212749 0.168762 -0.309244 -0.136725 0.063203 -0.389442 -0.186657 0.383030 0.393928 -0.010964 -0.016280 0.066376 -0.025719 -0.048754 0.248188 0.138531 -0.107672 -0.022356 0.208445 -0.109274 -0.044977 -0.213856 -0.163818 -0.117324 0.191680 0.164492 0.103773 0.186411 -0.034411 0.079169 -0.266923 -0.271891 0.250549 0.153819 -0.007672 0.069027 -0.424200 -0.096818
