117 400
M009_ON 0.520743 -0.216199 -1.178878 0.296625 -0.166404 0.056372 -0.278082 1.213348 0.146232 0.349195 0.403782 -0.020358 0.063836 1.076764 -0.482866 0.836269 -0.387429 -0.125837 0.216236 0.328677 0.034292 -0.882474 -1.338777 0.497375 -0.492769 -0.164675 0.131347 -0.468196 -0.617764 0.311854 1.302635 0.396562 -1.552563 -1.193234 -0.918757 0.013415 0.258942 -0.256904 -0.594044 -0.690553 0.408555 0.163447 -0.068838 -0.005032 -0.447529 -0.174266 1.077280 0.010195 0.753240 -1.103891 -0.167401 -0.677412 0.589397 -0.871548 0.220455 0.112874 1.541090 -0.018018 -0.531256 0.329108 0.254496 0.814309 0.576656 0.955186 -0.331467 -0.993988 0.005469 0.331972 0.266833 0.449781 0.478506 -0.199515 1.242560 -1.163502 0.214574 -0.010401 0.263542 0.244267 1.024886 -0.467396 -0.229016 0.833707 -0.495721 -0.439469 -1.188034 -0.361366 0.381257 0.449883 0.964883 1.113304 0.667241 0.437694 -0.777370 0.434854 -0.100081 -0.559456 -0.029197 -0.510681 0.088460 -0.364692 -0.387255 -0.749456 -0.428147 0.528097 0.229218 -0.870803 -0.402465 -0.418819 -0.066293 0.711399 0.371395 -1.282967 0.879608 1.038943 -0.620502 -0.080815 -0.930015 -0.728050 0.546234 -0.322203 0.593585 -0.081985 -0.427569 -0.286324 0.126636 1.250065 0.872606 0.413545 -0.128642 -0.633671 0.669260 0.197859 1.099342 0.116049 -0.360951 0.497774 0.487776 0.487530 1.511976 -0.133036 0.531332 0.191700 0.607383 0.185508 -0.625596 -0.053525 -0.566006 0.215405 -0.348931 0.135858 0.368066 0.288155 -0.365060 -0.103704 0.146570 -0.907136 -0.345365 0.698488 0.140505 -0.901847 -0.499452 -1.012082 -0.965364 0.643340 -0.255776 1.309534 -0.234266 -0.054787 0.407833 0.774043 -0.451698 0.002377 0.823082 -0.041076 0.278326 -0.693720 -0.752650 -0.765073 0.200303 -0.490898 0.169145 0.543397 -0.569485 -0.084424 0.325554 1.118600 0.061578 0.094496 -0.546636 -1.590255 -0.005431 -0.377436 -1.074388 0.422498 -0.411555 -0.022058 0.331073 0.206726 -1.160264 -0.323548 -0.551626 0.201679 -0.271276 -0.268136 0.152472 -0.075918 0.732291 0.226109 -0.798800 0.829837 0.563784 -0.815095 -0.276945 0.175453 0.645688 -0.161188 0.070167 0.342718 0.515037 -0.849422 0.083554 0.559169 0.057611 0.092510 0.406637 -0.692889 -0.848916 -0.210864 -0.627865 -0.267907 1.214364 -0.136969 -1.373178 -0.692463 0.491464 0.879174 -0.520062 -0.661641 -0.972583 -0.372674 -1.246062 0.720683 -0.512691 0.674841 0.233708 -0.790468 -0.593455 0.710310 -0.603509 0.372125 0.060990 -0.216038 -0.036146 -0.998237 -0.310609 0.032313 -0.443373 0.181857 0.254266 -0.398925 -0.418589 -0.915139 -0.313018 0.735396 -1.009251 0.425479 -0.136312 0.852872 -0.409908 -0.869734 -0.184426 0.979281 0.530765 0.910355 -0.642958 -0.295360 -0.004895 0.085137 0.291378 0.001847 -0.673622 -0.310460 -0.340056 -0.796475 0.240253 -0.005292 -0.064862 0.577065 -0.357645 -0.671634 -0.702046 0.270070 0.511452 -0.094967 -0.326792 -0.603860 -0.154862 0.248982 -0.137000 -0.324103 -0.471527 -0.129591 0.081045 0.443703 -0.442000 -0.184863 -0.497951 0.056492 0.062226 -0.157662 -1.015212 -0.083458 0.174633 -0.579009 -0.056032 -0.215557 0.323139 -0.271059 -0.463043 -0.807948 0.715576 -0.005682 0.346007 -0.018648 0.317452 -0.380620 -0.579936 -0.114303 -0.687163 -1.165104 -0.375345 -0.473306 0.249304 -0.768112 -0.600349 0.436148 0.511553 0.057427 -0.064936 -0.164797 -0.047410 -0.609385 0.779507 0.560981 0.317712 0.151551 -0.544612 -0.114810 0.985436 0.202946 -0.618816 0.990355 0.139057 0.705935 -0.048078 0.918926 -0.111419 0.191747 -0.597296 -0.243782 -0.638443 0.020988 0.265261 0.765321 0.274856 0.805013 0.688218 0.466851 0.208108 -0.880377 0.207709 0.201641 -0.621211 0.273509 -0.730837 0.047312 0.199260 -0.113508 -0.710634 -0.018507 -0.320967 0.073770 0.282954 -0.648612 -0.169920 -0.293262 0.664126 -0.160590 -0.438317 0.161765 0.981385 0.510488 0.046451 0.077758 -0.390912 -0.254941 -0.368963 0.215453 0.448965 0.064056
M009_OFF 0.123773 -0.145800 -0.781855 -0.415643 0.037456 -0.053074 -0.416090 1.352175 -0.117377 0.240146 0.165841 0.003983 0.632440 1.076997 -0.263766 1.404703 -1.013309 -0.347142 0.417751 0.648627 -0.295900 -0.945853 -1.185020 0.174896 -0.361280 -0.481105 -0.099746 -0.494913 -0.102072 0.140047 1.348860 0.181225 -1.743131 -1.031229 -0.736297 0.118448 0.408453 -0.425680 -0.238640 -1.321526 -0.074443 0.198130 -0.370109 0.024888 -0.441298 -0.221711 1.172030 -0.178786 0.701305 -0.564936 -0.086981 -0.547492 0.844335 -0.951962 0.722372 0.086749 1.610311 0.158328 -0.706632 0.315402 0.031244 0.904774 0.188660 0.537080 -0.781041 -0.871466 -0.156578 0.264634 0.166059 0.981224 0.020404 0.113318 0.941413 -1.010587 0.174001 -0.498307 0.348080 -0.126170 0.900145 -0.013789 -0.244555 1.357145 -0.742504 -0.155117 -1.016931 -0.281732 0.306524 -0.056285 0.678158 0.866725 0.464464 0.342192 -0.949656 0.379358 0.091878 -0.617264 -0.490630 -0.722329 0.291354 -0.449362 -0.301879 -0.796523 -0.548312 -0.147551 -0.443958 -0.694074 -0.118241 -0.049296 -0.473468 0.403228 0.471460 -1.488561 0.696582 0.724710 -0.317017 0.199501 -0.600187 -0.493165 0.132416 -0.246617 0.951741 -0.213121 -0.170139 -0.378061 0.496858 1.346612 0.933891 0.575204 -0.475105 0.033893 0.773599 0.781499 0.696103 0.214910 -0.667986 0.107077 0.900578 0.232090 0.886605 0.114332 0.703237 0.299951 0.214096 -0.295245 -0.827527 -0.299852 -0.462674 0.088405 -0.520828 -0.421871 0.755928 -0.193050 -0.218288 -0.109790 0.284456 -0.617478 -0.060281 0.679230 -0.438017 -0.318239 -0.387850 -0.948781 -1.416616 0.605454 0.120005 1.007395 -0.154592 -0.625865 0.112339 0.364174 -0.312403 0.114554 0.929919 0.278248 0.269435 -0.611632 -0.578576 -0.273567 0.600393 -0.082064 0.128207 0.462120 -0.502257 0.078570 0.377390 1.299910 -0.214081 -0.007040 -0.341108 -1.518359 0.458416 -0.239461 -0.561341 0.256558 -0.554652 0.064137 -0.059792 -0.276565 -0.303880 -0.245557 -0.474644 0.203429 -1.031903 -0.455738 0.415341 -0.276006 1.037823 0.044227 -0.863474 1.049220 0.667020 -1.122540 -0.119142 0.152907 0.363267 0.339961 0.100207 0.129639 -0.089101 -0.821464 -0.164040 0.496834 0.106458 -0.297098 0.584342 -0.606781 -0.386901 -0.079709 -0.474160 -0.129053 1.061978 -0.346221 -1.288854 -0.993291 0.352184 0.807453 -0.570997 -0.737307 -0.789499 -0.285738 -0.732002 0.796650 0.032134 0.568712 0.540203 -0.823655 -0.759292 0.256256 -0.801619 0.419408 0.054332 -0.069006 -0.302289 -0.701233 -0.773651 0.200107 -0.009928 0.277352 0.327698 -0.002393 -0.442337 -0.777114 -0.342379 0.621231 -1.237181 0.618737 0.009547 0.863831 -0.554422 -0.837556 -0.112427 0.723852 0.418853 1.380426 -0.205958 0.123182 0.260576 0.325613 0.172432 -0.241749 -0.699869 -0.096971 -0.142094 -0.631233 0.170202 0.281574 -0.098526 0.541206 -0.244145 -0.252850 -0.550306 0.286122 -0.144538 0.181206 0.112009 -0.150724 0.116047 0.181186 -0.528340 -0.418593 -0.755118 0.050525 -0.490715 0.206357 -0.571094 0.057630 -0.261845 -0.167513 0.850130 0.069385 -0.546951 0.482279 -0.055604 -0.620573 -0.159761 0.030849 0.453841 -0.280177 -0.812245 -0.197312 0.381481 -0.049623 0.579553 -0.179885 0.131667 0.071184 -0.409398 0.054198 0.151002 -0.662451 -0.728659 -0.990999 0.101570 -0.698568 -0.789655 0.454178 0.462219 0.033632 0.108269 -0.156578 0.234057 -0.551701 1.054335 0.533385 0.197592 0.061613 -0.618668 -0.228435 0.792968 -0.080812 -0.969836 0.990654 0.187133 0.358364 -0.831361 0.618203 -0.099366 -0.232890 -0.526305 0.083835 -0.202576 -0.295249 0.238424 0.541367 0.630736 0.606895 1.029952 -0.051270 -0.047595 -0.625765 -0.014921 -0.351722 -0.203907 0.313666 -0.464652 -0.221486 0.129632 -0.152216 -0.701493 0.035909 -0.410653 0.846200 0.053877 -0.527531 -0.055251 0.585831 -0.041282 -0.325550 -0.604493 -0.066139 0.308008 0.422190 0.394248 0.030317 -0.203306 -0.059921 0.290668 0.299779 0.624142 -0.199320
M020_OFF -0.452448 -0.012518 0.292922 0.440768 -0.431354 0.171319 0.177197 0.050320 -0.172844 -0.280126 0.307307 0.650967 0.361868 0.414267 -0.186671 0.128318 0.539584 0.048872 -0.118632 -0.425590 -0.758822 -0.222014 0.224019 -0.086257 -0.206354 0.341498 0.191981 0.110551 0.635863 0.137592 -0.531724 -0.025045 0.411080 -0.311182 0.141967 -0.182856 -0.365753 0.423684 -0.168662 0.556650 0.431023 0.106584 -0.277348 0.395562 0.411430 -0.045635 0.408843 0.174482 -0.127477 -0.054875 -0.365515 -0.031441 0.222639 -0.485136 -0.058675 0.118990 0.148485 0.280505 0.427555 -0.049214 0.030203 -0.220541 -0.435864 0.162761 0.051588 0.908326 -0.340540 0.093093 0.699483 -0.234279 0.260318 -0.553840 0.130722 0.077745 0.337174 -0.384984 -0.022401 -0.020643 -0.108043 1.015875 0.409129 -0.226673 -0.019995 0.281897 0.869684 0.951223 -0.310935 -0.264632 -0.469435 -0.381876 -0.019036 0.231608 -0.043091 -0.551242 -0.256503 -0.236785 0.506582 -0.295530 -0.230706 -0.187434 0.011316 0.566372 0.361134 -0.033813 -0.192247 -0.214364 0.179146 0.087402 -0.367380 -0.052237 -0.311576 0.161435 1.067398 -0.047326 -0.633194 0.111241 -0.825108 -0.637989 0.110464 0.179337 -0.063155 -0.017877 -0.588784 -0.623301 0.375521 -0.547113 -0.642036 -0.466733 -0.032952 -0.999192 0.214576 -0.287656 -0.030478 -0.365618 -0.419099 -0.014219 -0.183379 0.905050 0.118929 -0.200713 -0.697729 -0.597557 0.050824 0.123902 0.470178 0.449271 -0.196227 0.207961 -0.364600 0.614398 -0.780427 0.819555 -0.543847 -0.889274 0.080745 0.229896 -0.638955 0.284728 0.417096 -0.200197 -0.343491 -0.825850 -0.016966 0.347309 -0.406645 -0.363159 0.630704 -0.014054 0.500832 -0.362005 0.003926 -0.245207 -0.069098 0.576358 -0.326824 0.722883 0.138925 -0.436045 0.870049 0.235151 0.374805 -0.363750 0.039140 -0.027682 0.318184 -0.147299 0.873462 -0.389758 0.851085 0.659654 0.512550 -0.190452 0.344083 -0.652705 -0.023933 -0.313348 0.356424 0.026063 0.147328 -0.600644 -0.168649 0.092504 -0.500620 -0.436955 -0.377601 0.601808 0.232061 -0.113377 -0.699043 0.509955 -0.084997 -0.408670 -0.553663 -0.475658 0.244906 -0.459311 -0.044080 0.129082 -0.351808 0.398770 -0.439436 0.279703 0.358840 0.229599 -0.158052 0.603568 -0.150569 -0.422137 0.318633 0.052009 0.618050 0.474407 -0.040743 0.441104 0.368397 -0.016667 -0.800253 -0.137268 0.075011 0.062200 -0.102121 -0.185314 -0.524404 -0.810989 -0.486562 -0.589243 -0.319327 -0.141112 0.060149 0.619368 0.868440 0.230799 -0.493978 -0.065128 0.541664 -0.169710 -0.431295 -0.325551 -0.187193 -0.268615 -0.128062 0.552870 -0.180679 0.301659 0.660486 -0.428005 0.103120 0.761411 -0.135410 0.435416 0.536910 0.298180 -0.278336 0.830006 0.516017 0.352371 0.301845 -0.595086 -0.661710 0.048356 0.044942 -0.099373 0.084975 0.251259 0.010059 -0.021997 -0.626320 -0.075751 0.187942 -0.450885 -0.833102 1.097188 -0.104929 0.155097 0.077100 0.184565 0.182902 -0.507707 -0.227586 0.275341 -0.217986 0.617761 -0.201314 -0.488881 -0.123440 -0.099702 0.747569 -0.040944 -0.181256 -0.407352 0.240046 -0.472298 0.307213 0.057777 -0.018912 -0.409384 0.073936 0.171652 1.105854 -0.067859 -0.177423 0.867406 -0.211393 0.508154 -0.109904 0.249029 0.048855 0.070244 -0.224612 -0.126934 0.339860 0.333668 0.044525 0.260073 0.232099 0.143255 -0.417558 0.296976 0.518403 -0.565875 0.314260 -0.001156 -0.030793 0.672206 0.583655 0.028054 -0.150836 -0.490662 -0.086375 -0.688199 -0.692973 -0.230208 -0.387621 0.045991 0.273276 -0.331414 -0.189210 -0.114283 -0.261053 -0.000624 0.003277 -0.264795 0.198688 0.509538 0.344135 0.521336 0.191618 -0.500390 -0.020150 -0.162295 -0.048942 -0.969013 -0.190018 0.061603 0.167544 0.116391 0.021922 0.951305 0.060477 0.377089 0.053215 -0.090540 0.037319 0.006701 -0.310192 0.681815 -0.634775 -0.197784 0.278101 0.429307 -0.134103 0.158274 -0.350288 -0.458424 0.888632 -0.314179 0.017574 0.572843 0.375638 -0.938507
M020_ON -0.220477 -0.048162 0.707649 -0.163226 -0.122790 -0.122033 0.111652 0.454394 0.318131 -0.604331 0.435888 0.891426 0.071968 0.165953 0.792821 0.035932 1.040032 -0.233860 -0.471165 -0.986258 -0.087154 0.155535 -0.056230 0.111576 -0.205077 -0.023167 0.199065 0.602311 0.405339 0.376655 -1.056013 0.042270 0.769624 -0.505473 0.054477 0.023558 0.026237 -0.000136 -0.108279 1.250278 0.859889 0.047877 0.019894 0.097392 0.266070 0.063636 0.346349 -0.529876 0.086958 0.341919 -0.338664 -0.335397 0.786953 -0.787225 -0.107749 0.683341 0.128252 0.404696 0.267219 0.700625 0.218948 -0.534990 -0.676803 0.924466 -0.162498 0.268410 0.052561 -0.547235 -0.101000 -1.166906 0.747520 -0.768588 0.503809 0.002129 -0.217499 0.016420 -0.047531 0.254845 0.080837 0.597905 0.287792 -0.077226 -0.142211 -0.080879 0.997542 -0.154336 -0.062389 -0.484847 -0.333662 -0.260199 -0.601744 0.229081 -0.275696 -0.335566 0.141651 -0.028838 -0.294063 -0.277145 -0.238506 0.323866 -0.135226 0.474112 0.267508 -0.054464 -0.474949 0.189372 0.601994 -0.012608 -0.707994 -0.354070 -0.548550 0.472615 0.455548 0.224730 -0.339301 -0.169575 -0.816881 -0.692075 -0.407114 0.194923 0.280275 0.486230 0.403810 -0.688668 0.331985 0.062095 -0.797243 -0.247563 -0.191670 -1.507892 0.348551 -0.443975 0.494981 -0.839024 -0.780935 0.579463 -0.302914 0.621463 0.076039 -0.560108 -0.661140 -0.311697 -0.242041 0.202678 -0.022800 0.280269 -0.255398 0.067957 -0.752154 0.033659 0.057253 0.846270 -0.191266 -0.059448 0.339414 0.348538 0.147883 0.238691 0.499837 -0.135439 -0.304618 -0.157426 0.113749 0.157623 -0.156639 -0.314609 0.109785 0.213825 0.044034 0.333302 0.078833 0.071512 0.206208 0.557865 -0.375937 0.325476 0.285141 -0.967569 1.126548 -0.099325 0.539189 -0.188114 -0.039442 0.021532 0.892813 -0.487687 0.423717 -0.075003 0.539904 0.218282 0.574731 -0.006527 0.878936 -0.609746 -0.209204 -0.172473 0.220938 0.108987 -0.239239 -0.128103 0.252262 0.435418 -0.617257 -0.294900 -0.365784 0.599135 -0.019432 0.238717 -0.522728 0.493022 -0.312031 0.272338 -0.810121 -0.226415 -0.121025 -0.086965 -0.011719 0.144674 -0.294173 0.032896 -0.394931 0.070029 0.217227 -0.153319 0.074039 0.011999 -0.162282 -0.295265 0.383604 -0.236104 0.093287 -0.211852 0.073466 0.107378 0.185579 -0.215883 -0.055452 0.128756 -0.655098 -0.000373 0.054770 -0.236076 0.211263 -0.426924 -0.060724 -0.542468 0.182511 -0.359013 -0.138704 1.140904 0.205347 -0.120790 -0.470433 -0.181965 -0.131525 -0.301966 -0.011831 -0.358555 -0.377632 -0.040176 0.009301 0.413060 -0.455817 0.369530 0.160198 -0.363661 0.634505 -0.151081 0.210110 -0.260070 -0.464007 0.119182 -0.428688 0.704486 0.297224 0.772566 0.456356 -0.370616 -0.624220 -0.162553 -0.298127 -0.324215 0.032377 0.219424 0.461439 0.338928 -0.591544 -0.146601 0.363043 -0.075524 -0.493340 0.073330 -0.055153 -0.293203 0.310554 0.153927 -0.044594 -0.434056 -0.431672 0.202870 -0.250729 0.489515 -0.114634 -0.403718 0.290966 -0.229583 0.271587 -0.578372 -0.448676 -0.280576 -0.194355 -0.172743 -0.003985 0.412390 -0.134808 -0.231413 -0.135902 0.322883 0.199719 -0.573582 -0.005444 0.854837 -0.120945 0.784345 -0.059377 0.048174 0.258942 0.085694 0.314394 0.355915 -0.380560 0.202873 -0.735050 -0.246344 -0.098422 0.075030 -0.253019 -0.053388 0.231665 -0.777135 0.679187 -0.206204 -0.563816 -0.024757 0.111462 -0.184505 0.173244 -0.103220 0.226624 -0.586707 -0.531702 -0.579579 0.052853 -0.549349 0.106729 -0.169286 0.090815 -0.351520 -0.187875 0.148695 -0.101077 0.011731 0.542324 0.178519 0.075484 0.675804 -0.101016 -0.242493 0.135150 -0.032660 0.024141 -0.566826 -0.161236 -0.267035 0.980912 0.231475 0.516863 0.430760 0.030200 0.051558 0.037651 0.394875 -0.298252 0.151071 -0.273241 0.426484 -0.820574 -0.367043 -0.025427 0.516499 -0.613627 -0.085395 0.160796 -0.314090 0.177240 -0.023007 0.059556 0.225882 0.163504 -0.412119
M019_OFF 0.417652 -0.253837 0.150592 0.060404 0.557842 0.468968 0.624721 -0.528565 -0.509011 0.709073 0.073283 -0.978433 -0.158408 -0.318877 0.452512 -0.344983 0.548209 -0.624605 -0.323506 0.056863 -0.197505 -0.016862 0.584903 -0.025608 -0.503350 0.317481 -0.049047 0.019674 0.238069 0.241949 -0.067216 0.316014 0.291690 -0.345628 0.128761 0.264516 0.116766 0.018606 -0.360869 -0.907909 -0.006257 0.450702 -0.635928 0.295952 0.501136 0.241587 -0.232575 0.517481 -0.263901 0.367820 0.344413 0.198694 0.708812 0.172185 -0.090021 -0.159218 -0.162237 0.000063 -0.029114 -0.294684 0.343657 0.101019 0.553869 -0.065209 -0.106742 -0.068953 0.574293 -0.319240 0.206943 0.736439 -0.593073 0.325077 -0.896330 0.223651 0.487839 -0.404488 -0.015062 0.109294 -0.635930 -0.231441 0.026332 -0.237833 0.615002 0.041006 0.160210 0.353520 -0.306188 -0.086779 -0.083720 -0.706766 -0.303955 0.105678 -0.146179 -0.069550 -0.288546 0.509442 -0.059837 -0.137296 0.319242 -0.053767 0.161289 0.477888 -0.182550 -0.488562 0.286509 0.307058 -0.148264 0.213295 0.139882 -0.360761 0.049888 0.390317 -1.030201 -0.042332 0.369906 -0.062537 0.290556 0.992069 -0.562850 -0.541054 -0.147338 0.495862 0.356870 0.532251 -0.103239 0.467867 -0.371242 -0.462653 0.475468 0.286975 -0.417088 -0.783214 0.058075 -0.288327 0.035414 -0.600641 0.123166 -0.352732 0.686666 0.074674 0.958632 0.144407 -0.018766 -0.675433 -0.142060 0.435962 -0.071762 -0.212948 -0.235078 -0.415311 -0.515953 0.101305 0.490426 -0.133343 -1.412151 0.276503 0.254511 -0.035447 -0.370905 0.018219 0.556647 1.066121 -0.395059 -0.426463 0.572081 0.014825 -0.094094 -0.501899 -0.426867 -0.847347 0.090568 -0.035747 0.697705 -0.817273 0.520761 -0.135158 -0.127311 0.929165 -0.101141 0.049640 -0.493867 0.216931 0.274607 0.449067 -0.881721 0.030010 -0.333453 -0.123563 0.030097 -0.072788 -0.320505 0.133352 0.614488 0.360818 0.439118 -0.530503 0.116773 0.096423 1.021251 -0.213715 0.185445 -0.462885 1.703800 0.472169 0.682723 -0.548302 -0.533973 0.278015 0.877540 -0.482554 -0.548662 0.488914 0.394776 -0.500419 -0.466177 0.950028 0.009700 -0.167973 0.279499 -0.032611 0.120893 -0.050365 -0.818539 -0.663127 0.639992 0.080736 -0.339967 0.540915 -0.291574 -0.274997 -0.359791 0.429782 0.251859 -0.211953 -0.327967 -0.959799 -0.215855 0.061508 0.433346 -0.163511 0.696257 0.367529 -0.324983 0.604991 -0.000403 1.045079 0.097565 0.242767 1.432965 -1.157432 0.106659 0.369187 0.947490 0.498308 0.379769 -0.765052 0.666270 -0.500270 0.051880 0.466728 -0.846159 -0.109785 0.783510 -0.828570 0.073926 0.804871 0.061769 0.145508 -0.470953 0.228112 0.380087 -0.366928 0.904924 -0.641175 -0.061613 -1.124477 -0.913350 0.686861 0.518223 1.174001 0.416246 -0.473430 0.015573 0.204930 -0.689875 -1.405501 0.556265 0.263644 -0.520134 0.240783 0.251389 -0.412556 -0.321007 0.567273 -0.267357 -0.405846 -0.590434 0.716452 -0.741914 0.681398 0.348672 0.042960 -0.087483 0.133631 -0.300622 0.023611 -0.355861 -0.426291 0.482810 0.593877 -0.165782 -0.068639 0.071858 0.616301 0.382619 -0.052076 -0.200899 0.459267 -0.009697 0.037111 -0.008805 -0.692783 0.143497 -0.037352 -0.708883 -0.598289 0.121367 -0.754620 -0.717138 1.419763 1.364384 -0.239466 -0.488742 0.751019 0.081596 0.192517 -0.057857 0.516414 -0.526048 -0.144172 -0.729271 -0.192089 -0.421950 0.180793 -0.084551 0.733741 0.299933 0.057804 -0.066562 -0.012568 0.438327 -0.522267 -0.038471 -0.297304 0.271165 -0.366437 -0.327016 0.920552 -0.991421 -0.514259 -0.375178 0.069129 -1.021597 -1.031624 -0.005035 0.050857 -0.115874 -0.275705 -0.144851 -0.395329 0.352009 0.754782 -0.072104 -0.297972 0.505313 0.125537 -0.318072 -0.421442 -0.388492 0.427186 -0.155448 -0.108191 0.311747 -0.445154 0.709387 -0.112255 0.003688 0.911802 0.095355 0.149735 -0.328678 0.861823 0.603045 0.351102 0.790228 -0.084148 0.235093 -0.483078 -0.109614 0.288280
M019_ON 0.302492 -0.552895 -0.198115 0.334199 0.869259 0.488123 0.965697 -0.470050 -0.080378 0.339040 0.067653 -0.841523 -0.526843 0.185029 0.658495 -0.536525 0.613431 -0.244572 -0.141754 -0.313528 -0.513338 -0.201285 0.352117 -0.445687 -0.147161 0.481792 -0.186538 0.128616 0.180958 0.303627 0.462721 0.435916 0.217298 0.001695 0.219496 0.426112 0.495794 -0.017594 -0.319937 -0.807950 -0.359922 -0.055048 -0.111144 0.359946 -0.173390 0.658913 -0.545195 -0.141813 0.359860 0.163595 0.848104 0.138370 0.274982 0.597110 -0.217016 -0.328201 0.099492 0.221036 -0.491373 0.134591 -0.054785 0.307033 0.410086 -0.008832 0.191392 0.278954 0.273906 -0.186038 -0.305947 -0.251326 -0.693901 0.083119 -0.503529 -0.049184 -0.161107 -0.915999 0.360628 0.481002 -0.202255 -0.378117 0.158338 -0.035348 0.658192 -0.343179 -0.384557 0.115301 -0.179592 -0.583743 0.113239 -0.612306 -0.040005 -0.327686 0.233066 0.044932 -0.616368 0.089733 -0.507290 0.380706 0.303289 -0.371805 -0.220482 0.171947 0.105025 0.109079 0.687630 0.545315 -0.417173 0.260181 0.435681 -0.481399 0.279824 0.658779 -0.964399 0.467110 0.892896 -0.082460 0.366456 1.251977 -0.647309 -0.830862 -0.042802 0.431761 0.530980 0.408356 0.048544 0.226519 -0.289931 -0.074803 0.354123 -0.097041 -0.185379 -0.693115 -0.423689 -0.230896 0.216280 -0.826563 -0.497177 -0.430355 0.078973 0.274072 0.167197 0.025315 -0.253816 -0.332846 0.299559 -0.039835 0.026989 -0.518035 -0.485467 -0.569253 -0.264728 0.369844 0.519268 -0.338676 -1.126563 0.093697 0.364255 0.173041 -0.578029 0.595450 0.896839 0.714444 0.016514 0.063100 0.722155 0.164178 -0.259608 -0.614534 -0.687980 -0.929305 0.154257 0.319471 0.443915 -0.810563 0.436006 0.240572 0.347376 0.499053 0.081306 -0.136534 -0.150407 0.630488 0.212518 0.516393 -0.579962 -0.081723 0.071846 0.002587 -0.403167 -0.304162 -0.102063 -0.473540 0.865732 0.156504 0.541290 -0.314964 0.280367 0.086485 0.690069 -0.508774 -0.069819 -0.324046 1.109227 0.446553 0.237731 -0.672633 -1.151234 0.607226 0.551906 -0.691353 -0.440046 0.734320 0.582979 -0.285212 -0.195507 0.613326 -0.142391 -0.174082 -0.259116 0.062169 0.005038 -0.322631 -0.530515 -0.432680 0.211985 -0.201034 -0.197285 0.315494 -0.342149 -0.351508 -0.421742 0.374470 0.298643 0.040449 -0.326859 -0.558211 -0.203573 0.194813 0.648197 -0.319415 0.322642 0.578318 -0.156815 0.133400 0.029055 0.685751 0.236338 0.031528 1.003919 -0.675586 -0.145185 0.460253 0.616061 0.532836 0.280425 -0.176981 1.039819 -0.311756 -0.260266 0.825181 -0.501005 -0.015583 -0.002240 -0.828185 -0.174938 0.672516 -0.615545 0.240758 -0.234514 0.266881 0.013495 -0.102653 0.208845 -0.571617 -0.396395 -1.154243 -0.156123 0.502168 0.257690 0.137167 -0.012001 -0.283283 0.073258 0.024406 -0.552333 -0.970106 0.208185 -0.203771 -0.643446 0.368486 0.198962 -0.722593 -0.336006 0.318816 0.236396 -0.433876 -0.146184 0.703147 -0.455778 0.609918 -0.126035 -0.178776 0.107100 0.398178 -0.789849 -0.383933 -0.646586 -0.442113 -0.137858 0.414515 -0.233831 -0.550501 0.261595 0.326366 0.796487 0.214601 -0.140905 0.248809 -0.028194 -0.002050 -0.589904 -0.573917 -0.081850 0.195519 -0.852173 -0.758874 0.351801 -0.366669 -0.720049 0.733037 1.275768 -0.236571 -0.377548 0.662642 0.364843 0.116036 -0.110440 0.824564 -0.567698 0.146051 -0.365567 0.798162 -0.687774 -0.281473 -0.009346 0.208849 0.684702 0.658198 0.320771 0.275475 0.245374 -0.496692 0.292004 -0.389613 0.515153 -0.181390 -0.161374 0.604187 -0.996814 -0.411941 -0.147585 -0.450834 -0.781851 -0.835345 -0.614628 -0.141039 -0.138362 0.166459 -0.056871 -0.844584 0.391264 0.494806 -0.149382 0.370116 0.366726 0.480022 -0.467641 -0.660423 -0.379340 0.185208 -0.303520 -0.218075 0.332495 -0.756447 0.299613 -0.877383 0.064047 1.027844 0.607929 -0.429409 0.308459 0.963913 0.277861 0.513768 0.776929 -0.151178 0.126475 -0.214868 0.066918 0.051462
M015_OFF 0.100221 -0.559139 -0.359323 0.463843 0.868337 0.321490 0.695299 0.219753 -0.558713 0.535676 -0.234782 -1.054653 0.134671 0.322425 0.231288 -0.137896 0.275990 -0.664368 -0.011639 0.124717 -0.491690 -0.074076 0.209279 -0.388707 -0.434551 -0.103088 -0.144250 -0.155766 -0.048471 0.277116 0.261552 0.552325 0.085257 -0.138090 -0.119746 0.120933 0.190276 0.080924 -0.344001 -0.918996 -0.028976 0.500957 -0.672530 0.488319 0.572734 0.250385 -0.130294 0.200699 -0.215874 0.598234 0.654874 0.074654 0.807607 0.563675 -0.040788 -0.381132 0.161576 0.074710 -0.605621 -0.491036 -0.165990 0.338141 0.454498 -0.391887 -0.084840 0.172306 0.768803 -0.258315 -0.733241 0.519781 -0.908863 0.606949 -0.501343 0.292821 0.033970 -0.393599 -0.279549 0.205999 -0.228250 -0.523766 0.221556 -0.331532 0.777925 0.128666 -0.344637 0.163838 -0.160441 -0.179970 -0.083541 -0.144430 0.036828 -0.284718 0.224108 0.179284 -0.776379 -0.009302 -0.151183 0.072872 -0.162843 -0.363508 0.239230 0.407019 0.069493 -0.257505 0.765628 0.193768 -0.577501 0.251764 0.285658 -0.366436 -0.042692 0.134829 -1.367849 0.484996 0.320854 0.047199 0.562041 1.466288 -0.508581 -0.892840 -0.039410 0.365413 0.136622 0.395556 0.044054 0.016765 -0.186059 0.256494 0.439143 0.346336 -0.273591 -0.803045 -0.275136 0.143491 0.072284 -0.846966 -0.261134 -0.442888 0.048774 0.471358 0.602831 -0.024348 -0.257530 -0.234725 -0.131773 0.235638 0.102653 -0.622934 -0.332258 -0.323892 0.031615 0.104726 0.530832 0.169564 -0.968753 -0.004819 0.148703 0.069288 -0.842018 0.341381 0.879360 0.892359 -0.219094 -0.135103 1.010443 0.048100 0.176451 -0.850324 -0.628875 -0.837451 0.004749 0.168162 0.406620 -0.919586 0.576519 0.122049 0.354571 0.776746 -0.214318 -0.404361 -0.663012 0.397978 0.172768 0.203438 -1.066719 -0.035735 -0.386080 -0.216513 -0.193317 -0.250531 -0.157954 -0.108685 0.174704 0.592467 0.623843 -0.306612 0.605580 0.136422 0.855038 -0.612083 -0.408477 -0.362661 1.556416 0.675535 0.544368 -0.696278 -0.837053 0.478402 0.499390 -0.905838 -0.563663 0.262445 0.301667 -0.570984 -0.010166 0.665028 0.042816 -0.065371 -0.005836 0.141408 0.092866 -0.258802 -1.090975 -0.001137 0.706574 -0.425785 -0.010664 0.483054 -0.592552 -0.120462 -0.745945 0.346120 0.289050 -0.294332 -0.203040 -0.715289 -0.343599 -0.122845 0.787666 -0.042101 0.564448 0.430731 -0.057126 0.584726 -0.001202 0.949873 -0.188489 0.517038 1.307182 -1.119486 0.039848 0.583787 0.984399 0.624261 0.184675 -0.038324 0.922525 -0.080621 -0.154395 1.074778 -1.256039 -0.133227 0.736084 -1.157258 -0.080405 0.618555 -0.707034 0.190027 -0.589737 -0.065886 0.007650 -0.494934 0.446476 -0.567148 -0.162647 -1.704751 -0.537362 0.957418 0.445659 0.731753 -0.015552 -0.788913 -0.386654 -0.032760 -1.074918 -1.494114 0.908462 0.066078 -0.573761 0.339723 0.368877 -0.446994 -0.269241 0.453628 0.274776 -0.378315 -0.461066 0.736922 -0.479761 0.510337 0.393351 -0.152704 0.205272 0.522866 -0.800333 -0.123727 -0.615618 -0.571567 0.435108 0.432433 0.028098 -0.468884 -0.119951 0.673621 0.679661 0.637364 -0.041155 0.291843 -0.129100 0.363201 -0.103258 -1.043341 0.397593 0.116246 -0.961987 -0.752717 0.302827 -0.837301 -0.918428 1.090218 1.304367 -0.381383 -0.076176 0.740153 -0.233441 0.086755 0.009430 0.709670 -0.451987 -0.075206 -0.530042 0.723724 -0.282191 -0.298252 -0.796467 0.588192 0.221086 0.382802 0.536077 0.140444 0.574643 -0.626367 0.007799 -0.049070 0.292189 -0.193539 -0.359543 0.741660 -1.058260 -0.494926 -0.333816 -0.166804 -1.230890 -1.000990 -0.325104 -0.119330 -0.437686 0.184031 -0.192843 -0.724834 0.578543 0.880874 -0.427118 0.072606 0.195083 0.257487 -0.413934 -0.703286 -0.683102 0.342451 -0.401121 -0.321559 0.342009 -0.764657 0.545124 -0.683141 0.203770 1.341021 0.409067 -0.493636 0.332538 0.956522 0.316491 0.855239 0.742374 -0.137483 0.138751 -0.140799 -0.064900 0.025633
M015_ON 0.283604 -0.242126 0.105431 -0.131026 0.739780 0.405714 0.702245 -1.057118 0.042000 0.416090 0.113740 -1.021326 -0.400184 -0.047674 0.855483 -0.799251 0.258504 -0.205496 -0.221949 0.024552 -0.249948 -0.300718 0.591672 -0.013714 0.091207 0.981902 -0.102195 0.009643 0.416550 0.028767 0.392586 0.601694 -0.134171 -0.160182 -0.010042 0.358105 0.581254 -0.280364 -0.185535 -0.917033 0.128177 0.272090 -0.273377 0.394960 -0.153670 0.859160 -0.223046 0.245756 0.148481 0.747175 0.903222 0.321805 0.560819 0.275500 0.022328 -0.269014 0.028526 0.467974 -0.203064 0.371753 0.650826 0.236583 0.570965 -0.211872 0.182719 -0.068510 0.504500 -0.163613 -0.101102 0.362280 -0.533357 0.136177 -0.907705 -0.152368 0.308733 -0.665734 0.204236 0.461292 -0.197729 -0.942687 0.059045 0.139729 0.718847 -0.396600 -1.037664 -0.257415 -0.064550 -0.308264 0.211291 -1.030228 -0.125931 0.226990 0.050951 0.262048 -0.517624 0.138309 -0.729571 -0.069178 0.631786 -0.449597 -0.398910 0.194203 -0.057612 0.231241 0.553527 0.510972 -0.309113 0.306767 0.503872 -0.025578 0.436200 0.732510 -1.059335 0.209216 0.866193 -0.245090 0.320987 1.199540 -0.713612 -0.457918 -0.201164 0.409347 0.490174 0.639017 -0.249677 0.282147 -0.102931 -0.421057 0.552936 0.002352 -0.527244 -0.344754 -0.114567 -0.910951 0.106043 -0.698139 -0.020944 -0.464916 0.229190 0.172433 0.575822 0.252773 -0.209326 -0.448994 -0.187957 0.062958 0.053893 0.197286 -0.231222 -0.731476 0.016295 0.028914 0.592817 0.337990 -1.447651 0.192203 0.753658 0.151679 -0.462580 0.041643 0.801353 1.223965 -0.358252 -0.821556 0.760898 0.279410 -0.572355 -0.287782 -0.456486 -0.594472 0.387593 -0.340373 0.609117 -0.669580 0.776969 -0.061084 -0.144001 1.219952 -0.058160 0.055527 -0.478551 0.141478 0.150443 0.615986 -1.116319 0.082023 -0.231352 -0.245163 -0.349843 -0.125213 -0.403017 -0.363334 0.588663 0.792118 0.752650 -0.531994 -0.058523 -0.250699 1.253734 -0.386078 0.080021 -0.702945 1.486051 0.729312 0.956862 -0.829504 -0.992063 0.274576 0.742491 -0.528468 -0.401379 0.870978 0.682253 -0.124970 0.074848 1.062905 0.106556 -0.620818 0.173349 -0.148160 -0.121413 -0.607970 -0.685988 -1.038635 0.526473 -0.124270 -0.360140 0.580078 -0.004968 -0.758608 0.004258 0.236629 0.036366 -0.249030 -0.342146 -0.461065 -0.022571 -0.099990 0.633934 -0.396102 0.526039 0.455631 -0.059891 0.126492 0.299825 0.730174 0.178555 -0.101685 1.440786 -0.931918 0.034534 0.013788 1.028006 0.694285 0.247847 -0.808550 0.562798 -0.435319 -0.001513 0.852254 -0.474075 -0.394517 0.720739 -0.635476 -0.065634 0.748989 -0.203105 0.185986 -0.380712 0.140790 0.455511 -0.105261 0.620643 -0.461504 -0.027183 -1.118714 -0.811242 1.016324 0.390843 0.880177 0.433855 -0.381255 0.298158 -0.338409 -0.529410 -1.233164 0.497287 0.153095 -0.756840 0.068677 0.551135 -0.612019 -0.415421 0.662311 -0.122032 -0.421362 -0.651571 1.109471 -0.510947 0.295385 0.260954 -0.288839 0.120859 0.129748 -0.741617 -0.315123 -0.482871 -0.420582 0.026527 0.622213 -0.363846 -0.132804 0.014466 0.527829 0.404762 0.255349 0.269052 0.247426 -0.135573 -0.080975 -0.284322 -0.984235 0.117350 0.153646 -1.056502 -0.655920 0.564700 -0.446833 -0.969132 0.987075 1.471409 -0.179891 -0.297187 0.607907 0.304399 0.040557 0.129071 0.763466 -0.740177 -0.176211 -0.427810 0.174690 -0.544322 0.032863 0.102546 0.244810 0.928786 0.341847 0.548583 -0.425181 0.573585 -0.319463 0.195133 -0.392790 0.740322 0.017653 0.042510 0.582196 -1.310742 -0.591389 0.107982 -0.171879 -1.097786 -0.987501 -0.167399 0.213873 -0.452301 0.017551 -0.060640 -0.902399 0.354218 0.440453 0.057484 0.081656 0.455688 -0.117062 -0.725166 -0.778728 -0.587730 0.575969 -0.488269 0.237429 0.177922 -0.641719 0.554272 -0.770479 0.265572 0.957090 0.232944 -0.010678 -0.007972 0.992116 0.554346 0.494600 0.454242 0.104031 0.075243 -0.804238 0.018763 0.344022
M007_OFF -0.968927 1.248733 -0.377070 0.686316 -0.151603 -0.162952 -0.667395 -0.463676 0.071254 -0.244194 -0.483891 0.497384 0.226123 -0.205475 -0.869335 -0.298453 -0.805301 0.316347 0.538494 -0.144425 0.875667 0.916661 0.286835 -0.142386 0.623105 -0.711423 0.199226 0.105594 -0.695618 -0.784150 -0.413302 -0.516999 0.036669 0.860579 0.133077 -0.650536 0.044551 -0.171589 1.081654 1.363706 -0.241168 -0.060420 0.764972 0.111085 -0.075201 0.023671 0.109122 -0.156113 -1.155856 -0.118612 0.011196 -0.353558 -0.216607 -0.333029 0.116637 -0.090623 -0.698678 -0.561011 0.616237 0.166362 0.210529 -0.090366 -0.524797 -1.162519 0.265142 0.292909 -0.799875 0.719392 -0.550401 0.253876 0.384412 0.005515 -0.252890 0.466175 -0.560516 0.360351 0.085573 0.098080 0.003493 0.136308 -0.168916 -0.152379 -0.008181 0.454197 -0.142214 -0.809844 0.128784 0.642244 0.319844 -0.426400 0.633639 0.254223 0.741500 -0.032258 0.533791 0.191297 0.471916 -0.238316 -0.117751 0.003439 0.440636 -0.093854 -0.824209 0.304098 0.069354 -1.158038 0.286582 -0.050220 0.445788 0.168186 0.313474 -0.409693 0.125335 -0.437865 -0.148103 0.146090 0.699830 -0.503958 -0.032806 0.593670 -0.521115 -0.158875 -0.254724 -0.841208 -0.501509 -0.261351 -0.332432 0.178266 0.522896 0.062631 0.146526 0.111198 -0.682986 0.673594 0.440488 0.535948 0.089539 0.219045 -0.799092 -0.078368 -0.795078 -0.307052 0.037098 0.334836 0.437472 0.368913 0.616376 0.263672 0.660170 0.338492 0.339393 -0.496401 -0.514802 0.246995 0.664406 -0.001705 0.143395 -0.266536 0.246637 -0.025473 0.140500 -0.300824 0.567366 -1.311038 -0.860469 -0.734951 -0.082791 0.433301 0.472828 0.110009 -0.610856 -0.659828 -0.612177 0.565008 0.785606 0.196692 0.401521 1.761423 -1.083969 -0.071733 0.252554 -0.857988 0.646119 -0.290369 -0.857452 -0.111077 -0.709130 -0.953439 -0.562163 1.148930 0.325218 0.043885 -0.459039 0.002321 0.460160 0.583623 -0.150431 -0.215186 0.412379 1.046063 0.255906 0.365185 -0.461082 0.341456 0.011920 0.002783 0.215101 -0.275210 0.333956 -0.675139 0.562956 -0.146810 -0.244977 0.547174 -0.246582 -0.349043 1.019194 -0.175331 0.025350 0.159686 -0.197193 -0.291937 0.851052 1.104802 -0.301387 0.418005 -0.161369 0.261057 1.226571 0.542202 -0.457432 0.294953 0.241293 0.737655 -0.322324 0.839937 0.134242 0.389562 0.275474 0.459190 0.309728 -0.792888 -0.255779 -0.050088 -0.409146 0.281096 -0.187264 -0.385424 -0.769831 -0.283922 0.061300 -0.550618 -1.104476 -0.520085 0.473592 0.436539 -0.600568 0.319093 -0.096908 -0.371663 1.148776 -0.305664 0.344411 -0.205095 0.434719 -0.835990 -0.021773 -1.029112 0.804134 0.149616 -0.281102 -0.318781 -0.313652 -0.574908 0.092881 0.318604 0.263108 0.261628 -0.059944 -0.238374 -0.101777 0.778761 0.721554 0.358691 -0.033750 0.622559 0.044889 -0.597261 0.679766 0.156364 0.576588 -0.030826 0.056491 -0.410004 0.205369 0.557253 0.222635 -0.696613 0.349416 -0.640119 1.194219 -0.709536 0.430597 -0.289275 0.229814 0.152701 0.114455 0.320674 -0.134845 0.041909 0.821698 0.001358 -0.863813 -0.864461 -0.135547 0.120812 0.537611 -0.779994 0.797911 0.957841 -0.371030 0.139327 0.197507 -0.079590 0.342939 0.000969 0.248145 -0.101289 0.748697 -1.108034 -0.318596 0.498611 0.818984 -0.581385 0.349750 -0.393546 -0.309249 -0.263816 0.682113 -0.132854 0.407445 0.433643 0.526217 0.116705 0.078790 -0.270595 -0.233450 -0.326545 0.162768 -1.061387 0.347332 0.930919 0.535435 0.850612 -0.284964 0.246761 0.367383 -0.444974 0.594975 -0.038802 0.508390 0.374918 -0.379897 0.371009 -0.286405 -0.098966 -0.411567 -0.026082 0.406793 0.064595 -0.225587 0.556122 0.326788 0.040061 -0.584818 -0.447125 -0.391953 -0.111365 0.119500 0.072323 -0.043909 0.207062 0.155488 0.136132 0.454847 0.137853 0.565753 0.101313 0.311442 0.188815 0.141882 -1.024702 -0.213072 -0.170978 -0.558568 0.125552 0.300990 -0.014796 -0.784516 0.281644
M007_ON -0.849637 1.239839 0.024422 0.483422 -0.058799 -0.232665 -0.344102 -0.006708 0.305435 -0.237908 -0.738576 0.716102 0.217587 -0.137235 -0.790905 -0.262364 -0.586467 -0.029333 0.224934 0.143621 1.326295 0.709047 -0.338355 0.146045 0.381985 -0.655015 0.152357 0.107565 -1.269539 -0.446280 -0.329871 -0.426148 0.106344 0.660083 0.395463 0.044713 -0.041063 -0.342005 0.812978 1.352068 -0.215754 -0.168744 0.633171 0.165258 -0.023837 -0.210198 -0.156191 -0.626729 -1.191244 -0.257773 0.135647 -0.185165 -0.606364 -0.025990 -0.600655 0.000253 -0.491353 -0.157743 0.279570 0.258184 0.227496 0.020367 -0.165391 -0.383657 0.121486 0.345376 -0.576929 0.093191 -0.584906 -0.413395 0.335093 -0.172371 -0.216025 0.665694 -0.790733 0.399964 -0.221889 0.210319 -0.203231 0.358837 0.122565 0.802736 -0.214067 0.435773 -0.612781 -0.856524 -0.292663 0.879880 -0.051540 -0.572589 0.658374 0.084887 0.704477 -0.167579 0.607866 0.006598 0.302781 -0.354554 -0.740491 -0.303854 -0.156069 0.332297 -0.478944 0.924307 0.288290 -0.834276 -0.143669 -0.441620 0.925968 0.761319 0.365043 -0.093489 0.289554 -0.625714 0.719929 -0.436234 -0.038552 -0.736914 -0.473652 0.302520 -0.742762 -0.261042 -0.061075 -0.520572 -0.298073 -0.630744 -0.453153 0.383588 0.319825 0.358405 -0.109567 0.193962 -0.242732 0.439361 0.826359 0.431130 -0.106385 0.346818 -1.586764 0.000548 -0.680255 -0.247594 -0.079466 0.660380 -0.017587 0.423624 0.362585 0.142741 0.545793 -0.200050 0.433508 -0.665520 -0.023796 0.309526 1.269530 0.000494 -0.051136 -0.173811 0.073800 0.676213 -0.536556 0.174198 0.909291 -1.270115 -0.074688 -1.237562 0.093822 0.389563 -0.002929 0.510584 -1.083479 -0.202805 -0.142048 0.062296 0.793418 0.446403 0.254543 1.098992 -1.043740 -0.100543 0.118734 -0.448112 0.477499 -0.597508 -0.267242 0.000509 -0.730413 -0.142684 -0.209050 0.658274 -0.290575 0.385622 0.026876 -0.646077 0.138686 0.206659 -0.298152 0.017758 -0.043701 1.041471 0.366254 -0.156065 -0.185478 0.283941 0.442929 0.104964 0.348019 -0.377850 0.831161 -0.324511 0.708569 0.020758 -0.295000 0.633950 -0.278681 -0.437045 0.703729 -0.025829 0.139136 0.014255 0.042681 0.162058 0.624050 0.801745 -0.074777 0.200202 -0.481748 0.413886 0.638059 0.693608 -0.623821 0.108486 0.107998 0.745687 -0.240298 0.441662 0.546033 0.078063 0.192575 0.380110 0.110773 -0.268793 0.177446 0.110174 0.305440 -0.069370 0.237767 -0.351035 -1.188263 -0.471369 -0.258881 -0.823564 -0.781489 -0.557804 -0.099639 0.507322 0.117473 0.394259 0.018665 -0.463299 1.000716 -0.052910 -0.019253 -0.569836 0.002190 -0.637882 -0.142942 -1.014185 0.456022 -0.223904 -0.740021 -0.213028 -0.486975 -0.532391 -0.035620 0.355956 -0.462107 0.099674 0.032497 -0.019120 0.404854 0.594146 0.579289 0.530776 -0.232471 0.285736 -0.203924 -0.632460 0.667005 0.336426 0.252927 -0.162695 -0.046235 -0.021248 0.315588 0.069881 0.540069 -0.253036 0.320799 -0.582172 1.345885 -0.253265 0.608656 -0.086155 0.711234 -0.134866 -0.130528 -0.470588 0.033461 0.168052 1.101641 0.174626 -1.170273 -0.522102 0.040714 0.309224 -0.468135 -0.641875 0.642308 0.840396 -0.282096 -0.208549 0.451202 -0.677754 0.460294 0.266580 0.192839 -0.456216 0.588055 -0.765510 -0.365712 0.093788 0.151546 -0.354823 0.360840 -0.118536 -0.369625 -0.244970 0.846323 -0.222357 0.188553 0.143744 -0.135071 -0.251278 -0.079858 -0.155046 -0.217594 -0.194951 -0.330866 -0.027687 0.237603 0.476662 -0.388243 0.592293 -0.141426 -0.319186 0.024860 -0.273113 0.822991 0.504865 0.965735 0.520369 0.363925 0.562501 -0.681391 0.074618 -0.229575 -0.032526 0.175494 0.902614 -0.888453 0.247057 0.447255 0.246485 0.444062 -0.313206 0.223863 0.131180 0.355806 -0.442720 0.469839 0.135579 -0.061850 0.724644 -0.312132 0.130464 0.665571 0.163378 0.479986 -0.004102 -0.388209 -1.171122 -0.346794 0.328269 -0.668285 0.000826 0.313987 -0.162374 -0.626840 0.240719
M014_ON 0.277809 -1.712747 0.147144 -0.284421 -0.053866 -0.398936 -0.060423 -0.919739 0.000470 -0.476524 1.084448 0.242652 -0.692000 -0.267758 -0.236411 -0.197222 0.482815 0.822775 0.656475 -0.661365 -0.464897 -0.524700 0.642346 0.530151 -0.588451 0.564050 -0.558636 -0.414246 0.673934 0.362782 0.160114 -1.103903 0.685213 0.084491 0.232437 -0.279540 -0.429825 -0.043887 -0.058969 0.160967 -0.002574 0.335671 0.261948 -0.213135 0.486722 0.341658 -0.170191 -0.238686 0.001718 -0.840658 0.042437 1.432141 -0.489270 0.580817 -0.450782 -0.049424 -1.263937 0.495805 0.835318 -0.364994 -0.122288 -0.573375 -0.473609 0.685873 -0.022127 0.877081 -0.191018 0.433910 -0.061572 -1.203861 -0.254267 -0.537962 -0.208756 0.616324 0.706100 -0.269871 -0.257603 0.818725 0.075867 0.409833 0.657024 -0.202604 -0.097134 -0.050535 1.069269 1.148241 -0.996280 -0.739800 -1.026592 -0.202378 -0.384851 -0.352667 -0.110926 -0.497965 0.374883 -0.491433 0.023806 -0.257533 0.540838 -0.009584 -0.566793 0.950829 1.312381 -0.734354 -0.034728 0.639216 -0.422075 -0.324624 -0.045262 0.029296 -0.071181 1.511660 0.493424 0.379280 -0.202530 -0.604166 0.385913 0.112278 -0.219536 -0.676139 -0.194546 -0.086348 -0.144463 -0.011140 1.288933 -0.348397 -0.809171 0.226937 -0.081595 -0.068260 0.192395 -0.389171 -0.235743 -1.009781 0.894452 -1.379206 -0.161223 0.472747 0.714804 0.271077 -0.498178 -0.799741 0.217126 -0.438281 0.027038 -0.140173 -0.114012 -0.090345 -0.459363 0.732911 -0.295686 0.774693 -0.114160 -0.915196 -0.603675 -0.471531 -0.646455 0.069438 -0.338311 -0.238569 0.488135 -0.458248 -0.073938 1.296817 0.869917 0.317475 0.350203 0.011531 0.314419 -0.720586 0.041076 -0.703915 -0.076979 -0.716337 -0.524056 0.431528 0.176873 -0.241531 -0.333141 0.773480 0.651285 0.037768 -0.594300 0.150542 -0.022947 -0.546559 -0.380887 0.315224 0.416876 0.454356 -0.105543 0.490562 1.567103 -0.632841 0.351584 -0.443020 0.222726 0.229877 0.654575 -0.217069 0.250999 -0.266831 0.852672 -0.070100 0.201879 0.033109 -0.518803 0.566524 0.003172 -0.221209 -0.274756 0.191398 0.401881 -1.261464 0.059344 0.370607 -0.048367 -0.370875 -0.583517 0.740386 0.058886 -0.797491 0.863159 -0.840494 -0.568421 -0.071524 -0.033739 0.130120 -0.401650 0.481401 0.089758 0.670209 0.716837 0.917120 -0.767207 -0.678492 0.174955 0.456874 -0.694423 -0.149612 -0.947185 -0.410077 0.107501 -0.880571 -1.514579 0.595394 0.731610 -0.721191 1.205993 0.590471 -0.050501 0.918436 -0.359995 0.632883 -0.313299 -0.418383 -0.276831 0.375795 -0.594190 -0.190659 -0.307471 0.702974 -0.387101 0.992688 0.099736 -0.465633 0.228492 0.939472 -0.010792 0.484246 -0.084311 0.639984 1.245525 0.415674 0.549951 1.000035 1.220649 -0.654337 0.002486 0.011658 -0.654692 0.214356 -1.050292 -0.032721 0.875764 0.396940 0.097390 0.247209 0.436535 1.559057 0.464630 -0.698569 0.383968 0.550570 -0.829857 -0.201973 0.319520 0.488663 -0.594830 0.566647 -0.259880 0.714589 -0.325965 0.450273 0.389891 0.688755 0.528444 0.261173 -0.467085 -0.483728 -0.541538 0.038881 -0.098272 0.370927 1.021558 -0.470045 -0.509587 0.740174 -0.096413 0.020883 -0.241077 0.645865 -0.510622 0.884259 0.628898 0.267362 0.092268 0.424048 -0.110749 0.878777 -0.186508 -0.036009 -0.228876 0.414870 0.316707 -0.139086 0.001947 0.654548 -0.073994 -0.054580 0.145691 -0.629433 -0.799743 0.085338 0.379832 0.213941 -0.393667 -0.031136 -0.505368 1.231650 -0.005254 -1.033789 -0.638505 -0.968015 0.573880 0.057198 -0.031989 0.824891 0.146005 0.250323 -0.106555 -0.045731 1.122891 -0.525509 0.261478 0.081537 0.024895 0.031660 -1.056436 0.632561 -0.422770 -0.391076 -0.242989 -0.002044 0.165647 0.346244 -0.072386 0.776143 -0.623633 -1.123118 0.540313 0.870160 0.337382 0.067327 -1.061075 -0.079967 0.038764 -0.775627 0.614500 1.026499 -0.257300 0.911490 -0.475334 0.286435 0.162724 -0.112889 0.167939 -0.452225 0.127267 -0.335221
M014_OFF -0.663121 -1.599761 0.394396 -0.695996 -0.247603 -0.282225 0.006634 -0.550753 0.359719 -0.745787 0.386034 0.014692 0.200206 -0.472890 0.155738 -0.988983 0.265056 0.700916 0.122488 0.253953 -0.573791 -0.455589 1.769887 0.384342 -0.733349 -0.433742 -0.274658 -1.116782 0.461979 0.156179 -0.519076 -0.462838 1.532491 -0.200450 0.120025 -0.163080 0.018306 0.390768 0.107221 0.206287 0.156087 0.315533 -0.015880 0.360181 0.334746 -0.038778 -0.213738 -0.102666 0.297436 0.363605 -0.060875 0.604318 0.646500 0.161526 0.352977 0.564474 -0.467116 0.056946 0.234503 0.075371 0.065760 -1.391578 -0.258288 0.233723 -0.604077 0.611241 -0.248759 0.379874 0.015825 -0.709707 -0.831842 -0.493109 -0.492114 0.287151 0.966464 -0.484574 0.270161 0.268702 -0.287746 0.054154 0.657153 -0.050012 0.427786 -0.005010 1.403987 0.960134 -0.264561 -0.770761 -0.657962 -0.370609 -1.040926 -0.869396 0.102139 -0.346484 -0.396373 -0.271034 -0.096381 0.256331 0.361155 0.408922 -0.374956 0.539698 1.375878 -0.214861 -0.582140 0.773210 -0.068338 -0.252515 -0.198705 -0.376429 -0.014492 1.618707 0.098042 0.588707 -0.237742 -0.304380 0.391938 -0.009494 -0.045807 -0.830671 -0.273026 0.375300 0.204148 0.026073 0.819903 -0.112122 -0.711263 -0.416892 -0.318763 -0.440394 0.423088 -0.573819 0.022735 -0.929731 0.071719 -1.294562 0.077458 0.368884 1.221541 0.184540 -0.129966 -0.042046 0.091588 -0.455457 -0.282306 -0.405151 -0.004757 -0.580218 -0.364508 0.115847 -0.383703 0.587368 -0.240829 -0.893078 -0.977824 -0.275452 -0.203455 0.782802 -0.211507 -0.036426 0.601303 -0.583582 -0.190289 0.861332 -0.110489 0.212575 0.580640 -0.064217 0.009619 -0.316483 -0.104497 -0.605972 0.344628 -0.653522 -0.432940 0.552054 -0.062254 -0.723870 0.595666 0.503054 0.409915 -0.364146 -0.092586 -0.341913 0.793057 -0.211086 0.091823 0.752996 0.621867 1.043407 -0.031792 0.809058 1.156969 -0.170756 0.485492 -0.268561 0.371703 -0.051758 0.551925 -0.291684 0.498492 -0.063413 1.017868 0.189299 0.142697 -0.228245 -0.315132 0.375242 0.635008 0.164720 -0.890583 0.437618 0.247245 -0.603559 -0.119688 0.943942 -0.446472 -0.380302 -1.009096 0.923867 0.342043 -0.404815 0.734665 -0.731874 -0.393507 0.413614 -0.593780 -0.113728 0.284113 0.292686 -0.200882 0.691568 1.007769 0.800240 -0.019366 -0.401406 0.272020 0.824818 -0.135986 -0.486278 -0.865890 -0.579772 0.297371 -0.894775 -1.737620 0.252609 0.230844 -0.404687 1.092147 0.799782 -0.119790 1.179792 -0.715557 0.201498 -0.392533 -0.497225 -0.102971 0.021509 0.024128 0.311955 -0.311149 0.315809 0.041592 0.755708 -0.320144 -0.150881 0.544653 0.545270 0.418074 0.554642 -0.051550 0.465294 0.666091 -0.273012 0.349232 0.594891 1.637284 -0.421186 0.557568 0.391793 -0.665806 0.801289 -0.483780 0.061943 0.863629 0.788214 -0.399101 0.333716 0.227547 0.947019 0.449685 -0.709182 0.723629 0.459753 -0.947931 0.072996 -0.360308 -0.010632 -0.049988 0.684111 -0.660438 0.224450 -0.621723 0.179021 0.531647 1.044873 0.225471 1.048894 -0.572250 -0.561630 -0.444716 0.191024 -0.271595 0.570949 0.887488 -1.130067 -0.155962 0.783513 -0.511156 -0.151986 -0.039436 0.841173 -0.717058 0.804344 0.877600 0.644267 0.139428 1.233853 -0.277917 1.360186 -0.123116 -0.513356 -0.238798 -0.240568 0.054698 -0.364299 -0.058681 0.003982 0.002635 -0.233012 0.096380 -0.691715 -1.093182 0.343485 -0.133878 -0.064806 -0.364606 0.167944 -1.006942 1.300357 -0.132134 -1.056375 -0.045485 -0.803440 0.257962 -0.122426 0.484969 -0.092581 0.974391 0.107140 0.000391 0.137517 0.887209 -0.371677 0.172656 -0.006198 0.150551 0.702113 -0.829708 0.945966 0.011381 -0.431893 0.319201 0.203234 -0.029423 0.932147 0.028963 0.580426 -0.792075 -0.911402 0.721914 0.343511 -0.190259 -0.821057 -0.470693 -0.908234 -0.256565 -1.150289 -0.175612 0.969517 -0.049962 0.238032 0.014802 0.149626 -0.287748 -0.526818 0.487705 -0.820012 0.360073 0.154509
M013_ON 0.161072 -0.277522 -0.130385 -0.136875 -0.086239 0.712000 0.528258 0.198328 -0.032703 -0.315946 0.530366 0.146431 0.662744 0.816752 -0.255556 0.541057 0.240160 -0.501175 -0.522283 0.086596 -0.616231 -0.124934 -0.654095 -0.332455 -0.586298 -0.288148 0.550605 -0.212385 0.444819 0.371829 0.379545 0.440954 -0.237457 -0.957100 -0.517442 0.542843 0.429788 0.153648 -0.274322 0.430310 0.592904 0.074242 -0.607335 0.181801 -0.406251 -0.410640 0.746461 -0.419693 1.039010 0.049796 -0.078422 -0.608734 0.954859 -0.609553 0.615651 0.756704 0.971638 0.564246 -0.353853 0.410321 -0.084998 -0.111691 0.031193 0.552319 -1.155757 0.177531 -0.134561 0.116171 0.551590 0.159670 0.088810 -0.595398 0.731713 -0.114606 0.076427 -0.691904 1.034592 -0.274427 0.111031 0.472308 0.687058 0.405961 -0.088954 0.008339 0.165929 -0.048423 0.083032 -0.241556 0.008519 0.183694 0.502256 -0.017879 -0.168391 -0.314084 -0.213999 -0.284244 -0.042776 -0.236044 -0.036700 -0.767336 -0.468985 0.046109 0.956189 0.319382 -0.096716 0.264936 0.246257 0.110769 -0.250917 0.659413 -0.400075 -0.443400 0.968907 0.787787 0.297589 -0.332878 -1.443306 -0.521982 0.504540 -0.078919 0.178933 -0.165795 -0.796736 -0.635056 0.390065 0.119891 -0.138513 -0.667900 0.071263 -1.435716 0.116413 -0.401358 0.079559 -0.544337 -0.747163 0.799382 -0.070852 0.570006 0.456176 -0.293355 -0.261397 -0.322772 0.063143 -0.210887 -0.068124 -0.539842 -0.520694 0.313004 -0.524619 0.119157 -0.285210 0.939580 0.463296 -0.595255 -0.005530 0.550001 -0.745072 0.503501 0.105964 0.228914 -0.694077 -1.126594 -0.814627 0.733317 -0.729481 0.697410 0.212885 -0.035323 0.305682 -0.057579 0.533234 0.515225 0.999214 1.061638 -0.324768 0.877406 0.209116 -0.810074 0.866554 0.491995 0.444262 -0.406037 0.057098 0.136479 0.833803 0.472977 0.910332 0.163401 0.192413 -0.464322 0.228769 -0.470999 0.658834 -1.518219 -0.227238 -0.451350 -0.268227 -0.463744 -0.071995 -0.700873 -0.065897 -0.105098 -0.632385 -0.887566 -0.268808 0.812833 0.094707 -0.020151 -0.303797 1.013921 -0.114341 0.008005 -0.624048 -0.375983 0.119925 -0.066117 -0.695524 -0.343573 0.068112 0.023860 -0.364832 0.557698 0.007294 -0.252729 0.444207 -0.257224 -0.239696 -0.456192 -0.541388 -0.355153 0.916746 0.028847 -0.504479 -0.318467 0.430574 0.062896 -0.548802 -0.322843 -0.492808 -0.171780 -0.363219 0.708888 -0.274400 -0.266833 -0.365445 -0.094168 0.297919 -0.074600 -0.092058 0.927713 0.867679 0.448741 -0.592747 -0.347964 -0.369210 -0.248325 -0.515178 -0.124238 -0.642590 -0.085406 0.107054 0.464518 -0.387369 0.464708 -0.035834 -0.146624 0.081231 0.465811 -0.325020 -0.026225 -0.656336 0.047204 -0.174103 1.576949 0.063738 0.919542 0.704247 -0.139740 -0.288477 0.043744 -0.363366 -0.060465 -0.041956 -0.470766 -0.250829 0.212636 -0.917327 -0.353497 -0.289740 -0.124967 -0.871199 0.346045 -0.185619 -0.052772 -0.223238 -0.354501 -0.065486 -0.817512 -0.208394 0.273023 -0.627611 0.617409 -0.817219 -0.287106 -0.910243 -0.172240 0.282929 -0.747582 -0.546544 -0.277568 -0.367140 0.047721 0.804936 -0.445778 0.060930 -0.345719 -0.002265 0.078167 0.657659 -0.813015 0.167631 1.303152 0.022863 0.047649 0.083153 0.322903 -0.578695 0.434443 0.364830 -0.628008 -0.183663 0.102115 -0.327158 -0.819863 0.169652 0.243124 0.010344 -0.141810 -0.334415 -0.588584 0.301335 -0.386902 -0.173618 0.217711 0.488949 0.200068 0.650455 -0.525933 -0.138052 -0.765832 -0.751434 -0.659559 -0.523568 -0.688637 -0.018234 0.251131 -0.308623 -0.590542 -0.736126 0.773073 -0.586418 0.042954 0.601160 0.518824 0.420367 -0.086895 0.703395 -0.428103 -0.568175 -0.589268 0.033314 -1.051998 -0.108888 -0.141461 0.619415 0.122927 0.601829 0.764722 0.304205 0.131798 -0.245504 0.190127 0.177253 -0.491908 -0.969332 0.628952 -1.039535 -0.010302 0.165539 -0.175535 -0.180205 -0.032841 -0.632640 -0.036135 0.617560 -0.916393 -0.325561 0.125569 0.716756 -1.310949
M013_OFF -0.274966 0.055298 0.750154 -0.311248 0.189893 -0.360463 0.096759 1.294019 0.444779 -0.127426 0.553894 0.633284 0.200912 0.538755 0.277270 0.349887 0.459980 -0.214307 -0.082245 -0.860357 -0.614766 -0.371717 -0.447943 0.588454 -0.640188 -0.532450 -0.066626 0.396273 0.371227 0.434351 0.374982 -0.697549 -0.409856 -1.307952 -0.800494 -0.110808 -0.155211 0.103270 -0.085023 -0.184168 0.891776 0.416990 -0.205757 -0.076438 -0.343211 -0.156000 0.441265 -0.210258 0.135469 0.030446 -0.196154 -0.814919 0.755048 -1.437690 0.005664 0.354575 0.801485 -0.034838 -0.357689 0.272362 -0.237606 0.186865 -0.369457 1.004373 -0.398582 0.405658 0.203693 -0.440631 0.638087 -0.558322 0.989066 -0.851575 1.185793 -0.091031 -0.091584 -0.294208 0.905571 0.592025 -0.014122 0.682142 0.223014 -0.084039 0.181104 0.069790 0.140290 0.546816 0.306616 -0.030980 -0.095162 0.550778 -0.422728 0.059259 -0.420057 -0.576325 0.195704 -0.457384 0.407913 -0.557133 0.062987 -0.073179 -0.551688 0.061111 0.344309 -0.420971 -0.668574 -0.144915 0.417497 0.141082 -0.825926 -0.309478 -0.265634 -0.293489 0.792554 0.426124 -0.397953 -0.062204 -1.161489 -0.546505 0.155307 0.081678 0.853673 0.177127 -0.465929 -0.208324 0.399297 0.198029 -0.264483 0.056767 -0.564300 -1.059835 0.549366 -0.086287 0.590922 -0.953819 -0.756027 0.209817 -0.418417 0.625075 0.749079 -0.003735 0.326306 0.195775 0.205846 -0.019616 -0.070341 0.214417 -0.364082 0.587473 -0.543310 0.078893 -0.142986 0.693427 -0.272771 -0.131598 0.131636 -0.267072 -0.560079 0.701706 0.193381 -0.401002 -0.646092 -0.671159 -0.716992 0.469479 0.034930 0.546912 0.431664 0.192856 0.074735 -0.516277 0.427250 0.203320 0.988819 0.876781 -0.395759 0.336467 -0.144492 -0.846932 0.586760 0.667213 -0.143605 0.262664 -0.041582 0.271971 0.804563 0.115395 0.449033 -0.535569 0.700505 -1.134053 0.406235 -0.549300 0.320172 -0.693285 -0.603016 -0.639467 0.327822 0.347917 -0.211004 -0.251095 -0.379305 0.645275 -0.807887 -0.851914 -0.594331 0.621054 0.031589 0.346023 -0.900741 0.494975 -0.129562 -0.075608 -0.742263 -0.090972 -0.178658 -0.444875 -1.274818 0.102179 -0.041775 -0.108671 -0.402309 0.140794 -0.144872 -0.218090 0.222198 0.106459 -0.339466 -0.804488 -0.178052 -0.359927 0.527324 -0.195834 -0.317637 -0.490888 -0.155743 -0.288529 -0.184902 -0.358518 -1.070788 0.187728 -0.568172 -0.062810 -0.813073 -0.672160 0.060720 0.079013 0.410353 0.042214 0.452143 1.368034 -0.275770 -0.329969 -0.385249 0.085491 -0.335328 -0.197909 -0.435932 -0.430674 -0.521254 -0.920220 -0.262727 -0.250393 -0.037439 0.584854 0.115837 -0.238315 0.128206 0.164965 -0.587271 0.211335 -0.147863 0.275031 -0.139832 1.135306 0.811584 0.482581 0.639026 -0.191312 -0.851418 0.445326 -0.429959 0.005999 -0.469087 0.373297 -0.056271 0.644842 -0.366562 -0.243401 0.077915 -0.123838 -0.714581 -0.132943 0.512542 -0.331812 -0.239368 -0.492441 -0.157307 -0.178524 -0.116522 0.445757 -1.229190 0.887749 -0.338489 -0.202170 -0.255658 0.235623 0.103180 -0.416460 0.151246 -0.102809 -0.549483 -0.121046 0.424054 -0.051909 -0.434983 -0.042665 -0.100056 0.355243 -0.431191 -0.833727 0.844341 1.175581 0.438138 0.488596 0.126762 -0.000765 -0.405475 -0.227944 0.112809 0.253756 0.393848 -0.125572 -1.007464 -0.777766 0.013562 0.365522 0.355274 0.276306 -0.391449 -0.938885 1.062187 0.210163 0.149769 0.392882 0.257343 0.090619 0.462795 -0.712091 0.792243 -0.931837 -0.756697 -0.226905 -0.011140 -0.883079 -0.513278 0.547513 -0.229744 -0.500109 -0.222843 0.669989 -0.777010 -0.446791 0.279837 0.332829 0.965918 0.253339 0.419504 -0.158677 0.453670 -0.241413 0.016263 -0.378977 -0.287393 -0.309488 0.628503 -0.297508 0.564897 0.708780 -0.296679 0.679693 -0.134426 -0.137597 -0.039256 -0.298704 -0.907690 0.083037 -0.987564 -0.019626 -0.451741 0.015906 0.412503 0.107109 -0.487288 -0.422220 0.225034 -0.781806 -0.273490 0.140069 0.225830 -0.852905
M018_ON 0.077769 -0.418904 0.861282 -0.355447 0.650185 0.312636 0.542416 -0.198717 -0.103630 -0.072537 0.310392 0.169244 -0.394108 -0.468923 0.862150 -0.432952 0.945040 0.345603 -0.001269 -0.858263 -1.110562 0.008180 0.436145 -0.234416 0.125958 0.601979 -0.563058 0.081225 0.739638 0.180081 -1.208080 -0.168753 1.265373 0.533138 0.739857 0.410379 -0.053164 0.552303 -0.273259 0.553554 -0.353240 -0.276690 -0.186048 -0.351157 0.534413 0.398710 -1.004125 0.094683 -0.026394 0.108691 0.405233 0.298521 0.663668 0.366239 -0.200319 -0.392519 -0.347552 0.240888 -0.223851 -0.362498 -0.197718 -0.057823 0.376510 0.562532 0.067472 0.445686 0.001913 -0.534569 0.361819 -0.104673 -0.782032 -0.189007 -0.264792 0.034562 0.331394 -0.728481 0.181346 -0.093474 -0.834431 0.788925 0.021164 -0.276110 0.423225 -0.165099 1.252498 0.179194 -0.092198 -0.728676 -0.369871 -0.829674 -0.212013 -0.422149 -0.019787 -0.669138 -0.146661 0.271115 -0.063468 0.266116 0.838492 0.583405 0.233072 0.916568 0.737105 -0.502077 -0.367719 0.866098 0.346133 -0.115023 -0.329460 -1.210665 -0.304093 1.476299 -0.255276 -0.272709 -0.096298 -0.080018 0.179163 0.650748 -0.344512 -0.715743 0.097624 -0.099549 -0.488099 0.336877 0.683231 0.145890 -0.999243 -0.545300 0.318985 -0.601034 0.062434 -0.549571 -0.420948 -0.443876 0.050618 -0.883799 -0.913312 -0.322942 0.663856 -0.137825 0.192226 -0.489934 -0.145785 -0.697540 0.376426 -0.034947 0.158693 -0.652268 -0.861215 -0.561067 -0.915785 0.350654 -0.005808 -0.809163 -1.109069 -0.525119 -0.426012 -0.098304 0.008005 0.813434 0.298652 0.429912 0.072784 0.634315 0.491245 -0.389725 -0.019193 -0.657893 -0.430505 -0.246605 0.421927 0.131035 0.093331 -0.695740 -0.043663 -0.153984 0.831223 0.715807 0.494597 -0.003166 -0.261077 0.813854 0.390520 0.525666 0.328544 0.036772 0.416219 0.113391 -0.162393 0.258056 -0.205187 0.334411 1.339718 -0.178993 0.573921 -0.346858 0.340245 0.191363 0.407557 -0.462915 0.218720 -0.555702 0.887218 -0.133732 0.089739 -0.004225 -0.964953 0.469036 0.834354 -0.321565 -0.753549 0.498675 -0.005554 -0.945535 -0.599753 0.918512 -0.174272 0.110660 -0.146787 -0.031977 0.105068 -0.703536 -0.178710 -0.921795 0.566865 0.520577 -0.166617 0.429408 -0.051161 -0.307409 0.282099 0.630525 0.469494 0.113289 -0.259813 -0.879259 -0.293285 0.746678 0.415051 0.106999 0.250781 0.523535 0.152926 0.377238 -0.907025 0.180796 -0.451505 0.265412 1.583291 -0.550660 0.611845 0.834147 0.491736 -0.112177 0.307769 -0.495859 0.508212 -0.040546 -0.363053 0.644320 -0.551561 0.565138 -0.000039 0.202740 0.771456 -0.239768 0.315843 0.267512 0.045761 0.626164 0.044015 -0.037694 0.435500 -0.288074 -0.005121 -0.422743 -0.058864 0.170126 0.165307 0.664601 0.305151 -0.490924 -0.579807 0.536921 -0.511841 -1.030423 -0.615824 -0.130394 0.110955 0.212575 0.187931 -0.087998 0.180001 -0.042194 0.286882 -0.214439 -0.580110 0.234629 -0.834141 0.451159 0.071077 0.167147 -0.416339 0.081967 -0.336833 0.369395 -0.322718 0.246674 -0.049287 -0.148576 -0.275184 -0.033747 1.054784 0.680536 0.401603 -0.318641 -0.546435 0.889597 0.146224 -0.227136 -0.459983 0.127412 -0.489772 0.402610 -0.163780 -0.457695 -0.285125 0.268049 -0.398734 0.862061 0.860102 0.263528 -0.391640 0.531891 0.476167 0.124947 -0.440348 -0.003940 -0.384285 0.028671 -0.218499 0.044396 -0.941030 0.024148 0.680255 0.581780 0.072082 0.046421 -1.132384 0.260136 0.230824 -1.456621 -0.489503 -0.202561 0.457879 -0.311271 -0.583003 0.515284 -0.645607 -0.383340 -0.170770 -0.013619 0.323052 -0.356235 -0.437829 -0.148378 -0.076025 -0.356894 0.050116 0.228305 -0.115831 0.101628 -0.342941 -0.496098 0.502469 0.347961 0.220794 0.170875 0.268440 -0.485106 0.508662 -0.066269 0.273994 -0.639105 0.246810 -0.131867 -0.465102 0.409964 0.639494 0.627874 -0.440663 0.674670 0.276200 -0.158411 0.286216 -0.330542 -0.327163 -0.420005 0.336214 -0.183172
M018_OFF -0.002595 -0.527545 0.563487 0.003929 0.551942 0.248589 0.835988 -0.441212 -0.049289 -0.159373 0.370502 -0.453767 -0.764064 -0.359837 0.577987 -0.431368 0.791352 -0.373983 -0.771098 -0.633879 -0.727418 0.182885 1.109495 -0.075308 -0.375815 0.617463 0.116955 0.137679 0.549733 0.509625 -0.492520 0.115585 0.726070 0.169213 0.534925 0.458190 0.009681 -0.078092 -0.422369 -0.532490 -0.102270 -0.509894 0.035217 0.675813 0.049805 0.533944 -0.525782 0.081857 0.561573 -0.007220 0.266093 0.541645 -0.025948 0.711563 -0.427944 -0.145577 -0.072274 -0.018544 0.570887 0.024589 -0.016901 -0.150647 0.051003 -0.035465 0.238210 0.460379 0.044618 0.055254 0.350058 -0.240646 -0.551331 -0.434990 -0.878325 0.173472 0.174371 -1.094296 0.565699 0.263513 -0.296001 0.131628 0.377152 -0.704003 0.728567 -0.010433 0.949918 1.296902 -0.557099 -0.938803 -0.379114 -0.720202 -0.338531 0.425290 0.073070 -0.588535 -0.335623 0.641859 -0.181262 0.167610 0.133299 0.020266 -0.300801 0.358569 -0.137616 -0.469349 0.511510 0.798578 -0.196273 0.603183 -0.644490 -0.734615 0.136744 0.822819 -0.147998 0.174887 0.511648 0.234636 0.163723 0.688472 -0.532782 -0.127730 -0.268415 0.822189 0.804388 0.730827 0.407958 -0.226871 -0.161853 -0.311196 0.286561 -0.436286 -0.152262 -0.993238 0.113417 -0.035487 0.244406 -0.532823 0.113342 -0.289873 0.198910 -0.158010 -0.018122 -0.200287 0.252845 -0.248771 0.438265 0.684507 -0.394557 -0.848350 -0.922179 -0.206742 -0.847827 1.163880 0.003848 -1.003113 -1.187778 0.555466 0.033992 0.012244 -0.369774 0.013876 0.622239 0.394213 0.524374 0.715614 0.340310 -0.234188 0.208186 -0.486583 -0.508742 -1.227641 -0.204714 0.332133 0.455695 -0.680105 0.116560 0.455222 0.176895 -0.322553 -0.000419 -0.153449 0.277782 0.510176 -0.395247 0.464284 -0.159917 -0.947721 0.152091 0.049146 0.574581 0.302013 0.387974 0.072682 0.984298 -0.207946 0.602385 -0.331002 0.549917 0.060942 0.931792 -0.453411 -0.287906 -0.000525 0.599329 0.524403 0.213989 -0.236595 -0.406685 0.308949 0.264536 -0.426130 -0.575451 0.565783 0.344521 -1.027885 -0.357592 0.819513 0.397667 0.245360 -0.535797 0.259514 0.162354 0.153707 -0.505098 -0.705781 -0.727942 0.092496 -0.329016 0.035058 0.095523 -0.416795 -0.778593 0.638206 1.045715 0.681486 -0.310539 -1.188416 -0.203285 0.280021 0.055210 -0.107987 0.397162 0.072049 -0.144375 -0.297031 -0.623793 0.279682 0.447825 -0.681970 0.520558 0.302712 -0.328059 0.577244 0.235628 0.321787 0.068985 -0.755392 0.312885 -0.759144 -0.073483 0.021243 -0.069744 0.328402 -0.163459 -0.620152 -0.094058 0.244860 0.161623 0.566523 0.061218 0.109199 0.551985 0.464901 0.774108 -0.716446 -0.203400 -0.442014 0.170240 -0.304862 -0.054591 -0.088551 -0.104105 0.100142 -0.140640 0.249952 0.557957 -0.098876 -0.107956 0.014915 0.229329 0.398368 -0.083201 -0.330146 -0.114231 0.056646 -0.272217 0.254465 0.316505 0.224541 -1.110812 0.892508 -0.514445 0.495210 -0.102183 -0.217463 0.080040 0.094158 0.056414 0.172498 -0.006321 0.262870 -0.692344 -0.422049 -0.084694 0.345881 0.645135 -0.451756 -0.541248 0.044159 0.400783 -0.054426 -0.310339 0.109438 -0.229881 0.512824 -0.273257 -0.449975 0.849506 -0.014170 -0.351689 2.103367 0.438131 -0.265004 -1.070295 1.289418 -0.030670 -0.425260 -0.460586 0.731564 -0.364702 -0.248240 -0.224626 0.177363 -0.970904 0.618285 0.326390 -0.090417 0.004003 0.220657 -0.269880 0.370938 -0.387267 -0.426878 -0.239284 -0.768380 0.378994 -0.651334 -0.160942 0.238206 -0.988077 -0.559867 -0.200153 -0.138559 -0.116190 -0.643535 0.426500 0.755829 -0.116128 -0.467553 -0.057950 0.422879 -0.087220 0.152489 0.286888 -0.246008 0.476784 0.475220 -0.173731 0.145023 -0.058789 0.222328 0.539774 -0.263287 -0.034586 -0.111427 0.438526 0.051506 -0.190984 0.394102 0.389322 0.517851 -0.107957 0.965947 0.684100 0.079612 0.994378 0.095936 0.006313 0.251926 -0.374609 -0.089913
M024_OFF 1.242012 -0.690902 -0.396238 -0.977778 0.775209 -0.760326 -0.089406 -0.533598 0.479363 -0.186898 0.617037 0.580709 -0.309859 0.176663 -0.572171 0.228277 -0.502132 0.178507 1.054780 0.142570 -0.477194 -1.047648 -0.466237 0.320006 -0.215741 0.088280 -0.727346 -0.053570 0.042846 -0.001186 0.848256 0.221290 -0.895891 0.417118 -0.300431 0.400222 0.903587 -0.078117 -0.238959 -1.410409 -0.664970 0.477684 0.379915 -0.492858 -0.564291 -0.774097 0.291074 -0.921949 1.132921 -0.264453 -0.235614 0.284670 -0.795792 -0.583944 1.093621 -0.336102 0.323344 -0.639467 0.261407 0.491785 -0.104877 0.119198 0.027678 -0.059003 -0.055077 -0.322252 0.246315 0.536293 0.202853 0.438115 -0.595116 -0.323408 0.329809 -0.244913 0.003029 -1.297891 0.211770 -0.437336 -0.113027 0.406195 0.081626 0.940267 -0.064006 -0.270484 -1.644343 -0.126766 0.689754 0.047864 0.177093 0.354089 0.348912 0.154538 -0.264500 0.103329 0.463321 -1.045277 -0.190845 -0.338626 0.880739 0.156473 -0.601460 -0.339532 -0.397352 1.095412 -0.167338 -0.133845 -1.097879 -0.353581 0.819473 0.667191 0.626362 -0.373996 -0.012199 0.521087 0.220554 -0.690924 0.017991 0.723377 0.196714 -0.529187 -0.975119 -0.511389 0.133000 -0.289165 0.996836 0.440518 -0.120723 0.813213 -0.387606 -0.531975 -0.256379 0.156877 -0.497692 0.723661 0.515897 -0.339071 0.555945 -0.151454 -0.191699 0.128028 0.346858 0.209033 0.225899 -0.002821 -0.464255 0.355227 -0.140118 -0.608505 0.372718 -0.847811 0.204081 0.442771 0.527536 0.128075 -0.146514 -0.130289 -0.351956 0.933982 -0.668556 -0.608700 0.054911 -0.533512 0.130147 0.604332 0.169420 1.525703 -0.218359 0.391582 -0.373869 0.526305 -0.035658 0.041648 0.668218 -0.589201 0.287624 -0.373055 -0.451790 -0.297247 0.123897 -0.327068 0.413838 0.118827 -0.505755 0.236153 -0.189022 0.114600 -0.022336 -0.066540 -1.204795 -0.827839 -0.847729 1.001539 -0.044603 -0.663036 -0.042768 -0.062235 0.686248 -0.125558 -0.652418 0.540512 0.725048 -0.039297 -0.092479 -0.348262 0.123721 -0.010198 0.280811 -0.332987 -0.247087 0.608895 0.058175 -0.059115 0.299044 -0.234754 0.384780 0.693162 -0.031021 -0.223181 0.073560 -0.451656 0.604307 -0.064529 0.717799 0.170434 0.289565 -0.238641 0.822655 0.426160 -0.296188 -0.486572 -0.061519 -0.328039 -0.249583 -0.518359 -0.477364 -0.507987 0.068850 0.092965 0.654168 -0.874717 0.291964 -0.366123 0.151990 0.620462 0.413201 -0.772834 0.415198 0.917579 1.114716 -0.594224 -0.592706 -0.201523 0.894511 -0.011362 -0.838088 0.737589 0.153756 -1.273273 0.192299 0.278206 0.175468 -0.338745 1.030488 -0.164615 0.266391 -0.135077 0.550260 -0.197921 -1.246149 0.779046 -0.374747 -1.501734 0.001247 0.265024 -0.783961 -0.181216 -0.529341 0.436476 0.297988 0.717819 0.387992 -1.114660 0.026535 -0.146931 0.260937 -0.208079 0.260208 -0.854847 -0.591051 -0.955182 -0.173117 0.324467 0.310668 -0.473985 -0.290213 0.380404 -0.085491 0.875688 0.347650 0.060032 -0.607096 -0.283210 -0.460080 0.005303 -1.073632 0.341382 -0.037617 0.103996 0.530517 -0.472467 -0.334355 -0.007367 0.007679 0.045435 -0.476535 0.766629 0.155876 -0.335699 -0.677859 -0.674656 -0.264985 -0.999011 0.108626 -0.376821 0.038107 0.885117 -0.750142 -0.232434 -0.186405 1.250222 -0.249700 0.413842 0.241259 0.238997 -0.009883 -0.919374 -0.028512 0.197163 -0.145519 1.342574 -0.761745 -1.072864 -0.608049 0.191689 -0.334357 -0.366359 0.928406 -0.183423 0.387710 0.391781 0.283825 -0.121523 0.512367 -0.427382 -0.128473 -0.008762 0.747521 -0.400122 0.733525 -0.700912 -0.637796 0.438014 -1.006480 0.231918 -0.041207 -1.193491 0.281007 0.208035 -0.581570 0.548787 -0.742200 0.031677 0.092860 0.022077 -0.798123 -0.386058 0.374409 -0.170622 0.176684 -0.432787 -0.122422 -0.802259 -0.056410 -0.021402 -0.656973 -0.917131 0.375676 0.650719 -0.620158 -0.521463 0.458353 -0.304934 -0.038326 -0.059527 -0.140767 0.265819 0.268859 -0.609059 -0.115444 1.062505
M024_ON 0.018558 0.204822 -0.627803 -0.322672 -0.334777 -0.452896 -0.238357 -0.552177 0.252638 0.621592 0.528585 -0.562707 0.200829 -0.028141 -0.486588 -0.633665 -0.858804 0.327124 1.071453 -0.181334 -0.770419 -0.196529 0.307501 -0.445595 -0.356657 -0.737618 -0.991393 -0.930582 0.429451 -0.260225 0.751218 -0.399335 -0.723368 0.710014 -0.276604 -0.047777 0.699366 0.295889 0.238412 -1.297926 -0.554033 0.130331 -0.119972 -0.106742 -0.235441 -1.028312 -0.220978 -0.605165 0.681766 -0.134767 -0.256889 0.531502 -1.055689 -0.253606 0.790988 -0.811458 -0.159019 -0.591360 0.486243 0.032677 -0.263314 0.228497 -0.381165 -0.485320 0.054187 -0.714936 0.671797 0.149567 -0.770606 0.432355 -0.234915 0.039076 0.426622 0.224788 0.058226 -0.402491 0.457125 -0.261305 0.449510 -0.115765 0.011573 0.729334 -0.016642 -0.666023 -1.066073 -0.637413 0.267204 -0.339585 0.250005 0.177992 0.034495 0.296261 -0.141554 -0.124897 1.025501 -0.852819 0.031066 -0.349709 0.321909 0.041575 -0.018061 -0.377773 -0.480701 0.583159 -0.528743 -0.332992 -1.225727 -0.316628 0.120671 0.886221 0.282190 -0.355368 -0.294660 0.717538 0.558878 -0.717520 0.157370 1.297136 0.522842 -0.690610 -0.617890 -0.487414 0.286806 0.223558 1.049475 0.355961 0.349071 0.993858 -0.368999 -0.808687 0.053037 -0.119759 -0.392106 1.063551 0.308993 -0.330179 0.758947 -0.791745 -0.368807 -0.407834 0.456989 0.567074 -0.139368 -0.218674 -0.191358 0.289364 -0.136405 -0.767129 0.515018 -0.192260 0.017761 0.145062 0.013316 0.491010 0.196724 -0.293594 -0.107603 0.757546 -0.626828 -0.505320 -0.062199 -0.169266 0.247665 0.611030 -0.155269 1.085711 -0.641912 0.092561 -1.056780 0.462204 0.855523 -0.301216 1.152020 -0.146792 0.747743 -0.350791 -0.319866 -0.223386 -0.416158 -0.027059 0.760262 0.292996 -0.216850 -0.462591 0.230331 0.103039 -0.112825 0.195719 -0.878435 -0.640899 -0.772422 0.969084 0.384481 -0.721680 -0.093852 -0.564291 0.482625 0.241433 -0.579415 0.017439 -0.218816 0.067931 -0.176038 0.096223 -0.413919 -0.272709 -0.378988 0.255956 -0.372853 0.799445 0.281333 -0.364006 0.886280 -0.712955 0.097140 0.486388 0.263035 -0.399689 -0.167896 -0.941166 0.431102 -0.116894 0.268859 -0.182500 0.452418 -0.777554 0.242444 0.617174 -0.650644 -0.029899 0.833516 -0.340252 0.002396 -0.604574 -0.392094 -0.055860 -0.379630 0.217875 0.264247 -0.435790 0.125533 -0.516281 -0.099350 1.032347 0.032137 -0.497140 0.428684 0.831184 0.676704 -0.192086 -0.665357 0.040030 0.268091 -0.236609 -1.042922 0.603716 0.596064 -1.136114 0.218368 0.134239 0.288457 -0.182812 0.674061 -0.017627 0.392163 0.499155 1.081560 0.236883 -1.026113 0.551487 -0.449691 -1.494373 0.543887 0.611027 -1.011961 -0.433457 -0.305568 0.335410 0.916561 0.466921 -0.511770 -0.757582 0.010220 -0.681561 -0.194039 -0.272419 0.290984 -1.075706 -0.357813 -0.157271 -0.263176 0.252994 0.263109 0.025796 -0.143616 0.060083 0.027507 0.157537 -0.013958 0.466578 -0.646852 -0.537481 0.087669 0.462511 -1.226723 0.286125 -0.275831 0.078116 0.931533 -0.174767 0.069937 -0.186923 -0.715082 -0.146428 -0.093156 0.776213 0.506881 0.024161 -0.273473 -0.663073 -0.309898 -0.977003 -0.062815 0.480683 0.015395 -0.033068 -0.680931 0.031483 -0.546709 0.654508 -0.724234 0.176889 0.059245 0.212502 0.291451 -0.858337 0.312525 0.342617 0.040176 1.230969 -0.223159 -0.968408 -0.302259 0.264800 -0.181009 -0.014776 0.867496 -0.038185 0.381884 0.406195 0.319061 0.669285 0.246276 -0.058327 -0.478634 0.385314 0.570373 -0.055665 0.195301 -0.219987 -0.179994 -0.155211 -0.598208 0.124828 -0.028910 -1.056124 -0.080085 0.299501 -0.605879 0.577804 -0.402257 -0.011031 -0.303514 0.138460 -0.728677 -0.692785 0.059735 0.028210 -0.342745 -0.286350 0.171944 -0.891558 -0.653930 0.105566 -0.053207 -0.691747 -0.200521 0.886692 -0.593800 -0.436737 0.193657 0.033038 -0.370602 0.260783 -0.212961 0.277446 -0.070663 0.402772 -0.350464 0.959044
M017_OFF 0.006027 -0.301949 0.462516 -0.387474 0.809766 0.981742 0.886149 -0.219188 -0.441303 0.216748 0.520315 -0.598550 -0.706579 -0.491766 0.126399 -0.388960 1.057863 0.427769 0.080005 -0.837026 -0.948125 -0.270349 0.745506 0.310778 -0.009515 -0.035176 -0.013020 0.537517 0.605474 0.319891 -0.520399 -0.039541 0.919495 0.238287 0.507331 1.618989 0.243485 -0.258256 0.089690 -0.707837 -1.235287 -0.658599 0.164818 -0.388179 -0.965184 0.647532 -0.926353 0.426326 0.884172 -1.272790 0.433535 0.110162 -0.180651 0.590358 -0.879522 -0.965487 -0.590356 -0.326987 0.112038 -0.708905 -0.427667 0.660607 1.124836 0.119528 0.606158 -0.266938 -0.315450 0.529558 0.781914 -0.002651 -0.656287 -0.014271 -0.536039 -0.824037 -0.174821 -1.054189 0.854992 -0.470420 -0.776904 -0.126232 -0.361094 -0.596666 0.489909 -0.324801 0.607221 0.750052 -0.286380 -0.945106 -0.057066 -0.443399 -0.289738 0.290415 -0.049364 -0.461862 0.225168 0.662060 -0.119368 0.218317 0.731665 0.443611 -0.216099 0.863560 -0.620976 -0.275287 0.312507 0.611968 -0.280406 0.148417 -0.114504 -1.151829 0.437421 0.755360 -0.253756 -0.141124 0.824824 -0.057810 0.487841 0.189283 0.091207 -0.567560 0.435640 -0.138884 0.084691 0.215022 0.500257 0.589226 -0.604890 -0.528458 0.097335 0.085146 -0.615685 -0.072535 -0.440148 0.319202 0.518524 -0.781578 -0.624626 -0.810794 0.469125 0.235435 0.426693 -0.065597 0.177564 -0.333201 0.489826 0.192499 0.172544 -1.095905 -0.760601 -0.498021 -1.195751 0.203291 0.466267 -1.318318 -0.823929 -0.109409 -0.774929 -0.441612 -0.474631 0.340527 -0.039911 0.457661 0.392747 1.304156 0.509129 -0.544989 -0.194116 -0.839556 -0.495771 -1.485216 -0.054555 0.994039 0.594842 -0.829184 0.636622 -0.011242 0.623715 0.619605 0.078578 0.253608 -0.461920 1.640030 0.277011 0.853724 0.199463 -0.844403 -0.056012 -0.040202 -0.124631 -0.395498 0.117185 0.322667 0.550287 0.018937 0.237856 0.125379 0.158118 -0.258362 0.225993 0.257891 -0.301054 -0.753190 0.710786 0.122073 0.104421 -0.213953 -0.549422 0.442022 0.815981 -0.969789 -0.437774 0.635956 0.290054 -0.725388 -0.834135 1.214079 -0.614873 0.512792 -0.070426 -0.414484 0.304160 -0.030321 -0.990465 -0.508324 -0.543084 0.435058 -0.620713 -0.438775 0.393682 -0.256767 -0.002284 0.441336 1.138786 0.764180 -0.601197 -1.171101 -0.347075 0.468032 0.571325 0.136428 0.251964 0.600464 0.015908 0.308140 0.016100 0.447030 -0.637098 -0.300278 0.933716 0.105038 -0.331529 0.613480 0.710800 0.479360 0.355862 -0.527018 0.519381 -0.577755 0.047024 0.347737 -0.024465 0.362347 0.240080 -0.757088 0.371278 0.007878 0.078507 0.252075 0.213756 0.553336 0.460400 0.113822 0.268005 -1.046170 -0.446204 -0.590725 -0.267821 0.081585 0.881175 -0.076762 -0.297999 0.112694 0.296740 0.739430 0.057444 -0.850728 -0.229601 0.242318 0.278073 -0.267198 -0.125409 -0.088581 0.623821 0.088528 0.253631 -0.306488 -0.484944 0.473404 -1.246274 0.795224 -0.241679 -0.088146 -0.346181 0.335590 0.094057 0.114557 -0.748671 0.525734 0.559203 0.540508 -1.069021 -0.666875 0.464231 0.288857 0.194468 -0.321166 -0.684205 0.535300 -0.550877 0.043200 -0.358198 -0.049380 -0.410941 -0.146186 0.127709 -1.319616 0.296112 0.209279 -0.182625 1.582276 0.924093 -0.609529 -0.906167 1.242517 0.175157 0.693134 -0.917505 0.069526 -0.474721 0.235947 -0.397395 -0.075649 -0.685984 0.618919 0.721834 0.722910 -0.341351 0.851830 -0.906880 0.595321 -0.311710 0.002359 0.163752 0.096676 0.017752 0.112419 -0.638912 0.460864 -0.333142 -0.655940 -0.328485 0.042535 -0.425728 -0.382990 -0.270939 0.574539 0.420936 -0.267532 0.842809 0.540006 -0.238331 1.342823 0.238178 -1.023503 0.418548 0.749682 0.144885 -0.445698 0.214926 -0.027336 0.859468 -1.232216 -0.136662 -0.352797 1.923817 -0.165016 0.251803 0.303047 0.488431 0.103578 0.148451 0.909861 0.825976 -0.811809 -0.471717 -0.293580 -0.362127 -0.764618 -0.192434 0.292482
M017_ON 1.134194 0.177120 1.184050 -0.447592 1.182213 0.573474 1.033444 -0.835116 0.682758 0.571499 0.203397 -0.679677 -1.580222 -0.819041 0.481324 -0.633459 0.134822 0.356045 -0.855785 -0.224865 -0.950559 0.242785 0.551351 -0.407505 -0.220786 0.871778 0.729760 -0.329289 -0.019216 0.321975 -0.405874 0.293525 1.152843 0.610918 0.466311 0.277259 0.564232 -0.041188 -0.692562 -0.053432 -0.413949 -1.196339 0.340924 -0.293359 0.108804 0.519301 -1.157013 -0.568640 0.775176 -0.587481 0.485199 -0.089394 0.446547 1.004555 -0.288870 -0.197416 0.170843 -0.274637 0.287716 -0.180494 -0.087535 -0.107756 0.726716 0.306995 0.271454 -0.210928 0.240931 -0.796869 0.345050 1.062062 -0.900087 -0.060769 -0.241996 -0.435569 0.032986 -1.016148 0.269278 -0.075880 -0.461611 0.636634 -0.613196 -0.632940 0.002971 -0.790645 0.914670 0.245150 -0.320977 -1.034684 0.144858 -0.700504 0.393440 0.028544 0.044997 -0.653462 0.167447 0.903185 0.153996 0.720877 0.334596 0.322930 0.389762 0.127072 0.083744 -0.220657 0.715231 0.897159 -0.254122 0.264187 0.100110 -0.813948 -0.037076 0.359563 -0.164932 -0.031613 0.033490 0.340177 0.264409 1.092041 0.079920 -0.056846 -0.256832 0.753810 0.278743 0.805120 0.182015 0.760542 -0.093945 -0.280921 -0.036506 0.495277 -0.218393 -0.437299 0.403922 -0.026665 0.049429 -0.018205 -0.495897 -0.964156 0.656426 -0.199667 0.181677 -0.531712 0.008076 -0.896399 0.590338 -0.004574 -0.374454 -0.997239 -0.673288 -0.790015 -1.039154 0.373985 0.032678 -0.935090 -1.383215 0.160594 -0.275692 0.720540 0.023605 0.686394 -0.109452 0.100157 0.486591 0.482446 0.611393 -0.382382 -0.215786 -0.913526 -0.995908 -0.792292 0.312703 0.825937 0.138853 -1.068331 0.053897 -0.728973 0.348665 0.272108 -0.720314 0.250442 -0.421713 0.926116 0.020199 0.793235 -0.363667 -0.220257 0.653852 0.345655 -0.489411 0.035688 0.150532 0.341948 0.628534 -0.134450 0.659107 0.056139 0.291705 -0.315503 0.334918 -0.237106 -0.021930 -1.046448 0.332076 0.689819 0.513252 -0.570219 -0.545771 0.330827 0.839756 0.181966 -0.875678 0.824387 0.651863 -1.206456 -0.874236 1.820190 -0.032092 0.391604 0.395287 -0.426924 0.624224 0.187407 -0.833968 -0.584549 -0.444659 -0.130328 -0.651323 0.515816 -0.135615 -0.328778 -0.592359 0.690124 0.460341 0.478595 -0.401848 -0.965567 -0.033440 0.513401 -0.031925 -0.046908 0.415845 1.111685 0.198488 1.558779 -0.414270 0.396985 0.182280 -0.219460 0.575695 -0.422910 -0.205901 0.678650 0.894436 -0.752717 -0.269003 -0.687099 0.711109 0.113552 0.156189 0.161939 -0.472568 0.368563 -0.063308 -0.425009 0.240230 -0.276443 0.869353 0.547718 -0.102370 -0.147002 -0.010078 -0.002902 1.021809 -0.903395 -0.806545 -0.390232 -0.540774 -0.164471 0.861835 0.332470 0.373164 0.427272 -0.076427 -0.009102 -0.274606 -0.090712 -0.714597 -0.294041 0.638448 -0.220256 0.816065 -0.656461 0.264780 0.046954 -0.278470 0.316662 -0.347904 0.274967 -1.194637 0.511642 0.026354 0.293887 -0.066723 -0.072370 0.270240 0.243548 -1.080022 0.791460 0.592722 0.435923 -0.526608 0.280899 0.195450 0.198958 0.233097 -0.067442 -1.051918 -0.071025 0.077912 -0.102790 -0.074897 0.152538 -0.627402 -0.130946 -0.179288 -0.988754 0.283605 -0.172486 -0.424441 1.194836 0.207771 -0.155331 -1.311475 0.872081 -0.384858 0.124731 0.018219 0.443300 -0.569803 0.264246 -0.244027 -0.161679 -0.921446 0.002752 0.600391 0.386278 0.089205 -0.151175 -1.151893 0.507936 -0.250815 -0.425461 -0.412700 0.027763 0.117980 -0.909559 -0.798189 0.803425 -1.346382 -0.377939 -0.312814 0.504353 0.175413 -0.635818 0.306318 0.055791 0.734362 -0.851294 0.107021 -0.214340 -0.317398 0.828784 -0.250499 -0.266510 0.068325 0.353825 0.199619 -0.196860 0.359618 -0.073322 0.489652 -0.454673 0.214492 -0.159830 -0.053514 0.130062 -0.055999 0.159953 -0.049064 0.715289 0.168918 0.834972 0.139814 -0.141584 1.406338 0.137561 -0.593089 -0.024065 -0.120032 -0.284673
M010_OFF 0.174562 -0.261219 0.096021 0.358980 -0.906381 0.467255 0.474323 -0.681180 0.443128 -0.381929 0.020187 -0.194518 -0.146659 0.194122 -0.468590 -0.302208 0.085989 0.096755 0.066282 0.422965 0.357766 -0.016168 -0.001968 0.368573 -0.433921 0.070195 0.605282 0.007284 0.394369 0.236199 1.456144 0.689936 -0.697638 -0.746284 0.443330 0.814630 -0.075884 -0.232373 -0.443891 -0.656865 -1.300898 0.540940 -0.086287 -0.891702 -0.894271 -0.691146 -0.364197 1.012030 0.565095 -0.608491 -0.182750 0.011342 0.409409 -0.118937 -0.038322 -0.008353 0.251205 -0.229839 -0.738345 0.081035 -0.512740 0.390126 0.477801 0.092661 -0.373531 -0.210042 0.362307 0.184993 0.626207 0.904670 0.551160 -0.087055 0.573883 -0.662430 0.214884 0.856112 -0.018216 -1.206730 0.456937 -0.034638 -0.166899 -0.644494 -0.134040 -0.269632 0.434025 -0.033879 0.519116 0.286125 -0.128381 -0.483663 -0.183240 -0.002015 -0.383813 0.339993 -0.357101 -0.039685 -0.285236 -0.616579 -0.200397 0.284866 -0.070187 -0.151275 0.104746 -0.197716 -0.370985 0.174239 0.202904 0.024334 0.322327 0.727114 -1.078538 -1.311802 0.032020 0.625227 -0.714633 -0.900797 -0.823467 -0.290112 0.261504 0.227265 0.510468 0.081549 -0.442381 0.569668 0.346884 -0.095582 0.382258 -0.160452 -0.881236 -0.203873 0.210237 0.586517 0.477658 -0.472651 -0.941412 0.526830 -0.640154 0.183267 -0.013871 0.055550 0.573069 1.089255 -0.750749 0.014266 -0.084486 -0.405252 -0.226624 0.258046 0.297634 -0.271444 0.603338 0.698299 0.828605 -0.011531 0.543006 0.092130 -0.179900 0.052645 0.612884 0.029745 -0.708083 -0.615975 -0.837179 0.683627 0.460814 0.104468 0.137224 -0.132096 0.796287 0.045990 0.615995 0.900482 0.103449 0.568048 -0.589082 -0.066717 0.317687 -1.111599 0.625187 0.462231 0.669896 0.442333 0.020154 0.035927 0.584088 0.194417 -0.046914 0.561184 -0.141285 -0.000166 -0.356853 -0.366471 -0.790124 -0.295447 -0.130687 0.782052 -0.345797 -0.859098 -0.253976 -0.833987 0.077165 0.087990 -0.790096 -0.444519 0.016482 0.156813 0.011677 -0.687527 -0.560227 0.955530 -0.104461 0.056931 -1.088257 -0.608919 -0.356626 -0.296404 -0.182403 1.201958 -0.052196 -0.278029 0.143339 0.163526 0.077785 -0.175573 0.154429 -0.294633 -0.282232 -0.456246 -0.776548 0.166308 0.478778 -1.129155 -0.688317 -0.414240 0.134849 0.404924 0.306822 -1.202115 -1.213909 -0.010411 -0.413747 0.235514 -0.280306 -0.600692 -0.295884 0.062586 -0.228730 0.681199 -0.114037 1.623294 -0.125158 -0.550172 0.380736 -0.059888 -0.802573 -0.272843 -0.116444 0.246990 0.428902 -0.256836 0.266094 0.728365 -0.053254 0.199359 -0.263763 -0.107981 0.120795 -0.201928 -0.448388 -0.799573 -0.228033 0.925611 0.007535 0.243836 0.211391 0.070696 0.291822 0.026221 0.115963 -0.133698 -0.745471 -0.025379 -0.415982 -0.688096 -0.181026 0.536017 0.331609 0.165093 0.338562 -0.127273 0.165038 0.385508 0.379367 -0.347150 0.885294 0.212191 0.045728 0.204429 -0.016989 0.444054 0.268651 0.089880 -0.434421 0.208169 -0.481745 -0.333724 -0.243203 -0.353673 -0.724847 -0.543855 0.406468 0.189830 0.142274 0.659069 0.183659 0.159999 0.208561 -0.356425 -0.593625 -0.804655 0.837222 0.244606 0.278538 -0.206832 0.565035 -0.919416 0.287265 0.294683 -0.691943 -0.789157 0.002358 0.224954 0.900364 -0.042501 0.134994 0.224741 0.228285 -0.200753 -0.699243 -0.426396 1.263835 0.060932 -0.574706 0.294926 -0.316978 -0.666018 0.857955 -0.543243 0.618246 -0.986572 0.329173 -0.285046 1.030223 -0.066086 -0.072006 0.562395 -0.220526 0.157595 -0.113383 -0.190028 0.187750 0.298302 0.352864 1.062659 0.376291 -0.074092 0.308642 0.238166 0.260418 -0.440440 0.140357 -0.425472 0.023671 -0.584713 -0.027379 -0.626854 0.250483 0.164496 0.086118 -0.040379 -1.112677 0.665086 -0.247945 -0.221332 0.155514 0.156648 -0.288361 -0.837704 -0.400031 0.528066 1.200845 1.567432 -0.692923 0.295179 -0.031453 -0.006048 0.140439 0.069961 0.245807 0.794225
M010_ON 0.699378 0.702284 -0.208011 -0.670332 -0.261401 0.564887 0.252077 0.168859 0.090840 -0.335750 0.413082 0.111434 -0.460992 1.084934 -0.127372 -0.019924 0.032825 0.720222 0.549388 0.158362 -0.002429 -0.592678 -0.804135 0.255671 -0.171214 0.260324 0.155528 0.255570 0.291855 0.026052 1.702209 0.468720 -1.276964 -1.539571 -0.930252 -0.382725 0.670983 0.394129 0.330138 -0.931572 -0.716058 0.056683 -0.780707 -0.765992 -0.483708 -0.644099 -0.253988 0.378375 0.375575 0.105061 -0.149687 -0.380441 0.767427 0.014875 0.779984 0.347173 0.910999 0.516688 -0.078170 0.045867 -0.564303 -0.121152 0.121688 0.240420 -0.203364 0.479904 0.522827 0.123859 0.033638 0.785989 -0.276445 0.328926 0.925599 -0.413713 0.430123 0.322218 0.261235 -1.067878 0.206761 -0.043569 -0.206013 0.269435 0.467719 -0.145073 -0.049558 0.923258 0.994450 0.712683 -0.111710 0.195686 -0.210344 -0.125723 -0.140323 -0.559007 -1.045657 -0.108305 0.144314 -0.331788 -0.370402 0.337810 -0.043911 0.387176 -0.031731 -0.139328 -0.048493 0.355216 0.336494 0.387985 0.112957 0.166921 -0.900446 -0.757754 -0.221440 0.430712 -0.440549 -1.053070 -0.052078 0.020021 0.668991 0.027158 0.196389 0.288081 -0.122503 0.737465 0.379329 0.319211 -0.121092 0.325825 -0.230039 -0.356274 -0.255026 0.600932 1.219699 -0.479471 -1.492794 0.194488 -0.544578 -0.375159 -0.003039 0.112317 0.191758 0.090713 -0.591512 -0.379934 -0.708950 -0.189274 0.106887 0.162749 0.329203 -0.298801 -0.061686 0.668964 0.952916 -0.137726 0.734781 0.344827 -0.364257 -0.455322 0.450541 -0.112351 -0.966972 -0.918002 -0.316543 0.959678 0.728251 0.071866 0.230655 0.814995 0.416142 -0.181473 0.390655 1.211689 -0.043661 0.744154 -0.074731 -0.140345 0.618937 -1.064370 0.940007 -0.003559 -0.446132 0.240317 -0.198116 -0.164018 0.112800 0.208631 0.712012 0.191898 -0.374596 0.444700 -0.335294 -0.530643 -0.522323 -0.043234 0.189307 0.402007 -0.380181 0.021015 -0.261677 -0.675236 -0.003290 0.444356 -0.652781 -0.570347 0.382459 0.043270 0.505481 -0.402930 -0.022635 0.608776 0.221557 -0.434450 -0.524883 -0.756445 -0.222791 -0.027142 -0.094059 0.801516 0.360109 -0.041307 0.550303 0.506164 0.149881 0.204168 0.328576 -0.516153 0.218321 -0.400259 -1.144372 0.137745 0.340780 -0.529376 -0.449524 -0.170327 0.735141 0.376987 -0.066775 -0.697058 -0.933896 0.193812 -0.260834 0.024595 0.009664 -0.664930 0.062173 -0.501409 -0.351728 0.484967 -0.441172 1.370579 0.392667 -0.272180 -0.273867 0.530077 -0.582284 -0.294330 -0.415624 -0.459513 0.279266 -0.219086 -0.336505 0.286831 -0.793760 -0.184822 0.091153 -0.293931 0.031059 -0.227143 -0.362380 -0.479447 0.076290 -0.173343 -0.038716 0.612753 0.368871 0.595558 0.107259 -0.038330 -0.262844 -0.063569 -0.633601 -0.390992 0.077636 -0.346544 0.071467 0.329474 0.635533 0.490439 0.709208 -0.207924 0.062845 0.504030 0.341909 0.159807 0.296837 1.113813 -0.163240 -0.194289 0.021693 0.606237 0.471315 0.045918 -0.141762 -0.075627 0.089665 -0.061709 -0.243742 0.143114 -0.684534 -0.588169 0.527104 -0.381115 0.410548 0.464875 -0.364439 -0.045737 0.006329 -0.164977 -0.805701 -0.776697 0.869185 0.366426 -0.272686 -0.331017 0.227492 -0.773367 0.463769 -0.509697 -0.885455 -0.503529 -0.016803 -0.411875 0.568869 -0.222334 0.241720 0.721455 0.049386 0.050419 -0.148202 -0.883547 1.221076 -0.794309 -0.457854 0.032773 -0.269951 -0.590252 0.780010 -0.329261 0.608755 -0.932326 -0.085327 -0.084904 0.250857 -0.055087 -0.079114 0.212232 -0.041107 -0.042980 0.674400 0.072081 -0.229492 0.573972 -0.023603 0.343918 0.143343 0.425153 0.740818 0.337644 -0.043198 -0.426984 -0.236493 -0.450810 -0.044595 -1.080067 -0.192668 -0.687020 -0.495315 -0.385443 0.134518 -0.137645 -1.144601 0.262432 -0.253758 0.426803 0.375745 0.078353 0.045243 -1.239771 -0.130125 0.709352 0.566466 1.511775 -1.061296 0.440673 -0.319565 0.348889 -0.494286 0.664728 0.096598 0.373018
M021_OFF 0.119637 -0.599928 0.347730 0.313661 0.148976 0.274522 -0.309513 0.185661 -0.500951 -0.586868 0.307713 0.239504 0.450860 0.516150 0.463088 0.316848 1.513145 0.187546 -0.875179 -1.359944 -0.420612 0.011455 -0.246632 -0.708829 -0.100698 0.351225 -0.769582 0.564704 0.972236 0.568725 -1.691069 0.060822 0.539083 0.313272 1.258358 -0.195977 -0.321345 0.294491 -0.908122 0.256546 0.173124 0.043565 0.062485 -0.005764 0.513926 0.184140 -0.239968 0.278598 0.009267 0.650479 -0.788722 0.457761 -0.314029 0.168270 -0.067041 0.263499 -0.350760 0.542614 0.400579 -0.297096 -0.492096 -0.244816 -0.912609 0.604267 0.827060 0.611870 -0.089870 -1.283462 0.919358 -0.655925 -0.040372 -0.344241 -0.408332 0.934352 -0.030177 -0.386107 0.003445 0.062767 -0.215185 1.249039 0.859589 -0.760468 0.321511 0.062403 1.419674 -0.425906 0.119860 -0.721904 -0.823628 -0.033274 0.451871 0.420856 0.131902 0.017979 -0.275307 0.240720 -0.223276 -0.269635 0.312276 0.052154 -0.188554 0.409431 0.060447 -0.645047 0.192226 0.341168 0.777532 0.900820 -0.615652 -0.916142 0.377435 -0.195369 0.243433 -0.540657 -0.711806 0.363753 0.187724 0.269294 0.028887 0.590539 -0.687414 -0.601449 0.232510 -0.751862 -0.131884 -1.081326 -0.521412 -0.419516 0.023519 -0.438442 -0.076833 0.234211 -0.461989 -0.394037 -0.298094 0.100138 -0.385338 0.241596 -0.308883 -0.188786 -0.909411 -0.565602 -0.269318 0.618509 0.178723 0.276321 -0.260142 0.136801 -0.073397 0.379845 -0.181168 -0.161303 -0.491217 -0.121929 -0.047068 0.658092 0.412233 -0.999136 0.067924 -0.224565 0.498880 0.409246 0.840275 -0.435942 0.102701 -0.281764 -0.023453 -0.328781 0.193699 0.602445 1.158840 -0.674826 -0.660422 0.296518 -0.471789 0.231953 -0.385427 -0.722150 0.956664 -0.358866 0.462894 -0.129590 0.001432 -0.089805 0.034520 -0.314811 0.268102 -0.022659 0.759146 0.635475 0.007297 0.727235 0.820118 0.463179 0.226666 -0.624963 0.507011 0.001690 0.040715 0.026340 -0.545895 0.394873 -0.286883 -0.004746 -0.413646 0.989319 0.287342 0.074621 -0.452326 0.445763 -0.734903 0.398551 -0.618546 -0.206541 0.067659 -0.071454 -0.167738 -0.425106 -0.973971 1.073408 -0.139228 -0.409203 -0.146970 -0.584088 -0.103345 0.630081 1.325359 0.117142 0.789298 -0.194234 -0.517824 0.549341 0.304708 -0.199636 0.539084 -1.045568 0.346631 0.968372 0.414568 -0.474467 0.265322 -0.665392 0.487920 -0.188644 -0.723508 -0.358303 -0.215350 0.441293 1.116995 -0.238788 0.741486 -0.133744 0.502833 -0.236569 -0.421451 -0.061155 0.081134 -0.287060 -0.165120 0.124187 -0.359075 0.587733 0.296803 0.320788 0.493260 -0.652400 0.585452 -0.394962 0.567057 0.531142 1.414527 0.123275 -0.724369 -0.158219 -0.438868 0.539777 -0.217741 -1.171826 -0.697687 -0.258708 -0.046079 -0.243397 0.347128 0.644774 0.388557 -0.069165 -0.366642 -0.066133 0.736178 0.094467 -0.528277 0.140847 -0.098770 0.123840 0.162017 1.416785 0.425246 -0.034328 -0.133951 0.026458 -0.114124 0.392345 -0.003179 -0.675484 -0.006024 -0.025015 0.297138 0.067127 0.019852 -0.990904 0.314326 0.027563 0.423281 -0.068483 0.201821 -1.171816 0.490095 0.686166 0.366899 -0.020373 -0.593188 0.157090 -0.504248 1.789942 -0.378832 -0.179257 0.159120 0.404072 0.423227 0.151374 -0.694523 0.456177 -0.867175 -0.096208 0.429430 -0.472332 -1.103475 -0.151933 0.455971 0.407204 -0.290894 0.052496 -0.516463 0.456076 0.207322 0.037480 0.128429 0.551182 -0.701361 0.383577 -0.470462 -0.849971 -0.167546 0.179557 0.721115 -0.693920 -0.030587 -0.411103 -0.138762 -0.308543 0.144380 0.048174 -0.240034 -0.265832 -0.252477 0.478254 -1.079556 -0.714722 0.265901 0.382745 0.227099 -0.385700 -0.197172 -0.379946 0.015777 -0.114446 0.359856 0.131438 0.565649 0.217813 0.474688 0.295698 -0.845235 0.280636 0.324985 0.217007 -0.515335 0.220462 0.344589 1.228987 -0.919267 -0.532278 0.600186 -0.508153 0.581447 -0.294386 -0.365169 0.548491 -0.166245 -0.917401
M021_ON -0.037041 -0.169619 1.009068 -0.904699 -0.653369 -0.685279 0.333703 0.185910 -0.203105 -0.247505 -0.057211 0.755559 -0.351624 -0.954677 1.169670 0.280982 0.356619 -0.556484 -0.157318 -0.104288 -0.674134 0.349102 1.290976 -0.386309 0.690045 1.187357 0.228230 0.757352 0.107705 -0.240426 -2.065760 0.441611 1.706306 1.065884 0.797175 -0.256188 -0.565892 0.277089 -0.227346 1.261813 0.810344 0.133296 -0.236744 0.461982 1.260809 0.615983 -0.351831 -0.388138 -0.383457 0.662079 -0.112208 0.381280 -0.142972 -0.438065 -0.421340 -0.102230 -0.737463 0.136733 0.677505 0.930967 0.538545 -0.286163 -0.449861 -0.102226 0.111519 0.424988 -0.165243 -0.066244 -0.065393 -1.062676 0.006440 -0.213234 -0.703415 0.272315 0.218627 -0.222210 -0.439575 0.466205 -0.439934 0.423136 0.133622 -0.143372 -0.250947 0.305486 1.159741 1.245687 -0.408666 -0.632070 -0.543028 -0.605052 -1.568214 0.178740 -0.251242 -0.893763 -0.325812 -0.028857 0.364329 0.944275 -0.539263 0.599247 0.561542 0.134548 0.486170 -0.169654 -0.625658 0.645935 0.380122 0.002464 -0.846954 -0.949855 -0.881080 2.064706 0.259538 -0.570359 0.008920 0.599913 0.028340 0.255886 -0.647876 0.038594 0.366262 0.352507 -0.027970 0.812159 0.280424 -0.564599 0.226252 -0.153042 0.087330 -1.168952 -0.071226 -1.608436 -0.431249 0.128647 0.088011 -0.417130 -0.362194 0.143249 -0.292181 -0.201765 -0.490793 -0.373546 0.033998 -0.166547 0.727517 0.480852 -0.252627 -0.362435 -0.916575 0.608715 -1.051602 1.609008 -0.027630 -0.228587 -0.131483 -0.056097 0.047257 0.712404 0.390050 0.141701 0.164932 0.312471 0.005884 0.983462 -0.876079 -0.225419 -0.052711 0.734518 -0.118060 0.089359 -0.736415 0.163325 -0.035401 -0.410210 -0.158255 0.605614 0.431638 -0.203784 0.600821 -0.789626 0.471133 0.072273 -0.045222 -0.201634 0.627604 -0.628655 1.024190 0.490768 1.001638 0.526732 -0.194103 -0.210213 0.249469 -0.669440 0.495107 0.231001 0.307054 -0.029127 -0.202472 -0.769142 1.151732 -0.245766 0.051616 0.041966 -0.451643 0.710336 -0.292367 0.056800 -0.343803 0.267020 -0.304908 0.012736 0.341304 -0.216239 0.747941 -0.237518 0.789306 0.321192 0.302887 0.129892 -0.231243 0.175643 0.702844 -0.081954 -0.780313 0.554381 0.050965 -0.258741 0.070491 -0.219877 0.081449 -0.407937 0.483378 0.779222 0.327832 0.275504 -1.015420 -0.613271 0.384690 0.952047 0.620818 -0.230926 -0.030149 -0.762428 0.385211 -1.030055 -0.035321 -0.737700 -0.888143 0.170147 -0.325348 0.559163 -0.390854 0.553339 1.146687 -0.114823 0.197576 -0.915374 -0.209013 0.343362 0.547372 -0.087387 -0.667521 -0.027801 0.566369 0.567350 0.006122 0.556049 -0.508737 0.455801 -0.270919 -0.687748 0.344433 0.275550 0.467933 -0.313962 0.591691 0.187486 -0.364930 0.017841 1.043924 -0.524399 -0.477815 0.346669 0.359941 0.093002 -0.168792 0.094216 -0.357298 -0.601663 -0.944580 1.210383 -0.812744 -0.618787 0.275759 -0.548734 0.048587 -0.464260 -0.131007 0.049722 -0.390660 0.626366 0.064422 -0.737456 0.574541 -0.338268 1.136502 0.122841 -0.470407 0.179804 -0.239878 -0.667283 0.410159 0.898028 -0.298132 0.365885 -0.181348 0.118623 0.930177 -0.334137 -0.445545 -0.021065 -0.304927 -0.328361 -0.234730 1.180398 -0.231125 0.251094 -0.244934 1.014811 0.216264 0.432712 0.548184 1.025067 0.042914 -0.592991 -0.170578 0.185980 -0.146016 -0.263691 0.146559 0.572271 -0.101029 0.154988 -0.286568 0.160720 -0.141547 0.254707 -0.514108 -0.010154 0.287261 -0.443567 0.166439 0.011806 -0.189254 -0.866826 0.487484 0.028863 0.047126 -0.309862 0.398457 -0.489758 0.507526 0.063032 -0.291518 -0.099110 -0.190021 0.052581 -0.444045 0.298787 -0.235223 -1.188587 0.069035 0.100846 0.338018 0.610766 -0.592359 0.599209 0.399722 -0.215153 0.195950 -0.473416 0.136249 0.292177 -0.136630 0.674120 -0.626867 -0.122873 -0.100394 -0.700672 -1.109287 -0.230976 0.343996 -0.153775 0.302775 0.784249 0.334471 0.532674 0.209850 0.595570
M003_OFF -0.913093 0.847188 -0.645664 1.847232 -1.257188 -0.022129 -1.130624 -1.381912 0.272952 0.273759 -0.101357 0.139344 -0.295874 0.213478 -0.288469 0.090936 -0.408049 0.745293 0.660100 -0.527750 1.093287 0.562055 -0.240957 0.101964 0.168044 -0.369887 0.026765 0.220346 -0.615235 -0.361950 -0.022960 -0.154525 -0.167218 0.912715 0.601631 -0.371783 -0.330425 -0.494759 0.737931 0.805670 0.324557 0.009983 0.513525 0.548607 0.270289 0.116590 -0.123381 0.031201 -1.058526 0.050339 0.035943 -0.562649 0.119949 -0.279290 -0.160611 0.207247 0.100186 -0.360458 0.028477 0.384220 0.411767 0.046860 -0.035824 -0.470389 0.730725 0.025965 0.187721 0.626958 -0.219235 0.181831 0.445982 0.229904 -1.255684 1.293888 -0.298700 0.354895 -0.239845 0.191158 0.021537 -0.103077 -0.374170 0.369380 -0.162442 0.178925 -0.389503 -1.024607 -0.077834 0.688187 -0.278692 -0.476532 1.320362 -0.034567 0.056012 0.218637 0.998304 0.769784 -0.301953 -0.089175 0.332176 0.300062 -0.067890 -0.270558 -0.827881 0.721262 0.297333 -1.419926 -0.141812 -0.594845 1.005625 0.611770 0.422809 -0.670572 -0.145268 -0.086362 0.306752 0.123596 0.958267 -1.016938 -0.894658 0.914238 -0.140099 -0.329767 -0.249803 -0.815897 -0.322084 0.309429 0.529418 0.164341 -0.001357 0.900811 -0.405328 0.743755 -0.758191 0.910729 0.664782 0.475292 0.399268 0.046086 -0.645605 0.096953 -0.295457 0.434247 0.164750 0.204637 0.202210 -0.140043 0.446928 0.206790 0.420434 0.106578 -0.094222 -0.709570 0.201580 -0.477571 0.714994 -0.004505 0.389964 -0.191848 0.444119 0.009612 -0.195082 -0.610204 -0.019541 -1.352322 -0.079399 -0.460849 -0.022588 -0.594175 0.316800 -0.302886 -1.145185 -0.226961 -0.257377 0.518830 0.553315 0.037364 -0.065548 1.158032 -0.331731 -0.912986 0.260280 -0.494062 0.753101 -0.442920 -0.831501 0.177307 -0.610006 -0.521867 -0.121101 0.601819 0.071892 0.201936 -1.104436 0.192505 -0.020430 0.593324 0.026701 -0.727318 0.460520 1.143590 0.193653 -0.466693 -0.064828 0.637079 0.600339 -0.895491 0.116847 -0.412840 1.252800 -0.223786 0.134038 -0.148170 -0.250441 0.600968 -0.179836 -0.561208 0.691059 0.092394 0.004625 0.134853 0.349892 0.564492 0.567112 0.596472 -0.435558 -0.052725 -0.938375 0.245244 0.289784 1.270310 -0.124423 -0.464578 -0.642240 1.044660 -0.343075 1.168012 0.189174 0.245191 0.342995 0.096440 -0.583273 -0.213766 -0.272155 0.282778 0.063351 -0.176446 0.211869 -0.503079 -0.919935 -0.369659 -0.105485 -1.197039 -0.291310 -0.264530 0.313760 0.633889 0.452003 0.664329 0.322172 0.018631 1.135789 -0.069864 -0.311903 -0.294326 -0.790593 0.016500 -0.546567 -0.818261 0.571267 -0.945624 0.189000 -0.174225 -0.188869 -0.353578 -0.946724 -0.469392 -0.649626 -0.644125 0.583069 -0.462899 -0.222917 0.535202 0.893750 0.034789 0.452092 0.014153 0.487364 -0.525540 -0.025912 0.731595 0.459254 0.008831 -0.032594 0.233112 0.193644 -0.261711 0.156880 0.493944 0.164869 -1.009987 0.875989 0.145095 0.453130 -0.002296 0.902755 -0.452982 -0.220544 0.146915 0.076782 -0.526839 0.705932 0.239520 -0.729872 -0.877956 0.902045 -0.516964 0.659503 -1.057420 0.070321 0.472791 -0.519162 -1.024760 1.378777 -0.979818 0.391798 -0.095988 0.340534 -0.115917 -0.088442 -0.856182 0.013445 -0.677198 0.817850 -0.593804 0.087916 0.376148 -0.279149 -0.372073 0.543213 0.257696 -0.038030 0.234215 0.053882 -0.061601 -0.525819 -0.025894 -0.254759 0.082181 -0.126688 -0.391932 0.611596 1.356594 0.355724 1.260318 0.219967 -0.235062 -0.575684 -0.216415 0.369590 0.060856 0.394422 1.372775 -0.684394 0.993870 -0.824936 0.217635 0.197137 0.268369 0.152476 0.123273 -0.705388 0.753385 0.551372 0.711504 -0.101646 -0.093980 0.580782 -0.455144 0.217229 -0.431122 -0.039951 0.118645 -0.295265 -0.489994 0.151500 -0.856571 0.819718 0.308923 -0.070929 -0.986598 -0.216260 -0.563688 -0.510036 0.937537 -0.540815 -0.365349 -1.089425 0.100729 -0.528213 0.549423
M003_ON -1.057142 0.486752 -0.083843 -0.156745 0.984621 -0.292875 -0.650112 1.170533 -0.211571 0.602242 0.425942 0.310085 -0.353364 -0.123950 -1.175900 0.804397 -0.977041 0.288413 0.604554 0.245721 1.447720 0.824673 -0.104044 -0.431117 -0.275365 -0.830887 -0.082290 -0.274235 -1.003863 -1.057398 0.681358 -0.594353 -0.955523 0.419258 0.227441 -0.123974 -0.427506 -0.728572 0.667673 0.592096 -0.116041 -0.331607 0.894800 0.167062 0.356211 0.063058 -0.384811 0.573392 -1.285128 0.119416 -0.393865 -0.184893 0.013568 -0.197730 -0.005097 0.137022 -0.684264 -0.947212 -0.425556 -0.223125 0.103070 0.397381 -0.175194 -0.789732 0.546401 0.034692 -0.207115 0.228651 -0.393178 0.547070 0.557272 0.416001 -0.730137 0.845867 -0.720347 0.516734 -0.745372 0.137917 -0.082077 -0.544202 -0.172846 0.186980 -0.192653 0.710417 -0.604923 -1.117028 -0.086619 0.749587 -0.422139 -0.412537 0.786990 -0.070147 0.055428 0.303076 1.218989 0.261118 0.314809 0.011895 -0.117863 0.148656 0.008968 -0.402649 -0.582855 0.325663 -0.114450 -0.981994 -0.034480 -0.559808 0.566962 0.584291 0.046381 0.101415 -0.239438 -0.152361 0.038041 -0.193356 0.561177 -0.898622 -0.842954 0.700813 -0.625931 -0.089512 -0.197472 -1.197150 -0.304176 0.110326 0.406824 0.186662 0.430422 0.532176 -0.006447 1.397770 -0.492076 0.362206 0.596736 0.467776 -0.086687 0.290610 -0.642483 0.090942 -0.588246 -0.295502 -0.455544 0.541490 0.334240 -0.237544 0.438249 -0.196121 0.906791 -0.054068 -0.118649 -0.483140 0.122533 -0.031052 0.756137 -0.260635 -0.174592 -0.407236 -0.052504 0.181934 -0.338045 -0.005829 0.338779 -1.116939 0.272879 -0.676468 -0.854678 -0.479282 0.351400 -0.093651 -0.870794 0.040736 -0.552694 -0.026656 0.583409 -0.040083 -0.117867 1.077451 -0.645836 -1.157857 0.027718 -0.502717 0.708484 -0.465734 -0.515383 -0.287445 -1.114825 -0.551130 -0.520716 0.117869 -0.318998 1.076341 -0.548467 -0.149851 0.377405 0.973981 -0.007449 -0.987682 -0.081791 0.831446 0.328703 -0.516674 -0.192679 0.491926 0.879857 -0.965039 -0.470438 -0.289955 0.874816 -0.370701 -0.211586 0.591443 0.173957 0.312806 -0.098506 -0.248912 0.596704 -0.693794 0.471439 -0.027999 0.150593 0.183343 0.821959 0.416935 -0.271370 -0.235795 -0.861521 0.994762 0.569797 0.781143 -0.963895 -0.021303 -0.335439 1.244022 -0.611221 0.951873 0.866007 0.476618 0.624388 -0.065846 -0.213129 -0.064174 0.322071 0.342259 0.524249 0.425527 0.356153 -0.969088 -1.395338 -0.434700 -0.941324 -1.417698 -0.559202 -0.722399 -0.043166 0.657805 0.122301 0.836613 0.852666 -0.435083 1.054614 -0.209799 -0.221435 0.113016 -0.841189 -0.536777 -0.295915 -1.014922 0.322797 -0.914247 -0.761443 -0.415921 -0.219339 -0.884090 -0.850420 0.196484 -0.189331 -0.477202 0.275689 -0.845944 0.169425 0.630171 0.383551 -0.124565 0.306888 0.521340 0.350452 -0.036994 0.268201 0.397178 0.402060 -0.323461 -0.002452 0.009828 -0.094221 -0.102916 -0.202522 0.496499 0.113732 -1.020426 1.018232 0.309739 0.845399 0.136495 1.072205 -0.318750 -0.170869 -0.037271 -0.302521 -0.290711 0.562894 0.539946 -0.218049 -0.989848 -0.105426 0.114642 -0.026027 -0.740106 -0.398098 0.758459 0.157068 -0.458125 0.843641 -1.104197 0.596671 0.067636 -0.139461 -0.267953 0.292863 -0.942926 -0.497397 -0.157234 0.447030 -0.372506 -0.282328 -0.097527 -0.298135 -0.162824 0.292753 0.100386 0.297439 0.333510 0.479035 -0.030472 -0.402919 -0.131522 -0.644445 -0.508415 0.347973 -0.118671 0.844149 1.288644 0.602444 0.997868 -0.051673 -0.148532 -0.465258 0.367538 0.327980 -0.142322 1.006831 1.062812 -1.135230 0.631310 -0.460274 0.535408 0.695899 -0.045020 0.339974 -0.678486 0.269560 0.930117 -0.201001 0.320164 0.034399 -0.369078 0.006769 -0.875761 -0.353698 -0.127592 0.083651 0.179125 0.903263 0.469615 0.295337 0.866933 0.267120 0.490520 0.215256 -0.257259 -0.474280 -0.332035 -0.180308 -0.068014 -0.433221 0.164125 0.080409 -0.543205 -0.563850 0.666262
